   0    2  -82  -42    3  -80  -34 -124   80   39  -55  -85  -29   36  -57   48   15 -116  -28   70  -19   51   26  -14
  -9   47  -20  -15   -9   23   17  -13  -14   -5   23   31  -39   12  -23    4  -33    6   19   26   17   12  -22  -12
   4  -26   36   12   -2  -18   -3  -30   24  -29   34   60  -14   30  -35   -6   -7  -13  -53  -29  -13   15   21   -1
  65  -36    0  -29   -9  -18   28   -8   22   36   22  -17  -36  -17   13   41   11   15   28   -9   44  -34   -2   30
  -4   32   15    2    4   -1    8   12  -10  -23    1  -24  -13  -11   -7   13   -7  -15   14   -1  -20  -12  -14   29
  28  -23  -38   -6  -66   24   62  -17   62   -7  -38  -42  -13  -22  -10   22    6   22  -52  -36   35   62  -65   27
  13  -21   -7   14  -15   49  -14   15   -2  -20   34   70   33  -22   23   25   18  -32   -3   21  -26    4   -3   -5
 -27   10  -34   -6   14   -7   -7   15   63    4   -8  -34   49   28    2   -5  -43   71   11   34    2  -24   30  -13
  10    7   20   16   12  -21  -14  -19  -14   27   30   17   15    6   23    8   22    4   79   18   16  -34   21   11
 -13   -2   -6  -16    4   -7    1    7  -12  -10  -26   57   -1    3   28   -6   -8    8    0   -5   11   -5    5   19
 -22  -13    5    1   -2    6  -25   17    4  -18    2   30   13    3   27    9   12    2   18    7    6   -7  -48   15
 -13  -33   -4  -11   -7   27  -20   -9   12   -3   -3   59   28    3   15  -11   -5    2   -2   -4   23    1   -2   -8
   8    5  -11   -2   13    3   29    9  -19   20  -18   10  -38   18   22   21    0  -11   19  -16   15  -54   -2  -16
  26   39   -7  -23   -1  -29   13  -31  -18   11  -31  -28  -35  -18  -47   22   -4   -1    0    7  -37   31   35   16
  -2    5   -3   -7   -2  -13   12    8  -13   12  -28   58  -13    8   43   10  -30   22  -36  -10    2   16   24   -3
   6    3   20   46   24  -19   81   51    8   13   46  -45   -4   50   -2  -12  -41   -5   17   16  -11   67   50   87
 -10   68  -17   -7   30   -2   40   -2  -20  -17   21   25  -53   42  -37   32  -36   34   21   33   37    1  -24   11
  51  -39  -24   -5  -35   19   38   24   15  -13    3  -21    8   20  -46   15  -19   -4  -23  -43    4   74  -38   40
  -7    8   18    2   21    1    5    7   -4  -16    6   -3    9  -25   -6   -5    0  -16   45  -15    9   -8  -23   26
  17  -46    4  -13  -46  -38  -42   38  -30   -3   51   -5   37   54  -37    0  -35  -47   35  -30  -27   10   -1    7
 -19   17    7   -4   -6    4   -6   14    6  -36  -18  -34  -17  -10  -16    7    9    6   27    5  -16  -15  -23   33
 -29    7    1  -20    4    4   19    6   -5   18  -11  -31  -46   15    4   18  -25   19  -27   -6  -12   20   56  -18
   1  -34   45   39   37  -32   30   28  -24   19  -61  -57  -29   -2   49   10   36  -16  -46  -15  -17  -31   31   64
 -46   -3   36    2   29  -65  -66   23  -34   18   80   52    5   -1  -27   -4    0  -40   75   -4  -12  -78   78  -17
  -3  -23   10  -29   -7   20  -23   -2   26   36   56   24    8  -34    5    8  -10    0   -6   -7    4   37   40   -7
   9    5    5  -12   24   19    9    0  -14    3   12  -14  -25   11    1   -1  -13  -11  -20   -4   25   20   55  -14
 -44   20   25   29    7  -21  -13  -38  -10  -13   50  -24   20   43    1  -25   -2   29  -35   13  -12   22    0   20
  -9  -39   -9  -11    2   14  -24   21   22   -1  -13   60   19   -2   18   -8   -2   -6   -3   -5   32   21    2  -34
 -10  -31    6   27   22  -17  -18   -4   31   -9   61   15   34   20  -12  -63   -4   -7  -44  -21   23   15    1  -16
   2    0  -13   -3    2    5   -2  -28   -4  -11   14    4    2   12   21  -18   -4   -1    7  -29   -6   -9   -9   16
   1   10   -3    4   -4    1    9  -22   -7   -8   20  -33  -12    1    2    8    3   -4    5  -13  -12  -10    0   22
 -10  -38  -32   11    4    1   17  -17  -45   46  -11   -4    5   -3    1   13    4   16   39   17   36   -5   38    0
  58  -23   53    2  -46  -58   44  -57   37   26   40  -12  -39   12  -29   46  -11   11   12  -48    8   25   -7    5
  11   -9  -13  -11  -41   -4    8  -52   -4   21   26   35   56  -38    6   -4    6  -30  -34   37   13  -17   12   -9
   2  -55   -6   17  -19  -14    4  -14  -66  -10   13    1  -89  -14    3  -95   42  -18   -3   32   13   15  -14    7
 -18   -4   23    7  -11  -62  -21   -5   13   20   32   15  -20   12  -34   -3   16   11   54   -5   -4  -25   51  -13
 -22  -24  -65   20    5  -24  -46   25    4   47   29  -10   51    7  -30  -60   13   25  -40  -24   42   12  -17  -10
  -7   20   55   61   23  -34   -1   -5  -86    7  -12   -1   38   89    2  -19  -17  -27   39   41   -4  -29   -5  -33
  60  -17   37  -29   24   15  -29   55  -15    8    9  -38   -2   21  -50   34  -13  -20  -46   51   -7   29  -16  -22
 -30   75   34   15   62  -54  -69  -21   -8   -1   37  -27  -47  -18   -5   14   77   23   34   79    6  -96   69  -27
 -39  -17   13  -12    9  -26   -7   56  -16    8   25  -28  -14   13   51   13   -9   40  -24   18   17    0  -31   -4
  -3    5    6   -6   11  -27   -8   18   12  -13   11  -35  -34   21  -13   27   17   18   -5   11    6   -1    7   22
   7    7   -4   -7   10   -7   23  -11   -3    1   -6  -21  -16   15  -10  -14  -15    5   -7  -15    5    2   33  -10
   4  -73   49   55    4  -37   -9   16   -5    9  -57  -49   10  -37   50  -13   17   -9  -56  -11  -60  -33   23   44
  18  -26  -19    3   10  -19   -8    5    8   -1    8   -8   12    5  -15  -20   13   20   11  -11   18  -12   -7    4
   2   -7  -18   31  -16   -2  -26   -4    3  -22   -1   12  -43    1   -4    8  -56   20    8   33   11   -3  -23   -6
  -2   -8   -1    3   -1   10  -19   -1    7   -7   17   22   12  -20   14    7   16   -9   11   -6    8   18   -9    6
 -41   72  -43  -39  -21   27   49  -16  -32    3   52   73  -24   44  -57   24    5   35   15   40   -5   10  -63  -25
  -5   -3   -6   -8  -16   21  -12  -56   -6   -5   48  -24   -5   34   28   -3    1    2   -4  -26    0  -25   14   15
 -22  -43  -17   36  -62  -27  -19   19    3   35   17   18  -12  -24   17   37   35   39  -44   57 -119  -11  -56   -9
  34  -19  -50   11   15   17   42   23   41   -3   -1  -71  -63   14   -8   40   29    8  -61  -18   32  -27  -38   -4
  -2   -1   -7  -22   -5  -13    9   15  -16   -4   -6   56   -1  -20   17   -5  -17   14   -7  -13    2    4   19   29
  33   -7  -18   42   79  -34  -48   17   20  -30   57   25   51  -14  -20  -42   36   27   -6   -5   19   28  -27    9
  28   20   20    5   18  -24   -1   32   -4   27  -15   -7  -13   -6  -17   18    8   -3  -11   24   23   38    9  -34
  -8  -19   -5   40  -14   -8  -12    8  -11    2   21   18  -18  -18   22   30   -4   10  -10   30  -26   -6  -46   10
  14   22  -12    4    2    4  -24  -47  -10   30   50  -29    8   29   12  -23    4   30  -31  -20   11  -12   19   25
  13  -18  -36   45   65   15   68   -6  -57   19   28  -10  -16  -23   20   61   27  -17   13   -9   61  -49    1   13
   2  -18   35   10    7    1  -16   36    8   18  -12   -1    2   -6  -39   16   14   -7  -14   37   33   14    1  -37
 -32    7  -23   16   -8   32    1  -42   32    2   -9   -7   18  -67   34  -12   35   12  -13    5   36  -12    2  -23
 -18  -13    8   12   11  -12   -2  -15   -3  -30   -3  -40   23    0  -11  -11   26   40   45   37   23   52   21   33
 -36   -8   14  -10   -5  -44  -51   34  -12    6   72  -10  -18   16  -50   22    1  -38   41   -6  -31  -20   67   21
 -30    1   35   20   -7  -39   -9  -36   10  -30   64   -6   -5   48   -2   -7   -5   19  -24   -9  -10   38   26   25
  73  -23   54  -10    9    4   28   10   21  -21   26   35    2   16   13    6  -30  -58   48   -2  -15  -10    4   28
 -11    7   -1   11  -14    8   -7  -18   -4  -35   -6  -16  -18   33   14   19    7   -2   22  -17   -1  -24  -16   31
 -56   15  -10    7   -7   -6   -9   -7  -12  -11   -8  -10    5   -3  -14  -10  -11  -17  -39  -24    0   -1    3   18
  69  -29   -9  -10   -1   10   -9   -2   12   65   21    1   14   15   19   11   13    7   31   47   31   21   25  -23
  12  -27   27   13    5   23   12   30    5   23  -12   -8    4  -14  -75   12    3  -15  -38   45   31   22   23  -11
  -3   12  -12  -12   -6   -1   -3  -28   -8   -5   28  -26  -12   19   27   -4   -4    8   -1  -22   -3   -9   21   16
 -12   -4    0  -12    5  -11   -6   16   51  -11  -12    0   50   20    0   74  -11   30  -10  -30  -25  -25   13  -13
   7   10  -19    9   -9   12  -19   -7   10  -22   17   12  -48    0  -11   -7  -73    7   12   31   33    6   -7  -11
 -11  -10   23  -38  -10    5    5    7   -3   15  -29  -12    8    1    3  -24   55  -15  -13  -19  -28    3   13    3
  33   -5   28   17  -41  -50  -30   46  -44   24   68  -45   24   59  -65   20  -31  -58   44  -43  -35    1   -1   24
  -2  -21  -10   -7  -15   17  -10   -4    9   24  -10   40   38  -16   21  -33  -26    0   -5  -19    0   23    0  -21
  -5   14    0    3   23    0    3   15   26   -2   -6   -3   28    9    7   51  -23   14  -12  -18   -8   -4   21   -5
  -1   27   -7   37   31    3  -16   13   25  -11   36   41   -6  -27   -2   -2   26  -31  -27  -44   29    6  -28    7
   5   -5  -29   19   33   -3   53   52   29   35   34  -16  -69   76   19   -6  -17  -11  -27   -9   19  -21   14  -25
  -1  -15  -44  -40  -21   15   -3  -13   59  -10   63   -8  -24  -51    3    3   -2   25  -19  -38   -8   34   32   53
  34  -12    0    9  -22   -9   14  -24   -4   59  -10  -13    4   20    0   15    9   11   24   49   28  -18   12    9
  23   -9  -13   -5  -28   13   -4    5    9   10   61   19  -75  -36    0   44  -18  -45   23  -13   30   -9   14   15
  -5  -21   22   -3   -4   -4   -4    7   -3   14  -24  -22    8  -12   28   -9   31  -15  -12   -9  -25    0   23    7
  32  -17    3   -1  -15   17   39   18    0   26   -2   16  -28  -35   -9   32    5  -13   40  -23    6  -37    7   10
  14   12  -27  -10    0   32   18    5    7   27  -22  -36  -28  -24   16   23   12    1  -23  -10   11    1    2  -15
  24  -34   30   23    6  -30   24   22  -20   29   -1  -24   19   25  -31   22    7   22   18   82   30   11   11    1
  26    8  -14   25   40   -7  -15  -11   -5  -32    5   15    9    2    2   11   15   -1  -22  -28   25  -18  -39  -23
 -14    2   -4  -10    2   -6   20    5   -4   14  -12  -32  -37   13    3   12  -29   20  -26   -6  -25   16   46  -23
   1   14    9   -8   32   -7   22   10   45  -15  -15    7   21   56   -4   80  -29   24   -7  -43   17  -24   16  -15
  68  -15   47  -19  -11    7    1  -63    4   23   14   39    0   14  -32   25    1    2  -35   43   17  -11   25   22
  -1   12    8    3    0    2    9  -24  -12   -9  -20  -10    6    8    1   -7    7   14    0   23   -1    0   -8  -15
  12    8   -4   33   31    4   22  -14  -14   -2  -27   27   -8   15   20   -4    9   11  -23   -6   36  -29  -32  -19
   1  -21  -41  -28   10   25   22    3   -1   38   28    6  -36   -2   17   47   10  -17    7  -11   28  -61   24   -4
 -20   -3    2  -16   -6   16  -11    6   21    9   27   13   11  -42    2   -2   -4  -11   19   -6   -8   13   23   19
 -17   -7   15   27    7  -10    4   -3    2  -18   15   -6   30   40    2  -27    1   22   31   31    3   36    6    1
 -20   28   15   21    3   -6    7   25   25   11    0  -19  -28  -31  -36   14    3   -9 -111  -31   35    6  -30   -7
   2   -9  -16    5   30   -5   28   17  -12   40   34  -13   -1  -13   52    0  -33  -10  -24   -5    5   42   50  -55
  35  -16  -51  -11    6   13   20   -6  -12   48   45  -54  -21    3   30   22    5   31   -8  -19   29  -47   -6   32
  12  -33  -17   -1   -6  -12    0  -20   10    9   10   32   12    5    8   -6   -6    1  -15    2    5   18    6  -33
 -20    0    7   -7    1    2  -12   18    8  -40  -12  -14  -10    5   -8   11   18   -1   29   -7    2  -13  -25   18
 -11   -6   18    5   -8  -25  -19    5   -8    2   28  -11    4    2  -22    7    3  -14   32    4  -14  -22   18    1
  90  -49  -18  -57   70   36  -35   43  -14  -50   40  -10   10   58  -36   14  -14  -50  -51   73  -36    4   19   -5
  18  -79   42  102   76   -5   23    7  -22  -21  -64  -82  -29  -39   63  -22  -55  -27  -45  -39    3  -32  113   41
 -27  -28   22  -27  -23   -7   14   14  -33   26  -28   -9  -26   11   10  -43   92  -11  -20   -1  -48    1   -4   12
 -20    9   -4  -13   14   16   13   34    1  -50  -26   -7  -37   -2   38    5   -7   -5   58  -26  -34   20   10  -23
 -45   10   50   -2  -37  -13   -4  -57  -15  -11    4    5    1  -15   -9   17  -31  -28  -66  -23   12   17   25    0
  -6    1   20   16    9   -6   -5   35    1  -22  -37   -4   -5   -3  -21   22   13   -4   15   10   16   -1  -31   -3
  20  -16   40    0   11    2   -6   31   12   23   -9  -27    5  -10  -60   16    9  -14  -28   44   45   25   -1  -13
 -41   30   75   39  -60  -12   -2  -42  -45   14  -36   -3  -17   40    5   36  -21  -61   -1   -5   -6  -11   34  -33
 -26    6   16   19    4  -21  -15   -8    0  -29   14    2   20   19  -13  -26    0    3  -13   -3  -12   30    8    5
 -23  -16   -4  -15   -7   -1  -20    1    6  -15    2   20  -12   12   32   -1  -14   19   13  -19    3    7   -5   -2
   4    3  -22  -26  -24  -14   -1  -54   -4   -2   36  -36   -2   23   12    0    2   13  -16  -14   -9  -18   12   24
  51    0  -42  -20  -52   34   51   15   57   -5  -13 -105  -46  -14  -26   51   21   25  -67  -20   24   54  -52   76
  -2   -2    0   -7    6   -6   -5   -2    3    3   -8  -12  -10    7   -7    5   -1   14   -9    5   -3    2   -2   -2
 -27  103  -32  -29   48   39  110  -17  -65   -5   30   52  -69   59  -77   31   -7   26   15    7   47    6  -18    4
  -8  -22  -31  -20   13    9   -5   -9   20   -7   31   26   16   26   46  -21   -6   16   -7  -24   17   -3   24  -10
   1   21  -32   57   43  -37  -13   -5  -17    7   -7   -7   44   -3    9  -69   38   32   19   19   22  -36   -8  -38
  11   13   18   10    9   11   10   32  -23   -7   12    8   -8    2   12   -8  -10   27   -2  -20    3   -2   15    2
  10   15   30   12    1    6    6  -17  -11  -18    3   17  -11   -6    8   19  -14  -11  -17    6   -7   11    5  -12
 -17    0  -13   26   15   23   29   -3   24   20   34  -15   11  -13   10  -13  -11   27   43   55    8   37   15   41
  19  -53   -3   38  -10  -16  -48   -4   44  -31  -27  -26  -14  -18    9   -1  -83   17    1   -7   16  -16   35  -15
  -5  -11    6   -5    5   -7   27   19  -10   34   10    0   12    6   19   -8   66   -5  -17  -10  -34   18   -3  -11
   1  -12   33    1  -24   -6    4   18   -6   52    5  -23    7   17    1   34    2   12   63   58   16   37   39   14
   1  -16    7   -5  -10   -4    1    1    3    6    4   -7   11   20    4   -5   -5    6   39   25   -6    5   20    5
 -53   33  -40   18  -44   50   17    6  -32   62  -31  -30   23   -7   18   14  -17  -20   30    5    0   12   20   26
  16   -5   33  -36    8  -10  -13    7   52  -28   -1    8  -23   17   10  -28    5   16  -42   16  -29   10   -3  -26
   0  -28   -9   12  -13   -4  -14    3  -23  -10    2    7  -84    8    3  -48  -19   -3   -4   25    4    6  -12   -7
 -31  -17  -10  -69  -11   -2   47   16   -5   25   21   28   13   48  -18  -25  101   12    2  -21  -19   15  -10  -41
  35  -48  -28    8  -60   26   65   16    3   -2  -13  -41   32   31  -43    1  -48  -10  -26  -59   -4   78  -58   64
 -23   42  -27  -25   -5   15   27  -16   -8  -11   36   41   -3   42  -45   -2    7   27   19   21   18   29  -35  -24
 -16  -35   10  -18  -14   -9   23    8  -30   19   -3    2  -20    5    2  -37   84   -6  -22    2  -38   -9  -12    5
  -3    9    6  -31   -6   -3    1   -2   -3    3   -2    0    1   17  -25  -17   15   -7  -27  -12  -24   12   -3  -29
  18   46  -25    5  -53  -38   -5    8   23  -20   30 -112  -16   14  -24   38   49  -25  -32   53   32    0   42    4
   1  -13    5   10    4   -3    7    3  -32    9    8   -8  -54   -5   15  -40   17  -21   -3   12   13   20    4    8
 -28   -7   -7  -17    7    2   17   36   -2   -5  -20    3    1  -18   19    6   -9    8   -1    2   17    0   -6    5
  92  -20   69  -27   -4  -23    8  -43   28    5   52   36   -8    0   46   39  -10  -11  -30   37   -8   36   33  -64
 -86   28  -53   23  -28  -22  -25   33  -41   35  -15  -28   26    0  -16  -20  -21    1  -53  -37  -14   33  -30   19
  84  -32    1  -16   64    8  -13   29  -36  -10   23  -11   30   56   24   -8   -9  -22   32   68  -12  -11   11   -6
   4   -5  -22   46   -4   -5   -4    4  -12   -4   31   12  -54  -18   21    9  -49    8  -13   46   -4    4  -22    0
 -17   11   13  -27    4    0    8   20   32   11  -41  -13   61   18    3   35    7   20  -20  -34  -43  -26   21  -19
   9   -6   31    6   17   25   -7   -9   38   10   -5   21  -21   48   -2  -12    1  -56   15   -6    7    3    7  -12
   4    6   -5   -1    6   -9    9   -3   -1    7   -6  -17  -16    6   -9    0   -4    3  -13   -1   -8    9   19  -14
 -10  -54   39   42    0  -29  -35   -5   19  -25  -32  -39   25  -12   26  -28   -8    1  -15   -5  -10    8   39   27
  28   22   16   31   -6  -20   14  -13  -35  -10  -54  -28   -3   43   -6    2    0    7  -16   12   -3  -18  -40  -17
  10   19   11   40   39  -31    4   49   58    6   39   30   -9    1   -3  -26   21  -37  -36  -45   45  -49  -35  -24
 -28   -8   -1    7   -2   -7    3    3   26   15   32   -3    1  -37    1   13   -4   26    4   10  -22   46   47   27
  21   -6    9  -25  -36    9    0   41  -21    8    2   -9   -6   15  -12   22  -27  -47  -12  -40   -4  -18  -29   12
