  -5   -7   -7  -12  -13   -9   -4   -5   -6
  18   14   18   11  -40   10   -7   -6   -9
  -2    5   -1    5   27    6   -3    8   -2
  -2   -5   -3   -6   -7   -7   -3   -5   -4
   0    6    1    5   22    5    2    8    3
  -9   -4   -8   -5    2   -6   -8   -8   -7
   6   45   12  -18  -15  -20   -2   -7   -4
  -6   -5   -7   -6   -6   -5   -8   -6   -8
  -7   -7   -7   -7  -20   -6   -6  -10   -3
  -4  -26   47  -16   18   30    1  -19   14
  -8   -4   -8   -7   -3   -7   -3  -10   -3
   1   -1  -12    6    8  -19    0   -2   -7
  11    2   -7   21   -3   -5   10   -5   -6
  -8    5   -6    6   70    7    3   33    5
  -6  -10   -6   -4   -9   -6   -7   -8   -6
  18   30   20    5   40    9  -17  -19  -19
   9   20   12   -8   26   -8   13    6   13
  -3   15   -1   -4   30   -4   -8  -25   -9
  -2   -4   -2   -4   -3   -5   -3   -6   -5
   4   10    5    7   25    7    1    2    3
   3    6    4    8   28    7    4    7    5
  -3   -9   -6   -1  -27   -6   11   32    8
 -40   27   12  -43   30   33  -36  -31   -7
  -6   -2   -8   -9  -11   -4   19   35   22
   3    5    9   11   25   10    5   10    6
   0    1    0    0    0    0    0    0    0
  -1   -6   -2   -8    5   -6    3   35    4
 -10  -22  -10    6    8    7    4   12    3
  -4   -7   11   -9  -19   37    1   -6    2
  -7    3   10  -13  -20   30   -9   -4   24
  -6   -9   -6   -9  -10   -8   -5   -8   -7
 -21  -22  -21    9   -1   12    6   30    7
  -6   -5   -9   14  -18   -4    8   22    3
  -9   -6  -11   -7  -21  -10   14   37   16
  -4   -7   -5   -7   -2   -7   -5   -8   -5
  -2   -2   -6   -5  -19   -4   11   39   12
  -2   -8  -20  -10    6   34   -9   -3   41
  -6  -13  -25  -21   18   54   -8  -27   38
  -1   -1    0    5    5    9    6   30    9
  -6    3    8  -14    5   13   -6    3    4
   1  -14    4  -10   -9   36  -16  -14   24
  -7   -3   -7    0  -15   -3   -7   -5   -5
   2    5    3  -10   20  -11  -15   34  -15
   5   13    5    4   25    4    0   14    1
 -14  -17  -24   -4   23   12    5   53    8
  18   11   -4   26  -31  -23   13   13   -4
   6   13    7   -3   12   -2  -13  -22  -16
   6    1    7    6   17   10    8   -3   13
  15   17   17   12  -14   12    8    3    8
 -14    4    9  -14    6   15   -5    1    4
   9   -7    7    8   49    4    3   -5    3
   6   25    6   11   37    8   -2  -18   -1
   9   17    9    5  -14    4  -10   -9   -8
  -4   -7   -6   -7   -3   -6   -6   -7   -6
  17   16   19   14  -24   15   10   -3   10
  13    0   12    9  -40    3   14   -8   12
   0    1    3   10   15   13    5    2    9
   2    6    3    7   27    6   -3    6   -3
  -2   -2   -2   -2   -8   -3   -3   -5   -4
   1    8    3   10   33   10    2    8    5
  -3   -8   -5   -6   -7   -6   -8   -5   -8
  -4   26   -2   13   11   13    5  -13    4
  17   20   22    9   43   10   17   16   24
  17   31   17   15   11   16   -3  -41   -4
   5   13    4    8   31   10    6   10    5
   5    2    4    7   33   10    1    8    3
  12   20   13   -1    2   -3  -17   -8  -17
  15  -19   14   24   22   22   17  -23   19
  -5   -5   -6   -5   -9   -6   -2  -11   -3
  20    7  -11   17   18   15    4   30    4
   1   -1    1    4   31    8  -10  -32  -14
   4    4    7   11   20    9    4    8    7
  -2   -3   -3    6   19   10   16   25   16
   4   15  -10   16   27  -16   -5  -13   -5
  -4   -3   -5   -7   -5   -6   -5   -7   -7
  -7   51  -15   10  -37   19    2  -16    5
  -4   -6   -4   -8   -8   -9   -4   -6   -4
  -7   -1   13  -21   -7   25   -8   -6   17
  -5  -14   -3   12  -12   13   17    5   19
 -11  -14   16  -57   -2   32   13   26   19
   6   15   -1   14   31   23   11   12   11
  -5   -9   -6   -7  -16   -6   -7   -3   -6
   2    6    2    7   34    5    3    7    3
  -1   12   -1   22  -53   26    5  -11    6
  -5   -6   -6    1   -5    0   10   28   11
  -3   -2   -5   -4   -1   -6   -9   -4   -7
  -4   -7   -5   -7   -5   -7   -3   -6   -4
   0   -5    1    6   -5    7    8   22   10
  -6   -3   -6   -5   -4   -5   -3   -5   -4
   3   14    5   10    0    9    5   -2    5
   1    2    1    7   -1    7    2   35    2
 -11  -15  -11   -2   18   -2   -1   12   -1
  11   21   14   10    3   12    3  -12    4
   3    8    4    3   24    3    3   -1    5
  -8    3  -10    3   -8    1   17   48   19
  38  -16  -19   -7    0   -9  -29   16   22
   6   -1    4   16   17   13   10    2    7
   1    0    1   11   13   11  -11  -20  -12
  -8  -12   -9   -6   10   -6    2   15    2
  -3   -3   -4   -7   -5   -6   -3   -6   -3
  -5  -11   -7  -12   29  -11   -7  -12   -8
   4    7    6    2   33    1    6    3    7
   9   17   10    9  -19    9   -2   -9   -3
  -4   -3   -5   -5   -1   -5   -5   -5   -5
  -9   -3   11  -16   -3   14   -8    0   10
  -3   -8   -6   -8   -4   -7   -5   -3   -7
  -7   -7   -8   -9  -10   -8   -5   -5   -6
  -4   -7   -5   -4   -3   -6   -6   -6   -7
  -1   14    3    4   38    6    4   -2    1
   6   -5   11   -2  -43   14   11    9   17
   3   -5    3    3   42    5    6   14    4
  -3   -4   -3   -4   -4   -3   -5   -8   -5
   9   20    9    5   23    6   -6   -3   -6
  -2    3   -2    3   17    4    0    5    0
   8   41    8  -15   11  -16  -13  -16  -13
   0    5   -2    3   35   10   -4   10   -5
  -6   -7   -6   -5   -7   -6   -5   -7   -6
  -4   -6   -5   -6   -3   -6   -6   -5   -6
   0    3    1    9   29    7    3    3    5
  12   24   10    0    8    6   -1   -2   -3
   4  -10    4   27  -33   19    6   -8    1
   2    9    2    8   28    9    5   -3    5
  -2   -2   -2    0    1    1    1    2    2
  -5   -4   -6   -6   -5   -8   -6   -2   -5
   1    2    1    2   20    3    1    4    2
 -13  -15    1   39   10  -19   44  -10  -17
  21   12   26   16   -8   12   -8  -15   -8
  -9    1   -8   -1   39   -1  -10    0   -9
  -9  -14  -10  -11   -1  -11   -1   47   -2
  -5   -5   -5   -6   -4   -5   -7   -6   -7
 -16    5  -14   23  -11   23   20   48   21
  -7   -4   -5   -5   -9   -4   -3   -5   -3
  -1    1    0    0    3    1    0    2    1
  23   -9    1    2  -32   -6   33   -9    1
  10   37   14   -1    4   -4   -6   -6   -4
   5   24    3   21   35   20   -3  -13   -2
   3   -2   -2   -8  -25   27    0   -3   15
  15   27   14    4   19    2   -6   -7   -6
   5    9    3    9   33    8    4    5    4
  -6   -9    8  -17  -16   32  -11  -12   15
  -5    0   -4  -15   42  -15   -5    1   -5
   8   11   10    3   46    0    6   -5    9
  -4  -16   -7    4   27   10   11   30    5
   4    4    4    1   42    2    3   10    3
   1   29    2    8   12   11    3   -9    1
  11   84   21  -18   54   -6  -11  -24  -17
 -12  -12  -12   -8    9   -2    3    7    6
   6    9   -2   25    8   26   18   44   13
  -7   -4   11  -23   -8   31   -6   -2   11
  10    9   12   17  -13   12   13   13   16
  -6   -4   -8   -7   -7   -6  -11   -5   -9
  -4   -9   11  -10  -30   45   -8  -12   15
   9   -1   -8   14    5  -24   11    8  -15
  -4   -4   -5   -5   -6   -5   -5   -5   -5
  12   21   12   12  -16    9    2  -22   -2
  -4   -6   -4   -3   -7   -5   -3   -4   -3
  -5   -6   -4   -8   -3   -7  -10   -5  -10
  13   17   15   19   -5   20    9   22    8
   4   14    5  -21   37  -21   -2   32   -1
   5   10    5    6   43    3    1    5    1
  -7   -7   -8  -10    8   -9   -3   -2   -2
  -3    0   -2   -8   -4   -9   -8  -10   -7
   5   21    6    4    4    3   -8  -23   -9
   2    8    0    7   34    6   -2    6   -3
   6   -6    8   19   10   20   16   43   14
  -4   -6   -4   -4   -7   -4   -5   -4   -6
   7   28    8   13   14   17    1  -13   -4
   4    8    5    4   31    4    3    6    3
  -5   -8   11  -13  -11   28  -10   -9   14
 -11   -5  -12    1   -8    0   10   26   14
   5   26    6    1   13   -3   -8  -22   -9
  -6   -8   -7   -6   -5   -6   -6   -3   -6
  -3   -3   -4   -4   -5   -4   -6   -4   -6
   2   11    4   -2   33    1    6   12    6
  -3   -3   -3   -7   -5   -8   -5   -4   -4
  -2   28    3   27   74   28    4   30   14
  -5   -7   -6   -5   -4   -6  -10   -5  -10
  -5   -3   -5   -4   -8   -5   -6   -5   -6
  -4   -5   -4   -7   -5   -8   -6   -2   -6
   4   -6    3   16   -3   19    8   24   10
  -6  -17   -5   -3   16   -3    2   19    2
  -4   15   -8    8   47   15    1    0   -1
   7   -3   -9   17   18  -17    6    1  -10
  -4   -3   -5   -5   -3   -6   -6   -6   -6
  -4   -5   -6   -5   -5   -5   -5   -5   -5
   4    4    4    2   42    2    4   -2    4
  -1  -10   -5   33  -11   36    0  -18   -3
  10  -15  -12   31    2   -9    6  -10   -2
  15   -9   -2   50  -30  -13    3    1   -1
  -1   -9   -3   -5  -11   -3    3   29    5
  -5   -4   -4   -4  -12   -6   -6   -8   -6
   7   36    7   -4    2   -4   -8   -6   -9
  -9  -24  -12  -25   44  -17   25   53   35
  -3   19   -3   -6   25   -6  -11  -22  -12
  -5   -4   -6   -6   -4   -6   -4   -7   -3
  10   31   12    6   15    5   -2   -6   -3
   6   10    2    7   25    8   10    4    8
  -2    7   10  -15    6   32   -6   15   11
   3   10    3    4   31    6   -1   -2   -1
  -4    5   -2    9   59   12   -4  -17   -5
   2   14    4    5   26    4    3   -7    4
  -2    3   -1    9   33    9    1   12    5
  -3   -5   -5   -5   -5   -7   -5   -6   -7
   2    0    2    0   14    4    2   12    1
   0    8   -1    6   58   10    0    9    0
  -8   -1    9  -19   -3   26   -7   -2   13
   2   10    4    8   19    9   10    6   12
  -2   -3   -2   -3   -6   -2   -2   -2   -2
  12    8   20    4  -26   15   -9  -13    3
  -9    1   17  -16   -3   32   -4  -11   -1
 -21   -1    2   43  -13  -16   37  -12  -25
  -5   -6   -5   -5   -3   -5   -8   -7   -8
  -6   -3   -6   -6   -5   -5   -7   -6   -6
  -5  -10   -4   -2   -3   -1    9   29   10
   4    8   -1    4   37    8    0    8    0
  -8   -6   -9   -6   -3   -7   -9   -6  -13
   3   -7    1    0   35    3    0   17   -1
  15   25   20    9   22    7    5  -11   10
  10    2  -14   25   -5  -12   11    2  -15
  -5   -9   -5   -3   -3   -5  -10   -5  -10
  -2   -6   -3   -8   -8   -8   -5   -9   -4
   0   -5   -2    1  -19    3    4   31    6
  -3   -5   -3   -4   -8   -5   -6   -5   -5
  15   16   13    1  -11    0  -10  -19  -11
  -4   -4   -5   -5   -4   -5   -4   -5   -6
  46   67   43   35 -125   35   18   -1   20
   5    5    5    6   17    8    5   15    4
  -8   -6   -9   -6   -3   -6  -12   -8  -10
  17   48   21    0   48    3  -17  -37  -16
   0    3    0    2   34    1    1    2    3
  -4  -13   -6   -3  -10   -5   -2   -4   -2
   0   -8   -2   -2  -31   -2    7   41    8
  -6   15   -9   19   21   19    7    5    9
  -3   -4   -3   -5   -7   -4   -3   -6   -5
  -6    1   -6  -15    8  -14   -6    2   -4
  -3   -5   -5   -6   -6   -7   -2   -9   -3
 -21  -15    6  -25   15   16  -21   18   10
  -7   -7   13   -8  -17   26  -12   -4   11
   6    1    8    6  -13    3   12   23   12
  -2    3   -9    5   32    1  -12   -1  -21
   2    7    4    3   23    6    0    8    1
  -3  -21   -4   -3   -9   -3    8   31    9
  -5    0   -6    6   53    7   -4   22   -4
  -7   -1   -7   -6   -4   -6   -4   -7   -4
   2    3    1    3   26    4    2    7    0
   7   21    9    7    5   11  -14  -17  -15
  -7   -9   -6  -13   16  -12   -7   -9   -6
   4   -1  -10   31   20   -7   10   -1   -7
   2   23    3    3    5    3   -8  -17   -8
  -8   -5   -8   -6   -1   -7   -8   -6   -8
   5    8    2   12   35   15    4   20    2
  22   -7  -18   26   15  -10    9   -4   -2
  13   16   12   12    5   11   -3   -3   -2
  -7    2   18  -12   -9   19   -7    6   10
  -2  -17   -6   -7    4   -7    5   26    7
   4   29    4   15   -3   15   -1  -18    3
   4    9    6    3   32    3    2    4    3
  11   41   23   34   22   38   16  -59   11
   4    7    1    8   22    9    9   11   10
 -41   19   13  -43   -2   43  -53    3   37
  -3   -8   -3  -12  -20  -12    4   39    6
  22   18   23    7   -8   10   10  -13    5
  -4    7   -3   -8  -27   -8   10   48   10
  -8   -8   -7   -6   -9   -5   -7   -8   -7
 -11   -6   -8    4  -20   -2   39   12    5
  -2   -4   -4   -7   -5   -7   -2   -8   -3
  -3   -3   -3   -9   -7   -9   -4    5   -4
  -5   -5   -7   -4   -7   -6   -3   -9   -5
   0   -6   -1   -5   -5   -6   -7   -4   -8
 -12   -9  -12   -2   17   -2    3   17    2
  -5   -4   -6   -8   -6   -8   -7   -9   -7
   5    7    1    5   33    9    4    2    2
  11    6   -6   -7  -39    4   -7   16   17
   6    1   -7   13    7  -14    8    1   -7
  -2   -3   -3   -5   -8   -6   -3   -6   -4
   1    1    2    3   31    4    3   10    2
   7   16    7    5   38    5    1  -19    0
   8    3    2    4   26    4    9    8    6
   0   33    2   -4    0   -3   -2  -18   -4
  13   -4  -10   27  -11  -13   10   -1   -8
   0    0    0    1    0    0    0    0    0
   0    0    0    0    3    0    0    2    1
   2    3    1    3   12    4    2    5    2
  -8   -6  -10   -8   -7   -9  -10   -7  -11
  -5   -8   -6   -7   -7   -5   -4   -9   -4
  -7   -7   -6   -7  -20   -6   21   21   21
  -5   -6   -8   -6   -7   -7   -9   -7  -11
  -5   -8   -5   -3  -13   -4   -6   -7   -3
   4    7    4    6   37    6    2    7    2
  -2   -4   -2  -17    1  -16   -7    4   -6
  -4   -6   -4   -6   -2   -5   -5   -8   -4
  -3   -6   -4   -6  -15   -6   -7    0   -8
   3    2    2    1   32    3   -2    2   -2
  -6   -7   -5   -5   -4   -8   -4   -8   -6
   9   -4   -5   28   -6  -18   14   -1   -2
   0   24   -7   37   26   44   10   28    3
  -6    7   -7  -12   39  -12   -9   -2   -9
   7   26    9    3   -4    2   -8  -17   -8
  -5   -6   -6  -10   -3  -11   -6   -7   -8
   0   -6  -16   23   28  -37   10   11  -32
   2    0    1    6   32    5    2   11    3
   4   26    6  -22  -15  -21    2   11    3
  -8   -2   -8   -7    3   -7   -8   -3   -7
 -11    0  -10   -4   46   -3  -10   -3  -11
   4   20    1   13   34   12   -7    0   -5
   5  -12    7    9    6   10    7   23    9
   9    0   -8   14    2  -11    7   -2   -7
  -9   -9  -10   -9   -8   -8   -9   -7   -8
  -8   -9   13  -20  -12   32   -6   -7    6
  -5   -4   -4   -2   -3   -2    9   26   11
  -4   -8   -5   -3   -5   -5   -8   -9   -8
  14   -3    2    3   48   14    2   18   -1
   2   -9    2    8  -34    7   14   24   17
   4   26    7    6   14    4   -4   -3   -5
  -6   -2   -5   -6   -8   -6   -3   -5   -4
  -6   -8   -6   15  -34   12   15   24   17
  -8   -6   -7   -8   -7  -10   -9   -9   -9
  24   52   25   14   34   20   -4  -23    1
   5    3    6    7   32    5    5   11    6
   2    4    2    9   31    9    7   10    5
  -6   -1   10  -15  -18   31   -7   -4   11
  -6   -9   -8   -9    0   -8   -4   -5   -4
  -5    5   -6   -6  -33   -4   17   20   17
   5    9   22  -11  -35   18   -4    7   11
   8   34    8  -16   14  -17    1   11    3
 -12  -16  -10  -10   -9  -11   16   25   18
  -9   -7  -11   -7   -5   -6   -3   -9   -2
  -2   -4   -2   -2   -9   -2   -2   -1   -2
  -5   -2   -6   -4    0   -5   -7  -10   -7
   2    0    2    3   29    5    0   11    0
   2    1    2   -9    0   -8   -7  -10   -9
   2   -1    2    1   18    2    2    4    1
   4   10    6    1   59   11  -12   -3  -16
  -9  -22  -11    7   20    7    5   10    5
  -3   -5   -4   -7   -1   -6   -8  -10   -9
  -2   -6   -3   -5   -4   -5   -4   -6   -4
  12   23   13    7   51    9   23    7   23
  -7   -6   -7   -7   -7   -6   -7   -9   -8
  28   14   -8   10    1  -16   -6   -7  -14
   0   12    4    2   28    1   -1    9    0
   8   -1    7    9  -50    8   14    1   15
  -4   26   -3  -19  -10  -20    6   -6    8
  10    7   -9   32   -9   -9   12   -2  -16
  -4   -5   -4   -5   -8   -6   -5   -5   -5
  -5   -2   -7   -4   -3   -4   -7   -7   -8
   7   36    7   -7   -2   -8   -7  -13   -6
  12   -9   -1   30  -12  -13   16   -8   -7
   6    7    7    6   24    5    4    1    4
  -5   -7   -4   -8   -5   -8   -5   -5   -4
  -6   -4   -6   -4   -8   -3   -4   -5   -5
  -4   -8   -6   -9   -3   -9   -3   -8   -5
   8   22    8   -5   -4   -7   -6   -8   -8
   1   17    0   -2   40   -2   -4  -15   -6
  21  -12   26   28    2   28   31   48   31
 -10  -19   -9    2   12    1    3   15    1
   8    9    8    2   33    6    4   10    6
   1    3    3   13   12   16    2   20    1
  14    3   17   -1  -33   -1    4   -4    4
  -3   -6   -3   -6   -2   -6   -6   -5   -5
   3   -1    2    5    7    6    3   13    6
  11   67   13  -23  -50  -22    9    8    5
   3   22    4    4   21    6   -4   -1   -5
   9   40    6    3   31    4   -1  -16   -2
   1    7    3    5   17    7    1    8    4
   1    2    1    2   17    2    0    4    0
  -8   -8   -9   -8   29   -9   -8   -6  -12
  -3   -6   -6   -8  -13   -8   -6   -8   -6
  11   16   12    3   -7    4   -1  -15   -2
   2   14   16   -2  -30   15   -3   -2    7
  14  -13   13   12    7   15    9   17   10
   9   27    8   -1  -26   -2   -4   -4   -5
   5   30    7    4   12    3    1   -4    1
  -8   -5   16  -16  -19   42    1   -4    0
   4   -3   -8   21   10  -26    9    2  -12
   4    8    6    5   20    6    2    8    2
  -5   -9   -3   -6   -8   -7   -4   -7   -4
   0    5   -1    5   29    6    3    3    5
   6  -18    6    8   25   11   10   16   12
   7   19    8    6    4    8   -4  -11   -3
  15   22   15   11  -13   11    1   -6    1
 -13   11   11  -14   24   35  -10   -5   -2
   5    4    3    7   27    7    1    6    3
  -1  -10    2    7   30    7    8   19    9
  16   36   16  -11   -4   -8    5   -7    2
  -6   -5   -7   -9   -7   -9   -9   -6   -8
 -11   -3   -2  -13    1   16  -14    1   -2
  -4   -7   -3   -6   -5   -6   -5   -8   -5
  -4   -8   -6   12   40   14   -3   14   -4
   3  -14    0   22   21    7   10   12   -1
  -8  -15   -9    1   11    3    4   16    3
 -12    2   10  -11   17   15  -14    1    9
  21   34   21    5   -9    7  -13   -5  -13
  -6   -8   -7   -3  -18   -3    6   43    5
  -3   -6   -4   -7    0   -8   -5   -7   -6
   4   26    5    9   -6    9  -11  -12  -12
  -4   -4   -4   -4   -6   -4   -4   -5   -4
  -3  -11   -3   -9  -12   -9   -7   -9   -8
  12   20   13    6   -5    9  -12  -15  -12
   8  -10    6    6  -30    5   17   15   19
   4    8    4   -1   46   -1  -11  -30  -13
  -8   -5   -9   -5   -2   -5   -7   -7   -8
   5   32    5  -10   -7  -11   -1   -2   -3
  -1   -4   -1  -19  -29  -19    3   42    5
  -3   17    7   12   43   14   18    0   20
  -7   -5    5  -16   -7   26  -10  -11   15
  -4   10   -5  -16   25  -17   -4    6   -6
   3   -2   -9   11   15  -14    0   -2  -11
   4   11    3   -5   34   -4  -14  -18  -16
   9    3   -4   22  -17   -4   11    2    0
  14   31   18   -7  -25   -8   -9    7  -10
  12   20   13   -1   -3   -1   -6   -4   -4
  -3   -4   -3   -7   -5   -8   -3   -6   -3
 -13   -3    9  -17    3   27  -10   -6   11
   8   35   11    4   20    2   -9  -21  -11
  -6   -3   -6   -5   -2   -4   -6   -5   -5
  -3   13   -3    8   38    9    1    4    0
   4    1    5    3   47    2    3    3    2
   3   11    7    0   20   -2    5    5    7
  -4   -3   -5   -8   -6   -7   -6  -11   -8
   8    0    8   11   17   10    5    5    6
  -4   -6   -3   -7   40   -4   -6  -10   -6
   4   10    5    4   35    8   -1    8    1
  15   21   16    8   -8    5    4    0    1
  -5   -7   -5   -7   -1   -7   -7   -6   -8
   8   -1   10    4   26    4   12   -2   12
  10   22   13    7  -24    4   10   -9    9
  -1   17    0    8   45   12    4   11    3
 -14  -18  -13    2   22    1    6   13    7
  -3  -14   -3    2  -14    2    9   21    9
   6   12    3    5   33    8    7    3    7
  -6   -4   -6   -4   -1   -5   -6   -5   -9
  -2  -11   -2    1   -1    0    7   44    6
   9   23    9    3    2    2   -8  -12   -9
  -7   -2   -6   -3   -5   -3   -8   -4  -10
   7   -7    8    8   -2    8    3   31    4
  -4   -8   -8   -2  -17   -2   12   25   12
   7    5    8    6   25    9    5    3    4
  13   29   13  -13    3  -11   -9  -10  -10
   2  -19    1   12   12   10   17   27   17
   6    1  -10   16   16  -18    6    2   -7
  -5    0   -6   -9   -2   -8   -9   -8  -10
  20   51   17   31  -38   32   13  -17   15
   0    3   -2    8   27    9    7    8    5
  11   37   13  -12  -23  -12    1  -11    0
   2    8    2    5   17    7    0    8    0
 -11   -3   17  -12  -14   28  -14   -1   13
  -8   -2   -6  -10   -7  -10   -8   -6   -7
 -10   -3    6   -8    7   29   -8   -4   12
  -1   14   -6    3   68    2    4    8    3
  -6   -5   -8   -8   -2   -8   -5   -8   -6
   7   18    4   11   15   14    1   16    0
   2    9    3   -1   28    0  -11   -8  -12
   6    4    5    7    5    7    6   12    5
  -4   -9   -5   -8   -6   -8   -4   -8   -6
   4    9    5   14  -15   16   18   35   21
  10   12   12   13  -27   13    6    8    7
  -5   -4   -5   -3   -2   -4   -5   -6   -5
  -9   -9   -8   -9   -6  -11   -8   -9   -9
   8   23    9    0    2    0   -6  -19   -6
   8   -4   -5   29  -14  -11    8   -8   -8
  -4    3   -4  -15  -21   38   -9  -11   14
  -3   15    2   -5   30   14    8   14    7
  -7   -4   20  -14   -1   12   -8    0   10
  10   41   11   -3   -5   -3   -8    6   -5
   8    4    6    5   20    9    5    9    5
  -3   -8   -6   -9  -26  -10   -3  -13   -2
   6  -28    9   35  -36   34    4  -30    8
  -2   12   -1   10   12   11    5    8    5
  -9  -12  -12   20  -22   18    9   32   12
   3   13    7   -3    0   27    3    6    9
  -3   -8   10  -11  -21   32   -8  -11   15
  -2   10   -1   -6    2   -6   -7  -11   -6
  -8   -7   -7   -7    0   -7   -7   -9   -6
  -4   -5   -6    1   39    2   -2    9   -3
   2   -4    1   -6  -23   -6   -1   -8   -1
  -7   32   -4   -1   10    2   -4   33   -3
   2    8    0    7   14    7  -10  -21  -10
  -5   -4   -7   -6   -3   -7   -3  -10   -4
  33    3  -19   36    3  -10  -15   -7   -5
 -35  -15    7  -43   22   20  -34   -4   10
  -1   -3    2   -6   22  -14   10   46    6
   0   -6   -1   -7   -5   -8   -4   -5   -4
 -11  -13  -11   -4    7   -4   -2   20   -3
  -5  -23   -6   -4   12   -5    0   -7   -1
  -4   -2   -4   -4   -2   -5   -3   -2   -3
 -13    1    4  -17    9   16  -11    5    4
  -2   -2    6   -9  -10   23   -3    0   10
  10    0   -4   25  -26  -12   16    2   -1
   4   -4   23   -8  -24    2    1    1   15
   0    5    1    4   29    5    1    4    2
  -2    8    0    5   74   13  -12  -13  -10
  -6   -4   -6   -6   -3   -6   -5   -8   -7
  -9   -5  -12   -6    1   -6   -9   -3  -10
  -8    3   -5   11   69   17   13   30   11
 -11    1  -11   -1   41    0  -10    1  -11
   3   10    4    2   25    1  -11  -21  -10
 -16  -21  -19   -1   34    0    0    8    0
  13    1   14   17    0   18   -7  -18   -6
  -7  -11   -7   -7  -10   -8   -5   -9   -6
  11   39   16    1  -10    2    9   -8    9
  -7   15   44   -9  -17    3   -5   -8   -3
  -5   -2   -5   -3   -7   -2   -7   -4   -6
   9   20   11   13  -17   12    5    1    4
  -5  -12   -4  -14  -14  -12   -2  -12   -1
  -4  -21   -4   -3   47    0   -3    1   -2
  10    7    8   11  -17   10    9    6   10
  -8   -1    9  -13    2   14   -5   -3    7
   4   10    9   12   62   19   -3    8   -2
  -5   15   -8    9   27    4    0   -5   -1
   1   16    1   10   25   12    4    3    3
  17   48   18   12   -8   15    7    1    3
   5    1  -15   13   11  -15    5    4  -10
   5   14    8    6   -2   13   -1   13    6
  -7   -2   -6    0   22    5    6   23    6
   5    8    7    4   29    3    7    2    9
  20   20   18  -18   24    0   15   32   15
   7   -2    4    2   23    5    4    5    1
   9   24    8    3   16    3   -7   -5   -6
  -6    0   -3   -4  -22   -6   12   30   16
  16   10    4   14  -27   -2    7   -4   -3
  -5   -3   -6   -5   -4   -3   -5   -5   -5
   8   -7   12    9   42    6    4   21    4
  -4    2   -4   -6   35   -7   -9  -14  -10
   3    4    3    7   18    8    4    4    5
  -5    1   39    0   -7   41    1   -7  -19
   7    2    8    0   44    0    4    3    2
  -4   -2   -4   -2   -7   -2   -5   -2   -4
  -1    5   -1    4   27    4    2    3    2
  14   17   21   16   40   15    9   -9   11
   7    7    6   11   18   14    4   14    3
   1    8   -1    7   31    7    1   13   -1
  -5  -10   16   -3  -23   28   -4  -10   13
  -6   -5   -8   -6   -4   -8   -4   -5   -4
   9   19   10   14   -6   14    9    7   10
   0    0   -1    1   -1    0    0    0   -1
  11   -3  -11   28   11  -15   12   -4   -6
  -4   -8   -5   -5   -6   -6   -5   -8   -5
   6   39    8    0  -16    0   -3    0   -6
  14   -7    4   28    2  -10   14   -2   -1
  -4   -9   -6   -6   -1   -4   -6   -3   -7
  -1    2   -2    4   32    4    5   12    8
   2    0    1   -3   44   -2   -3    0   -3
  -4   -8   -5   -7   -3   -8   -4   -8   -5
   7   10    7    8   -9   11    9   12    9
   0    0    0    1    1    1    0   -1   -1
  -2   -5   -3    4  -24    3   11   24   12
  -5    0   -6   -4   -6   -3   -8   -4   -8
  -2   -2    1    2   14   -1    7   24    8
  -7   -7   -8   -7  -10   -6   -7   -4   -9
  -2   12   -1   -2   20   -1   -8  -16   -9
  -8  -14   -8    0   15    0    0   16    0
  14    0   10    2   21    5    6   10    7
  -1  -11   -1  -16   -2  -14   -3  -10   -4
   8   21    8    2   19    2    0   -6    0
   8    9    8   -8   19   -5    9   24   11
   0  -16    1   11  -13   11    9   24   11
  -4   -1   -3   -5   -6   -5   -6   -4   -6
  -7   -6   -6   -5   -2   -5   -4   -2   -4
   0   -3    2    6   13    2   10   26    6
 -16  -18  -15    2    2    3    9   19    8
   3   46    4   21   15   25    0  -31    2
  -3   -3   -6   -8   -4   -7   -4   -5   -4
  -3  -13   -1   23    4   20   -2  -27   -2
   3   -7    1   14    4   13    8   21   11
   5    0   -3   15   -3  -12    7    2   -6
  -4   10   -3   10   57   16    6   22    8
   1   31    5   -4   10   -4   -7  -13   -8
  -6   -2    5  -19   -2   26  -12   -4    8
   7   18    6    9   44   14   -6   -5  -15
   7   22    9   29  -13   19    2   39    4
  -7   -3   -9    3  -18    1   13   28   14
   4    8    2   -3   16   -3  -11  -13  -11
  -6   -3   -6   -3   -5   -4   -8   -5   -7
  -6   -6   -6   -5  -11   -6  -10   -6   -9
  -2    1   -2    5   26    3    2   14    3
   5    7    7   14   15   13    2   19    6
