 -24   34  -15  -17   23   59  -32   26   -7   28   17   52  -10  -17   -6   -1  -23   22   18   30  -50   19   65   23   37  -39   -6   -5  -26  -56    6   36   -4    1   13  -22   -9  -12   -5  -29  -24    1  -20   37    6  -33   22   30   20   39   13   25   -1   -2   61  -30  -42    7  -63  -11  -26    6   67   27    2  -15   20   20   32  -69   -6  -12    1    9    6   28  -43  -10  -21   28  -13  -21   -7   40  -28   10  -29   15   17    3   -3  -24   36   35    6   28   17  -16   10   34  -35   -8  -28   21  -19   -8   26  -25   -9  -13  -65  -17   29    8   -7  -30   30   33  -37   30   -7   12    2   19  -10  -12    7  -17   29   22  -38   20    0   26   -5  -36   28  -39   -2   -4  -32   33  -43  -17   61  -23  -49    1  -37   32  -17   -9   14   24   -4   58    0   -5  -19   -9   32   32   22   13  -23   15    4  -59   39   -2   18   23   28   25    3   30   18   -2    5   -7   61   65   10   31   23  -16    7   35  -20  -17   31   -8
  17    4    5  -16   -9   -7   33    0   16  -22   -2  -14   11   -2   11  -19   23  -30  -32    0   35   54   34   -5   -1    3  -19   28    4  -21  -20    6   26   28    4   12    5    2   11   -2   -5    5  -12   11  -28    5   17  -11   17   28   -2    3  -11   -7  -42   22   26   29    6   12  -20  -10  -26  -51  -21   -6  -24  -14  -24  -47   -1  -60    6  -16   -1    2   32   -5   17  -26    5   26  -24   32  -13  -40  -46   -1    1    8  -38   18   12   -6    3    0   -5   25    6    5    7  -18  -20   -3   23   -6   12  -16   26   -3   14   10  -14   12   -3   47   20  -19    3  -35   12    7  -19  -21  -20  -15    4   16  -12    1  -31  -27  -30  -29   -1    9  -17   18  -13  -29   16    0  -11  -10   24    1  -32  -35  -26  -11  -11    2   -4   -6   38   38   33   13  -10  -13   -1   -6    7  -13   12  -21   -9  -13  -10    2   -9   -9   26   -1  -27  -22   27   11  -23   24    3  -30  -18  -34   13   67  -44  -14  -20    9    1  -14
   8   10   11   -9    2  -36  -30  -47   19   34   29  -12   -2  -26   17   47  -38   15  -16  -16   25   19  -35   33  -54   40   36  -11  -32   64   25  -12   -5   -9  -79   13   22  -17   10   43   27   -9  -51   24   14   -7   27   34  -68   24    3  -33   32   49  -12  -26  -42  -69    6   11  -45  -27   10    5  -22  -32  -19   48   21   -1  -18  -10   26   13  -12    3   -5   28  -11   -6  -36  -54   14   -2   47   -1   86   -2  -27    3   54   18  -28  -39   39  -19  -15  -53    0  -17   24   10    3  -65   18   39    3   -6   -2  -49    6   18   -7   45   30   27   33   31    4   37  -18   26   14  -10   10   -7    8  -29   20   18  -49   48    8   30   27   -6   43   14   18    3  -15  -30   41   58   -4   -5   27  -55    3    9   21  -11   -6    9  -39   53  -27   16    8   -8    7   33    5  -27  -19   37    5   29   21   19    8  -25  -48   -2   27   15  -18    8   29  -28    6   -2   37    4  -63    3   76  -18   -4  -11  -26   -3
  12    0  -19   31  -46  -14   -5    8   -7  -32  -37   -9   -2  -12   41    7    8  -13  -10   18   -6   11   -2   51    2  -42  -20   10   22  -22   15  -20   17  -10   14  -25  -23   -7  -27  -35  -23  -40  -30  -36   41   -9   21   11  -19   21   28  -12   -9  -22   45   -7   23   23    9   22   12  -50   -8  -38  -43  -45    6    5  -66  -15    9  -39   17  -38  -32   -6  -29  -11  -26  -19   -5   -6  -13  -19   11   -7   20    4  -55   15    3   36    9  -27   14  -51   -2  -22    4   21  -39   12   43  -31   19  -60   34   -1    0   17    1    4  -34  -19  -32  -17   24   28   34  -14   25   -8   -8   -2   30   13  -25   18    3  -27  -15   11   21  -41    6   23   -7  -51  -19    8   -9   -3   -6  -48   -5  -38   -2   -3   49   24   25   -4   35    3  -31   30   28   29    0  -22  -16  -56  -18  -29   17  -28   -8   56  -42   -9   24   17   25  -32  -20    3   30   13   29   12  -22  -23  -43  -45  -27   10  -16    3   12  -27    1   34
  -1   31   28  -13   16   27   19    8  -16  -38   28  -21  -16    3    2   72   62  -42    6   87  -42   31   25    1   64  -38  -39   12   -6   59  -22   -8   -2  -32   11    8  -44   62  -44   16  -15   39   50   11   14   -3   -9   10   94   47   48    1  -39   -2    4  -30  -33  -55   18   41   78   13   52  -15   14   14   28  -51  -14  -10    0  -32  -24  -23   21    3   13  -15   22   24   15   -9  -10   50    4   46   19  -18   34  -45   17  -35   65   50  -22   -9   45  -25  -10   77  -34   -6   25   28  -73   -5   -4  -23    4   -7    6    8  -37  -31   49  -62  -44   28    1   34    6  -11   44    0    3   42  -14  -20   31  -23   27   17   45  -23    5    6  -83    2   44   35   26   24   38    8   35  -18  -28   82   -3   68    7  -18   31   28  -31   -5  -35    4  -28    3  -37   -6   23   17   38   17    0   -3  -22   17  -65   69   -4    6   -5  -10    0    9    5   23    9  -16  -11  -58  -13   22   12   78   30  -22  -12   13
  -6   17  -10   -2   -2    6   -3   12  -17   -4   16   32   17   -8   -5    7   11  -20  -19   11    5  -43   -8    4    5   23   25   40   12   30    1  -25    4  -23   17  -19  -22  -20  -11   18   28   24    0   -4  -27    5  -17   -3    3  -23    1   12   -5   18  -31   -7    6  -14    1   25   -3   20   12  -19   -7   -5   22  -24  -18  -35   40  -39   -4   21   41  -24   31  -11   -7  -15   41   16   -1  -65   20   -4  -15   -2   16  -34   11    5  -25  -16   -1  -21    1    2  -43  -18   18  -12    0   14   -8   -4   -8  -22  -12   -7    4  -13    3    7    0  -11   21  -16   12   11    4  -20   19   11   30    2  -12   -8  -25  -16  -13   -8   11  -10    9    9  -14   21   26  -12   20   -2   -4   -6    6   13   20    3   10  -14  -11   -4   19   13  -12  -19    5  -30   -9    0  -26   -8   16   19    8    3   -6   12   -6  -21    6    1  -13  -21  -20   -6   24   32   -5   -7    8    1  -18   -3   16  -26   33   29   31  -16   -4   -4
 -33   -6  -20   -2    8   11    2   -2   37  -30   10   10  -26  -26   12  -12   10  -17    6   12   -5   -1   23    4   -5  -38    5   16  -21   17   29    9  -62   -7   26   -7   22  -31  -18  -35    3  -14  -33   -1    6  -41  -48   10  -40    4  -11  -23  -20   38   -6  -28   31    0   57   24  -34  -24   -6   -9  -10   61  -13   12   24   53   30  -18   22   -8    7  -29   -3  -25    4   -5   -3    7  -17  -22    2   14   32   37  -20  -12  -34   -3   -6    3   40   13   -9   32  -34    6  -20    4   14   -1   34   38  -25  -12    8   11  -11  -12    9   47  -32  -41  -54   -9  -24   13    0    6  -28  -10   -8  -30    7   -3    0   -7  -36  -21  -15   -9   53    0    5   -6   -4   -8  -36   15   32  -14    2   -8  -31  -25  -26    1    6   69  -14    4   -6    5  -34   47  -14   -5  -20  -25  -17  -24  -13   46  -19 -107   -4   -9   31  -32  -37  -31  -33   33   27  -14   -7    6   21    4  -13   -5  -11   27    8   -4   -6    4   33  -44
 -13   28   35   49   18   -9   -4  -13  -18  -25  -11    2    3   18   64  -19   -3   25    2   17   30  -26  -32   -6   36   49  -12   22  -64    3   32    1   37   46  -16    3  -15  -54   26   29   56  -37   18   17  -38   25   27  -20   10  -31  -23   19   10    3  -44   -3  -69  -18   39  -10    8    5   -8  -45   19  -24    0    0    9   29   -4    9  -29   11  -11   -4   10    3    2  -20   22    0  -19  -13  -26  -14   28   43   26   56   -6  -17   12   -8    9  -37    9    3   26    3    2  -61   37    2  -48   31  -56   26   26  -15   14    9   85  -44   44   -1   60  -18  -23  -29  -30   14   -4  -12   14   57   25  -13  -19  -24   -9   -5  -26   -6  -22   -4    4   48  -21  -25    9   55   23   30  -10   -3   11  -24   -4    1   -3   43  -13   -9   62  -36    8   62   53    2   -8   -3    0  -13    2  -21   51   64    7   12  -26  -19   -7  -33  -10  -16  -16   -8  -12  -19   10   10    4   59   42   -7   47    0    3   84    8   12
 -40  -23  -14   20   -4    0  -42   -6   40   -1   26   35  -35  -19  -17  -37   36   19   -3  -31  -24   57   67  -49    0  -28   53    0  -24   37   29    8  -19  -12   -3   -1   47  -15   29  -18  -13   16  -13   31   36  -42   30   30   -7   50   35  -32   16    6   29  -40  -22    8    7   14    1   67   13   19   18   15  -33   11   11   12   27  -29  -25  -14    4    9  -16   -9   43   -1  -10   19  -17   20  -40   24   39   25   -9   27    3   -7    5   20   -7   16   25  -51   24   -4  -27   -2    3  -29  -22   23  -28   -9    0  -18    0    0   11  -27  -29   -8   47    8   12   34   19   55  -44  -12  -25   11   53   14   24  -17   13  -25  -33  -25   46   -6   -4  -14   -1   32  -10  -39   16    9  -50   21  -26   10   -5  -10   14   35   -7   10    1   29  -17   -5   13    3   11  -21   -2   36    4  -10   26  -47    8   -3   43   -8    8    5  -12   26   18  -28   27  -39  -17  -43  -40   10  -35   33   27  -10  -20   33   11   16
 -13   20   -2  -17  -31   60  -27   -3   22   41  -17  -43  -40   28    2   19  -31  -48  -23    8  -28  -87  -47  -25   27  -83    2  -19  -27  -13   10   16   -1   -9   -1    3   33    3  -10  -11  -13   28   15   33   48  -49   -9   13   64  -27   33   -2  -16  -15   58   -2  -29   -3   25   -4   24   22    3  -21   18   16  -18  -10    6   24    1   -4   19   35  -40   36  -47  -25   -8  -17  -17  -25  -46  -54   -1  -63  -10   -6   38  -28  -21  -34  -13  -39   -9   12    8    7  -48   18  -51    4  -26  -53   16    3  -18  -34   -5    2  -58  -33  -21   -7    7   29   -5   31  -18   32  -29   27  -23   42  -42  -11   22   -7    9  -28   -4   28   -2   -7   24  -17   23  -36  -25    8   18    8    2   45   27   38  -62   25  -44    5    7  -17   10    2  -10  -14  -19  -39  -40   -9   30   28  -10   36  -34   20  -21  -61    4   32   -5    9   11  -11    2   14    5    9    2   47  -29   11    0  -26   -9   12   -5   -3   10   29  -48   -3
 -66  -27  -43   22   -9  -63  -38   56   -7   57   71  -59  -17  -75  -25   -1  -23  -24    2    1  -67   -9  -34   55    8   55    0  -12  -53    2  -22  -59  -46  -28   -4   35   -8   14   18   23  -10   81   40  -34  -67  -52   18   31   78   10   37   -9  -55  -33  -87 -110   -7  -14  -14   36   22  -37   13   -7   20  -24   -4  -11   40   -3  -68   20   19   -2   20    8   95  -33  -17   20  -61  -31  -32  -28   -2  -22   -7   10  -20   -4   53   -5    6  -16   44   39   42  -10  -50   -9   34  -44   10  -41   -2  -33   42  -49  -66    3   26  -31    1   -6    1   -4  -18  -11  -19   43    8   -1  -42  -47  -35   -4   -1  -53   24    0   22  -16  -18  -74   47  -22    1   74  -26   37  -16    9  -30  -35   11  -48   14   20  -48  -22  -82  -15   12  -20  -21   12  -27 -105  -44  -21  -17  -45  -19  -32   49   30   15   62  -21   42   85    6   11  -26    3   13   98    5   25  -22    1    4  -10    2  -37  -25    5  -14  -26  -79   10  -21
  12    1   -6  -16   27   -3  -21  -19   17   32   -3    8   -5   18    7    7   19    5   10   -9    3   12    4  -26  -10   39   -9    6  -31  -10   -2   13    0   17   -8   11   34   28   13   41  -11  -24   23  -14  -10    3   31   14   12    8  -15   14   19  -56   -1   10   -9   -1    1   -6   37   26    3   11  -20  -19  -19   27  -25    4   19  -33  -12   12  -20   36  -28   26  -20  -16    3  -54   11    9  -12   -6   -3   -5   21    9    6   24  -18   13  -13    9   -1    5   -6  -23   33   17   23  -19   15   -2   53    8    0   36   -7   11  -12   -6   13    4    4   -8    3   14    5   44    3   -3  -46   10   13   -8   -1    9    3   -5  -18    1    0   27   -1   19   16   14   -6   -3   -6   28  -19    3    7   13    1  -13    2   -1   -3   24   11    9  -31   33    5   21    8   30   -4   26   14  -27   -4    9    3   16  -29    3   32    3  -19   14   16  -14   -2    5   -7  -11   15    3    2    1   12  -23    6    0   19   -7
  -3  -18   29  -24   -8  -14  -37    1   27   28   30    2  -19   -1  -26  -11   33   20   -1    5  -14    4    0   -7   -6    8    5   -7    7   33   -1    3  -32  -14  -19   57   23   10    0    1   -6  -14   27  -15   23  -16  -16    1    3   17   10  -25   13  -14   10   -6   -6    9   -6    6   20    2   18  -20  -10   -6   -5   -5   26    2   42  -44    0   23   -4    4    7   18   31   25    5  -19   -2   43  -28  -32   41   -8  -26   20    6    4   21  -13    3   13   13  -17   41    3   -1   18   -8  -33   -5   18   23   -1    4   -9   50   21   22   28   12   53  -10   38    6   10   -4   18  -26  -14  -24   23   36  -12   18    2   14  -10   35   38   -6  -22   -1    2   26    8  -12   13  -11    1    9   -9    6  -19  -19    4    7  -26   21   24   -9   39   -6  -32   35   24   14    9   37  -16    5  -17    8  -35   16   20   -1  -13    9  -28    1   34  -16   52   16    1   -1    3   45   39  -11  -37  -12   -2   13  -26  -16   -9
   2  -21   29   19   -9   -7   20  -32   21   10   27   43  -39    5   14  -28  -12   27  -19   -5   17    6   24  -26    0   47   19   11    4   33   -4   14    0    2  -22   -1   27    8   10   25   35  -14   11  -14  -12   11    0   33    0    0    4   -3   26   27  -14  -14    4  -10   -8   -8    5   49    0    7  -15   34   -8   -1   14   14  -18   -5   13   15  -24   -2   23   35  -14   11    7  -32  -12  -11   -1    4   -4   10   -4   31    8   45  -16   21  -12    7   24  -14   10   26    3  -12  -10    6    0    6   19   11   15    1   38   62   29    8    5   36  -36   14   -1   13  -25    2  -12   -7   40   16    3  -25    4  -34  -21    4   10    9   -3  -20    8   16   -4   -3   -7   17   22    9   13   21   16    0   23   49   37  -22    0  -20    4    3    9    8   33   -1  -20    3  -17   37   63   20   15    5  -15   -8    1    3   37   -5  -10   -6  -50  -31   -7  -11    1   26   -6    3  -25   40   26   75  -16    8  -20    4
  -1   10   -4   35   -6   27  -21    8    2   23   22  -12   14   -8    0   -4  -11  -13   14   -1    2  -33  -24  -17    3  -28   19  -42  -17   22   19   -5   23   -2   44   -7    7   -5    2   -1   39   -5  -27    2   -7  -16    7    3  -22  -20    0    1   -7   35   -6    1   -8   -4    3   17  -49   38   22   -6    2   -8   14  -29  -22  -53  -13   31   16   15  -19   -8   26   -4  -16    9  -17   10   -2    0   38   -6  -16   15   17   -3    7   23   12   -1  -36  -37    7    0  -17    9   -6  -28  -31   -6    8   13   16    1  -18  -11   -1  -10   13   74   -3   -5   51    1   44   15  -17   25   12   13   -1  -17   -5  -11   22  -22   -3   -5   10   -2   29   -2   13   18    4    1   16   -2   10    1  -15   54   11   11  -19    3  -22  -30   12   10   -4  -16    4  -12  -16  -16   13  -23   19   53   -4   19   -7   18   -6  -27   -9  -19  -13   -1   32    6    7  -16    4    3  -14    4   -4    6   -1   12   26   14   41    8  -10  -20
  27   26  -23   -6   25   41   30    2    2    8   67  -13    9  -28   11  -70   34  -30   50   74  -34  -34  -46   56   11   25   26  -21   17    3   23  -17   12    5   -6   -2  -13  -13  -25  -29  -44  -28  -33    9    3   21   19    1   -1  -17    8  -26    8   12    3  -16    1   30  -23    8  -39   -5   10  -30   14   35    6   37   42   24   25  -15  -13    4  -46   34   -7   15   56   -1   40  -16   31  -20   -7  -19   21    2  -61   35   22  -42    9  -29   13   75  -17  -16    5   43  -17  -11  -52  -14   -3  -10  -39   27  -21  -24    6   18    4    9  -31   11   17   43  -31    4    4    9   41  -20   31    9  -39   15   43   26  -50   -9  -38   13   27  -14   39    5   21   -4  -71   14  -22  -25   33   -9   15  -22  -27   42  -24   -2   30   27  -15  -52   -5   15   31   -8   39   24  -17   20  -30    0   17  -11   24    3   73   36   46   -2   -6  -17  -15  -30   -9    6   16   -4   13  -14  -28   30   -8   10  -46   59   43  -11
 -16   10    8  -45  -20    8  -12   -7   56  -37   11   85  -19  -39   22    1   33 -103    5   13  -65    4   93   53  -27   12  -31  -37  -28   -4  -23  -66   26   35   -4   41   -3   -1  -42  -15   43  -32 -113   38  -24  -76   16  -37  -32   -4    6   -9  -91  -10  -81  -36  -17  -10   12   49  -48  -13   38  -31    9  -10   52  -19   -1   -4  -23    6  -32  -24  -12   43   22  -77   23   30    3   11  -51   55   17   19    3   30   10  -98  -35   17   42   44    6  -11    8   -8  -52   17   21   47   -9  -18   24    2   27  -79   53   -2   -4  -44  -75  -46  -44   23   31  -11   -9    1   26    4  -16  -29  -17  -91    1   -6   23   35  -94   -4   12  -29   94   41    1    9   33  -21  -10  -25    5   12   19  -22  -79   -5  -50  -12  -44   91   23   43   13  -29   32   44 -106 -105  -52  -19   74   -8   20  -22  -66 -119  -17   41   31   17   33   53   20    7    3  -30  -10   29  -23    6  -28  -65   -6   61   36  -21   15   -1   36  -83
  21   30    5  -20  -36   62   51   40  -21   15   19    5   49   -6   15  -38    9  -32   19   77  -31    9  -54  -11   29   31   13   48   44   27    7   23   21   -2   -5   -6  -21   22  -31  -33  -23  -29  -11    9  -39   -1    6   -4   -5   29   -7  -10    1   -1  -16    9  -48   21   -9   11  -59  -17   21  -46   10   16   42  -19   23   45   -8  -30   14   31  -19   48   22  -21    9    6   20   -1   17   14  -15   21    7   26  -25  -30   19  -12   35   -7   42   42  -18   25  -33   46   15  -22  -24   34    1   24   17  -29   -8   39   15  -23   16   23  -46    3   15    2   -6  -16   -3    8   51   -1    1  -12    9   42  -13   41   22  -23   47   35   25    9   -4   11   32    1  -49   29   13  -29   33   -2   24   41  -34    0  -34    8   35   33    7   36   -3   11  -35  -13  -25    0  -29  -24  -18    4   -5  -59   15   26  -16   50  -40  -17  -12  -28  -34   -5    3   26  -16   19   27    4   23   -3  -18   10   70    9    5   11
  -3    7   20   49   23  -16    0   12   -9   40  -27   11    5    9  -14   14  -11    5  -25    4  -49  -19   11   23  -17  -39    9   -5   11   -1  -23   29   15   -4  -17   17  -18  -27  -13  -37    4   14  -10  -13   38   17   -7   -4    5   -7   -9  -22  -19  -10   36   -7  -30   16   -3   20   35  -32    8   46   -9  -64   10    4    6  -29   21   17    1  -16  -25  -20  -12  -12   -3   10    8  -10  -15  -38  -13  -18   24  -23  -27   18  -13    1  -11   26   -9  -30    4  -10    5  -22  -16    5   10   13    1   13   24   15   -4  -10    6  -27    8   17   -5   20   38  -15    1    5   10  -10   -8   -5   -8  -12   13    1   -4   26   -1   -5   -1   13  -10    7   -6  -29    7   -2    8  -14   -8  -11   13  -20  -29  -13    8    8  -29    5   -3    4   10  -25    8   -1   -7   -6   18  -25    2  -35  -28  -20   -6   49   -6    3   -8   -4  -15  -21  -17   11   39  -21   13   -9   -2    4   20    4   -9   50   -8  -42    0  -38   37   -6
  16   -4   16  -59  -37  -14   21  -23   -6   21   24  -25    1   -5  -33   42   30  -29  -22   17   19    3  -42    6    9   32  -14    9  -12  -30   30   12   13  -15    8   67  -38  -43   36   83   19  -38    5    4  -28   24    0   42   -9   30   29   44   22   -5  -40    2  -82  -24  -13    8   19   16  -14  -28   -5  -14  -23  -33  -30   10   15  -10   14   27   -6  -27   25   13  -26   -2   13   -6   -9  -26   47  -48  -60  -21   62    5   23   10  -20   16  -61  -55   11  -23    1   12   54   27  -82  -16  -25  -48  -52   10    3  -61  -14    6  -12   34   92   27   19   22   13   25   33   -9    1   -5  -11   14  -10  -42   15   -8  -26   24   20  -23  -57  -39    4   55    5  -16   59   26   -5   -8  -28   42    5  -61  -18    7  -23  -87   -6    5  -63   77   15  -61   28   15   30   43  -27   29  -17  -20    6   34   -9  -27  -25  -27   19  -21   13   -2 -127  -28   -7    8  -31  -42   24    7   20  -14  -14  -30   11   29  -79   19
  17    7   37   47    3   24    2  -23  -16    7  -47  -15  -20   16    3  -42  -29  -28  -11    1  -58   13   20  -22  -21  -29   25    5   24   36    2    0  -39  -48   13    0  -39  -28  -28  -65   11   17  -57   -2  -10   -1  -21  -33    2   10  -29   27  -75   -3    6  -64   45   33   16  -16  -20   28    0  -41   -2   -5   21  -22    7   12  -67    2   24    2  -31  -24  -23  -57  -42    3  -20  -36   -1   -6  -22  -18  -58    1   12  -34    2    3   25  -44   -5  -20   12    4  -25   14  -13  -62    9    4   16   32  -43  -49   -5  -54   -3  -17  -87  -12    8  -16    9   -2   17  -35  -35  -19   36    4  -34  -52   34  -11  -30  -14  -50  -18   13  -32   22   -7   45  -11  -16  -38   19  -19   19  -12   21   60    3  -25  -46    8  -52    2    4   -4   87   44  -18  -37  -63  -67  -21  -47   -2   16  -27   41  -41   84  -47  -22  -12    2    2   12   27  -41   22    7  -16  -26    1   17  -28  -74  -21  -24  -31  -22    6   -8  -74  -14
   3   13    2    5    6   18   -7   18  -15    1   30  -34   -4  -14  -13    9  -26   31  -18    3   24  -35  -33  -19   -3   17   16  -36    0   12    8  -20  -14  -21   10  -16   -1  -17   19    7  -15  -14   -5    7  -15    5    3   -1   23  -18    5   35   35  -24   17  -22  -28   13  -19    6   -5   -3    8  -16   27   24   -1    6   -5   50  -10    6   -1    4   26   10    8   11   -3   31  -19  -22   -9    4  -34   10    3   32    7   36   17   26   30  -17   41    2   25   -7   12   20   26    8   17   -3   -6  -12   -5   12  -27    7   -3    1   24    6  -14   -3   -7    0   15   14   -6    9    9   24    8   12   14   -3   30   14  -26   -5    6    1   12   21    4   -8   35  -14   -7    2  -18  -43   21  -22   21  -14   28  -18   27  -34   14   19  -14    9  -12    0   19   23  -19   10   35  -23   29  -17   25   34   17   -3   -7  -11   15  -33   36    6    5   18   23   -1   44   -1  -16   24    8   -4   -7   44   11  -10  -14   37
   3   67   10   34   34  -48  -24   22  -29  -17   -8  -19   14  -58   10   13  -48   -1  -27   -3   11   12  -13    6   13   -3  -22   32  -18  -18  -51  -26   15    8   29    2   15  -13    0   -2    8   13   32   28    9  -19    0    0   31   -3   19  -30  -39   34  -13   19  -34   -7   42    7   33    3   10    1   15  -13   25    4  -21  -37  -53   12  -16    1   23  -16   51  -28  -22  -11  -42   25   -4    5    6   10   60    5    3   -8   27  -28   11   -6  -14   15  -19    7  -30   -1  -14    0   -4  -22   -9   17   16  -54   11   45   31  -40    5   25   -7  -20   -4  -33   -1   -7  -32    6   40   13   -5    2  -12   -1   -9  -11   -6  -17   -9  -40   13    5   20   12    6   12   21    8  -15   14   27   20   21   17  -24   -2  -26   59   -3   11  -43   14  -18   35  -44  -21    8  -17   -1    7  -38   12  -28   37   -3  -18   -3   37   14   13    0   19  -23    8   37   -5   17   38  -30  -18    9  -56    9    6   -7   -4   19  -27
  -3   -4   33  -19   21  -26   16   36   11   -2   34   30  -31   10   -5   26  -17  100  -10  101   35   -2   23  -54   60   38   49   -7  -28   29   13   -6   -9  -26  -13   11   40   44   40   18  -31  -15   28   -9  -27   66   -9   28  -11   29   46   -1   90   13  -45  -31   12    7  -36   52  -13  -70  115   49  -30    0   77   -6  -55   -1  -12    5  -23  -72  -54   14   30  115   42  -21   42   13   12  -10  -43   -3  -44   -6  -10  108   46   13   66  -11  -20  -50    0  -13  113  112   17  -50  -16  -14  -29  -60   15  100   30  -29   12  103    4   71   73   24  -60   41   57   50   16   29   30  -57  -25   59   45   -5   88  -28   38   -5   -6  -82  -68  -15   15   36  -16   67  -20   38  -28  -85  113  -46   29   40   46   88   41  -75   76   16  -58  -53    7   28  125   85   68   -5   18  -62   31   -4   28   44  -40  -57  -15   57  -29   11   29   39  -54   15   29   27  -27   36  -14  -41  -26   26  -43  -46  -17  -14   15   16
  -7   26   64  -29    0  -21   26   26    5   -1  -23  -15  -17  -23   -4   21   10  -53    7   35    8  -24  -16  -47    9  -21   32  -10   -4   19   -2  -10   -5   -3  -47   26   33   22    9  -20   27   38   -1    6    7  -13    9   -7  -11  -16   10   -3  -13   31    3  -27    1  -17    1   48   18   -9   -3    3  -13  -65   14    3   19  -58    8   22   10  -32   26   -2   17    2  -12    4    3   10  -13  -32  -78    8   27  -13   12  -45   22   -9  -16   18   38  -19    8  -21  -40   -3  -14   -8   17   -9   -8   66   65  -15   28    8   22  -21  -19   21   16  -40   10  -10  -27   28    0   36   17   15  -26    1   76   10   11    9  -32   -9   22    6    5   -7  -10  -19   29   17   31    3  -15   26    6   -3  -14  -13  -36   25   27  -28   13   26   33  -27    9  -24  -21   -3  -25   -5  -32  -61  -10    6  -10  -51    3   15  -43   26  -16  -26  -18   25   60  -18   35   10   16  -12   -3   -7   -4    3    1   32   -3  -76    5   -8
  22  -47   28   28  -23  -17    5    5  -14   -4  -11  -27   -9   24   -1   42   30    2  -11  -34  -15  -18   15  -16  -30  -19   -6   15    0  -52    0   -4   19   21  -20   38   12   17   41   33  -12   14   -7   -4    1   32    0  -25  -25  -16  -32    8   22   32  -18   16   15  -47  -12   -4  -11   11  -28   10  -33   37    3  -10   68   23   46  -32  -20  -16  -13   14   22    2   -1   -9   21  -15   40  -20   10    9  -20   -5   14  -28  -18   -3    1  -19  -30   14   49   10   14   15   12   12  -12  -15  -10   46   17   24  -19    5   19   -1    1  -15   12   -1  -50  -30  -38  -12    8    3  -20  -15   -1  -11  -16   11    8   38   32   35   -9   22  -11   -7  -20   11  -34    9   29  -42   24   18  -18   15   28    3   17   11  -24    0   20  -45   42  -25   31   36   21    4    2  -17    7   -2   66   37   24   52   17   47  -60   -7  -24    2   -3  -69    1    5   -4  -18  -42  -10   27   13  -38   10    8   26   17  -15   15   25
   1    2   27   40   -2  -25  -10    2  -27   -5  -35   10  -19   10   15   38   26  -28  -41   13  -22   60    1  -17  -24  -28   41  -22   -4  -29  -19  -33   59   -1   11  -37   50  -17   53   21    4  -17  -36  -39  -15   -3   23   -3    2   38    5    2  -31   22    4  -40   33   -2  -37   35  -11   16   21    5   -8   29   -6   18   11   32   53  -31   23   22   28   33  -12  -12  -16    0  -20  -15   32    0  -10   17    9   12   18  -34   54  -19   18   27    9   24  -12  -45   10   -1    7  -38   22  -39   47   31  -10   -6  -42   21  -23  -24   -9   -7  -33  -16   -1    7   19   43   33   35    0   22  -51  -36   50  -26   44   11  -21   45   -6  -15   58   28  -55  -13  -31   19   23  -50    3   -7  -12   27   48    5  -15  -41  -39   46   40    3   -8   28  -14   21    9  -24   -8  -21   54   -4   16   35   24   83   17    5   -5    7  -34   -9    7   11  -41   23   66   -8    3  -51   13   14  -43   41   15   -6   37  -10   -5   57
 -22  -10   -2   28    4   17   42   10  -29   52  -21   32   25  -27  -11  -28   33  -17   23   -6  -13   14   42   -4   -7    7  -25    4    2   60    7   15  -58  -25  -52  -27  -53   17  -39  -50   30   62   45   23  -15   32  -14  -39   28  -27  -44    1   12   23   16   31  -39  -12   15  -29   13  -45  -34  -24   -6  -29   -4   -8   44  -32   19  -28   25  -26   -6  -32   12   22  -85   11   19  -59   -3   25   11  -22   28   -3  -38   25  -45   23   20   13   51    7   30   55   25  -24  -14  -37   31   47   -5   20   44    7  -36   24    1    0   34   36   -9    9  -39  -25  -50  -48  -18  -64    2   11   41   -5  -25    4  -26  -22   27  -45  -38  -21  -23  -12    0   -9  -35  -27  -52   24   12   15  -32  -30   20   -4   24    9    3  -54    2  -31   17  106  -22  -68   25   10  -33    3   14  -35  -23   34    7   20   -3   -1   -3    9   -1  -74   26  -44  -61    6  -41  -11   -7  -31  -22   16   26   -6   11   20  -44  -61    0    6
  35    4  -16   -2  -13  -30   28    3  -14   31  -30   -1   39   29   -3  -54  -10   -5    3    6  -17  -23   -3    1    9   16    9   -9   48  -45   11    2  -13   -1    0   57  -22  -51  -24  -11  -63    5   23  -31   35   25    2  -32  -16  -56   -8  -66   13   -3  -12   14   -7   22  -15   -5    7    0  -37    1    6   12   10   -8  -14    2   10   14   13    9   25  -10    4    0  -15   17    4  -29    2    3   16    6    9  -21  -55    1  -15  -16  -13   20  -16   14  -43   42    5  -28  -27    0   12   33   13    4  -21   12  -22   16   77    5    9  -20   -9   -7    0  -32  -48  -37  -20  -29    2  -44   18   25  -19   36  -11  -24  -12  -32  -35    5  -12  -11   -3  -10  -20  -37   29   32   30    2   -9   36   15  -34    2  -22   -2    1  -18  -31   -2   31    9   -3    9   17    3  -23   31    7  -16   28  -13  -24  -16   -3  -15   -4  -15    5   45   -3  -14   10  -26  -16   15    0    3  -23    6   -8  -27  -39  -41    4   -9  -12
 -39   42    6   13   41    0   11   34    3   42  -27   -5    5   -5  -76   -1   11  -20  -19   45  -71   -3   19  -73   58  -19   35    9    3  -22  -36   -3   -4  -28  -22   -2  -19    2    2   -3   66  120  -14   14   12  -12    9    3   -3   13   44   -3  -10   56  -22  -54   27  -52  -18   26   -2   61   14  -22  -27    6    5  -36   37   36   -4  -19   17  -11   16  -17   20   -7  -20    0   -3  -40  -14   13   69   -5    5   18   29  -21   -8    4    3  -29  -98  -11   -2    6  -15   11  -17   25   26   -2  -19   33  -14   -8  -23  -12   -4    5   11    1    1  -25  -19   -1  -10   -7    6    1   12  -29   45   13  -18  -11    6  -28   11  -24  -35  -29   23  -20  -24   -1  -12   22   16   19  -17   34   18   86  -19   -1   25   46   13    5   36   -9  -19  -21    3  -21  -12  -19   -9  -11  -40   68   10   39  -12  -84  -16  -39  -22   19  -43  -33  -28   16   29   -5   28   20    8    1  -39   -9   24   42   57   26  -11  -30   56   -9
   8   11  -10    0  -40    4   28   21  -11  -14  -14    7   41   13   -4  -29   10   34    2  -10    3   31   -4    4   -1   23  -13    3   19   50  -15   11   -4  -37  -26  -40  -51   19  -16  -22   15   29   18   -7  -19   23  -30  -37   13  -12  -13    2  -16    5    1    9   33   -7    6  -13   43   24  -21    0    4   -2   14    6    5    1   18   16   -1   -4  -51  -52  -10   17   -6   17   45  -61   37   21   45   19   -5  -15  -19   35    5  -24    6   16   15  -11    6   14   32  -10   24    9   12   26   37   27   29   39   10  -12  -20   19    7   29   -7   15    5  -46   23  -34  -27  -45   -9   14   20   27  -11  -27  -30   -4   -6  -19    2  -11    1  -14    6    3  -22   -1  -32    8  -49   20   10   -4   47   -4   14   -7  -40   17  -16   25   33  -36  -25  -14   40    8  -16    3   14   32  -31   -5   33   34   17   -3   13   10   22   26    2  -63   41   -6   -6   -9   28   -4   -7   -7   -8   42   49   -2  -25  -27  -22   51
 -46  -16  -55  -40    9  -46  -51  -43   19  -26  -21  -19   -1  -30   -5  -32   23   -1  -29  -12   43  -13  -15   -9   32   55   24  -54  -20    3  -10  -17  -48  -11    7  -71    5   34   21    2   25   41   53  -36   -5   31   20  -24    0  -22   19   30    6   12   34  -10   46   30   43  -12   53   42  -24   13    2  -21  -87   93  -32  -48   30  -23   -9  -10   -1  -78  -24   37  -55   11   -1   14  -11   32  -35   29  -14  -52   10   24   27   -5  -49   15   17  -18  -43  -19   26  -71   36  -17    7  -34  -15    0   -7   39   37    6  -70   17    8   -4   23  -25   28    8   -6    5   31   14  -20   20  -12   44   26    7  -19    9   85  -29  -37    7  -40  -42  -21   22  -22   55  -49  -10    7   11  -40  -11   -5  -16  -22   21   10   29  -61  -40   -3   24  -67  -26   31   57   16   41   34   30  -70   -4   43  -21  -13  -56   63  -30  -14    3   22    2   31   12   21  -28   10  -35   11   14   -4    8   15  -33  -44    7   19   49
