  41   42   -5   -6   81   -6   46  -57  -47   11   19   58  -11  -10   -4   74  -42  -20  -13   76   11   14   -1    6   12   15   51  -23  -28   -2  -32   -6   -8   72   39    0    1   24   23   17   67    2   16   17  -15  -32   39   -8  -11   18   -2   24   37   27   10   39  -15  -18   48  -44   25    3  -36   30   35   41  -43  -25  -14    1  -19   -9   39    8  -42   29   97   -6   40  -20    9   -6   14  -53  -17    5  -25  -45    9  -15  -21   45  -27  -17    3  -20
   5   44   38  -91    4   32   17  -32   23  -11    9  -11  -27  -26  -20   31  -17   25  -29    8   -1   12    8    3  -25   26   17   -2   33  -20   18  -29  -30    2  -47    8   60  -66    5  -40  -19   16    2  -22    1  -55   -2  -45  -23    9   -4   13   27  -15  -33   34  -36   22  -29   50   89    4  -52  -10   -4   32   16   55  -11   13   23   55   15  -47    8  -22  -24   54   21   17  -16  -32   49  -28   31  -23  -29   25   11  -17  -43   76  -35   -4   16   45
  36    4  -38  -28   55  -83  -35   13    3   29   -4  -58   57  -38  -13  -14    7    1   20   -1   34   14   65   60  -19  -38  -53   13   30   48   22    8  -33   38   20  -27  -28   33   60  -37   29  -34   48  -33  -32   41  -17   17  -32   32   -1  -20  -11    4  -16   28   -3   -3  -44   22   88   -2   61  -28    1   19  -24   -2   -3  -45  -12   37  -57   24  -35   16   -9   18  -56   -2  -10   36   19   53   38    7  -32  -12  -11  -17   71  -57   49   18   21  -64
 -10   44   21   63  -52   12  -22  -15  -35   17   41  -47  -22    4   29   17    2   12   25  -58  -17   37   28   29   23  -22   15   21  -25  -19   40   29  -42  -32   49  -16   12   31   20  -14  -26   65   59   -4  -34    3  -48   31   20   -3   41    5  -60   66   26   27  -22    7  -16    7    4    7  -29   -7  -49   22   24  -88  -19  -23    5  -20   31  -25   57    1  -12  -49   27   -3   -6  -53   42   44  -42  -31    7  -59  -27   50  -16   -4   20   11   57   45
   1  -20    1   16    4    5  -44  -10  -12    3   14   34   19  -22  -19  -60   -8  -19   15  -43  -37   30    6   16   62  -22   27   -9  -12  -19  -55   -4   22  -13   23   29   17   12   -4   -9  -13  -18  -10   16   15   55  -78  -24  -27  -55   36   -7   -7  -12  -23  -81   42   42  -17  -22  -34  -46   57  -21   16  -78  -45    9   59  -14    2   16   32   -2   -1  -27   44   28   21   18  -16   12   -5   55   29  -74  -31  -47   -6   45   34  -24   64  -12   16  -20
   0  -19   38    0   21   36   37  -42  -72   23    1  -50   53   10  -25  -17  -34   15  -13   47    1  -19   62   77   53  -39  -51   20   -4   24  -39    4  -54  -28   85  -72   35  -17   69   40   15   12   -2  -38  -40   31   27   16   15   17    4  -43   13    9    0   51   45  -15  -57  -42  -32   38   50  -27  -12   38  -15   49  -10  -57   24  -29  -29    5   27  -47  -40   11  -11   36  -24    6  -19   43  -43   31   17  -64    9   53   66  -27   38  -11   -2   23
  -6  -26   13  -32   16  -50   60   -3   18   12  -18  -20   -3    4   11   31   28   24   14   -3    9   19  -23  -29   -2  -29   41   22   41   10   27   19   18  -21  -41   21   -5  -33  -15   20   -4  -31   22   58   13    2  -56    4   -4   14    1   54  -66  -35  -65   -7  -30    1   58   28  -54  -10   -4  -28   29   -3  -14   40   19    8   20  -88   52  -25    0    7   22   39   48   27   -8   45   38    6  -41  -27    2   10    6   -4    0  -19   61   -1  -35   24
 -72   19  -31  -38   10   39   22   39   71   13    5   43   51  -48   37  -53   17   -1  -17    4   46   -9    5   -6   33   30   19    3   12   62   45   30    9  100  -93  -24    0    9   28  -77  -32   -5   16  -33   -6   48   25   28  -31   40   -7   73  -14   -3  -16   77 -100   19   15  -16  -19  -47   45  -14   58   72   25  -15  -26   21   -1  -33   34  -13  -37  -10   -7    3   31  -50  -23   15  -38   49   -2  -46  -29    4  -12   29   59  -22  -52   42   -4   21
 -13  -29   26  -97   39  -42   57   42  -22  -21   15  -17  -48   -6    0    3   42  -17  -23  -36   28  -26  -16  -21   34  -10   24   17  -32  -48   10   -8    4  -49   27  -11   13    5  -38    8  -20   14   46  -13   33   24   28  -20   -6  -43  -12    1    8   -7   -1  -54   -1   31  -22  -28   12   -6  -30    1  -36  -48    9   -2   41    1   42  -40   30    5   38  -35   31   38   25   60   -9   10  -17   21   20    9   -5  -24  -35   33  -42  -24   25   87   24   19
  42   -3  -51  -25  -11   24  -30   -1  -77   21    5   62   -5   -1  -27    3    5   31   35   54   79   19   39   39    5   17  -75    7   22  -27   11   25   -3  -47  103    4  -20  -12   11  -14   45  -10    0  -18    3   51   32   15   -7  -40   -2  -13   -2   41  -48  -45   24   38   -7   22  -31  -31   13   -2  -44  -45  -31   12   16  -11   20  -34  -77  -33    4   31   18   -5  -75  -23   94   24   -5   24  -61  -52   -1  -66   -6   -9    4  -29  -24   52  -28  -34
  19   -4   11   54    5  -45    1    8  -23  -12   54    9   29   35   -9   27   28   45    0  -57   38  -22   23   21  -28  -58   -3   12  -29   21  -36  -11  -11    7   -7  -49   -7  -60   29   51   16   41  -19  -79  -29  -72    5    5   27   42   22  -50  -34  -30  -32   31   40   25  -45   20  -35  -29   -2  -31   -3   26   -2   20   31    7   34  -25  -24  -50  -18  -27   24  -33  -40   -9   18   -6  -56  -62   33   40   39   49   19  -48    3   31   59   72   -3  -25
  38  -46    6    6   13  -20  -40   15  -43   59    1  -31    8    5   -3  -28   -3    2   -8  -15  -20   32   10   11   21  102   14    7    3  -10  -14   36   85  -33   79  100   13  -45    7    8   40    9   41   53   88   20   10   16    6  -22    5   41   11   17    1    3  -23   -4   62   -3   16   -3   13   15  -10   12  -25    3    9   68   -5   -4   29  -42    0  -13    9   -4   26  -16   16  -26  -24   27   12  -19    9  -80   14   35   18  -32 -117    4  -20    1
   9    6  -16  -42  -19   38  -33  -35    8   -5    0   28   -4   22  -10  -16  -11  -65   20   18  -67   34  -28  -26  -15    2  -12   12  -11   21    9    1    2    2  -10    6   15   -2  -14   60   15  -32   -8   11  -10   -9   16    1   -2   20   28   18  -34   22  -37   15    0  127   25   16   28  -16   -6   20   32   15  -18  -36   -5    0   13   27  -20  -25  -33   21   -6   34  -25   -3   31   46   -1    0   10  127   -1   -1  -49   -2    2   19  -30   20    5  -15
   1   45   10  -43   22   -4  -81  111  -53    2  -30  -35  -37   -8   -5   19   25  -55   18  -31   -3   15   -3   15  -14   39  -13   33   30  -34  -22  -19  -36    1   64  -18   25  -26   -1  -62   -7  -14   -5    2  -46   -7  -54  -30    6  -17   -2  -95  -91  -51   14   -1   64   31    8  -50   -3   32  -42  -23  -33   -6    9   -1  -76  -43  -39  -11  -16   -6   16   21    2    6  -21  -77    9  -31   38  -20  -26  -48    2    6   -2   -3  -36   12  -67   30  -25    3
  10   -7   27   21   38  -42  -26  -25    6    9   27   11  -17   31  -14   47   -4    5   19   29   37   18   15   20  -44   77    6   28   -6  -14  -38  -42   -5  -38  -60   34  -19   37   18   27   -6   -2  -34   14   24  -35   -1  -24    7   22   35  -77    0   12  -27   11   65   18    6   -6  -68  -58  -44   -1  -44   10    6   -8  -10    4   -5   -1   -7   21   10    0    1  -15    3   51   -7   30   31  -83  -21   -8   10  116  -19  -48  -38   42 -114   38   18   22
  -1   -1  -10   15    7  -30    6   -5   18  -16   27  -38  -13   -8   21    5   -9  -21   15   27 -126  -15   -9  -18   -9   -4  -15   11   -5    1   -4   16   -3   37  -28  -25   43  -16  -18  -14   14   32    3  -22   -9   37   -1   22   20   -6   23    2   13   16  -60  -10  -17   96   -8    8    4   16    0  -12    6  -14   34   10   -5   -2   39   -2  -15  -20   -7    7  -10   -4    5  -22  -27   -8  -17   28  -56  -70   12   10  -50  -10   -6  -32   -6  -24    8   -1
  -9   19    7  109    0    6   14   17   -8  -14  -17  -31  -20  -19   18    7   -9  -37   -3   -9  -34  -15  -10  -10   17   -8   23   -4   87   -5   26    6  -31    2   -1  -21  -89    6   -8   19    3  -99   16  -31   -6   -9   -3    1   -5    7   27    4   27  -20  -64   25  -20   29  -48  -27   30   33  -25   17  -18   22  -14   -9   -8   -3  -66   17   19  -12   24   12   13  -33   27   43  -27   55    9    7  -34   -3    8  -10   13   21  -18    4  -12   37  -65   20
  15  -16  -55  -43   -3   13   26  108  -25   62  -29   49   92   11   31   26  -18  -24   30  -30  -42  -42   85   92   -8   19  -13  -54   -9   50    3   12  -19    0   23    9   -2   -3   99  -39   28   14  -70   -7    4  -43  -63   56   30   58  -28  -31   -4  -22   14   73   18   23  -15  -15   10    0   55   12  -42   68   27   -3   10   -7   18   78  -26    0   -5   81   36   15  -36   51   21  -33   24  -50    5  -32   43    6  -16  -46   70    1  -21  -22  -14  -47
 -60   23   14   -5   26   12  -16    5   19   -8    5   14   -1  -15  -10   13  -52   -9   65   74  -26   14   31   26   34  -44   54   -6  -23  -16   -8   -7   26   -3  -49    9   15  -16   16  -11  -57    6   26   -1    7    8    3  -24  -13  -18    1   -3  -27  -10   15  -27    9  -38   -8  -46   -8   38    7  -14  -46  -24  -15   24   24    7  -15   49   51  -14   48   77   30   10   74  -15  -52  -25   -8    0  -81   43  -16   33   24   31   -6  -16   74    3    4   36
   1  -13  -25   -3   61   14  -55   72   20  -36   14   -9  -26   11   30  -57   15   33   57   28   54   10  -76  -79    4   15  -18    8   -4   12   36   24  -18   14  -28    9    9  -26  -65  -53   45   48  -13  -18    9   37  -41   24   18   -9   19   58  -39   24   16  -14  -45  -31  -23  -10   19   -9   -6    7   60  -13   42  -14    1    0   16   60  -11  -45  -51   40   -2  -43   -6   46    1  -25   24   50  -29    7    8  -25    7    7   -5    7  -39   45    4    1
   2   -2  -63   46  -19   -2   -4   -9    6    8   23   14    1  -47  -56  -16   40  -28   -2    5  -36  -16  -24  -27  -16   38  -43   30  -43   40   87  -31  -30    3  -11  -18   53    4  -12   72   29   10   15  -17   -8   31   19  -46  -62   37   45   12   10  -36   23   35  -26  -22  -20   11   30    7    9   42   17   30  -21   36  -33   -8  -52  -53  -58   18  -18   28    0    1  -65   42   46  -56    2   34  -41   24  -57   11   29   -8   20  -29  -99   12   37  -43
   8  -20  -18   84  -27  -12   29   37    9   -1    9   14  -22  -31  -23   -3  -25   38   17  -22  -29    0    7   -2   20   28  -11  -13   13  -17   -6    3   14   38  -28  -17   -5  -20   -6  -39    0   -8   12   15    7   47  -36  -25  -47  -24    4   31  -64   -2   -9  -25  -28  -12   51   13  -33 -104   -9  -35    6  -22  -13    8   16   -6   -5   79    2   -9  -12   -7   -6    1   17   -4   12    2  -22   22   33   67  -29  -17   34   22  -15  -27  -42    0   -7    5
  36  -21   15  -36    6    3  -23    7  -41    2  -27   -8   -2  -12  -16    1  -19   -3   32  -12    1  -26  -17  -23    3   31    9  -13  -24    2   28  -20   24   -9   41   25  -10   47   -8  -18   50  -22   -7  -42   40  -59  -26  -18  -20   14  -31   53  -34  -43    0   51  -65   27  -16    1  -60   22  -23  -51   11   53  -18   -3   -1   65   14   12   24   63    1    1   -5   46   26   10   16   53  -32  -29  -32    4   -2  -43  -17   16  -13   30  -45  -56   13   36
 -15  -25   36   26   29   47   47   21  -31   20   29   -5    9   -4   12    3   29    6    3   23   18  -37    8   15  -13   61   22   15   11  -24  -33  -40   36  -20   39   11  -25   31    4  -36   -5   -5  -26   -4   34  -42  -49  -16   14  -21   35  -18  -50  -57  -27   -4   24   -3   36   35   92  113   -1  -79  -20   -1   25   -2   12   38   -4   24   13   16    7  -16   20  -30    3  -23    5   20  -31  -19  -39  -65    7  -20   -9  -26   -3   11  -67   47   61   14
