 -13  -24   28   -9   -2  -12   19   76    4   -8  -34   12   14  -29  -46   24   -5  -11  -22   61   47   31   -2  -23
 -13    6   -3   -6   -2    0    2   -4   -5  -15    4   -7  -15    5   -5    9    1    9    7   -8  -12   -1    2   19
  27   19  -10   39   -5   14   23   30  -14  -42   -1    9   12   18    6  -14   25    8    4    8   22  -40  -24   13
  -9    2    4  -15   -6   -9  -18   21  -10   -3  -20   31  -10   14   10    5   -5   20   -1   -5   10    1    5   14
 -19   -6   -4    2   25  -17   -7  -18   11  -20  -18  -21   52    5   -5   56   21   15  -14  -36   37    4   14    3
 -10  -10  -20   20    7    9  -12  -21   -4  -24    6   14    7  -15    7   18   20  -13    8  -10   25   23   -6    3
 -16   26  -35   16   10    6  -30  -27   14  -26   -2    7   14   -6  -25   49  -44   39   17   -2   31    6   20  -29
  -7   16  -22   14   12    0  -14    1   58  -12   15   26   78   14   -9   99   -8   27    2  -10   -9   -4    1   -5
   0  -13  -24   -9    8   -4   37  -27   12   13   -2   17   16  -20   13  -22  -23    0  -22   -5    2   27   -4  -26
   5   19  -49   27   24   12  -24   51   -9  -12  -15  -10   20    9  -27  -35   17  -21    7   -4    2    2   10   18
  57   -1   -1  -27  -48   28    0   -9    9   36   -5  -41   -7   13   24   25    1   23  -24   17   35  -13   -2    7
  31  -17   17  -20   26   10    2   12   15  -18  -11   26    4  -16    2    3    3   28  -61   60   17   41   14  -29
   5  -11    5   -3   14    4   13    7  -10   10    1   27   36  -40   20  -10   -9  -10   -8   21   11   -2   -6  -24
 -23   18   25    3   -9  -24  -12   -7   12  -29   12    1   -5    4  -22  -12  -11   -1  -65  -14   -3   22    2   -8
 -44   17   -9   32  -29  -33   10  -10    3   38   20   -7    4  -31  -11  -22   23   42   37  -30   45  -34   10    9
  -3   -6    4   15   39  -30   10   40  -24  -46   30  -31  -21   33   10    5   22   -4   19   18   15  -39   11  -17
 -54  -38   -8    8   18   18   52  -14   27  -31   -9   53  -18   25  -14   -2   11   31   -4   17  -13  -12  -32   20
   5   22   -6   -1  -36   13   -3   30   58   14   30   25  -32   26    7  -18  -61   -5    6   51  -17  -13  -32  -13
  19  -39   21  -21  -24  -12   19   -2  -36   -3  -12   -1  -62   15    6  -69   39  -36  -14    8   -2    3  -21    9
  38   -6  -18   12  -12   -8  -19  -10  -16   57   15   41   18   31  -17  -15   -1   15  -72   22   45   -4   42    4
  -6  -24   -9    1  -46   26   15   11  -32    1   -6   26   30   40    7    1  -27  -78  -21   -3   16  -49  -26  -11
 -23   40  -15   -8   10    3  -32   -5  -33   14   14    0   -6  -16   -5   11   25    7   -1   10  -12   40   -6  -13
   2   -3   32  -29   -5  -23   25  -61   24   -1   21   17  -20  -24   27    2    3   67  -16    8   24    9   12   -8
 -45  -11  -21   10  -29  -44    4   -6    2   13   45  -11  -16   34  -23    0    6   16   19  -34   49  -26   16   10
  29  -15  -22   14   -3   15  -41  -35   31  -66    2   23  -35    8  -10   10  -76    0   39   12   81    9  -28   -6
  -3    3    6    3  -13   16   14    0   48    1   -7    6    8   18    9  -29   -8  -21    9   23   13  -18  -18    9
 -10    5    2   -9   -1   -1   -2   -4   -6  -12    1   -6  -13    8   -8   11    5   10    9   -9   -8    2   -2   19
 -22  -22  -23   24  -10    2  -10  -13  -45   -2   11   11  -57   -2    1   -1   27    6  -11   17   11   25   -7  -17
  42   -4   23  -44  -25  -27  -28  -13   -6   23   14  -24   -5    8  -35   11  -17   23  -36    3   -7   12   18  -18
  -3   -5   37   13  -18  -34    8  -30  -35  -39   21  -47   54   38  -14  -16  -20   29   12   51  -24   57    7   15
  -6  -26   23    2   12   44   10   -3   -9   26   35  -31  -22   27  -10   -1  -27   46  -13  -33   -8   24    7   -5
  48   18   63   20  -53  -34   39    3  -10   22   13   32  -11    6  -11   25   -6  -12   35  -38   17   -8   -3  -23
   0    9    5   -3   -1    4    9   -5    3   -9   -4  -36   -8   -2  -21   -1    1   -4    8   -6   -8    0   -2   -4
  18  -46   12  -36  -22    2   15  -13  -17  -42  -39  -11  -63   34  -23  -40   -5   -7   12  -31   35   21   16   -4
  24  -11  -19    8   15   -7  -21   70  -10  -19   -2  -16    8   19  -29    1    6  -15  -13   23    8   14  -11  -16
  26   25  -10    6  -39   12    1  -58  -12    8   34  -75  -11   53   34   -8    6   17  -42  -23   15   -6    3    4
  16   18   10  -32  -19  -21  -59   40  -11  -19  -51   39  -28   32   -5    5    5   36   10  -19   29    5    9   41
  13    2  -32   -6   15  -53   25  -18   -1   24  -14   31   -1   25   10   -3  -18    3  -48   23   17   19   -2   14
   0    5   -2   17    0   11   34   69  -19  -40   16   33   -6   38   62  -20    0   18   -8   -6   50    7    7   -6
 -19  -20   -6  -65   17   39   -7  -12  -14  -74   43  -22  -10   25  -10    2   -7   10  -41   36   -5  -29   33   31
  -8   -5  -36   -8   47   50  -45   47   -7  -11  -30  -20   32  -28    6  -39   15   22  -35   36    4   12   -4    3
  16  -97   -5   41  -14  -33   25    6    6   -1  -17  -17   15  -31   -8   -9   24   24  -43  -12  -82  -55    1   31
 -33   -5  -18  -12   -8   -7  -30  -23  -15   47  -14  -80    0   -3  -35   10   -2   35  -43   16   31   23    8   -9
 -38   -5    3   13   -9  -15    9   -3   30   -4    5  -13    1   36  -28  -37  -16   38    3   26  -27   36   21   23
 -45    0  -27    7   -3   -6   12   15   47   -1  -17   18  -77   36  -29   28   10   15  -36  -31  -28   36   16  -10
   8   13   -9   12   49   -2  -38   30  -23   14  -28  -23   -4   29   12  -19   -1   31  -16   20    4   23   -7  -29
 -29  -17   18  -20   -4   -1   23   16   -9    9   10  -17   -1    6    0   14  -17    9  -25   16   19    4   -9   15
  21    1    9   -3    0  -24    3   22   18   32   32  -29   -9   -4  -12    6  -22   -2  -13  -14    3   68   27   19
   0  -15    2   -6  -10   -7    7    4    2   17    2    6   19   -1    1   -6   53    1  -12   -3  -42  -12   -9   -4
  16   -1    5  -27    0    2   -6   -2   55   -9  -22    2   38   32  -15    3   -2   20   14  -21    3  -34  -15  -24
 -14  -19    4    9   -9   -8    2  -22  -13  -26  -24   10  -21   79  -30   28    7   27   24    6  -29   61   23    3
  11    8    9    2   18   14   12  -33   30  -23    9    8   14  -62   26  -31   40   58   -4   16   19    4   17  -21
 -35   62  -30    1   26   22  -32   -8    4    3   -1   -8   11  -21    2  -16   -5   18   25   16   55   22    0  -14
   4  -33   10  -56  -33   -3    4  -63  -16   75    1    3   13   -3  -26    3  -50   29 -106   14   24   43   23  -35
  16   22  -54  -11  -18  -67   16   10   19  -27    0  -36   -1   -3    9    5    7  -39   -3   25   11   14    3    0
   7  -30   -4    9  -16  -10   -9   -6  -19   -3    4   10  -47  -10   -1  -35   28   -7    4   13   -4   12  -19   10
  -2   -6  -30   22  -62   38   13    4   28  -50  -24   31   28  -16   21   -7   30   14   10  -12   -4   -5  -51  -18
  29  -13   -1  -17   28  -44  -30  -19    6   28   29  -35  -18   30  -32   10    3   -7  -12   23    2  -14   28  -20
  22  -16   17  -29  -17    6  -11  -16   16  -15  -12    9  -32    5  -15  -70   19  -12   26    2   19  -16  -42   -7
  -6    1    4  -11   -1   -4   10    8   -4   17    2    5   22    4    0    5   46    2   -8   -6  -31   -2   -3   -3
  30   28   28   -6   20  -10  -11  -10  -50  -18   -1   -4    3   17  -41   -4   14   29   -3    7   30  -59  -34   48
  15   21    6    7  -15  -15  -22   29   21  -53   13  -52  -37   29  -14   24   39   16   13   19   -9   -6   -1   18
  -2    2    4   -9   -1   -3    0    0   -1   -2   -8   -6   -8    6   -5   -1   -5    7   -1    0    0    1    4   -1
  -1    5    6  -11   -3   -4   -1    1   -4   -3   -9  -11  -10    5   -7   -2   -7   10    0   -1   -2    2    6   -1
   7  -43   -6   13  -21  -13  -20   -5   -8   -9   14   15  -72   -5    7  -51   39  -16   10   21   20   32  -23   14
 -34   -8  -35   43   33   -3   30   32    9   -9    9  -10    0   13   28  -11   25   34  -19    3   34   32    4   14
   5  -39   56   24    6   59   -1   -7  -27   39   34   21    9   48   -4  -10    2   38  -52   14   48  -35   12  -28
  57   19    9   -2   -9   -5   -9    6  -34  -23   22   -3   53  -25   18  -30   12    0  -20    3   43  -49  -34  -31
  -5   22   17   -1    3  -10   -2   21   37    2   -1    9  -35  -41  -17    6    3  -12  -92  -23   20   -1  -17  -14
 -13  -39  -53  -34   -3    2  -11   12  -47   25   24   -7   29   44  -10  -32  -57  -24  -52  -30    2    1   -9  -26
  -7   -8   -8    4   17  -10    0   -7   13    7    0   22   -8    6   -2    1   -2    4   10   -1   -8   12  -10    6
  14  -34   -9  -12  -30   12  -48  -24   17   29   12   63   18    0   -5   -1    4    5  -33   -6   24   22   17  -17
  -3  -14   13    7  -34    7   22   45   98   27   17    9   14   38   26  -43   13  -15  -14   42  -17  -33  -21   18
 -42   17  -40    5  -13   19   -1  -13   18  -10  -33  -24   26  -33   10  -23   28   16  -10   -8   41   28  -37   20
 -23    5  -21   18  -39   37   55   -6    4  -18  -31  -28    4   15    4   16   -6   -2  -18   -2   17   36  -25   15
  -1   -1   25   -3  -30   34    5    9   -4  -23   15 -107  -12    5  -45   11    7   -1   23   -8  -11   -4  -17  -26
   9   20  -16   39   11   15    8   19   17  -36  -10  -14  -19   15  -22  -12   30   -9   42  -15  -17  -11   13   21
  11  -18  -23   17    4   13   50  -15  -22  -10    0   39   28    3   34  -33  -10   12  -28   -8   25   -3  -15  -25
  -8    7   -2  -15   17   -1   -7   -4   16  -23  -27  -13   20   19   -7   25  -26   18    4  -28   39    0   23   -2
  -4  -15   -2   -5   -8   20   -1   -9    6   11   21   10   17  -24   13  -15   -7   -3   -2  -11    2    2   13  -18
  -9  -42  -10   24   38  -34  -16    3    4   -2  -25  -42   15  -25   -2  -42   26   35  -25  -20    8   -2   17   23
   3   -4  -10   -5   -1    2    1  -17   -2    5   20    4    9    1   12  -10   -1    5  -11   -7    6  -10    3   -7
  13    5    5    9    8   -9   -4   10   -1   -4   -4    0   -3    7   -7    7   10    0    7    6    1   -1   -8    2
  21   15  -29  -23    6   -3   11   34   19    5   11  -36  -62  -19   -3   54   19    0  -54  -28   12  -19  -21   -8
 -17   -1  -23  -20    3  -21  -37  -27  -11   20  -10  -38   -9  -35  -46    5    1   35    1  -16    5   27   12   -5
  30   -1    7   20   -5   14    0   14  -17   13  -37  -11   -8   14   26   23   21   -1   12   30   33  -25   -3  -22
  -8  -12    8    0  -12  -30  -22   49  -17   17   20   22    2  -10   37   23  -13   35  -11   12  -30    0  -25   13
  23  -47  -44  -45  -14   11   15   -5  -16   40  -12  -17  -18   15   12   36  -11   27   19   19    5   23   24   -6
  53   39  -24   11  -99   14  -19   94  -36  -42   12   22   29   16   37  -26   28   50  -54   -3   60    0   45    2
  12   14   17    0  -31    0   -7   14    4  -32   20 -124  -26   16  -65   32   19   -8    2   15  -14   -5    9  -12
  32  -32    9  -19  -21    9    7    3   -8   16  -18  -29   39   14   -8   -1  -18   18   34   70    5   29    8    9
  -5  -32   -7   -7    1  -17   -4  -22  -38   14   -9   -7  -38  -13   -6  -50   69  -18    0   -3    3   15  -15    7
   5   13  -33  -13   15  -42   15    6    5  -24   -7   17    0  -18   15   -5   -2  -23   23    3   -6    0   13   11
   6  -20    1   23  -36  -39    9   31  -16   62   -8   27   13   26  -24    3  -28  -13   -5  -20   33   24  -11  -51
  35   19   35  -17  -15  -55    3   80  -21   22   44  -71  -37   28   -5   31  -31   54  -48  -11   14   80   30   40
   7    1   -3   12    6    3    2   -6    3   -1    8    6   10   -5    1    1   12   -7    2    6    2   -9  -15    6
  13  -14    5  -39   13  -24   28   11   18  -16  -40  -16   53   28  -13    0   31   21   -8  -47   -4  -19   28    2
   1  -16  -25    0   -5   11   -5  -20  -13  -18   -3    1   10   -3  -14   17   14   12    8    1   20   24  -13    5
   3   -7    1   -6  -13    5   -7  -10    4   23    2   19   14   -6    1   -7   -9    5  -27    7    7    4    9   -7
  14  -27   -6  -21  -22   21    5    1  -19    9  -20  -14   16   16    1    5  -16   17   57   36  -22   34   54    5
  -1  -31   -3    2  -18   -4   -6   -2  -23   -5   -2    6  -39   -9    5  -32   24   -6    1    8   -3    8  -10   -3
  -7    5    9   -2    1   -2   -2   15    0   -6  -14   -3  -10    0  -11   12    5   -2   11    3   -7   10   -3    8
  28  -55   30  -11   -9  -16   34   14   30  -24  -28  -25   14   27   13    0  -17  -14  -19  -29    7  -29   16   21
 -41   16  -37   24   14    0  -23  -16   -2  -14   13    4  -31  -13  -13   -7   -2   44   12   24   43   18    0   -8
 -38  -25    5   26  -18   32   58   -5  -19  -39  -11   17   -9   51   44   47   -4  -62  -19   29    8   -8    8    3
  12  -25  -51   -5  -13   -2    4  -10   63   69   -7  -11  -16    8  -25  -21    6   30    9   10  -35   29  -10    4
   9    8  -10   12    7  -15   -4    0    0  -14   16   -8   -7   19    9    4   15    5   10    7  -14  -16  -11    7
 -10   -4  -11   -1    5    1    6   -4    7   -5   11    7    8   -9    6    1    7  -11    2    3    4   -4   -1    9
  -7    4    0   -9   -3    5   -1    7   23    0  -12    1   40   11   -2   26    0   20   -2  -11  -25  -17    1  -20
 -21  -33   -6  -47  -15  -20    0    7    4  -31   -5  -16   -4   -6   39  -13  -19   15    8  -16   12   28   12  -75
   2   -2    3  -11   -4    5   -9   -9   -2    9    6    0    4   -4   -4   -2   -4   -1   -8   -5    9   -4   12   -6
  31  -17   22  -42  -46   -3   -8   23  -12   20   23   -8    4   18  -30   18  -43  -22  -19  -21  -24    5    1    0
   4  -50   -3  -15  -11  -31   -7   -6   26  -12  -42  -29   -4   15  -28  -34   22   34  -24  -33  -12  -10   23  -10
  11   26   -5  -13    5    9   16   12   58  -22  -25   -9   75   33  -18   62  -79   37   -4  -17  -13  -38   21  -16
 -21   10   12   -2    2   -6    1   10   -9   -3  -29   -3  -32   45  -25   17   -1   24   -4    3    1   -2    9   30
  -6    2    4  -10   -5   -1   -1    4   -5    1   -7   -3   -5    3    0   -3   -9    5   -1   -6   -2    6   12   -4
 -12  -12    8   -6   25   -2  -12    3   20  -18   -1    4    0   14   16    8   -1  -18   35  -17   20   11  -16   -1
  33    1  -19  -29   -2   28    6   12    4   38  -33  -18  -50   -2   25   39    2   21    9  -11   -2   -6   26    2
   2   17    6   -6    7  -15   -4    1  -10  -21   -9  -28  -21   23  -31   12    9    7   12    8   -7  -13    0   23
   7   15   -2    5  -17  -10  -10  -28   -1   16   -1  -26   -5   31   45    0   -7    6  -10  -14   -3   11  -15    4
 -13   -4   -2   -2    2   -3    0   14    2  -19   -1    8   -3   -5   15    6    2    4   22  -11   -9    1  -20    1
   5   26  -27  -11  -28   15   -6  -66  -12   -4   35  -29   -6   30   48  -29   -2   28    0  -61   -8  -23    5   19
 -15   -4    5  -17   -3   -6    6    9    1   -2  -14  -15  -20   17   -6   -6  -17   19   -4    1   -8    7   11  -10
  29  -43  -33   23   -9  -17  -24  -45  -59  -35    7   12  -18    3  -39   62    6   28  -11  -17  -10   19  -23  -22
 -20  -11   10  -29    2  -18    3   42   -8  -40   13  -31   -7  -14   32    2  -14   24   37  -20  -14    5  -29  -35
  12    8   57   23  -22  -37   10   33   23  -19  -19   -4  -33    0  -16   36   29   17   25   33   19    2   -4  -37
   1   45  -25   -7  -30    9   -2   -9  -36  -12    7    9  -54   11  -24   -9  -60   23    5   44    2   -1  -24  -35
  21  -12  -20   -7    2  -24  -11  -10   -1   20   14   27   13   -1   30   -7  -14    0  -28    9   17   -1   14  -16
  -6   12  -36  -22  -25  -57   -4   -8    1  -12  -31   -9   -3    3   35   25    1  -30  -24   37   -6    0    2   15
  41  -12  -11  -52   12   55   -5    7  -38  -62   31    1   15   14   -8   -6  -21  -24  -45    3  -33  -19   11   19
 -22  -33  -24   30   13    6  -26  -28  -32  -29   17   48    7  -24   26   65   81  -38   21   -9   17   40    1   16
   6    4    6    0   -4    3    5   -8   -1    1   11  -41   -2   -1  -18    1    2   -3   -3    8   -8   -6    3  -14
 -11   48   28  -75   14    2   16    8   -9   35    1   21   45   29    4  -12  119  -13    1  -21   -3   24  -16   -4
  -3    6    5   -4  -19   24    2    4   46    1  -10    3   11   -2   15  -35    4  -23   16   13   10  -28  -16   -3
   5   -1   18  -15   21  -10   -5   -4   -5    7   16   -3   24  -21    9    0   -7  -11    4   -1   24  -14  -46   33
  -7   -3    2  -14   -7   -8    1   21    6   16   -1   -6    5    4    5  -23   -3    3    2   -6  -10   -7    5  -14
 -12   21   48   21   -8  -26  -10  -19   -9   -9   -9    5   13    5  -17  -16  -20    2  -14   -5  -33   42   -1   -9
 -34   16   26    9   -6  -36  -10  -14   20  -23   17    6    0   10  -27  -22  -19   -4  -78  -12   -6   35   -7   -3
   0  -53   16  -31   -9  -19    3    9   25   11   -2   16   28   33    0  -11  110   -5   -2  -19  -50  -11  -20  -16
  18   15  -14   31   15   18   39   12  -25  -19   13    5   30  -13   24  -20   20   -7   -5    1   33  -19   -8    8
  -2    3  -12   12  -20   16   -7   -4   21   -5   11   13  -22    2    6   -7  -32   -4    7   32    5  -11  -17   -8
  32    2   17  -43  -35    2   13    1   28   -7   15  -25   11  -13  -30   27  -28  -61   -3   -9    4   37  -16   58
  24   -3  -39  -16    4  -22  -16  -16    0  -36   36   15  -21   30   26  -13    6   16    8  -24  -19  -21   34    5
 -18  -35  -21   14   28  -12  -19  -34  -34  -14  -14  -14    9   -8  -18   28   76   30   -7  -30   17   19   30   -7
