   1    0    1    2   -1    0    1   -2   -1    0    0    1    1   -2    0    1   -2    0   -1   -1   -1   -1   -2   -1   -1   -2   -1
 -14   -4    5   28   82   10  -39  -59   -9  -13   14    2   58  127   24  -69 -127  -16   -4   -2    5   10   39    2  -13  -33   -1
 -10    9    0  -37   66  -27  -60   82  -26  -11   17   -3  -73  119  -47  -94  127  -41   -2   -2    3  -19   34  -15  -25   39  -14
   0  -10   18   14   43  -64    5   67  -76   -3  -16   17   10  112 -128   11  127 -128   -5   -7    5    9   18  -18    0   19  -31
  -4    2    1    0   -6   -5    6   -8  -20    2    2   -1    4  -14  -17   11  -15  -33    1    2   -2   -1   -4   -4    1   -5   -8
   9   10  -14    7   38   14   -9   36   39    0   -8    0   -2  -15   -9   -1  -12   -9   -8   -3   14   -3  -23   -7   10  -23  -28
  -3   -2    0   46  -14  -22   14  -13   -8   -7   -1    2   94  -28  -48   27  -25   -9    1    1    0   23   -7  -13    7   -5   -2
   1   -1   -6    0    4   11   -1    7   17   -1   -4   -8    1    9   18    0   17   28    0   -1   -2    0    1    6    1    4    7
   3    3   -8  -12   44  -34    1   47  -44   -3   11  -13   -8   70  -59    1   67  -63    3   -1    0   -8   26  -21    0   26  -25
   0    0    0    0    0    0    0    0    0    0    0    0    0    0    0    0    0    0    1    0    0    0    0    1    0    0    0
  -9  -29  -16  -40  -43  -14    5   -1  -11   43   51   52   11   27   47   45   59   34    4  -27  -42  -43  -58  -52   -9  -13  -31
  -5    1    3    2    6    0   -4   18   14    0    3   -1    1    9   -2   -6   25   25   -1   -1    0    2    2   -1   -6   11    8
 -35  -67  -17   51   70   18   -9   -8    6  -67 -128  -45  105  127   35  -22  -18   -1  -14  -28   -7   23   31    5   -4   -4    4
  40    2    0    7   -6    0    1    0   -2   48    7    3    1   -4    5   -4    0   -3   23   -7   -4  -12   -7    0    2    8   -4
   0    0    0    0    1    0    1    0    1    0    0    0    0    0    0    0    0    0    0    0    0    0    0    0    0    0    0
   0    0    1    1    0    0    1    0    0    0    0    0    0    0    0    0    0    0    0    0    0    0    0    0    0    0    0
   0    0    0    0    0    1    0    0    0    0    0    0    0    1    1    0    0    0    0    0    0    0    0    1    0    0    0
   0    0    0    0    0    0    0    0    0    0    0    0    0    0    0    0    0   -1    0    0    0    0    0    0    0    0    0
   3    0   -2   -1    0    2   -3    3    8    1   -1   -5   -1    5    2   -3    9   11    1    0   -2   -1   -1    1   -1    1    7
   1  -18  -22  -19  -40  -45  -10  -25  -28   11   10    8    7    6    5   11    7    4  -10    9   10    8   37   39    2   24   21
  -2  -34    0    2  -17   -1   11   10   13  -23  -36  -14   -9  -10   -9  -12    3   -6   21  -15   14    7  -13    0    2    3    5
 -10   -7   22   20  -24   -4   -9    5   -7   -9  -12   38   24  -46   -5  -10   -1  -12   -7    0    9   13  -14    2   -8   10   -8
   8   24   20   43   45   23  -19   -3   36  -35  -57  -45  -17  -58  -73  -44  -68  -42  -14   33   39   55   86   55   16   23   24
   0    0    0    0    0    0    0    0   -1    0    0    0    0    0    0    0    0    0    0    0    0    1    0    0    0    0    0
   7    8    2   -1   -9  -12   -3    1   12   14   -1  -22    6  -17  -29    6    9   20  -17  -18  -40   -3  -11  -26  -12    1    3
   2    4   -2  -12   33   62    9  -35  -56    3    7    2  -20   56  105   16  -65 -103    4   -3   -1   -7   16   30    6  -21  -24
   0    5   -5    5   -8   -9    2   -6  -22    6    2   -1    6  -24  -19   13  -16  -32   -4    6    9    2    0    1    2    2  -15
  23    8   -3  -24  -13   16   24   24    3   25  -19  -18  -75  -83  -30   27   18  -13   13    9    2  -16    2   13   17   24   -4
   3    7   16    9    8   14    4  -14   -5   -2   -5   -2    5   -7   -1   10  -12    6  -10   -8  -11  -11  -24  -22   -4  -25  -10
   2   -2    2    8  -11  -20   32   -8  -35   10    4   11    7  -26  -36   37  -16  -46    1    5   17   13   -6   -9   35  -14  -40
 -23    4   27   21   61   64   32   44   14   -2  -12  -13  -15  -28  -33  -18  -29  -29   21    8  -13    0  -17  -23  -22  -18   10
   0    1   -2   -5    0    8   -2    2   12    2    1   -1   -1    3   11    2    5   15   -1   -2   -8   -3    2    4   -1    3    7
