   0   -1   -2   -1   15   -1   -3  -18   -2
  -2   -2    5  -11  -22   29   -3    0    3
  17   13    3    3  -18   -7    0   -8   -3
  -3   -5   -1   -3   -2   -2    3   21    5
   2    7    3   10  -47   11    4    7    1
  -7   -7   -6   -4   22   -5   -7   -1   -6
   4    7    4   -2   -4   -4    9   31    4
  13  -18   -6   21    3    2   -4   17  -11
   0    4    0   -3  -17   -3    6   18    5
   3   17    2   12    3   -3    1   -8   -9
  -4  -11   -5    1   17    2   -1   -1   -2
 -13  -13    9    3   46  -16    1  -16   -8
   3   22   -3   -2    1   13    4  -14    1
  -5   -4   -4    1    9    4    3   15    5
  13   25   12  -14  -22  -14    1   -2    1
  -2   -7   -3    1  -14   -4    8   18    5
   4   -7   -8   26  -11   -1    6   -4   -2
  -4   -5   -3   -5    0   -6   -2   -4   -2
   3   -5    0    5  -24   -2   17    4    2
   9    4    0    7   17   -7   -1    0  -10
  -3    9    4    8   33   10   -2   11    2
   8   10    5   17   -8   -7    5   -9  -13
   0   16    4    0    8    1   -5  -12    1
  -3   -1    5   -9  -18   27   -2    1    2
  -3   -3   -4   -6   18   -6   -3   -7   -3
  -2  -12   -1   -5  -18   -6   11   26   11
   0  -18   -2  -17   55  -17    0  -19    1
  -5   -5   -5   -5   -7    2   -6   -6   -3
  -6   -2   -4   -4   23   -3   -4   -3   -3
  -2   -3   -2   -3   -6   -4   -3   -3   -2
   4    4    0    2   25    2    2    1    0
  -4   -7   -1  -10   15   -6    0   -7   -1
  25   17    7   -4  -36   -9    0   -7    1
  -2    8    5  -16    8    6   -7  -11   -1
  -4  -16   -1    3    9    5   -1   15    1
  17   18   -2   13  -22  -14   -3   -8    0
  -3   -2   -8    0   24   -1    9   13   -4
  -3   -7   -2   -4   -2   -6    0   -5   -1
   6   -4   -2   13  -20   -1   10   15    5
   4   -3   -1  -28   13   18    5    1   -3
 -10   -2    3  -10   32    0    3    6   -5
   0   -2   -1   -2   -6   -3   -3   -2   -2
  -2    7   -2  -10   15    2  -10   -4    3
  -5    0   -2   -1   26   -2    0   -8   -4
  18    5    4   17  -22  -15   -1  -11    1
   7   -4  -11   -3  -17    2  -14    3   15
  -2   -5   -2   -5  -21   -3   -2   -3   -3
   4  -11   -4   15  -12   -7   12    2    0
  -6  -15   -7    2   -2    3    3   21    4
   1   -3    2   -8    3   -7    0   -4   -1
 -10   -7    1  -13   14   10   -1    6    1
 -14  -16   -6  -13   13    1  -11    3    6
   1   -2    0   -3   -5   -4    0   -5   -2
   1   -7  -13   15    6  -10    7    9    3
   5   13   -7   17   15   12   -6    7    0
   2    9    2    5   17    4   -1    1   -1
   2    4   -7   -7  -25   30    0   20  -14
  -3   -1   12  -13  -16   19   -4    3    9
  -2   29    1   -2    4    0    5  -28    5
   6  -11    8   11  -34    6   11   10   13
  -1   -3    6   -2   -4   26    0   -2    5
  -7  -11   -9    2    4    3    6   11    6
  -5   -6   -4   -9   24  -11   -4   -3   -3
   3   17    5    0    0    0   -5  -14   -4
  -8   -4   -7   -3   -1   -5   -5   -4   -5
   8   14   -1   10   -3  -11   -5   -6   -5
  -2   -3   -1   -3   -3   -5   -2   -5   -2
   3    2    4  -17  -13  -16    6    9    7
   8    4    7    4  -32    3    8    4    9
  -2    3   -1    3   35    2   -1    7    0
  -7   29    0    0   -2   -1   15  -26    3
   2   -9   -4   18  -13   -8   11   10    3
   0    5    2  -19   13    7   -9    1    1
  -2   -2   -2   -9  -13   -7   -3   -2   -3
   0   -2    0    7   10    7    0   -2    0
   2   -9    5    0   35    5    2   19    7
   3  -14   -6   17   -3  -10    4    8    2
 -12  -11    2   -6    9    8    0   12    2
  -3   -5   -1   -2  -12    4    5   16    6
  -9  -17   -8    4   20    3    2    5    2
 -21    4   24    1   72   -5   27   -5  -20
  -7    2   -8  -10    1   -9   -6    0   -5
   2   24    2    0   -2    0   -6  -10   -6
   2    5    2    7  -38    8    0   12    0
  -4   -1    3   -2  -17   17   -5    2    5
  -6    1   -1  -18   20   -2   -8    2    3
  -2   -2   -4   -3   -3   -3    0   -7   -2
  -2    3    4    1  -19   36   -5   -1    2
  -2   -8   -4    1  -11   12   -4    0   13
  -2  -13   -3   -9   18  -11   -6   -9   -4
   4   13    2   23  -36    9    1    4    0
  -2   -2   -3   -1  -19    0   -3   -1   -2
  -4   -6    3   -5   -8    6    2    9    1
  -3   -2    0   37    0  -16   -6   -3   -2
   1    0   -2    7  -12   36    0    1    4
   3    9   -1   -7  -23   -1    4   14    8
  -1   -4   -1   -4   -1   -5   -4   -4   -3
   8   22   11   22   37   13   12   13   19
   6   22    2    2   -1   -1   -2   -7   -5
  -4  -18   -1    5   21    7   -3    7    3
  -3   -7   -2   -7    3   -4   -6   -2   -5
  -4   -9   12    1  -21   22   -5   -8   13
  12    9    1   12  -14   -7    1   -7   -5
  -1   -4   -2   -4   -1   -5   -2   -5   -2
  10   19    6    2   39    6    7   -6    5
  -5    1    8  -13    0   17   -2    1    3
   0   -2   -1   -5   -8   -6   -3   -4   -4
   3   -4    6   -8   16    6   12   20    2
  -2   -3   -2   -6    2   -5   -3   -4   -2
   3   18    4    6   -8    4   -3   -6   -3
   5   15    4   -3    9   13   -8  -12    1
   1   -4   -1  -11  -29  -12    7   33    7
   1    9    3   15    0  -10    4  -13   -3
   1    9   -2  -10   19   11  -12  -13    0
  36  -88   30  -79  127  -76   20  -70   23
  -2   -6   -3   -5   -8   -7   -5   -7   -2
  -1   14   -7   -4    4   21   -2   -5    5
  -1    1    0    1   25    4    0    3   -1
   3   39    8   -9  -16  -11   -2   -5   -3
  -5   -3   -3   -6  -17   -8   12   21   10
  -4   -2   -1   -4   -6   -4   -3   -3   -4
   9   19   11   14  -15   -1    4  -17   -5
   5    5   -1   33  -16  -14   -1    0   -3
  -4   -2   -3   -3   -4   -3   -3   -4   -3
   0    4    0   -1   11   -1    0    5    0
  -3   -7   -4   -6   -6   -4   -5  -13    1
  -5   -9   -1  -10   -2   19   -7   17    0
  -4   -7   -2   -7   24   -5   -8   -6   -7
   1    0    6    2    2   22   -7   -1    1
 -10    2   -3  -14    6   11   -1    2    9
   4   -2   -7   15    9   -5   -5  -10   -5
   5  -16    2    1    0   -8   -1   30   -5
  -2   10    7    0   16    0  -11  -10    1
  -5   -4   -5   -5    1   -4   -4   -5   -4
   2    0    4    0  -19   13    2    6    8
  -6   -2   -6   -4    8   -5   -6   -7   -5
  -2   -2   -3   -1   -5   -1   -2   -1   -3
  -3   -2   -4   -1   -8   -1   -2   -3   -3
 -12  -11   -5    7   12    6    4   15    2
  -1  -13   -1   -8   11   -9   -2  -11   -1
 -10   -5    1   -3   -7   -4   -1   -6   -6
  -5   -5   -3   -4   -3   -3   -5   -4   -5
   4   -6   -1   16   16   -2    4    3    3
  -2   -3   -1   -3   -5   -3   -1    1    0
   1    8    5  -10    4   11  -11   -8    0
  -6   -3   -5   -6   26   -6   -3   -8   -4
  -3  -11   -5    5    7    5   -6   -7   -4
   0   10    3    0    4   13    3   11   -1
   4   39    2  -10  -32  -12   -2   -1    3
  10    4    0   18  -18   -8    5   -4   -1
  -3   -2   -3   -3   -8   -2   -5   -3   -5
  12    5    2   22  -16  -14    6   -1   -7
  -6   -9   -3   -5  -12    8    6   14    7
  -3   -6   -4   -6    2   -5   -5   -9   -5
   2   -5    5   -4  -12   18    2   -1    3
  -7   -4   -7   -5   19   -7   -8   -4   -8
  -6   -4   -6   -3   10   -4   -6   -3   -5
   0    5   -4  -30    5  -22    5    1    0
   4   -2   -4   22  -23    0   10  -10   -3
   1   13   10   -2   -1   -6    2  -12   -2
  -3   -6   -1  -17   12    9   -2    6   -1
  -5   -5   -5    0   21   -1   -5   -4   -8
   5    7   -1   -2   16   11    3   -1    3
   4    2    7    3  -11    4    6    6    8
   0    2    0    1  -21   -4    1   21    1
  -2    0    4  -15   -3   22   -7    2    0
  -2   26   -9  -12  -15   -2   -1   -6   -3
  -4   -5   -7    5   -9    0    7   17    7
   4    5    5   12   12    8   -2    1   -1
   0   15    5  -16   -4   16   -5  -13   -2
  -1   -3   -3   -4   -5   -3   -3   -8   -2
  -5   -7   -5   -6   11   -7   -5   -6   -4
  -3   -6   -3   -7   19   -6   -3   -2   -4
  -3   -5   -4   -4   -2   -4   -5   -3   -4
  -5   -7   -6   -6    4   -5   -2   -5   -4
   0    3    2    1   19    4   -1    1    0
  -4   -5   -4   -5   -6   -3   -3   -5   -4
   6    7    5    9    2    6    8    8    6
   4    1    3   10   28    3    7    3   10
  -3    0    2  -19    7   14   -6    2    3
   0   -3   -2   19  -23   18   -2   -6   -1
   1   -4   -1   -4   -4   -4   -1   -3   -1
   5  -10    5    5    1    2    7   14    8
  -6   -6   -5   -5   -5   -6   -1    4   -1
   3   -1   -7   10   17  -20    3   -1   -4
  -1  -12   -1   -5    0   -4   -2   -9   -4
  -3   -3   -1   -1   -4  -12   -2   -5   -7
   1    2    1    3   24    2    3    6    2
   3   -7   -5   19  -12   -8   10    0   -2
   4  -14   -7  -10   15   14    3    2    3
   2  -10   -6   13   -2  -12    7    9    0
  -3    0   -4  -12   27  -11   -3   -2   -1
  -2   -1   -4   -1   30   -3   -3   -4   -2
  10    7    5   13  -17   -3    4    0   -2
  -7   -3   -7   -5   17   -6   -6   -5   -3
  -5   -3    5  -11   -7   20   -4    1    6
   4    0   -3   13    4  -16    3   -4   -5
  11   17   16   -8  -26   -6    0   -4   -3
   5   23    5    3   -4    4   -4  -11   -6
   2    7    0    3   19    3    1    2   -1
  14    7    2   16  -16  -15    4   -8  -10
  -3  -15   -3    1   -7    0    2   25    1
  -1   -4   -2  -25   35  -17   -3   -3   -6
   3    5    2    1   11    1    2    5    1
  -7  -10   -4   -2   12    1   -5    4   -4
   6   29    7  -12  -17   -2   -2  -12   -2
   1   13    0    5  -15    3    3   13    0
   8   -3   -4  -29    4   26    6    1   -6
  -5   -5   -5   -3    3   -5   -5   -8   -4
 -17   -7    0  -12   17   14    2    9    5
  -2   11    1   -5   -9   -5   -1   38   -2
   1   14    1   10   15    8    8   -1    7
   1   -2    0   -6   -3   -6   -6   -4   -4
   3    2    3    1   29    1    4   -2    3
   3   13  -13   -2    9  -11    0   17  -10
  -3   -6   -4   -4   -4   -5   -5   -4   -3
  -3    0   -2   -6  -24   -8   11   24    5
  -2   -8   -1   -4    0   -6   -5   -1   -4
  54  -20  -30  -13   99  -10  -39   -4   44
   5   -1  -13   -4   26   -6  -10    1    9
  -1  -18    0   14    5   15   -1  -19   -4
  -4   -7   -3   -6    2   -5   -4   -6   -4
   8   11    7   12  -20    8    5    5    4
   0   -9   10   -6   18   10    6   23   -2
  -5    0   -4   -5   11   -8   -4    0   -4
  -5    6   -4   -9   26   -8   -5   -8   -1
   0   -8   -6   13   -5   -7    8   13    3
  -4   -1   -4   -5   -6   -7   -4   -4   -5
   1    8    2  -12    5  -14   -3    5   -4
  -4  -15   -4    6   16    3    0    8    0
  -3    9   -4   11    9   10   -3    8   -2
   0    4    1    2   24    2    1    0    0
  -2   -4   -2   -4   -4   -4   -3   -2   -4
   2   -7   -5   15  -12   -8   10    4   -2
  -6   -6   -5   -6    3   -5   -6   -6   -6
  13  -17    6    8   15    7   -5   20   -3
   6   15    5   -4   -4   -5   -3  -11   -4
  -9   29    8  -10   17  -13    3  -11   -5
  -3    5    0  -19   20    7   -9   -2    5
  -9   12  -11   -3  -13   -6    5  -11   10
  -3   -5   -3  -10    9   -9   -3   -5   -3
   5   -1   -6   20    1   -7    2   -1   -6
  -5   -3   -5   -3   -9   -3   -6   -1   -6
   4   -6    4  -16   63  -17    0   -3   -1
  -5    5   -2  -16   17    1   -4    5   -1
   2   18    2    0    7   -2   -1   -9   -1
  -2    1    7   -1  -12   26    0  -10   -6
   0   -4    1    2    4    3    1   28   -7
   2    6    2    5   26    7    0   -1    0
   7   -5   -3   19  -15  -12   11   -3   -3
  -5   -8   -3   -4   -5   -2   -2   -8   -2
   1    1    0    3    5    0    5   19    4
  -1   -1    3   -4   -6   15    0    2    4
   2   19    5   -8  -15   -7   -2   -9   -1
   4    4    4    6   23    5    3    4    3
   5   18    7    0  -19   12   -1   -9    2
  -2   -2   -1   -2  -10   -1    0   -1   -1
  -5    0   -6   -4    4   -6   -6   -6   -6
 -10  -16    5   16   19  -11   -2    1    2
   3   -6    4   -5   -2   -7    3   -8    3
   0   13    3  -13   10   10   -7  -12    2
   1    1   -3   -7   15  -11   -1   -3   -4
  -1    2   -3   -3   13  -15    1    1   -5
  -2   -5   -2   -6   -7   -6   -3   -3   -3
  -5   -2    2  -15    8   17   -4   -1   -3
  -1    1    0    3    9    3    3   21    4
   0    0    0    0    1    0    0    0    0
   1    6    0   -9   32   -8   -1    6   -1
   1   15    4    3   14   -5    1  -19   -6
  -1  -10   -4    8  -12  -12   12   12    1
  -4    2    4   -5    3   20   -9    1    3
  -6   -4   -5   -6   10   -2   -4   -5   -4
 -14   -3    3   -2  -12   22    0   17    0
   1  -12    1   -7  -31   33    1   -6   -2
  -7   -5   -6   -5   10   -5   -5   -5   -6
   0   -5   -3   -3   -5   -2    0   -4    0
  -1    0    0   -4   -7   -4   -3   -5   -4
  16    8    2   15  -16  -12    1  -10   -5
   0   23    0    1    6    0    2    2    4
   4    8   -2    2   20    2    0  -13  -10
  -5  -10    1  -14    4   12    2   12    3
   2    1   -7   23   -9   -8    3    2   -5
   9   -1   -4   20  -12   -4    7   -6   -6
   0  -11   -5   11   -8  -11   12   13    0
 -10  -13    3    3    3   12    6   17    4
  -4    4    3  -14   14    8   -9   -8   -1
  -3   -7    7   -2  -25   31   -3   -7   10
   0  -10   -1  -18  -13    7    9   12   12
   7   30   12   -4  -36  -11   -6    3   -7
   3    5    6   11   16  -10   -1  -16   -3
  -3   -9   -5    1  -16   -6   -2   36    0
   3   -3    4    5   -3    9    4   12    3
  -3   -2   -1    4   -6    2    7   21    5
   0    8    1   10   16    5   -5   -6   -5
   1    2    3    2   31    2    2    7    2
   3   -5    1    3  -16   -6    9   14    2
  -4   -3    0   -9   35  -15    1  -15   -1
   9    8    3    8   53    8    3   13    3
  16   13    3    9  -12   -5    0   -5   -3
  -3   21    2  -13  -23   -3    7    7   -2
  -4    7   -5    8   20    9    0   13   -2
  -4  -10   -1  -16   -2    6   -4   18   10
  -3    0   13   -2   -2   15    0    0  -15
  17  -15   -1   34  -24   -7    7  -11   -1
   8    0    2   27  -31   16    3   -2    4
  -3   -8   -3   -7   -1   -6   -1   -3   -6
  -3   -2   -2   -3  -10   -4   -3   -3   -2
   0  -17   -2    8    5    3    6    8   -1
  -3    0   -5   -4   23   -5   -6   -4   -5
  -1   -1    0   -9   29    5    1    2    2
  -5   -5   -6   -5    4   -6   -7   -3   -8
   2    5   21  -13  -21   13   -2  -10    1
   1   10   -1    2   11    4   -7  -16   -6
  -6  -10   -4    9    2   10   -7  -10   -3
  -2    4    0  -23   26  -10   -7    8   -1
   2    3   -4  -17  -30   40    1   -1   -4
   1    0    0    1    3    1    0   -1    0
  -4    3   -3   -9   24   -5   -2  -10    0
   1  -11    4    2  -29    6    9   19    7
   8   17    6   -3  -16   -3   -6    1    4
  -2   -9   -1  -11   36  -10   -5  -12   -2
  -2   -5   -3   -5   -3   -5   -1   -5   -2
  14   14    7   -1  -13   -8   -1   -8   -2
  -1   12    3    6   24   -7    3  -14   -9
   9   15    0    1    3    0   -3   -4   -2
   0   -1    3    5    2    4    3   23    6
  -3    3   -3  -10   16  -10   -3    4   -4
  14  -13   -3   24  -22    2   12  -13   -1
   3   -1   -4    6    9  -10   -5  -11   -5
  -6   -5   -8   -4   16   -4   -8   -6   -8
  -3   -9   -1   -5   17   -6   -1   -7   -2
  -5  -11   -7   -1   -3    1    6   20    5
   6    5    8    9  -31   11   12   14   10
   4   20    5   13   41   14    3   14    3
  -2  -11   -3   -6  -18   -6    4   31    4
  -1    0   -1    7   22    5    4  -23    4
   1   -3  -10  -10  -29   33   -1   -9   -2
  -4   -8   -3   -7   20   -8   -5   -5   -2
  -9    0  -10    3   28    3   -8    3   -8
   6   15    5   -7   -7   -8   -5   -8   -3
  -5   -2    0   -4    2    2    6   19    9
   4  -12    1    5   -2    2    8   26    8
   2  -25    8  -20    4   17    4    6    0
  -4   -3    7   -2   28   -3   14    5    0
  -3  -11    5    0  -43   42    2   -4   -3
  -7   -6   -6   -7    5   -4   -4   -3   -7
  -6   -4   -6   -8    3   -9   -6    0   -4
   3   -2    9    2   17    6   -3    6    4
  -3    2   10   -6  -22   19   -3   -5    8
  -1   -6    0   -5   -3   -4    0   -4    0
   1    2    1    5   23    3    5    6    4
   0    5   -1    3   16    5   -1    4    1
   1    0    3    3   40    5    2    3    5
  -4   -1    5   50  -26  -21   -6    0    5
   1  -16   -4  -10    4   -5    1  -13    1
   1    4    1    5    6    4    2    3    2
   7   25    6   -6  -25   -2   -2    3   -2
   3  -18    0    5  -12    4    2  -18    2
  -3  -11   -6   -5   -2   -5   -4   -1   -4
  -6  -17    1    3   11    1    5   15    6
  -3   -4    6   -6  -19   16    3   11    4
   4    2   -4    4   39    5    0    2    5
   2    1    2   28   -9   -1    2    1    1
   3   20    9  -11   -6   -4   -3  -10   -2
  -1    1    3    6   10   -5    0   11    4
 -13   -3    2   28   -8  -19  -14   -9    7
   2  -11    7    5   27    8    3   -7    5
   3    0   -1  -15   12   16   -3    7   -1
   6   -7   -7   10   16   -8   -5   17    6
   2  -24    1    0   28   -9    3   -1    5
   4   10    4    0   17    3  -11  -11   -9
  -4   -2   -4   -1   -1   -5   -4   -5   -5
  -6   -4   -5   -4   15   -7   -7   -5   -5
  -3   -2   -5   -2   -5   -2   -5   -3   -5
  -3   -9   -4   -9   12   -7   -6   -2   -6
  11   13   12    1  -18    4   -6   -2   -8
   0   -7    3   18  -32   17    6   -5    3
   1   15    0   -2   10    0   -4  -19   -2
  -7   -2   -6   -1   23   -2   -6   -1   -6
  -4   -4   -4   -3   -5   -4   -3   -4   -1
   0    1   15    7   33    6   -2   14   -3
   3    3    3    3   20    2    2    4    3
   3   -1    5   11   -4   11    3   -1    2
   6   23    7   -2   -9   -1    2   -5    1
