  -3   -5  -21   29  -18    7    2    4  -27    6   12   26   41   15  -23    6   -6   14    7    5   15  -28  -31   -3  -11    9  -16   19   28   -2   -1   68  -20   -4  -10  -13   17   31  -16    8  -20   13   35   34   71  -32   33   -1   21   10   -9  -11   19  -20   50  -14  -41   31  -10   21   -2  -14  -11   33   20   -3    9   13   42    9  -15   -1    5   -6   -6   23   40   27   46  -22  -30   27   12    2   47   -6   26   -9  -19   30   30   27  -31   11   37   29   34   -4   -1   10    3   58   27   21   13   18   18   54   18    5   14   -1   38   11  -32   19   -3   -8   32   -4  -35    8  -50    4   11  -11   35   42  -51   38   -2   18   -9   18  -28   34    9   19    8   54   44  -17   20    0
  26  -33   29   13  -23  -17   48    0  -10    8  -30   -5   -7  -21  -18  -23  -23  -17   16  -10   23    9   31  -15   15    7    0   18   15    7   20   -6  -24  -10  -36  -12   15    4   -3   -9  -16   -6    6  -51    5    3  -16   75  -11  -17   14  -13   13   -2    8    4   28   -5   -5  -17   -6   12  -21   -4  -12   33   36    7  -15  -33   45    8   21    6   -7  -22   -4   -8  -17   86    4  -11  -20  -10   27   42   32  -16  -11   22    3  -19   13   45   -8   16   -4  -11    0   16  -69   -6   11   -3   -4  -15    6   15   -2   -3  -50   24   23  -26  -27  -15  -18   64   47  -19   21   74   36   16    2   10   27   24   47   16   19    8    9   40   10   15  -42   -4  -26  -13   -6  -15    9   34
  47  -28    9  -38   41   23   17    3  -37    1  -15    2  -14   -3   44   15   -8   20  -21   23  -29    6  -24  -23    9    3   13    4   49  -35   -6   28    1  -20   23   -4    6   -3  -20  -31   -4  -32   41    8  -23  -43    6  -15   17  -31    2   33  -25    7    5   -5   15   16    0   -8  -37   33   15   15   32  -15  -21   16    0    8  -12   -4  -30  -16  -30  -26   16  -13   29  -13    8    0  -28   -8   30   -5   22   13   -6   56    3   22  -24   -4  -13  -26    2   24  -15   -4   -1   -7  -29  -17   19   -8   65   22   31  -23  -47  -31   28   13  -17    8   -7  -27   -2  -25   12   30  -21   -2    0  -23   10    9  -35  -47    1  -15  -43  -19  -27   29  -11   23   16    1  -25   -9  -16    0
 -16   13   32   40   -7    4  -25  -18    3  -13  -80    5  -14  -33   23    7   -7   -3   20    8   -9  -29  -27    4   11  -56   31  -26   -2  -14  -10  -68    6  -31   15   29   -5  -24    8   -4   46  -20   57   58  -11  -12   14   12    5    7    1   -7    8   16   27    3   44   14   11  -42    5   25   21   17   35   31   -5   37   17    1  -30   -8   -1  -17   -2  -45    5   15   19  -44   -1   -5  -39  -11   25   -5   20   19   18   39    8   -7    4   -1  -13   -8    0   -1   20   16  -22   45   44  -20   24   10   13   11   36    7  -50    2   15   16    6   23   29   22   12   -6   60   45   28   -4   12  -12   14    8    5   32   -7   20   23   49   -5   15   14  -27  -21   13   19  -40   -2  -20
 -67  -12    8   43    4   29   -6   -1   12    3  -20   55   29  -18   14  -17  -13   24   15   23  -15    5  -13  -19    0   13   39   37   -4  -14   12    6   28   10  -11   32  -21   34   -1   -2   -3   15   10    4    8  -37    9    1   97  -21   26   54   11  -20    0   40   16   82   32  -38   20  -61   11   33   10    5  -60   -2   -7   12   13    9  -23    1    1    6   28   24   -8   15  -23  -12  -19   -9   11    8  -21   -9    1  -22    1    3   -8   10  -13   35   74   -7    3    6  -35   15    8   22   20   27  -56   41   -6   14  -46   -3   39   -1   54   -9  -18   -2    4  -23  -30    9   11  -23   -5   19   -7    9   -2  -14   22    6  -10   12    5   20    2  -46   28  -15   23   22    9   27
 -18  -24   -5    6   32   57  -23   10   46   13  -62  -55    1  -34   29  -19  -10   35    6   37    3   15    6   27  -25  -26    8  -52   21   29    2    3   48  -21   -5   49    8  -13  -16    1   18  -13   14    5   15   38    0   51  -57  -18   11   32   18   43  -18   22   13  -49    9  -16   10  -40   30  -32   48   -5   17   34  -14  -31   12    6   -5  -15   -4    6    4   58    3   34   15  -18   39   -7   -1    4   38  -11   -3   -6   23   28   -5  -37   17  -53  -67  -31   40    4  -15   42   -9  -23   -9   44  -39  -52   17   -3  -24   21  -38   32  -24   36  -12    3  -12  -14  -45  -21  -43   21   -5    2   -7  -13   13   17   -1  -15    2  -39   15   -3  -12    3    5  -26  -14   53    6    3
 -21   32  -57   -6  -36    0  -28   -5   34    4  -79  -50  -38  -48   17  -22  -15   25   21   15   63   -1  -17   47  -19  -10  -41  -18   15   35   14   12    7    9   -5   -1   13   46   25   45   27   21   15   12   26   19   18    2  -44   10    3   44   23   26   17  -30    4  -38   35  -11   45   11   57  -36  -26   13  -17   46  -18    1  -16   28   27   -3    1  -32   23  -26    2   -5   24    6   -3   11  -30  -21  -16   22   46   40   19  -48  -26   16    3   37  -11  -54    4  -29   28   23   20  -33   34   14   49  -32    7   54  -80  -11  -24    1    6  -13   11   24   -9    0   -3   15  -14    6   34   31 -101    5    0   75   26   -4    6   -5    3    9   19   21   -3  -76   54   21   40  -29
  49   -6   -8   43  -12    6   28    2  -16   -7  -25    2   -3   -5  -16  -25   -3   -7   12  -17   -7    6  -10  -33   22  -20    2  -29   -8   -2    3  -17   26  -32  -17  -11   -1  -18  -18   -4   51  -15   12   26    7   -2    7   13   -8    7  -15  -38    4   -5    3  -40   -4    2    4   18  -14  -15   -5    3   27   22  -16   49   14   -5  -13  -33   12  -13   -9   12   -4    7    1    7   -7   21   11   22   17    5  -46  -50   -3   15   40    6  -14   -8    1   -9   12  -14  -16  -14   -4  -24   31   -5   19   28  -25    0   42  -22  -13   -2   10   13  -65   32   -6    0   -7  -24   -3   -6    0   -5    5  -41   12   31   -6   25   -9  -38   32   15   -5    7    8    5   -2   -1   20   17   19  -10
 -57    1  -21   -4  -17   -2  -19   36   12   -9   49   11  -10   21    1  -10    8    3   14    9    4  -12  -17  -16   11   -5    8  -20   19  -13  -10   26    3   20  -10  -15    8   34    7  -12   16    4  -10   21   -3    7   11   -4  -16  -17   23   -4  -27  -17   -7   -5   -7  -18   12  -20  -17    9  -41   10    5   -2  -16  -10   10  -23  -17   12   14  -42  -28    3    6    2  -11  -16   -5    4  -25   14   -2   31   13  -37  -19   29    5  -12   17  -11   26   -2  -16   -1   15   -8    0    0    4   -9    1   12    3   -6   -9  -13   76   -5   -2    7   43    4  -21  -21  -19  -15    3    2  -18  -31   -8    2  -24  -16  -22  -26   28   17   -6    6    6    9   41   -1  -17  -14   17   18  -18   33
 -25   -1    0   17   58    9   -3    2  -19    3   47   -3  -19   -4   -3  -26    9    3  -32    5  -28   11    0   -6    5   13  -29   -5   -4  -23  -11   -1   -1   17   15   13  -53   -8    5    3  -25    7    8   10   -7   -4   17   22   12    4    0   -4   46  -18   -3   25   -2    5    3   -3   -5    1  -10   12  -19  -26  -21  -11    1  -11  -17  -12  -17   -4    8  -12    7   -1   -8   22   -3   14  -27   17   39    0    7  -24   13   43   -3  -23  -15  -26   23   20   17  -19   -3  -17   -8   41  -33   -5   15   -2    9    7   -9   -9  -36    1   -2    1   36   -8   -4    3    5    9   55  -38   -3    5    1   -4   29   17    2  -48  -14   11  -15  -26  -19   11  -10  -24  -16   13    9    0   11  -14
 -15   14  -28  -26   -4   23   -3  -16   31  -31   25   45  -11    2    6   -9    8   32   24   19  -49   49   23  -66   16    2  -24   41  -19   41   51    4   -7   -7  -12    4   -4   21   19  -11   23  -12  -16  -40    0   67   74   23   54   64   -5    1  -16   45   -1   35   13   68  -33   33  -21   -7   -4   13   27   -4   12  -11   11    7   44  -35  -35   37   31  -17   55    8   14   36   35  -12  -17    7  -36    0  -27    8   27    3   48   15   32  -20  -33   17   47    4   14    3    4  -10   -9   60   43   18   31   -6  -19  -18    5   15   -4   16  -32   26   10   13  -16   12   -7    0   12   16  -27  -46  -20    7    8   -3    8    4  -14    8   44  -28  -24   -2   23  -33   42   19   29  -16
  -4    5    0   -9    5   23  -29    0   12   54  -12    1   -2  -22  -51    2  -11   31  -21   26   -3   -6    7    0  -32    9   -2  -13   14   15  -19   10   21   -4  -11    6   22   16    8   49   26   27   -5  -21    7    9   -7   21   19    4  -20  -32  -17    7    0  -27   -6   22    2   11   37   18   21    3   12   15  -24   34   -2  -10   11   32   -8    6   -3   -1   23   -2    1   25    0   11    4  -18  -23    4   36    5   16   -1   -2   -7   12    6    2   20   21  -19   15    5  -13   30   16   -4    7   17   33   -1    9   44   -1    3  -10   22   -8    8   -3   18   11   -4  -13   21    7   16   -5   31  -18   11    7    7   -8    9   -5   25  -11   -5  -21   11    3  -13  -26   -9   -2  -18
   0   19   14   10   -3  -15  -47   21    0   -3  -38  -19  -11   -2    1   42   27   -9   13  -14   -4    3   15   19  -20  -31   19   -2  -26    8  -20   -9    6    5  -48   14  -19    0    5    1  -31   10   36   14  -11   10   43    0  -19   13  -13  -26  -12    6  -11   -7    6  -17  -22   44    3   11  -14    9    3  -17    1    6   42   31    8  -11   22  -17   18   -6   -9  -10   28   -2   17  -27   15    9    6   72   -4   55   43  -17   18   23  -18   -2  -30    8  -13   21   -7  -21   10    0  -13   12   -2    2  -14  -11   13   13  -30  -18    0   -8   -3   -5  -15  -17  -14   21   -4  -12   12  -66    0  -21   42    8   -2   24   53   -3   -6    3   11   -6   43  -22   33   21   16    5   -9  -20
 -25  -43    6   -6   -6   21   -4    3    1   33   -7   20  -20    5  -22    7  -37   16   12   14  -27  -26  -23   15   13   -2  -10   31   -6    9   10    7   -6  -17  -24   26   -2  -82   -2   10   49  -18  -25    2   10  -33  -41   12   44  -25  -54  -10    3    1   12   30    1   63   19   24   -3   20   25   -1   14   11   23  -28  -17   -6    0  -14  -42    7    6  -15   10   29  -24   27  -19   -3   11  -19  -13   -3  -19   32    1   -2   -4    9    0  -16  -10  -26   39   40   15   -5  -37   36   21    9  -21  -12    7   37   -8    1   78  -18   18   25   -4   22  -18    9   13   28  -36  -14   -8   -8   22  -24  -29   -2    8   16   10    6   12   14  -29   17    4   28  -19  -11  -18   13  -31  -53
  53   27  -13  -22   17  -20  -16  -27    1   -1  -78    3    6  -46  -21   -1   27  -12    6  -19  -14  -22    4   28  -29   -4   15  -20   35   14  -22   -6  -36   -5    5   16   -1   38    9    1   52   16   36   12   12    5   42    4   12  -20   23  -32   18  -15  -13   -2   30   26   20  -33    6  -18   28   23  -33  -21   93  -39   19  -28  -32   26   33  -17  -16  -13  -17    7   29  -22  -14   10  -10  -34    9   -3  -24   12   17    7  -31  -13    3  -21   21   10   -1  -22   -3   -7   13  -53  -15   12  -53  -33  -11    1  -17   11  -54   11  -20  -35  -20  -30  -23  -24  -20   28   -6   -4  -46   -3  -24   24   25    5  -12    9   -1  -27    7  -35  -22   10    4   19   -4   -3   21   27   11   22
  14  -10  -21   -7   13   -7  -22    9  -13   -2   38    8   23   15    3   -9  -15  -13   -5  -16    1   -7   -3  -13   15   -4  -11   -3   20  -29    8    6  -15    6  -19  -27   14  -12  -18  -12   13  -23    0  -11   26    3  -19   12  -10    7    1    5   42  -26   19  -21   25  -11   -6  -33  -15  -16   36   -5  -17   -9  -12  -17    2    0  -16  -12  -22  -25   20   21  -14   -3   -2   10  -14   35   -6   -8   -1   76   12  -24  -29    1  -17  -25   -8   -9   32   -2  -11    1  -25   12  -34  -14  -15  -23    5  -18   31    6    5  -22   12   11    6   -8   17  -15   30   20   34   -2   -5   -7  -12  -28   -3    5  -20   -4   15  -40   45  -18  -13  -19  -19   10   27   13    1  -18  -14   -8   14   -3
 -11   -9    7   14  -18    2  -21  -34    6   -4  -33   26   19    9    3   12    6    4   32    7   -5  -10  -31  -17    2  -34   11   10    3   -3    2   -3   -4  -12   11   -6   11    8   10  -22    8  -11   -2   17   23  -12  -17    6    9    1   28  -11    2    1    2  -19   14    9   -5  -42   -4  -10  -13   12   10   13  -12    5  -11   29   -8    3   -4   14   11   11    2   15  -14   18  -13   -1  -14  -22   -6  -22   19  -19  -29  -10    6   -6   18   14   20  -14   -5    6    7  -39   26   12   19    4    7    8   -6    8   10   -5   49  -49   20   12  -13   14   -5  -22  -18    6   21    3  -11   -8   45   14   18   14   23   12  -17    7   11   20    4  -11   -9  -11   -9    4  -12  -21  -18   39
  48    4   -6   -2   21   14   -2   31  -14   31    3   -6   20    1   -6   36  -10   49  -19   36   46   -8   -9  -30   -8   31   -9   10  -12   25  -16   38    1  -13  -10   17    1   46   31    6  -11   -3  -12  -16   16  -13  -39  -18  -22   17   45   -3  -23   38   26  -16  -42  -13   41  -48   21  -29  -33  -26    0    1   32   24   -8   19    6   47    7    9  -11    4   41   12  -36   -5    5  -54   -9   41  -11    9  -13   -3  -30   14    2    5  -13    4   -4  -18  -14  -10   36    6  -29    8   -9   -4   -6   25  -26    7    8   26   57  -13  -14   26  -74   15   10   18    8    9   51  -34  -28  -18   14   -6   -7   -9   19   47   30  -14   11  -21  -11  -20   21  -28   -8    9  -21  -49  -53   71
 -24  -23  -18    9   -9   -6    9   12  -19   -3   -4    8  -11    3   23   28   -8    1   23   -4   -6   10   20  -18   31  -30  -12    1    9    6   22   12    5   -1   -3  -16   11   -6   20  -10   18  -15   -5  -25   38    6    8   13   11  -10   -6   37    9    3  -13  -17  -12   17   -9   25  -16   15    7   -7    1   14  -15   10   -7  -10   32  -16    7    8   35   -9   15    4   -4   29    2    0  -15   10    5    5  -21   19   34   17    8   -6  -15   24   25   -1   16   32   18    7  -15  -41   19   -8    4    9   24    3   -5   -9  -11    6    1   24    8   20    5    4   16   52   45   -9  -35    7  -15   -8   13    7    2  -28   -4   37   32    3  -28    9  -26  -30  -21    3    0   -8  -28  -21
  10    4   -8    3    0  -23    4   -6  -23   -4  -28   41   -6   20    8   24  -13   -7   21  -20  -13  -13   19    0   -7  -25   32   20   23  -36  -25   47    0   -9   24   -7    2    6   -3  -21  -15  -13   -1  -29   35    5  -14   22   35    2   29  -18  -18  -30   22  -19    6   20   18  -11  -15  -18   -7   31  -31  -12  -57   -4   -5  -22   14   19  -11   26   20  -34  -21   -3  -15   17  -25  -16   23  -18  -26  -33   21   35   13  -21  -13   -7  -33   14    4   10   14   39  -44   18  -28   10    0   11    8  -16  -33   13   22   11   10    9   33  -19   22  -30  -24   24   32   35  -16   -9  -42   32  -12   18   17    9    9  -13  -15  -39   -8  -22  -45   -6  -26   -4   14    2  -11   36  -53   19
   8  -34   10   15   -3    7  -33  -29   13   13  -81   -1  -25  -19  -12    1   -3    9   54   16  -25    9   12   12  -26  -20  -19   20  -16    3  -11  -11   -8  -17  -14   -2  -34   15   27  -11  -28   20   19   -7   -6    3   13    2    7  -20   18  -36   24    9   15  -31    3    6   -6  -10    7    8  -17   14   -5  -24  -20    0   -2    4   56  -12   -5   22   32   -1    3  -23    3   22   12    5  -30   -6   -6  -16   -7  -22  -11   -3   32  -16    3   -1   17    7   -8  -28  -16    8  -16  -10  -21   11   29    0    9   -4   20   -3   28   12   15   14  -27    6    4  -34   -1    2   42  -35    4   -3  -40    5  -12   -1   11   26   19  -21  -23   -9   24   11  -22   -5   31   -3    5  -15   15   17
 -32  -13  -33   32   -5  -14  -30   -4   -5    2   93  -49   20   11  -32   10   -1    1  -11   -5   41  -17  -11   -9   20   74   40  -59  -26    1  -23  -23   10   35   -2    6   -8   31  -23   12   14   -8   10   38    2   12   29   63  -89  -33  -14  -23   11  -40   -4  -14   51  -72   18  -11    1    3  -10  -10   -2  -21   18   14    9  -78  -50   10   37  -46  -13    8    5   -1   41   28   13  -51    5    4   37  -43  -13   25   24   13   26    6  -53  -37  -14   13  -33    9    8   -2    3  -18  -17  -50  -18   27  -14   -9    5    7   57   14  -10   -3   19   -8   28   -7   -8  -22  -16   -6   22   36  -10  -62  -53   34   15   -5  -22   -7  -10    5  -13   48  -20  -12  -50  -68   50   19  -11   -6
  34   24  -19   -7   20   -7  127   17    7  -36   23   52   31   24  -22   -2   29   -6  -19  -12  -67   38   11  -53   23   67   17  -25   25    4   19  -22  -13  -50   -9  -16   18   16    7  -12  -26   -6  -71   -1   29   27   -1  -21   68  -24   14  -47  -11    3  -64   27    8   59  -15  -15  -25   -2    0   35   16   19  -29   21   -5  -14  -13    0  -33  -36   37  -13    2   10    2  -16   -2   11   -2    5  -22   45   47  -14   29   -7   12   -6    5  -13   -6   42   42    5  -13    2   34   20   38   36   25   -8    5  -25  -16   -4  -29    1  -25    0  -21   24   10  -37  -46   25   18   18  -36  -24  -25  -11   -8  -24  -13  -30   -7    1    0    7   -9  -11   27  -10  -63  -37   15   17  -14   -9
  14  -22   -2   15   -5  -33   -6    2   14   36   10  -26  -41  -20  -29   -5  -16  -37   16  -40   50   49  -33  -57   45  -36  -11   19   32   22   59   29  -16  -12   28  -15   -2    1   16  -14  -11  -31   20   20   28    8  -19  -46  -54   29   -4  -39   21    7   37   31   28  -64   44  -10  -37  -35  -11  -53   -7   16   24  -40  -48   77   30  -18    3   26   35   -5   -8  -18  -11  -36   38  -65    3   19    7  -13   41  -34    2    3    7   -4  -14   49  -22   16  -40    0  -10   -5   38   28   15  -26   -6  -16   -8  -22  -20  -36  -88  -17  -20  -39   11  -10   22   17   16   13  -19   50    5    7   54  -76  -47  -49    1  -59   14    4  -16    7   60   -7   24  -30   93  -26   21   45  -18  -28
