  -8  -13   -7  -15  -15  -11   -3  -10   -4
 -13   -6    1  -20   -7    0  -17  -15   -5
 -19   -8    8   27   58   25   -1  -20  -56
   5   10   -2    9   23    1    2    7   -4
  -7  -23  -14   -8   -9    0   11   37   14
   4   32   28   -9  -11    9  -12  -23  -14
   0   -4   -5    3  -11  -14    3  -10  -14
 -36   13  -32  -34   37  -38  -42   26  -31
   4    8    6    7   19   15    4   10    8
 -21   41  -14   -6   22  -14   28  -66   26
   2    1    1    8   12    8    8   14    8
  -3  -14  -17   -2  -20  -19    2    0   -2
 -27   30   -5   56  -87   29  -30   60  -26
 -33   -6   22  -72   91   11   16   63  -33
 -13  -26  -20   26   96   23  -10  -68   -3
  -5   -8   -1  -15  -17   -8   -7  -16   -7
 -24  -24   -7   -5   12   24    3   17   33
   7   16    5   10   10    1    4    8    4
   0   -8    1    2  -34   -6    3  -13    7
  -2   -8   -6   -7  -27  -19    2  -19  -11
   8    9    1   12   25    1    8    9   -2
 -13   -3   21  -14  -31   48   -2  -29   25
  20  -52   29  -55   88  -30   33  -35    5
  -7   13   -4   17  -89   72  -10   77  -66
  -9  -16   18   10  -23  -47    8   40    8
   1    5    3    4   14    7    6   11    5
   0   -9   -4   23   42   24   -4   -8   -1
  18   45   47   17   52   65   -5   32   39
   8   14    6   10   32   12   -6    2  -11
 -24   55  -22   49  -41  -13   33 -111   65
  -6  -16  -10  -15  -18  -14   -6  -12   -3
  27  -14  -15  -13   95  -29  -66   17   41
  -8   17   -7  -21   55  -12   -8   29   -8
  -1  -12  -12   -4  -13   -8    0   -1    0
  -6   -9   -4   -6  -11   -5   -3   -4   -3
  -3   11   -7  -13   45  -23  -12   38  -23
  -3   -5   -2   -3   -5    0   -5   -5   -2
  -8   -8    5  -17  -13   -3  -13  -13    0
 -20   39  -18   39  -88   42  -17   35  -20
   1    5    2    1    9    6    2   10    8
  -3   -6    0  -12  -14   -5   -8  -14   -3
  14   11    5   10   20    3    7   13   -5
  -4  -27  -20   24    5  -36   -6   40   10
  -7  -25   32   -8  -39   66    2  -35   40
  27  -20   -5   60  -33   -9   29  -17   -9
   4    7    3    6   13   12    3    7    8
  -4  -10    5  -17  -32    5  -10  -24   -3
   4  -47   29   59  -18  -54  -53   85   -7
  13  -47   -3  -62  -40   54   19   81  -15
   5   -9   -8   60 -111   41   61 -124   51
  26   30   14   28   49   34   15   29   22
  -4   -9   -9   -8  -14  -10   -6   -8   -2
  -3   -4   -9   -9   -7  -40   -3   -4   -7
  11   18    3  -15   26   21   -5    0   11
  -4   -3    2  -10   -8    3   -5   -5    1
  16   68    7  -22 -126  -21    9   55   13
   2    6    6    8   15   11    7   13    4
  -4  -11   -4   -8  -21   -5   -2   -4    0
  -2  -23   22    3  -42   43   -2  -15   20
   4   15    3    5   -8  -11   -7  -22  -29
   1    3    4    2   12   10   -1    3    5
   3    5    3    4   13    9    1    4    4
 -60   68  -12   83 -113   27  -19   34  -13
   0   -6  -24    8   -8  -38   12  -15  -18
 -11  -15   -6  -19  -23  -13  -10  -14   -3
 -26   -4    5   95   44    0  -76  -43   -6
 -26  -55   -1   12   60    6    4   -8   -4
  -2   -6   -3   -5  -10  -10   -7   -8  -11
   7   10  -13   14   12  -33    2   14  -24
  18  -15   -9   41  -32  -17   24  -10   -7
   9   16    8   14   14    2    4    6    0
  -3   -6   -1  -10  -22   -5   -8  -14   -6
  10    5   13   38   65   40  -50  -90  -42
  -4   -4    0  -12  -11   -2   -2   -7    2
  21  -27  -17  -43  -20   34    8   39    9
   4   -4   -5   -5  -19   -9  -10  -13    3
  -9  -20   -9   -2  -19   -9   10   14    8
  -2   -3   -3   -1   -2   -5   -3   -5   -5
  21   31   20  -27  -65  -26    6   22    6
  14    2  -16   39   -3  -31   27    0  -16
  -5  -12   -6  -18  -20  -16  -10  -15   -9
   6    6    1    6    7    2    4    6   -4
 -13    2    3  -25   -3    8  -23   -2    7
   4    5    4    7   14   10    4    8    6
  -1   -7   -5   -5  -20   -8   -3  -10   -7
   3    7    1    6   17   10    6   13    7
 -44   18   17   -4   90  -39   53  -37  -44
   2    6    4    5   13    8    3    8    5
  -1   -3   -1   -5   -6   -4   -4   -5   -6
  11   -3  -49    2   61    3  -33   -5   19
   8   -9   -1  -38   95  -55   31  -83   51
 -11  -13   -6  -14  -21  -12   -4  -14   -8
   0   -4   -4   -1   -7   -9   -1   -8   -8
   5    7    0    9   11    0    6    6    0
  -7   -8   -3  -25  -20   -2   -5   -2    5
  13   51   37  -13  -53  -33   -8  -11   -2
