 -15  -30  -15   13   73    8    1  -27  -15
 -21   16    0  -21   35   10  -24   23   -6
   2    2    2   43  -16  -33   11   -1   -7
  -2   -4    4  -10  -54   68   -1   -5   -6
  -9  -32   -6   -2    5   -1   10   27    8
 -10   -3    6   33  -39   27   14   -6   -8
  -7    0    6  -28  -10   36   -5   -2    8
  -4   -6   -3   -4  -10   -5   -2   -3   -1
   7  -16  -11   10  -28  -19   34   11    6
 -12    6  -11   -4   62  -13  -15  -18  -13
  -9   -6    8  -27   -4   31   -6    1   13
  -2  -14    8    6  -67   45    7  -18   12
   3   -2    1   37   -3  -33    7   -6   -3
  -2   12    5   -7   38  -16    9   20  -22
   2    8    0    5   39    6    1    7    1
   4   -4   -7   16  -13  -11   25    7   -9
 -10  -18  -16   -2    1    0    8   23   13
  -2   13   -3    3   39    1   10   22    7
  -9  -26   -9   -2    0   -1    8   29    8
  11   34    7   26  -26  -22    1  -21   -2
  -5  -13   -9  -10  -16  -12    3    4    1
  -7  -10   -8  -11    5   -8  -11  -11   -7
   8   34    6   -4    1   -1   -7  -31   -4
  -8   -7   -6   -9   -3   -9   -5  -11   -8
   2    7    5    6   49    7    5   15    7
  -3   23   -8   -2   41   -3  -13   25    9
  12   -4    2   31   16  -13    1  -11  -20
   6   26    6   -5    2   -1   -4  -26   -2
  -7  -21   -8   -5   -1   -3    9   28   10
   4    8   -3   19   16  -27    8   -8  -16
   8   55    2  -14  -24  -11    0  -23    0
  -3    0    6  -28   -9   33   -6   -3    9
   8   28    3   -1    2    1   -7  -28   -9
   3   -9    7  -11   -9   -4   -8  -12   -1
  -6  -30   -5    0    2   -2    6   28    4
   4    6    5    0   -4    6   -1   26    2
  -1   -6    0  -10  -11   -8   -1   -9   -3
  -1  -31   -2   -5   -1   -6    6   35    6
  -4  -26   -2   -1   -4    2    3   32    1
  -7   -8   -6  -10   -2   -8   -7   -9  -10
  -9  -29   -6   -2    5   -2    8   28    7
  -1   -7   11   61  -30  -22   -7   10  -18
  -3  -20  -19  -12   85   -8  -11  -23    1
  -1  -23   -1  -12  -18   -9   10   43   11
 -23  -14    3  -23   30    8    5   15    1
   5    4   -7   23    7  -30    6    0  -11
  -9   -5   -8  -15   56  -19   -6  -21    3
 -11   -4   -3  -27   66  -16    2    6  -15
  -3   -6   -5   -9   53  -15   -4  -15   -5
  -4  -32   -3    1    5    0    2   30    1
 -10  -20   -7  -22   96  -29   -5  -31   -7
  10   21   13  -43   36  -41    4   49  -15
 -11    6  -12  -20   45  -18  -11  -10  -15
   0   19   41  -17    1    3   -9  -13    1
   7    0   -6   27    4  -31    5    1   -7
   5   28    5    1    1    0   -7  -26   -7
  -1   -5    1   -4   -8   -4   -5   -6   -2
  -3   -1    1   -4  -50   76   -4  -11   -1
  13   -1  -11   26    2  -22   15   -8  -13
  -7  -24   -9    0   -6    2    6   32    6
   3  -20    2  -33    0  -30    6  -28   -5
 -15   -1   -3  -21   73  -22    0  -17   -8
  11   31   16   -6  -44   -1   -3   -5   -4
  12   56   13  -11  -33  -12   -6  -19   -3
   9   -2   -6   28   -2  -27    6   -1   -6
  -6   -8   -8   -8    4   -8  -11   -4  -10
  -5   -3    8  -32   -5   34   -6   -4   11
   3  -11    4  -12   -9  -13    2  -16    2
  13   39   12   -4  -11   -1   -2  -21   -6
  -6   -5    9  -28   -8   39   -4   -1    6
  13   47   12  -11  -16  -12   -2  -31   -1
 -14  -14   -7   -8   63  -12   -6   -8   -8
  -4   -4   -4   -7   -7   -6   -4   -7   -4
   8   -6   -5   30   -8  -25   13   -4   -8
  -2    5   -2    4   56    2   -2   10   -3
  -5   -4    8  -15  -39   57   -7  -11   14
  25    6    5   30  -28  -30    6  -22    2
  -7   -1    9  -26   -3   29   -8   -2    8
  -2  -20   -3   -2  -27   -2   11   55   10
  -2   23   26  -30  -16    6   -3  -14   -6
  -8   43   -2    9   91    6  -30   15  -13
   6    7    1   35  -71   42    2   -1    5
 -11   15    9  -16  -16   51   12   -5    3
   0   -8   11   -2  -35   39   -3  -12    6
  -2  -21   -8   19   28   24   -6  -35   -9
  -5   -6   -9   -6   10  -10   -6   -8   -5
   0   -3    3   -6  -20   -2    0   -6    6
   7    4    4    5   40    4    9    3    5
  -5   -5   -4  -10   22  -17   -3  -10   -5
   4   44    4    0  -58    2  -12   48    5
  -5  -29    2    8   45    8   -1  -24   -6
  -1  -20   -3  -20   51  -25    1  -29    3
 -11   -2  -10   -3   -4   -4  -12   -2  -11
  -6   -7   -7   -5    0   -5   -3  -13   -3
  23   13   10   19    0   11   18    5    5
  -6   -8   -4  -11   -6  -11   -2   -8   -4
 -10   -2   12  -27   -8   36   -9    0    7
  -1   -7   -2  -21    5  -18    5  -27    5
  -7   -6  -10   -6    0   -6   -9   -5   -8
  15    1   15    6  -53    6   18    1   19
   1   44   -2    4  -15    0   -3  -25   -5
  -7  -11   -8  -15   40  -14   -4  -14   -6
  11   47    4    0  -11    6   -7  -29   -7
   7   46   11   -2  -33  -30   -7  -12   11
   8   -4   -5   33   -1  -31    8   -3   -5
  -9  -31   -4    0   -5   -5   10   35    8
  -3  -22   -1   -7   53  -15   -1  -15    3
 -16  -18   -8    0    7   12    6   21    0
   3   24    3    3   33    5  -12  -12  -13
  -9    7   -1   13   62    9  -11   11    4
   0    9  -13   -9   30  -21   -3   -7  -11
   5   32    6   -2    5   -3   -4  -34   -2
  -7   -8   -9   -4   -7   -2   -5   -9   -9
  -5  -10  -11   -7   -9  -11    9   50    0
   4    3    4    3   39    8    2    9    4
 -12    9   -2  -22    4   27   -7    6   -1
  -3  -13    0   77  -78    9    9  -13   -3
   3  -17    4  -23  -50   20    6   20   35
   0   -1    0  -38   -5   44    0    0   -2
  -5    2   -3    0   66   -5   -2    1   -4
  10   18    2    4   25  -14   -9  -28   -6
   6   -2   -4   34   -3  -29    6   -3   -3
  -2   -7    1  -10   -4   -7   -1   -7   -4
  12   13   14    6  -66   10   10    3   12
  10   13    4   10   32   10    1   -1   -7
 -11   -3  -11   -2   -6   -1   -9    0  -10
 -10  -26   -7    0   10   -5    6   31    5
  -8   -5   -7  -10   -7  -11   -6   -6   -8
  11    2    1   41  -28  -18   12  -20   -3
   3    3    3    9   43    6    1    8    0
  31   32    4    7  -41  -20    2  -18    2
   8   31    9   21   32   21    9   34    5
   5    2   -3   12   77    4  -11    7   -1
 -13   -4   -6   -3    5   50    2  -14    7
  -8  -10   -5   -8   67  -18  -11  -18   -6
   3  -12    1   -4  -35  -12    7   45    5
 -23   53   -2   54  -82    1  -23   37  -19
  -2  -15   -5  -11   28  -15   -6  -15   -5
  -3  -23   -5   -5  -17   -6    9   36   10
  -4   -8   -6   -9   -4   -9   -6   -8   -9
   8   -4   -6   37   -4  -28    9   -3   -8
  -6    6    6  -20   -2   25  -11   -6    5
   7   -5   -8   30    3  -30   10    0   -8
  -6  -17    8  -19  -46   14    8   11   44
   5   -3   -9   20    1  -25   13    0   -8
 -10   -1  -10    3   53   -1  -14   -8  -12
 -14    2   15   15   47  -33  -11  -31    8
   4   19    6    7   28    4   -5  -27   -5
   6   21   -6    4   29  -13  -10  -14  -10
 -12   -4  -11   -5  127    7  -11    2  -12
  -3   -7   -7  -12  -23   -6   -4  -14   -3
 -24  -12    5  -14   -3   14   -2   32   27
  11   33   10   -2   -3   -2  -10  -28   -9
  -5   -7   -8   -2   -6   -3   -7   -6   -9
   3  -24  -10   24  -22  -18   30   16    0
   8   28    9   -4    1   -3  -10  -23  -10
   6   29    5    0    0    1   -7  -28   -6
  -3    5   -3   10   43    7   -2    5   -6
  -5   -9   -7  -13   11  -16   -4  -10   -5
   3  -11   -1   -8  -14  -12    2  -13    1
   0   -9   -4  -11   -6   -9    0   -8    4
  -7   -5    8  -25   -2   30   -7   -3   12
 -23   44   18   -8  -60  -11    8    9   -9
  -8    0    1  -30    9   26   -7    5    4
   6   31    6    3   -3    1   -9  -23   -9
   0   -7   -2   17   51   10  -16  -28  -11
  -4   -4    9  -20  -15   38   -7   -7   12
  -3   -6    1  -20  -78   -3    0   81   -5
 -23   -4    8  -25   48   -1   -5   18   -6
 -17  -26   -3  -12   87    4    2  -18  -26
  -4  -10   -5   -9    7  -10   -5   -8   -6
 -10  -17  -10    4   19    6    6   12    7
  -7    0    7  -28   -2   30   -6   -2    6
  -6    0    7  -29   -1   35   -7   -4    7
  12   28   13  -27  -37  -27    5   13   13
   0  -13    0  -10   -6  -13   -1  -16   -2
   8   -1   -8   33    2  -34    8   -3   -4
  -6   -2   -9   -5   47  -12   -6   -9   -6
  -7  -12   -4  -13    1  -12   -3  -15   -6
  19   16   -1   20  -14  -11    3  -16  -12
   1   24   26  -20  -40   27   -3  -14    1
  -7   -5   -7   -6   34  -16   -8  -11   -8
   3  -12    7   44    1  -43    1  -10    2
  -2  -27   -2  -12  -23  -12   -6  -21   -3
  -7    3    4  -30   -8   38   -2   -6    8
  -1   10    5   30  -48   25    7   25    7
  -2   14  -12  -17   40  -23   -4   14  -17
  -2   -4   -2   -7  -63   -5    3   78    0
  -6  -30   -7   -3   -1   -2    8   31    8
  -5   -8   -4  -17   27  -13   -5   -6   -5
   2  -24  -15    9   -8  -18   24   25    3
   2    7   27  -11   26   16  -12   -6    1
 -10   -2   12   -2  -46   55  -10    1    7
  12  -46   16  -23  -16  -32    8  -44   17
  12   57    7  -13  -40  -12    1  -16   -2
  13   47    7    1  -40    0   -3  -17   -7
   2   -5   10   -9  -47   53   -5  -10   14
  -1   -1  -10   -3   -1    8   -1    1   37
  -6   -9   -7   -5    1   -8  -10   -2   -7
  -6   -9   -3   -8  -16  -11   -3  -10   -1
  -4  -22   -3   -5  -17    0    7   46    4
   9   32   13  -29  -36   -8    9   -1   -7
 -13  -21  -10  -11    3    3    9   30   11
  -2   33   31  -30  -40   20   13  -17  -11
 -10   -2    3  -41   44    4   -9    9   -1
   6   19    0    7   33  -14   -2  -31  -16
   9   60    5   -6  -57   -8  -11   -7    3
   1    6    0   11   39  -20   -3   -8  -24
   2  -19  -22   41    7  -13   14   -5    4
 -10  -27   -6    0   -3   -4    8   34    7
   9   -5   -8   36  -11  -21   11   -1   -8
   5   33    3    2   -3   -6   -2  -26   -2
  -3   -5   -4   -9   -9  -10   -9   -9   -6
  -7  -10   -5  -11    6   -6   -3   -7   -4
  -1   -1   -7    0   43   -3  -14  -13  -12
  -3   14   -1  -27   39  -31   -8   16    3
   8   29    6   -3    1   -2   -7  -25   -5
  10    9    3   -5  -13  -15    2  -14  -12
   1   -5   -5   -1   -2   -6   25   23   -1
  25   50   12  -23  -46  -18    2  -17    5
  -5   -9   -5   -5   47  -11   -4   -7   -6
  11   42   13  -13   -9  -24   -6   -4    5
  -4   23   -8  -35   18  -29   -4   20   -9
  10   29   12  -11  -18    9   -8  -21    0
   8   36  -24   14    3  -10   -9  -11    7
   1   -3   19  -31  -17   37   -6  -14    7
   0  -10   -2  -12  -20  -14   -1  -13   -2
  -1    2   -3    3   58   19    3   14  -17
   7    2    4    7   30    3    4    7    6
  -1  -20   -1    3   44    7   -1  -21  -11
  -6   -3   -7   -1   52  -14   -4   -9   -4
   0    5    0    6   53   12   -3   13    4
 -20   -6  -13    1   68   -1  -15    7  -13
  11   16   -8  -23   27   29   -3  -29  -16
   2  -18    3   11   54    9  -10  -20   -9
   7   23    3   -4    9    2   -5  -29   -5
   1  -13    0  -25   26  -25    5  -14    8
  11   42   10   -6  -25   -9   -3  -19    0
  -7  -16   -9  -12   68  -14   -9  -16   -9
  -7  -17   -9   -5   26  -10  -11   -9   -8
  -9   -7   -8   -8   33  -10  -12   -7  -10
  11   42    8    2  -18   -8  -10  -20  -10
 -29    9    2   32   38  -31  -13    3   10
  -5   -4   -4   -7  -14   -4   -8   -6   -6
   6   40   12   -9   -3   -6   -5  -29   -7
   1    5   -3   40   18  -38    0   -1   -5
 -17    5    3  -25   49  -15  -15    8    4
   2  -28  -14   15    4  -13    6   25    6
   0  -17   22  -16  -36   52   -5  -25   21
  -5   -8   -1    3  -45    8    7   53    3
  -1   14   -3  -18   26   20  -26  -18    7
  -5   -4   -6  -11   30  -12    0  -20   -6
   4   -5    3    2   34    1  -17  -31  -17
   5   24    5   10    3    9  -13  -22   -9
 -11  -36   -9   -3  -16   -3   18   47   15
   4   10    4    5    7    9    3   11    3
 -12   -8   13  -11   10   26   -7  -14   20
  -1   -5    1   -8   -1   -7    0   -9    1
  10  -11   -9   30  -24  -22   22    5   -6
  -2  -12   -6  -14   -2  -14   -3  -14   -5
  -8   -7   -9   -8   50  -19   -8  -22   -7
   5   20    3    1   10    4  -16  -24   -8
  11   -4   -8   36   -5  -30   12   -3   -8
  -5  -10   -6  -10  -13  -10   -5  -14   -4
  11   38    7    1  -22   -7   -1   -7   -7
   3  -24   11   -6  -36   56  -17   13    4
 -27   -4    2   -5   64   -6   -2    2  -32
  -2  -32   -4   -6   -8   -6    7   43    7
  -6  -14   -6   -6   51  -10   -6   -7   -7
   1   47    0   -6    1   -5    0  -36    1
  10   10   -8    3   62    3   -6    6   16
  -6  -25   -5   -6  -12   -2   10   35   11
  -9   29   -8   19   59   22   -9   15  -12
   4    7    5    6   27    8    5    5    9
  -5   -7   10  -27  -13   40   -2   -2    5
  -2   -9    3   -3  -21    7   -1   16   32
  10   25   10   -1   -5   -4   -6  -24  -10
  -5   -8   -1   -7  -38  -13   15   40   10
   6  -18    6  -13  -45   47   -3  -24   21
   5    2   -5   26    1  -28    6   -2   -7
   6    9    8    7  -62   19    9   26   10
   3    6    3  -19  -13   42   -4  -10    1
  14   -7   -9   35   -6  -29   12   -3   -8
  21    4   18    5  -76   -7   24   -5   17
  -7  -13   -1  -11    7    7    0   16   27
  -2   -5   -2   -5   -5   -3   -4   -5   -4
  12    1  -10   26   -5  -18   10   -5  -13
  -4   -1    4  -31   -1   34   -3   -4    6
   5    5    6    1   44    2    7    0    5
  -2   -2    5  -28  -18   48   -2   -4    6
  -6   -9   -7   -6    7   -7   -6   -6   -9
  -8   -9   -4   -4  -38    2    4   39    9
   0    7    4    9   72    6    3    8    1
  -9   -6  -23    6   38   -7  -10    2   -7
 -40   -2   -3  -20   50   10    4   12   -7
  -8   28    7   -3  -44   -7   12   34   -4
  -3   -1   -3  -15  -53   -6   -2   61   14
   6  -24   -6   69  -54  -13    1  -11    0
 -14   -5  -14   -3   14   -9  -10   -8  -10
   8   28    6   -1    2    0   -9  -27   -7
   2  -24   20   -1  -27   18   -3  -29   24
  -5  -13   -2  -13  -14  -14   -1  -12   -1
 -11  -18   -6   -4   -5   -2    7   23    8
   6   -2   -3   35   -5  -31    7   -4   -4
  -3  -52   19   13  -17   11   11   28    6
   8  -19    8   75  -53  -21   16  -19    0
 -10  -10  -10   -2   35   -8   -9   -5   -9
  11   54   13  -14  -44  -17    4  -15    4
   4   57   -1   -1  -49    5   -7    6   -7
  -1  -13    2  -15  -38   12    4   24   24
  11   24    6   -6    5   -9   -8  -22   -7
  -8  -10  -10   -2    7   -9   -8   -5  -10
  22   -6   -9   22    4  -29    4  -32   14
  -5    0    8  -29   -2   30   -7   -7   10
  -2  -11   -1  -11   -9  -10   -1  -12   -1
  -1   -3   -7   -6   37  -14   -7  -16   -3
 -14  -10  -14  -13   -2  -12   -7   -9   -8
 -14   -3  -18   -5   35   -9  -14  -13  -11
  -6   -2    8  -31   -2   33   -7   -1    8
  -6   -4    7  -32   -4   39   -7   -4   12
  -7  -25   -4    1   -7    0    6   31    5
  -4  -20   -1    9    7    5   -2  -18   -4
  -8   -6  -10  -10   -1  -10   -4   -6   -6
   2  -15   -9   12   -3  -26   16   26    5
   2   13    0   16   71    6   -9   13   -6
   4    6   -6   -6   26  -24   -8  -29   -1
   0    5   24   -2    7   25   -4    1    1
  -5  -18   -3   -6  -20  -10    5   53    5
  -7  -21   -5   -4  -13   -8   11   37   10
 -16   -8    5  -24    0   21   -1    8   18
   9   31    8   -3    3    0   -8  -32   -5
   1  -22    1   -6   56   -7   -9  -29   -6
  -5   -1   -4  -18   65   -7   -5   -5    0
   3   -3   -3   25    4  -28    8   -2   -4
  -4  -22  -11   20   -4  -18   14   21    3
  -3   -3    6  -30  -12   40   -2   -5    8
  -9  -20  -13    4    1   -6   13   21    8
   6   -1   -8   31    3  -31    8   -2   -7
  -7  -19   -4   -1  -16   -4    8   35    7
  -1   -3    2   -4  -26   44   -6   -1    9
  14   11   -3   24   -4  -27    6  -16   -8
  12   19    2    2   53    9   12   10   -4
  -3  -25   -3   -4   -4    0    6   29    4
  -9  -10   -8  -12   -7  -11   -5  -11   -8
  25   25    0    9    9  -14    3  -11  -23
 -10  -14   -7  -22   55  -20   -7  -13   -1
   2   24   12  -11  -22    7   -8  -10   -2
   2    7    0    4   53    9    5    5    9
   9    8   19   -3   67   -8    6    7    1
  -7   -4   -8   -3   42   -6  -14  -11   -6
  -2    5    0   10   68    7    0   14    1
  -2   19  -12    0   54  -17    3  -17   -6
  -5   -1    5  -25   -7   29   -6    0    6
  10   10    7   17  -72   18   12   17    9
   0  -20    0   -6  -35   -6    7   51    8
  -7    0    7  -30   -4   38   -7   -4   10
 -15  -17  -32   19   62  -16    4   26   12
   1   -6   -3  -11  -12   -9    1   -5   -3
   2    8    3    8   52   11    2    6    4
  -8   -2  -10   -6   37   -6   -9   -4  -10
  -3   -5   -4   -7   -5   -9   -6  -11   -8
   2  -19    5  -14  -53   16    9   13   38
 -10  -16   -5   -3   22  -15   -7  -14  -10
  -7    2  -12  -17    1  -16   -4   -1   -8
  15   21   14   -5    1   -4  -11  -20  -12
   2    3   -6   28    7  -30    0    4   -4
  -9   -8  -12   -6   57  -11  -10  -17   -4
  -4   -6   -6   -5   -9   -5   -3   -8   -5
   9   21    7    0    8   -3   -9  -25   -9
  -5  -33  -13   52  -10   46    0  -30    1
  36   17    5   20  -41  -22    6  -21   -1
  -2   -5   -2   -5   -7   -7   -2   -3   -1
  -4   -3  -22   -8   59   -1  -21   -1    2
  -5  -17    1   -1  -11   -5   -4   -5   -6
   2   20  -19   30    9  -17   14  -13  -22
  16  -12   -4   64  -55   -7   13  -13   -4
   9   16    0   15   40   21    0   19   -5
   2    6    3    6   41   10   -1   14    4
  -5  -18   -5  -10   33  -16   -7  -18   -6
  -6   -3   10  -28  -10   37   -5   -3    8
  -4  -26   -4   -1  -12   -1    7   35    5
  -2  -17  -19   11    0  -14    9   23    5
  -7   -8   -5   -8   33   -8   -8   -7   -6
  -1   -8   -3   -4   -7   -4   -4   -6   -3
