  -5  -54   19  -14  -56   -2  -31  -32  -16   24   30   19   40    5  -36   28  -25   -2   21   13   -9   35   38  -36   -8  -23   22   -4  -39   -9   29   18    3   32    2   39   -8  -12   33  -41  -52  -41   37  -43   41  -46  -15  -24  -27  -37   36    4   41   25  -38  -28   32  -35   46  -22   46   26    6   13   22   17   -2  -33   24   -7   29    4   38  -22  -27   45    7   -4   69   34   34   42  -48   -5  -21   23   -8  -19    6   -3   -2   55  -22   10   22  -29    0   18    3   39  -12  -21   19   13   71  -53   26   12   35   10  -15  -17  -12   18  -23  -40    0    1    8  -47   18  -43   16   -6   -6  -39   -2   20   18   13   12  -49  -26  -21    5   25  -12    6   -8   -4    2   50   25    1    5  -26  -16   63    1   41   -7    8   28  -16   14   21  -18    9  -18   45   28   58    2   -3  -17    3  -43  -15   18   65   34  -22  -23    8   -1   31    0   24  -55    8   38  -19  -25  -45   -6   -9   11   16   26  -55    8   13   30   26  -33   13  -38  -33   33   28    1   59    7  -16  -13    8    3   -9    5  -14   31  -23    6   -9  -53   16   49    0    9  -31  -37   23   -5   -6  -26   15    0  -29  -26  -14   38  -62   -1  -38   12   -3  -35  -37   -6    8  -19  -24    7    0   20   34   -7  -18   -2   -7  -37    1    6  -65   -3   11   20  -18  -52  -10  -22  -37    9   15  -13  -41    9   -7   25  -12  -12  -25  -24  -32   43  -38  -10  -40   -8    7  -18   -9   -2  -15  -17  -46    5  -28   48  -19    6   29   37  -19   68  -39    4  -12  -38    2  -74    2   40   -9   13   18   52  -11   26   16    1    3   18  -24    9   24   41    5   36   -9   20   29  -19  -13  -38  -16   28  -20   44  -10  -15  -29  -34   11    5   17   48   48  -29    1   -8  -15  -17  -21  -38  -17   20   33   27   58  -49   16   28  -53  -39  -80  -33  -16  -13   13  -38  -31  -48  -31  -34   16    6    1   -3    0    2   41    9    4    5   -9    2   -8  -29   24    1  -25  -25   46  -35   -1   19   21    9   20  -13    9   18    8   41  -19    7   44    6   34   13   -8  -38   25  -19  -41   12   30   17   46  -44   -5  -17   17   48    1  -29  -16   42  -27   35   35   57  -14  -20  -18   20   18    3   36    0  -35   -8  -67    3   16  -41  -60   48   29  -48  -27  -40   32   30  -10    5  -10  -28  -46  -20   10  -18   49   -3   -4    6  -36  -10    5    2   30   10    8  -40   -3   20    2  -22   -8    8   10  -57   60   20    2  -21   16  -22   14   -2  -34   37    2  -52  -49   -7  -11  -29   -3  -40   23    8   35   -4   43   41   17  -33   45   22  -17  -30   34    9  -39   13  -10  -63    8   61   10   -7   -7  -17  -23  -50   15  -11   -3    8   45   -4    2  -18   20   49  -12    7   29    5   -4  -41  -42   13    7  -84   36  -41   51   -5  -12   27   18  -57  -38   30  -26  -49  -16    9   26  -66  -15  -21   27    9  -14   33  -21   -6    7  -22   11  -20   31   39    3  -22   11  -20   22  -15  -27   -6  -34
  58  -39   -1    6  -27   -4   -9  -37   50   13    3  -31   43   19  -25  -13   40   47   -3   11  -18    7  -23   51   17   49  -27   -4  -13   28   35  -49    4  -28   -8  -43   -2   -6  -31   31   23   38  -20    2    0   -2    1   18  -11    4   29   47  -11  -20   -9    9   35  -18   29   27   -2  -10   11   22  -31  -13  -60   29   -2  -12    8    6   13   -9    3  -59  -56   -7  -30  -27    2    6  -36  -30  -19  -35   14  -37  -25    5   -1    6  -24   81  -67   57  -17   -7   21   29    2  -23  -14  -19   29   -7  -16  -27   34  -35  -12  -42  -10   -3    3   -3  -16   -3   -2  -67   -9   65   20   -8   17   40   27  -11  -12  -29   -1   10  -15   29  -16   -1  -51   -6   33    6    5    2  -10   -6   48   63   20   -7  -32  -20  -15   18   31   56  -16    1   -3  -19   50    7  -39   29  -16   -1  -22   -7   11    9  -27   26   12  -10    8    4   41   -3   -7   44    2   19  -11   -4  -28  -18    9    2   36    3   30   -6  -58  -30   76   -3    5  -27   33   41  -36  -24   28   44   23  -54  -24   -8    6   32  -29   24  -60    2    7    4    8  -31  -15    2  -33    6   16  -19  -21   12   -8   14   23  -14   -4   -6  -53  -24    6    0  -18    1   48   12  -10  -29  -49   11  -40  -14  -34   27  -10  -10   44   23   -9  -48  -14   50    0   52  -15  -29   17  -14   -6    8   26  -52   17   19   36   11  -27  -11  -33  -13   -3    7   14   37   45   39   32   35  -37  -13   26   -5   25   23   -6    7   20   18   -9    1  -15  -34   23  -20    9   -1  -15    0  -15   11   25   10   13   -7  -21  -18    2   29   28  -61   44   19  -15  -16    2    1    2  -15   -8    8   51   -7    4   -8  -19   24  -60  -51  -39   52   -3   -4   45   10   27   -4   29   -7   16   42   10  -29   19   -6   13  -14   66   -4   43  -35  -10   -3  -79  -24    3    1  -48  -18   27   32   12   -5   51  -20   22  -80   -5   -3  -28   -9  -29   34  -32   21   -6   30  -41    0    0  -23   11   64  -33  -14  -30   29   21  -35   -6  -24   -7   25   -4   75   33  -36   30   -3   -1   -1  -41   11  -27   56   -2   -2   19   68   36  -36    7   31   43   29  -67   21   61   47   14  -43 -116  -64   10  -19   11  -40    0  -12  -27   47  -46   30  -11  -52   29   43   18  -27  -30  -47   18    7  -29  -54  -26  -22    4    1   47    4   14  -51  -52  -18   36   -5  -18  -58   -8   20  -18  -58   18  -33   56   19   29    1  -11   12  -17   11  -53  -53    2  -11  -21   48   24   62  -23   -4  -13   -8   54  -29  -62  -12   50   15    8   -3    6  -48   18  -10   22   14   -3   14   21  -21   40    7   47   37   -4   13   26    3   13  -18   28   24  -36   -5  -10  -15   -4    3    0   23  -32  -66  -25  -13   12  -11   -5    5    8   33   -4  -25  -11   23  -30  -17   10   17   25   66   31   21   -7    1  -19  -12   47    3   40  -16    7    8    2  -65  -22  -37  -16    0  -56    5  -31    3    6  -42    0  -37   13  -29  -66    3  -58  -41
  21   33   -4  -10    2   -3  -53  -42  -12  -21   -9    6  -14   21  -11   26   -8    7    5    4  -17    0    4   13   10   -5   -8  -13  -11   27   -9   19   -1   -2   13   -1  -14   19  -22    9  -39    6    8    8  -22    4  -36   32    4   10  -18   24   25  -11  -44   23  -10    4    0   37    1   -9   -3   -4  -62   25  -39  -11  -24  -26   10    2   51  -15   -8   18   16  -21   10   35   -7   22    6   -1    8   19   12  -10   15   -3   -3  -23   -7  -30   -4    8   15   10    3  -23  -24   33    5  -16   -7    1    8   -2   27    5   -9    6   -3   40   23   20    3    1    9  -28   48    2   -5  -10  -13  -32   -7  -27   -7   27   19    1   11   10   22   -3  -25  -11  -58   25   22   -1   56    8   -1   -3   21  -30   -2   -4  -43   39   35   10  -14   16  -34   30  -71  -28  -15    9  -36   -2   -4    6    6   -6   -3    2  -19   -8   32    8  -38  -21    5    9   29   -7  -51  -23   14   40   18  -12   10   -4   33  -41  -15   19   -5   -6   -4   -1    5  -15    6  -31   16   -2   39  -38   18   -8   33    2  -13  -33  -26    2   46   -3  -21  -33   -5   -3  -15   42    1   15  -19   -1  -22   23    4  -11    3   18    7   10   -7   12  -10   -1  -47  -53  -19   13   19   18   56   22    4   14   -8   -7   10   -2   22   13    9  -29   47    4   30    9   12   27   -9   11   -1    7    7   37  -32    2  -19  -29   11   17   17    1   -2   -5   17  -11  -20  -13  -24  -14  -14    3   -8  -12   11   20   18   31  -21   17   14    0   27  -31   -4    8   -5   -6   -1   10   28    7   15  -29   48    5  -20   22   18   15   -9   16   18  -11   12   18    1   50   25   22   34  -23   10   20  -18  -15  -24   18    1   31    1    8  -19  -49  -10   12   28    5   44  -19   46  -10   -4  -32   14    5    9   43  -10  -31  -13   -7   -2  -28   39  -42    7   33    6   16   26  -20  -28   -1  -21   15   -8    2    2  -14   14   11   58    9   37   13   -5  -12   17   -2   46    5   12   -5   -6   17   32   21   21   -1  -25    3    1  -46    9   -6   -3   13  -15   33   20    1  -29  -20    0  -29   13   29    0    2   -4   17  -11   -2  -19  -26  -35   -5   31   16   57   30   15  -24   32   12   11    4  -24    2   25  -11   -3   -3  -56  -16  -39    7    7   -7    7    4  -25   24   31   10  -42  -10  -50   20   44  -18  -30    8  -10    8   27    7   29  -57  -46    8  -59  -18   15   -9  -11  -20    7    1   -5   -4   25   -2  -30   32    6  -16  -24  -38    0    7    4  -45    1   -3  -36  -20    8   47    9    4   -3   -8  -14   16   -7   21   14   29    6    2  -29   15   23   -2   -5   -1   24   59   -1   -6   -5  -26  -16   -5  -10  -25    0   21   -5   17   12  -26    9  -20  -22  -11   25   16   -1  -17   53  -28   19    6   -7   16  -40  -33   13   -2  -19   35  -27    1  -20   41   25    9   37  -29   22   10  -10  -26    0  -48  -40    0   17   11   22   10   23  -20  -15   41  -13  -19   55   28  -17    4
 -11   17   -3   -8   13   20  -13   -9   -7   -3  -12   -5  -14   -7    7   -8    0    9    2   -1    5    5    6    2    3  -14    5   19  -12    0  -13  -30  -13    8    8  -14    8   -5  -17    0    6   27   13   11    4    3    9   -1    4    2   19   15    0  -11   -1    5  -25   -9    4    4   -4    3   19   11   -6  -13  -17   14   11   16   46   -3  -45   17   34    9    1   -5   11    5    1  -10    4  -14  -30   14    2   -2   12    1    0    0   17    8    4  -18   10   -4    8   -5   17  -17    9   23   -6  -13   -2   12   13    1    1   -7   15    0   -3   -7   -1   -2   -1   -6   11  -10    2   13    3   11  -17   13    7    6   -7  -18  -15   -3    1    0   -3    2  -13   -5  -12    9   14   -3   -7   -3   -4    4    3   -2  -16    2    1   18    0   -5   11   12  -20   -3   22    4   -9    2  -21   22    1   10  -15   -5   -6    1  -32    1  -12    6   -9  -11  -16    7  -12    7    8  -18    0   17   -8    7   24   15  -19    5   -4   -2  -11    1    6    1   -3    5    5    7   13  -23    7  -18    8   -8  -12  -11    9   -9    2    1    2   -2   -4   -2   18  -14    3   11   22    5    8    1   23    0    0   -7   10    7    0   17   12    0   -2   -7   -8  -13    6    3   26   -8    3   -7   13   13   -7   29    7   10    8    1    5   14   -4   -2   15   -1  -15   10    0    9    4   21  -13   -7   -7   18    9  -15   40    5    8  -14    6   -3   -4  -18    5   -2  -18  -11   -3  -25    0    8  -12   -4    6   18   -1   13    6    5  -12   15   -2   11  -14   -3    7   11  -12    6    5    5   -5   22    6    3    3    0    5   -9  -21   23  -10  -11    1   18  -13   16   -2   11    4  -13  -22   -2   -1   14   14   12   -1  -19   -8   13    0  -25    2   -1   10   19    9   14    5  -12  -25  -12  -31   -3   30   -7  -14    0   26  -22  -13   -4    1    5   -4   -8    3   -9    3   -4  -17    1  -15  -24    4   -8   20   12   -2   -3    2   -3    6    1    8    0    4   -9   -4   -1   -7  -11   28   14    8   -2   20    6   10   20  -17  -10   -6  -12   -1    3   -9   29   10    3   19   16    8   12   -9   18   -4  -17   14   -9  -16  -12  -18   14    3    3  -15   15  -15   -1    7   -5   -1    4   15   16  -10   31    1   -5  -10    4   -1   17   -9    9    3    9    8    4  -10   -4   -5    6    6  -13   -1  -11   21  -20   -9  -12    8    6   -6    0    6    6    1   10  -11    9  -26    3   11    1   -7   18   17   -9  -20   -2  -19    7   -2   24   -3   -4    8  -15    7   -5   16   11   -4    0   17    6   -7   -2    7    5   -5    4  -18  -17   -5    2    0    9    2  -14   24   10   -7   27   -1   22    0    0    2    4    1   25  -21    4    0  -36    5  -17   -6   -8   20    5    0   14    9   12   25  -14   13   -3    0   -7   -4    4    2   23    1  -18  -18    4   13   -1  -34   10  -11   -5    4   18   -5  -19   -8  -11   -7   -3   -1    8    9  -20  -16  -15  -14   27   -9   11    8   21
 -32   33    5  -25   -8   17   23  -16   -5  -26   -1   -5  -13  -19  -52   11   38  -24   46  -16  -18  -23   52    1  -32    0  -14   22  -31    3   15  -29  -10  -90  -26   12   14  -48    8   27  -37  -15  -12    4  -25  -43   17   21  -20   30  -12   -3    9   36   13    6  -30   24   12   14   -8   -2    0   13  -15   10  -75   30  -29   23  -14  -20   38   40   -7    4  -10    1  -10   17  -34   34  -34   50   20  -23  -11    8   -4    1   -2   18  -39   10   27   -5  -12   -9  -34    8  -57  -29    3   26   -6  -23   16  -22   25   30    0   19   10   26  -15  -11  -12   -3    1  -15   10   12   18    4    6  -11   28  -27   -1  -35    6   58    2  -27    2  -14  -11    5   15   21   -5   38   19  -46   11   -8   10  -40   -4   13   28   -3   24  -16  -51   -8    7  -44   13    2   19  -11  -31    5  -16  -21    7    8  -20   18   -8  -33  -15    8   -6  -31  -16  -15  -28   -3   -6   26  -20   10   -6  -14   21   19    2   -1    5   21   38  -16   10    9  -33   26   22    4   15   -3   -3   17  -13  -23    0   50   18  -24   32  -13  -11  -28  -34   17   17   17  -12   -9   46   15  -45   -3  -41    9   12  -23  -29   -9  -18   12    4  -15   26    1  -20   38   42   39  -15   -2  -47   25  -15  -24    4    1   -1  -21   38   10   28   -5   -1  -13   17  -19   18   14   39  -34  -19   -7   11   -2   12  -14  -27    9  -35    8   -9  -20  -34  -32    5   -3   10   -5  -10  -30    8   17   30  -33   14   33   30   16   14    2  -40   23   11   18    3  -18   38  -44   19  -38   28   11    7  -36    1   -1   33   -9   31  -27   -8   35   27  -14   22   -1   -1    4   23  -22  -23  -61  -12   -1   26   -9  -74    0   -1  -49  -34  -26    9   10    9   11   23  -26  -37   37    6   17  -48   19   -2   -9  -38  -11  -14    8    8    9   20  -58   27  -13   11    0   22   51  -13   25  -29   12   43   38  -60    0   27  -17   70  -17   -5   -1   17   35    4  -14  -26  -43    3   10   27   -9   33   13  -48  -32  -34  -19  -27    0  -17   17  -30   45   -4   20   -2   30   13  -26    1   -3   21   -8   22   69  -32  -45  -15   34   -6   58   42   -7  -22  -22    6   -8  -55  -29  -28   19   28  -11    2   -2   24   26    2   -5   19   35    3  -13  -13  -39  -34   12   16  -10   21   11  -13   -8  -17  -32   15   27   18  -34   12   36   26  -27  -19   17  -25   11   -1   41   10  -17   25   35  -64  -12   -4    3  -26  -23  -38    7   16  -30   -8    6  -11    9   -5   -4  -16  -35  -14  -18    3    3    8   28    0    7   -8   25   -2   12  -10   -9   39   -9   14   24   47   22  -18   -2  -47  -19   14   -7   25   10  -39   -3   41  -11   26    9  -51   -6   -9   38    5    6    3  -39    7   -1   -3    5   -7   36  -19  -17  -14    0  -18   60   22   -6   -5   -8  -13  -13    5   -1   15   -6   -8   23  -88   12   37   23   36    9  -17   21  -20  -24   -3   28  -14   30   57   56  -25  -33  -42   52   14    1   -6  -12
  24  -32  -13   10  -12   34   29  -23    9  -40   27    6   31  -10   40  -28   13  -48   55  -29  -15  -69   34    9  -35    9   -4    4   16   32    0  -18   20   -3   -8   32   42  -14   21   18  -51  -25   49  -31   20  -34    0   14  -66    8  -43   -1   12   47    2   -2   14  -21   34    5    4   23   37    7   -6   36  -15  -19  -16   35   14   -9   85   17   22    1    4  -27  -14   13   15    3  -23  -53  -14  -23    2    4   22    0   -1   -7  -17   64   85   -4   23  -11   14  -26    0   29  -50    3   26  -31   41   19  -14    7   26  -79    8   -8   76    4    2    5   -6    1  -22   35  -27  -19   53   73   10   -8   12   28  -25   11  -53  -25    5   12    3    4   -1  -18  -14    2  -23   -4    2  -27   11   -1   14  -25    4  -15  -27  -54   41  -42   10   12  -43   -4    2  -21  -48   -4  -54   13   52   26   -6  -23  -23  -35  -14  -59  -41   36   -5   -2  -12   18  -24    6   -5  -43   17  -40  -38  -30    0   11  -50   59  -63  -32   16  -15  -23    9   17   -7  -25   -8   19   30   -2   31   26  -34    5   18    2  -25  -62   -5   38    2   29  -21  -37    6  -33  -15   12    3   49  -44  -15    8   41   23  -58    9   -2  -20   17   -1   -4  -26   -8   26   15  -14  -29   44  -27  -18   -5   -1   21   43   -9    4   30   13  -35  -39  -11  -41   -3   12  -21   18  -22    5   23    3  -28    1  -15    3   44   10  -24   10  -68    5  -23    5    0  -17   10   37   23  -13  -15  -22  -19   40  -48   27    1  -54   55  -32  -17   70  -24   15  -28    5   11   20  -10   32  -10   19  -43  -42  -34  -11   18   -2   25  -17    2   16   43  -18  -25  -17    0    4  -30   23   24   -4   13   28   10   38  -15   -6  -14    9   40   15  -25   10  -11  -42   32  -24   20   -9  -18   -7  -49  -15   31   52   20    6   26   15   26  -36    9  -23   -8    9    0  -11   61   -4  -27  -33  -15    6  -18   -3   82   -7    7   75   15  -20    9    0   23    6  -53   41   -8   23   27  -29   43  -13   30  -43    0   17    5  -19   31   14   35    4   -7    6   47  -50  -66  -49  -35   33   42   -8   10  -20  -24   -6   28   28   15   14   26   38  -27  -30   15  -13   41   36  -59  -31   19   35  -13    8   19  -65   50    9  -12   13   24   -5   61   -7  -39   -9   13   -8    8   37   -7   61   30  -33   -7  -54   -6  -14  -25  -12    0  -34    6    5    6  -48  -16   16   38   63   18  -33   -8   10  -35    5   16  -31   -1   10  -27  -37    8  -11   25   46  -14   13   22   13    9   11  -12  -37   -5   41  -13   43   -8    9  -13  -16  -44  -21   -3   -7    9   15   59   32   40  -29   18    0   11  -38  -44  -19    7   19   27   26   17   20  -29    4   -2   10    5  -25  -37   34  -34  -13  -25    3   35    4   78   18   -9  -30   34    2  -28   11   79  -71   -7   21   12    7  -19   28   41   20  -14  -31  -22   13  -31   51   -5    7  -30   27  -14    4  -46  -23  -18  -18  -13   -1    9   17   37  -19  -32  -32
  -8   15   -6   20   15    3   10   11   -8  -37  -23  -13  -63   24   19   -9   -5   15   22  -27  -14  -17    8  -10    4  -28   20  -13   -7  -30  -29  -39   30  -24  -48   -1    4   -8    1   18  -25   -1   12  -24   44   12    0  -32   11  -17   40   -6  -53   14   15   52  -15  -13   -5   16  -26   -1   37   48   -8  -32   14   -4  -31  -12  -14  -10  -47    5    0   46    9    6   -8   -2   19   43   14   20  -18  -33  -29    6  -34   -3   -2   25   13   17   11   15    8    4    9  -20    4    0  -23    5  -28   16   -4  -19   42    6    2   25   22    3    3   -3   28   -1   -5   19    6   -2  -23   23    0  -30  -49   35   -7    3  -35  -51   12   23   -9    3   10  -25  -19  -17  -34   -4  -19   21   -8  -16  -11  -68   18   23   35  -31   16   -4   31   -3   16  -18  -13   25  -27  -27   17   -2   31   23   30  -27   21   -5   -4  -23   -5   32  -14    1   -3    6    1    2   29  -11   -7  -18  -22   19    1    1   10   22  -46  -15  -13   11    4   69   38   14   14   12    3    8   -1  -14  -14  -17   -5   45  -25   -5   18    4   22  -30   21   19   14   20   15   11   -3    5    7   33   -4   22    2   63   17   12  -17    9   -5    9    9   -3  -11   17  -16    7   11   -1   30  -26   -8   -4   16    7   33   11  -28   -8  -18   10  -26   15   18   19  -27   24   -7   -8  -17   -7   43    1  -46  -11   -3    1  -23  -13  -20   18   22   16   31   -2  -11    1   -3   13  -14   14  -18   35   28    4    5  -28   20   37  -29  -34   -4  -11  -36  -22   26   13  -10    8    4   18    6    0  -21    6   21   -1  -13   25   -4  -22   23   -2  -42   -5   17  -19    8    1    1  -30   18  -38    9    1    1    0   39    7   13  -22   -2   -6   28  -10  -26   -8  -30   15    7  -21  -49    2   10  -15   -1  -22   27    1   20  -10   19   24    5   -6  -13   15  -10   31  -41  -30   20   -2   36   15   18   -7  -27   21   16  -17   21  -23   -9  -11    0    4  -11   16   31  -38  -32   22  -37  -29   -7  -11   27   31   23  -32   -4   -8  -34    7   31  -21   -3  -33  -58  -15  -10   24   -8   15   -3    7  -48   10   34   19  -11   20    3  -25   20  -21    2    9   29   26  -11    3    3   13  -26  -38  -10  -38   21   19  -68   -2   -4  -18   51   -1   19  -10   16   11    5    6   15    4  -44  -16   -9  -27  -18   22   25  -33   42   18  -18  -26   11    3   10    8    3   11    6   24   12    6   -1   30   27  -17  -10    7   68  -17  -24  -32   13  -17  -37   25   17   17    3   18   10   -8    2  -39   34  -30   25   14  -24    8   39  -12  -26   -7  -35  -33   16  -10    4    4  -26   47   32   -3  -15    4  -22  -19    2    8  -24    8   10   -4  -21   13   10   17   19  -23   -3   30   19   10   30   13    6  -30  -11   41   11  -55  -28   35  -11   25   10  -10  -24   17  -83    9   -4    8   26   15  -44   11   -7   44   46  -15    2  -27  -13   13   40    2   -6  -17   -8   32   -1   -1  -32   16  -24  -19
 -46   51  -15    3   41   17  -11  -60  -17  -37    8  -46  -16  -42   33   44   26  -55    1   15  -17   18  -30  -20   17    9    7    9    3  -32  -10    5  -46   11   42   48  -18   -2  -22    9   20  -31   -9   -3  -14   18   11   25   34    8   -1   26   13   -1   32  -42   -6  -30  -29  -42  -33  -56    4   -8   21  -38   49  -28    2  -47   -8  -24  -22    5  -14  -30   12   26  -13   -2   -5    3   -1    1    6    0  -39   30   47   -4    0   36   21   37   -6  -65   18   -4   -8   30  -10   15    1   34   -1    3  -34    8   -7    7   15   15  -10    7  -62   12    6    0  -36  -45    8   -6   -2   -3  -22   -8  -40   14    0   30   15  -55   -6  -15   17    6  -42   17   17  -19  -44   -4   20    8  -43  -34   13    1   14  -16  -12   38  -38   -3    8   17   21    1  -43    7   17   22   36   -1  -22  -12  -17   19   -9   20   13  -23    4   37    2  -38  -10  -16   12  -10  -30   30   12   15  -28   -8  -52  -27   37   -1  -29  -22  -16   30    2  -30   37   -2  -44   31   14    9    5  -46   -7  -15    1    4  -32   23    2  -10   18  -14   23  -10   33  -23  -13   10  -20  -15   11  -26   11   40   21    3  -19  -20  -13  -16   -1   16   24    2  -31  -56   -1  -46   -2   16  -11  -12  -15  -13    6    2  -15  -29   -9   34   -9  -74   24  -14   20   16   -7   37  -11   24   33   17   -3  -73  -32   13   -3    2   19   18   23   -6    6  -18   -5   -6  -60  -77  -18  -22   27   12    2  -43  -65   21  -32  -37  -10   30  -18   -4   39  -17   10   18   -7   -3  -12   44   -2  -33   25   14  -71  -35  -10   17  -24   16   33  -43   -7  -19  -48  -24  -44   -3    4   -9  -30   46   13  -18   18   37   29    1  -24   21   29    5  -14   32   -3    2   15   31  -30    3  -11   20   -1  -26    7   16   19    7  -39   19   38  -58  -14  -19   -6   -6  -37   42   59   22   13    2  -41  -31  -23  -15  -17    2    8  -21  -15   16  -28    9  -75  -39  -16   22  -29  -24  -25  -11   18  -38   -7   26  -42    1  -23   21   30   21   39  -22   17   40   16  -37  -10  -32  -10   -9    0   55   14    2   13   11   30  -80  -18   45  -12   39  -20    4   28  -21   -2   -8   59   14   16    0  -18  -25   33  -26    5  -40   -1    4  -25   21   14  -15   39   -6  -27   14   17   26   -7    5   22  -15   -3  -21   19  -59  -25   33   19  -10  -10  -23  -20  -42   26  -20   39  -45  -50  -21   12   -7  -47   13  -15   19  -21    2   15  -37   15   10  -28   -9   20   39  -11  -33  -20  -18  -25  -14   19    4   20  -35   17   12  -36   -4   -2  -19  -14  -33   12  -31   21   -4   -4   24   25  -27   -6   25   -5   31  -31  -15  -30   -1  -29  -20    2   29  -18   11    6    0   13    5   25   -6   12   -1  -43   30  -44    9  -47   44   -3  -13   23  -31  -51   13  -12  -30   22    6   19   41   -6  -19   36   13   41  -47   18   -6    7   15   16  -13   16   26   29  -40   61  -19    0  -13   12   22  -27   40   17   -2   13  -15
 -31   -5   -4    0  -37   12  -20   48   29    5   -6  -16    5   -4   32   -1   10   12    7   -4    8  -25   21    5  -36   14   22  -13    7   -4  -10   53    0   15  -21  -29  -27   15    2   21   16    8    8    6  -44  -19   -3  -10    1    8    6    4   41    9    7   20   11    6  -12    8    9  -12    9   17  -19  -23    1   34   -1  -33   -7   -2  -27   10  -36   -5  -20   16  -18  -26  -34  -12   18   56   -8   -3    1  -11   15    1    2    9   34   13    9   42  -22    1   22  -24   -5   -2   21   18   -5  -26    3    8   17   27    8  -11    0  -33  -42   17    8    1   14   30    3    0   -4    1  -13    5   -2   -3  -15  -58   25  -20    6   41  -25  -11    9   12    4   -6  -14  -25   -8  -11  -65  -15   13    9    1    5   19  -15  -22    0    2  -19  -21  -12  -18   -7    4   35  -12    0  -84   -2   14   19   -5  -27  -28  -33    1  -15  -10  -26   -1    1   24    2  -15  -12   -5  -13   15   -7  -15    2   34   45   23   17   30  -35   16    3   40   51   27   18  -21   25  -13   -5   24   -5   -1  -18   20  -14   11   26    6  -20   17   -3   18    2   26  -43   -6  -45   30  -13  -11   -1  -27   12    7    8    2   19   -1   15  -28   -2   11    0    3   19   30    6   -6  -16    8    2    6   38   26   -3   -1  -12   23  -41   35  -12    5    7   -1    6   -1    7    5   18  -17    9  -39    4   -7  -23  -49    7  -56   -9  -35    1    8   26  -10   -3  -16    2  -30  -17   -2  -18  -12    2   10    2    4  -27  -13   27  -10   11  -11    4   20  -21   -3   -7   15   -2  -23  -14   -7   19    8   13    4    9   -9   16   32    5  -10    8   19   18  -11  -41   12   25  -12    1  -17  -11   21  -25    3   38   21    7  -12    1   -1   -2    9   11  -14    3   36  -18   16  -11  -31  -39    9   -4   16   16   46    0    6   59   -1   13  -12    2    8   -9   -6   10  -12   -6    6  -14  -25    3   -4    1  -20  -25   -9   -1   33   -7  -22   17   15    8   11   31    8  -11   13    2   32   25  -13    5   11   20   16   -7   21    9   -7   15   11    2    2    2   19    0    4   11   -2  -12   27  -20  -26  -28  -26    4   14   40  -21  -11   32    3  -22   -2   -8    1  -26  -15   32  -25   -6   -6   25  -35   16   18   21  -18   -5    2   31  -21   -6  -30    2   38    4    7   -6   -3   14    3    0    9   18  -28   -7   -1  -12   18   -7    4    9  -17  -24  -16   -6   27  -18   16  -11    7    0  -22  -22    2   26   24  -27   13   20   44    1   -8  -29   31  -29  -16   25   24   -5   12   28    7  -22    1   -9   -5   11   29   24   -1    5   32  -26    4  -20   -1  -10   -7    6    2   19  -12   27  -50  -23   12   29    3  -31  -24    2   38    7   13   12   16   -8   10   16   29  -20   20   11  -23    6    4  -22    6    3   -4   -3    0   -4  -33  -14   27   51  -46    8   10   -7   18  -11   16    0    1    3   33    1  -41  -16   29  -13   -3    4   15   -2  -29    8  -37  -49   -8  -33  -36
  -3    2    8   10   18  -18    9   58   17   45   -2    0   61  -51  -14  -25  -20  -23   -7    2   -6  -50   12   29   26  -11   63   23   11   25  -17  -20   12  -17    2  -17  -29   25   12    0   46   12   42    9    8  -14   -8  -70  -15   -5  -14   18  -21  -55   16    9   -3  -44   -3   14  -21   19   17  -48   35  -23  -10   27   50   27   42   14   -4   -4   35    4   -6  -22    8  -17  -21  -23    4   -3  -34   24    8    2   -4    0    2  -13   15   57   19    8  -35   38    0   -6   19  -44   -7    9   -6  -19   18   12  -23  -22   12  -33  -56  -23   43   78   19    7   -1   13   16    1   21  -35  -31  -35  -20  -16   22   29   -2   -9   24  -35  -29   -5   70   36  -58   49   26   -4    5  -17   22   25  -35   18   15   13   20  -54   16    1  -43    9  -45   16   -8   -2  -31  -32   22   -4   11   21   21  -12   10  -71  -10  -12  -24   18   30    2   20   22   -2   -2   57   -7    0 -128   19    1    7    5  -26   29   43   10   -9    7   -7   -9   10  -21    5  -33  -24   23   31   28   14    9   20   13  -17  -29   65   26  -30   -6   32   19   10   35  -23   40   43   15   16    3   40  -19  -26  -11    1    4   21  -28    1   26  -18    1    1   11  -10   28  -13  -27  -52   41  -23   10  -27  -50   31   -4  -72   -4  -47   37   -1  -14   18  -31    2  -13    2   22   45   38  -29  -26  -26  -12   -3    2   19   45  -16  -22    4  -25   38  -31   -6   -5   -2   -2   11  -34  -42  -38   12   16   19  -23   26  -11    0   21   22    2   50   -8   -1    1   11   -8   -2   -9  -25  -17   11   22  -12  -35  -28   51   32  -17   -9  -24    8  -17    9   -2  -14   45   -9  -39   19   49  -22  -14   49   29    9  -31   10    4   -2   15   13    1    0  -35  -32   46  -38   12   34  -10  -10  -22    2   11  -67   -5   37  -12    5   44  -35  -14   30   23   37  -24  -26  -13  -16   45   18   35   18   -4  -14   -4  -58   18  -32   20   -5   19   42  -28  -17   24   32   22  -34   19  -60  -29   -8   24    8   10  -40   38   12    2    0   34   12  -18  -16  -33  -16  -37    9   12   40  -31  -32    7   35  -26   18   16  -53   -5  -16   -7   71  -23    2  -20   61  -15   -2    7  -12    7  -22  -13   26   20   40   15  -22   35   34  -23   34   34   55  -26  -49   -1  -11   17  -12  -10   18    5   -7   78  -39   46  -64  -32   26   -6   12  -43   38   20  -36  -41   45   13  -48   -8   15  -74   38   30  -12   -5   37  -27   94   -9   28   17  -34   68   23   -2  -12   32    5  -15  -44   14   45  -11  -14  -33    5  -14  -27  -22   24    9   36   35  -13   -7  -45   -3    5    6   28  -25    2   14   -8    4    4    0    7  -29  -23   24   11   11    4  -20    5   -7   37   25   27    9  -17  -21  -18   18   31  -17  -15   90   52   14  -20  -14  -14  -47   -1    4   -5  -32  -10  -61   -6   -5  -55    9  -67   -9    2  -37   47   45  -36  -20   22   38   28   23    8   16  -24   28   12  -24   49   -4   27   46
  14   28  -20  -15    8   -8   18    6   10  -26   36   35   18   18  -24   22  -10    9    2   14   -6   14  -10    7   10   11  -18   48  -25    6    6  -21   -4   29  -19   20  -20  -26   -4  -15   -5   21  -15   -9  -32    3  -21    5   19  -31   24    7   36   33   17   -2   26  -37   -6   14   15   16  -10  -10   21   49  -10  -26    4   22    2  -21  -49    0   25   14   -1    1   -5    2  -10   12   25   15   16  -24   18   -5  -29    1   -2  -25  -14   -2   22   22   31  -14  -10    9    1   -9   -4   17   -2   42  -23   30   -7    2    1    2    0  -20  -12   13    5   -4  -10  -13    3  -12    5   11   15   -7   -4  -45    4   -8  -11  -36   -5   39    1   18   -1   -8   29    6    3  -32  -21  -16   12   10   12   26   11  -15  -14  -18   -7   16  -17    3  -16   -7   -6   33    2   34    6    3  -18  -29   41    9    4  -19  -34  -34  -14   -5   28  -40   22   -4  -17    3   21   11  -10   -4   22   32   -1    1    2  -15   18  -16  -11   15    1   23    9  -10   -3   29  -19   16   20   33  -15  -22   16   27   29    9   26   13   46    2   11  -12   46   35  -29   23   26   30   14   -2  -29    5   54    3   -8    8    9   28    2  -14  -30   -1  -14   19   -1  -24  -16   33   -5   11   35   -7    6   57    8   23   -4  -17   31  -40  -29  -37    6  -19    2  -30  -14    1   32    8  -11   11   35  -30   11   30   10    4    8  -22   -3   15  -22  -16  -15   15   18  -24  -12    7  -15   -6  -10  -16  -31   -8   14   -6   -6   -7   21  -13   11   21   16    3  -33   29   55   19   29  -16    9   -3    7    2   -2  -16  -33  -11  -10   -1   -4   -4    9  -16    2   -8    2   29   -9  -10   19   15   30   37   24   -6   15    7  -11   25   33   -9  -56   -1  -33    6  -19    2  -12   -2   -8   -7  -12   17    1   26   32  -21   33  -10  -11   23   -5  -16   -3  -27  -17  -27   -9   12   21  -30  -42    0   -8   -8  -57   30  -22   12   13   -7   -7    9    5    3   20    3  -19    0   15   -2   11  -28   -6   27    3    9   -5  -16  -14   25   10  -37    5   -7  -27  -35   54   18   21  -16   17  -17  -44    7    3  -24    3   12   23   -3   -4   10  -42  -12  -38  -13    4    5  -17  -16    8   -6   15   27  -12  -11   -8   24    5   14   34   32   21   53  -57  -14   21   -8  -41   -8   41   -6  -44   13  -18  -20  -19   15   15   19   -2   23   19  -24    5  -36  -22   -4   -2   19    7  -11   10   30   11   22   54    3  -16    4   30   15   12   20   21    2   17  -62  -12  -11    0   -1  -35   -5   -2  -59   13  -31    8   -7   -3   10   16    2  -22    6  -48   12  -46   21  -16  -24   20   31   26    2  -25   11   -2   -5  -30   35   -7  -20  -29   10  -25  -15  -11   33   -6   14  -11   37  -13  -15    1   -4  -15    5    6   11   -8   12    8   36   -5  -20    9  -21  -22  -10  -13   -2  -50   -7  -19  -26   18  -19   -7  -10   19    0    4   36   19   -5    7  -12  -24  -17    1   18    4  -29  -11  -15
 -20   23   34   50   53    3  -39   71  -52   32  -14   22  -49  -28   -3   -8   -1   36   -4    1  -52   24   21   27   -8   11   14  -10   24    7  -33   -5    1   61  -13  -23   -1    6  -12   -5  -10    0  -22   65  -37  -32  -32   28  -15   -8  -58   31   12  -15  -15   29   25  -20   -1  -18   15    8   28   21  -20  -16   48   -6    5   34   29  -36   43   -4  -12   14  -17  -25   13   -5   23  -29   14   24  -20  -12  -17  -12  -22    1   10  -65    5  -22   11  -45  -22   30    7  -46   11  -31  -23  -13    6  -35  -26  -22   23   15  -38   51  -36   -5   18   45   28   -1   21   39    8  -30  -16  -20  -29  -17   17  -34   -1   54  -19  -64  -14  -26   24  -17  -45   14  -52  -39    1  -24  -40  -66  -24   29  -36  -48  -22   18   12  -34  -36   24   -2  -63   34  -14   31  -31   22  -36  -12    3   41  -26   26   -3   30    1  -25  -16   -2  -27    4  -35  -14  -83  -20  -33   24   12  -38  -12   -6  -21  -20  -21    6   42  -48  -24  -15   -1   34  -18   40   -2  -15   34   25  -28    7    9  -11   -9  -20   -5    2   12   32  -11   33   14  -21   24  -12  -29   20   16    8  -39   12    0  -14   11  -35   -7   -1  -31   58   15    4  -10    1   -3    3  -17  -21   18    9   41   60  -11   -4  -37   25   51   45   -7  -11   19   34    5   32   27  -61   56  -12   -8  -10    4   -7   -4    8   13  -11   19   14   45  -20  -20  -11   14   52  -28   44   12   54    1   46  -45  -32   -9   -8   -4   11   29   18   16    7   41    6   34   -6   22  -43  -26   21  -43  -31   30  -44  -37   18    2  -54  -19  -33  -26   13   20  -21    0   12   10   45   -1   -6  -40  -18   -3  -54   31  -13  -24    0   12    9   -4   31   64  -22   -4  -44   11  -18   19  -53    5   -2   11  -17   -9   21   24   10  -52  -57   25   10   24  -29    9  -11  -11   -6   14  -21   -3  -13  -20   42   19  -32  -28   -4   10    0    1  -19   20   32    5  -24   19  -10   -3   16   -6  -13   -4    4   18  -18  -31  -60  -24   29   27  -59  -38  -25   -7   19  -10  -10   18  -41   22   14  -33   11   -7  -20   16  -17   17    4  -15  -18    5   -6  -18    4    6    2   37  -21   17    0   20   62   15   -2  -30   -3   28   13   -5   21   19   54   23  -11  -37    2  -33  -39   -8   42   22   -2   -9   10  -56  -42   -9    0  -27   12   -1   20  -28   57  -47    5  -57  -21    4  -12  -22   37   -3   -7  -25   -7   14  -41    6   -8  -37  -19   -9    3  -57  -29   15   16  -26   19  -21  -15  -31  -12   42  -35    5   67   27  -15   -8  -25    3   29   -6  -18   41   21  -36   38  -78  -17   28   10   -4  -11  -35   12   21  -18  -63  -38  -34  -13   13    3   15  -34   16   41    3  -28   -5   12  -47   42  -27   32    1   -8  -31    9   11  -15  -37  -31   23   15  -16  -34   32  -42  -13  -25  -19  -54   47  -52  -12   -9  -14   36  -11    9  -10   30   18   -1  -11   -4    8  -29  -28   -6   23   13    3   12   27    4   36  -14   29  -45   -5
 -16   53    4   25  -12  -35  -26    4    6  -32  -30  -15    4   -8   -7   -3   14   -7  -13    1   29  -22   11   -8   15  -25   23  -17   -8   11   37    5    5  -84   20  -16  -13   15  -35  -43  -19  -26   24   16    4   -7    1   26   10   18   16  -51  -14   12   20   13    9   -8   21   11  -30   25    2   29  -14   -8  -19   19   15   21   18   18    1   37   46   17   -1    6  -17    1  -11   43   22    2   26    4   -3    9  -19    0    1    9   27  -37   25  -17  -19   11    2   -4   12   29   25    0    6   32  -22  -11   21  -27   15    7   11   27   -2   29   -3    1    0   12   -9   13  -20    2   -2   38   48   15   65   24   19  -71  -27    1   10  -12   -2   -4   -1   -8   34  -22   23  -27   -6  -25   -1   -9   25   13   30   -3  -31   19   23  -25   36  -19  -25   -3  -10    9   25    3    9  -33  -56    9    9    0   -4   -7  -16   -5   22  -11   -7    8   -6    3  -13  -21    9    9   24   38  -12   20    9    7   -8  -30  -18   -3   -2   14  -17  -45    0   31  -13   -5   10    6    9   23   10   36   -8   23  -15  -27   35   35   16   11    3   20  -12   -2  -26    3  -26  -28  -18    7  -50   12    9   13  -15   -5    0   23  -37    1   -9  -24    0   -3  -19  -12  -25  -34   32  -28   45    4    4   10   10   -8   21  -46   10    6    8   -8   -5    3   -3  -10  -21    1    4   14    4   22  -31  -16    0   39   10    6    8   24   22   12    0  -35   -6    1  -10   -8  -21    8    8    1   31   17   14   17  -11   -6  -15    8   12  -19    5  -24   -1   -1  -10  -22    4    9    7    4  -35   14   26    9  -36   -2  -19  -25   12   -2   15    0   15    8  -14  -54   -5    9  -35  -23   12   26   17  -16   -3   13   15   16    1  -13   -5   26   -4    5    1   11  -26    3    8   28   -6  -14   30   37   18   10   13  -11   -6    3   23   -5  -19  -25   -6   -1   23  -61  -14  -18   17    2   -8    2  -26  -21   28   -3  -33    9   -2  -15    3    0   17    5  -23   16  -11  -21   73   15   26    7  -13  -18   -9    8   -3   21   -2   39    0  -18   -6   20   27   -9   -8    8    0   22  -34   17  -52  -19   -5   -2   10   22   11  -11  -13  -45  -30   17  -30  -15   15    4  -10    7   -1    8    5   10  -33  -21  -38  -31   48   -5   19    6   10   -2   15   -5  -25    3   29  -21  -17   20   14   45  -38   19  -12  -25  -14   19   43   -7    9  -53  -67   17    1   10   47    1  -17   -8  -13    7    1  -21   32   29   16  -30    2  -22  -20  -35   -9  -21  -16   -5   -3   20   -9   -8   -7  -22  -60    0   12   20   25  -40    3    7  -25   -5   -1    2  -40    1   35   32  -12   -5   41   10    2   -9   34    7  -11   -1   36   23    7   -7   61   28  -36  -20  -48    2   -7  -40   -7   27  -54   -2  -15  -22   10   15  -11   -7    2   -1  -29  -11  -17   31  -17   16    5  -31  -14   13   -8    1   -4   15   16   15   19    5   12  -27   32   -3   12  -23   20  -11   -8   45   -3    4   48   21
  -7  -27   -2    9    1    9   -3  -18   -6    6    2   -4   41   -4   10   41    1  -26    8  -24  -24   -7   20  -11   46   13   15    2   25   42  -12    7   15   26    1   -1  -32   -3    2  -40  -14   -4   28   19  -17   -9   10   -7   22    0  -28   11   -2   -3  -26  -21   12  -11   -3    4   -4   -5  -24  -14   39   -2    5  -16  -27    4  -10   13  -26   -3   13  -30   17   10    3  -10   24    4   21   -8    3    0    2   23  -17    0   -3  -42   39   -4  -42  -32   -8  -29    3   -3    1    1   -7   21  -25  -12   -2    2   -8   42  -31  -17  -14   13    5    7   37    0   21  -33    6  -37   -1    3  -19  -35  -15   -1    3  -29  -19   14   -4   12   20    6   18   -2   -4   49   -3    4    4   18  -10  -14   -6    8   -1  -32   -1  -20  -19    4    1    5  -11    1  -31   -8   30  -13   12   -4    7  -10   10   -1   -1   29   30  -28  -34  -13  -33  -36   -3  -16  -10  -10   -1   -4    3   32    2  -28    5   11    5   -9   23  -12    3    5   24    7  -39   17  -23   19    0  -24   21  -30   16   23    8   -1   -6    8   15   -3  -17  -14  -18   19  -32  -23    1    1    7   19   -5  -28  -20   15    1  -18    1    6   -9   -7    1   17  -22    1    8  -39    9   10   46    6   12  -55   13    5    4  -27   -2   -2    6  -30  -15  -27    9   -4   12    0    9  -12   -5   -4   30  -19   10   16   27  -23    5   60  -17   -6    0    4   17  -28   12   -3    0   -1    5   -8   17   16   36   -8   30   -9   -8   31   -9   37  -13   17    5    1   21   11   14   -1   11  -24  -18  -22  -10  -19   13  -17  -13   33    5  -15  -34   23  -20   18    3   24   19   21   -2   -1  -43    1  -23  -35  -22    4  -32    2    0  -65  -35   14    2  -37   -2   19   -1    5   41   16   -8  -44   -6   33   12   18   16    1    3    3  -22  -19   20  -18   30   -8   -5    3   12  -12  -36   29  -23   42  -24    5   -5    0    9  -15   18   30   13    9   21   11  -30   15    0   -4  -21  -12  -14    3   -9    1    8  -15    7   13  -27   20  -15  -26   23  -19  -33   16   22   37  -18  -20  -17  -19    4    3   24   17  -27  -30   23    0   10    3    7  -20  -18   35    7   15  -41   13    5   18   21   20   -3   -1  -16    4   -1  -17   26   34   20   14   31   -6  -10   -9  -18    7    0   15   -9  -35    8  -39  -28   15   11   -4  -12   -9   14   23   22    5  -20   -1    2   -1  -13  -16   -6  -10    8  -11   18  -21   24   27   15   13   16   21    1    9  -18  -24    7    0   -7    5   13  -27   16   16  -19   -3   12  -20   25  -12  -10   11  -12   12   -2   21  -18    1   -3   -5  -24   11   -1  -13   -6    8  -19  -42  -11    5    4  -38   34  -16   46   -4   50  -12  -10    0   18   28  -16   -5   21   15  -10  -56   16  -16   -8   -6   -6   30  -14   -9   -7    8    3  -25    9  -24  -14   16    9    6   -2   -7    1   -3    0  -18   29   -7    1   10   -8   -3    7  -27    9   15  -18   -5  -14   -8  -32  -37    1    4
 -15   36   15   13  -20   10    8    0    7   -5    0   12   55  -42   -2    1    6   25  -18  -26   19  -54  -48   17    6  -27  -20  -43  -16   24  -10   17   43  -22  -37  -31  -17    4  -26  -18   54  -48  -13   -1   21   -6   35   33  -38  -30   -9   14  -42  -46   -4   -3  -12   30   40  -17  -13   14    0   10   13    4  -16   20    5   49   -1   34   13    3   22  -41   -9   53   24    6   14    2   23    1    9   27   22    1    0   -1   -4  -17   47   36    2   -9  -22   34  -18   -2   11   -9  -15  -18   -6   25  -38  -35   -2  -21    2  -10   33  -32  -17  -20   -6    0   41   14  -13   15  -19  -14  -43   35   31   10   14   28   30   -4  -20   23    0   14   26    0   -5  -16   11    5  -37    4   -1    2  -24    7   18  -25   -1  -28  -35    0   28  -58  -32   10    7   15  -32  -30   51   -3  -15   24   -8  -32   -7   27  -10  -35  -18   -3  -13   40  -43  -20    8   36   -1  -39   29  -14   16    3   36   10    5  -15   35  -31   14   13   -2   29   42    4   -3    2   49   -3    2  -17  -29   16  -53  -48  -23    8    2  -17  -54   -6  -13    2   -4   -8   22   18   15  -12   -8    9   -6   -5  -28   -8   36  -26  -22  -51    2  -37  -48    2   -1  -32   18  -23    2   17   18   -3  -12   -7  -28  -24   -3  -36  -42   16  -32    6   30   25   -2   12   37   10  -13  -39  -12   36  -41  -16   -7   11  -14   -8   47   18   33   34   20    5    4   15  -21   32   52   -5   -2    4    9  -16  -56  -19   54   15   -7    9  -16   46  -28    7  -17  -33   26  -58    2    4  -34  -36  -31  -26   17    2  -15   24  -22   -1   37  -19  -17    8    8   31  -33   65  -20  -12  -26   -2  -32   13   13    1  -28  -15    1   13   13   33   -8  -17   -8   24  -10   28   11   31   16    1    9   36  -22   -6    4   -7   -5   12  -80   27  -30  -13  -37  -10   35  -13   -6   22   49  -17    2  -51   65   24   32    0   21   -2   20  -27   10   27  -42  -62   12    1    0    8  -24   -5    4  -11  -70  -14  -19  -11    8   -8  -12  -12    8  -47   17  -18  -14  -23   30   -2  -31    5  -35  -48  -48    9    2   63    7  -27  -39    4    9    6   31   -9   46   -4   22   20   29   25    5  -18  -31    9   47   14  -21   37  -53    0   -2   -6   -6  -22   14  -33  -36  -44  -19  -24    1  -27   -8    5   11  -14   14    5  -49   26   68  -40    5  -10  -21   -1    5   14   32   -4    7   21   -5  -41   11   -1   -2   20   14  -37  -32  -18  -61   -2   43  -28  -12   38  -69   -6  -20    4   -4   25  -21   14   32   -9  -27  -30   22  -17  -26    3   34  -10  -19  -21  -12  -17  -19   -5   42  -28   20  -24   22   10   -1   16   39    5    5  -26  -15  -16   29   18  -32   -7  -21    4  -14  -19   10    9   30   -3  -45  -20    8   16  -32   34  -34   23   15   10  -15  -66    9  -15  -24    4   16   -5   25   10   37   -5  -37   52    0   19  -28    3  -32  -39   32  -49   17  -69   10   -3   -2   28    9   25   27   23  -24  -10
  70  -14   21   -4  -48   29   30   -6    8   20   63   37   -9   10  -13   -9  -43   -4  -26   -7   44   17  -18    0  -36  -33   -7   -3   75  -18  -45   42   46    2   45   16  -14    5  -49   13   -6  -21  -70  -33   -9    0  -31  -38   90  -19   63  -14  -13  -26  -32   16    3  -27  -27  -14   17    9   15    7   -9  -68   13  -40    8    6   10   25  -11    0   53   26   18   21   18   12  -26   12   56   38    8   18   23   29  -44   -5   12   20   42   41    0   40  -12    2   11   48   10   47  -86   27   19   29    7   14    9    8   44  -83   23   30  -40   21   26   -1    5  -63  -12  -35   16   47   20    1   27  -32   13   20  -35    0   78  -52   -6  -23  -19  -10    9   -2   -2   20  -56   54   12  -32   63   -2   31   -7   21    9  -41   36  -13   51  -29  -17   -8   27  -24  -36  -19   -3    9  -12  -19   25   30   32    9  -13   30  -13    5   -9  -51    6   40   -7   44   16   24  103   75   26   35   13  -67  -82   22  -42   16   40  -15  -30  -13  -61   -2   22   16   -8   -5   67    9  -17  -35  -34   45   38  -19  -40  -30  -21   17  -14   10    4   60    8  -49   -4   20    5   21   -1   59   10   17   18    9   21   -3  -23  -52    0   54   46  -11    3    6   -6  -30   34   10  -19   -8    2   22  -20   62    1    9  -10   11   33   35  -24  -52  -37   32  -18   33   30   36  -13  -26   23   14   28    8   22  -19   12   -9  -26  -24   -1   32   13   15   27  -18   43  -18   38  -31    2   -1  -32   46   -6   11    4   -3  -32   -2   25   23   -6   -7    6  -41    3   26   -7   23   33  -26  -15  -46   48   -8  -54  -38  -15    4   39  -47   39  -44  -30    4   28   21   -9  -35   14   23   -3   52   19  -16   28    8    6   -6  -12  -37  -21  -10  -34  -18  -46  -13  -11   10   -6   35  -11  -34   53  -54  -58   27   14  -33  -13   21  -77  -18  -20  -44   -3   33    6    6    9   33    5  -29  -53  -43   13  -24  -22   27   -6   20  -16  -24  -61   29  -20  -17  -50    3  -25  -14   18   15   28   38   26   18   19   42   -9    0  -42  -11   13  -67  -11   25  -36  -30   98   15   50   42   -5   -1   17  -50   -7   -6  -26  -20  -11  -25  -19   76   28  -11   69   17  -11   -7  -65   57   18   39  -30   -3  -41   18  -15 -115    5  -11  -17   -9   19    1   59   17   36  -34    6  -10   30   16  -24   -5   35    1  -10   10   47  -25   38   40   -9   45   -3    9   25    6   26   13  -29   22  -38   53    6   24  -11    2  -46   53   23    8    4   41   33  -12   22  -16   17   18   28  -42   30   34  -12   28   24  -41  -10  -18  -29   49  -19   18   -7  -11   -7   29  -39  -51    9  -42   14  -16    7   13  -21  -20    0  -68  -30   19   20   24   27    4   12   -5   28   31   24   10   17  -61  -26  -19   -4    9  -30   56   74  -36  -55  -58   19    5   84  -12  -28    7   27   37   -1   33  -16  -23   16   -6   -4  -29    7   13    5   64    0    8   42   30  -23   -8   -1   21   43    8   34
   0   19   -5   19   11  -64   -2  -41   44  -30  -20  -13   25  -28   -2  -21   -2  -27  -13  -19  -25   27  -17   -1   -3   -5   -3  -34   12  -20   -6  -15   23   23    6  -31  -33  -24  -33  -17   22   10   33  -14   12   36    8   22  -58   30   21  -27  -26    8   21   18    1  -26  -30   31  -30   44   16   19  -13   20  -60   21    4    8   21   45    6   34  -27  -21  -23    7  -23   19  -16    6    7   -8   -1   -2   30   -5   26   -2    7   36    2   -7   18   20   12    7  -33   30    7   -4  -74  -41  -22   18   46  -18   17    7   23   -5   33   18  -26   32   10   -5  -26  -31   13  -26    5   -9  -51   -6   28  -42  -20   16    6  110   -4  -31  -24   19   13  -32   13   17  -11   -1   -3  -31  -27  -27  -49    4   24  -19   13  -26   22   26  -10  -33    8  -19  -47   -3   21   42    6   -2  -25  -10  -25   -4   12   -3   -9   -2   17   14    5   -4  -41   22   -4  -15  -24   -1   48  -18  -31   30  -19  -22    9  -19  -36   31  -35   33  -31  -10   -2   13  -44  -17  -41    1   17  -10  -22   21  -12    0  -31   -7  -25   -3   -4   26   12   -9   33  -42  -20  -19  -17   31   -8   12   41    9  -19   36   25  -55  -64  -28    2   14   37    4    5   -9    2  -22  -23   43   32  -10    4   -4  -28  -31  -53  -29  -13  -24  -20  -61   36    3  -10   -3   16   35  -24  -42   42    1  -11   29  -14   10  -36    7  -38  -11   22   -4   32   23  -37   10   37   26    4  -73   40  -39   10   -8  -16   -9   15  -45   37   39  -13   39  -23   10  -34  -31   18   -6  -29   39   -7   20    5  -10  -26   15    1  -61  -44  -12    6   47   -1  -13   -3  -55   11   -9   12   56   34   25    1   -9   14  -17   10   38   17    2   13   73  -43   19   36  -15   -4   -1  -10  -13  -10   -8  -25  -34   35   12    3   -5   -5    2   13  -16   -6   42  -57  -31    8   -1   30   -3  -19   39  -12  -23   38   -4  -23   -7   -6  -23  -27  -45  -31   -9   -5  -15    3  -43   13   11   39   -6    6  -68  -44   -1   10  -17  -36  -51    0   20   -3   -8  -24    6    6  -53  -26    6  -14  -18    1  -19  -15  -15  -11   58    8   11  -26   -4    1   36   -8    6  -24  -50   13   15    3   -2  -13  -15  -30  -17   46  -32   35   20  -32   32  -34  -28  -52   -5   27  -16  -43   36  -10   21  -44  -11   -4   30  -25   17   24   39   -6   13  -28  -17    1   26   24   18  -29  -91  -76   55  -38   10   -6   35  -24   -1  -41   17   18  -29   45   36   -8   11   13   13   15    6  -40  -21    2   -4    7   -4  -53  -13    5  -60   36   26  -27   30   58  -17   10   19    5   15    7  -14    8  -21    8  -11   39   20  -24   -2    9   15   -5   12  -17    2   13   -2   31    2  -12   -2    2  -40   16  -49  -18  -18  -28  -62    9   20  -21   22    0    8   24   10  -21   -4   24  -26  -20   17   -9    7   -4  -21   -5  -18   -5   11   -5    1   -3  -30    6  -11   15   10   22  -29   21    0    9  -25   30   -3   29    8  -22   55   22  -11
  23    6  -52   18  -10   18   -4   15  -22  -11   13   -7  -12  -11  -22   13    6  -20   24    4   14  -15  -19   -5  -18   20   -3  -10   28   38  -12   43    4   54    8   -9  -42   -7   26   15   10   26   51   35   14  -45   28  -39  -34    0  -19   -9   12  -35  -19   42   13  -23  -13   -8   -5  -21  -19  -43  -21  -25   -1    9   -5  -38   -3  -34    4  -22   21  -19   -7   21  -32   -7  -11   16  -18  -11  -69   -5   15    4   37   -5   -3  -24  -33    5   -3  -15  -16  -45   -5   16  -20    3  -21  -14   -7  -38   27  -12  -12   14  -15   26   19   16  -11   -5    2    1   31  -16    9  -36   -2   24   -6  -34    0   -5  -32   12  -11   30   -8   23   18  -15  -17   26   10   50    5  -13   16  -17   46  -15   38  -16   29   35   -1  -13   16  -12   28   11   27   -4   38   25   -6  -46  -16   -6  -14   -2   15    5  -10    3   30  -35   -6  -15   -7   -3   15  -16  -18    6    4  -15  -38   25  -10  -40  -13   14   23    3    2  -41  -23  -47  -20    3   25   46   19    8  -31  -17  -19    6  -20   13   22   -3    4   29   20   16   15   31   22   38   -1    7    2   14   -3   19   62  -33   -3   11  -50  -38   -4   13    1   21    1  -13    4    2    8    3   -3    8  -10   31   15   -5   -3   16  -10   -9   51   18    8  -16   13   44    5  -27    7    8   35   20   -6    0   36  -12  -42   26   -5   14    2   14  -21   13    2  -29  -11   35   14   -3   -5    7    7    2    7    4   -8    3   11   24  -11   -6    7   23  -14   46   15  -12    5   20  -14   36  -14  -10   19  -23    4   -4   -4  -43  -13   -1    9    4  -37   -4   -3   11   43  -35  -20    3   -6   27  -13   29    2    1    2   35   20  -12   -7   -9   24  -15   22   -4   28  -29   -2   28   27    4   -5  -20   -6   -9   49    3   29    1  -11    0   19   26   10   32    0  -13  -10   31   -9   33   21   25   -4   22  -42  -19    4   -1   20    2    1   -3   10    2   57    4  -13   23  -15  -22  -14   21  -15   -8   29  -23    5   14  -37   13   -6   32  -39    3   25  -26   -5   13   -7   -7   37  -25  -23   -6   22  -13   28    1   -8  -50   26  -12   28   -8   -6   42  -10  -11    1   -8   15  -10  -44   -2   11    2   -3  -29   -7  -24   36    0    0   13  -10   -7  -27  -21   38  -14   29  -39    5   -6  -41    0    4  -18   14   -9   20  -10  -11    1    2  -17  -45    0  -11   12  -20  -36   -6   -9   -5  -25    6  -24   22  -17   31   10   27  -13  -40  -19  -12   50    7    2   29   17   -4   18  -13    9   41   13  -38   19   14   -4  -14   13   45   36   11    5   25  -14    7   59    2    1  -46   10  -40  -31  -39   12   -3  -27   21  -77    1   26  -10    9    6   52   59   10   -5   -4  -14    0   -6  -22  -37   -4  -11  -24   13    1    2  -41    0   14  -19  -21    1  -11   36  -33   14  -17    6   19   -8   11  -30   23    0  -20   13   17  -12  -19   13  -42   -7   -8    6   13   32  -34    4   -8  -36  -22  -12  -49  -19  -11
  30   -4   -1  -25   -4   23  -30    5  -23    1    9   24   49  -17  -14    5   16  -20  -19   10   38   -4   26   -2  -43  -36   43    0  -16   27   12   -6   46   14   -9   55    1  -34   38    8  -63  -28   12  -25  -10   -5   51  -43   55   47   16    6   13  -41   18    6  -18   13    6  -18   19   26  -31  -41   49    9   76   32    3  -14   -4   36   27    7   27  -24    8   57  -30   28   14   -6   -8   -3  -60  -20    6    3    7    1   -8   22  -32    5   47    0   19   13  -53    1   44  -12  -56  -15   15   17  -13   56   -5   13   31   24   33  -21   21  -48   26   -1  -23   13  -49  -59  -16  -75   38  -39   -6    7  -18   -3    7  -31  -19  -14   11  -27    6  -21    1    0  -20   42   14   11   37  -53   -2  -28    9   -5   16  -31    3   -9  -49    9   -6   43  -27    2    4   35   10    3   31  -17   56   40  -31   24   20  -17   33   -6  -48    9   47  -25    7    3  -28    8  -34  -36  -17  -80   22    8   44   20   29   31   43  -31   -7  -19  -22   22   10    1   15  -25   25  -36  -40   18   32   16   33  -21  -40  -31   -6  -15   29  -10  -18  -12  -30    8  -51  -30  -21   21  -21  -30   -8   10  -10    6    4  -14    1   18  -26    3   14  -41  -10  -50  -33   28   14   31   28   -1   31   14  -27   35    0   22    1   -1  -18  -32  -39   15   44  -46   21  -23  -39   -2  -20   24   33  -20   11   26  -63    8  -34  -10  -23   17  -49  -11   16   -7    0   37    9  -21   19   27   -5   11  -32   28  -21  -28   46  -31    0    0   -4    4  -60   29  -19   -2   22   18  -15  -48   10  -23  -13   26   -7  -21    2    4    8   14   36   -1   -1   -4   48   -8  -16   26   26   -5   28   23   11  -18    3   -1  -34    2   29    6   20  -42  -20   41   18  -14  -26    4    7    1   -2   18  -58  -51  -21    6  -21    2   56   17    9   22   49   22   30   24  -56   15  -36  -28   -6  -25   10    1  -14   -8  -19  -37   37   48   38   20   20    8   11   20  -67    6   49  -42    5  -19   10   20  -33  -49    0  -44   32  -45  -18    8   34  -58  -35   15  -54  -90  -15   -9   22  -29   22   -3  -27   -4   24   21    1    2    2    6    0  -12   30  -19  -26  -27   -8   33  -86   12   41   -2   25   14   33    6    2   31   26   -5   -2  -19    6  -35   18   -2  -23   -9    3   54   -3  -16  -41    7  -10   15  -30   10   22  -20  -24  -42   28   29    3   48   -1   -4  -66   -2    9    0   56    2  -42   12   20   -3  -11    9   23  -37   24    1   32    9   -9  -12   43  -24   61   46  -27  -18   -2   -3   21    6    3   -2  -47    9   46   15  -29  -33   -2  -13   25   10   11   36   47  -11    8   10    7   19   22  -44    3  -23    4    6   17  -52  -17    6    4    8  -17   20   -3  -37    8  -35   52  -67  -10  -15   36   -1   23  -16   25    9  -10    8   22   -7   -7   43   28  -39   -7   -4   17    8   37  -30   40   13  -29  -59    9    6   83    4  -12   -2   21  -24    9   36  -30   54  -43   15
   1  -13   14   15    9  -36  -48  -21   13   -5   20   -3   49  -22   27  -13    4  -21  -22   31   21  -17   10  -27    5   16  -41  -36  -19    1   10    9   -5  -57   -6  -11   13   13  -40   -4   -2  -24  -16  -12   12   12  -41  -38  -20  -19  -39   -4   -6    8   10   -1   -4   11   11  -17    6  -30   16  -32   -1  -19    3   11  -32  -38   19   35   -4  -33  -45  -10   14   -4   -8   -7   25  -21   33    5  -20  -25   18  -17  -37   -4   -6   18    6    6    8  -24   34   30   -2  -78   32    6    0  -37    2    9   11  -17   38   32    5    5    9    6  -26   11   38    0   42   -5   30   49  -13  -11   -4   21    0  -22  -23  -35   31  -86   -3   20    3   22  -28   16  -42    5   31   -4    1  -33    0   29    0  -65    1    1  -10   45  -53  -13    1   23   -5  -29   36  -15   23    4   32    1    1  -18   33   23   -4  -12    3   28   26  -11   12  -16  -40   12   17   29   21   -2   -5   21    1   30   15    5  -19  -40  -40  -48  -26   -2  -15   16   16   55   48   -8   11   33  -18  -20   -8   -3    0  -44   25    1  -38   29    2   40  -27   -2   13   22    1   23    0  -10   23  -10   84   14   10   33   17  -11   10   13    0   -1    9   -3  -40   -9   26    5  -15  -21   -2   11    8   -7  -10   53    1   10   47   15   -5  -18   31    5   29   51  -20    2   14   44   -8  -44    5  -23  -34   15  -12   46  -18   -6    0   21   29   43   -4  -44   22   -8  -44   18  -24   14   57   10  -18  -22   52    7  -20   32   17   17  -47   -5   20  -66    3   -9   16   -6  -22   33    1  -22  -16   11  -43   -9   13   -6   20    7   35    4  -30  -19   36   38    3    5   10    4  -28   11   46   13  -23   16  -21   14  -29   35  -29  -45    4   20  -10   66  -12   39   -2   -6   14   41  -23  -28   -8  -44   21  -43    2   30   12   20   32  -14  -29  -31   -5  -37   49   -1   23  -52   -8   -5  -24    3  -19   11   31   -4   -4  -54   -5  -47   -5   -6   -9    4    1    9  -13  -23  -36   28    6    3  -13   21   17   -6  -50  -21   31   -6   -6  -13    8   10   10   36  -43   -7   -4   -7   45  -16    8   29    2   13  -17   23   13    9   40  -39   33    6  -28    3  -41    3    6  -30   60   -7    8  -10  -47  -13    3    0   -2   41   54   18  -19  -14  -12   16  -27  -52    9  -16   -8   10    5  -15   14   -2   19   -6   -1  -24  -19    3    3  -20  -18  -17   -9  -23  -51   -7    8    7   23   24   24  -16   23  -17   20   38  -50   21   -9   -5  -31   -4   25   40  -31  -12   -8  -17   21   12    0  -27    9   -5   -4   -5    5    3  -27   -1   -7    4  -24   10   15   -9   10   18   -2  -18   31  -11   -8   23  -20  -20   -8   -7   18   11  -36    0   62  -34   23  -18   -8   40  -20    8    8    5  -66  -50   17    1  -47   34  -15   10  -14   26   20    3  -21   14   18  -30    9  -25  -20  -43  -18   -8    9   47   11  -17   37  -55    0  -52  -20  -16  -35  -10   17  -33   -8  -42  -35  -17  -26  -16
  14  -66    3   25  -26   -3    2    8  -46  -35   27   -3   11  -25   17  -20  -36   12   -1   -4  -27  -12   11  -34    6   -6   43   26    8   23  -24  -62   -1    6    8    1   -5    5   -7  -43  -24  -11   -8    9  -25   36  -20  -10   13    8   25  -17  -15  -13  -12   42    0  -18    7   -2    0  -22    4    7  -32   16   21   46   41   11    7   21  -16  -17  -13   -6    4   -5   67   10  -10   -9  -40  -25   -3  -37    7   14   31   -5    2   24  -28  -24   -9  -34  -34   10    3  -11   36   -8    5   18    6   51    4   20   30   10   28  -25   11   30  -61    2  -34   -2  -13   22  -33  -26  -16   19   -4   17  -17  -23   26  -31  -25  -51   10   20  -25   26   69    6  -40   -8   34    7  -15   17   14  -40  -37   66   11  -19  -52   49    1  -23  -12  -14  -40  -12  -36   -9  -10  -35   -7   -1   -9   -1    4  -16    8  -32  -54  -19    8   27  -32   19  -11  -23    8   17    0    6   -1  -45   15  -12  -25  -15  -32   -9  -23   22   17   -6   -7  -17  -54  -23   -1   16   -7   45  -28  -16   21   29    6  -38    3   10   25   -6  -12   17   16  -51  -41   -7  -15  -28  -33    5  -30  -12   26    8  -36   -7   -3   22   14    2   -3  -36   20    0   -9  -19   -7  -40   16   13   51   18  -33   -3   20   -6   -1    3  -11   16   17  -45  -43   -1   13   -2  -17   -3   -2  -14  -66   17   -7   51  -16   22  -44  -37    1  -31   -1  -23  -40  -46  -25  -15    4  -23  -45   14  -20  -23   -9   -5   -1    0  -26   18  -46  -16   -9  -10  -17   37  -15   23  -40  -22  -34   -5   11   11    1   27   42   26   11  -14  -56   17    6  -50  -46  -32  -12    8    4   22  -49   -3    3  -11   -4  -42   30   22    7    4   16   -2    2   40   29    3  -53  -20  -30    4   48    0  -32   -8   -2   19   12   -9  -10    6    0  -41   -3  -46  -18    2  -31  -22   19  -50   28  -50  -32    0  -13  -25    7   12  -23   -1   26   -9   60  -36   24   -8    7  -19  -24  -21    1   15   -8  -22   -5   11  -30   10   15    9  -28   21   43  -50   -5  -41    1    6   -4    9   35   -4  -37   -1    4    9   19   17   40   57    4  -21   -6   16   15    0   -6  -25   -6   12    3   -9  -19  -27   17   22  -10    6  -23  -13    1   -8   31  -25   39   36   17  -12   23   -2   11  -14    0  -40   -2   16    9  -15   -2   -7   -6  -27   27   21   18  -38   -9   26   41   11   29   -8  -24   26  -13   27  -35   12  -31   10   14    7   -6  -36  -28   -9   -1   37  -16  -36  -11  -47    0   -7  -22   18  -41   26  -30   -4   34  -10   15   -7   78   12   53  -25   -9   15   -2   33   -8  -17    7   14   26  -10   40  -26  -26  -21   -5    7  -26   38  -14    6  -43    5   25   -8  -53   -2   15   67   -7  -43  -18   14    9   -3   -5   35    6   28   30  -28   13  -47   -8  -12   -3  -28  -13  -13   48  -10   20   -2   -1  -20   12   33  -18   13    2   -8    6  -32  -34   19  -11   -1  -21   18  -22    6  -23  -37  -75    9   19  -38   26   27
   4    5   -4   -2  -14  -20   12   -1  -12  -32    6  -26  -50   22    1   17  -39   30   41   17  -22    2   18   20   16   25    2    9  -23   24   18  -45   -6   16   21   -9    6   -2  -83   -7  -11  -63   26   26   10   26  -21   23   39  -10    4   37   24   -9  -16  -22  -39  -26  -29    9   51    5   36   31  -61   -9  -49    5  -58   27   -7  -32    2    2  -37   -4   -6    0  -40  -10    5   12    0   -1   11    3  -13  -20   42    0    6   45   -3  -45   36    3   21  -13    3  -26  -36   16  -13   19   17   -7   44   13   -6   16   40  109   -9   -3   60   38  -31   -4  -31    4  -42   43  -12  -13  -33  -16   -9  -10  -36  -31    5  -17   -4    6    4   51  -26  -35   19    2    2    4  -84  -27  -10   21    0   16    0  -12   21   35  -35  -31  -54   30   11  -72   33  -18   32   10   17    1  -12  -17   29  -36   29   -8  -49   28   26  -14  -18  -11    9  -77   12   11   21  -13   -8   96   28   37   10  -22  -80   39  -21  -81   50   -4   19  -32   55  -20  -35   -7  -18   31  -43  -15  -29   22   -7   68   51  -44   -6  -27   68   28  -38  -21   11    0   -5   35   -8    6  -28  -55  -24   -4  -42   21   41   13   17   -9   -6  -34   -5   -2   45   18   22   32   10   47   17   26  -53   46    3    5  -49  -24   45  -11   -9   18  -14  -18  -71   59    7  -11   19   34  -45  -28  -62  -54   -5   -3  -10   46    5   -2  -28   76   11   24   26  -35  -14   30   51   -5   21   -3    4   22   23  -21  -12   46  -62  -45  -28   13   37   39    0   50   -6    3  -20   58   14  -16   -3   -5  -52  -29   14  -26    0  -14  -20   -9  -16   -9    7   23    5  -11   28   68    6   -8   36   69  -39   64   13    7    6   74  -36  -27   -6   41   54    7  -51  -35    0   35   35  -12  -24   15  -21   21  -26  -15   10   -2   -5   17  -18    7   12   17   -2    7  -31  -40  -28  -17  -11  -41   21   20   32    3  -16   -9   -8   41   26   61  -50  -48   28   61  -35   11   19  -26  -10   21   37  -46   10  -57   -2    1    8  -18   17   31  -23   24   28   -6  -41  -26   40   10   -1   29   11   51  -11  -10   15   -4    2  -32    9  -15   34  -17  -20   47   -3   -5   29    6   27   18   31    0  -33   25   17   13  -44  -26  -17  -13  -10    3   29  -24  -52  -13  -54  -17  -14   32   -9    0    5   -1  -40    0    3  -31  100   28    2   -6  -13   55   75    5  -15  -21  -31  -40   48    2   48    6   50   13  -24  -13   24   -3   39   10  -51   16  -10  -37  -47  -10  -10  -33    5   -8  -38   23  -40  -34   -3  -22   10  -32   57   20   48    7  -30   12   74   12  -28   12  -23   31   27   44   12    7   22   33    5   11   19   -1  -52   10   76  -26  -15   37   53   24   36   16    0  -41   13    2  -24   -7 -120   39  -55  -27   76   16  -70   33  -18   36   37   26  -33   18   23   54  -28    3   33    4   -9  -43  -24   -8   20  -63   55  -19  -55  -55    2   43  -29  -14    6  -18   18  -39   19   21   17   -3
 -19  -21   21   49  -17   14  -10  -20   -2   23   22   -5   -5   17  -28   -7    7   11   -7   -6   -4  -17   19   25  -11  -46   30   24  -23   15   19   52   -6   23   28    7   11   -2    8   28    0   39   -6   24  -16    3  -19  -19  -20    8   11    1   21   32   14  -16   -1  -11  -16  -16    7  -13   -2    8   -9   23   27   15   -2    4   24    4  -16   11  -20   27  -39  -43    7  -24    0   32   10  -14  -24  -14   17   -2   10   -1    2    4   24  -21   17   -4   25    1   11  -25   -8    9    6  -49  -11    3   18  -16  -15    4  -13  -23   36   12  -11   -6   30    1   -2  -21    8    7    1  -24   -1   -3  -16    3  -16   10   35   31   26   22    0  -17    6   -1    8   22   14   17   -2   -3   12   38   -5   33  -24  -24   26    5   10   22   23  -13  -21    0   18   42   12  -13    3   -3   19  -25   63  -28   31    4   15    2   19   -7   30   10  -11  -12  -52   -4   -7   12   -9    2    1   -7   -3    5  -13  -23  -16   29   19   -2  -15  -25  -16  -20   -6  -30   -5  -17   15    4    8   -8  -11   14  -11   20    4    0   20   -9   10  -18  -15  -16   -8   47   52   11   -6   -2  -28   -6    3  -10   -1  -20  -24  -30   -2   12  -10   -1    5  -37  -13   17    2   40  -21   -2  -11  -44   32   -8   -4  -10   -5    5    6  -61   21  -37   51  -15   -1  -10  -24    9    0   11   12   -4  -33   16  -26    6   22   14   30    6    2  -30  -34   -4  -17  -21   14  -13  -30   19  -12   10    6    9    2   -2   -7   -1   -1  -14   22   -1   24   32  -29  -23   36   44   -1   11    4    8   10    3   -8  -18    6    2  -11  -26    8  -30  -14  -14  -26   14    3  -11    6   16    6   11  -10  -10  -46   31    7  -17   36    9  -37   12    4  -24   16  -23  -18   21   -8   23   28    3   19   19  -34    0  -34  -12   -1  -22   32   41  -21   -7   13   -3   -2    9    4   -6    4    3  -20  -17  -20   -4  -15   10   -1   -8  -37  -25   16   34   28  -27   44    4    2  -16  -13   -2    5    6  -35   27  -23   19   18   -3  -14   24  -18   29   23   15    7    2   -5    6    2   13    8   -6  -14    5   -5  -11  -15   -5   24   -2  -12  -11    7   19  -14  -24  -22  -36   17   -7   19   25    3   -4   13   -8   16    2   21   -6   28  -52  -51    5  -36    1    0   46    3  -25  -19   25  -14   20    3   -3   -8  -14   16   25    5   35  -15  -12   15  -14    6   -2   24    7   -7   20   42   20   -3    2   31  -23    6  -22  -53  -28   30    1  -26   -7    4   -8   -6   -9    9   43  -19   -5   -9   26  -11    0   18   16   -8   -1    6   -2   -6   17    2   -8   23    1   -8    1    7   23   39  -20  -11  -20  -30  -25    2   30  -15  -16   33    6   15   -3  -14  -19   15  -32  -14  -14  -42  -25   -9   -6   10   -2  -57  -34   24  -17    6  -45  -18  -38  -13    4   19  -34   22  -32   -1  -31   -8  -35    5   -6  -18  -14  -28  -18   -1    9  -12   -3  -50  -13    0    4    1   -4  -14   10    7  -14   34   20
 -34   -4   46   23  -16   19   49   74   52   76    9  -70   18    4   55    2  -40  -12    5    2   54   37    8  -15   39   42  -12  -21  -42  -17   -7   -4  -14  -19   54   36  -24  -10  -14    8   55  -42  -49   27   12    0   16   25   22   -9  -43  -18   -9  -31    7    6   37    1  -56   -9  -32  -57  -38  -43    3   43   19  -16   10  -17   11  -10   28   47   45   48  -34   -6    0  -43  -47  -62   36    1   -8   42    4   21   21   -2    8   38   13  -56   73   66   28   13  -28    6  -12   -3   26   67  -36   68  -10   11  -26   61    0   42  -10   16  -23   28  -65   -1   -6  -33  -25   27  -31   25  -15   10   29    3   27    7   30   43   36  -23   31   44   39    2  -47  -23  -21   20   26  -29  -45   31  -39   34   23   10   39  -12   36    0   32    5  -31    5   20  -44  -25   -1   43   -3    4  -10  -47  -63  -17    7    1   45   -4   14   -9   31   58   23   -3  -23    8   15  -16   34   46   -1  -47  -82  -15    7   81  -48   44   28   51  -58   25  -68  -39   18   -7  -23  -43   19    6   -5  -50   -2   44  -34   -6   32   -8   33   48  -14   43  -19   -6   11   46  -45  -14  -55   14  -35  -38   15  -14   13    8   15    2   -6   16    0   14   23  -20   24  -14    1   28   -3  -65  -20   11   27   23   -8   27   46   31   95   -1  -12   36   15   -8   68   48   -8   27  -25  -31  -15   19    4  -55   19   11   20   32   24    4   19   52   10  -48   17   29   37   22   27   -9   27  -12    5  -28  -21    9  -15  -11   48  -55  -31   -5   17  -21  -19  -28  -68    6   -4   46  -17  -29   -9   27    5  -19   19  -14  -26   48  -13  -32   36    3   -1  -17   28   76  -36  -11   21   24  -22   25   15  -29   -7  -22   33   14  -13  -56  -28  -27  -23  -27   -5   20   -1   21    3   37    6  -31  -26  -20  -14  -19   38   28  -80   10   41  -28   -8   -2   15    6   39    3  -26  -15   -3  -11    3  -47    2  -10  -46  -35   56  -42    8   41  -35  -38  -12   11  -41  -15   -1  -25   -3  -43   39   -9   23  -31   35   12   54  -37   17   -7   72    5  -22    0   -5    6    8  -21  -34   10   59   56   19   48  -15   22  -14   38   53   -6   63  -11  -22   74   76   33   17    5   27  -45   20  -12  -12  -27   -4   25   18   64   24   18  -31   83   27   47  -20  -51   -7  -26   28   44   38    0   35   43   71  -29   59   21   35   12    6   47   12  -18  -20   23  -24   10  -57    7  -19   39  -23  -33  -97  -43    6    7  -47  -63   37  -26  -29  -44   52    2   -3    4   76    2   32  -23  -11   32   20  -40  -76   -7   31   48   37  -11    1   55  -18    3   48  -16   17   33   -2    4  -49  -16   14  -21    7   55   16   26   45    3  -12   26   -5   38  -12    9  -77  -22  -34   28   14    2   23  -23   26  -32    7  -12   36  -43  -52  -18  -42   36   -2   27    8    1  -30   28  -17  -46   46    1  -26  -53   78   -2  -15  -39   26   53   37  -11  -26  -31   28  -16   43   51  -24  -10   -3   -5    3
 -35    9   11   30    5  -39  -28  -15   42   27   11   46  -39   42   -8   18  -41    5   25   11   18   -3   -1   19  -15   25  -10  -22  -44   -6   -4   15  -20   18  -10  -35   20   -8    5  -28   39    2  -46   15   28   45   35   22  -11  -37   -4  -36   12  -13  -50   22  -21   14   12  -23  -12  -19   21    0  -31  -55   14   -3   -1  -22   12   -3  -48   -2  -27   16  -47   -9   24   11   -7  -21   20  -18   16   22  -19    7  -13   -3    8  -29   23  -40   28   39   -4    0  -21   33    0   -8   29  -15    2   -8  -23   -3   26   23   -5  -15  -17   26    6    5  -11    0    2  -33    7    9    2   32   23  -54   10    1  -32   10  -21  -45   20   22  -28  -36    3   -2   -9   16   30   55    5    5   -6   88   -5  -42  -20  -20   27   30   -7   36   39  -29   28  -16  -12   -9  -15  -54  -17    4   32  -51   38  -17   34   26   -3   24  -56  -17   41   29    4   49  -40   18   47   20   15  -10   17   22   26  -14   15  -69  -17   -7   26  -40   -8    0    5   19   38  -32  -14    3   23  -19   31    3  -17   -7   27  -75   -4   27   -1   45   18  -22   34  -13   48   -4   67   28    5   30  -41   35   23  -20    6   19   19    1    0   40   13    3  -27    2   10    0   24   48  -50  -14  -14  -18   -5  -28   22   42    6    4  -16    3  -10  -31  -10   17   24  -35   37   39   -3   14   -7    6  -26  -39   36   15   -3   26  -14   44  -42   21   10   17   -8   -4  -26   13    0  -18   33   18   42  -17  -20  -17   20  -55  -33   23  -36   21   28   38   32    0   10   36  -14   48  -24   15   -7    2   -7    7   44   -7  -23   52   -2   39  -33  -29  -23  -76   37   47   50   26   12    2   -8    4   29  -53   37   19   34    2   15   19   11  -39   11  -22  -14   54  -13  -19    0    9   19    6   70    7   64  -12   33   13    0   -4  -10   48   34   52    4   68   -5   34   39   58  -23  -16   21    1  -15   18    8   16  -43  -33   40  -16  -10   -6   21    5  -22    3   11   40   39   29  -11   25   27   13   23   17   13   58   10   -7   -9    5    0  -30   -3   36  -35    0  -24  -27   -6    0   66   33  -14  -25  -27    2   25   21   -8   41  -34  -26   -8   -1   27  -48  -17  -23  -16  -25  -13  -43   -7  -50  -20  -14  -32  -13  -21   48  -21   24   13   -7   63  -49    2   16  -21   26    6   17   16  -35  -11  -22   -1  -27   -2   18   -7   78    4  -48    4  -32   -2   22  -15  -27  -11  -24  -13  -28  -10   -2  -58   10   41   42   26  -27   42    0  -11  -28   41    4  -48   24  -36   -6   19   25   49   23  -70   17   27   22   -6   -5   22    7   25  -12    3   18   -6  -14   23  -46  -11  -13    5  -56   21   30    0  -18  -23  -19   24   29  -11  -57   26   44   21   13  -18  -24  -34   18   35   17   19   -7   -3  -20  -46    4   18  -11    8    7    2   13  -47  -19  -36   13   10   -3   12  -12  -57  -21   30  -24  -45  -10   67   30   15   31  -35    1  -12  -10   49  -37  -36    8   19   -4
  55  -22   11    5  -34   35   -4  -19   63   21    8   22   -9    8  -32  -20   16    8   12    7    7    1   -1  -21   -3  -46   -9   56  -16   -1   26   -3  -27   13    6   25  -47   19   42  -36  -17  -39   13  -30   27  -20  -55    2   -9  -39  -20   34    0   21   22    8   21  -51   37  -18   24  -22   22  -27  -36  -26   -8   21   -6   -9  -44   10   66  -37    4  -24    8  -28    5  -29   -9   41   15  -27   10    5    1  -47  -16    1   -6  -40   63   12  -52   56   13   -9  -18  -13  -32   -8    5   12    6   30   15    5   -1   11    9  -29   -1  -18   -7    4   46    0   -7   -1   -8    4  -23  -12   26   -1    6   51   -7   31    4  -34  -13   42   17  -19    5   -8  -23   10   -9   26   14    4   32  -10   18   30  -27   -4  -36  -13    3  -21  -22   27   -1   11  -67   42    0  -13  -45    2   -2    7   58   15    2  -18  -10  -19   -7   -9   -8    9    2   81    7   17  -11   17   10   70   17   -3   -9   -8   -4    6   -6   -9    0   30   16   26   34   48  -21   14  -29    6    7    3  -17    9   32  -42    9   10  -21   -4   -6   24   40    0  -13   14    0   25   -8    6   15   39   20   -2    3    2   -3    3  -26   69    1  -44    7    0  -44  -24   -5  -22  -16  -20    9   34  -13  -21   35   43   -7  -22   56  -25   -3   -8  -19   11   10  -15   36  -71  -49   11   23  -13  -26  -12   24    8   26   19    4  -48   -3   -1   21   46  -56  -64   68   10  -27   18   34   28  -21   28   27  -21   23   16  -27   -1   44   14   48   36   16   58   -6  -22  -20   46    6   -3  -27   51    3   24   29   38    7   46  -24   12  -40   -9   -5    0   -6  -15    6   34   34   27   19  -39  -41  -15   -7  -22    6   -1  -14   25   30   -2  -20   49   -4  -28   -2   -9   11  -31  -19   33  -31   34    2    6  -11  -27  -14  -15  -37   51    3   17  -18  -16   10  -15  -47  -53  -32   64  -18   35   19   -2    1   23   -7    6   13   -4    8  -28   13    7  -45  -38   -7  -30  -72   22   26   -7   42   49    1    5    8   15   52  -32  -35  -30   -8    6   -6  -42   74    2  -20  -16    9  -20    2   31  -41  -23  -24    4    2   -3  -58   -8  -76    0    2    8   18  -20    4   58  -15  -29   70   33  -18   -2   38  -10    3   41  -18   27   10  -34   -4   22  -22   19  -13   18  -15   26   24  -25    9  -26   -7  -39  -45   21   11    7   19    7   -3  -23  -21   -3  -13  -24  -48    2   36   -7    7    6   33   82  -27   21   54   -2   39   31    3    9   16  -41  -24   -2   34  -50  -70   -1   -5   -9  -35  -42   39   18  -15  -34  -38  -35    0  -33  -23   12   36    7   -2   29   -3  -15   14    3  -19    3  -38  -10   -7   21  -33   12   26    0  -39  -61   72  -22   16   55   20   -1   -5   28   -3   42  -72   29  -21    1   -2   -9  -79   12    9  -39  -21    8   24  -41  -25  -17  -26    8  -11   -5    3   -1   16  -28   38  -12  -22  -49  -36   65    8  -20   17   18  -55   25   -2    5   40  -47  -52   32
  17   -9  -45   33   12  -15   -9    2  -36   -6   -6  -16   42   19   17    3  -13   -4   45    0  -30   31    8  -13   -9   36  -11    9  -22  -14   11   36   11  -17  -54    7  -32  -23   13   12   33  -53   -4   -6   13   14  -39  -14   19  -11   32  -20   26   24  -25    6  -10    9   34    7   -7   18   32   10    0  -31  -12  -11    0  -21   18   36   -5   -9  -10  -23  -19  -16  -15   -4  -14   17   -9   16   48    3   -3    0   25    1   -1   19  -14  -30  -19    9  -29  -16  -23   14  -34   -3   34   -3    3   12   43  -15    7   10  -23    9    4   -8  -25   26  -12    0   -8   61  -34   24  -11   12   16   -2   -5   -4   -3  -31   -4  -25  -20    7  -11   36   17  -27   62   -5    7   29    3    8   35   22   14    2  -24   10   13   52  -10    3    7   19   17    0   11   28  -19  -39   26   -1   -5   19  -10   -3   14  -19   -2  -46   69    8   22   -3   37  -10   -2    6  -18   18   -7   25  -29    7    6   -4  -26   43  -29    4    8   29   -9   25   14   -9    7   20  -10    7   -4   -3  -27   -4   13   41   -6  -47   12   -4   11  -31  -19  -31    6  -13   25  -16   -9   35   -5   32  -17    3  -47   57   -9    2   16   13   -1  -20    6   -1  -10    1    5    4   15   -4  -16   32  -20    4  -10   56  -21    9    4   -6  -14    2  -41  -35   -9   21  -34   12  -15    9  -13   -6  -18  -82    8   24   12   -8   24  -18   48   16  -51   15  -19    0   -9   39   25  -19  -29  -24   41  -23  -28  -22  -15   -5  -26  -18   21   -9    2   21   -6    9   10   -7   11   42  -18   47   25   26   -1  -49    9  -15    4   -3   11  -48  -19   -2    2   -3  -41   -5  -13   27   36   17   19  -19   -4   10  -12  -12    6    2   25   10   32   26   -3    2    5   28  -16  -12    0   -6   15  -10   -4  -11    6    9   14    3  -16   31  -34  -23  -20   -6  -12    9   11  -19  -12  -20  -27  -33  -14    9   -7   -3   10    5    0   10  -30    9  -12  -30   16    8  -41  -21  -20   14  -17  -27  -13   -8    2   -7   14  -33   46  -15   14    4  -15   19    2   21   -5  -14  -35   30   14   18   12  -17   -5   -4   -1   34   -8   30    8   -2   -8  -17   22   17  -38   11   -6  -18    0  -20  -17   -1  -11   20   47  -16   -1  -19   15   -3   -7  -33    7   -3   64   13   23  -11   22    2   11    2  -33  -18   -9   -3  -30   11   19    7   -1  -14  -29  -24   25    8  -42   -4  -13   -9   11    4   17  -22  -46   49  -28  -18    9   -7   52   -8   22   10   -3    7  -27  -33   20  -18   14    6   12   21   19  -21   20   14  -13  -26  -12  -48   13   32   -8   13  -42    2  -43   22   29   -5  -22   35   -3  -17    0  -29   14   62  -25   37  -27    6  -31  -26  -27  -23   34    4  -14    2   -4    2    5   14  -40   14  -24   25    7   -6    7  -36    9   -6   18   12   13  -26   -7   17    5   -2   27  -28   38    8  -22   13    3   22   -2    3   18  -10    3    4   -8   18  -35   31   -9  -33  -13    5  -11   -2  -17   12
  11   39  -27   35   55  -39   -7  -13  -18   -6   -2   -5  -22  -16   11  -31    7   35   -2  -23  -17   -7   -9  -29    6    5   65  -35   26    4   28  -13   -6  -34   37  -34  -28    4  -10    7   21  -14   26    5  -10  -33   -4  -33  -30   36   13  -16   -8  -38  -12   31   -4  -23   -7   -9  -23  -12  -26   50   26    0  -19  -36   13   17    2   -1   -5   -5    4   12   34   35  -43   39  -19  -13   17  -27   25   15  -19  -26   11    0   -7   -4    9  -48    6  -27   18  -35   -7   14  -25   -5   20  -11  -16  -15   31  -20  -45    0   10    4  -32    0    9  -32   19    1    0   17   -4  -44   -5   13  -21   30    9    7   17   30   18   83  -16  -23   -6   35  -40  -18  -30  -38    3   11   17   40  -14   22  -20   34    1   38   12  -14  -12  -12  -29   31    5   -3   40   -4  -18  -24   12   -4   -5    3    0  -26    9  -51  -50  -26   -9  -30  -21   62  -47   -9  -20  -11   -7   -9    9  -36   28    4   14  -13  -53    2   71    8  -44    5  -22  -15   27  -48    7    7   17  -11    4   37   20   -4   29  -54   21    7  -22   13  -31  -34    0  -35  -39    0  -46   31    6   -3    7   31  -17  -26   14  -10  -11   12   15    9   -4   59  -32   -1    5  -18    2   27   18  -15   33   -5  -23  -18   10   35   22  -37  -23  -13    1  -15    4    4   26   -9   15   15  -47   -9  -19   -4    7    7    3  -11  -17    8    7    4  -33   10   -3   15   -3   11  -16    0    2   27   -7   -2   -6   -8  -30   34  -19   11    3   11  -27   30    3  -33  -58    1   11  -12  -26   16   -7   -7   19   -7   46  -15    8  -39   32  -19   -2   -4   10    7  -30    7   16  -17  -16  -33   19   29   -9    3   64    9  -24   -4  -20   26   -3  -14   -8   28   26  -23   14   33    5  -21   -2    2    2  -19    2   22  -22   31   -9  -20   21  -29  -12   -5  -14    4   -4    5  -47  -51    7   16  -34  -31  -14   36   34   -4  -17  -19    2  -22   34   -4  -16    0   -9  -39   40   44   25   16   -1  -54  -32  -14   11  -11   30  -43   64    6   67   10    1    1  -19   38   14  -25  -20   21  -13   35   26    3  -40  -39   20  -17    6  -21   12   -6    1   22  -34   21   30  -14   57   -6   -4    5   33    9  -31  -38   12   15   -9   16  -11    3    3   -6   59  -19   23   14  -23    7   34   30  -13   11   -1  -30   17   -1  -11   -7  -33   19   50   23  -39  -26   -3    3  -21   24  -15   51  -27  -53   -1   -1   21  -21  -12  -30   10   40   68   28   15  -25  -42    5  -10   -8   35   51   26   11    3  -23   -5    5   23  -34   21  -11  -49    2   16  -13  -17   53    8  -24   23   31  -36  -36    8  -12    0  -16   37   24  -43    9   36   11    1  -26  -28   -5  -53   21  -34  -18  -19  -26  -19  -24    4  -70   24   19   25  -10    1  -42    3    7    7   21  -19  -51    9  -11   15  -33  -14   43   40   11   38  -15    1   -4   -3   27   18   -7  -25  -12   28    4  -32   13   18   22    7   15  -53    5   19    1  -16  -32
   6   11    5   10   -5   24    3  -12   12  -21    9   11  -10   10   -6    5  -13    5    8    6   -7   25  -20   -6   -8   14  -10    6    9    2  -22   26   14  -22    2   -8   -8   -6   -7  -21    3   -7  -27   -6  -34  -23   26  -18  -21   13   27    1   -6   -7  -25  -13   13   -1    4    3  -20    6   48   16   -1  -48   -7  -36    9   27   -7    8   -5   18  -19   -4   -1   11    4  -10  -17  -12    7  -24  -62   12    3    5  -17   -1    5  -15  -17   29  -12    6   -8    7   14  -14  -33   14    0    0  -23    3    5   -1    7   19   14   11  -18   10   11   -1    0   -1    7  -34   31   22   -4   13  -14   -9   10  -28    2   -4   15  -14   28  -38  -15   -2   12   -9   -4   -4   14  -15    1   36  -13  -16  -14  -11  -23  -21   -8    9   -7   -2   -8   -6  -16  -13   26   -7    6  -20   -1    0  -14    5  -10    2    4  -10   18   -4    6  -19    1   -5   -4   19    0    3    5  -26    5  -18  -10    5   11   -5   10   14   12   -5   -1    3  -10    7   13   15  -12   17   25   10  -28    8    5    3  -17  -12    4    1   12   30  -15   13   15    0    5    2    0   -4    3   31    2  -11    3    6   14    5  -20   -4    1    6   -2   -7    8    1   16   -4   -2  -19    6    3   -3   17  -22    9  -30   15  -17    1   11    6   -9    9   -9   30  -13   17   15   14    6    3    9   10   37    3   43    8   -4   -4  -26    6    5  -12   29    2   14  -12   20    1   -4   15   -7   -9   -7   -3  -11    0   -4   19  -13   33  -13   19   15    8    4   -4   28    8  -13   -3   11   11   -5  -21   21   12    5  -14  -19  -10    9   17   40   19   -2   -3   15   -2   17  -14   23  -20    9  -27   11   21  -24  -18   30   16  -12  -21  -11   25  -27    4  -26   26   -7   -6   20   -9    6    2    7  -15   11   -7   14    2   -2    8   20   29  -20   30  -13   17   -5    9    7   -4  -19  -23    2  -29   23    2   12   34   -2   12   14    4  -11  -17  -15  -21  -15    1  -23    1    7    8  -15  -10  -14   -2   -7    0  -16    3    5    7    4    2    3  -26  -12  -17   -9  -15  -38   25  -12    4  -23    5  -11   14   31   29   11  -31    8  -25   22  -14    7  -20   38   42    4   10   16   27    8    4   -3   -9  -21  -17  -13    4    7   -3   -5    6   -2   29  -13   -9    2   56   13   -4    2   15  -18   20  -14   16   11    6  -20   29    3    8    8   -3    9   -7   -1   12   13  -14    8   13   14   -2   -1    4  -28   23   12   -7   41   12   -1   22  -27    5   -3    7  -18    8   22   -2    1   11    4   12    8    4  -15   18   26   41  -13   -6    0   15    0   12    3   11  -12    1   -7   12    9   -6   11   33    1  -10  -23    9    3   21   -9    5   16   23  -19  -22  -10  -11    9   12   -3   21   34   -3  -14   -1    5   30   -7   33   18  -12    8    6    1    9   -7   10   -2   17  -29   -5  -31   -4  -10  -23    5    3  -23   -5    8   10    3  -18    0    5   -7   -9    1  -58   42   10   -9    0
  10  -15  -15   -8  -19   17   43   10   -1   23    2   -5   32   32    4  -13   -3  -16   56    3   -3   28    8  -17   20   20   -2  -13  -24   -1   -4   -6    4   28  -28    3    5  -31   15   16   -6  -45   33  -12   14   14   10   12   19   -6  -44  -22    1   -7  -14  -55   10   40  -30   14   10   50    7   19  -12   43   30   36    8    1    7   -9  -45  -27    7   37  -15   13  -18  -19  -18  -20  -27   68  -22   23   35  -28  -18    2   -1    6  -29    3   31   25   39    4  -12   25    6   12  -10   88  -30  -11   -7   19   23    1  -19  -13  -17  -11   39  -38    9    2   14   34   -6  -12   -4  -33  -26   14  -26    1   15  -39   -8  -19   22  -17   -2  -15   -2    8   19  -28   -2   23  -26  -31  -17   -6   -7  -12    2   26  -15   47   -5  -42  -39   50   40   -3   16  -36   61  -16    9    0   19   16    5  -22  -21  -18   -7  -13   -2   15   19  -32   21    9   18  -33   25    0   14   -3   15   -8   16   11  -16   40   48   41  -12   -3  -29    4  -39  -12  -47    0   25  -24  -13  -13   -5  -20  -11  -35   15   29    0   -5  -12  -25   27  -11   -6  -28    4   -9  -21   29    4   27   20    9  -28  -18   -1   -2    9    7   -1    9   33   -2  -32  -31   -2   64  -12  -12   -2   35    8    6  -51  -35   36   18  -27   -1  -28   -3  -27  -13   -4    9  -30   11   25   17  -22  -42    6   14  -18   47   27  -11  -34  -57   -4   23  -13   -1   15   10  -45  -10   19   18  -27  -20   11    2  -20   19   45   -2   -2  -17   15    9  -16  -36   -7  -13  -22  -33  -62  -16   -2   -2   27   29   43    8  -14    5    3  -18  -12    2  -19   -5   50  -28   21  -20   31    6   11  -10  -27  -53  -36   33    7  -24  -35  -25  -27   -2  -11   -1   -4  -11   23  -36   41  -19  -22   11   10  -16  -23   15   -9  -29  -22    0    9   -5    4  -30   -1  -10  -21   17   36   11   12  -18   -4   12   25  -28   -8    4   -7  -18  -11   -7   -1   -4   38   22  -17    5  -34   11   51   26  -14   15  -10   -4   -4    9    9   12   24  -41  -11  -26   25   35    2    2  -23  -18  -25   15  -18  -33   -3   -6   15  -48  -14   16   10   -3    9    8  -14   25    4   17   20  -15  -14   15   26   14   27   -7  -19    4   33   21   12  -57   47   -9   35   10  -11    9    2   26   40  -30  -13   26  -26  -24    5   27   17  -18   -6  -16   37   10  -23   30   -5   -3  -55   30   -1   48    4  -24  -13    1  -21  -16   22    5   37   -3   -1  -30  -44   -4  -74   31  -30  -28   -3    3   48   21   -9   13    9  -29   -5   16   24   28  -28  -31   -1  -10    2    3   -4   14  -20   28   -7   -3   -2  -25    0  -45   22  -36   -6  -22    3   -3   10   -4   -8  -27   -2  -12   26   21  -10  -35   47   16   -2  -43  -14   -1   18   -8   62   18    4   16  -20    7  -23   -7  -27   16  -43   22  -20   12   35   -4   30  -14  -34   22   -1   -5   -7  -35    5   21  -21   10    3   21  -33   -2  -10   40   -3  -31  -10  -60  -16  -14    3   -2
  33  -48  -56  -26  -25   53   10   -6   -8  -21   14   34  -46  -45    6   15    9  -52   21  -53   21    4   26   32   -9  -63  -32   10    4    0    3  -19  -45  -27  -40   19  -47   -7  -13  -13  -18   -2   16    1   29   11  -14  -12   44  -24   -2   17   51    8    9   77   -3   28  -31  -46  -18   24   12    1  -61  -35  -32   19   16  -10    4  -35  -31  -11   28  -42   21  -29  -41   -6   14   29  -27   -5   13   -2   13   28  -48    0   -8   31   31   10   50    2   43  -31   22  -23    9    4   39  -15  -18    9   -9   31   -8   26   -2  -28   27   20    4  -23    5   -5    4   -2   17  -23    5  -32   26    9   20   -8   -4    0    9  -44  -19    6  -12  -24    5  -39   27   60  -20    2   -1   10  -26  -30    6   61   38    7  -37   -4   18   41  -14   17   18   23  -18   13    1   26   -5    0    7  -19   10   29  -15   -2   -4   19   -5   24   13   -6   22   -5  -20  -66   10   17  -69    1   13   -2    9   14  -16  -23   30   -6    3  -26    9   41  -21  -45    4   15    5  -42  -18   15   -5   16   35  -17   -6  -39  -10    1   -5   11   -6    9    0   24    3  -13  -16  -16    9   54  -36  -29   19  -46  -25   40   -7  -21   -4  -11  -22   -2    5  -44  -27   -9    6  -22   -6   10   68   19    3  -44   17   46  -12  -13  -14   -5   -7   14  -18   -7  -38    0    3   12  -18   15  -35  -11   69   27   19   10    0  -35   -1   23   -8    2  -30  -27  -29   23   -1   15  -51   12  -13   22   58   22  -11   -3  -21  -11    2   -8  -14    6   32   50    6   -3  -14    1   -4  -15  -11   10   -4  -32  -68   20    3  -54   -4  -17  -67   17    1  -10  -15   17   10  -29  -24  -43    7  -42  -26   39   -8  -13   16  -47  -30  -19   36    6   31   21  -28  -18   20   -3  -31  -10  -21  -16   51  -30   60  -22   10  -25   -3   32   12   65   -5  -16  -29  -35    3  -82  -24  -25  -19   10  -10   -2  -19   -2  -17  -14   -7   21  -29   17   39   19    7   53  -12  -14    3    7  -32  -34  -20   -8  -31  -22  -18  -23  -51  -45   45  -10   -7   -8  -21  -47   13  -16    8  -11  -11   16   34   19  -20   68  -78   17   54   12   34   28   18    0   13   46   17  -19   -4  -18  -24   30  -34   11   38  -12  -26   11   11  -20   27   31   14   -1  -34  -22   10  -31   25   26   -1   -4   18   30   45  -31   15   35   27  -28  -33   -1  -20   17   14  -23  -35   19   -8  -16   -8  -10  -25   16   11  -18   -8   -7   -6  -16   17  -25   -8   -1  -18   13   18   -1   -7  -25   23   -2   16   -1  -50  -32   17   23  -31  -58   22   40  -10   -7  -29   -5   12    0  -69   33   -3  -19  -22  -20  -36  -28   11   40   12  -16  -26  -27  -32  -12   26    2   16   -2   -1   34  -43  -32   18   11  -31   -5   -7  -22  -26   16    6  -29    5  -26    1   53  -17   32   69   60  -68   -8   29    0    0    4   -3  -19  -14  -15  -44    3    9  -61    2   13   22    5  -26  -14  -49   20   27   34   -3   10  -14   -4    0  -16    6   -1
  16   42   11   -3    2   12  -41  -32    5    4   20   34   13  -12  -30  -15   -6   14  -28   12    0    9    9   -4   11   18  -25   -6   27  -30   -6   33   17  -29   11   -8    3   22  -18  -30  -27  -17   26   12   29   19    5  -29    3   17  -14   27   -3   45   -5   43   49   11  -27  -11    3    3  -21   17   -4    0  -47   -9    7   -1   -4   16  -54   -9  -22   -3  -12   15   14  -45  -30  -18    4   29  -15    9   20   -9   35    2   -2   -4  -29   20    3   14    0    3  -27    1    5    6   -6    7  -15    5  -59   41   -7   22    0  -33  -19   12  -14   -9   32   -2    9   -2  -29  -11    0  -10   13  -14  -11    4   -7   11   24   -7  -13    5   39   22   32  -18    1    4   -3   -8  -10    6    9    3   28   -4   -2   -5    0    9    1   -5    4   29  -27   44   24   28   -3  -17   -1    0    7   10   36   -3  -33  -14  -16   -6  -14  -12   42   16   24   -6   11   -1    9    3   27   16   27   21  -27    9   -6  -49   34   -7   -6  -14   -2    2   18  -21    7   -3   -4   21   27  -16   -8   19   27   14    6  -23    2    4  -17    5   -1  -32  -12    2    4   12   27   10   13  -15  -16  -12   25   -7  -17  -23   11   15    0   -3  -25    0   -2   -5   21   -8    1   19   -7   19   20   11   19   12  -40   18    9   28  -22  -13   -1   13   10  -21   -4  -12    4  -11   12    1   26  -17    3   15    9   15   -1   -2   -6  -11   10   22  -20   -3    4    3   -7   17   27   -1   -6   26  -42   -1  -18  -26    0  -11   10   13   -6   -8  -16   -6   -5   11   -1   53   17   -8   -5    3    0   -6  -14  -12   14   26   30   -4  -19   -1  -19  -11   22  -16   13   21   -6   32   -4  -25  -11  -29   12   17  -18   15   48   24   -8  -11    9   30  -25  -15    0   -5  -29  -10   -3    7  -21   -6   35    2  -13   24    8  -21  -15  -49   -4   23  -19  -34  -13  -31   25   16   -1   11  -19    3   38    2  -11  -13  -37   18  -24   12    8  -25    3    6   17   25    3   16  -24   19   10   -5   -2   -8   22    1   -7   -2   24  -20  -15   30  -11  -17   11  -15   10  -27   -7   27   25    9   12   31  -14   17  -28   37   12   17    3    7    5  -55   39    0   21   -6   16   16   27   -6  -35   -5  -30  -23   -8   -3   12   35  -31   19   23   25  -32  -22  -15  -27  -12   12    0    2    6    7   -1   -2    2  -17  -12   -8   30  -10    5    9  -17   -1   -4   19    7   15    6   13  -19   15    4   23    3   -7   16   18  -21   16   40  -18  -35   15  -27    2   -1   79    4    1  -50  -14   19    8   30    4   -5   -1   10   13  -14   17   -6    4    2  -22   20   -2   20    2  -11   14   -6   -4    4  -11   18   13  -18  -22   -4   -2  -15    4  -38  -27   29   -7   -8  -14   15   34  -19   13  -12   18   -7   14  -13   13   -5   31    8   10    9  -15   18   14   17  -13  -16  -39   14    3   42   -3   -2   17  -12    9   -3  -15   11   -2   49    7   16   24  -19  -14  -10   48   24   35   41  -10  -16   30
 -11   20   17   40    9   26    7   54  -17   18  -12   19  -18  -19   17    2   -9  -22    5    9  -30    1   26   -4   45  -39  -22  -16  -16  -34   12   26  -26   12  -31  -30  -21  -33  -47    7   13   -4   47   -6   39  -51  -12  -21  -30    7    6    1   33  -22    2   -2  -23    0  -35   -7    3  -20  -13  -10  -16   -2  -18    6   -1    0   15  -17    4   63  -26  -32   -9  -17   28   30    6   -5   51   27   32    5   32   11  -18   -3   -1  -18  -15  -16   35  -32   32  -18  -28    5  -10   22  -42    0   39   16    1  -34  -29   -7  -29    9   -9  -26  -12   41    1    2   38   24  -24  -23   21   -7  -26   17   29    0   19   11   -4    0   11   53   -8    8    8   -2    7  -37  -17   16    2  -41    7   32   -8   11   37   -1    2  -37   10   19    8    1   -3  -52  -28   10   60    6   -9    0    5   41   26   17   12   -6  -13  -67  -26    2   -2   12  -32  -38    0   18   15   -4    1  -24    4   45   47   -7  -35   28   44    2   -1  -16    4  -18    3   22   36   24    2   36   17   10   27   21  -34  -19   16  -29   15    6  -11   29   61   36   18    7    2    6   -6   25   59   46   15   -4  -14    2   42  -27    2  -12   -4   51   -2   -1  -18   -3   38    0  -12   -8   29   31    8  -22  -32    6  -39   -5   11    7   -5  -30  -26   -5  -16    6   -1    2    7  -37   10   30    5  -33   10   24   18   10   -8  -51    0   50   49   17   16  -14  -51   -2  -34   13   20   -4  -32   22   29   20    3  -21    2   34  -53   25  -39    6   17  -26  -14  -28   17   12  -22   11    6  -20   16   10   37    5    5    6  -28  -29   26   -4   17    4  -15   -2  -13  -58  -13    2   -5  -17  -15  -42    2   61   19   47   26   -4   13   15    6   -3  -37    0  -15   -3    3   -1   28  -18   16   -7  -68  -34    3  -30  -35   29   -7   37   16   23    3    6   47  -34  -27  -26    6    0   47   35  -34    3   -3   28   32   15  -10   27  -10   10   -5   -3   14   17    4  -30    5  -43   57  -35   12   14   30   -5  -59   34    1   10    9   -2    0  -31    3  -10  -31   -8   22   16  -27   35   -3    1   18  -70    9  -25  -17   -6   30  -24  -11   17   17  -17    0    0   28  -33   -2   27   40   17  -13  -21   37  -32   -7  -65   44   -2  -61   17    8   19   -4  -12   11   37  -54    1   14  -19  -18   21   11  -20    3   36   -4   27   37    0  -22   -6   13   -1   -9   17  -14    9   25  -10   -8    3   12  -42    6  -20  -16  -14   12    6  -39   14   12   16   30   -2    6    4    1    4  -11  -33    1   15   24   -7  -17  -10    5   32   25   36   37   30  -29   25  -36   11   38   22   50   17    2  -12    3  -35   -7  -17   36   40  -25  -18  -16   -4   -8    6   30   -7   31   16   11  -32    5   27    6  -35    1   -5    2   21  -10  -52  -30   20    5    6  -51  -32  -17  -10  -13   -8  -27    8    5  -23  -46  -18   -4  -17    8   25   64  -46    3   -1   52   26  -38   -4  -39  -15   24    1   57   37
   1   54   10    4   10  -15  -30   58   45    0   -5   12    3  -36   46   28   34  -20    4   -7  -24  -12  -14   -1  -36    1  -18  -16    6  -11   17  -28    2   74    7   -1   24   31    3   -9   11   -4   34   18   10  -10   -2   25  -21  -27   28   32   11   38  -11   41  -20   -5   27   -3   35   11  -30    2   23   -4  -22  -15  -11   -8   -1  -32  -29  -17  -12  -39    1    9    0   -3  -38    2  -63   -2   29  -14   39    7  -14    2    4  -15   14   27  -34   50   -8  -28   -1  -26   -9  -25   38   -8   21   37   18   10  -23   12  -31   29    0   -3   28   21    7    2   -5   54   -1   14  -16   -2    5   36   -4   14   19   13   -4  -31  -19    7   14  -14  -11   12   -8    1    7   -3  -37    9   -2   14    4  -36   34   -6   37  -23   -8  -11   39   44    5   30   13    7    9  -13  -12   -2   -1   11  -31   23   10    1   26   26  -18    3   19   20   -2   21   21   27    3  -23   -3  -29  -25    4  -21    5   -8   16  -24    2  -23    3   -4   -2    4   29   20  -14   -7   16    1  -13  -21    5   18   18  -26  -40  -33  -12   25   -2   -9   28   -8   14  -18   17   20   -9   31    3  -22   13  -13   15   13    8   23   46    0    6   30    3  -22  -34    0   16   27   12   -7    7   13   -6  -31   13   28  -10   -5  -28    2   -1   17   -1  -41    5    1   10  -31   -5   35  -27  -35   -6   27    3   15  -49   12    1   28  -12   30    0   -4   10   11    2   17   -3   14   10   43  -17   30    4   44   18  -23   -5  -22    8  -10   -7    1   34  -11  -26   24   -9  -16   -9    8  -37   31    4   -4  -20   23  -14    0   32  -27    4  -18   22  -32    7  -38   10   -1   36  -25  -16  -16  -14    5    2   -5    2   16  -10    4  -33   -9   21   34  -21    6   52   18  -13  -26  -12   30  -31   36   39   -1  -44   20   16  -20  -15   40  -38   24   35   -1  -46   -3  -15  -13   29   33    0   15    2   45   -1   -1   46   -5    2   56  -33    5   34   21  -11   32   43  -24  -42  -11    8   49   -2  -14   -1    5   37    6   20  -11   29  -12  -29  -12   -8  -15   -9  -17  -29    8   37  -20   28   18  -13   -6   26    6   26    2   11   21  -20   -8    6   -6   23  -12   15    3  -45   12    2   18  -21   32   31  -38   10   -6  -23  -34  -17   16    4    5  -17   35    8   33   22   -7  -32   38   32   58  -29  -17   10  -36   32    9    7   17    0  -14   21  -45    7   15  -10   -4   28    2    7  -18   24  -20  -40  -22   -3   18   -5  -27   30    9    0  -17   15   23   -6   57  -50    7    7   25   -9    1   25    4    6    8   -6    8   32  -27  -14   16  -19   13    2  -18  -32  -31   -3  -15    4  -11  -26    7    5  -10  -39  -19  -21   36  -49   12   25   -7   47  -10   19   13   23  -19   43   15  -27    2    3  -28   -4  -30  -46   -8    4    5  -26   -5  -58  -40    2   -2    8   26    6   -7   17   23   -7  -18   12  -25  -19   16   31   44   17   13  -13   13   24   28    9   33    3  -25  -25
