  -4   -6   -4   -7  -11   -8   -4   -9   -6
  -4   34  -12  -40   31   14  -35   -8   25
  -7  -14  -11  -13  -16  -14   -9  -14   -9
   0   -9   -8  -10  -25  -15   -9  -19  -11
  -5  -12   -7  -10  -18  -13   -7  -12  -10
  15   23   20    2   14   18  -26  -35  -23
  -3   -6   -3   -5  -10   -7   -3   -7   -5
   2    5    3    5   10    6    3    6    3
  -4   -8   -7   -8  -16  -12   -5  -12   -8
   1  -13  -18   -8  -19  -17  -13  -15   -4
   7   14    9    6   19   18    0    8   11
   6   13    5   11   20   14    7   11    9
  -3  -14   -3  -12  -13    1  -10    2    6
 -12  -12   -3    5   18   18   18   40   31
 -13  -13   -5  -14  -21  -16   -5  -15  -16
   3    7    7    6   16   12    3    9    8
   2    6    4    5   11    7    3    8    4
   2    3    2    4    9    6    3    7    5
  -6  -10   -8  -12  -15  -12   -8  -12   -9
   5   13    7   13   25   13   10   16    8
  -5   -8   -6  -13  -20  -14   -8  -14  -10
  -4   -8   -5   -8  -18  -12   -6  -13   -7
  -4   -7   -5   -7  -14  -10   -5   -9   -5
   0    9    9    6   17   13    6   10    6
   2    4    2    5    9    6    4    7    4
  15    8  -33   21   16  -39   17   11  -35
 -26   -8   37   -1  -42   49   21  -43    6
  -3   -5   -3   -6  -11   -6   -4   -6   -2
   4   13   11   12   28   23    9   22   19
   6   10    7   11   22   17    9   16   12
  -2   -7   -5   -5  -14   -9   -4   -8   -4
  -4  -13  -11  -12  -21  -17  -12  -16   -8
 -18   -6   15  -25   -4   25  -17    2   20
   4    8    5    8   15   11    5    9    6
   3    8    7    8   22   13    6   14    9
   2    8    6    7   17   14    6   12    9
   2    5    3    5   10    7    3    7    5
  -2   -5   -4   -6  -12   -8   -4   -7   -5
  -2   -6   -5   -6  -13  -11   -3   -9   -8
   0    8    8    7   17   12    7   12    5
  -5  -14  -15  -16  -26  -20  -16  -20  -10
  -7  -13   -8  -15  -28  -18   -9  -16  -11
   4   11    7   10   28   20    7   19   15
  -5   -5    0  -10  -12   -3   -6   -9   -3
   3    6    4    7   15    9    5   10    7
  -4   -9   -6   -8  -15  -11   -6  -10   -7
  -2   -6   -3   -7  -16  -12   -4  -12  -10
  -3   -8   -6   -8  -15  -11   -5   -9   -6
  11   15   15    4    7   12  -17  -26  -14
   3    6    4    6   12    7    2    5    4
   1    4    4    3   11   10    3    8    8
  -4   -8   -4  -16  -22  -15   -9  -16  -11
  -8  -17  -11  -20  -28  -19  -13  -19  -13
   6   12    7   11   23   16    6   14   10
   3    5    3    4   10    7    2    6    6
  11    9  -16   18   10  -27   15    5  -19
   3    6    4    6   14    9    3    8    6
  -4   -8   -5   -8  -16   -9   -4  -10   -5
   3    6    4    5   11    7    2    5    4
  16    9  -23   26   10  -39   25    4  -29
  -5  -11   -6   -5  -13  -11   -1   -9  -11
   3    6    4    7   13    8    3    7    3
   8   -2   -2   47  126   94  -63 -118  -66
  31   73   47  -30  -67  -38   -5   -4   -4
   0    4    8    1   10   13   -1    4    5
  -5  -13  -10  -14  -23  -18  -11  -18  -13
   3    7    6    6   15   10    4   11    7
   0   -3   -4   -7  -11  -11   -6  -11   -8
   2    7    5    8   15   10    6   10    7
   5    8    6    9   19   14    6   14    8
  -1   -8   -4   -5  -27  -21   -2  -20  -17
   1    5    5    4   12   10    2    6    5
   3    6    5    5   12    9    2    7    5
   2    8    6    9   19   14    7   14   10
  18   34   26   33   46   34   27   38   26
   3    6    4    7   15   10    6   12    8
  -2   -9   -6   -6  -15  -12   -4  -11   -9
  -6  -11   -8  -12  -17  -13   -9  -16  -11
  13   29   19   25   55   46   20   44   36
  10   17   12  -13   -9    5  -21  -35  -19
  -5  -11   -8  -12  -23  -16  -10  -16  -10
  23   13  -23   43  -12  -16   17  -41   -5
  27   31   18  -28    0   39  -20  -39  -37
  10   12    6   17   25   16   11   18   12
  -6  -11   -5  -11  -20  -14   -6  -12   -9
   7    6   -1   12   18   12    4   16   18
   2    5    4    5   11    8    3    7    6
   2    7    6    7   18   13    8   17   12
   4    8    5    8   15    9    5   10    6
   7   15   10   12   29   23    8   19   16
   4   12    9   10   20   13    7   12    5
  -3   -6   -5   -7  -11   -9   -4   -8   -6
  -3  -10   -5  -10  -22  -16   -6  -16  -14
   6   13    6   11   20   13    7   10    8
   5   10    6   10   20   15    6   15   11
  -6  -32   24  -11  -65   59  -12  -38   56
  -5   -8   -7   -9  -13  -11   -8  -11   -8
 -32  -24   16  -30   -2   34   12   31   36
 -16  -25  -20   -6   -4    5   13   29   30
  -4   -7   -4   -7  -14   -9   -3   -8   -6
 -10  -19  -16  -11  -13   -5   14   24   23
  24  -29   -7   12  -54   35  -25  -26   50
  -7  -13  -10  -13  -19  -15   -9  -16  -11
   3    7    5    7   16   11    3   10    8
   7   17   14   14   28   23    9   21   17
   5   10    7    7   14   11    1    5    5
  -9  -18  -22  -17   -3   12   18   22   11
 -37  -16   57  -28  -59   10   39  -20  -75
 -19  -25  -11  -25  -17    7    3   22   24
   3    5    5    5   12   10    3    7    6
  32   23  -28   45   11  -49   24  -11  -35
  -5  -11   -6  -11  -20  -14   -7  -14  -10
   4    9    7    6   16   13    4   11    9
  -4   -8   -6   -8  -13  -10   -5   -9   -7
 -17    8   22  -37   17   40  -32    7   35
  45  -13  -17   82  -58  -20   35  -54   -1
   3    6    5    7   16   11    5   10    8
  -3   -6   -6   -6  -11   -9   -5   -8   -4
  11    1  -20   24    7  -34   22   13  -18
  -4   -7   -5   -9  -18  -10   -6  -11   -6
  18    2  -30   31   12  -47   21   14  -29
  -5   -8   -5   -8  -11   -9   -4   -8   -8
  -4  -22  -16  -29  -17   15    5   32   37
   2    4    3    4   10    7    2    7    5
  -3   -7   -4   -5  -11   -7   -3   -7   -5
   1    7    7    7   18   12    5   11    7
  -6  -13   -8  -11  -15  -11   -7  -11   -9
   5   18   14   -8    2   13  -17  -22   -5
   3    8    7    9   18   13    7   14    8
 -10  -14   -5  -12  -21  -15   -4  -15  -15
   1    3    2    4    8    5    3    6    4
 -22  -32  -20    0   -5   -5   25   39   25
   2    4    1    4    8    4    3    6    3
 -13  -24  -18  -14  -12    7    8   23   26
  -4  -11   -7   -7  -14  -13   -4  -12  -10
 -14   -5   18  -25  -13   37  -20  -11   25
  -2   -5   -5   -7  -13  -10   -6  -10   -5
   9   18   13    7   19   13   -2   -1    0
   0    3    2    2    8    6    2    7    6
   8   12    6   12   19   12    6   12    7
   9   15   16    4   11   15  -18  -28  -13
   2    6    4    7   15   10    5   11    8
   4    6    4    5   12    9    0    6    7
   4    7    4    6   13    9    3    8    6
