   1    0   -5   14   11  -23   -1   -1  -10
   6   41   15    2  -32   -2   -1   -7   -5
  -2    0   -2    4   25   10   -2    9    1
   1   -1    0   -7  -16  -16   -6    0   -7
   5    4    3    4   39   12    5    8    3
  -4   -3   -5   -5  -11   -9   -4   -9   -5
  -1  -23   -5   -7   32    2   -1   12    2
  -7   -4   -5    0  -20   -7   -9   -4   -7
   1    5    2    7  -25   -4    0   -9   -6
   6   17    7   -1  -19   -5   -5  -26  -10
  -3    6   -1    8  -91   -3    4  -11    5
   2   -6  -12   -7   -7   -6   -8   -8    2
  -4  -11   -8  -10   -4   -8   -5   -8   -6
   0    3   16   -5  -19   37    3   19   24
   7   23   10   13  -16   15   -2  -11   -2
  -1   -7   -4   25   47  -10   -5  -11   -2
   4    3    3    0   37    9    0   -4   -2
   1   -6    1   -8   39    0    1    5    2
   0   -3   -7   10   10  -25    3    1   -6
  -6   -5    4  -22    8   27   -7    1   17
   2   -1    3    1   37    8    2   12    6
   0    0   -1   -3   37    4   -1    5   -1
   9   15  -30   -9   34   22    4  -10    9
  -9   -8  -11   -8  -10  -10   -8   -5  -11
   6   -9    4    3   40   13    5  -15    0
   0   12   -5   12   57   11   -6   14    1
   0   46    5   -2  -11   -5   -2   -5   -3
   5   -2    3   -2   42    7    4    6    5
  -4  -11   -5  -14  -10  -16   -4  -11   -5
  -1   -8    4  -11   13   41    1   -7    1
   7  -23    7   13  -36   16   10  -28    7
  -9   -6    8   -3  -11   47   -6  -14    8
  -1    1   -1   -1   41    8   -1    6   -1
  -2   12    0   19  -56    6   -1   19    3
   2   -5    1    2   37    8    1   10    3
   0   -2    1  -11  -30  -15   -4   -2   -4
  -1   -5   -3   -1   34    6   -2    8    0
 -13    2   14  -21   -3   16   -1   -3   -4
   0    1    2   -1   35    8    3   12    6
   9   -2    8    3   32   10    1   11    2
   2   -4    0   -4   42    6   -1    3    0
 -13   -2    2  -21   12   16  -10    0    3
  -1   -6   -2  -11  -48  -23    2   77   12
  -4   -8   -8    1  -16   -6   -5   -4   -5
  -2   -9   -2  -12   41    0   -2   -4    0
  -8  -23  -12   -2    9   -1    2    2    1
   2    5    0    1   39    6    3   -3    4
  -7  -22  -10   -8   16   -5   -4   -5   -4
  -6   -9  -12    2   -9  -14   -6   -9  -10
   6    1    5    8   29   11    5   13    8
   2   -7    1  -19   76   -6    0  -13   -1
   3   21    9   -7   30   -3    0  -14   -2
   2   -5   -5   -1    6   36    1   -3   17
   2   10    3   -1   41    7    3    5    4
   5   12    6   -7   61   14    7    6    4
   0   -2   -3    9  -37   -5   -1  -10   -6
  -4  -23  -10   -2   51   10    0  -12   -3
   2   -3    3   -5   43    7    1    7    4
  12   -5   -6   44   -8    0   15  -12   -4
   3   -9   -2   11  -55   -1    5  -16    3
   4   -3    3   -3   43   10    1   12    5
  -4   -5   -6    0  -11   -3   -2  -10   -4
  -2    2   -2    1  -32   -9   -4  -12   -6
  -2    9    7  -11   21    4   -6  -13   -6
   1    3    1    2   41    9    2    7    3
   3   -1   -2   23   11  -22   15  -13   -9
   5   29   12   -5    2   -5    1   -3    1
  -2  -13   -4   -3  -16  -10    5   50   11
   1    1    2   -2   37    7    1    8    5
   3  -11    1   -2  -41  -12    2  -15   -1
  -2    5    6   27    8   -2   12    3    0
  -1   -2    4   -1   33    6    3    3    1
   1    3    0   -4  -85  -14   -4   -5   -5
  -5   -7   -7   -2  -13   -2   -7  -12   -9
  -8    1   -8    2  -19   -4   -7   -2   -6
  -5    6   -4   -5    4   -5    1   39    9
  14   20    4   -4   21   25    3    0   21
   2   -2    2   -3   38    7    1   11    6
  -3   -7   -4   -3  -17   -9   -2    5    0
   4  -10   -1   -1   76   27   -8   29   -2
   1   -1    1   -2   36    6    5   10    8
  -2    1    3    2   41   13    6    4   -1
   7   -6    1   15   33  -11  -33   22    8
   6   12    1   13   15  -16    9   11    4
   0  -16   -2   -4   36   10   -2   12    2
  -1   -2    1   -4   45   10   -1    2    0
 -10   -4  -12   -4   -8   -4  -10   -1  -11
  -6   -7   -7   -5  -13   -8  -10  -13  -11
   0   -1    2    2   27   11    0   10    4
  -1   -1   -1   -5   44    4    0    9    4
  -4    6   -2   16   44    4    6    4    4
   3   -2    2   -3   38    8    2    2    4
  -2   -4   -2   -4   39    5   -1    5   -1
   2   10    4   -6   45    4   -1  -13   -5
   0    3    6   -5   37   10    5   -2   -1
  -3   -6   -5   -6    2   -6   -5   -7   -6
   7   -8   -1   29    5  -24   -2    3   -2
   4   -9    3    4   -7    1    8   30   13
   2   -6    1   -2   34    3    2    7    2
   0   -3    0   -4   38    5    0    3   -1
   4   -5    2    1   51    8    4   -2    3
   6   49   13   -2  -34  -10    0  -15   -6
  -1   -4   -2  -10   -9  -12   -9   -8  -10
  -3   -6    0   -5  -19   -7    0   -6   -6
   1    8    5   -1   36    4   -3   -3   -2
  -3   -8   -3   -6  -21  -11   -4  -10   -4
  -4   -9   -3   -5  -12   -7   -1   -7   -3
   3    5    3   -1   40    5    2   -2    2
   0   -2    0    0   33    8    1    5    3
  -2  -11   -4   -7  -23  -11   -6  -12   -7
  -1    6    0   -5  -23   -6    0   -9   -2
   4   -7    3   -5   33    1    5    5    6
   9  -11    8  -10  -99  -32    0  -21   13
   0   16    4    9  -26  -11    0   -9   -5
   3    8    3    9   59   13    0   13   -1
  -7  -12  -13   -1  -23   -8    7   38   19
   1   -3    1   -4   36    3    2    3    0
  -5   -1   -6   -5  -11   -6   -7   -8   -9
   3  -11    1  -24  -30  -26   -1   21    4
   3   -4   -8   23   -7  -22    6    9    0
 -20   -1   16   21   36   -4    6   -9    0
  -2   -9   -4   -6  -18   -9   -3   -5   -4
  -3   -9   -3   -4  -26   -6   -1   -9   -3
   2   -2   -2   -4   44    5   -5   10   -3
  -3  -22   -7  -10   35   -2   -4   13   -1
   5    7   -3   30  -34   -6   11   -8    0
   1   20    4    0  -23   -5   -5   -8   -6
  15    1   -3   29    6  -21   -2  -13   -2
   9    1   -3   27  -23    0   22    6   -5
  -1    0   -1    2  -26   -5   -1   -6   -3
   7    5    6   15  -25   11    4   11    7
  -1   -5    0   -1   29    8    1   11    3
   2   -7   -2   -4   51   13    2   11    6
  -8   -6    0  -22   17   17   -5    1    2
  -5    0   -5   -7  -10   -8   -3  -13   -9
   1   -1   -3   23   10  -26    4   -2   -1
   7   18    8    5  -25   -7   -1  -14   -8
   0    0   -2   -3  -23   -9   -3   -8   -6
   0    0    1   -4   36    7    0    0   -1
   0   -2    2   -3   44   11    0    3    2
  -5   -7   -7   -7   -9   -9   -8  -11  -13
  -7   -6  -10   -9   -5   -9   -8   -6  -10
   0   -5   -2   -5   34    6   -1    8   -1
   4   -2    5    0   52   12    2    9    0
 -10   -7    2   -5   -9   -7    3   -5  -10
   0   25    3    4   -8    0   -3  -14   -5
   1   -5   -1   -6   48    2    2    0    0
   1   -5   10   -7   24   18    4    9   12
   3    7    6    5   30   16   -3   -7   -3
  -3   -6   -4   -4   40    6   -1    6    1
  -4   -2   -8   -6  -13   -8   -3  -10   -4
  -2  -11   -4   -1   20    4    4   20    9
  -5  -10   -5   -5  -15  -10   -6   -6   -7
   5   -3    4   -3   39    8    1    3    2
   4    0    0    8   10   30    4    0    7
   5    0   -1    3   45   -6   -2    2    1
   3  -16    5   23  -50   23    4   -8    6
   1   -9   -3   -5  -31  -10    0  -14   -1
  -2   -5   -2   -9   -6  -11   -1   -8   -2
   2   -7    2   -1  -47   -7    3  -14   -1
   6   -6   -1   37   -8   -6   10  -11   -1
   0   -2    1   -1  -39   -5    1   -6    0
   7    6    1   13   28   -9    0   -9    0
  -2    2    0   -1  -35   -7   -3  -14   -5
  -8  -16    9  -19  -16   28  -11   -9    8
   0  -19   -2   -6  100    4    8   -5  -16
   0   -6    0   -6   38    4    1    6    3
   1    0   -2   17   12  -28    7    2  -11
  -1    8    0   -3   48    5    4   -1    2
  -3  -11   -6   -8   -8   -8   -3   -9   -5
   3   -2    4    3   44   13    1  -10   -1
   1   -9    1   -8   61    2    1    2    2
   0   -4   -1   -8   52    4    1   -1    2
  -3   -7   -6  -12   12  -14   -8  -16  -12
  -4   -6   -5   -6   -7   -7   -6   -5  -10
   7  -10    4   -7   36    2    1   17    5
   1   13    3    7  -32   -1   -1   -8   -3
   4    5    4   -8  -18  -14    9   40   15
   1   -2    1   -2   36    4    1    1    1
   2   25   19   23    9  -17   22   -9   -2
   0   -4   -1   -3   38    7    1    6    5
   1   -4    1  -15    5   20   -7   -8   22
  -4  -13   -6   -8  -13  -10   -7   -9   -8
  -2   -7    0   -9  -38  -12    0  -11   -1
  -2    6    0   11   43   21   -1   12   -3
   0   -5   -1   -7   45    0   -2    5   -3
  10   38   19    3  -14    0   -1    0   -1
   2   -7    1    0   34    7    1    9    4
  -2   -5   -4   -2   24    6    2   14    5
   0   -5   -1   -4   49    8    3    8    4
   0   -6   -1   -7   40    1    4    6    5
  -2   -6    2  -13   47    8   -2    2    2
  -7   -1   -5   -4   -8   -5   -9   -8  -14
   0    1   -1    7   23   13    0   10    4
  -4   -2   -5   -1  -17   -8   -4   -8   -4
  -1   -6   -2   -4   36    4    0    4    0
  -2   -1   -2   -3  -18   -9   -2   -9   -5
  -5   -3   -5   -4  -11   -8   -6   -6   -8
   2   -3    1   -2   37   13    1   12    4
  -3    3   -3   -2  -40   -8   -4  -10   -6
  -4   -4   -5   -3  -13   -5   -8   -4   -7
  -8  -17  -11   -5  -17  -10    9   30   13
  -6   -1   -3   -8   -3   -8   -7   -8   -8
   1  -45   -7    1   33   10   -1   13    1
   2   -2    5    0   34    0    3    8   -1
   5   18    9    8   22   12    4  -23   -1
   3   -4   -6   16    8  -22    9    4   -6
  11   17   14   10  -53   -3    6   -4    6
   2  -11    0  -11   76    3    0    4   -1
   2   -5    1    2   35   11    1   20    7
   1   -2    3   -6   45    6    3    1    0
  -2    3   -2    4   36   11   -1   12    0
   4    5    1   24   14  -13    9   -1    3
  -1   -3   -1   -5   41    8   -1   -1    2
  -6   -3   -6    1  -20   -3  -10   -1   -9
  -5   -8   -6   -6   -7   -9   -4   -1   -4
  -4    1    3  -14   32    5   -7   -8   -3
   2   17    5   -1   30    5   -2  -12   -6
 -12    6    0  -29   28    6  -21   19   -1
   1    1    1   -1   38    7   -1   -2   -1
  -3  -17   -5  -14   47    0    0    2    2
  -1   -4   -2   -3   37    5    1    7    2
   3   -4    0   -2   43    9    3    4    2
  -5  -12   -6   -8   34    4   -5    8    4
   0  -24   -6   -3   88   16    4  -27   -9
  -6    1   -6   -2  -16   -6   -7   -4   -6
   2   -2    1   -3   34    9    1    4    3
  -9   -6   -4  -10   -8   -4  -11   -7   -2
   0   -1    1   -4   42    9   -2    5    0
  -4   -1   -5   -2   42   10   -4   14   -2
   2   -1    0   -3   41    7    4    2    3
   4  -12    1   -9   47    3    2    3    3
   0   -6   -2    1  -41   -8   -2  -14   -2
   1    6    1    2   25    9    0    8   -1
  -2    7    1   -6   16   -4  -11  -16  -10
  -3   -8   -3  -21   67  -20    3  -14   -4
   0   25    5    5   20    9    3  -10    0
   3    9    4    4   47   12    3    9    3
   4    5    6  -19  -38  -28    5  -18    9
   3    3    2    1   41   11    0    3    8
  -4   -4   -1    4   36   10   -1    3    1
   0    6    1  -11   50   -1   -2    9    2
  -1    6    3   -3   40    5    2   -5    3
  10   19   12    6  -21   -6    2   -6   -4
  -8   -7  -10   -4  -15   -7   -2    1   -1
  -1  -20   -4  -13   49    4    1    8    6
  -2    8    0   -2  -21   -7   -2   -7   -5
   1   -2    1   -4   48    4    1  -10   -1
  -4    2   -3   -6  -11   -8   -8   -4   -7
  -7   -4  -11   -5  -11   -9   -8   -8   -6
   1    6   -4   -5   63  -22    1   17  -11
   7   -2    6    3   49   14    9    6    8
  -4  -20   -5   -7   30    1   -2   12    4
  -2   -7   -6   -6  -17   -8   -6   -6   -6
  -9    2   -9    0  -19   -5   -5   -5   -7
   1   -4    0   -3   37    2    1    2    2
  -1   -5   -1   -4   35    7    1    5    4
  -3   -7   -4   -7   -6   -8   -5  -10   -6
 -20   17    6    6   44  -13    7   -2    4
  35  -10  -20   -1   88  -18  -21  -10   42
   0   -8   -1   -7   40    8    0    7    1
   1   -2    2   -4   39    6   -2   -5   -3
   0   -7    1  -15   59   -1   -2  -13   -3
   0    2    1    2   30    8    0    6    2
   8    0   -9   21  -19  -14    8   10   -7
   3   18    6    0   23    6    0   -5   -2
   0   -6   -1   -5  -12   -9   -4   -8   -5
   5   23    9    2  -12   -1    1  -10   -2
   7   -7    4  -10  -46  -16    2  -17   -1
  -5   -5   -9    0  -10  -10    2   -8  -13
   0    0    0   -9  -14  -11   -7   -2   -8
  -4   -7   -5   -4   -9   -5   -7   -8   -7
   0   -4    0   -2   49    8   -2    3    0
   2  -10    2  -17   73    1    1   -3   -1
  -7   -3   -9   -3   -8   -5   -5  -10   -6
  -2  -11   -6   -7   19    3   -1   21    6
   3   -4    0    0   40   13    2   10    3
  -9  -23   -4   -4  -10   -6   12   34   10
 -12  -13  -16  -13   -6  -16   -9  -13  -12
  -2   -6   -2    3   36    7    1   11    3
   0    4    3   -3   37    2   -2   -2   -3
   1    4    2    5   36   16    1   13    4
   4    4    6   -6   42    1   -2   -9   -3
   3    8    0    3   49   15    2   10    2
   5    7   -2   -2   48   -4   -4   -5    4
   1   -4    0   -1   41    6    0    7    1
  -1   -9   -4   -2   48    6    1    4    2
  -7  -14   -9   -2  -13   -2    0    5    2
   0   -6    1   -1   40    7    3    7    5
   6    1    5    1   47   11    2   -3    1
  -1   -5   -4   -4  -12   -7   -1  -12   -4
  -3  -22  -12    0    7    4   -2   -1   -2
  -2   -3   -1   -7   37    5   -3    4    1
   5   -3   -3   27  -16  -10    5    0   -4
   0  -12    6   14   17  -10   15    7   -6
 -11    5    8  -33   20   16  -14    4   11
  -2    4   -2    1   48   11    2    5    0
  -3    3   -2    2  -41   -5    4   41   13
   7   11   10   19  -29   13    8    1    9
  -1   -2    1   -5   41    7    1    9    5
  -1   -8   -2   -7   44    3   -2    4    2
 -14  -23  -14   -4   35    9    1   10    3
   3   -3    0    0   39    6    3    3    2
   6   15    0    0   41    0   -2    4    3
  -8   -8  -10   -8   -1   -7   -8   -6   -8
   5   -6   -8   10   16  -15    8   -2   -6
   0   -5    0    2   26    7    1   13    3
   1  -11   -2    0   46    8    5   11    6
  11   21   13   -1   16    3   12   11   13
   0    3    1    2   32   10    1    2    1
   4    2    0   -2   33    4    0    6    5
  -7  -23  -11   -4  -15   -4   12   36   14
  -6  -17   23  -12   58    7   28    5  -21
   8  -32    6    2  -72   -3    8  -24    5
   2   -9    2   -7   44    5    0    7    4
   0   -4    0   -4   37    3    1    0    1
   5   32   10   10   16   13   -3   -9   -4
  -4    4   -3   -2  -23   -5   -6   77    5
  -4   -8   -4  -14  -50  -18   -2  -12   -2
   1   -5   -2    2   36   12    2    8    5
   1   -5    8    6   48    4    5   -3   -2
  -2   -4   -1   -4   42    8    0    7    4
  -6   -5   -7   -8   -4  -10   -5   -9   -8
   6   -2   -2   -4   52   15    3   -5    1
  -3  -12   -8   -6   -1  -12   -5   -7   -5
   4    8    5  -13   51    7   -3    5   -4
   1   -3    2  -11   48    0   -1  -12   -2
  -7   22   -4   11   54   21   -4    7   -3
   0   -6   -5   -5  -25  -13   -5  -14   -7
   2   -2    1   -2   31    2    2    2    2
   5    7    5   -3   34    5   -1  -11   -5
   0    7    1   -5  -24   25   -9   -8    0
   5    3    5    0   33    5    4   12    6
  -2   -2   -2   -7   -9   -9   -8   -8   -7
  -8   -9   -8   -7   -9   -9   -8   -6  -11
  -1   -5   -2   -4  -34  -11   -1  -11   -3
  16   51   21  -10  -32  -12   -6    8   -6
  -2   -7   -2   -8   33    4   -1    3    3
  -2  -16   -3  -14   76    2   -4    2   -2
  -2  -12   -2   -9   36    1    0    5    3
  -1   -4   -5   -4  -20   -9   -6   -9    1
   0   -4    0   -4  -16  -11   -3  -11   -5
   5   27    2    6 -128   -9   -1   30    3
   6  -25   -1  -25   77  -13    1   -7   -3
  -4   -4   -4   -2   48   10   -3   12    4
   1   -5    3   -2   49    8    1    9    2
  -2   -2   -3   -7  -17   -8   -2   -9   -4
  -1   -1    0   20  -52   34    1   -4    4
  -2   -9   -4   -6  -15   -9   -5  -11   -8
   1   -2    5  -13   42    7    2   -1    2
  -6   -3    5  -22  -10   41   -7   -2    8
   6    5    1    6   35    4   -2    8   14
  -4    0   -3    2  -24   -6   -2   -4   -4
 -10   39   -4  -24   73  -22    7  -27    7
 -14   -4  -14   -9  -35  -13   10   24   20
   2    3   10    1   31   13   11   12   -5
   3   10    7   -5   31    4    2   -6   -1
  -2   -8   -4   -5  -12   -9   -5   -5   -6
   1  -11    1   -8   41    6    0    5    4
 -11   -7   -9  -12  -12  -16   -4  -10   -7
  -3   -3   -2   -1  -19   -7   -1   -3   -2
   1    2    3   -3   35    6    2    7    4
  -7    9    6  -17   -6   36   -4  -22    9
  -1   -7   -1    8   -1    7    2   34    9
   8   16   10   16  -53    5    6   -4    4
   3    1    2    4   41   14    0    9    4
  15  -22  -13   30  -10  -23   18  -16  -17
  -1   -7   -4    4   59   18   -2   18    6
   0  -11   -2  -12   52    2   -2    1   -1
   4   -3    2    0   44   10    3    7    3
   1   -8   -1   -2   29    7    3    9    5
   0   -2    1   -2   37    7    3    8    1
   0   -4    1   -4   44    2    2    2    3
   2   -4    1   -2   38    5    2   10    2
  -2   -6   -3   -2  -13   -6    3   35   10
 -12  -19   -3    7   -7   21    8   12   -1
  -5  -23   -7   -4   92    5   -2   -3   -3
  -5    1   -3   -3  -19   -7   -3   -4   -5
  -5  -11   -7   -8   -9  -12   -5   -7   -5
  -5   -6   -1    4  -30   33   -1    9   24
   1    0   -2    7   42    0   -1   -3    5
   3    2   -4    2   35    0    1    4    7
  -8   -4   -9    0   -8   -4   -9   -4   -9
  -1   -4   17  -22    5   33   -2  -12   -1
