   5    8    7    9   19   16    7   13   12
  -7  -13  -10  -13  -24  -19  -10  -20  -15
 -11  -19  -11  -26  -51  -24  -17  -33  -11
   9   17   12   19   35   25   14   25   18
  -3   -8   -7   -9  -29  -25   -8  -25  -23
 -11  -22  -10  -18  -43  -27  -13  -29  -20
  -8  -18  -15  -16  -39  -33  -16  -32  -24
  -9  -19  -15  -19  -34  -29  -13  -24  -17
  -9  -12  -10  -11  -19  -15   -8  -13  -10
  -8  -16  -11  -16  -38  -27  -13  -27  -15
 -10  -21  -11  -20  -34  -17  -10  -19   -8
  -6  -14  -13  -14  -29  -24  -12  -24  -17
  -5  -12   -7  -12  -28  -19   -9  -21  -15
  -1  -15  -13  -17  -42  -36  -14  -32  -22
  -6   -8   -8  -24  -40  -20  -28  -39  -19
   5   11   10   12   32   26   12   28   24
  -8  -11  -10  -23  -36  -26  -19  -25  -16
   6   15   15   14   43   37   12   35   28
   1  -27  -36  -32  -57  -37  -41  -41  -10
   4   10    9    9   23   18    7   17   13
   6   14   11   14   37   29   12   31   25
  -6  -13  -11  -13  -23  -21  -11  -20  -18
   2  -16  -57   21  -22 -112   18   23  -37
   4   19   17   15   37   28   14   27   17
 -28  -22   -4  -24  -28  -24   -6  -27  -27
 -23  -26   45  -41  -53   79  -30  -44   47
 -12  -16   -1  -19  -34  -17   -7  -19  -16
  -6  -12   -9  -11  -22  -19   -9  -18  -15
  -5  -13   -9  -14  -30  -23   -9  -23  -19
   6   15   12   14   30   26    9   22   19
  -6  -11   -9  -12  -25  -23   -9  -20  -17
   5   12    9   11   28   21    8   21   16
   5   13   13   13   38   30   10   27   20
  11   22   17   19   41   30   13   28   20
   7   13   12   15   30   25   11   25   21
  21   45   29   11   18   11  -24  -47  -36
  -9  -18  -14  -17  -29  -26  -14  -25  -19
   7   15   12   15   35   26   12   28   22
  -7  -14  -10  -17  -33  -23  -11  -25  -19
  -7  -14  -10  -12  -27  -19   -9  -18  -13
 -10  -12  -10  -13  -23  -18   -9  -17  -14
 -23  -45  -33   37   77   61  -10  -16  -10
  14   31   22   29   61   44   22   47   34
   6   12    9   11   25   16    7   16   10
   4   11   10   10   30   24    9   24   19
  22   22  -42   49   37  -77   37   21  -59
   9   21   18   22   42   30   16   28   17
   9   15    6   15   30   21    6   21   16
  13   31   15   14   36   14   -3  -11  -16
  -5  -13   -7  -16  -34  -19  -11  -20  -12
   7    9    8   10   22   17    8   18   15
  -8  -16  -12  -14  -27  -18  -14  -19  -10
  26   45   10   32   35    1   -2  -17  -21
  -4    8   23  -20  -11   33  -25  -30    5
  -3   -8   -8   -9  -20  -19   -7  -16  -13
 -11  -17  -16  -19  -31  -25  -13  -24  -20
  -9  -14  -13  -16  -26  -22  -13  -19  -13
   6   12   12   12   31   29   12   27   25
  -6  -15  -12  -12  -32  -24  -10  -23  -16
  -8  -16  -13  -14  -24  -22  -12  -19  -14
   7   14    9   13   30   21    6   17   13
  38  104   78  -14   17    9  -45  -80  -59
  -9  -18  -15  -16  -24  -24  -12  -22  -20
  18   26   15   23   46   36   10   32   30
  -3  -11  -13  -13  -28  -18  -12  -18   -4
   4   13   13   12   28   24   10   22   18
  -7  -15   -9  -14  -32  -20   -7  -19  -12
   8   21   16   19   51   39   15   37   29
   1   16   20   15   35   27   18   25   11
  -6   -8   -8   -7  -16  -18   -5  -14  -16
   6   16   12   14   35   26   12   29   22
   5    9    9    8   18   16    6   13   12
   4   12   10   12   29   20   11   22   14
  -3  -11   -8  -13  -31  -19  -10  -19  -11
   9   17   10   18   34   25   14   28   21
  -5  -17  -12  -17  -42  -22  -15  -22   -6
  26   10  -62   99   49 -127   71   33 -109
  -6  -30  -27   13   -6  -25   30   43   10
 -35  -65  -27  -29  -32    1   14   66   62
  10   20   14   18   37   27   13   24   16
  -9  -20  -10  -18  -39  -24  -12  -26  -16
   8   16   10   16   34   22   10   25   20
   8   16   11   15   31   21   11   21   14
  33   78   39   20   37    4  -23  -76  -76
   7   12    9   12   24   16    9   18   13
  38  -19  -51   86   11  -83   65   18  -77
 -10  -24  -16  -14  -32  -23   -8  -19  -13
   9   15   10   14   31   21    9   21   15
  -7  -14  -11  -13  -29  -22   -9  -19  -14
   1    6    6    7   28   20    6   24   18
  -9  -12   -7  -14  -25  -16  -10  -19  -16
  -8  -19  -14  -16  -30  -24  -12  -21  -15
   5   10    8   10   21   18    7   18   16
   8   15   11   16   32   21   10   22   14
 -22  -25    1  -30  -10   31   -3   25   43
  -6  -44  -34  -23  -55  -43   35   90   76
   8   17   13   15   36   29   11   28   23
   5    9    8    6   17   16    2    5    7
  12   24   16   21   43   30   16   33   25
   5    8    6   10   22   16    7   16   13
   4    8    6    9   22   17    7   14   12
   5   14   12   13   35   28   10   27   21
   8   16   12   17   47   33   14   38   31
  -8  -15  -10  -12  -25  -20   -9  -17  -14
  10   19   11   30   42   21   20   34   19
   4    8    7    9   23   19    8   21   18
 -12  -26  -21  -22  -31  -28  -15  -25  -14
  -4  -15  -12  -12  -39  -33   -8  -28  -24
   8   20   16   20   48   41   17   39   31
 -12  -21  -14  -22  -37  -30  -14  -31  -22
   1  -15  -10  -13  -45  -38   -7  -35  -27
  -5  -13  -13  -12  -34  -29   -9  -27  -22
  -3  -10   -7   -9  -24  -18   -7  -19  -13
  -9  -19  -11  -26  -46  -24  -13  -24  -13
   5   11    9   11   27   20   10   21   15
 -11  -19  -15  -18  -22  -21  -12  -21  -16
  -6   -8   -8   -8  -16  -13   -6  -13  -11
   9   20   14   18   41   32   14   33   25
   7  -20  -17  -17  -73  -61  -14  -54  -44
  10   21   19   19   45   40   16   37   31
  -8  -18  -12  -15  -31  -22  -10  -22  -15
   7   17   13   16   39   30   15   31   24
  -7  -15  -10  -15  -33  -24   -8  -24  -16
  -5   -9   -9  -12  -23  -20  -11  -22  -18
 -11  -15  -10  -25  -30  -25  -21  -30  -25
  -7  -10   -8  -11  -20  -15   -7  -12  -10
  -6  -11   -8  -12  -26  -20   -9  -20  -16
  -8  -10   -6  -13  -27  -21   -9  -23  -19
  -9  -14  -14  -14  -22  -21  -10  -16  -14
   9   18   15   14   33   24   10   23   15
   8   16   11   15   32   23   10   21   17
  12   29   21   25   64   50   19   46   38
   8   14   12   15   30   25   11   23   18
  -8  -14  -10  -15  -33  -24  -12  -26  -19
   5   12    9   15   35   27   11   26   20
 -13   -6    5  -19   17   36  -11   21   34
   3   10    9    4   18   20    1    4    9
 -10  -19  -14  -12  -24  -22   -9  -19  -16
   5   10    8   12   30   22    9   24   17
  32   69    4   49   56  -30  -11  -48  -83
  -9  -15  -13  -14  -29  -23  -10  -22  -18
  18   -7  -44   48   41  -82   32   56  -52
  -3  -24  -37   16   -3  -73   47   76   11
   5   14   13   12   35   34   11   29   28
   7   20   15   18   39   29   16   31   21
 -12  -15   -2  -19  -30  -11   -7  -17  -13
   3    5    5    9   19   15    6   15   13
   6   13   11   10   25   21    5   16   14
   9   21   16   19   45   35   12   33   26
 -22  -34  -24    1   -4   -9   32   72   56
  12   23   15   24   46   35   17   36   27
   6   11   10   12   23   20    9   17   14
  -9  -18  -12  -18  -30  -24  -10  -24  -20
  17   28   17   30   49   31   21   37   24
  -7  -16  -14  -20  -35  -30  -15  -30  -23
  -9  -18  -12  -18  -34  -27  -12  -28  -22
  23   13  -30   45   16  -56   31   11  -41
   8   15    9   16   32   21   10   20   13
  -6  -14  -12  -19  -38  -30  -14  -28  -22
  -5  -11   -9   -9  -23  -18   -5  -12  -10
  -6  -18  -11  -16  -31  -23  -13  -23  -15
  10   18   12   18   36   27   12   26   20
   6   16   17   20   46   38   22   44   34
   6   15   12   11   32   25    8   25   19
   5   15   13   10   31   27    8   24   20
   9   17   14   13   35   27    7   23   17
  14   32   27   28   51   35   24   35   16
  -5  -14   -9  -16  -31  -20   -9  -19  -12
  -3   -5   -7   -7  -21  -19   -8  -18  -15
  -6  -13  -10  -11  -27  -22   -9  -19  -15
  -4  -12  -10   -9  -25  -19   -7  -17  -13
  -5  -29  -25  -30  -68  -41  -29  -46  -27
  20   31   17   28   69   52   25   60   42
  -8  -10   -9  -11  -21  -17  -10  -19  -14
  -2   -7   -7  -10  -20  -17   -7  -18  -12
   9   17   14   18   37   33   12   27   25
   5    9    7   10   24   19    7   19   14
   5   11    8   12   32   22    9   23   16
  11   16    8   15   30   21    7   20   17
  -6  -10   -6  -11  -18  -12   -6   -8   -4
  -8  -17  -13  -16  -28  -25  -12  -23  -18
   3    7    4    9   22   17    7   18   15
  -3  -13  -10  -15  -22  -21   -9  -17  -16
  14   26   18   22   41   32   15   27   22
  -7  -11   -9  -12  -26  -21   -7  -16  -12
 -10  -18  -20  -15  -22  -19  -15  -19  -14
   8   16   12   17   36   27   12   27   18
 -22  -44  -20  -31  -74  -24   29   82   87
  -7  -13  -10  -16  -33  -23  -13  -26  -17
   8   16   12   16   33   23   13   23   14
  -6  -18  -13  -12  -35  -29   -7  -25  -20
  18   36   31   31   68   56   20   46   37
