  21   97   42    3  -17   51    1    2   -6   39   -3    0   15   14  -53  -33   -4   19   43  -30    5   52   56   11  -56   41  -26  -30  -15   29   -8    8
   5    8   12   16   -2  -39    7  -41   35  -55   -8   -8    0   21  -35   12   27  -25  -44   -5   27   20   15    1    4   28    0   27    3    0   11   -6
  -1   -9   24  -10   13   -8    6  -15   -9   -1  -42   12    9   22   -4    3  -12    0  -10   -3   -7    3    3   -6   13   -6  -20    1    7   -8    4   29
   4   44  -19  -20  -26  -20   31   -3   33  -10  -24    4   29   21   49  -21   -7  -16   -1   -4   18  -11   42   48   77   20   28  -39  -34  -20  -28   54
   3   -6  -18   21    5   -1   38   15   -9   -8  -11   35    3  -12   10   17    4  -22  -32  -13    3  -17  -17    2    2   21   -2   -2   -2   -8  -20  -13
   8  -22   -9   13  -11   -2    7    0   -8   -2    4    5   20   -3    3  -14   10   -4  -20  -13    4  -33    4   17    7   -3    1   -6    4    2   22  -12
 -36  -17   13   10  -23   28   27  -21    6  -28   22    3  -21  -11   -7   -9   -5   -1  -10  -27    9   32  -11  -33   14   17  -12  -10   15   22   -4   27
  -4   10    9    7    0   17   -1   23    5  -26  -34    1    6   20   39  -11    5  -15    3    2  -17    1   15   -3   37   -5  -26   15  -63  -28   23   35
 -78   -2   -3   33  -46    2   12   26  -56   41   20  -11  -27   -2    8   53  -25  -10   16  -52  -11   22  -19   10   38   34  -54  -83  -56   44   18  -13
  21   40   20   -4   22  -64   -6  -22   28  -40   -7  -11   15  -17  -19  -28   -6    2  -28    5   16    8   -2   -7  -23  -11   14    9   -7   16    1  -11
   0   10  -24   -4   -6  -15   28  -27    6    4   28   26   26   26   -6   32   20    3   -1  -27    0   -6  -32  -12   -4   -9  -24   -4   -5    3   52   16
  44  -22   -3   33  -16    3  -22  -17  -25    9    8   -7  -55  -25  -27   21   23  -27  -16   39  -42   -8  -21  -11  -68   -3    5  -31  -14   24  -16   14
  25    3   13   -3  -19   38   -7   10  -12   14   -8    2   28    3   -8  -19   17  -11   -9  -27    2    0   15   13  -18    9   -2    8    7    8  -13    5
   8   -9    1   21   -2    3  -23    5   -3  -11    1    3    0   13  -26   -9   21   10    0  -11  -15    9  -29   -9   13   -1   -6   -8   -5   14   -7   -6
  -3   -4   17    6  -11  -21  -14   22    8    2   -8    7   15   13   -1   11  -23  -14    1    8   -7  -11   -5   22  -15   -9    4    3    2   -9   11    1
 -31  -11    6   10   -2   32  -18   37   61  -37  -42  -29  -45  -17  -12    6   33   28   21  -29  -19   13   16   23  -17   45   10  -11  -12    3  -36   12
   4  -19    0  -14  -10    0   -5   -8  -14  -19  -17   19   -2  -17  -23   30  -24  -19   -4  -29   -8    0   10   18   -4    1    8  -41   -7  -16   41   -1
 -35    6   -4  -29    6   22  -36   -7   -9  -52    0   37  -34  -25  -18   42  -17  -62   57  -64   10    7   26  -16   -1    2   14   12  -37   22  -55    1
  23  -13    6   -6    7   -8   -2   -9   24   33    3   13   13    1    8   -3   -2   -3   -3    6  -19   12    4    3   12   -2   30  -26  -28   -9  -23    1
  -7  -41  -47   17  -11  -25   -1   -9  -12  -19  -10   37   14   26  -14   15   27   31   19   -6  -22   17   91  -12   -1   27   14  -10  -16   20    4    5
 -30   21   -2   45   17  -34   66   68   -5   31   -1   11  -38  -13  -15  -19   -3    1  -16  -42    7  -32   25   40  -26   24   25   11   13  -55  -30   -7
 -47   16    6   -4  -17  -14  -33   23   -1   26   -1  -24   -8   -7    6   34   -8   27   12  -21  -19  -22    1   -9    4  -10   -5  -51  -35   27   19  -16
   3   -4   13    5    3    3    3   -3    2    2   11   -1   -3   -7    4    0    5   -1   -1    1  -10    1    4   -5   -6   -4    8    0  -11    1   -3    2
  47    5  -89   23  -23   -9   13  -26    5   44  -95   -5  -29  -23   11  -25  -29   10   14  -45   66   26  -12  -22   37   -7   30   13  -49   13    3   18
  -2   19  -60   -2  -13   16  -43   17  -12  -16  -34    5   -3   19    6   12   -5   21    3   -2   30   -6   -4   -7    7    5  -31    4   36   11    8  -14
 -10   10  -22   -1    2    3  -23  -11    3    0   -1   -1   -4   13  -10   -9   13   18  -11  -17  -28   -8   10   11   -3   -6   20    5  -15  -13   -3  -13
   2   10  -20  -24    2  -13  -11   16   -9    0  -25   -2   14    3  -20   10  -19   19    5  -13   13  -12   -5   -9   20   31  -20    9   50   -4    5  -19
  18   19   10   -6    4  -35  -15   -2   18  -70   -9  -32  -11  -34  -28  -28   -1   28   -1  -39    2   48   16  -33  -36   -4   -6  -50  -12   -2  -20   28
 -18   -3  -11  -18  -52   17   14  -55    8  -51    1   16   18  -65  -24   27   39   22   38  -17   -6    7   13  -19  -13  -26   22  -19    2  -13   33   20
   7   24    4    7  -40  -32   59   23  -21  -13   -8  -12   25   78  -11    6   45   49   40  -23  -38   25  -37  -15  -14  -47    4   -5    2    2  -41   19
 -36  -21   31  -27   18   10    2   15    7   12  -18  -50  -28   59  -15   -9   22  -10  -26    3   29  -17    3  -29  -10   10   23   -7   -4   26  -13   -1
 -34  -40  -12   11   31   17  -17  -15  -36  -43  -25  -44   15   21  -10  -48    8   10   54    3   21   -6  -48   -2  -18   52   14  -66  -20  -24  -31   -4
 -14   38    1   25   -2   15   20   16   -3  -22  -27   -9  -25  -15   43  -46  -12  -12   -8  -55  -49  -22   10   17   27   17    4   12  -34   11   17   15
   0    8   53    0  -46  -21   36    0  -18  -26  -22  -11  -17  -25  -44    0   -4  -39   11    9   22  -34    5   -7   15   -7   -7   -7   48   17   -7   70
  -6   54   25  -24   -8   -2  -33    3   32   31  -24  -18  -38   14   32  -17   48    3   51   12  -31    4    2    8   -6    5   -4   25   22   23  -20  -21
   6  -16   14  -18    1  -23  -21   14    0   15   -6   12    6    3  -42   11    1    6   10   -3  -14  -10  -15   -3    4   13    2    7    3   -3    5   -2
   4  -27   52    8  -54    4   60   33   16  -36  -42  -30  -34   31   -1   30   -7   12  -35   -9   24   52   -9    9  -20   13  -13    2   12    3  -63   -3
   4  -21    0   -3    0  -21   -8   32   58   38   29   68   13   -2  -32  -12   39   27    7  -25   23   25  -32   22   23    5   44  -33    1   18  -18  -38
  36   44  -16    8   14   -4   15  -30   -7  -16   36   58   -6  -58   -1    5   11  -37   -7  -32   -2   11   41   16   31  -12   -7   -4   18    5   82    9
  43   36    9   12   -7   18   14    1   -5  -31   -1  -37  -14    0   55    5   -2    9  -13  -17  -11  -13  -18   11   27   16   -7   -4    1   -2  -13    1
   1   15    6    6    0   40  -10   23  -12   13   -6  -12   25  -22  -10    9   19  -16    1  -42    8   24   13   16  -18   33   -2  -23   -2   18    9   13
   7    9  -14    0   22    6   11   -3    1    6    0   -8    7    8   14   -5    5   11   -4    3   -4    6    4   11    3   -2   -8    5  -31    2   -4  -16
  -7   19  -27   36  -43   -8   31  -18   -2  -31   -4   32   -6   10  -34    2   31   25  -25  -54  -50   10   30    4    7   -3   38   10    7  -15   -6   14
 -11   -8    5   12   -3  -32    4    9   -8    2   -3   21  -12  -62  -87  -25   22   12   24  -25  -30   -5  -17   43   -4   -7    4    3   43   11   -5  -27
 -10    4   35   -8   18   39  -54    3   12    7  -35   -8  -31   63   11  -26   29  -21  -41  -14  -12  -28  -35  -41   26   17   13  -15   10   36    1  -18
 -18    0  -17  -16   20  -12   -8   15    5    5   -7  -19   -5   11  -38    1    5   -6    8   -8  -14   -7    4    4  -10   -5   20   -7   -9  -15   -5   -5
  30   14  -48  -30   19  -30   69   -4   16    9   -9    1   23    3   -5   17   17   -2  -24   -8  -36   25  -56   47  -20   14  -67    1  -16  -22  -13  -15
 -44   -2   34   73   37   10   44  -27   21  -33   13  -34   19    1   38    2    8  -50   13  -14  -59   -4   32   20  -33  -16  -38   -5    2   -2   -1  -28
   5    0  -40   -1    7   -3  -37  -11    2    0   -6    8   26   26    2    5    6   10  -14  -11  -29  -16  -16   24  -14    5    3    1  -32  -12    2  -18
  -3  -10   19  -23   19   11   30   15   -9    4    1    4  -29   -1   10    1  -42   -4  -37    4    6    6   23   12  -12   31   19  -23   43   18    2  -10
 -43  -45   -9  -26    1  -55  -24   15  -34   19  -19  -37  -12   -6   90    7   73  -32    7  -27  -26   49  -20   30    8   32   21    8   43    3   -7   18
  -3    9  -24  -16   -7  -13  -22   13   46   -8    3   19   40   32  -23   23    1    9    5   -9   36   10    1   -9   43    1    9  -57   61  -14  -32   -1
  17   -8    7   12   10   -9   -2  -12  -24   14   10   -6  -27  -22  -29   -8   13  -41   -2   30  -43  -15   -6   18  -36   23    5  -25  -15   27  -14   -4
  14  -11    8    4   25  -18  -13   -5    3    4   -8    6   16    3  -17    8   -3  -23    2   14  -38  -10  -12   23  -17    4  -11  -18  -23   -4   -2    3
 -14   48  -11   24   15   73   14   11    1   20  -12    8   38  -17  -21   33    8    2   29   10   -8    8  -10   -3  -16   32   29    8    2   10   -1   26
   3   -5   -6   -1   28    0  -33   -5   29  -13  -24  -10  -35  -23  -16   11   21    8    2   -7   -4   -3    3   39    4   26  -18   -3  -10  -31    2   20
 -25  -32    4   13    9   -7    9   43   32   -9  -20  -13   -8    4  -44   17    6    7   -5    0   16   40    8   29  -25  -11    8  -16  -12    8  -10  -21
  41  -31    3   -8  -19   26   18   12  -25  -63  -10    7   -9  -30  -46  -11   -1  -51  -54  -80   23    3   27   14    9   -1   -2  -65  -15  -25   36  -35
  16  -15   38  -17    6   -3   39    9   -5  -38   14  -26   13  -36  -36   22   13   46   33  -28   -5   10    2    4   49   16   -4   18   -1    0   -5   10
  -7    4   -7   36   26   20  -11   -2    8  -33    0  -37   10    9   26   35    6  -26    2    7  -40  -12   16  -32  -54  -15  -39   -8   10  -19    7  -12
 -27   24  -22   -9  -14    5   14  -13   -5    0  -11  -15   24  -28   46   -8   -3    3   35  -13  -22  -14   21    1  -13    7   15    4  -27  -37   18  -26
  -1    3   -3   -5   17    5    6    3    3    1    4   -7    3    4    8   -6    7    8   -2   -7   -2    1    1    3    4    1   -1    7  -21   -2    3   -8
 -24  -59   11  -28  -24  -10  -26  -28  -10  -21   -4   -7  -73   23   19  -35   24    4   16  -17    0  -26   22    4   15   -9   31  -30   12  -46   14  -33
   1   -1   32   11  -10   28    5   -8  -31  -35   61   10  -40   -4    7    5   30  -17  -48   22  -57   22    3    8  -53   -1   40  -18  -55   -7    6   11
  33  -26   20    8   14  -17   14   -4   15   33   19    3    3  -17   -1   -7  -14  -34    5   18  -39    1   -7   18    1   31   21  -32  -33   -1  -29    9
  13   21  -37    1  -20   -3  -14  -19    7   17  -14    6  -12  -17   11   26   15    6   20  -11  -10  -51   14    0  -19   13   30  -62   38   41   -2  -23
   1   14   19  -15  -11  -24  -41   16   43   12  -32   -6  -21    6   11   45   14   32   26   14    0   -7    8   24  -39   11  -20   -7  -18  -17   -2   -8
 -16   12   30   29  -24  -32   38   -4  -23   21   14   15    4    2    4  -43   14   13   11  -15   -5   -6  -38   26   44   45    4   49  -13  -12   -6  -24
 -26   26  -62   -6    3   13   16   33  -33  -28  -34    9  -38   -3   -4  -28   10   17  -26   -4   60    8  -16   26   -7   -7  -34   41   -7   16   25    1
  25   -6  -12  -20   -5   53   46   -2   40  -30   -2   17  -54   35  -26   -1   12   -4   42    4  -10  -29    8    1    2  -10    6   -5   14  -15   13  -13
   8   22   37   20  -23   -8   -1    9   10   -4   -9  -48  -16   -4    9   49   96   22    9   17   81  -28  -14  -35    0  -10   -3  -26   -8    3  -31  -41
  60  -19  -14  -16   23   30    0   -8   34  -38  -26   41   21   14   13  -32   49    7   20   34  -18  -27   38    9  -24  -15   83   68   68  -43   -6    5
  22   20  -25  -26   11  -45    2   38  -33  -15  -31  -17   13   12  -49   21  -15    7   13  -20   12  -44   -1   -8   37   66  -32   21   66   28    4  -19
 -47   33  -37   -2    6    2   18   -7   41  -23   -1    7   25   -5   21  -26    8    2  -14  -15   -5    8   11   17   15  -25   -1  -26    4    3   -9    2
  26   -8    0   41  -52   13   23  -23  -13  -39   17   60   11   37   40  -13    6   26  -14  -27  -38   24    5  -29   29    3   -7    7   27   78   -3   12
 -14   -2   17   16   24   13   18  -16   -8  -15   -2   -5    5   -2   19    8    1   -1   -6    6  -23    7   14    5  -16  -14  -22   -9    2   -7   -5  -10
  -7  -11  -12   -1    2   -3  -17   -8   -1    3    2   -2    6   -6    0    2   -1   11   -9   -8  -12  -13   -2    5    6   -4    2    3   -8    1   -3   -2
  -5   20  -55  -11   -1   -5  -11    4    5    3  -23   -7   -2   20  -17    2   -4    0    1    8   22    3   -2   18   -6   -5   -4  -12    2    1   -3    4
  15    8    3    9   -4    0   -2   -2   -4   -5    3   24    5   -2   21   -1   -3    2    0    0    0    9  -13    6    3   10  -11    0    9    8    8    1
  -9   36  -11   13    9  -27   -8  -17  -11   -1   -6    6    9  -68  -11    0   21  -12   43   -2   25  -26  -32   35  -25    4   11  -44  -18  -88   28  -31
  36   -5   -4   -9   14   -3   23   17    8   -3   16   -2   14   27    0   21  -15   -6   13    5    2   25  -20   20   -4  -12  -50    9    4   41    7   32
  30   17  -34  -63  -14   -2  -11   67  -39   -4   11   41  -42  -25  -33  -41   26   23  -39   40   21   21  -49   32    7   34   28   -5  -73   11   10   16
  53   59   12   75   12   26  -89  -17  -37  -24   39   34   -6    8   59  -14   -3  -24   44  -47  -19  -38  -60    9   87    1  -33    9  -16   31   29    5
   0   26    4   -6   10   -8   -5   -3    6   -1    1    1  -26   16    1   -1    2    3   27   -3  -14   19    5    0    0   -2    5    0    7   -1    5    1
   2   14  -19    9   -1  -38   56  -10  -34  -34  -28  -42    2  -55  -26   13   17   12   24   19   -4  -23   66   54    3   19   11   -4  -17  -12  -21   24
   5   -6   14   -5    0   -6   -8    7   -4    7   -5    8   -3   -4  -19   -7    0   -7    3   -1   -9   -7   -7   -4    2   10    3    4    0    5    6    6
  27    0  -11    0   11  -17   12   11  -25   16   -4   -1   32   11   16   23    4    7    9    9   12   -1  -34   43  -19  -23    2    0  -23  -29    2  -44
  16   19  -42  -15   23    8    6   52   30   -3  -30  -42   -5  -55  -36   -2   -6  -58  -28   24  -38    2    8    9   21  -14  -22  -32   -4  -13  -23   -6
  24   -9  -29   31   18   45   63   -1   -9  -54   22   -8    0  -38  -18  -12  -17  -26  -20  -19  -20   47  -26   10   58    5  -12  -10   25   33    3    4
  72  -34   26    9   23  -37   -5   -1  -26   34   14  -13  -22  -14  -54   20   15  -13   17    8  -46  -31   -5  -14  -14   40   19  -16   -1   38  -20  -13
  38   17    4  -28   -4  -13   19    5   11   -9   14  -18   24  -11   27   -1  -18  -24   30  -10  -15  -39   15   -7   35   51   23  -37  -15  -40   -7   38
 -48  -15   35   -2    5    7   27   27   27  -35   -4    3   41  -13   21  -19    5   14   30  -17  -12   29   14   16   33    3  -21   36  -32  -34   28  -19
 -21   10  -10   30  -25   -2   61   -6    9  -25   14   46  -74   34  -32    4  -62   34   23   11  -18  -73    3  -22   44   -6  -19  -54  -57   17   16  -56
   8   16  -47   78    3  -39  -61   17  -29  -10   -2   25   15   20   -7  -24   40  -33   48   32   -9  -34   65    5   45   -3  -18   19  -39    4  -16   12
  -1   -8   -1   32   20   -1    1  -19   12   -1   11  -18    2   12    9   17    4  -25    4    3  -29   -4    2   20  -35  -13   -3  -22  -13    4   -6   -8
 -14   -9  -19   -2   -3   -5  -19   -5    4   -8   -2    0   10   -1    6    0    0   10  -11  -19  -23  -28   -4    6    0   -3   10    5  -16    0   -1   -3
 -10  -50  -42   17    3   35   58    9    1  -28   27   18  -24  -52    5   -5   -5   33   48  -50  -21    9   -7   28    5   68  -39  -59   11    0   -1   50
   2   16   -7    0   15   16  -42   17  -19   26  -34  -14   74  -33   13   17   74  -29  -30  -36   -4   61   19   33  -38   50   14   15   16   19    4   35
  -1   52  -31   49   -9    2  -31   -5  -12  -10    4   20   -5  -27    0  -39    3    5   -4  -36  -60   17   -4   -5   29  -13    6   -3    5  -75  -45  -16
 -48  -32    0  -29  -35   29   37   -7   20  -30  -52  -90  -18    8  -63   36   16  -12  -41    9  -22   56   -9    5   18   16   15  -28  -16   40  -16  -31
 -11  -68  -23  -32  -28    3  -23  -22   -1  -24   -4    1   24  -28   -9   16  -16  -18  -65  -16    6  -88  -21   17   14  -38   11   26  -54   -7  -17  -45
  -3   10  -14   -5   14    7   -2  -13    4    8   19  -32    2   19  -18   -4  -14  -23   -4  -19   -4   13   12    8    3    0   -2   12    5  -19    3  -18
   8   -9   21   -4   41  -20   49  -29    1   16  -76   19   20  -12   -7    1    4   11    8  -37    0  -11   -2    3   31  -35  -47    5   18  -13   -5   33
  -3    4  -11   19    9    0    1   12   27   30   24   34  -46   15   28  -18    8   14   13  -20  -14  -23   17   28   -2   41  -43   29    9   -3  -13   25
   4  -12  -40   33  -15  -16   10  -21   30    9  -33  -19  -12  -30  -11   -3  -33  -47   33  -48  -23    4    0  -50  -36   20   14    2   38    5    0  -33
 -47    2  -26  -29    3  -30  -13    4  -14   51  -14  -23    5   82  -18  -10   26   10  -21   -9  -32  -35   -1   -1  -28    3   29   10  -37    6  -18  -12
 -16    2  -15    6   33   34   -6   -5    8  -11  -16   27    0   -1   43   -9   17    2  -15    9    1   23    5   -8  -12  -24   -9  -27  -37  -18   22   -9
 -14   -1   -2  -26   27   -2   -5   -1    5   11    9  -14   -3   -7    1   -2   -3   29  -17  -20   -6  -38  -16    4  -10   -4    5   -5    2    6   -7   23
  11   -9   65   -3    0  -19   55   44    3  -18    1    5    4  -18    2  -23   25   25   17  -41   -8   12   -1    4   38   35   10   50  -49    4   28  -14
  35  -23   32  -11    9  -16  -17   30    2   -2    0   18   12   -1  -41   22   33   23   14   -3  -10    4  -16  -44   27   37   -9    6    1    7   10  -25
  14    7    6   -4    5   10    7  -10   25  -19   -4    7  -10   13  -22  -15  -11   10    7   19    4  -32    2   -1   -8  -14   12   12    0  -11   -4  -13
 -13   40   13   -7   20   -8   12   -6  -18   13   -3   14  -17   19  -21   24    5   -8   14   -4    1   13  -12    6    5   -7   25  -15   -9    5   33    1
 -18   38   11  -13   -5  -19   37  -35   -7   -4  -27    5  -16    9  -52    7   50   -8  -41  -17  -27    7  -48   19   16    9  -54   -4  -21  -48  -20   21
  -3   -1   -5  -16  -38  -13    4    7    9   -4  -11    5   13    1   -8    8  -15   -7   11    6  -33   -2  -15   14  -24    6   -5    1   14   -1   -4    6
  27  -19   -6   69   34   -5  -36   40   15  -57   22   34   11   47   -3   -5   20  -17   48  -40   28   10   11  -19   -6    6   20   16  -18   -5   25   20
 -16   -1  -10    8   24  -19  -40   -4   -4   26  -23   36    1   57   14  -20   38    6   -1   10    7  -28  -28  -34  -29   43  -15  -16  -29  -38   -7   11
  30   48    3   23    9   41   27  -16   29  -36    6   28   12   -5  -73   -5  -44   17    5    6   26  -51   35  -12  -18    6   -7  -23  -41   21   18  -18
  11   28   40   35  -60  -16  -51  -17  -11  -19  -32   14    4   51   41   12   37   33   -6  -31  -32   -3  -24    4    5    0   27   -4   -7   10   -5  -21
  -7   16  -10  -10    5   -5   -2    6  -10    4    6   -2    7   -3   -7    3   -3  -16    4   -2  -16   -3    1   -9    9  -22   14    0   -4   11   10   -6
 -16  -20   11  -31    9    5   75   -7    5  -35  -30   13   19    6   21    3  -20   15  -25  -16  -25   32   24    5  -28   24   44  -12   18   48   41  -13
  26    2   10  -37  -15  -27   18   -3  -30   -4   -4  -19   13  -17  -18   27  -24    6    4   -1  -30  -12    3  -23    3   53   10    0   15   -5    8    7
 -18   -1    4   37  -22    5   62   23   26  -48   27  -25  -28  -43    0    8  -20   10    9  -41   22    9    6   50  -27  -10   48   19   29    8   -6   13
 -16   23  -11   30   18  -24   33   47   -6   16    0   -9  -24    0  -28   -8    5  -11   -9  -23   13  -11   10   11  -15   -1   26   14    2  -72  -40    1
 -27   36    4   16    8   -9   40   20   -6   -4  -15   -4  -20   18    9    9   -4   11   20    9  -37    6  -32  -14   25  -32   37   16   26    7  -24   -1
  10    4    4  -13  -13  -22  -21   -7  -15   15  -29   24   15   -7  -19   11   -8   -6   11   13  -34  -15    6  -39    9   45    0  -16   20  -32   -7  -10
  26  -38  -23   31   21  -26   14    9   -5  -56   -9   29   26  -40   20    2    7  -10  -79  -22    4  -23   -6   18   17   32  -12  -20  -12   -3    5  -15
  25  -32  -10  -23   16  -14    0   -5   16  -32   -7   -4  -34   22   12  -11   19  -12   15    9  -13   -8  -11   16   15  -13    7    9   21  -19   11    0
   3   13    1  -29   21    8  -11   16   -7  -40   -2   42  -10  -20    7   19   -1  -25   37  -33    1    5   28   -7   -3  -17    3    7  -14   31  -55   -9
 -14  -44  -14   -6   -1    2  -25   -2    0  -24   -5   -1    0  -16   -3    5  -11    1  -40  -21    2  -50    4   16    7   -6    9  -14  -24    2    7  -16
 -44  -17  -26   32   23   23    4   15   15   -4   -2   48  -16  -32    5  -34   16   38   -4  -34    0   41  -46   10  -57  -40  -15   11   16   12   37  -69
   4   16    3   -4    9   -2  -45  -49  -29   22  -17   67   15   21   49  -17   -6  -15    4   16  -23  -15  -20   10    1   35   10  -17   14   21   18  -34
   3   21   -4   18  -18  -32   -4   18   11   11    0   38    0  -17   40   51   15   18   44   -7   -8  -18  -12   32  -20   12  -17    5  -14  -17    5    4
  -9  -32   -9   37    0   31  -41  -38   -6  -24   -4    3   33  -14  -39   51  -13   -5  -55   -6   25  -27   11   24   35   14   13   10  -26   -9   43   10
 -14  -21   16  -34   -4    6   48   28   31  -14  -21   -1    2  -35    3   17   12    3    7   11   14    8   34   -2  -30    9   10  -11   17   14   29   -2
  32  -13    2  -20  -11  -22   36    9   28  -10   46    7   -8   39  -22   33   -6    5  -21  -57  -14   14  -40  -36  -36   79    8   15    3  -37   39  -14
  13   -3  -21  -10   12  -24  -25    3    3    2  -33    3   15   17  -35   13  -13   -7    0   -8  -23   -9  -18   12   -7    4   -7   -1  -16   -3    4    4
  36   62   10   19    3   36   22    1   38  -22  -30   30   27   25  -74  -18  -20   37   -5   11   -2  -54   25    5  -34   10   -5  -14  -61   12    8  -26
   5   -4   -4   36   15   32  -35    2   -7  -58    4    1  -14  -12   14  -22  -20   13    5  -22  -23   16   41   -1   16   20   58  -15   19   38    3   -5
 -22    5   -3    4  -35  -23    4   20   29  -30   11  -10  -13   -3  -59  -11  -12  -62   -3  -26  -21  -16  -11  -36  -11   33   -7   -9   21   -2    4   56
  10   26    4   20   -4   39   -1    4   -2   13   -2    9   32  -11  -17    0   -3    2   -2  -14    5    4   13    3  -12   20   -2    2   -8   15   -5    9
  19   33   24   -8   18   26  -15   32    6  -18  -19   -8  -18  -38   14   12  -16    7  -16  -17  -16    4  -10   -7    3  -13    3  -48   12  -17    8   -9
  15   31    4   11   -1   26    9   -6   20  -13   -7   13    6   12  -42  -11  -14   19    3    5   -2  -31   13   -5  -11   -2    4   -1  -21    4   -2  -12
  -3   11   -2   -3    6    4  -24    6  -10   11  -14  -17   31  -13    7    3   32  -12   -9  -24   -9   30    5   14  -17   18   14   10   12   10   -3   16
  -7   31   -4    4   -6   -9    0   -2  -11  -47    1  -25   39  -53  -26    6   12  -36  -24  -33    3    7   -6  -30    1   -7   71   -4   -5   13   -3  -39
  15  -11  -37   19  -13  -19  -14    1   13   -1   13   26  -17   -8  -56   25    3    2  -20  -13    0   -2  -19   17  -50  -12   17  -38   79   35  -20  -10
  -9   18  -46  -16   -5   17   -4   16  -15  -13  -38   15  -15    3   14  -19   -9   14  -22    9   29   26   -7   13   10    0  -12    8  -20  -10   18    6
  24   78    7   33   33  -14   38   20    9   -4  -24    6  -59   31   -2  -18   41   -6   47   -6  -26   81   20    0   -5   51   -6  -45   44   14   23   19
   1  -31  -22   58  -28  -15   21  -15   -7    0    1  -29   46   -4  -28  -35   31    0  -62    9    2  -46    2   19   25    8   15  -27   20  -20   56  -27
 -26    7   25   -4    5    2   10   27  -14   -4  -58  -44  -26  -32  -13   -5   31  -38  -12   16   34  -28    1  -13   -7   19   29  -62    1  -14   -3  -49
   0    2  -18   -1   21   -3    6   -2    3    1    6  -12    6   17   13    4   12    9    2    1   -5   12   10    9   -1    3   -1    3  -28  -10    3  -16
   5   10  -14   27   19   35   51   11   14  -16   54  -43  -21  -15   40   -6   46   24  -19  -24   79   22    3  -32   -3  -19    6    8   -8   10  -22  -27
   9   -3   16   30   -4   10  -17  -34   14  -26  -25   74  -30  -12   26   -1  -25   20  -32   -3  -16   33    2    8    8   63  -13  -22    3   12   12  -26
  -5   19  -21   12  -24  -30   41   59  -58   -1  -17   14   35   19   -8  -19   22   -3   -9  -20  -41  -13   19  -28  -11  -55   55  -14    2  -27  -31  -25
 -16    3  -36   35  -14   27   30   -8   36  -13    8   -5  -38   12   54   -4    1  -23  -41    0   44    8  -11   41  -61  -43    0  -17   -8   37   14   33
  10    2  -42   -3   26    2  -34   -9   10   21   -8   10  -12   15    2   12   -4  -41  -12   38   12  -13   -3  -10  -31   14  -14  -27   11   11   -2    6
  -1   11  -50   15  -19   22  -20   -1   17    5  -36   23  -28   31   40    6   -3  -13  -43   13    2    9    5  -23  -36  -33    8  -34  -27   -9    1   41
  -8    5   -1  -11   15    7    6    6    2   -3   -2   -8   11    8   32   -4   12   11   -1    0    2    1    6    6    6   -8   -3    6  -35   -9   10   -8
   6   24  -88   34   -8   16  -15  -28    0  -24  -16  -20  -31   17   29    6   -1  -44   -8   13    1  -40    9   25  -53  -22    8  -51   17   45  -11   46
 -15   -4   -5   20    1   12  -10   -7    3    1    0    2   20  -10   -7   24   -5    8  -20    0   -2  -16   -9   12   13    7    5    9   -9    9   13   14
 -18  -25   -7   20   -2   11  -47   43  -17  -16  -27  -11   45  -21   -8  -16   -8    5   -4   -6  -34   -3   -7    0    6  -36   34  -30  -18   25   -6  -10
   3   -6    5   35  -17  -30  -24   13   18   -9  -21  -10  -14    1  -30   26   23   44  -42   -9   -4   18   22   -2    2  -10   -2   -7  -16  -72   -6   14
   3    5   14   37   25    2   17    9  -78  -31  -23  -32  -39  -22  -12   23   14    5    1   -9  -65  -37    8  -12  -71   16  -57   65   13    4   40  -26
  34    7  -31   14  -24   13    8   51   18  -20   17    9    4  -12   27   -7   -1   -3   18  -20  -45  -14   33   -8   20  -13   15    0   10   40   10  -34
 -25   24  -35   54   -2   11  -48   27   16   -8   11  -31  -10  -30  -45   10   31    7   12  -44  -33  -11   -8  -13   25    8   -3  -47  -35  -10   15  -20
 -33   18   18   16   45    5   41  -23  -23  -12  -19   36  -25   31    8  -17   47    3  -17  -19   26   -8   25   39   28  -29  -38  -10   -5   10   23   11
  -4    1  -42   -4   25   22   17   13   32  -16    1   14   15   25   66  -28    5  -11  -19   -5  -16   45  -16   -8  -23   16    8    4  -88    0   46  -41
 -66   69  -35  -31  -41    7    0   32  -18  -74   50   30    9    9   14  -20   30    9  -25   26   19   11    3   50    5   31  -22  -10   29   -9    7  -31
   6   21  -64   22  -16    9  -19  -44    4  -11   -6   -9  -10    6   -2   22  -10  -14  -21   15   -9   -2   -6   13  -35  -27    1  -52   35   13  -35   12
 -23   48   18   15   33   20  -26   -2   32    9   -4  -16   -5  -18   -4    2   -4   39   44   10    0   30    3   -9  -26   44   13    8   10   17   -9   44
 -18   10  -19   17   26   40   26   30    0  -14  -11   21    0   -7    7   35   29    0    6   20  -21  -10  -22  -44   20   -3   53    0   29  -37    5   19
  14  -28  -18   -5    4   79   24   -8   10  -12  -32    4    8   14  -17    6   32  -14   20    4  -12  -19  -21   38    6   28   18   25   12  -11   -9    3
   8  -10    5   13    3    7   -5  -11  -16   -1    2  -13  -19  -15   -7    4   -2   -8   -5   10  -20   -2   -8   -4  -29   -1   -5    1   -4    7    2   -5
   0  -25   -9  -22    5  -42    7  -17    7  -14   -3  -10  -33   19   20  -15   25   -3    4    7  -15   10  -13    4   13   -9   -1   13   19  -11    3    3
  16  -45   -4  -31  -24   86   17   10  -15    3  -12   17  -29   37   19    1   47  -29   53  -33  -16  -14   -5   23    7    9   14  -19   34  -23   27  -12
 -10  -31  -14  -22    5  -40    1   12   16  -29   -5  -11  -77   13   18    7    4  -10   24  -16  -23   -5    3    7   21  -20    1  -29   -3    0   18  -20
 -58    7   34    6  -73    9  -15   17   51  -34  -42  -11    0   -3   -5  -25    7  -52    0   -4    9    7  -39  -39  -43  -20    6  -11  -10  -30   17   14
 -19  -47  -40  -29    8  -77   -1   12   16  -45   -9  -15  -99   22   26    7   28  -17   16  -37  -53    6    8   17   34  -14    1  -47   -5   -4   36  -27
   7   -2  -12    4   28    2   54   57    8  -18   10  -56  -19  -21  -24   16   17    8   -7  -43   15   18   11    0    3  -19   13   -8  -27  -12   11   18
  -9  -27   47   30   35   -3   31   -8   79   21   36   20   11   12   24  -16   29  -40   -3   -3   11   20   -5   59   14  -36   31  -71  -39   16  -33   10
 -33  -14  -58  -24   30  -24   49    5   -4   19   -7  -14   10   43  -32   21    8  -11  -12   22   12    3   52   -1  -44   42   11    1  -45  -22  -14   -3
 -26   30  -18   22  -16    8  -32    0   37    3   -1   -1  -37  -40   -7  -10   26   -1  -15  -16  -39   17    0   16   12   11  -17    0  -12  -37  -31  -31
   7    8   -9   23  -29  125   22  -15   11    5  -38    9   84   -5  -52    8   42  -16   -9   -9  -17  -41  -21   38  -15   56   33   40   -6   21  -14   -9
 -21  -14   -9  -19    9  -15   -6   24   18   19  -33  -26  -10   51  -30   15   23    0  -23    7  -16   -9   17    1  -19   -3   16    4  -22    5  -19    0
   2   39   -5   23  -35   14   21   -6   -5  -30   17  -43  -15  -24    6   23   24   12   28  -56   11  -40    4   43    7  -26    9  -12   40  -22  -16   10
   2   15    1   -5   11  -44  -20   -1  -10  -14   -6  -15   36  -15   21   -7   20  -16  -20  -18    0   28  -12    8  -18    7   14   17    4   20    1    3
  28   44   12    9   10   10   10    8   23  -19  -19    7   21    9  -37  -16  -13   13   -6   -4    5  -26   10    5  -29   10   -3   -9  -33   18    1  -13
  16   13   -8   28    9  -17   27  -54  -17  -31   32   21  -32   25   -2  -33   24  -26   18  -50   21   20   -7   23    9   23    3   45   22   14  -21   13
  14   34    8   10   -5   38    6   -3   15   -1   -7    9   14    8  -37  -10  -11   13    5    1    1  -24    9    0  -16    3    3    3  -17    5   -6   -8
  49  -26    7  -36  -21   21  -27   11  -18   -3   -5   -1  -13   10   -9  -26   17  -23   -6  -35   15  -12   37    0  -24  -15  -11  -36   17  -48   11  -15
  19   10   -7   25  -46  -31   30   -5    2  -22    7   15   -2  -37   -6   41  -39   35  -14  -36  -19   33   22   58  -17  -33   21    4   23  -25   -4   -8
 -22   30  -27   -4   -7   11   44   -9   27   -6   24   -8  -31  -43   12  -54   70  -29    2  -14   12  -18   33  -64    1   37    7   -1   15   40  -25  -24
  35   -2  -16   -5  -35   -5   12  -24   -9   -4    2    8  -23   -2  -15   42   -7  -11  -17    4   12  -22   -7  -21  -27    4    6  -30   74   41  -22   38
