  27   39   26   18    5   19    8  -19    3
   8    5    8    6   39   10    7   13    7
  24   -8  -13   38  -15  -20   18  -14  -14
  -9   -9  -10  -10   -2  -12  -10  -10   -9
   1   10    4    6   26    6   10    5   12
   2    3    1    7   25    9    3    9    4
 -27   -6  -30   11   29   16    1   16    0
  -3   -5   -9    8   15   11   16   41   20
  -4   -5   -4   -4  -20   -6   -5   -6   -5
   6   15    8  -20   18  -22   -3   15    0
   0    8    0   -4    7   -4  -15   -6  -15
  -7   -6   -8   -7  -10   -6   -8   -6   -9
  -9   -7   10  -15  -18   38   -9  -11   16
   5    5    5    2   50    7    6    6    5
  -5   -5   -6   -4   -8   -6   -9   -3   -9
  -7   -1   -9    2  -31    2   19   21   19
  -2  -10   -1  -12  -33  -13   -2  -13   -1
  -6   -5   -7   -7   -6   -6   -3   -6   -4
 -13  -11   27  -12  -15   36  -16   -1   16
  -8   -7   -9   -7   -4   -7   -8   -6   -8
  -7   -4   -7   -5   -5   -5   -6   -5   -5
  13    0  -13   28   -5  -22    7   -2   -3
  -1   -1    0    6   26    8    7   17    6
 -16  -16  -17    1   -4    3   13   22   14
  -1   15    0    5   13    6  -21  -18  -22
 -17  -12  -18   11  -11   12    4   23    4
  -5   -6   -6   -4    0   -4   -5   -6   -5
  -5  -12   -5   -9  -15   -9   -3  -11   -3
   0    6    0    5   20    5    3    7    3
  -6    4   -5    3   13    4   -9  -30  -10
  14   -2   13   19    6   22   21   32   24
   1   -1    0    0   24    2    0    5    0
  16   -6  -10   25   -3  -19    7   -2  -10
   2   14    2    4   25    5    7   16    8
   9   -3   -4   26    4  -32   13   -6   -7
  -1   22   -3   19   84   30    2   20    5
   7   28    7   19   12   22   -1   11   -3
   3   18    5   17   17   16    3    7    4
  10    6  -12   14   -7  -14    9    2   -9
  11   16   12   13  -25   12    4  -10    3
   2   11    2    9   27   11    5    4    6
  -5   -7   -5   -6   -6   -6   -5   -5   -6
   2   -4    6   13    4   13   13   35   17
  -6   -4   -7    6   33    9   10   28   13
   0    9    1    8   18    9    4   10    5
  -1   15    0   10   32   12    0    5    3
   1    3    0    3   28    3    3    4    3
  -6   -4   -7   -4    1   -6   -8   -2   -8
  -1   -8    0   -5   -6   -6   -1   -9   -1
   0    8    0    6   25    8    2    6    2
  -8   -5   -7   -6   -6   -6   -5   -5   -5
  -6   -7   -6   -7   -7   -7   -5   -9   -3
   0   11    0   10   17   10    3   14    3
  14   23   16    8   -4    7  -18  -19  -21
   2    8    1    9   27   12    4   10    4
 -16    4   11  -19   -9   23  -18    2   17
  -6   -5   13  -20  -16   32  -10   -4   14
  -4   -8   -6   -8   -6   -8   -5   -7   -6
  -5   -8   -4   -6  -33   -7   -3   -8   -2
  20   36   21   16  -20   16  -16   -3  -16
   0   15    0   15    8   16    3   23    3
  12    6   11   11  -49   10   11    5   10
   5    5    6    2   37    4    7    4    6
   5    7    5    6   25    7    3    5    4
  -1    7    1   17   12   20   13   26   15
  16   -6  -14   28  -15   -8   23   -9  -11
   1    8    2    8   29    8    6    6    6
  -2   -5   -1   13   -4   12   24   25   25
  -5   -8   -6   -9   -8   -9   -7  -11   -7
  -4   -4   -5   -5  -10   -5   -4   -6   -5
  -4   -6   -6   -7   -6   -7   -8   -7   -8
 -13   -4   17  -12   -6   19  -13   -5   16
  -4   -6   -4   -5   -2   -6   -6   -6   -7
   4   15    5   22   -1   21   10   23   11
   2   11    4    5   45    6    8   61   17
  -6   -7   -6   -9   -4  -10  -10  -10  -10
   2    7    3   12   11   14    3   14    3
  -2  -17   -1   16    3   15   10   30   14
   4   14    6   14   14   16    3   14    6
  -2   14   -2   18    8   19    6   24    9
   0    0    0    0    0    0    0    0    0
  -1    3    0    5   24    6   13   24   15
  18   15   20    6  -32    6   21  -13   22
   2   11    3   11   28   14    4   13    4
  -6   -9   -5   -9   -9  -10   -6  -13   -6
   5   13    5    5   33    8    4    5    4
   1   16    2   15   38   20    7   16    4
   4   -3    3   19   12   19   14   22   13
  -6   -7   -6   -7   -9   -7   -5   -8   -5
 -10   -3   14  -21  -11   34  -12   -3   15
  -7  -10   -6   -6   -8   -6   -7   -5   -6
  -5   -9   -7   -7  -15   -7   -5   -7   -5
   8    7   10    4   39    8    5   11    5
  -1   -5   -2   -5  -13   -7   -5   -8   -5
  -5   -9   -7   -6  -10   -8   -4   -7   -4
   5    8    6    8   47   11    6   10    6
   2    7    3    7   24    7    4    5    6
   9   21   10    8   20    9    0  -13    1
   1    5    2    4   32    6    2    8    3
  12   21   13   19   -2   22   -3   -3   -3
  -7   -6   -7   -9   -3   -9   -7   -8   -7
   4   18    6   11   19   11    3   -1    5
  -6   -8   -7   -7   -2   -7   -7   -5   -8
  -4   -3   -4   -7   -9   -7   -4   -7   -4
  -8   -9   -8   -8   -5   -9   -9   -6   -9
  -4   -6   -5   -6    1   -7   -7   -5   -8
  -4   -5   -6   -6  -11   -6   -6   -7   -7
 -12  -10  -11   -8    5   -7    2    8    2
  14   25   15   -2  -20   -2   -8   -7   -9
  11   26   16   12   38   12    0  -10   -1
   4   17    4   17   -4   19    2   10    1
  -5   -9   -7   -9   -6   -9   -2   -9   -3
   1    8    2   10   17   12    5   15    5
  13   21   16    6   40    5   -3   -9    0
  -3   -5   -6  -11  -38  -11   -1  -16    0
   2    5    1  -20   14  -20    0    6    0
  -7  -13   -7    3  -17    1   12   22   13
  19   14   20   10  -62   11    5    2    5
   4   13    6    7   32    7    5    4    8
   1   16    3   22   26   28    6   30   10
  -5   -7   -6   -5   -2   -6   -5   -8   -5
  17   23   18    1  -16    3  -10  -16  -12
  -3   -8   -3   -3   12   -2   14   23   16
   1   16    4   16   53   16    8   12    9
  -7    2    9  -21  -28   -8  -10    6   61
   5   -1    7    4   30    6    9   16    9
  -8   -9   -8   -9    1  -10   -7   -9   -7
  10   -3  -10   17    0  -18   17   -5  -10
  -1   15   -1   17   13   18    5   17    5
  -2   -5   -2   -5  -25   -5   -3   -5   -3
  -6   -6   -5   -9   -3   -9   -7   -6   -6
   8    8    7    7   49   10    8    9    7
  -4   -4   -4   -7  -23   -8   -5   -9   -5
  -3  -10   -4    7  -12    7    8   21    8
   9   22    9    2  -16    2   -2  -10    0
  -6   -3   -8   -6   -4   -7  -10   -8  -10
 -13  -14  -12    7  -10   10   15   42   17
   2   13    4    5   36    9    6   -1    5
  -8   -8   -9   -5   -7   -5   -7   -6   -8
   1    6    3    8   26    7    3   14    2
   2    7    2   12   17   16    5   23    6
   6    1    9    8   26    8    9    6    9
  -4   -4   -4   -4  -10   -5   -6   -2   -7
  -6  -11   -7   -8   -5   -8   -8   -6   -8
  -5   -7   -5   -6   -3   -6   -8   -6   -7
 -17  -18   23   -9    6   47  -19  -24   33
  -6   -6   -5   -7  -29   -8   -2  -11   -2
  -7   -5   -7   -7   -8   -6   -7   -8   -8
  -7   -9   -7  -10   -8  -11   -4   -9   -4
 -16  -23  -16    1   21    2   -1    6   -1
  18   16   21    9  -16    6    3  -21    1
  15   20   17    4    8    7   -5   -4   -5
  17   22   17    9  -13    8   -2  -16   -3
   8    8   10    4   48    7    0   10   -2
  -2    7   -1    9   24   10    3    7    3
  -7   -5   -6   -4   -5   -5   -8   -5   -8
  -4   -9   -4   -7   -4   -8   -5   -6   -6
  -7   -5   -8   -6    1   -6   -9   -7  -10
   1    9    1   11   26   14    5   15    4
 -20  -30  -18   -1   33   -2   -4   23   -3
  -5   -8   -6   -7   -5   -7   -7   -6   -7
  24   11   22    9   15   12   26    5   25
  -8   -5   -8   -7   -8   -8   -8   -7   -7
  -3   -6   -3   -5   -7   -7   -5   -6   -5
   0  -23   -1   12  -44   12   13   25   13
  -5   -7   -5   -6   -9   -6   -5   -8   -6
   0  -26    1   15   -6   16   11   32   13
   4   15    4   10   33   12    3    5    3
  -2  -12   -3  -12   -4  -12   -5  -11   -6
   7  -10    6    8   14   11   11   17   12
  -7  -10   -8  -10   -7  -10   -9   -7   -9
  -6   -7   -8   -8   -4   -7   -7   -6   -7
   1   10    0    9   27   11    3    7    4
  -4   -4   -5   -5   -6   -4   -3   -4   -3
   5    2    7   10   18   11    7   20    8
  -1   25    1   10   28   15   -4   22   -4
  17   17   17    9  -37    7    1   -8   -1
  -4   -9   -5   -7   -5   -7   -7   -5   -8
  -4   -9   -5   -8    0   -7   -5   -6   -6
 -28  -12   41  -21  -16   63  -36    5   40
   8   21   11    6   11    6  -28  -15  -25
  12   21   12   11  -10   12  -14  -13  -16
  -1   -6   -1   -6   39   -4   -8   -8   -7
  -6  -12   -7   -7   -1   -8   -8   -9   -8
  -7   -7   -7   -8   -5   -8   -9   -7   -9
  -7   -6   -7   -6   -4   -7   -6   -9   -7
  -6   -7   -7   -7   -5   -8   -9   -7   -9
   4  -22    3   -7  -20   -7    2  -25    2
   4    3    4    7   18    6    6    7    7
  -6  -10   -8  -10   -4  -10   -6   -8   -8
 -39   47   18  -36   49   40  -11   31   12
  -4   -5   -5   -5   -2   -5   -8   -7   -8
  -5   -5   -5   -6   -4   -6   -5   -6   -5
  -6   -5   -7   -6   -2   -7   -6   -7   -6
  -6   -5   -7   -6   -3   -5   -8   -4   -8
 -21  -10  -23    4   20    6   -2   17   -2
  -5   -7   -5   -8  -11  -11   -7   -8   -7
  14   26   14    1  -15   -1   -5  -24   -5
  19   22   20   -4  -11   -3  -10  -16  -11
  -5   -6   -4   -6   -2   -6   -7   -9   -7
  -5  -12   -9   22  -38   21   26   18   26
   6    7    8   12   36   15   15    6   18
   4  -10    7    9   34   11   20   20   22
   5    8    7   11   26    9   11   10   14
 -10   -3   13  -20    0   15  -12   -2   14
   0    8    0    6   21    7    4    9    5
   7    4    9    3   39    3   18    6   18
 -20   -1  -21    0   56    3  -17    9  -18
  -3    3   23  -17   -1   42  -14    2   26
 -19   16   -2  -21   14   14  -20   17   -4
   1    7    3    5   30    6    5    8    6
   6    6    6    6   28    7    2    8    2
  -7   -6   -7   -7   -1   -7   -8   -7   -9
  -5   -6   -5   -3  -10   -5   -5   -6   -5
   4   16    4   18   -1   20    5   19    7
  -4  -10   -5  -10  -10  -10   -4  -10   -3
  -7   -8   -8  -11   -1  -12   -8   -8   -8
 -12   14  -13   16   -2   19   36   37   37
   0   -5    1    0   34   -1    5   15    7
   3   15    5   15   -1   17    7   18    8
  12   12   14    9   33   11    0    9    1
  -9   -2   10  -19   -6   22   -6   -4   11
  -3   -5   -3   -6  -19   -6   -5   -5   -5
  -5   -6   -4   -6   -5   -7   -5   -6   -6
  24    2   26   12  -58    9    4  -21    4
  -5   -6   -5   -6   -6   -6   -5   -5   -6
  -6   -7   -7   -7   -1   -7   -4   -7   -5
   3    2    4    8   28   10    7   14    6
  -3   -6   -4   -6  -17   -6   -6   -4   -5
   2    6    2    7   27    6    5    6    6
  19    5   -9   -4  -14   -9   19    6   -7
   5   12    9    8   12    7    4   10    5
  12   -8  -11   28   -8  -13   20   -7  -18
   0  -19    0   -5  -41   -5   -1   -3   -1
  -4   -8   -4   -8   -7   -9   -4   -8   -4
  -6   -5   -6   -5   -5   -5   -5   -5   -6
  -5   -7   -5   -7    3   -9   -5   -7   -5
   5    6    6    8  -14    8   13    8   13
  -9   16   -9   16   22   16   -4   17   -4
   1   -4    2    4   30    6   19   25   20
  14   24   17   16   13   16    3    4    4
  -6   -5   -6   -6   -6   -7   -6   -5   -7
  -4   -6   -4   -5  -12   -6   -5   -4   -5
  -8  -10   -9   -8   -4   -9   -9  -13  -11
  -6   -6   -5   -7  -27   -8   -4   -8   -2
   2   24    2   25   13   25    6   28    8
  13   40   21   16   42   22  -14   -1  -17
 -11   -5  -13   -7   16   -5   -8  -10  -10
 -12   -6  -11   -8   -2   -9  -10  -10  -10
  -4  -15   -4    2  -25    1   20   25   23
 -12   -3    4   -5    5    3  -10   -2    3
  11   29   14   -8   -1   -8   -6  -16   -6
   7  -16    4   30  -10   31   14   66   17
  -6   -4   -6   -6   -6   -5   -7   -6   -8
  -4   -4   -4   -4  -11   -5   -4   -7   -4
  -5   -8   -4   -6   -7   -8   -6   -7   -6
   3    6    2   11   44   14    1   10    2
   5    5    6    7   26    8   10   11   10
  -3   -7   -3   -5  -23   -6   -5   -5   -5
  -6   -6   -6   -7  -14   -8   -4  -11   -3
  25    1  -31   60   -4  -43   27   10  -40
   6    1    7   14   36   15    3   25    2
   5    2    7    7   36    7    6    9    8
 -10   -5   -9   -6    8   -5  -10   -5  -10
  -6   -7   -6   -7  -12   -7   -6   -8   -6
   7    2    7    4   63    7    8    7    8
  -6   -7   -5   -6   -7   -6  -10   -6  -10
  -5   -8   -5   -5   -7   -5   -6   -5   -6
  -4   -6   -5  -10  -10  -10   -3   -8   -3
  -9   -8  -11   -9   -2  -12   -6  -13   -7
  -5   -6   -6   -5   -7   -6   -5   -7   -6
  -8   -8  -10   -6   -5   -7   -9   -5  -11
 -10   -2  -10   -7   11   -6   -9   -2  -10
   2   11    1    7   42   13   22   11   25
   1   16    1   14    6   17    3   10    1
  -8   -5   -8   -5    2   -4   -8   -4   -8
  18   27   19   -2  -35    0    0   -8    1
   0   -6    1    8   17    7   11   24   13
 -16    2  -14   19   -5   19   22   33   25
   0  -12   -2   12  -31   13   18   18   20
  -6   -6   -7   -7   -4   -7   -5   -4   -6
  -3  -17   -6    5    2    4   13   31   14
   2   19    4   17   -2   18    4   17    4
  -1    3   -1    5   28    7    5    5    5
 -10   -5  -10   -7   -2   -8   -9   -5   -9
  18   -1  -14   22  -12  -13   18    0  -15
 -12    1  -12    2   31    1  -12    2  -14
  -9  -10  -10   -7   -8   -8   -9  -10  -10
   7   11    9    9   15    8    0    0    1
   0   -8    0   -5  -12   -7   -4   -4   -3
   0    6    0    7   20    9    5   10    5
  -3   -3   -3   -4  -34   -4   -2   -5   -2
   2   16    5   17   42   18    1   17    3
   8   26    9   10   31   12    2    1    2
   5    3    5    7   37   10   13   14   13
  -9   -6   -9   -9   -4   -9   -7  -11   -7
  -6   -4   -6   -5   -6   -6   -5   -6   -6
  11   -2  -11   15    5  -18   16   -4  -15
  -3   -7   -3   -8   -1   -8   -3   -9   -2
  -1   -7   -1   -6  -24   -5   -1   -5   -2
  14   20   16    6   22    7   -7   -7   -8
  -2   -9   -3   -7   -3   -7   -7   -8   -7
  14   -3  -11   24   -6  -21   18   -8  -10
  -7   -5   -6   -5  -10   -6   -4   -7   -4
  -6   -7   -5   -5   -8   -7   -5   -6   -5
   8   38   10    8   10    9  -10  -12   -9
 -16   -1   15  -11  -19   33  -12   -4   15
  -6   -5   -7   -6  -11   -8   -6   -8   -7
  13   -3  -11   20    0  -18   13   -3  -13
   4   12    5   10   24   10    3    4    2
  -2   -2   -3   16   -2   15    9   42   12
  -6   -2   -5   -3  -34   -4   -5   -5   -4
   0    8   -2    4   28    9    6   12    5
   0    6    1   10   25    9    6   11    5
 -24   14  -22    9   43   12  -25   16  -24
   8   27   13   24   51   26   -8   16   -3
  12   28   14   12  -16   12    2  -20    2
  -4   -4   -3   -6   -6   -6   -4   -7   -5
  -7   -7   -7   -8   -8   -9   -6   -9   -7
  -5   -7   -5    9   37   11   12   24   13
  -3   -7   -4   -6  -11   -6   -7   -5   -6
  -5   -9   -6   -8  -11   -8   -5  -11   -6
  -8    0   15  -15  -26   35  -13   -2   19
  -5   -6   -6   -7   -4   -8   -7   -7   -7
  -9   -4   -9   -6    2   -6   -9   -6   -9
   1    3    2    2   20    3    2    3    2
  -5   -7   -5    2  -24    1   17   20   20
 -10   31   -4   25   90   32   -7   30    2
   2    7    3    7   19    8    3    9    3
   2   22    4   15   -2   16    5   20    6
  -2   -6   -1    9    4   10   10   27   12
  -4   24   -2   14   43   18   11   29   13
   6   18   13   14   44   13    7    9    9
  -3   -3   -4   -5   -8   -6   -4   -6   -5
  -2    9    0   16   -2   18    8   24    8
   2    8    3    7   28   10    6   15    6
  -6   -6   -7   -6   -5   -6   -7   -5   -8
  -4   -2   -4   -6   -5   -7  -11   -8  -10
  -6   -7   -6   -8   -6   -9   -4   -8   -5
   0   -2    4   14   23   12    7   14    9
  -4   -5   -5    5  -19    6   11   23   13
  30  -49   28   39 -122   50   26  -28   23
   4    9    3    9   33   10    5   13    4
  -2  -33    0   18    1   15   17   38   21
  -6  -10   -8    4   31    9    9   23   12
  -5   -8   -4  -10   -3  -10   -7   -6   -7
  18    7   17   -2  -28   -2    6   -4    5
   3   30    5   19    7   20    2    3    2
   0    0    0    0    1    0    1    2    1
  -7   -9  -10   -2    0   -2   10   30   14
  13   17   14    8    5    9    0  -19    2
   3    7    2    4   20    5    2    8    1
   0   12    0    9   22   13    7   18    7
  -3   -7   -4   -7   -7   -8   -3   -8   -3
 -34  -11   33   -2  -12   17   29    7  -46
  -9   -7  -10   -9   -5   -9   -8   -8   -7
  -9    1    7  -16   -6   24   -9   -4    9
   3    8    4    8   23   10    2    8    2
 -10   -4  -10   -5   -3   -7   -8   -7   -8
   0    7    1    6   22    7    5    9    5
  -5   -6   -5   -5   -1   -7   -5   -6   -5
   3    6    4   10   24   11    2    9    4
  -5   -6   -8   -6   -3   -7   -7   -7   -8
  -9  -28  -11    3   21    3    7   12    5
  -2   -8   -1   -9  -27  -10   -4  -15   -7
  -7  -11   -8   -6   -1   -7   -7   -7   -7
  -6   -9   -6   -9   -7  -10   -5   -9   -5
   9   26   10    9    4   11  -23  -16  -27
   2    4    3    4   36    5    2    8    1
   2  -11    2   15  -21   16   18   19   19
  11   -3   -9   32  -12  -16   14   -2   -9
  19   35   23   13   20   13    1  -24    2
  -5   -3   -6   -7   -3   -7   -5   -6   -6
  -1   -5   -1   10   26   10    6   18    8
   4   -1    6    4   51    6    7   13    7
  11   27   12    2  -13    1    0   -4   -2
 -12  -16  -14   -9   -8  -11   -4   -7   -4
   0    5    2    8   18    8    7   12    9
  -4  -11   -5   -9    0  -10   -7  -10   -7
   5   16    9    8   23    8   -2   -7    0
  14   15   15    9   62   13    8   12    7
   2   10    2    9   21   10    4    4    4
   5  -15    3    4   25    5   18    6   16
  -5   -8   -5   -7   -5   -7   -8   -7   -8
   1   13    3   -1   17   -1  -15  -17  -15
 -13  -19  -13  -16   20  -16  -12  -19  -12
 -10   -6  -11   -1   33   -3   -8    5   -7
  -6   -6   -6   -9   -6   -9   -8   -7   -9
   6   12    9    3    4    2  -11  -19  -12
   9  -13   12    8   47   12    8   51   12
   2   13    2    8   20    9    4   12    5
   3    1    8   15   50   12    9   26   13
   0    9    0   10   23   11    3    7    2
   6    7    8    8   35    9    8    9    8
 -11  -25  -14   11    4   10   14   13   16
   4   -8    4    9   21   16   19   46   23
  10   30   12   13   -7   12  -14  -27  -14
 -10   -1   13  -13  -17   32  -11   -6   18
  -4   -5   -5   -7   -7   -7   -6   -6   -7
  -6   -4   -6   -6   -7   -7   -7   -7   -6
  -5   -6   -5   -5   -3   -6   -6   -6   -6
  -5   -9   -5   -7   -4   -8   -8   -7   -7
  -9   -3   -8   -4    7   -5  -10   -2  -10
   2   12    3   11   20   12    4    8    3
   0    1    0    0    0    0    0    0    0
  -9   -7  -10   -6   -4   -7   -5   -3   -6
   0   -4   -1   -4  -36   -4   -1   -4   -1
   3   11    5    2   28    2   10   11   11
   1   15    2   16    9   17    4   15    2
 -23  -23   12   14   -1   33   11   34   15
  -4   -8   -5   -7  -10   -7   -3   -5   -4
   0    9    2   10   15   11    2   10    2
  -4   -8   -5   -8  -15   -7   -4   -8   -6
 -10   -6   15  -22    2   22  -11   -7   17
   3   11    4   21   -1   23    5   23    5
   1    4    2    7   22    8    2   12    3
  -6   -5   -6   -6   -3   -7   -7   -6   -7
  -5   -9   -6   -9   -4  -10   -5  -11   -6
   2   -2   11  -15   19   36   -3    2   22
  16   -3   -9   37  -21  -22   22  -10   -7
  -2    8   -4   15   42   19    8   32    9
  15   -6  -11   20    4  -21   12   -4  -15
   3    6    4    7   30    8    7    9    7
   1   10    3   12   26   13   17   20   21
  -4   -6   -3   -8   -6  -10   -6   -9   -7
 -14  -19  -15    6   13    8   -2   16   -1
  14   40   17   16   21   18    6  -27    6
  -2  -19   -3   14   -7   15   18   31   19
  -5    6   -6   -1   28    0  -14  -10  -15
   1   12    1   11   21   11    3   10    4
   3    3    2    4   21    5    2    6    1
  -3  -11   -2   -7  -37   -8   -1  -14   -1
 -11  -18  -12    5   -3    3   14   19   16
  15   -7  -10   23   -7  -16   15   -4  -10
 -25  -21  -27   13  -20   18   10   31   12
  -7   -5   -7   -6   -3   -6   -5   -6   -6
  -4   -7   -5   -6  -15   -5   -3  -10   -3
 -10   -5  -10   -5    4   -4  -10   -5   -9
  12   28   16   16   38   16    3  -11    6
  -9   -6   -8   -7  -11   -7   -9   -5   -8
   4    5    4    9   55   11    6    2    6
 -10   -8  -11   -7   -4   -8   -8   -6   -9
  -1    1   -1    8   20    9   10   19   11
 -10   -8   20  -13  -21   30  -12  -10   26
  -6   -6   -6   -9   -5  -10   -8   -9   -9
  -2    4   -3   18   -8   21   13   31   13
  20   26   22    0  -20   -1   -8  -18   -8
   0   10    2   10   45   11   20    8   21
  16   32   18   10   -4    9   -9  -21  -10
   2    6    3    5   28    7    5    8    5
  -6  -10   -7   -7   -2   -7  -10   -6   -9
 -10  -13   20  -18   -4   28  -13   -6   16
  14   14   16    4   55    3    5   -7    4
 -19  -16    2  -23    1   16  -17   17    8
   0   -7   -1   -8   -2   -9   -2   -8   -2
  14   -6  -12   29  -10  -18   14   -1  -13
   1   24    5   18   24   19    5   16    5
  -9  -13   -6    5  -28    6   17   30   20
   0    7    2   10   21    9    1    9    4
   1   12    1   13   31   15    3   18    3
  -6   -6   -6   -7   -4   -7   -5   -6   -6
  -4   -9   -4   -8   -6   -8   -6  -10   -7
  -3  -11   -2  -12  -22  -13    0  -18   -2
   8    5   10   12  -45   11   12    8   13
  12   25   13    7  -11    7   -6  -16   -7
   3   14    6    9   38    9    6    3    7
  11   27   15    8    5    8  -14  -21  -17
  13   19   13   -3   -2   -2  -14  -11  -15
   5    6    7    6   33    7    1    8    1
  -8   -4   -8   -4  -11   -5   -8   -8   -7
  -2  -10   -5  -10   -5  -11   -6   -9   -7
  -7   -7   -8   -6   -7   -7   -6   -5   -6
  11   -2   -8   17    4  -24   10   -2   -8
  17   20   19    2  -31    2   -1   -6   -3
  -6   -8   -7   -5   -5   -5   -8   -3   -9
   0    7    0    5   45    7    8    5    8
  -3   -6   -3   -6   -8   -7   -2   -7   -2
  -8   -5   -9   -5   -1   -6   -9   -5   -9
  15   29   18    6    2    5  -15  -18  -17
  24    0  -21   35  -19  -22   14    2  -20
  -8  -31  -10    4   -4    6   11   46   12
  -8   -7   -8   -4   -7   -5   -8   -4   -8
  -5   -5   -6   -5   -5   -5   -5   -6   -6
   4    5    6   11   42    9    7   10    9
  -6  -10   -6   -7  -15   -9   -6   -6   -6
  -5   -8   -6   -7   -9   -7   -7   -7   -8
  -5   -6   -6   -7   -4   -8   -5   -6   -6
   3    5    4    4   24    4    5    4    6
  -3   -7   -4   -6  -12   -7   -2   -7   -2
   5    1    3    5   24    7    5   16    6
   3   19  -11   13   34    3    1   18  -27
  -8   -7   -9   -8    0   -7   -7   -5   -7
   0    6    1    5   16    7    0    9    0
   3   13    4   15    0   13   10   18   12
  -8   -6   -8   -7   -2   -8   -7   -4   -8
   5   15    6   24   -1   26    4   20    6
  -9   -7  -11   -7   -4   -8   -4   -9   -5
  -1   -8   -3   -7   -8   -8   -4   -6   -4
   9   29   10   16   43   17    6    8    3
  -5   -9   -5  -10   -9  -11   -4  -10   -5
   2   11    1  -23   43  -19    0   -9    0
  -5   -7   -4   -8  -10   -7   -6   -9   -7
  -8   -5   -8   -5   -8   -6   -8   -6   -8
  18   -3   20   11   67   13   18   21   20
   1    6    2    7   20    8    3    7    3
  -6   -7   -7  -10   -1  -11   -8   -9   -8
  -5   -5   -5   -5   -4   -5   -8   -6   -8
  -8   -8   -8   -6   -5   -7   -8   -6   -8
  -1   20    0   13   31   16    1   18    3
   2    7  -12    9   26  -15   -7   -8  -22
  -7   -5   -8   -5    0   -4   -8   -3   -8
  -6   -6   -7   -7   -5   -7   -7   -7   -7
  -3  -12   -3  -10  -22  -12   -1  -12   -1
   5    0    4    3  -31    3   14    7   14
  -5   -8   -5   -8   -6  -10   -7   -9   -7
   7   21    8   13   15   13   -4   -8   -4
   2   12   -1    2   55    8   -7   23   -6
  -7   -6   -7   -5  -17   -6   -7   -5   -7
   3    7    3   12   24   15    7   16    6
   2    7    1    9   32   14    6   13    4
  -4  -11   -6   -9   -7  -10   -4   -5   -4
   5    7    4    7   31   12   10   16   11
  -5   -5   -6   -7   -2   -7   -7   -6   -8
  -5   -8   -6   -7   -7   -7   -7   -6   -7
   5    2    5    3   27    5    3    9    5
   5    1    6    7   24    9    5    8    5
  -6   -5   -7   -5   -1   -5   -6   -5   -6
   2   11    1   10   23   13    4    8    3
  -2   -9   -4   -9   -3  -10   -5   -9   -6
  -6   -5   -7   -4   -3   -5   -6   -4   -7
  -6   -7   -6   -6   -5   -7   -9   -9  -10
   0    7    3   18    8   16   13   22   15
  -3   -7   -4   -5  -10   -5   -3   -6   -3
  -2   21   -2    9   34   12    1    5   -1
 -22    2   17  -10  -17   21  -20   -3   18
  11   70   18   12   21   11   -2  -24   -2
  -3   -9   -3  -10   -6  -10   -4  -10   -5
   1    2    2    9   31   12   10    6    9
   1    2    2   -4   19   -3  -14  -13  -14
  13   16   13   13  -26   12    0  -12    0
 -10  -14   -9  -10   10  -12   -7   -3   -6
   3    2    3    5   23    6    5    7    5
  -6   -5   -5   -3  -26   -2   15   29   17
   5   16    7   -1   14   -1  -13  -12  -17
   5   13    6    4   39    4    3    9    4
 -11   -7   15  -26   -5   32  -10   -4   12
  -4   -9   -6   -9   -7   -9   -6   -8   -7
  -4  -12   -6   19   -7   18   17   26   19
  -8   -3   13  -19   -4   16  -12   -3   14
  -4   -8   -4   -9   -5  -10   -9   -6   -9
  13   21   16   15    9   15   -2   -3   -1
  -5   -4   -4   -6   -7   -7   -7   -5   -9
   6    9    5    9   41   12    6    7    6
   1    9    2   18   16   21    6   22    7
   4   17    8   10   26    8    5    8    6
  -5   -5   -6   -7   -6   -8   -8   -7   -9
   1   14    2   18   20   21   13   18   14
  -8   -7   -7   -8   -6   -8   -7   -8   -7
   0   14    5   12   13   10    6    9    8
  -4  -15    9  -22  -12   62   -7  -13   25
   0    6    1    7   28    8    3    9    2
   4   11    4    8   25   10    2    7    2
  -8   -6   -9   -7   -5   -9   -5   -7   -6
  11   22   12    8   23    8   -4    9   -3
 -10   -3   11  -10  -22   30   -8   -3   11
  -7   -2   -7   -1   -6   -3   -7   -5   -6
   1  -20    1    5  -17    6   20   16   21
  15  -10  -15   31  -16   -9   15   -8  -12
 -14   -8  -15  -11   12  -11  -11   -7  -12
  -7   -6   -8   -8   -7   -7   -7   -9   -7
  -8   -1   11  -21   -9   24  -10    0   12
  17   23   21   16  -22   15    2  -13    1
   2    8    3    7   23    9    5    6    5
 -17   -4   26  -16  -19   35  -17    2   18
   3    5    4    8   15    8    2    7    3
   1    2    3    8   26    9    8   14   10
   1    6    1   10   23   11    3   13    3
   8   -3    9    9   30   12   29   33   32
 -11  -12  -11   -7   -7   -7   -5   -6   -6
   6    7    9    8   51    9    6   -2    6
  -6  -13   -5   -2   19   -1   -4  -17   -2
   0   -1    0    0   20   -1    9   10   10
   8   16   10    0    5   -1   -8  -20   -9
  11   20   12    8    2    7   -1   -8   -1
  -1    8    0   13   22   12    5   20    8
  16   -6   13   14   45   14   26   26   28
   3    1    4    8   35   10    3   16    3
  -7   -6   -6   -8   -2   -9   -5  -11   -4
  -4   -4   -5   -4   -4   -5   -4   -6   -4
  20  -10  -15   31   -6  -20   14   -4  -12
   5    2    6    1   27    3    5    4    5
   1    9    3   13   29   17    8   21   10
  16   -5  -21   23  -20  -14   13    7  -21
   3    7    5   10   35   13    6   -3    7
  -4  -10   -5   -9   -7   -9   -3   -7   -3
  13   31   12    9  -12    9   -8   -9   -9
 -13   -3   14  -18   -1   18  -12   -3   13
  -7   -6   14  -19   -1   17   -8   -5   13
   6   27    6   22   31   28    3   16   -1
  -4   -7   -4   -7  -34   -9   -1   -9   -1
   8    8    8   10   18   13    6   10    7
  -5   -5   -6   -8   -4   -8   -6   -8   -7
  -6   -4   -7   -6   -1   -6  -10   -5  -10
 -48   34   -9   38   61   43  -11   43   11
  -5   -5   -6   -8   -6   -8   -5  -10   -6
   1   -6    0    6   21    8   10   26   11
  -3    8   -8   12   35   18   18   33   18
   7    1    6    2  -29    2    8    4    8
  -4    5   -6    8   43   12   -2   19   -1
  -6  -14   -7   -9  -27   -9   -5   -4   -5
  -5   -7   -4   -9   -9  -10   -2   -9   -2
 -13   -7  -14   -5    7   -7  -11   -6  -12
  22   -9  -12   26   -6  -15   16   -6  -10
   2    4    3    4   28    5    3    5    3
   0   -3    0    1   35    2    7   24    7
   1   -9    6   22   -2   21   19   30   22
  -3   -8   -3  -10   -3  -10   -5   -8   -5
  -9   -5  -10   -5   -4   -6   -6   -7   -7
  -8  -10   -8   -8   -7   -9   -6   -9   -6
   3    3    4    9   40   10    7    9    8
  15   -6  -11   31  -16  -16   12   -9   -6
   0    1    2   12   45   13   11   15   14
  -1   17   -1   19   23   19   -1   11   -1
   0    5    2    7   25    7    3   12    4
   1    2  -13   11   11  -19    1    3  -17
 -22   -5   15  -20  -22   27  -26   12   11
  17   -2   -9   25  -19  -15   17   -3  -11
  -9   -5  -10   -8    0   -6  -12   -4  -12
  -6  -12   20  -20  -17   31   -9   -7   17
  -2   -9   -3  -10   -2  -11   -5   -9   -5
   5   10    4    3   18    3    8    3   10
 -31   27   55  -49  127   62  -46   28   84
   4   14    4   14   20   16    4   16    5
   3    7    4    9   24    9    5    8    6
  -4    5   -4   -2   30   -1  -25  -11  -24
   7    8    8   12   27   14    3   11    3
  13  -20   -4   43   -5  -20   21   13  -30
   2    7    2    5   46    7    2   13    1
 -14  -12  -17    7   -7    6   16   17   17
  -9  -22   -8   19   -3   17   24   49   27
  -7   -9   -7   -6  -10   -7   -7   -7   -7
   4   -5    4    9  -24    9   15   12   16
  16   27   17    6    3    7  -16   -9  -16
  14   -6  -11   36  -10  -16   15   -6   -9
   7    0   -8   18    1  -20   13   -2  -11
  -3   -1   -2   18   -3   17   11   17   12
  14   -3  -12   24  -19  -11   18   -4  -15
   0   14    1   14   46   16    8   14    6
  30   22   33   24    1   21  -10   -8   -8
  -6   -8   -6   -8   -5   -9   -6   -5   -8
   3    8    4    6   18    7    4    8    4
   2   18    3   16   24   20    7   14    7
  -6  -17   36  -25  -23   37  -14   -6   30
   4    5    4    7   20    8    5    7    6
 -11  -11   19  -13  -19   28   -8   -1   14
   8   11   10    7   23    8    9  -10    7
 -11   -8  -11   -9   -1   -8  -12   -9  -14
  -3   -8   -2   -8  -23   -7   -2   -7   -4
   1    1    2    1   22    2    3    6    3
   2    9    4    9   29   12    7    2    6
   9   19   10    2   16    3   -8  -14  -10
  -4   -8   -3   -9  -30  -10   -5  -10   -4
   6   32    9   12    3   13    1   -5    1
  23   23   27    9   70   18   13    6   13
   5    1  -16    2   -1   -8    3    2  -11
  -4   -6   -5   -7   -2   -7   -4   -6   -6
   2   10    3    5   40    8   14    2   13
   2   13    2   11   22   10    8    3   11
   6   12    8    8   39   12    7   -3    6
 -12  -10  -14    1   21    1    0   11    0
  -5   -4   -6   -5  -11   -6   -4   -5   -5
  -5  -17   -7    0    3    1   12   26   13
  -5   -8   -6   -7   -5   -7   -5   -7   -5
  -9   -4   15  -23  -23   42  -20    1   20
   0    0    2    5   29    5    3    7    4
  -5   -8   -4   -5  -17   -6   -4  -10   -4
   0   15    1   14   -4   17    2   14    3
   1   10    0    7   31   10    7    8    6
  -3   -8   -3   -7   -8   -7   -3   -6   -4
  -2   20   -2   17   -5   21   13   17   12
  13   22   15   12   -4   11    1  -18    0
  -4   -7   -6   -6   -9   -6   -4   -6   -6
 -13    3   -1  -19   11   12  -19    4    0
  14   32   17  -11   -7  -13  -13   -2  -15
  -4   -5   -5   -6   -4   -6   -4   -7   -4
  -8  -12   -9    0   -6   -1   10   19   12
   8    2  -35   27   20  -23   12   15  -31
  -4   -9   -4  -10   -5  -10   -7   -8   -7
 -10  -26  -12   -3    4   -3   12   22   12
  12   28   15    8    0    7   -8   -5   -7
   0   -6    0    9   22   10    9   25    9
  -5  -11   -5   -7  -10   -8   -4  -13   -4
   0  -12   -1  -12  -23  -11   -1   -9   -3
  -7   -4   -9   -6   -8   -6   -7   -5   -9
  -4    3   -4   -2   37    0   -6    2   -6
  -9   -9   -9   -8    1   -9   -8   -8   -9
  23  -13   29   43   10   43   36  -43   37
  -6   -4   -6   -6  -14   -6   -4  -20   -4
   1   10    2    8   13    9    5   12    5
  -6   -9   -6   -8   -7   -9   -6   -7   -7
  -5   -7   -5   -6   -9   -7   -7   -6   -8
  15   33   19   13   38   12   -4   -8   -2
  -7  -15   -8   -3   -6   -2   11   26   13
  -4  -13   -4    1   -7    0    1   11    1
 -12  -10  -11    9  -11   11   16   21   18
  15   23   18    5  -14    4  -11  -16  -12
  -1  -19    4   23    7   25   20   31   24
  -2  -31   -1   14   17   15   12   48   15
  -1  -11   -2   -3    0   -3    2   26    3
  -7   -7   -7   -6   -3   -7   -4   -3   -4
   8   -6    7    4  -33    2   18    8   17
  -4   -8   -4   -8   -1   -8   -4   -5   -3
   9   -3   -8   17   -1  -17   11   -3  -10
  -4   -6   -4   -5  -14   -6   -3   -7   -4
 -17  -13  -19    0   17    0    5   10    5
  -5  -10   -8   -9  -11   -8   -4  -10   -5
  -5   -7   -5   -7   -4   -7   -5   -5   -5
  19   -8   -7   40    4  -18   25  -14  -14
  -1    1   -2    7   23    7    6   25    7
   2   11    2   10   21   13    5   11    5
  12   -2  -11   35   -8  -23   16   -3  -12
   9   36    9   24   23   24   17   42   15
  -7   -6   -8   -5   -7   -6   -9   -5  -10
  -9   -2  -11   -4   39   -5  -12   -6  -13
  -8   -8   -8  -11   -3  -11  -10   -9  -12
 -15   -1   18  -18  -15   28  -14   -1   17
   2    7    3   10   40   10    1    6    1
   0    3    3   18   48   22    7   20   11
   2    4    0    2   31    3    4    6    3
   1    9    2    6   29    8    9    1    8
   0    6    1   12   25   12    0   13    2
  19   27   21   14  -41   14   21   -1   20
  -8   -5   -9   -7   -7   -7   -7   -7   -7
   2    6    3    6   26    7    4    2    4
   0    7   -1    7   26    9    6    7    6
  -8  -21  -10    6  -30    5   12   36   16
  -1    8   -1    7   15    6   12   13   12
  -4   26    2   24   75   26   20   25   24
   1   11    2    8   28    9    0    9    1
  -5   -7   -6   -4   -8   -5   -6   -6   -7
   6   13    6   13   16   13   12   16   13
  -5   -8   -6   -7   -8   -8   -6   -7   -6
  11   24   14   14   -5   14   -6  -11   -8
  26   26   28   20  -30   23   -6  -19  -12
  -4  -28   -6   -1    5   -3   11   25   12
   8  -29    7   27  -26   31    7  -27    6
  -4   -4   -4   -6   -6   -7   -8   -5   -8
  -1  -10    2   24   50   23   20   21   21
 -18    1  -18   -4   14   -3   -3    5   -2
   3   15    3   23   -5   23    5   25    6
   7   15    9   10   18    9   12   15   13
  -2  -11   -3    4   -1    7   12   35   13
   5   -1    6   -1    4   -2   -5  -20   -5
  -7   -4   -9   -3   -5   -4   -9   -4   -9
  -1    8    1   12    8   11    9   20   11
  28   53   36    4   46    1    8  -40    3
  -1   -4   -2   -6  -12   -6   -1   -4   -1
 -14   -1   12  -15   -4   21  -17   -3   16
 -10    6  -12   15   41   19   12   31   14
  -2  -13   -2   18   -7   16   23   27   26
  -8   -5   -7  -10  -10   -9  -11   -4  -12
  12   22   15   25   -7   25   17   38   17
  -7   -5   -7   -6    0   -7   -7  -10   -8
  -4  -10   -5   -6  -14   -7   -4   -5   -4
 -11   -7   16  -19  -17   33  -15   -1   18
   0    6    0    5   48    6    4    3    4
  17   24   17    3  -23    2  -13  -12  -13
  -6   -8   -6   -9  -16   -9   -2   -8   -3
  -5  -11   -6   -7  -13   -9   -5   -6   -4
  13   17   14    3  -28    3    0   -3   -1
  14   17   16   11  -22   10    7   -8    5
  -6   -7   -6   -5   -7   -6   -6   -7   -6
   2   17    6   15   47   19    3   14    4
   4    1    3    7   19    8   14   18   17
   0   -5    0   11  -29   12   17   21   18
  12   49   16   15   54   17   24   14   26
   3   14    3   11   12   12    7   15    7
   3   17    4   13   26   13    6    7    7
  -4   -7   -5   -9   -9   -8   -6   -7   -6
  -3  -20   -4   10   11   11   18   30   20
  -2   -9   -1  -11  -35  -11   -5   -9   -3
  -6   -2   -6   -4   -1   -4   -7   -3   -8
  15   12   16    8  -44    7    2  -11    3
  -9   -1   -8   -2  -66   -4   -8  -10   -8
 -20    5   15  -15  -33   42  -21    8   17
   1    9    1    6   31    8    3    8    3
  -3   -5   -2    4   13    5   11   21   11
  -9    1   -9    1   24    1  -12    1  -12
  -5   -7   -6  -11   -4  -11   -7  -12   -8
   1    3    4   13   38   12    5    3    6
  -9   -5   -8   -8   -2   -7   -7   -8   -7
  -6   -6   -7  -11    2  -11   -8  -11   -9
  12   -9  -10   23   -7  -16   11    6  -22
  -5   -8   -5   -5   -3   -7   -6   -8   -6
 -17   -2   14  -16  -20   32  -14   -1   13
  -6  -10   -8    0  -23   -1   18   16   18
   3   16    4   11   25   15    1   14    0
   4    3    5    4   20    3    5    6    6
   1    4   14    2   24    5    2    7    3
  32    1  -36   12   -8   -1  -37    7   30
 -12  -18  -11    7   14    7   23   30   26
  -7   -6   -8   -7   -5   -8   -4   -9   -4
  -4   -6   -5   -7   -2   -7   -4   -6   -5
   7   11    8    4   29    4    4    5    4
   7   20    9    9   14    8    4  -10    3
  -4   -6   -2   -6  -31   -9   -5   -9   -4
   1  -10   -1    3   18    4   10   19   12
  -5   -9   -4   -8   -6   -9   -6   -9   -6
   7   18   10   12   76   11   10   14   14
 -13   -2   13  -16   -3   18  -16   -4   20
   4   -6    5    6   25    5   12   21   13
  25   20   25   10   78   13    9   16    9
  26   11   29   12   62   12   24  -11   26
  -6   -4   -8   -4   -4   -4   -7   -3   -8
   1    1    0    0    1    0   -1   -1    0
 -14  -29  -14    9    0   10   13   32   14
  18   28   19    3   17    3  -14  -27  -15
   2    7    3    1   21    2   -1    7   -1
  -8   -8   -8   -6   -5   -6   -7   -7   -7
  -3   -4   -3   -6   -6   -7   -3   -7   -3
  -8   -9  -10   -6  -14   -6   -5   -6   -6
 -11    5  -11   -1   49    6  -16  -10  -19
  -5   -3   -6   -6  -11   -6   -4   -5   -5
   8    1    8    5   19    8   12   23   13
  -2   -4    0   14   -4   14   13   32   13
  -7   -5   -8   -6    1   -6   -8   -4   -9
 -14    0   14  -16   -6   20  -14   -1   13
 -19   -1   17  -18   -5   18  -17   -9   27
   3    5    3    4   20    4    6    8    7
   2    0    5   12   19   13    7   23   10
  -1  -20   -3    0   15    1   18   19   18
  -6   -6   -7   -6   -8   -7   -7   -5   -7
 -20   43  -12   -1   38   -2  -16   43  -12
   1    9    3   16   25   17    8   24   10
  12    3   13    4  -24    3    6  -11    7
  -5   -9   -6  -10  -13  -10   -5   -6   -4
  -6  -19   -7    1  -17   -1   14   38   14
  -6   -8   -7   -9    1   -9  -11   -9  -10
 -11   -1  -12   -5   11   -5  -12   -5  -11
   4    2    4    7   19    8    3    8    3
   1    6    0    8   34    8   11   17   12
   8   31   11   -1  -19   -2   -7  -16   -8
  -1  -10   -1  -12   -3  -11   -2   -9   -4
 -11   -4  -11   -5   40   -4  -11   -1  -10
  15    6   15   17  -84   16   20    2   21
   2    3    4    2   32    2    3    6    4
   2    5    2    5   32    6    2    8    2
   0   10    1   10   22   14    9   12    9
  -5   -5   -5   -6   -1   -6   -6   -5   -5
   3    7    3    5   28    6    4    8    3
  -1   -5   -1   -5  -35   -5   -2   -4   -2
  -5  -11   -4   -5  -15   -7   -6   -8   -5
   0   21    3   19   -1   18    3   17    3
  -4   -7   -5   -5  -15   -5   -6   -4   -5
   4   30    6    6    8    4   -3  -18   -4
  -6   -5   -7   -6   -6   -6   -8   -5  -10
   4    7    5    9   44    9    8   15    8
  -8   -5   -9   -6   -3   -7   -8   -5   -9
  -1  -20   -4   16   -9   18   11   28   13
  15   13   17    8   -6    8   -2  -12   -4
   6   13    7   10   26   10   -3   -1   -1
  -8   -1   -8    0    0    0    9   26   10
  -7   -5   -8   -7   -1   -7   -8   -9   -9
  -5   -8   -6   -7   -5   -8   -5   -6   -5
  -9   -3   10  -11  -18   28  -13   -3   17
 -10   -5  -10   -6   -3   -6   -8   -8   -9
  -4   -4   -4   -6   -7   -7   -4   -4   -4
  12   29   12    5   19    6   -3    0   -1
  29  -15   38   40  111   40   31   12   29
   4    6    4    8   27   10    4    8    4
  21   18   22   -1    3   -4  -18   -7  -17
   6   19    9   25   30   29   21   28   21
   1    9    2   10   19   12    3   12    3
   4    0    7   10   21   11    5   19    6
  32   18   36   26  -93   22   33    4   30
  -7   10   54  -28  -11  -21  -10   13   15
   3    2    1   21   -2   20   10   43   14
  -9   18   -7  -25   13  -26  -10    6   -8
  -4   -6   -6   -8   -7   -9   -5   -7   -5
 -13   -6   20   -9  -13   20  -11   -6   19
  -2   -7   -2   22   -6   27    5   23    6
  -8   -8  -10   -7   -6   -9  -11   -8  -12
  -6   -9   -6  -11   -1  -11   -7  -11   -7
   1   10    3    4   29    5    1    5    2
  -6  -11   -6   -9    4  -10   -8   -9   -8
  -4   -1   -4   -5   -4   -6   -9   -5  -10
  -5  -10   -7   -6   -6   -7   -7   -5   -8
  -6   -6   14  -12  -19   28  -12   -1   12
 -10    0   11  -19    1   15  -14   -3   16
  -7   -5   -7   -5   -4   -7   -6   -9   -6
  -7   -4   -7   -5   -4   -6   -9   -8  -10
  10    0    8   27  -40   26   18   62   20
   2    3    3   15   38   17   11   40   14
   1    8    2    9   17   10    4   12    6
  19   20   19   -8  -23   -9   -6  -11   -5
   2    0    2    9   43   10   11    8   12
   1    7    1    9   37   11    3   10    5
  -3   -4   -5    5  -11    7   14   19   14
  -7    8   -7   18   21   19   10   14   12
  -5   -4   -6   -7   -4   -6   -5   -6   -6
  -9   -1    9  -16   -3   21   -9   -3   10
  -8   -5   -9   -7   -5   -6   -6   -9   -6
   4    6    4    5   30    9    8   12    6
   2   -3  -13   12    7    0    3   -7  -10
 -15   -3   18  -15  -14   31  -13   -1   13
  -6   -8   -7   12  -40   10   17   25   16
  17    0    6   23   25  -16   20    6    2
  -6   -8   -6   -8    5   -8   -8   -5  -10
   6   21    8   23   15   26    9   33   11
  -5  -12   -5  -14    2  -14   -3  -15   -3
  -5   -8   -5   -6   -5   -7   -6   -8   -7
   5  -10    5   10   26   11   20   20   20
 -12  -11  -16   -2    5    0   10   21   11
   2    5    4    5   25    5    3    5    4
  -9    0    9  -21    0   22   -9   -3    9
   2   11    2   10   18   11    3   12    3
   0    3    0    6   28    9    4    8    5
   4    9    4   12   20   13    4   13    4
   3   15    1    6   41    9    7    4    7
  51   16   52   -8   16    2  -23  -54  -31
  11   21   12    6   23    5    3    4    5
   0    7    1    5   31    7    1    9    2
   5    9    7    9   42   13    9   20    6
  -4   12   -3   18   15   20    7   18    8
 -11   -4  -12   -6   -3   -5   -9   -5  -10
  -2    7   -2    7   29    8    0    7   -1
 -24    5   11  -18  -21   20  -23   21   17
   2    2    6    8   28    8    5   12    8
  -6   -8   -7   -6   -4   -6   -5   -6   -5
  -5   -4   -5   -7   -3   -8   -5   -8   -7
  -1    3    0   11   37   14    6   21    3
   1   12    0    9   24   11    5   16    5
 -10   -2   -6  -27   68  -27   -5   -9    0
  -3   13   -1   12   27   14    4   17    2
  -7   -7   -9   -8   -1   -8   -8   -5   -9
  15   -7   -6   27  -15  -16    9    1  -10
  -6  -16   -5    4    0    1   14   25   16
  -5   -4   -5   -5   -7   -6   -5   -7   -7
  -7   -7   -8   -6   -6   -7   -8   -7   -8
  12   13    9   10   66   16   24    6   21
  -4   -5   -4   -7   -5   -7   -4   -7   -4
 -15   -3   17  -19   -6   25  -18   -4   17
  -7   -6   -9   -5   -8   -5   -7   -7   -8
   1   10    2    7   29    9    4    5    3
   6   18    8   14   -2   16    7    8    7
  18   -2  -14   29  -24   -8   17   -3  -13
  11   23   16   12   15   13    2    2   -1
  -4   -8   -5   -6   -9   -7   -3   -7   -4
   4    6    6   10   25   10    4    9    5
  -4   -5   -4   -5   -2   -6   -5   -5   -6
   7   10    9    6   33   10   12    3   11
   0   10    1   19    0   21   15   30   16
  -7   -9   -8   -8   -3   -9   -5   -4   -5
   4    3    6    4   16    4    2    5    3
   3    8    3   11   16   11    5   11    5
   5   13    7    5    9    6   -9  -20  -11
  12   19   15    9   -6   10   -2   -9   -2
 -15  -30  -17    9  -12   14   15   38   17
   7   -6    8   -1  -20    0   22  -11   22
   3    8    4    4   28    6    8    8    8
