  -1  -25  -35   14   34   55   54  -28   32  -16   18  -11    2    7   18   13   13  -48   -9    1   25    7    4   -2   14    4  -14   -7   15   58   85    8   -9    2   15  -35   19   25  -23   -1   -7   53  -30  -17   -8   -8   -8   25   -2  -47  -15   -5   -7    3  -12  -22   62   14  -27   43  -11  -13    9  -27
  10  -32    0   17   -2    9   16   47   17   -2  -34  -10   17  -33  -25    5    1   40  -16    5   41    0   20   -1  -15    2  -26   27   24   -8  -13   21  -20   29    4  -17    1   -4  -27  -10   -3   25   -9  -11    2   37   -4   20    4  -17   16    5  -40  -54   33  -12    3   11   28    7   -7   -2   18  -24
  15  -12   31   -9   25   13  -15   -8  -10    5    2    4  -70  -23   34   20   10  -25  -18   33   -7    8   14  -38   25  -26   34   -8  -10    6   17   12    8    3   -6   -4  -21    4   16  -22  -19    8   11  -15  -19    8  -16  -30  -26  -21   13   -2    1   37   19   -6   -9  -28    1    5   12    5   36   -4
  13  -51   -3  -20    5   15   65   11   22    0  -24    1   -3   30  -17   53   35  -37   40  -56  -60  -57   58   -5  -34   39  -22   19   37   41   42   56   -1    2  -38  -30  -39   50   19    0   20   20   41  -28   11   -3   20   -1  -41  -51   38  -71   11  -37   41   14   10   28   27    9  -52   34   -7   15
  11   30   -4   -4   38   -9  -24  -42   -5  -10  -18   -6   -9  -33   -6   14   73  -79   54    2   13    2   10   -2   27  -35   35   79  -19  -13   27   18   35  -23   43   25  -27   26  -44  -53  -54  -57   -8   19    0    2  -20  -16   30   19  -21   -6    9   -1  -31   53   15   -5   42    6   18   65  -18  -16
  -7   -2   57   -8   -6   -8   15   -6   33   25    2   -3  -18   17   15   59   35   54    8   18    5  -21  -42  -24   38  -14   -6   49  -41   22  -16   29   23   34    4  -11   33   17   39  -17  -10  -33    0  -19  -12   22   13  -19  -18   12   -8   25  -12   24   18   22   21   -7   26   26  -29  -19  -22  -11
 -24    1  -37   66   36  -16    5  -47  -28    8   -6    3  -11   49   -6   25   37    8  -49   -7   42   28   -8   -5   32   47  -19   22   10   34    8   -8   19   -4  -22  -24  -18   39  -12   15    4   33  -15   -8  -16  -14   13   -9  -29   -7  -13  -28  -30   17  -17  -27   49    5   -9   13  -28   -8    3  -61
  12   56   15   36    1   50  -19   -5    5   -8   -7  -75  -18    9   20   27  -50   -9  -10  -40   -6    3   -2  -14   41  -45  -46   24   64  -56    9   22    9  -27   21  -29  -13    3  -19   10   47  -25   14   10   31   45   30   -3   -9  -52   25  -19   -5    8   -4   17  -24   14   27   12   22   -8   16    2
   4  -41   22   10   -2  -16   15  -11   26    7   20   -1  -55   35  -41   26   19  -29   39  -14   -2   -8   28   16    4   10  -18  -12   23    9   32  -55    0   16   29  -55   33    2  -19  -16   20    4  -18  -18  -29  -33  -10   11    8  -28    2  -46    4  -22   14    1    6  -22  -18   38  -54    4    5   21
   6   17  -54   11  -18  -21   -6  -18    8   -9  -21  -58  -15   -6  -36   19  -45  -13   55  -17   33   -7    6   32   -4   -3    6  -16   -5   71    9  -48  -23   47  -19  -22    5    3  -14   15  -22   36   -2   -5   37   14  -26   42   12  -16  -11  -10   55   13  -12  -22   35   -3   19   16   25   27   32  -26
 -30   20  -53    6    7  -55   21   47   14  -16   34  -67   14  -10   15    2    7   16  -12   -7   -5   16  -34   28   -9   30   -2  -38   12  -54  -75    6  -36   21  -20   -5   -6  -44  -19   11  -74   25  -19   -2  -16   25   34  -24   49   -9   35  -24  -15  -44  -12   31  -32  -22   39   -2   34   25   31  -28
  31   25    1   23  -23  -15   12    5  -15    3   19   16   -2  -15  -20   15  -33   12    8  -17    0  -22    2  -23   -6   12  -23   18   21  -34   35   15   23   11   -6  -23   10   20   -1    7    4   31    5   24   19   13   45  -13    4  -41  -16   10    1  -18  -26    8   11   13   24    8   22    5  -22    9
 -11   45  -26  -35   -2   -6   10   21  -37   42   37   -9    2  -23  -11   -3  -36   -4  -11  -46   10  -32   -5  -25  -11   21    3   44   -1  -10    1   31   24   37    2  -41   12   -5  -36   14  -17   31  -12   47    8  -20   30    3   26  -34  -18    0   -9    0  -27  -24   -5  -31   14    6    3  -13   -5  -14
 -22  -25   30  -15  -36  -12   40   -4    9   -4    8  -14  -25  -28  -16   44    8   15   -4    6    9  -23  -59   10  -15   19   12  -28   23  -33  -12  -18  -12   50  -13   23   -7   15    1    6  -16   20    0    9  -24  -10   -4    4    4  -12  -18  -32   11   13   -4   41  -16  -37  -10   35   22   28   20  -16
 -34  -12   12  -12   18   12  -17    1   47   -5  -18    9  -14    5   -8   10  -14   35  -16  -13    8    6  -14   -3   -3    4   -7   13    9  -12  -18  -12   13   -3  -13   23   19    6   28  -23   -5   13   -3  -28   -6   -6  -14    8   -7  -18    8   13   21   15   10   -8  -16   -4   -6  -31   12   -2    3   -6
  -6   11   -8   20    5   -3   33   30   13    5   -3   18   28   -1  -15   16   19  -25    4   -5  -12  -11  -12    9   -5    1    7    0    2  -42   20   17  -19    9   29   54   15    5  -10  -14    3   -3    8   13   -2  -27   -6    7  -34   38  -28  -26  -16  -18   -4   -1   16   -2    4  -13   17  -17  -16   -8
 -12   30  -35    8    9  -17   -8   21  -36  -27  -42   -2    5  -19  -10  -11   15   -4   26  -12    0  -16   -9   40    1   33   -4   27    6   34  -30  -23  -16    0    3   43   35   16   -5    4  -10  -10    5   44   -1   -6   12    4   22   48  -46   20  -20   -1  -22    1   12    5   -8  -34  -48   -5  -31   30
  47   20   35    9   20   15    3   10  -10  -12    0  -13   29  -25    3   37  -48   -7   -9  114   55   17   -6   20   35  -39   90  -22  -50  -43   64  -52   11   -7   67   21   36   12  -57   -8  -45  -16   10   29   18   -2   13   26  -30  -62   10   -4  -19   75  -25   -8    1  -22   28   38  -37   -9  -23  -19
 -18  -52   11    4   20   -1   24   -3   64   -8    0   -7   -2   18  -11  -28    1    3  -22   -6    6   12  -30  -11    1   15   -4    1    2    1  -16   45   11   -4  -35    8    8   16   35  -42    6   36  -18  -57  -17    3  -17   10  -25  -42   42   10   22  -14   57   -6  -11    5   27    6  -14    0  -18  -21
  66    9    0  -44    1  -66   38    1  -71  -40   30   37   29   -7    7   -1   51   29   69  -36  -10   -8  -34  -14  -26    9  -20  -42  -47   26  -27   75   38  -25  -25   -8   39   38  -62   11   -7  -13   61    9   16  -32   76    1  -43   22   -4    2   29   29   32  -27   50    2   52   -5   31   43   31    6
 -16  -25    6  -11  -24   -7  -21   -2   34   35   11    4  -16   -7   -7   -5  -29   27   34   11    8   46    9   -4   12  -19  -10  -20   29    0   -7   28  -11   23  -17   34    2   -4   31   41  -18   15   18   15   12   15   43    0    5   -2   -5   20   22    1   39  -30   -4   26  -22   15   -3   12   32   -3
   0   -6   19  -18   17    7   32   11   -5   -6   26  -40   58    9   -4   -6  -14   21   12   -5   -2   44   23   24   14   15   -6  -17  -35    2    8   -2   34  -23    8  -12   15   11    6   34   -3   17   12  -12   -9   -7   14   11   21   34  -10   20   -5  -12  -30  -12  -17    3    6   28  -21    1  -21   -7
  -2  -46    8  -19   18   37  -51   25    0    9   55  -31   32   20   27   26   23  -26  -11   -4   -5   18   23   15   -4   -4   30   -5   -5   23  -21  -40  -10   38    8  -22  -40  -17  -29   39  -10  -55  -43   27    4  -10  -18  -14  -15   30   -6    6   -4  -12  -17   58   10  -17  -28  -37   -9  -52   58  -52
  16    3  -22   -7   13  -25   17  -12   -7    0   14  -11   -3    8  -16    2   12  -24   31  -36  -16  -21  -20  -28    2   22   11  -33   14   25    1   -5    4   -8   22    9  -51   -9   19    0   -4  -24   -5   10    5  -20    4   12   -5   14    4   53   -5    4   -5  -23  -27   -1    4    0    8   26  -23   33
 -46   12   -4  -34  -12  -24   44  -31    3   -4   11    5  -60  -13   12   40   33   95    4   -8   27   46   14   12   26    1  -30  -17   18   18   15   18   23  110   -6   10   25  -37   70   14    2    4   -3   -3   17    0  -23   47  -35   16  -34   16   11   10  -20   69   13    6    1   42   -8   30   27  -19
 -17   57  -10  -11   15  -34  -10    0    5   10   19  -30   -9   16  -14   46   25   31   76    3  -20  -32   12   11    2   -6    0    8  -19    1    0  -11  -24   10   25   -5  -36  -34    8   49   15  -25  -12    0  -20  -65    0  -59    8   46  -16  -67   -6  -11    3    5    5   10   31   30  -23    9  -39   27
  10   11    4    3    0  -14    2   -4   32   15    0   12   12   -4    3    1    5   -1   -3    4   15   -4   16  -25   13   17   11   10  -25    2    4   15    6    0   14    5   27    1   18  -16   -6   -9  -22  -24   -3   -5    4   12  -23  -25   -1   -2   -7   -3    9    2   -9   14  -10  -33   25   -9   10   13
 -24    9  -35  -27   15  -38  -11   14    6   39  -30  -11   -3   -4   63   -5   48  -12   -1  -19   25  -10   11  -24   46   -7    4    2   28  -16    2   17    6  -52  -18  -26   16  -40  -78   48   30   -9  -20   20    2   -7  -36  -17  -18  -35  -14   37  -20   48   13   -7  -39   17   -7   -8    0  -31  -16   -4
  23  -36  -12   27   -1   -6    2  -17    0   57   21  -22  -39   21   32   31   17    5    1    9   55  -40   24   12   35   43   25   33   50  112  -40   45   44   -7   49  -42   -2   44   30  -29  -12  -36   65   35   26  -55  -39    8  -59  -14   49  -26  -13  -31  -47  -16  105   79  -26  -23    8   -8  -77   12
  -9   -3   34  -26  -15   38   45   10   32    6   40  -28    7   11   32  -21   -3    9  -43  -17   32   12  -39    4  -20   41  -23  -43   35   32    4  -19   -5  -26   -5   -7   68   19   13    2  -65    6  -17   -5   18   27  -37  -86    3    1    8   14   18   -5   17    7   -8  -11   33   10   -8   37   27   -2
 -17   22   -7   37   23  -31  -42  -12   22   48    0  -13   10   26  -10   33  -17    7   37    3  -38  -26  -24  -16  -13    1  -51    1  -14   17   12   43  -36    4   29   28  -16  -39   14   -4   -8   14  -47  -14   13  -26   38    0   12   12   17   44   -9   -6   -4    7   10    4    9  -27  -22   58   26    5
 -11    1    9   11  -15    0    1  -10   19   29  -37   15  -31   -8  -30  -11   30    8   26  -13  -37   28   -4  -49  -43  -39   12    3  -13  -12    1  -13    9   -3  -46  -12  -19    0  -16   -6  -46   -6   -7    3   22   44  -13   21   42    5  -20   16   54   34   81   37   -6  -15   48    1    5  -12  -28    9
 -18   -4   15    1  -13    6    7   14    8   -3  -10   14    1   19  -11  -27  -19   33  -33   17    9   -3  -17   25  -10   -5  -21   -9  -13   -5    5   12    3   13  -16    5   -2   -5    0  -21   28   10   -1   -6  -15   -2   -6   12  -18    3    9   13    4    6    6    8   -3    6  -10  -22    2  -16  -10  -20
 -28   13  -26    6   50   19  -12  -47  -27  -38   -9   10   54    3  -47   -5  -18   -4  -33   16   12   57   -1   19   29   44  -17   -2    1    7   -4    7   -1   10   23  -40    3   19  -14   29   41   12  -23  -26  -36   -8   23  -30   -3   31  -63  -16  -43   -9   11  -20    3   19    2   42  -43  -20    6  -63
  -9   43   43    8   -7  -17   11   15  -18   15   24  -24  -32   13   -6   11  -10  -19    4  -19  -35   -1   20  -34   36  -35  -51   14   42  -58   17   13  -19  -23  -12  -62  -23   42  -27   30   12   -5   -8   25    2   45   35  -36  -32  -47   -9  -25    3    1  -31   28  -20    7    1   26   48   22  -17   33
   5  -23  -16   -7    1    2  -17   27   -6   17  -12   -5    3   11   11   25   10   -2   15    1   -4   -5    4    6  -16    2  -19   -6   20   19   -2  -18  -11  -21  -12   17  -16  -18   13   35   -6    7    1    3    2   -3    5  -13   20   10   -1  -14   -4   -9   -6  -16  -21   -9   11   12  -16   12  -34   13
  28  -36  -50   12  -60   -5  -21  -34   43   28   13  -13   -2   29   61  -24   36  -15   17   -9    7   24  -21   15  -68   31  104   75   14   44    1  -33   22   24   49   -2  -58  -26   15   16   56   39   10    8  -23  -73  -27  -13   70   29  -11    8  -27   -1   -6   32  -33  -48    3   27  -12   25   29  -28
 -30  -60   -9  -10   -2  -14  -36  -15   10  -30   28  -24  -14   43  -31    8  -18    8  -13    6   15  -17   -2   -2   26    1   12  -16    8   -5   27  -41   30  -17    2   -9   40  -41   46  -22  -22   -7   49   -7   25  -37    3   10    9  -39    1  -23    4   20    7  -46    7    9   17   33   30    3    0   -8
 -21   18   -8   13    9   17  -36   -3  -25   35  -21   24  -29  -20   49   -9   17   -1  -27   -5    4   30   -2   16  -15  -53  -44   -9   74  -13   22   45   15  -37   20  -55  -30   -7   36  -10   52  -33  -17  -41  -99  -23   15  -55   -7  -45   21  -34  -10   27  -23    8   49   62    9  -44   43   37   18   15
  -1   29    9  -19   23   34  -17  -12  -11   15    3   10    8   20   -2   24  -26   23   30   30    5    2  -37   -1   -3   13   27    1    6  -16  -46    9   24  -19   18   10   -9  -21    1  -12  -14  -24   23  -13  -51   18   23   21   34   25   22  -41    0  -22   19  -20    3  -18   -1   14   15   12    7   -2
  26   20    5    1  -14  -18  -14  -13  -17   -8    2  -34    7    6   30    6  -11   23   12  -20  -12  -16    6  -18   34  -13  -29   -6   31   16    3  -17    4  -25   23   11  -14   -1  -60   -6   -6  -29   13   -4    4   35    0   25  -13   24  -35  -23   56   15   -6    5   -7    1  -33   -6  -34   -1   23    5
  -1  -34  -16    6    6  -24  -48   40   -2   22   52  -41   -5   54   37  -11   11   61  -23   -6   44  -38   28  -76  -26  -37   27   35  -53   26   30    1   47   -1   -5   -3   43   18   76  -30   19  -11   71   36    7    5  -34   -6   27  -14   73  -46   32  -14  -13  -14    7  -15   56   31   31  -34   -5   45
   2  -18  -24   -8   -6   27   31   -5    9    4    5   24  -17  -26   21   -9   20  -14   -7  -11  -21    6  -28  -16  -22  -12   16   -6   -9    6   33   17  -24  -27   44  -32  -19  -38   56    5  -13   37   36  -36  -50  -12    1    9    0  -53   -9  -20   -5  -11  -19   14   25   28  -17   54  -32   16   16  -29
  26   42  -41   35  -34    6    1  -71  -11  -18    1  -34   24   21  -43   -2   41  -26   45  -52   67   29   71  -39   10  -43   -1  -29  -21   21   85  -25    2  -25  -41  -25   12   77   65    6   20   36  -82   -9  -16    6   44   23   -8    4  -16    1   -2  -13    5  -29  -16   10  -27  -24  -72    1   38  -50
   1  -15   25    2   -8  -15    1   -6   13   22    9   -3  -13   -7  -49  -16  -20   25  -20    5    9   -1   -3   -3   -5   -4    2  -21    4  -13   10    0    5   18   -2  -48   14  -12  -13   -3   15   28   19  -26   -2   12   -2  -28  -13  -19   14   -3  -11  -26    5  -27  -12    7    3    1    3   -8   -3  -11
  -3   -4   17  -36  -11  -23   15   -1  -23    7   55    0  -66  -14   10   28    3   45  -19   -1   51   26  -31   -7  -17   -6   11   10   -8    8    3  -27  -14   20    4    4   -4   -6   52   62   -9  -13    6  -17   -8   13   17   16  -27    1   -4    7   16   22    1  -53  -11  -18  -18   11  -13   -4   14  -33
  24  -13   12    1   16  -83  -23    7   -1    3  -18  -57    8  -62   28  -19   44  -33    9  -52  -24  -15  -40  -34   -8   28   31  -22  -20   17  -15   26  -27    5   20   15   38   44  -60   83   14   52   32    8   71  -19  -49   22   12  -68   26   44   28   16    4   49  -77   18   46    3   -8  -51  -14  -78
  41   25  -13   13   16    9  -18   50   10  -17   24    1    6   46    2  -30   34   -5   -5   -6  -19   14  -18   26    8  -20    0  -20   -6   -4  -43  -11   20  -21    4  -20   -9    4    8  -18  -30   31   -7   19   20  -17  -15   -1   22  -15    7  -10    4  -58  -43  -47  -21   36   -2   21  -19  -28  -20   17
  24   16  -15  -11   15   -5  -32    2  -16   16   19  -20  -16  -17   21   -1    0  -11   20  -32  -17   19    5  -11    6    6   -5    3  -10    0   23  -31  -31   16   15   27  -30   -7  -17   20  -19  -11   -9    5   26    5   22    4    0    6    6   -8   -4    4   -2  -40    4    6   17   21   22   25   12   -1
  24   -3   27  -17   -6   41    8  -22   -1  -15   13   26  -34  -23  -27  -39    1   -8   49   -2  -53   68   21   35    8    2  -19  -29   50   -8  -13    8   -7  -58  -35   -4  -42   -7  -13   21  -22  -14  -36   56   12  -12   24   11   27   -5  -34   28   18    5   83    2  -28   10   -6  -19  -28   47  -26  -36
 -23  -21   39  -18   -3   19   24  -11   -8    3   10   13  -27  -50   15   36   -7   33   17    6   20   11   28   -2   -9  -17    4    5   27  -46   32  -12  -15   15   10   38   15  -15    8   71    0    7   10  -25   -9  -12   26   -9  -24   16   10    1   32   42   29   12    2   -2  -22    4  -10    6   -6  -37
 -34  -27   -9  -82    7  -10  -22   58    1  -58    3  -25   76  -56    5  -41  -13   -3  -32   30  -13    5   -1   18   31   57    2  -23  -17  -53   63   11   33    7   22  -34   27   17   18    5   36    2   21  -72  -64   -4   32  -43   22   61  -28   17  -54  -37  -69   25  -60   39  -15   50   13   -5   47   54
  39   18  -54  -34   32    9  -38   38  -29  -31   33  -57   41   17  -13  -56   -5   37   -3   53   44   48  -35  -24  -52   15   56  -26  -80  -11   82  -36   31  -53   31  -42   63  -28  -27  -36  -31   -4  -11   87   11   11  -28   41  -12   22  -45   19  -15   58  -22    0   -6  -11   -8    1   21    6  -68   -4
   3   -9   -1   23  -26   29  -20   19   -8  -12   20   13  -38   -4   32   -4    5   -9    9    4  -33   19   27  -27  -40  -44  -43  -19    3   26   -2   24   40  -35   16  -28  -23   -3   15   -4  -26    8    1    3   38   17  -40  -20   24   11    5   11   11   19  -37  -29   24   31    5   21  -13   18   29  -16
  18   23   -7   15    2    4   15   11   -7   -3    0   33  -20   13    4  -14   36   -1  -10    2   -8  -33   -6    4  -39   -1  -18    1    9  -16  -15  -31  -16  -15  -32    2  -24  -19  -13   -5  -34  -15   -1   36   -8   18    4   -9    7  -29   -7   18    7   16   23    2    7  -31    2    5  -28   -8    6    0
 -20    5   12    5   -3    6    7   15  -38    1   -9   24   -4  -18   -9   -8  -28  -14  -22  -20   30    1    2    3   -7   -6    0  -53    9    1   17   -3    0   -7   15    0  -16   -9  -12    9   -8   24  -23    9    6  -13  -25   -9   28   20  -19  -10   30   -8    1   41    5  -17  -11   -8   10  -37  -22   21
  -4   23   16   23   -9  -11  -42   17    8  -19   17   20   25   -3  -35   13    5  -10    6    5    7    4   -7   43   -4  -23   15   27   -4   25   10   14   12  -41   12   -5  -12   14   -3    8    7   -4    9  -23   20    9    2  -13    7  -13  -24    1  -10    5   17  -31   15   -6   -9    9  -16  -11  -24  -15
 -18   -2    5   11   -7   26   17   -7   37  -23   17  -28   -6  -13   20    1   -1  -11   -6  -13   -7    2   11   39  -17    8    7  -26    0   11   31   14  -16  -18   25  -11  -13    3  -25   -9  -35   17   21   23   36   17   29   35   33    9   -5  -16    1   14  -44   -1   33  -34  -15   58   18   22   16  -19
  -8   -2    3  -20  -25  -29   35    3   17   20   -6   -2  -29   19   -6   -7    5  -12  -20  -36   11   29    8   13   -9  -18   35   11  -15    5  -19    4    1  -14   11  -23    5    3    8  -13   -6   -6  -31   12  -12  -34    6   -2   38   -1   13   -7  -49   -6   10  -14   35  -27    3   27    6    3    3   33
 -10   12   -5  -25  -54   60   -8   15  -37    9   14   11   22  -13  -10  -27   -8   16   22   -2  -66   -4   16    7  -17  -24  -21   21   19   46  -13  -14   10  -44   14   52  -48  -16  -12   33  -16   12   35  -15    3   21    6   -8   57   54   -6  -23    8   49  -27   -6   11  -10    5  -14    0   70   -4  -38
  20   -5    7   22   30   -5   10   -6  -12  -33    7   23  -22   -3  -35  -10    2  -18    2    5  -24   17  -21   25   21  -14   -6   34   20   21  -17  -31   -9  -46   34   36  -34    8   31   28   10    7   25    3  -12   32    3  -24   21   54   21  -18   26   54  -28    8   17    1   -2   29   14   22   44   24
 -22   51  -40  -18   12    4  -38   27   -5   24    9  -27   13  -15   39   13   -5  -30   -2   -8   -3  -10   -2    4   -7  -25   20   -2   18    7    7   48   20   34   21   -7    1  -26  -50   50    4  -36   -4   35   14  -26   16    6   27   -7    3    2    0   13  -12   12  -18  -20  -29   -1  -13   15    9  -51
 -10  -22  -33   20  -13   14    1  -27  -11  -10   22  -12   36   -6    2  -14  -35   -1   30   -9    0    8    9   13  -24   -3   10  -33  -19    6   -4  -12   25   19  -20  -23   -8   11    7   11   23    4  -34   18   24   36   -3   20  -11   -6  -14  -10    4   19   22  -24    5    5  -49   25   33   32   12   -9
  16    3  -27  -39   -1   22   -9   18  -16   17   -3  -23  -16   15   22   52   38   -1   21   -4  -54   12   14    7   34   -5    7   53  -28  -17   -1   33  -32   13   33    5  -17   18   13   -7   33  -21  -17    3   12  -21   43   -9   -8  -48  -22   -2    8  -34  -13  -22    5   -1   17    7   13    3   40    0
  50   12  -11  -34   -7  -13   15  -28   20   38    7  -18    4  -20   35   66   24   -2   25   19   -8   36   40  -25   64   -5  -17   69  -37  -44  -18   30    6  -23   -5   14  -15   -6  -11    9  -27   14  -25   -9   20  -33   14   28   18  -33    3   19  -37  -26   14    6    8   26  -19  -17    3   -9   45   10
 -27   46  -24    9   37  -34   -8    6   -5   11  -34    5  -18  -32   27  -13   -5  -24   10   44  -26   19  -22  -26   18   14  -24  -24   -3   -3  -22  -16   -8   14   12   48   23   10   20   14   13   23   26   -3    5   21   -9   -3   18   -8   -2   15    4   -5  -15  -24   -2    1   22    4   -6   -7  -19  -25
  -7    4    4   17  -16    1   10   16    0   42   24  -42   25    3  -79  -38  -49   -4   32   27   -7  -12   23  -11  -12    8   50  -44  -10  -37    5  -23  -10  -51  -38   43  -15    3  -74   25   -2   11  -10   10  -15  -57    9   10   16   50   44    0   24   12   60    1   18    5  -10    9    2   12  -60  -20
  -1   31  -30   -9  -26   31    7   14   46   20   -3   -9  -23    4  -12   25   26  -18   -3  -52   -9    9    2  -18   -8   12  -31  -46  -38    2   -8   29    7  -10  -19  -30  -25    0    0   19   -4  -14   30   -7    0  -43   32  -27  -12  -40  -13   -2   12    0  -29  -11   -5    4  -14   -3   11  -24  -29  -15
 -40   21  -28    8  -46   -5    0   -6   -2   36   15  -25   37  -10   17   25   35   17   15  -27  -18  -29   -5   10   -8    6   40  -26   -3    3   20   31   -6  -10  -12  -23   17   -2  -22   84    0    7   15   14   27  -27   20   33    9  -22   41    2   16   31   24    8   -2   47   21  -16  -14   -6  -52  -56
  -4    8  -13   13   -1    2    2    6   -3    9  -26  -14    3   -8  -26    5   -5    3    4    4    2   10   22   13   -7  -30  -20   23   -6  -15   -7    8    8   33  -36   25  -30   -5  -24  -21   12   10   33   16  -26   -1    9   14   20   13   -1   20  -16    7   12    1   13   21  -40    2    5  -12   10    2
  37   -8   32    5    5    6   -5   -2    3  -21    9  -39  -10   36   22   57  -19    6   11   -9   -8    5   53    4   48  -32  -36  -22   20  -33   12  -36  -12    2    1  -22   22    8  -24  -16  -28  -21   -6  -14  -13   -1  -10  -15   -6  -16  -40  -12   -4  -20   -7    5   15    7  -12    1    9  -27    2   -3
 -16    1  -29    4   -1    1    6   13  -13   12   18    3   11    1   -3   29  -15    7   19    1  -16  -10  -23   34   -4    8   -6   -6   13   -4   -4  -40   -7  -28  -13   12   10  -24  -34   39   17   -9  -17  -14   34   24  -11   13    4   12   10  -28   -7   -3   -6   18   17   31   29  -15  -17   19  -19    4
   4  -10  -58   -1   -1  -18  -22   51    9   10  -12    1   60   20   -8    8  -14   18  -15   -6   -5  -37   -8   -2   -3    8   -2   -2   -6  -16   32  -28  -13    3    0   31   -1   38  -27    9  -12  -24   41   -2  -24   -1   -5   -7   -6    6   -2   -9  -25  -19  -33   -4  -11  -28   12   39    2  -13   -8   54
  16  -35    3   34    7   43  -18   11   12   40   28   -6    3   18    1  -23  -18  -23   -1   18    4  -10   -2  -22   -1    9   -8    3   25   -2   32   13   19   47    1  -16  -20  -31   -7    8   -3   10    5    8    2    1   18  -14  -29   -4  -16   -5  -23  -41  -15   22  -39  -17    9  -19   -3  -27   -1  -18
  42    3  -54  -12  -12   39   18   15  -27   -1    7  -46   -3   -1  -55   22    8   -3  -14   21   22   -3    5  -22  -23   -1  -39   26    0  -14  -15  -34   10   -8  104   23   -4    4   11   21    7  -18  -18   13  -53  -20  -58  -48  -13   -8   24   74  -20   -4   39  -53  -27   29  -30  -48  -45   32    6   24
 -31   42   -1   71  -50    5   14  -33   18  -42  -21  -12    4   35  -19   52   67  -43  -15  -14   11   11  -29  -22   -8  -26    3  -10  -23    5    7    9   -1   -8  -47   -9   -6   72   -4  -26    8   24  -65  -14   -6   28   61  -54   26   28  -32  -60   -1  -16  -15  -37  -43   -6  -24   26  -60  -13   41  -83
 -14    3  -18  -19    8   -4   14   -6    7   -8  -12  -13   15   -2   13    8   28   12   19   17   -4   13   26   23   -1   11   17    9   -3  -42   -1   20  -24   30   -8   15    7   -8   -3   20   -5    0   10   20   12   23   22   20    6    8   19   17    0  -12   -5    7   38   -6   -7   22  -32   13  -11  -34
  27   10   24   -7   -8  -27  -21   10  -18  -10  -44   -3   35   28   -9   37   26    1   19   15  -30   10    4   30    2  -10   -5   51    2  -38   16   37   24  -11   14   -5   -4  -24  -11    5   -2   -8    7    0   -3    6   26   10   16    0   -7  -17    0    9  -16    6   26    3   18   30  -20   11  -25   12
 -12  -20   -6  -20    3  -35   -8    5  -37    7   10  -52   -8    3  -28   -4  -14   24  -24   15   13   15   -2   15  -21  -26   24  -35    8  -51  -50  -10    6   -8  -40   29  -59    3  -16   53   48   35   15   -1   31   -4   20    7    3    9   14  -22   -7  -26   39  -37   -6    0   -1   -7   20   27  -29    2
 -13   11   -7  -20    9   43   -6    4   16  -16    0   -5    0    6   29  -12  -14   32  -18   11   -6   28   12    6   -3  -11   -7  -17   19   -9   29  -19   43  -27  -28   -5   16   -1    5  -51  -10    7  -12  -17   -4  -34  -15  -31  -39   -6   36    0    0   10   32  -24   -5    3  -18   -8  -10  -17   -1   22
  -6   -5  -10   -1    4   -2    1   -3   15    0  -15    4   -6  -11    9  -15    5   -7   11    4   -3    7    2  -12    3    4    2   -2   -5   12   -1   -5   -1    9   -3   13  -13   -1    4   -5   -4   -3    0   14    3    6   -9  -10   -8    1    1   10  -12   -5   -4    0   -8   -6    2    0    3   -9    2  -17
 -20   -8    1    8  -14   44  -28  -30  -32  -40  -16   27   27   23  -15   -2  -14   29   -3   35    3   -5   23   20  -31  -17   73    5    4  -32   72   13   26  -58   21    3   24  -14    0   -6  -18  -26   -3    8   -4   20  -52    4    4   11   26   22   24   22  -40   -1   -2   40   57   42   20    8  -28   -8
 -35   -1   36   24  -12   12   12  -22   -4   19   28   12   20   -3   33  -15   -9    9   29   -5    0   -7  -19   14   -3   -1   -3   22    9    4   22  -28  -22  -30    4    9   45   20  -20   20   36  -16  -27   45   -3  -38   38   16   34   55    4  -39   14   10   15   20   29   37  -16  -15  -32  -14  -38  -12
 -16    1   40   13    5   38   20   13    7    9   31    9  -41    3  -87   95    4  -26   15   21  -18   42    6   23   26   21   15    5   -5   49  -28  -63  -39  -25   33   24  -24    7   16  -87   -5   31   -6  -38    9   20   -9   23   37   39    8  -18   41  -11   -2   37    4  -21   42  -25    8   28   27   16
  14    2    1  -43    6  -12  -10   39  -52   10    8   -1   13   -4   29   33   14    9  -16  -15  -36  -19   48    4   32    0  -55  -28   10   10  -17  -64    1   26  -16  -26    6    8  -27   12   14   18  -12   32   -6    0   -2  -22  -18   14  -15  -26   26  -22    1   -4    4  -30  -56  -51   -8  -58   19    5
   6  -17  -10  -22   41   -5   15  -67  -43    7    8   31   -3  -47   33    2  -12  -42  -82   29  -31   17  -40    4  -20    3  -37    7  -15   28  -12   -1  -12  -21   40   13  -24  -30   34    7  -29   10  -11    9   -3   45  -18  -26  -10   17    2  -14  -12    2   21  -13    6   -5    3   48  -18  -38   10   22
  16  -69  -14   26  -28   22   16   -2   48  -12  -56   23  -16   22    0  -15   -7  -18   33   20  -44   31  -16  -19    6  -11   11   16   -4  -23  -13   32  -34   61   -5   41  -11   25  -38   57   20   17   10  -23  -63   45   49   45  -29  -35  -32    1   16  -15  -28  -25   -5   12  -24  -22    7   -5   16   66
  -2  -17   -5  -15   17   -4   20  -16  -27    2   16   -9   11  -17    3    6   16    1   -3   13   16    6  -11   17   -9    0    3    9  -15   23    2    5    8   -6    0   17   -1    2   17    1    2   10   34  -17   -8   15   -6   19    0   38   22    6   16   -2   -4  -11    2    0  -19    5   -9   10  -15   13
   3  -28   44   -4   39  -20  -17   -2    8   17   -1  -74  -18   16   21  -18   24  -42   -8  -18   -5  -21   10  -39   -6   10  -38    1   11    3   -2  -36  -34   59    6    6  -13   18  -19    5  -18  -12   20  -17   15   19  -39  -17  -21    4   -8   13   19  -39   -2   19  -24   23  -10  -18   -9    9  -29  -25
   0    7   -4    2  -11    7   -7   14   -4  -36  -20   13   13  -18   22    9  -29   -1  -42   19  -13    9   28   24  -17    6   34  -10   44  -25    6    4    4   -8  -14  -24   22  -12    9   -7   -1    0   25   -9   13   -3  -20   20  -17  -30   23  -23   -7  -20   -8   -8  -13   -7   16   32   -1  -17   25  -29
  23   -1   -1    7  -24  -25   -5   47    2   12    8  -30  -48   31   12  -12   15   32   14  -27  -22   14  -13   11  -45  -43    7   12    2   -4   -3  -14   39  -13  -38    6    7   -1   37   20  -18  -20   43   47  -11   48   12   22    9   65  -12   42   40  -35  -18  -15    0  -37    7   25  -26   26  -12   19
  35    3   -3  -18   43   -7   15    6   14   15  -23   23    5  -27    0   47   27  -27   20   -7   32   33   -5  -16   20   13   25   44  -30  -22   18  -38   -7   -2   35  -31   27   31   -8  -15  -37    2   10   14   -5   16   -7  -10   37  -19  -10  -18   31    8    8   35   -1   31   -5   -2   -8  -17   -3    8
  -1    0   -2   -2    1    2   -1    0   -3    2    0    1    0    0    0    0    0    0   -2    0    0   -1    0   -1   -2    2    0   -1    1    0   -3    1    0    2   -2   -1    0    0    1   -2    2   -1    1    0    0   -2    0    0    0   -1   -1    0   -2   -2    0   -2    0    0    1   -3    0    0    0    0
  -8   12  -14    4    7    5    8   12  -27  -22    0    9   15    2  -10   21   12   -2   19   -6  -10   -4   13   33  -11    0   12   -2   16   31   -2   14    2   12   20  -19  -10    0    8   22  -36    5    7   10   -4    3   -4  -18    9   19  -10    9  -13  -14  -10  -16    2   -8   40   31  -25   11    7   11
 -59    6   -9   50  -18   66  -33  -47  -36  -16  -33    1   16   11   -2    5   18    0   22  -24   14    3   -8   47  -15  -36   54  -18   50   -7   21   19   19   -4    3  -24   12   -9    9   14   -1   -5   27   -5  -13   34  -61   -1  -10   18    5   62   14   -7    7   35  -33   45   46   76   22   -1  -11   22
   9   13   34   -5   10  -41   16  -31  -15  -23   45  -16  -24   13  -31   39  -23  -10   15  -21  -19  -45   34  -34   23   -2    0    7   20  -50   28   -4   -6   22    5  -30   34   33   -9   -9   -1   31   14   10   -1   21   10  -15  -27  -22  -39  -15   37   17  -28  -34    7   -9  -20   -6  -26    2  -19   20
  17   -3  -27   35  -23  -45  -42   -7    7   -5   17  -45   63   10  -51  -39  -11   23  -36   32  -52  -36  -33   78  -13    2  -27  -35   -5   -7   -8  -31    9    4   -4   19   16  -26  -41  -22   21  -14  -14   45  -44   20   -7  -21   53    8    1   25    0   -9  -16  -41   46    0  -21  -28   37   19  -23   -6
  17   -9  -16   -8   -2   10   -7    3   -7   -7   -3    1    1  -14  -16   -7   14   -2   -6   -3   -1    2   22    7    3    4    2   21   -1  -14    7  -10  -10    9    1    8    2   -9  -13   -2    7  -19   17    8  -21    8   16   -7   -2   -9   -2   -2   -3   12   -6  -11    7    3   -7    2   -3    6  -10   -8
 -15   -6   -1   37   -2   -7    4  -22    3   24   18   -5  -24   38   11   10   29  -22   -3  -31  -11  -15   31   -9  -41    2    9   23   35   14  -43   -6  -10  -23  -47    5  -12   -9   -2  -10  -11    5   -8   19    9   20   17    5   -7  -24  -16  -52   -1   -1   18  -21   45  -32   -9   -3   24    1   18  -15
  -8  -20   20    0  -19  -34    7   14   14   39   15  -36  -35   39    1   10  -25  -36  -25  -63   -2  -16   39   22   15  -14   43   35   24   -2    6   17    4   35   54  -20  -22    5    6   15  -22   14  -75   44   12    6   25  -31   34    0   -2  -21  -23    4  -19    9  -13  -34    0   19   18  -16  -14   13
  -9   -7  -30   72   -4  -30  -31   39   -1   25  -21  -16  -14   34   29   53   22   19    2  -30   37  -17  -53    2   -6  -28   34  -16  -23  -26   15   24  -19    3  -51   16   10   16    5  -30  -15   -6   27   -2    4   41   -4   -6   -2   28   39    3   24  -11  -74  -11    3  -17   -3   47    3   14   26  -18
 -13   -6   15   11   -6   -4  -15    9   38   -2  -17   15  -19   19  -21  -30  -24   22  -35   13   30   -5   -9  -17  -12    4  -17   -9   23  -10   -8   -2   19   16  -32  -10   14   16    3  -42   37    3  -12  -29  -21  -17  -39  -18  -20  -17   27   19    5    5   29    2  -19   19   12  -44   23   -5    6   -3
  -6    4    4  -28   31   12    4  -55  -11   -7   -4   32   18  -31  -13    2  -33  -26   -8   12  -27   25   19    6   -9   21    1    0   56   -7  -18    6  -20  -24   20    2  -32   -6   -7   21    0   -5  -29   18   20    4   18  -15   -2  -37  -34  -11  -15   12   96   25   21  -10   10   -3    4    2    5  -37
 -13  -38    9   -3   16   -4  -29   13   -4   23   32   15    9   -6    1   28  -57   60  -27  -33    3    7    2   24  -40  -10   -9  -17   18  -23   17  -16   12    7  -37   61   -1   20   29   35   46   -6   35   26    2   21    8  -11  -27  -12  -11   14   -3   24   13  -27   21   22  -34   13   13   -9  -17  -46
  19    7  -13  -14    5   -1   20   -9   11   11   -8   -6   -3   -6    6   27   17  -24   -1  -21    7    8    1   12  -12   -5  -23   22   -6   -3   15  -23  -23   -4    5   -3    1    2   -5   12    7    4   16    6   -2   10    0   -5   21    5  -21   -1   29  -15   -3    5   29   32    2   -4   -1   17   10    9
  32   48  -12   42    1   42  -29   11  -39  -79  -33  -16   21   29  -11    2   17    4   63  -57   15  -13   23   24   59  -20   34  -16  119  -49  -20  -41   13  -25  -17    0   38    1   -7   30    7   33   -3  -18   -5   12   17  -20    1   -1  -20   23   -6    7   -7   34    3  -15   17  -61    8   32  100  -14
  -8    8  -25  -16   13   -8  -28  -11   23   10   60   14  -15    3   10   -5  -43   52   16   50   41   23   18    6  -11   18   27  -17   31  -28    9  -21  -17   53  -26   14    9   10   11   76  -23  -14   -6  -12   58  -24   41    5  -11  -34   32   15   39   10   24  -49    0   64  -39   38  -10   12   45   -5
  -5   28   -5  -12  -35   11   13    2  -50   18  -57   32   10   40    5    8   19  -59  -30   12   10    8   34  -29   24  -19  -55  -49  -13  -11   44    6   10    8  -42  -24  -12    1   47  -51   23  -59   20  -26   37  -22    1  -32  -13   32  -14    1   -6   11   32  -20   72   48   22  -31  -49   11    0    7
  39   -3    1  -23   -3  -72  -77    5  -17   12  -42  -27   37   23    3   44    8   66  -18   48   -4   55  -26   19    5   15  -15   17   29  -10  -16   32   32   31  -16  -13   25  -19   -4    5  -39   27   28   41    5   55  -12   29  -20    7   36   19  -11   16  -36    2   61   27   22   39  -41  -25  -18   -5
 -14   19  -74   -7  -34   -5   -9   -1   -1   14   17   25   15   -3    2   15   11  -12   11  -37    9   -8   19   37  -16   -2  -31    8    5  -23   37    3   28   -1    9  -30    7  -23    1    5    6    2  -31   18   34  -28  -18   30   -7   24    1  -19   46  -40    3   18   18    7  -11   13  -32  -26  -15   -5
  -6   32   -1  -13  -12    8    6    4  -16   15   23   -6   -6    9  -26   -9   -4  -21    7  -16    1   14    4   23  -28   20   10  -14    6   37   33  -16  -43  -17    7    0    2  -29   -7   -6    6    3    7   21   27   15   -4   24   13    4   14   -2   24   35   -1   -3    4   19   -1   12   -5   -2   -8   -9
 -17    7   -6   -6   10  -12   -2   -8   30  -11  -11    9   11    7   19  -31   -1   22  -12   13   13    0   -6   -8   11    9   -1   -2  -10  -13  -26   22    4    0  -17    9    5    4   13  -17    1   12    3  -22   -5  -11  -20  -13   -7   13   10    7   24   12   15   -4    4   19   13  -13   -6   -9    0    5
 -14   23   11   31   -4   46   12   21   -9  -20   12  -18   14   16  -74   30  -24   18    6  -35  -28    2   28   10   41   14   -6   13   39   -7   -8   13    4   -7    6   -9   18   -9   19  -19  -28    5  -11   -8   -1   30    7   46  -15   29  -16  -37   43    3  -12   -9   12   23   23   -1  -39   29  -19   16
 -31   -6    7   23   -5   42   -2   26  -10  -17  -58   11   19    5   -5   27  -49  -23   22   -1   -6   -1  -20   36  -47    9   -5  -35   32   24    7  -32   -3    4   -7  -27    2   27  -56   13   -7    4   38    9   23   40  -28  -38    1   13  -38  -21   28   15   -9   -8   12   -6   23   -9  -41   46    7  -13
  -4    0    2   -9    3    1   -2    8   -4    1    1   -1   -5    2   -6   -4    1    1    2    4    1    2    2   -4   -3    3  -11    6    5    1    0   -7    1   -4    9    0   -8    1   -1    5   -3    3    3    3   -5  -10   -2   -6    4   -7    1   -8    1    1   -2   -5   -3   -2   -1   -6  -13   -2    2    2
  19  -38  -23   -4  -27   15   14  -13    9    4    5   28  -44   30    8  -20   18  -58  -22   -5  -26   25  -49   17   -2  102    0  -52   13   39   13   26   -1   10    3  -74   50  -63    4   -8   19  -27  -12   -7  -14   85  -28    3  -69    3    1    0  -13   28  -24  -71  -23  -57  -15  -42   34  -34   36   49
 -31  -56    3  -19    9    0   19  -19  -22   12   43   22   18   -4  -28   17   23  -19  -31   15    3  -21   -5   11  -31   -5   46   13  -37   21   62   20  -25   45  -19   13   -6   10   11   -7  -10   27   -8  -10  -14  -35  -11   18   24   13  -45    5   21  -35  -10  -29  -12   -1   12   -4  -27   13  -28    1
  10  -27  -16   32  -54  -33   70   40  -16  -19   24  -12   30  -45  -42   44  -42    1  -42   15  -16  -20   -4   42  -67   -8  -76   16   -6  -15   40   -1  -11  -22  -54   34  -20  -64   14  -15   74  -11   14   48   18    9  -98   32  -14    2  -13  -15  -57  -31   38  -49   -3   25  -41   -8   88   -9   50  -68
  15  -23  -11   -4   19  -12  -30    3   -5   -1  -23  -17    6    5  -15  -18   -6    3   -7   -8   15   -8  -14   -8   -5  -16   11   -3    2  -15  -17    1    7   -3  -10   -4   -6    9   15  -11   -7   22   -7  -24  -14   12  -14  -19   12  -27    9   -2   -6    4  -10  -10    6    2    6  -13   14   -5   15   -1
  -5  -20    7    2  -16   -4    6   28   30  -18    1   11   18   -1  -21  -11  -50   34  -33   22    3   -6  -13    8  -27  -10  -39  -15    5    9   16   23   -5   -1  -55  -14   -3  -29   -1  -24   28    7  -17    4   -1    1  -50   37  -20   -7   21   20  -33  -10   16  -26  -21   -1  -25  -33   44    0    3  -36
 -14  -61  -22   -7   19  -34  -18   25   30   29  -55   19   19   -5   -3   18   44  -56   -3   14   -1   25    1    4  -21  -26   23  -46   -8   15    4  -29   60   52   -9    4   36  -20    0    8    1    6    5   36   20  -43    7  -20   -9   -7   35    6  -43  -14   55    2    2  -14  -13    0   -8  -16   16  -27
  19   -9  -18   13   -7    6   -9  -30   26    0   -8   19   17   12   -4  -15   28    7  -10   29    6  -21   13  -31   30    4  -16  -20    3  -12   28    7   -1   11    3    9  -11   -5   10  -35  -28  -17  -28   23   23  -32  -50  -56   32   -1  -15  -12   31  -18   21   17   35   10   -9   13   13   -8    7   31
   2   16   -7   -1    3  -29   11   30  -10    4    2  -17   34   -3   -3   13   29   12   14   -4   24  -14   -8   25    5   -2    2   32   26   -3   -5   -4   -9    6   15   19   16   15    7  -14   -7  -13   32   34  -18    1    2    3    6   26   14    6   -7  -13  -39   19    6   20  -27   13    1   12  -12    5
   3  -25   48    4   65   52   -4  -26  -13  -22  -14   40  -47   -4   -9   -3  -16  -49  -26   44  -42   14   41   34   -3  -13  -17   32   66    5  -31   34   37   13  -32   -9  -58  -29  -13  -44   42   -7    1  -35   32    7   21  -23  -21  -11   15   19   13  -18  -47  -33    5  -39   29    7    9   78   43  -16
  53   -8   -8  -46   -1  -45    0   68   36    9   29   -9   16   21   -7  -20  -26  -12  -18   20  -14    0  -11  -32   21    9  -80   14  -48  -18  -18  -24  -31    3   21   12   -6  -35   16   13   20   19  -24   -1   18  -19   46    6  -13  -28   -1  -93   -5   17    6  -42   29  -32  -35  -82  -38   63   -9  -34
 -27   27   13   14   11  -27  -33  -17   -5  -13  -47  -28   31    5  -11    3  -25   12  -31   25   34   18    2   -4   -5   13   16  -19   -6  -29   13    8   16   -8  -31   21   24    9  -23   25  -13  -22   42   32   16  -28   26  -11  -25  -15   28   19  -36  -11   25  -26  -11  -13   -2    5    2   -7   -3   -1
 -16   41  -36   -1    4  -12   -4  -19  -13    5  -26  -12    6  -28   41  -14   15  -44   32   -2    2   18  -12   12    3    8    2   18  -12  -18  -21   34  -15  -10   -1   33   25    3  -12   23   -8   17   38    8   -1   14    9   46   30   -1    9   16  -10   31   -6  -12   -6   -6    9   37   26   40  -19  -15
 -16  -17  -12   10   -5   28    2   14  -23   18   44    6  -23    1   18   29  -22   13   27   -6   -9  -43  -35   -3    7  -33   -5  -23  -46   30   -4    5    1  -43  -46  -32   22  -14  -15   -1   44  -12  -45    3   22  -12  -40  -15   16   12   17  -29  -17    1   20    7   -3   -6   32   -5    7   19  -39   42
 -11   31   -2  -13   -3   46   -7  -21   -4  -25  -34   -4  -14   27   29   -3  -22    8   55   49   -7    2   25  -33   29   27  -59  -35    1  -13  -31  -58   -6  -16   -9   -2  -20   -2   31  -17   15  -26   44    5   -8   57   20  -11  -13   37    8  -34   21  -35  -28   15   32    8    1  -18   14    7    0  -26
  46  -12   19    2   30  -30    8  -11  -49  -20  -27  -16   53  -11   32   -4    3   25   22  -44    1  -19  -30    2   -9   -1   -5  -18  -40   13  -20   22   29   18  -13   31  -10    7  -40   40  -64  -67   45  -32  -14  -37   22   29    3   13  -31    9   11    3   25  -41   -8    1  -10   -5  -11   -8   48  -14
 -26    6  -19  -19  -30  -11   11    4   17   46   24    6  -10  -25    9   -8   30  -46   -5   -5    8   19  -14    5  -15    1   26    4   -1   -4    6   11    4  -17   28  -11  -16    0   31    1   26  -12  -26  -12    6   13    3    4   57   18   30   10  -33   30   28    2   21  -41  -35    1  -16    9   -9   21
   7   26   26    5    0   -1   33    1    2   10   32    0  -30    0  -43  -14  -20    0    6    8    8  -25    3  -33   11    7  -43   15    6   -7   34   26  -11   18  -11  -31   15   15  -10   -3   12   30   -3   12   -8   -5  -17  -14  -41  -32    0   13   -8    4   13    5  -30    5    6   10   -6  -25  -29   26
 -37  -19   54  -21   52   28  -52    4   15   41   11  -41   20   11  -48   20   16  -68   16   -3  -18  -17  -14    6   11  -35    7  -17  -31   -8  -21  -48  -14   27   20  -59  -53  -39   23   51  -43  -49  -18   56  -47    1   49   -3  -60   11   61   -4   -1  -44   -5   27   33    7   44   15    7  -12    4   -4
  32  -40   22   -7   26  -42  -15  -41  -25  -21   26  -17   20  -26   54  -15  -10  -44  -17  -41    9  -39   18  -51  -42    2   16  -38  -10   -2   -2    0   36  -31  -37    2  -12   15   -5   51   41    1   -7   12    1   -5  -16   -1   -8  -45   16   44   20   18  -75   20  -11  -19    5    3   12    2    7  -27
 -40  -16   27   15   31   -2   -5    5   27  -21  -19  -22   15  -12  -11   -5   -8   13   16  -11   39   10   59  -69  -10   10   42   13   11   22   11  -11   14  -25  -13  -45   36   48   42   10   47   12   -5  -42   -7    0   29   -4   24  -14  -18  -15    8  -30   23   -5   -2   -1   17  -29   16  -42   31    0
  16    6   12   20  -21  -43  -14  -39   59    2   32  -15   28  -11  -27  -46  -19   34    3  -49    0    6   29  -29   36   -2  -28    9  -94  -15  -37    0  -26    4   10    2   13  -20   58   19   13   11  -40  -20  -13  -12   -2   43   21    8   19   60   37  -33   62  -20  -29    2  -21  -75   44    2  -12  -35
  12   46    4   -6  -48  -22   11  -16   18  -15  -10  -73   -9   39  -42  -32    6   26  -28   49   -6   37  -35   29   12   16   16  -32  -37  -42    1   17  -35   57  -29   22    1  -24   34    6    3    9   -1  -12  -14  -30  -18   18  -31  -32  -14   22  -16   29   17    4  -19   23  -12  -17  -18  -71   11   12
   8    9   14   26   14   -5  -16  -28   56   26   -9   29   43   12   -9   21   11   12  -14   -2   24  -34  -13  -14   12   25   -2   24  -69   10   18   -3  -12   46   32   14   72   20  -30  -42   47  -55  -48   11  -16    6  -31  -26   17    6   -2  -23   20    9    0    5    6   51    5   -9    3   -3  -44   53
  23  -17  -50   50    2   12    4    3  -21    2  -18   59   12    1   11   27  -23  -46  -34   -3  -15   19  -11   14   20   40  -35  -46   31  -42   13   -8  -47   19   42  -19   20  -41  -55   -6   29   16   22   36   48  -29   -9  -24   13   32   39  -43   49  -19  -20   11   15   -1    2    9   -7   33   15   22
  -9   26  -10  -41   -4    0   13  -35   -3  -37  -31    2   12   14    8  -24    7   18   -4   22   -2   20  -22   14   13    7   27  -47   -1    3   -6    4   10  -43  -14   10   27   -4   26  -26    2  -28   34    2  -18   13    9   31  -12   23    4  -22   39   32  -23  -16   23  -12   13    5   -6   32  -14   -5
 -17    1  -27  -14   14    4  -38  -26   36   10  -19   34   -5   -5   86  -19    1   -2   57   45    3   35   34  -16    8    8    7  -18  -10  -48    1  -13  -13    2  -72   -4   44    9   10    6   13    5  -15   19    5  -24  -19  -11  -12    2   40   28  -56  -48   24   39    6  -16   -7   -2   -5  -18  -54  -21
 -38   -2  -12    9   35  -22   15   19    8   31   18   29  -26   13  -22  -49  -54  -26    4   15    8  -17  -22  -21   31  -13    4  -19   59  -80   13   28   22   33  -17    8   33   14   46   -2   -6   48    1   12    6   69   -9  -12  -24  -22  -39  -18  -19  -45   24  -42  -22  -20  -45   -1    6  -21  -49   23
  -5   31    2    4    5    4   29   -4   38  -23  -72   15    4  -12  -47   38  -23   -4   45  -15   23  -23    5   27   54   16   23    7   26    4  -53  -21   27  -10   -4   39  -25   19   63   32   11   25   -5   42   -4   42   11    1   30   46   37   -2   -1   35  -15  -24   26  -15   45    1  -17   -5    6   11
   8   20   42   33  -25   -9  -11    5   13  -52   42   -3   39   26  -41  -46   21   32   12   42  -31  -30  -12   21   -4  -25   13   -5   -7  -48   70  -20   15  -27    7   13   -2   19  -24  -10   -4  -18  -37   58   11  -52  -51   46   31   59   16   -5  -35   47   31    2  -21    4  -36   41  -17  -49  -78  -28
 -27   41   22    7  -46  -18    5    2    2  -20  -51   -6    8   21  -28   26   11   12   -6   69  -64   11  -22   32  -12   -3  -13   38   -2   -8   21   -1    4   14    5  -20    9  -19  -23   25  -14   17  -18   -1   -7  -22  -35    2   21   22    3    9   15    9   -8    4   24   12    1  -24  -14   -7   -7   11
 -21   23   -3  -29  -30  -33  -19   -8  -21   11   11  -31    7  -17   29  -77   28  -37  -15  -11    7  -35  -27  -19    8   -9    0  -53  -29   29   14   44   28   11  -32    9   11  -23  -55   51   16   28    3   34   73   14  -29   32  -14  -19  -11   53    2   21   13   25  -38   28    5    4    3    5  -19  -40
  16   35   20  -14   23   19   25   -1   -6    9  -26   26   31  -21   34   -6   -8   -2    0   32   -6   12   16   23   -9  -19   17    9    3   -4   16   22  -19   -4  -19   -9    1   -7  -21   -1   -8    2    0  -13   50   21   13   49    8    4   -2  -38  -13    1  -41   19   19  -31  -23   23   32  -14   28   -1
   8    3  -42   -7  -22   34   14   12   -8   11   18   -7   18  -36   18  -14    6  -40  -34  -22  -40   17    0   15   -1   39   -4   -6    4    6    1    8   41  -13  -25   35   14   30   -3  -14   10  -31   -3    4  -17   20   -4  -22   -7  -25   28   22   -4   43    4  -23   15  -68  -11   24   26   21   -5   -5
   0   16   -1    7    3    6  -26  -12    6    2  -21  -17   11  -21    7  -26  -11   11   -9  -16   17    5  -26   -4   16    1    1    2   14    1  -20    4   25   -9  -16   27   25   -7    5  -12   16   23   11  -27   19   11   -6   22   -5  -16   18    1   10  -10   18   -4  -10    9    3  -22   10    1    1   -7
  -2   29  -27   -5    7   31   -7    3  -20  -37    9    7   28   -9   -1    9  -17   36   44  -12  -33    0    5  -12   28    2  -21  -16   12   26  -27  -37   38   19  -14   39   20    1  -36   11  -13   19   33   20    4   42    4   -5   -2   21    5   -6   53  -17   -3  -10   -3  -30  -16  -34  -18   20    5  -50
  17   30  -32   18    1  -45   -6   46   25   52  -22   -4   -6   -9   29  -29  -12  -16  -18  -89   16    5    4  -64   -2   25  -38  -33  -25   45    2   25   54   44  -27  -61    5  -63   33    2   28   19   -6  -25  -33   35  -10   -3  -24   57   -6   16   -9  -14   48  -10   48   19  -17  -27   25  -76   -7   20
  -6    5   -6   16    4    5  -17   -4  -14   -1   -5  -27   -1  -25   25    0   19   -8   22  -22  -43  -13  -17   10  -17   39  -15   17   10   24   -9   15  -20  -36    7    0  -18  -26    0   18   -9   -4   15   35    7   11  -26    7   -2   23  -13    9   13    8   -5  -31    3   -8   11   13  -30   15   38   12
 -48   -8    3   19  -10  -18  -23   23   26   55  -12   20    1   -6  -30  -35   30    0   24    3    7   28  -16   19  -15   13  -11  -30   -4  -26  -12   28  -14  -57    7  -64   -4  -21  -18   23  -32    8   32    7  -23   11   23  -22   36   48  -15   11   13   22    3   39    3   17   -2  -33  -25   16  -20   14
  -4  -22  -43   22   29  -38   -5    5   16   14   27  -61   25   34   27   10   -5   38  -36  -17   33  -31    0  -54  -10    5   -8    3  -35    4   12    2   22   -7   33   17   39   35   75  -13   -3   13   46    3  -17   20  -18  -20   14   13   20  -37   12  -26    4   17   22  -22   19   11   39  -37   38   30
  32   33  -47    9   -8   28  -17  -16  -10    9  -28    1   13   20   15  -18  -18    0   34   26   46   50  -27  -20   -9   25  -14   29   27  -21  -45    0   18  -15   10    8   -1   15    7    2   31  -14  -43  -57   12   24    9  -13   -2   32   57  -17   21   53   10   25   40  -14   -7  -29  -31  -22   -2   43
   4   -4   16   26   -7    2   56    3   22    8    8   11   20   21    7    7    2  -30   -9  -10   21  -21   -2  -11   -9   -4   59   -9  -53   15   54   40   14    1   10   43   65   14    0  -24   33  -50   -8   26  -19   28  -21   33  -40   11  -36  -27  -21   -1   -9   34   10   -8   -1  -19   35  -22  -41   -4
  11   24  -59   34   30  -19  -23   25   50   -8   -2    0    1   19   55   50   -7   24  -19    1  -35   12  -13  -19   35    5   42   84  -17  -13  -30   24  -77   -9    8   37   22   -1   -6    5  -15   -7  -33   -3   10    1   48   56   18  -25   -5    3    5  -44   -1   17   21   42   47   33    3  -45   -8   -5
   7   -8   -3  -33    2  -13   16   34   28    3   17    9  -10    2   -2  -12   -6  -12  -13    6   -4   14    2  -24   10   10  -29   20  -25    5   10   -5  -20   -3    4   -5    1   -6   -7    7    4   -4    4   -6   -5  -29   23   -4    2  -18   -3  -45   -3    1    2  -19   -2  -11  -18  -31    5   17   -4  -17
   4   -1    7   20   -3    6  -10   17   47   23   -3  -36  -10   17   22   -3   10    5    8   -7    0   18    1    1   32  -23  -36   -2   27  -22  -11  -29    0   -6   17  -18  -16  -18   -4   12   27  -15  -17  -15   -5   -5   19  -21   -2  -36   17  -12  -30   24   -2   26  -14  -12    7   17    2  -34   -7    7
  -6  -29  -11  -13  -19  -15    4  -19   -5   23   21  -22   18   -1   45  -12   46  -39   25    0  -19   27   63  -31   37  -21   18  -28  -33    8   -1  -39  -23    1  -14    3   -9   -8   -2   16    2   27  -38  -31   29    7   -9  -11  -24    7  -11  -24  -19  -36   -6   29    6  -24  -35    0  -30   14  -22   20
   2   13   -3  -12  -16   19   -4  -30   15  -11  -25  -21  -15   43    5  -19   -1  -10   34   40   12  -30   46  -27   21   30    1  -22    7   -7    2  -11    8   17   -3   30    8    5    1   -8  -27  -31    9   17    0   16  -20   16   13   39  -36   -1    1    8  -16   18   22    4  -34   -6   11   23  -30  -28
   2    8   12  -42  -17   17   67  -15   10   18  -17  -22   10  -17   15   50   44  -46   13  -35  -21  -13   14  -35   -3   24    4   11  -32   20    0   43   24   20   73  -28    9  -15    8  -28  -38   16   32   23   26   21   24   17  -17   -1  -38  -21  -16   -9  -21   -4   19    7  -31   30   70   29   44  -43
  41   16   -8   20  -15   14   11   -6   18    0   31  -21   65  -41    5    3   14   41  -13  -44   46   22  -41   -4  -10  -13   30   43   40   11   30   42   51   -7   -3  -13   -3  -33  -55  -22  -37   15    3   -5   13  -12    4   14  -60    5  -21    0   24   10   36   -5    2   -6  -33  -17  -15  -15   78   38
  23   51  -36  -60   20   -3  -28   26  -10  -10    3  -35  -35   24  -15  -36   -2  -48   46  -30   35  -70   20   57  -30  -34  -60   43    6    6   14  -40   18   60  -22  -20  -11   -1  -20  -11  -17   23   -2  -58  -41   19    5   20  -22  -39   38   38    2   -4   12    4   33   -6  -22  -23  -76  -20   36   14
 -39   -6   15  -24   18  -16  -17   36   -2    9   26    3  -44  -34   43   44  -39   12    3  -21  -13    3   11   20  -20   -2   25   32    3  -23  -30  -23  -37   -8   16   13   -4    2  -23   30  -10  -35   17   -2   13   18   58  -22   14  -10    6   10    7   11    8   -3   -3   -5    3    5   49   20   34  -51
  36   12  -18   11    9  -22    8  -11  -39    0  -19   36   13   -4   19    6   12   19   25   16   -9    8   25  -16    9    3   15   43   -1   -6   -7   -9  -20   -8   21   58  -18   -8   21   -3   11   15  -16   -5  -28   14    6    7   -6   26   -4   47   -5  -20   -8   14    9   13   -3   10  -32   -9    1   23
  14   -9   -8   -6    9    9   -9   -7  -18    8  -44   14    9   -7    5  -27   10   30  -12   -5   18    3   -5   10   15   15   -3   -6  -25   -5  -19   -7   17   10  -11   43   -5  -12   19    8    1    8   -6   -4    8   -4   -5  -11  -13    1   31   15   -6    4   26  -13  -25   19    9  -24   12   -6    5   12
  19   18   26  -41  -18   16    3  -37  -34   -5    1   -4  -70  -24   17   20    4    8  -22   11  -30  110   22   45   -8  -17  -10    9   40   -3  -22    7   25  -30  -40  -37    8  -68   10   72   15   11  -30   30   13    7   21   29    4    4  -55    1  -20   13   29    8   -5   -3  -23  -13  -30   29    2  -58
   6  -12  -37  -21    6   43  -28   -2   15   -2   39   12    4   -7   -1   22   16   -7   11  -21  -17    6   15   -8   28   16    6   -7  -15  -46   -5   22   21    9   19  -11   29  -33   20    7   -6  -20    5  -10  -24  -23   14  -12   11  -27   -6   14  -11   40  -22  -11   20  -16  -18   16  -34  -20  -10   11
   1  -12  -11   11   -9   -7  -16   -4    2   18  -16  -14    8    2   24    9    4  -18   19   25    6   10   11   13  -14   -5   11  -15   -9   -9   -2  -14  -13  -16   24   -5    5  -20    1    3  -14  -15   -8    0    9    4   12   21   19    4   -6   11  -11  -13  -10   20   14    7   -5   15   11   -7  -25  -33
  10  -11    0   19  -10   24   47   55   -1   11  -14   68  -17  -45  -14    6  -40  -25  -12   -4  -10   23   25   17    1  -32   -6  -33   22  -37  -14    4   32  -54   45    0   32    2    9  -13  -17   13   41   -2  -41  -10  -22   18   12   13  -51  -14  -27  -17  -16   47   23  -60   23  -11  -43 -105   -4    1
 -24   -5  -17   25   17  -22   -9  -48   10   21    4   -1    3   19   25    0  -18   -9    0  -21   37  -29   16  -47   24   34   40  -20  -73    5   34  -15  -50  -33   -5    6   14   62   17  -16  -16  -29  -63  -29   16   12   15   32  -24  -56    2    8  -17   16   62   -2  -27  -24   10  -42   70   25   61   23
 -26  -36  -88   -1  -50  -63  -49   -2  -24   36    7  -60   79  -32   19   21  -13    2   -8  -21   14  -51  -16   50  -11   31  -12  -28   30   -1    0   23  -19  -15   15    9   28   22   42    5    9   12   53   27    5   44   45    2  -12    3    2   -1   -8  -40    3   20   25  -31  -11   23  -10   59   62   19
  10  -19    9   15  -38  -28  -39   26  -19   -6  -41  -29   52    4  -12    0  -10   24  -27  103  -52  -16  -20  -38    3  -21   13   35    3  -63   74   16   32   -5    5  -42   48    0   -6  -19   -2    2  -17   45   42  -42  -49  -46   11   24   23   40   14   26   -1  -23   68  -13  -11   33   -3   12   36  -52
   7   30   22   16  -79   43   -7    1  -27  -26  -12    9   10    4  -23  -27  -22   53    7   14   38    6  -25   81   44  -38  -34  -41  -40   30  -16   13  -19   -9   -1    7   14  -98    1   -3   26    6  -19   23   -7   -2  -10  -62  -38    9  -17  -24   -8   28  -30  -27    4   -8  -55    5  -37   21  -80  -35
  14    8   -2   26  -32   15   -8  114  -23   17   27   26  -67   -8   41   34    4   34   -3  -13    5   30  -10  -29  -15   -7   34  -12    7   -8  -25  -36   36   36    1    6   13   23   27    7    6  -11   20  -10   -3  -15    0   44  -49   34    2  -15  -12   -6  -74  -47    5   30  -21   25  -34    2  -27   14
 -12  -46  -10   56  -22  -31   -4   36    0  -19   -1   36    6   -3   46  -31   -1   -3  -41   17  -19    1   50   48  -12   34   33   43   13  -58  -15   28  -46  -59   -2  -12   11    6  -21  -30   15   38   24    0   56   27  -26  -21  -61   27   -7  -14  -34   33  -12  -14  -46  -21    1    7    2  -11   25   20
  34    7   43    7   16   20  -11   16  -18   24  -46    8    0   -7   27  -33    0   42    1   30   36   -7    4  -22   19   -8   -4    5   -2  -12   21   -2  -20   -3   56   -3   22   -7  -20   22    0   24  -36   17  -15   21    4  -20   10   19  -10   -3  -24   -8   -5  -12   35   -5   13   10  -39  -18   33   22
  15   -9  -26   19    1   -6    2  -18   35   -4  -17   15  -11   17   52  -16  -31  -30   -2  -24   15   18   11   28    8  -13  -41   15   -5  -14   17   27   -4  -29   -4   28   -3    2  -22   10   -7   11    8    4  -21   13   17   -6  -24   28  -10    8    2  -29    1   -5   -1  -11    0  -35  -22   30   11   36
  45   -8   40   41   -2  -42  -21  -23   -5  -36   17   36   28   -3  -31  -10  -10  -13  -17   28   57   -2   -8  -24   30   -5   17  -33   -4  -22    6   -9   -4  -18  -21   19    4    4   21   -4  -19   -5    6   -2   14   -7  -25   23  -16   11   -6   11  -26   38    3   18   28   -1   -2    5  -29   -7  -48    5
  13   25  -22   50  -27   -5  -20  -26  -20   -7  -17   -6   56  -21  -35   -3   23  -12   20   34   -9    9  -23   25  -22  -21   25   10   29   24  -21    2   -2  -21  -17   42  -20   13  -19  -28  -22   24   -2   36  -36   47  -35    4   35   44    4  -13   -4   -3   -6   -1   12    1   -4   -3   -7    0   -5   55
  -4    5   18   -7  -42    1    6   -4   15   -2   -8  -31   44   -9  -55  -48  -15   -2   26   -4   -5  -14  -13   54   24   31    7   -9   -7  -43   19  -16  -35  -10  -17   41   32  -17  -28   19   15   -5    5   -7    7  -44   17  -13  -29   36   18    8   10    6   43   22  -21  -11  -26    0  -22  -46  -69   -5
  -6   12   21  -13   12  -19  -28    6   31   25  -10   -5    3  -41  -25   23  -17   29    4  -17   10  -13  -16  -23  -26   -3   -8   34  -34   14  -36   -8   32  -31  -16    8   -7   19   48   22  -20   -7   23  -16    4    8   22  -24   31   20  -16   24  -21  -20   25  -13  -32   17   14  -10    1    0   10  -12
   1  -37  -25    3   -1  -10   15   -9   12  -10  -30    6   37   41   -7  -33   40   25   -1   19   -1   32   40    0  -29   18   39  -22  -38  -59  -17   19  -11  -40    4  -58   12   -3  -23   33    2   51   29    7    3    4  -14    4  -67  -35  -21  -20  -11   18   -7   16  -39  -28    3  -22   22  -46  -43   61
 -12  -10  -21  -26    5   26  -90  -17  -75  -30    4   -6   42  -34  -31  -17   15  -38   78   13   31   39  -16   70  -14  -48   19   -8   50    8   45    4    0  -47   33  -41  -19    3   27   41    6   24   16   -4  -27    2  -34  -26   48  -43   -8    9   -3   19  -18  -67    9   11    8   -2   -4  -34  -15   -7
   8   11  -14   -9    6   -1  -15   10   11  -19    7  -11   -5    0  -29  -48    4    4    3   33    0  -21    3  -17  -14   18   19   14  -13   19    8  -37    5  -24  -10   24  -11   -7   17  -36    2    4  -18   20    0   39   -6   12  -34    5   -3   -7   21   19    5  -18  -23  -16  -11  -10   25    7   11  -21
  -8   18  -25   -6  -15  -29   19   -2   -2   -6   45   -4  -12  -26   49  -28   38    3   10   54    2   29  -30  -19  -36  -12  -19  -28   19    8   26   -8  -24  -21   -9  -32  -14  -22  -47  -14   40  -11   47  -23  -46   19  -27   -8   -4  -26   -7   -9  -53   -1   24   32  -32   -5  -24   17   28  -33  -38   -8
  50   10    1   30  -57   23  -10   36    5   30    1   38  -91    0   21   37    4  -44   -3   24  -31  -51  -33   -1    8  -13    8  -19   14  -21  -27   13   12   23  -37   14  -17  -16  -27   -9  -55   16   -7    9   -1  -10  -26   15  -38    5   42    3  -15    6  -18  -17   21   31  -14   12  -46   29   18  -13
  33   23  -39   26   -2   12  -20   -8   -2   11  -21    0  -75   21  -12   -4   12   -4  -14   14  -38  -18   12  -42  -29  -27   31   -3  -42  -49   18  -19  -21   14  -22   12   -1   -6   -2   12  -10   -6   13    0  -24   13  -11    8    1  -14  -12   -7   50   47   44   14   22  -34   -5   -6   14  -30   19   24
  85   -9   19   44  -16  -16    4   -2  -27  -38   17   45   28    6  -13    2   29   10   -5  -47   24   12  -20   18   33  -16   17  -14    3   50   61   30   36   13  -10    4  -24   10   10  -11   17   -1   -2  -37   15  -36  -16   -8   -2   31  -11  -15  -11   72   32   -2   22    8   -6  -20    3    4   24   31
  -9   -3  -21   16  -13  -28    4   -7  -41   16  -19  -41   23    6  -21  -10  -24  -11   19  -31  -20  -11  -24  -18   -7   37  -14  -52   16    9   -1    1  -18  -48   22  -11  -16  -32  -13   24   -3   23   26    5   21    8   13    1   12   24    9   17    5   -6  -21   13    6  -40   -7   19   -8   17   38   20
 -17  -23  -21   25   -9  -11  -14    2  -63  -20  -38  -53    9    1    5  -10   -7   52   16    5  -21   11    8   32  -21  -26   31   -7   36  -24   -2   14   51   -7   17   17   11   10    4   25   31   10   17   64   -6    4   13   28   -2   52   -1   13   20  -29   20   15   33  -23  -18   37  -29   -8  -41   11
  -7   27   -3   13  -17  -27   15   -1   -3   36   48  -15  -20  -16   53   10   59  -65   26  -10  -18   25  -19  -67   31  -44  -41   31  -33   35   31  -32  -18   -6   63   16  -31  -10   -5    6   -8  -64  -14   12  -16    9    8  -22   27   -1   -3   -1    9    8   23   41   30   39  -78   20   46   29  -23  -13
  18    8  -14   20   -1   -7   33   -6   48  -53  -18  -49   33  -18   17   16  -30   15   13    8  -17  -39  -32   19    3   -9  -23   30   33    6   23  -27    1   59   43   36   35  -12  -17   32   20  -40  -37   20   -2   -4  -15   12  -17    9  -12  -17   35   -1  -25    3   20   11    9   15  -15   -7    4  -15
 -11  -16   -7   21  -22    3   34  -15   17   21   37  -13   13   31  -15   10  -27  -23   30  -11  -33   12  -23   12   11   16   18  -30  -15   16   14   23  -37  -27    7   12   11  -30   10   14  -20    8    8   -2   35   16  -12   48  -12   33   13   28  -11    7    3    6  -24  -16    7   -3   30   43   -2   -6
  -7    4   -2   20   -2   15   16   29  -34   -4    8   24    3   -7    3   11   20   -3   36  -24  -10    2  -57   62   -6   28  -17   16   10    1   14  -10  -16   -7   15   -1    2  -15  -30   17   33    7   -5   28  -12   36   -7   -1   28   45   -2   -7   19   10   27   23    1   13    0   -7  -46  -35  -41   39
 -28    0   43    6  -12   10    6  -52   15    5  -36  -30    2   30   20  -39  -20   17  -11   54   24   -8  -24   -6   -3  -21   14  -43    3   20    7  -23   44   24   -9  -19   20    0  -24   20  -36   44   -6  -31  -14   17   24    6  -12   -2   11    3   22   70    6   27   -9  -22  -13  -28  -31   49  -25   27
  17    2    9  -28    2   -9   -1   -1    7   18    9   16  -30  -15  -16   27  -12   18  -18  -16    9   15   24  -10  -28   -9    0  -15    7  -17    3   -5    4   -9  -13   26   -5   -3    2   27    2  -10   15  -24   16   -3   -8    0  -31    8   -7   14   -5   -1   -6    5    0  -10  -13   26    4    2   -7  -10
 -17    3   14  -31  -22  -35   15   35    3    5    5   -4   29   26   28   19   41  -20   -5   11   20   -5  -13  -22  -31  -36   -8    5   -7  -15   28   10  -17    4  -43    2    9   35  -22  -21    6  -47   -3   30   -7    1   43  -32   37   22   13  -12   12  -22 -107   -8  -25   -2   -3   39  -20  -15   18    4
  29    4  -49  -15   -2   20   14   39  -27  -10   -2   30    2   -5    7  -34   -5  -22  -40   20  -27   20   -5   13   -2   16   14  -29   -3   11   64  -23    3  -10  -23  -81   37  -30    8   -4  -34  -34   31   36  -34    0  -17  -10  -23   22  -10   12  -34   41  -29  -21  -21  -10  -20   -8    9   13  -20   26
  42   23  -42  -28   -5   -3  -21  -10  -11   15   -3   21  -13  -21  -21   51   65    0    4   29  -47   43   36   15   31  -31   28   69   13  -54   10   15  -25    0   39   25  -13   26  -19    4   13  -52   61   27  -15    5   28  -33   20   -4   -5  -23  -19    7  -31   17   35   -1   25   11  -41   34    9    3
 -19    2   20   12  -15  -13   38   13  -32   -7   22  -47    2   -9  -10   -7  -38    4    9   16  -11  -16   -7   28  -20  -21  -36  -11  -14   17   16    5   -1  -10  -20   -8  -38  -25   -2    2   16    4  -19    0   37   -9  -43   28    6   19    1    8  -33  -28   11  -16  -11  -23   15   11   33   19   34  -31
  -6   12    5   -8   -8    3    9  -11  -15   28  -20   30    4  -15   35  -31   18   13   13    7   18   -2   -4  -31   34   15    5   31   -2    6  -26    3   11   -8    2   20    1    7  -12   -7   -6  -29  -20   -1  -19   -3    3  -14   -3   17   11   19   10   17    0   15   11   18    4  -14  -23  -21    3   17
  11   25  -27   24  -35  -12   33  -12  -33  -23   34    1   47  -27  -16   25    0   -6   34   14  -24    7    1   62    7  -43   25  -22  -35   -2   25    0  -10  -14   -5  -22   -5  -17  -15   -9  -29    3   17   35   -6   12  -11   57   35   44   -9   38   -5    9   -6   48  -12   -4    8   56    9   12  -26  -49
  -8    7    8   47   62  -12  -10  -20  -30   28   11   24  -18   40   20   19   20   27  -52   16   -9   10   -1   10  -20   17    3   11   19   11  -54  -17   -6    7   15    5  -11  -33  -21    1  -29   18   -2   47   22   16  -17  -24  -10  -91    9  -25    0    9   23   10   64  -41   35    7   51   21    1  -39
   0   10   -1   15   -5   12   -6   17    4    3  -10   17   10   -9  -22   -2  -16   14  -24   18    5   10   27  -10    6    0   29  -16   31  -30   21   -2   -1  -26  -19   17    1    3   -9  -12   23   -3   -2   -5  -12  -13  -14  -13  -18  -21   18  -15    2   -5   30   10   -1   -3  -16  -26   16  -32   -3  -16
  26  -19  -19   -5   32   27   27  -33  -20   -5  -19  -33   11    4  -16    2   31   -9    4    6   13    9   20  -26  -17    2  -18   51   15    0   32  -41   29  -16   67   48    9    5   -8   40   -3   -5    8   -6  -35    7  -15  -30    1    6   -3   -1  -28   29  -16  -30  -39   41  -22   -9  -29  -42    3   20
  17   24   -3   -3   -6   64   19  -27   -4   15   35   12    2  -10   17  -14   -6   -3   -1   43   49   41    8   25   27    2   27   37   -3  -18    3   -8  -20  -11  -33    1   11   -3   20  -53  -39   40  -13  -10   18   16  -29    5  -12   56    4  -10  -20   -7   18   12   17  -33  -42   -4   30    0   28   34
 -24  -41    7    5    7   13  -16  -27   18    3   17   29  -17  -12    5   48    0  -31   -4  -35    2    0    8    7  -25  -41   23  -19   19  -84   53   35  -37   60   30   48   -4   12   22    2   19    2   38    3   38  -18   48   31   -4  -17  -21  -17   22   -1   -4  -25    1   41   46   22   41    4   43  -48
  20   -6   -5    3  -17   30   -8   28  -16  -27  -31  -15  -28  -10  -12   20   21    0   13   -3   12   20   34   24  -24  -10    0   12   20    7   16   32   47  -21   18  -55  -38   17   11   -9  -25   14   60   -1   23   19   11    5    8   -2  -15    3   40   22  -18  -61   23   -5   -8   16  -40   -6   22  -52
 -47   -9   42  -18   -4   -6  -25    9   25  -18   -8   26   11    5   46  -40  -23   15    6    2  -24    6   11   49  -16  -16   20  -16    1   -5   39   27   -7    7  -65  -22   25   -8  -39  -24  -14    4    8    7   37   27   38   14   26    6  -33  -77   23   13  -59   35   41  -26   13   65   13   -5   -9  -40
 -16  -18  -17    7    3  -26   -9   37  -31    3    5  -30   16   -3   -4    7   -1   20   39    0  -37  -17   14  -36  -20   18   22    8   32   55   -8    9    1   18   26   19   -9   22   52  -22    8   45  -35   14   18    8  -19   -1  -25  -25    6  -50    7    0   32   19   -8  -16   -2   36   -1    6   17  -11
  20   16  -30  -16   25  -21   38   33   17  -33    0   -1   -7   -3   45  -37  -12  -10   41    8  -40   28  -14   -5  -20   -2   -4  -16  -14   32  -19  -16   36  -29    5  -33   16  -12  -34   44   -8   38  -25   23   -6    8  -21    0   -6  -36  -21   14   21  -41   11   -8  -20    1   32   -3    0   10    5   -4
   0   25   -1   32  -49    6  -13  -18  -20  -37  -44   26   -6    8    6   27   -4   23   -3   25  -23   13  -17   -2   -3  -37  -36   14   -4   32  -16   30    4   18  -25   15  -19  -55  -31    1   -7   39 -101  -25  -34   24  -18  -68   -6   12   12  -15   32   -4  -28    0   24   19   -5  -25  -32   47  -47    2
   4  -23   25    5   13  -15  -35  -24   41    3    0  -29   37   -6  -14   22    0  -33   27   13   14  -18   16  -20   -2   -3  -21   -2   -2  -15   32    0  -40  -23  -18    7   17  -28  -14   30  -17    5   15   -1   22   11  -14   24  -34   -5    2   -3  -18  -13    7   -5  -33   17    7  -34   -1    6  -28  -12
   4  -35  -25   27   22  -10  -19   15  -13  -15   10   -8    9    7    4  -17  -25  -15   -1   -8    0   11    4    3    0  -30  -39  -31  -14    9  -21   59   27   16  -39  -46   19    1   11  -10    9   30   10   23  -36   24   28  -26   49   17   21   20  -12   12   21    0   32   34  -30  -10   22   42   26   -6
   4  -11   15   11    2    6   -6   31   15   -2    5   16  -10    6    8  -38  -26    3   -5   18    8  -33    0   20    1    9    6    5   11   27   -9    6   11   -8   -4  -16   -6    0   -5  -21    7   19   17  -28    2   -8  -42  -22    2  -18   23   -6   12   13   -8  -12   35   37   -6  -11  -19    6  -14   -4
  17   21    0  -51   41   14   -5    9    6  -25  -21    6   42  -50  -15    0  -27  -32   32   33  -23   53   28    5  -23  -12   61  -34   -2  -28   -2   -8   23  -32   80  -34   20  -10  -31   -1   -7   44  -53  -19   32   18  -31   25   33  -16  -31   -7   17    6   -7   17   -6    4    1  -11   28    3   17   19
   0    2   -2    1    0   -3   -2    7   -9    0    1    1    2   -8  -12   -3   -2    4    1  -10   -5   -2   -1  -10    0   -3   -2    4    5   -2    5    8    4   -5   -7    0   -8    1  -11    3    4    1    6   10   -2   -3   -3   -3   -3   -4    0   -2    1    8    4   -5   -6    0    5   -2   -9    9    4   -1
   0  -25   -5  -33   -4   -9   -1  -13   -9   -3  -22    4   13   -2   31    5   32  -51   25   31    9   26   22   15    5   28   12  -22  -29   22    2  -41   -5   -2   22   69  -15    3   -4   23  -14   -2   28    5   24   31  -10    2   35   35   20   -3    4   -3    5   14   16  -20  -14    9  -41   16  -25  -33
  32  -10   26   -5  -14  -27   26  -22    1   -2   29   -3   13   -5   -7  -21  -20   36   -3  -57    4   -6  -17  -13    4  -10   28   23   -4    5    7   24    7   -9   -4  -14   -9   -4  -13  -33   -2    6   -1  -11  -17   -2   15  -17  -23    0   -1  -17    0    5   11   -1   25   17    1  -13  -20    1   26   21
 -23  -44  -20   -7   24   10    8  -12    8  -53   19   36   -4   15  -12   11    1   31  -18    7   56  -45  -10   23  -38   23  -24   30  -12  -50  -18  -42   -4  -57  -11  -29   -9  -27  -60   45   52   12  -13   25    7   34   -8   -1   57  -26  -27    7   22   -3   -4   39  -16   46    7   21  -53    6  -16   27
 -37   -9   44  -15  -50  -29    5  -31   19  -16  -27  -14   18   22   -5    8   32  -21   24  -16  -14  -53  -15   22  -17   -4   -7   22   27    0    3   10    9  -26  -13  -14   33    8  -11  -17  -16    8   15   -8   -7   -8  -16    5  -17   20   16   -8   19   -7   20   20    4   -3    2  -20    6  -38  -20  -23
  26  -27  -11    6  -36  -35    9   32  -29  -18   -6  -17  -16   24   19    5   68  -72   -2   24   -4   11   46    9  -19    2  -53   -2    9    3   20   -6  -16   -3  -16  -21  -27   46    8   38   16   -6  -26    2   18  -20   38  -39  -31    6   31   27  -21   30    8   34   21   25   34   28    9   14    0    5
 -27    2  -10   39   18    9    5  -10  -10  -38  -23   17    6    4   27   -9   49   -2   13   23  -44  -76  -14   37  -13  -18   11    5   59  -22   30   38  -10   17  -17   54   27  -16   -3  -38  -22    0   -4   68  -34   -6   40   15    7  -32    2   15  -20  -11   -2    5   20    6    6   50  -24  -31   34  -35
  43   34  -36  -11   12    7  -27  -34   16  -13   25  -27   14   22  -31  -13   40    5   18    0    1  -11  -20    5   22   -6   -2   -4  -20   -6  -55  -15    7  -24   26  -49   -6   -2   39  -14  -28   23  -14  -21   39  -30   -1   41   16  -35   24   14  -24  -53    4   16  -38   31    5   17    8   -8  -19   13
  21  -11  -13    6  -12   17  -29    6    9   14  -11  -11  -42    5  -18    2   27   27    5   -9  -22   17   -6   35   36    4  -14  -43  -13  -14   -8    1   -4   16   -6  -64   -1  -24   19  -47  -19  -21   75   10    4   28   23    2   15   -3  -30  -15   21   21  -21   11    9   13    9    5  -37  -11   -6  -21
  -9   -8   -5  -51   29  -27  -23   36   -1   53    1   44  -12    7   17  -43   -8   46    7   -5  -11   34    1   17   11    4  -28   24    1  -18   16   -3   26  -68  -75   45   35   -5  -25  -61   -9  -23  -40    4  -34   41  -36  -48  -24   47   12   32  -23  -11   34  -28   25   20   -9   34    9  -17   40  -14
  31   13  -25   21   23  -19   18  -26  -32  -21  -24   13   -6   12   28    4   25    8   13   -3  -27   12   -1    6  -14   14   30   -9    7   12   -6  -15   15  -19    0   10   -4  -20   23   -3  -22    9   19   13   -4   52  -11  -14   -8    5   -2  -12   28    5   59  -13    3  -11   31   21   -3    8   26    4
   2   15  -21   18  -20   -1   29   29  -11    7  -13   33   28  -34   -9   -6    7   23    4   13   33  -34   -4    4   30   -5   -5    9   -1  -17   -8  -21    6   -3   12   28    1  -27   14   -1   13  -39  -18  -16    0    8  -11   -3  -41    4   31  -30   -2   14   50   30  -16  -12   -6  -18  -22  -12  -71   28
  36   -2   -4    8   25  -35   14  -28    7  -26   17  -24   33   14  -32  -52  -25   15   34   59   11   20   17   51   14    5  -14  -11    2   30   17    8  -23   -7  -25  -23   35  -44  -17   28   22  -32   16   44   -9    5   19  -11   43   14   27   27   20   11    4   33   -1  -38  -32  -10  -12    4  -24   39
 -43   22   19  -26   51   12  -42    0  -65  -42   18  -12  -27  -27    0   29   62  -14   70  -82  -11  -20   -1  -18  -37    8  -29   55  -15   61  -36  -46  -24    2   15   10  -59   23  -13   23    8   25  -42   -5   21    2  -32  -35   72   23   -3  -39  -22   52  -11   28  -26   17    5   33  -20   75  -18   32
  63    2  -51  -48   68  -61   -1  -16   20   -9    2  -38   -5  -40   -6   19   15   -8   20    1  -57    1  -40   49  -39   17   23    6  -11  -21  -11  -22  -19   32  -15   32   -8   62   -7   37   65  -41   12  -14   -3   15   12   36  -14   -8  -21    4   21  -39  -28  -26   -4   15   10    4  -20   41  -11    5
  -1  -28   10  -39   26   -7  -11   12    0  -18  -26  -28   34   12    2  -43  -34   36  -33   13    9   40    9  -13   23   22   -8    3  -21  -12   21   -7   41    6   -1  -58   18   27    2    7   54   21   36  -37  -34  -22   -6   10   18   46   -2   33    0  -23  -49    1   -6    7   27   26   13   -3    2   49
 -19  -28   -9   45   16  -22    2  -21   42    4   40  -47  -43  -15    4   25   -8   -4  -19  -40   58  -18   39  -59   17  -13   46   11  -49   23    7   49   30   -4    7    6   56  -30   61   13   21   38   12  -74   13   11   -3  -55   18   47   52  -24   43  -26    3   -8   16   17  -15  -39   82   -7   26   -4
  13  -27    8    0  -29    5   -2  -11    1   31    1    9  -10   31   -6   29  -16   -3  -18    2    4    9   16   12    6  -21   13    3   14  -16   32    6   -3   13    8  -24   -2  -12   12    0    2   -7  -35   -3  -20  -21   -5  -14   10  -37   -2   -1  -28  -12   -8    7   -3  -11  -15    7   -6  -11   12   14
 -47   26   41    0  -34   39    7  -29   11   19  -51  -20    8    6   22   -9   -3   24  -24  -11  -44   14  -30   31  -55  -10  -61  -34  -23   -1   19  -16   -7   25   -4  -46   10  -20   -6  -10  -20   29   -4  -16  -29  -31  -21   -3    0   16   21   11   14   56  -44   16  -30   -6  -18  -54   -7   22  -13   31
  15   -3   55   12   40   35  -33   -2  -62   -6    8  -15  -17  -16  -44   28   -1   11  -29  -40  -12  -14  -25  -20   31  -46  -35  -15   26  -16   13  -32   -1  -13   -2   33   -3   11  -14   30  -26  -12   -2   37  -24  -30    6  -65   -4  -27  -24  -21    7  -12    1   -1  -29   -1    1  -16   -9  -36   14   45
  13    2   -1    1   -9   11  -14    7    6   -8  -15   23  -19  -17   -6   16   50   17  -20   23  -25  -12   48   17   -9  -49  -19   52    3    7   -3   33    1   -1   29    2   17   -1   -8  -32    3   27   -3   10    0    9   25   -7    8   -8   16  -14  -12  -42  -18   20   13   27  -17   10    1   19   21  -38
 -31  -23   -5   15  -12    0   -4   15   14   17   -1    1  -21    3   -8   21  -12    0  -18  -13   -5   -2   28    0  -31   -4    5   -8   15   -9    9    1   -4   19    2  -44   26   -3  -40    8    6   -6  -20   -3   -7  -19   -7  -14   -4  -22   11   29   -8  -10   -1   11  -28    5   -3   -6   23  -31    0   -6
 -21  -17   -8   44  -46    4    6   15  -37    4  -49  -50   14   15    1   27  -18   -9   23   15  -27   20  -41   46   -2   25   26   -2    9   19  -22   20  -28  -39    5  -10   -8   26  -15  -23   -7   38   10   16   16   21    2    3    1   25  -19    5    3  -23    4    5    7  -10    0   12  -17    7   20    3
   3   -8   -7   12   18   25   14  -51  -53  -22   -4   27   13   -5    2  -14    4  -23  -20   38  -10   36  -11    6  -31   -1    4    5   19    6  -30   29    3  -16   37   -5  -16  -16   18    6  -31    2  -13    1   23   39  -16    2   -2   11   -1  -12   10   16   25  -20   -7    9   -3   38  -29  -41    7    3
  36  -31   27  -56   97    4   14   -4   -7   10  -12  -16   35    4    0  -67  -34   18   31   10   13  -25   61   53  -15   35   -4   29   46   46   -2   44   -3    9   53   -7  -26  -61   16   -1   14  -51   69   26   -9  -18  -82    2   -2  -76   26   27    1   -1   11   47   70  -22   -9  -49   46   34  -57   92
 -24   -5   37   -8   -1  -19   -4   -7   -1    3  -11    9    1    1   38  -18    0   -7   11   -2   -7    6   -3   18    5    2   19  -21    6    6   27   22   -1    8  -63  -27    2    3  -19  -13    1   -5    7    4   45   17   38   13   11    9  -28  -58   13   11  -30   23   42  -22    0   54   16  -13    3  -18
  16   -8  -43  -15    6  -32   51  -13  -18    5  -41    4    6   -2   -9  -42   36  -24   -8   -7   12   -4  -48    7  -40   16   66   18  -18   22  -17   64   22  -41   28   47  -49    0   18   -3  -15    3   22  -17  -16   41   -8   24   20   -1   15    5   11   29   23  -53   18    6   -2   39  -24   59   -5   -2
 -29   43  -13  -39   23   15    3   -2   20  -10    6  -24  -16   27   -7   37   44  -10   37    2  -27  -14  -23   17  -12   28  -29   -2    9   49  -29   32   -1  -24  -44   10    5    7  -19   22  -13  -14   56    1  -37   -7   35   27   14   -5   29  -33   10   12  -10   -6   58  -18  -17    2  -34    6   18  -30
  -6   -1   -3    2    1   -9   10    6    5   -4    8  -21    7   20   13   30   11   17  -20  -54   -3   -8  -18   -6    1    4   11   15   16   -4  -35   24   27   18   11  -20  -27   13  -24    2   10  -12    1  -16  -11   -4    4  -37   12   -2   -5   -4   17   28   11    0   -8   14   11   -2   -6  -17   16   26
 -14  -31   18   27   19   -6  -24   30   -6   22  -32  -29   11   27   -6   22    5    4    3  -13    4  -12   15   38  -10   32   26    9    1   -6   14   -5    6   27   16  -20    7    0  -37  -17   24  -10   58    5   35    8  -22    1  -30  -24   27  -31  -16    6  -32   11   34  -38   -8   29   34   35  -48   42
   0   53   15   34  -56  -21   -2   -7    4   15   35   85   24  -25   32  -11   -4   18   -4    3   25  -38   40  -23    9   26  -36   -2   20   -2   -2  -20  -26   19   14   16   10  -28   33   31  -54  -28  -28   -8    2  -45    3    1    7  -15   14    3  -17    8   12   -5   11   27  -44    6  -23  -25   31   -3
   5   11   14   17   -7    4   10  -18   10   -1  -33   28   21  -11   -9    2   -2  -25  -17   -2   22   14   31    0   10  -11   30   13   25  -17   19   24  -28   -5   -2    9    7   27  -17  -25   29   -8   13    1  -30  -39   17  -23  -14  -22   14  -11   -3   -1   15   18   -8   22   -8  -43   27  -53    2  -27
   8    6   12  -29  -29   36   19   18  -20   48  -29    1  -11  -12    8  -23   16   30  -16  -38  -16   46    7   16    2    8  -10    4  -18    1  -17   -9  -52  -33    9   -4   33   -8  -37    2   -5   10   -5  -39   16   26  -23  -32   14   43   18  -17   19  -27   36  -20   21    6   56  -28    8    2   -7   28
  41  -43   14  -44  -21  -37  -49  -15  -15  -10   -1   23   -8   95  -35  -26  -15  -56   30  -17   13  -14   59  -15    2   21   -2    2    3  -15   26   -6    9  -20  -71   26  -37   -5  -29  -44   13   24   -6   13  -33  -16   19   14  -41  -27   33   42   16   32  -20    8   -1   24   11   36  -63   31  -27   20
  29   -7  -67   -8    1   45   15  -12    6  -44  -51  -11  -20    4  -27   41  -70   14   37    4   13    4   10   -8  -50  -29  -32   -8   85   25  -57  -16   14   67   26   -6   36   38  -36  -37  -25  -53    6   23   67   45  -17  -49  -18   66  -23   -5   23   40  -39    1   -2   39   51  -13  -29  -53   16   -7
  42   -9    1    3   22  -26  -26  -12   14   18  -44   14   -6  -13   12  -24   19   31   -5   20   17   -3  -25  -25   21   -1    0   28   -8  -36   16  -24   -2   33   16  -18    0    6  -12   -6    6    0   44    7  -30    7   27  -16    2   -1  -14    0   26    1   17  -19    9   28   14  -22  -11  -28    3   10
  -3   -4   45  -30  -12  -35  -37   -8  -30   -5   -3    4  -24   42   -1   15    3   -7   30   -9   -4   17  -14  -28  -10   59    3    7    8   14   15   -3    2  -25   28   -2  -12   23    9   13    9   -3  -22   14    4   11  -49   -3   27    2   -6    0   15  -11  -24  -27   21    5  -15    9   15  -50   53   13
  15  -55  -22  -11  -26  -20   15   10   17   -2   26  -33  -37  -20   -8   18  -24  -31    4  -12   13   25    6   33  -39   -4   44   -5   29   18   -1   31  -26  -19  -19  -14  -20  -11   -2   12   20   41   -9   12  -19   29   -7    2    0  -14   -1   14   30  -42   10  -28   32   23   26  -12  -17   52  -24  -18
  15   46   35  -40   56   -5  -20  -82   15  -87    8   -8  -13   27  -67  -57    7   -9  -12    8  -75   94   75   -6    4   -1   -6   13  -13    1   18   42   32  -11   11  -11   13  -55   20   57   22   17  -37   14   15   13   -3   -4   69   30  -64   -9    7    0  126   27   -5  -18   32  -24   14  -35  -20  -25
 -14  -21    4    3    8    2   -3   34   -7  -32  -53    1   33   44   -7   -4  -61   34   27  -25  -24   18  -13  -53  -15   10   -3  -53   -3   45   29   35  -62  -12  -25   16  -10   10   42  -22   23    9   15   26  -31   20  -35   -7    1  -29  -34   32  -33   36    2   -1   -1  -42  -17   34   31  -53   60  -14
 -43   26   11    3   38  -12  -28    5   -9   18   -6   39   -3  -21    4  -26   24  -48  -28   47  -11    9   18   -7   61   13   -4  -48  -17    6   -3   -7  -36   29  -13   28   31   -4   47   -4   17   17    6    0    6   39  -69    3   -1   41  -14  -10  -12  -12   14   -1   -6    6  -21   -8  -19    1  -56    2
  12   -1   -7   -3  -22    4   10   18  -49  -36   38  -11  -11   23  -13   -7  -13  -15   17   15  -14    4    7   50   -6   -1   -7  -14   15   25   18  -12   -1  -68   -3   12  -11  -40   -8   -5  -20  -33   33   45    4   25  -18  -23   43   22  -14  -33  -19    9   11    4   -4  -20    4   26  -12   46   -5    9
   6  -19  -16    7   -3   22   33  -10   21  -64   33  -26  -15  -40   44    6    3  -22   35   33    7  -14   12   13    4   -8   38    0    4  -16   13   26   43    4   43  -17  -18   28   16  -31  -58  -17   14   35   20   26   -6  -13   12  -12   34  -13  -17   17  -26   -4   25  -33   17   16  -31    9   48  -37
  19   72    5    2  -16   40   39   17   42  -48  -17  -53   14   24    2   -2   56   51   56  -14   16  -11   39   25   59    0  -26  -38   53  -17   -3  -21    8   17   -1  -30   12  -12    2   27  -21   22   -3  -15    1   24   -9   10  -13    4  -36    5  -16  -10   12   10   14   20   40  -26   23   23   51  -13
  32  -13   -1    7   35   29  -41   -3  -51   -9  -25   -3   30   40  -22   57   -7   11   28   -1   -2  -20   44  -31   25  -15    4  -13   27    9  -17  -16   -3   37   11    0   26    0    4   -9  -29    7   42  -31   18   10  -10    6   -9   30  -49   -6   23  -12   -3   -3  -25   27   24  -48   -8   29   24  -32
   7  -18    5   43   57   12   51  -23   48  -13    4    7   23  -38    8   19   15  -13   -9   -3   12   26    0  -13  -14   40   -3    3   17  -30   14   -7  -17  -25    5  -35   25    9   -2   -4   10  -20   -1    0   26  -31   17    2   26   41   25    2   42  -22   -4  -28  -41   15    5  -23  -18   -1   -8   -4
 -33   -7   23   38   35   13  -44  -22  -69  -16   55   45   33  -41   25   25   42  -25    3   69   -8   37  -29    4  -19   -2   -7    8   11   21   -4  -16   -5   -8   17   55   15   30   29  -16  -31   38   58  -58  -42    5   -8  -33   30   14  -39    1   36  -73   24   -6    8    9   -6   16  -30   38   -6    2
  -7  -14   41   17   27   56  -14   32   29    5  -15   -3  -14   -8    6   14  -20  -34    6  -10  -16  -59   -1   44  -39  -30   -7   56  -13   35   49  -18   -4  -46   16  -43    8   44  -25   25   19  -34   58  -24   71   -5   15  -20  -13    0  -54   23   -8   27    5  -32   46  -38  -44   25  -43  -15  -19    1
   0    0    1    0    0    0    0    0    0    0    0    0    0    0    0    0    0    1    0    0    1    0    0   -1    0    0    0    0    0    0   -1    0    1    0   -1    0    0    0    0    0    0    0    0    0    0    0    0    0   -1    0    0    1    0    0    0    0   -1    0    0    0    0    0    0    1
 -28   20   -5    9   33    1  -17  -24    6  -15  -20  -21   37   -7   -9    0   19  -16   58   -5   -1    5  -17    6   -9   18   10   18   17    1  -21   -2   -3  -27   33   58  -10   -8  -19    5  -16   22    6    2   48   30   23   21   -9    6   15   33   25   -8  -14   -7  -24   24    8   22    9   35   15    6
  -2   36  -16   28   -3    1    0   34    2  -11  -19    9    1   12  -39  -28   15  -32   10    0    7  -15  -58   59  -21    4  -25  -19   -4   -4   -6    7    0    6   -5  -26  -19   28  -38  -16  -44   13   32    6  -11    2    4  -18    3   22  -39  -46   21   20  -44   12    8  -33   13   21  -37   11    4   -7
  11   33  -17   -9  -11  -16  -34  -12   11  -12  -10   40   21  -17    2    8  -22    3  -20   34   -3  -44   10   -2    4   39   18  -20    3   10    1    6  -61   -1   23  -33   -1   47    3  -17  -42   21    3   -9  -16  -31    4  -45   15  -33   12  -22   -8    6   24    3   12   40  -22   -2   21  -16   53   -4
 -11   30    6    0    7   23   -2    7  -43  -14  -18  -37  -16   11   34   -4    9   -7   25    5   -5  -34   43  -17   28  -13  -27  -11   24   -7   -2  -37   -8   35   13   -1  -21  -27   -2   76  -18  -46   36   41   13  -10   20  -14  -12  -20  -32   18    8  -18  -38    0  -35   27   18   37  -16   27   18   -1
 -24  -21    3    6    4  -11  -18    3   10   50   11   -7   27  -36   45   49  -35    3   47  -52   44  -40  -33   29   62   -4   25  -44   11   40  -27    8  -48    3   16   10   20    0  -46    0   24   35   -1  -59    8    2    8   26   -1   27   44   12  -17   -8  -40   31   21   19  -36   19   43   19  -13   26
 -23    0  -47   -8   14   -5   -3   -7  -14   -2   39  -34    2  -10  -44  -25   18   17  -14  -21    2   42  -15   54   -4    0   14    3  -14   -4   -1    2   32   -7  -27   -7   16  -21   -7   -3  -30    2    8   23    7   24   -2   13   32   29   -9   13    8   -5   21  -13    7  -45  -21  -13    3   20  -44  -26
 -13  -19    7   19    7  -24  -10   23   18   10   -8  -23   -5   18   -8    4    1   11  -11  -11  -10   -3  -10   -8  -12  -17  -13  -29    8    6    7   23    6   17    7  -35    8   -8  -27    3   22  -33    1  -30   -6  -10    1    8  -14  -45    6   -9    3   -9   15   24  -12   11    6   -7  -16   -9   15  -24
  23    4   44    2   -6   37   50  -36   41  -31    9   -6  -26  -47  -10   -9   30  -51   15   33  -29  -23   15  -21   25  -10   47   19  -10   25  -11   32   31  -48  -28  -32    2  -23    9  -11   27   10  -48   22   -9   -2   -7   -2    9  -19  -56    0   -3   -6   55   41  -24   16  -11  -27   42    7  -14  -45
  17  -17  -69    3   -7    2  -32   18   11    0   28  -15   28   13   17  -30  -12   -5  -13   14   12  -39  -22   59    7   25   -8   -5  -21    1    5  -18   27   -7   18  -45   17   17  -21  -27   -7   15   26  -14   22    0  -33   -4   10    5   59  -28   -9  -17  -81  -52   -5   42  -14   -2   10  -21    2   54
  -3  -39   52   -5  -52   31   42   30  -16   14   16   19   13  -39   28   31   -7  -22   15   -1   24  -12  -31   12    4   23   20  -19    6    3   -5    0  -32   13  -17   32   16   -4    4    3   31  -12  -14   -6  -24   -2   28  -27  -16   17    4   11  -13    5  -77  -51  -21   65  -51  -17  -19    2    6    8
 -11  -29  -17   22  -17   -1  -27   -3  -18   -5  -36    2   -3  -59   23   17  -25  -54    3   -9   11  -83    2  -27    4    2   26  -10   11   -7   -3   -5    3  -22   -8    6   -3    3  -12  -14   13   33   13  -40  -12   -2   -9  -61   -7   -1   22  -22   -6    2  -17   10   38    6  -25    4   20   -5   44   -7
 -21    6   -3  -29   35   23   11   21   37   -5   -8    3   -2   14    3   14  -18  -33    5    0   -4  -14  -24   21   -1  -64   14   43   75   48   40   -2  -10  -12  -19  -43   36   38  -17   -9    8    6   -1  -22  -10  -34   11   14   35    8  -30  -34   15  -13  -17   -7   61  -20   11   16  -31  -15  -10  -56
  35   61   15    9  -25   32  -25  -13  -52   22   86  -10  -23   25  -19   27  -36   -3   75   -4   18  -16  -29  -50  -17   32  -28   33   29  -33   43   26   36   45   -6  -25   20   10  -26  -42  -12   37   40   -2   -9  -21   71  -20   21  -40  -27    8  -11  -33   12   11  -19  -45   -2  -25   51   -1  -50   -2
  -5   14  -33   -1   14   29   28  -14  -32  -28  -11    0   35    3  -25  -13  -17    9  -11   51  -39    7    2   46  -19   51  -35  -26   57   33  -17   13  -24   53   33   10    2  -16  -43    2  -29   16    5   36    5  -23    5   -4   51   -8  -12  -26   31   14  -22    9    9   15    9   40    0   31   30   13
  17  -22  -10   31   12  -20   20   -4  -34  -13   -3   -7   14   -8   12    8   -6  -13   33    1   -6   -6   13  -20   17   16  -15  -12   28   -2  -11  -17   -8    0  -26   19  -31   -5   27   26   21  -17  -15    0   13    4  -25   33  -34   23  -13   12  -21  -19   29   -2  -13   -7   11   16  -12   13   -5   22
 -13  -26    5   -1  -25  -10   -6   33  -33   14   38   14  -40  -18   30   10   24   16    5   -8   36   29    8   -9  -48  -29   17   17    0    5   10  -15   22    9   -8   17   -1   11   68    8  -15    4   33   -2  -14   12  -18   30    5    5   25   23   43    1   -6  -49    2  -16    5  -11  -33   11    8   23
  10  -22    9   34  -19    1   17   26  -35   19  -38   16  -28  -37   20   45    3  -44  -10    0   25  -78   -6  -36  -16  -12   21   -8    6   14  -11   15    7    1  -35    3    5  -11  -23  -19    5  -15    6  -17  -11    5   -3  -54  -30   11   13  -11    8   20  -22    9   19    1  -31    8   20   19   22   -8
  -7   -1    0  -44  -40   12  -20   18  -17   16   21  -25  -18   20  -29   12    0   -1  -12  -17  -24   -3  -42   10    1   53    6  -25   16   34  -29   14  -22  -57   -9   -7   30    2    6   47  -21    8   12    6   13   33   28    4   29   20    0   34   -7   14  -12   -8   32  -25   42   -7   29  -21   24  -29
  -3   41   20   23  -13    4    3  102    4   15   14   33   -7   36    1  -13   27    0   41  -10   17  -17   17  -27  -33  -21   43   -5    2  -18   12  -20  -11   51  -28   20   23  -13   20    3    0  -13   63    8   -2   16  -36   19    9    6   30    4   39   -4  -20  -14  -10  -50   17    0  -51   14   23   73
  13  -25   22   14   -5    4  -15    8   15    5  -22    8  -25   19    7   -7  -37   12   -9    2    6   -5    9  -18  -24    2  -16   18   16   -5    8  -32   19    9   22   -8   13    8   -4  -21   16    7    0   -1  -25  -22    3  -36    3  -39    0   -8  -15   -3   -4  -12  -24   21   -8   16    8  -38    2    0
 -10  -15   10   28    8  -26  -12   27   -4  -11   39  -27    8   -3  -30   24   20    1   13  -40  -40   -9  -28    4  -33  -33  -13   -8   -5   22   12   -1  -18   -1   60  -35   12  -25  -63   27   -9  -45   45  -20  -16  -29   40  -13    0  -38    2  -17    4   -9    3    8  -18   18   13    8  -17   13   14  -18
   2  -14    9   -4   10   -5   -1    5    1   -5   -6   11  -12  -16  -17  -31  -12   22   -9   14   11    5   -9   -4   -6   -7  -21    1   15   -5    4    5   -3   -4  -13   -1    8    8    7   -5    0   32   -6   -6    7    1  -13  -14  -13  -14   11   13   -9    7  -11   -5   -5   17   12  -25   -3  -11    6    0
   6  -23   -9    6   -8  -20   25    8    8  -11   -3  -20   22   -2  -18   22   20    1  -38  -63  -28  -10   14   27   27  -29   14    2    9   33   26   25    2   -2   29  -18    5   12  -15   21  -23    5  -45   -2   33  -16   12    7    2    5  -20   -7   32   39  -12    7   11   20    2   -1  -21    6   20   11
   6  -26   -8  -13    2  -56   12    2  -16  -13  -17  -12    0   -2   14  -21   16   -3  -27  -14    9    9   -6   -2    1  -15    7  -15   25    6  -18   22    1    9  -31  -20   -7    6   15   -6   38  -28   -2  -34   10  -13  -41  -10  -18  -14   -7   17    4   27   21  -14   -5   41    8  -51    0  -25   17  -11
  24   -4    5  -31    4   31  -21   -3    5   21    4   15  -19    2    6   14  -60   15  -16   21  -16   20   -4    4   12  -37   -7   -8   19   11    1    2   -1  -12  -11  -69   27  -28   10  -11    0   20   11  -28  -23   -8  -14    2   10    4   15   52  -19   31  -19  -15   22   -7   41  -15   11  -31   24  -21
 -13   -6   30   -7   -3  -38   -1   11  -36    9  -19  -27   21  -13  -15   28   18   41    7  -40    3   13   38   11  -39   18  -20   -7   14  -11    5   -8   17   24  -20   18  -22  -21   11   29   26   13    7   -8    6    6  -15  -47  -30   -2  -10  -36    4  -11  -32   27   -3  -55   -4   38   13   57  -16   15
 -15   16   38   16   12   10  -15   19  -25   -7   27   39   -9   11   40  -29   35  -14    1    5  -34  -46   -4  -22    9   -6   19   -2  -29  -48  -19  -14    7    2   62    8  -19  -11    0   12   14   -4  -13    1   15   -3    7  -11   -3   44  -21    9  -13   45   -8  -22    7   12  -60  -27    9  -50  -17   42
  17    3   -2    0    5  -33   -9   26    8   25   -3  -31   -1  -10    7   14   19  -20   -4  -25  -21  -21    3   -3   10    8   -9  -26  -19   20   51   16   18   21   15  -19   -1  -13   -8    6   19   27   -2   47    7  -19   -2  -19   -3  -29   -1   26  -13   -1   19   10  -27   12   20   -8  -30    8  -11  -10
   3   43   -3  -19   14   18  -19   -9   16  -20  -12   14  -10   21   -6  -56   31  -31  -29   -9  -30  -56   20  -10  -53  -40  -10   21   -2   10  -37  -18  -11  -10  -11  -31  -18   12   21  -28   -2  -25    6  -24   35  -11   36    0   38  -25  -24    6  -17  -33   15  -17  -11   -5   -6   12  -45  -61   21   19
  -5   -8   52  -26  -13    5    0    2  -13   -8   -3    6  -11    5   18   24   48   11    3   15  -14    0  -18   28    2  -54  -32   33  -21  -34  -35   32   25   -4   33  -10    4   -5   60  -32  -13   31   31   10    3    7  -18    2  -26   -7  -40    5  -22   35  -11   46   16  -20   -5    0  -25  -18  -10  -28
   2    1   -6    4    2   27    5   12   -9   18  -14   16   10  -15    7   13   17    9   34   -7    6   14   18  -30    8   16   15   -6  -12   11    9  -22    0   -6   23   -8  -15   17  -17   -9  -13   -6  -19   17   -9    8   -7   21    3  -32  -19  -13  -19   23   -6   -7  -28   -6   -9   12  -12    4   13   23
 -38    1   -8   12   14  -17    2   13    2    3   19    7   -6   -3   16    0   14   23  -15   24    7  -11   23  -19  -13  -24  -17  -12    4  -30   -3   -4    6  -32  -29   -5   17    0   -6   25   22    5  -11  -13   -7  -18  -13  -17  -40   11  -41   23   25   39  -15  -12   12   14   -9  -25  -16  -19   30   10
  27    7  -23  -42   11   15  -10   -4   13   28  -79   -1   21  -29   40   14   14   13  -21  -15   15   23    6   49   10   -4   40  -30  -12   29   -2   16   16   26   -2   18  -17  -49   37    9   20   24  -21   20   39    9  -37    1   39    4   38  -17  -38  -11    9    3   14  -14   18  -30  -18  -12   21  -25
   6   -6    3    3  -32   60   26   38   37  -22   11  -84   -7  -37    3    1   41   -1  -31  -58   53    0  -20   18  -28   -5  -33   14  -20  -37  -20  -19  -42   12   -3  -39    5   53  -41   10   -1   28   15   56    2  -27  -37  -48   44   11  -21   48    0  -23   71   13   18   15  -53   30  -18   15  -24   -4
  -1   -2  -41  -14    4   -1  -19   21    4   34  -44    0  -24   14  -32   11   35   22  -18   26  -15   31   21  -20  -33    6   19   31  -32  -18   21  -11   -5   10    1   -3    3   14  -33  -10    4  -11   30   -9  -39   22  -21  -18   16   15    2    0   35    1   17   15   35  -10   42  -32  -17   -6  -22    9
 -10  -17    6  -13    6   30  -22  -17  -63    0   40   28    4  -12   -2   40   -2   30   20   34    6   -7   63   -3    5   12   40  -34  -14    1  -39  -21    1   29  -11   27   44  -11   34    7  -55   43  -12   21   -7  -33   -6   -7   18   14  -42   17  -40  -79   -2  -16   16  -52   -3  -67    2   -2    4    3
 -11  -25    8    3  -21   -4    8   15   12  -24   -1   -4   10   10  -25  -15  -45   28  -23   20   -1   -2  -18   13  -25  -25  -43  -25    5   -7   28    8   11    6  -40   14    4  -28   -5  -10   26   11  -10    7    2   -8  -50   -1  -20   -2   19   24  -18    4   20  -34  -24   -8  -19  -11   27   -6    6  -18
  -3   -9  -19  -21   -2    5    9  -27  -54   -9  -11   -3   -4  -62   15    9  -17  -32    0   11   -7   -7    6   50   21   46    0   15   63   -3  -52   20   19  -48   23  -12   -8    6   14    5   54  -16   -7    5  -14  -26   33  -18   -7   30  -26   15  -48  -31    7   22  -19   34  -57   37  -31   54   45  -12
  35  -38   13   49   13   13   85   43   15  -12    9    6   45  -46  -22   13  -33  -21   -3   14  -30    9  -13   -8  -12  -16   26  -13    2  -34  -16  -18    4   26    8   -7   27    4   39    5    5    5   15    1    1  -10  -44    7  -27   -1    7  -46  -14   -4   37   -1    6  -31  -15   17   52   -9    2  -48
   1   -4   50  -13   35    4   -3  -37   29  -48   15  -23   26   -7  -33  -24  -73  -24   10  -15  -10   72   78   33    9   12    1   18   16   54   -5   82  -15  -26   28   -9   19  -71    0    2   69   29  -35    2   13  -11   31  -46   39   55  -23   31   54   -8   27  -12    1   40  -22  -29    4   -2  -42  -73
  36  -71  -13  -19   -3    6  -23   14    1   27   28  -43   32   41   46   27   39  -28   25   28    1   12   43   17  -44   -8   20  -16   -4    0   29   -7  -21   51  -24  -27  -36   -9  -16    7  -29   -1  -31  -19   43  -15    4  -40  -28   11  -34    3  -29  -43  -11   41   10   15    3  -43  -13  -10   10  -33
 -18  -20    3  -22  -10  -32  -40  -12   45   22   20    1  -44   42   25  -43   21    8   27  -75   29  -24  -40  -52   61   11   -1  -21  -45   -2  -40   22    2   69    7   13   12  -17   -1   10   18    4  -49  -19    2   -4   -2    2  -20   -8  -19   36   40    2   36    0   -6  -11  -24  -24   25    8  -17   21
   3   -1  -23  -18  -84   26  -27  -25   -7  -18    8  -24  -40   15  -25   20  -42   62   24  -53  -15  -43   30   35  -27  -11  -70  -37    6    2   -3  -55   -7  -10   -5  -11  -26    8  -11    5   11   -3    1    3   35  -68   -2  -29   32   29   10  -40   23  -24  -11   24   13  -21   25  -55  -33   48  -26  -34
 -11   40   17   17   -4   -9  -55   -7   -9    4  -80   31  -20  -32   48   54  -33   -1  -23   55    1    0   16  -23   -6  -15   96    4  -18   35   61   30  -63   -4    7  -21   -4   17  -21  -48  -31   24   38  -41    4  -45   -4  -46   31  -13   31  -26   52   32    2  -17   22   41   16    5   26  -62   43    3
  -7  -29   18    9  -18   25   -3    7   25    5  -18   -1   -1   -2   15  -23   -7  -28  -15    6   12  -24   19    1   -1   29  -13   -9   -8  -14  -25   11   26    4   -8   19   22   25   21   13   -3   22   -5  -40   -4    0   -6   16  -11  -12    9    6   34   22    8  -18    0    5    0  -19   15  -28   11  -28
