   4  -17  -12   -1   11    7  -11  -26    2  -18   -2   39    9  -15   12   15    4  -10   13    6    5   -7   28    2   23    8  -12   24   14    0   55   25  -16   21  -13   22   11    6   -2    6   47   20  -11   22  -19   11    3   32  -11  -15   37    7   22  -14  -51  -11   23  -19    3   16   -3  -20   31  -18   -9   -6   -6   21  -39   18   12    0  -29  -34    3  -13   26   -7    0   -9   20   -1    3  -27  -27   -6  -20   -8   -2   -9    8   -9   36   10  -24  -14   14    1    4    7  -22  -22   27    8  -26   -3  -12  -19    5   -1  -11    8   15  -39  -13   14   11    1   10   52    5  -34   -1  -16    4   -4    1   16  -22  -17   13  -45   15    3   12    5   32  -29   20   19   23    4  -22   15  -12   45  -15    6  -21   -2   -6  -38   -7   -9   12   -2    5  -16   19   -6   21   -1   24    2  -32   11  -19   25   -9   11   20   -8    7    6   18   -1    0   -7  -19   27  -28   -5   -6    8   -2  -22   11  -17  -31   15   12   -1   38  -15   -1   29    4   35   -9   -3   14   21  -13  -13  -22   27   22  -17  -14   15   11  -29   28   12  -18    7  -33  -22   20    1  -12   16  -32    2    3  -14  -27  -14   11    9   -3    2   16  -31   14    7    3  -48  -32   13   -8   16  -22  -11  -39  -12    8   19   13   14    5   15  -32   39    8   -5  -16   -1  -17   21    8  -28   14   -5   -8    1   15  -38   14  -20   -3   -7  -31  -15  -15   40    4   14   32   -4    0    4   33    3   26   -3    6  -11   14    0   -9  -39  -22  -11   25  -48   12    7  -52    7   15   18   12    0   27    6  -24    7  -23   20   -2  -18   36    6  -33   14   17    8   10    3   34   -4   17  -21    0   11  -43   37    1    6  -17    2   -5   19   -2   24    6    3   24   29  -34   12   -7   13  -27   -4    1  -14  -39  -20  -18   -4  -27  -33   10   22   21   -3   -7    6  -31    9   27   -6    0   13  -21    7   28    4  -36  -12   13  -39  -13   14   13   -4   -8   -9   -3  -17  -28   24
  -3   15   15  -21  -26    7    1    1    5    4   -9   -4    1    6   15   15   12    2   -6   20  -27  -11  -10    3  -23  -17  -15    5    8   -7    5   16    8   -2    2   20    5  -13   -7    1  -12    3  -20   -3  -17   -5   15   19    7   14  -14   -2  -15   -6   16    1   -7    1   14  -35    4   30    4   -8  -13    1    9  -22    7    7  -11   -8    0  -13    1   -4   -7   11   28   20    1   -7  -11  -28    7   -9    8    6   -4    3    5   17  -14   15  -22   -8  -16  -14   -6  -10    2  -15   13   24   18  -27   14    4   23   -7   21   -2    4   16    5   -4   -7   -1   12   11    7  -10   13  -55    3  -15   -8  -26    2   -2   -4  -16    6  -11   -8  -21    9   14    0   -7  -30   13    7   20   11  -10   24   18   -3   -1   21   11    7  -15    0   -7   -1  -14    2    9  -10    5  -21   20   21  -17    3   -9    5  -14   -5   -3   38  -23   15   14   -2   38    3    8   -6   15    0   15   13  -10    9  -14  -40   23    6   -1   22  -10  -19  -26  -19  -19   31   -6   16   -7   -8   20  -16    5  -12   10   15   -3   -2   22   -4   10  -12    4   30   10    1   12    1   32   -1    9  -36    9   18    6    6  -24  -14   29  -14    0   10  -21    1   -5    2  -17    4   -5   -8   -6  -11    6    0   22   -6   13   -4   -1   -7  -11   19    5    6  -12    1   22   -1   15  -29  -19    4   10   -8   16  -11    3   -6   -4   12   28   -6   -3    7    8    3   32  -11   -5   -2  -16    9   -2   -8   -9   -8  -39   -9  -29   12   37   -1  -19   12   21   -4    7   10   18  -13   19   -5   14  -10   -8  -15  -32   17    9   17    1  -16  -10   -6   23   -6    2   25  -14   11   20    6    1  -15    6    8   26   37   -9   13   -4   -4   -8    6   26   22   -4   12   -6  -15  -17    9   11   11   -7   17   14   -4   -6    9   -4   14  -14   14   -4   12   17   13   29   -6   -4  -13    3   -5  -16    6  -36   54   37   18    8   -8  -17    4    4    9  -33   17   -4   31    4
  -1  -20    1    4   -2    8    9    5  -19   -2   -6   -3    5   -4    5   -2    3  -25  -18   -5   -2  -12    9   44   -5    2  -10  -19   17   42  -24    2   19  -25   -8    6   -8  -17   12  -37  -23  -24    3   -5   11   18  -38    8    2  -21   -3   15  -15    8  -21    3    8   -7   -4   14   30   -2   39   -6   29    8  -18    8   16  -11   12   17   27  -23   17   17   23   -9   25   16   24  -18   24   -9  -18  -31   -2   37   33  -29   -6   17   -2  -51    0    4   19   28  -11   -4   18    4  -13   15   -3   -7  -24    4   -3   -8   26  -29   17  -38   15  -22  -14   18    5  -24  -28   -9    3   -1  -18   18    6    6   -2  -24   36   10    2   10  -11   15  -31   -4   10    9   35  -21  -18  -25   24   -9    4  -22  -14    1   24    0   13    4  -28   11   -5    9  -21  -14    3    3   20   -3    1   18  -19    6   -7   -2  -21  -24   -4   17  -22   11   -2   -3  -17  -25  -29   -9   -1   25    9  -18   37   13   26   21  -28  -11    0  -20    6    3   20   -6   15  -26    6   10   39   21    1   29  -21   11  -26   15    6  -20   15   -2  -35  -20  -11   15   -3    0   38   -6   -3   18   22   -4   14   29    4   12    5   -7  -12    9   -2   -8   10  -27    3    0   -4  -18  -10    2   17  -11   25   -8   14  -30   -8    5  -16   34  -12  -19  -15   31   -6   12   -7   15    8   11   17    2   13  -12    2   18  -19    0  -34   12  -32   -7   -9   -2   13    1    1  -21   14   29   26  -25   15    5  -22    1  -31    6    4    5  -24    0   38    0  -17   -5  -22   -9  -32   -9   -2   14   17    2  -19   20   15   18   28  -29   -4   11  -25    5  -11   19   -6   18   -2   -7   15   26   16   19   -8  -14    4    4  -15    5  -16    7   29  -16    7   11   19   20   -5   10   12  -27    1   -6    8    9    2   33   16   11  -39   14   -9    7  -14    7   -3    8   14  -10   -7   15  -22  -14    6   17   -7 -127  -10   -4   19   14   14   -3  -11  -33   -7   29    9    0
  -2   15  -14   34   -4   -4   18   -7   27  -22   -3   -3   44   33   17   42   42   17   -3    2   12   -8    9    7   17   -2   13  -13   10   -6    2   34   -6  -23   23    0    9  -31   13   -4  -20   36   15   37    2   11   53   35    5    8   18  -18   23   -9   -3   21  -33  -14    5   14   20   34   37  -34    3   -2   22   23    2  -31    1   -6   -8  -13   -4   19  -19   14   20   -3   24  -14  -11   23    6  -16   30  -21   -4   13    4   33   35  -45   18   18   18  -33   13  -25  -39  -12   -4  -21    7   23  -20    4  -13   19    0   29  -22   22   12  -14   10   16   18  -25   23   -2   15   24  -25  -17   10  -22  -38   12    3    3   -4  -11  -37   -1   19   15   -6   -6   37   11    3   18   14  -12    0   14  -34    0   23   15   -5    4  -33  -10   -1  -14   -7   18   26   10  -13   19    5   30  -21  -26    8  -36    8   -5    1   39   16    7    5   23   -5   32   -9    9   11   -2   -1   -3   35   21    3  -10   -9    5   19    4  -26   13  -26   -5    0   14  -12   -8   36    0   -3  -27  -21   -9   14  -13    4    4   10    4    6  -11  -12    4    4    4   34  -26  -19  -10   -5   -7    2   -2    2   32   -4    7   -4   13   -3   11   29   22  -13  -10    6    8    0   21    8   -5  -43  -17  -12    2  -13   24    8  -15   15   58    7  -39  -28   -9    2   -5  -13   -8   19   10    5   29  -14    6  -15    2  -46   18  -12  -13  -16   11  -19  -32   18   -4   -3   15  -11    0  -10  -19    7   13  -29   31  -15  -18  -25   -6    4   -5   18   29  -16   18   27   13   21  -11   26   -1  -14   17  -13  -12    3    7  -13    2  -13   -6   19    4   37   17   10   -4  -33   13   22   -6  -13   15   -6   -3    7    9   32    4    2    4    1    8  -31    1    5   24  -13    5  -17   39   45  -14   13    4    4   24   19   11   25  -11   14  -15   -5  -11    6    3   35   43    9   14    0   17    0    5    2   24   30   15   18   21    2   -9  -20    4   -1   11
  -2   -8   -6   -9    9    5   15   15  -34   10  -34   -6    8    7    5  -14   -7  -37    5   -3  -11  -17   -4    7   -1   37  -22  -13    0   -8   -3   12    4    1   -9  -18   -8  -15  -23  -11   -7   14  -12   15   -4   27   21   -1    8  -30  -46   18  -19  -23   24    4  -18   -6   -9   12  -27  -13    8   23   -3    2    7  -12   -7    5   -9   21    6    4   -9   16    4  -43  -19  -10  -12   28   -4   -3   -5   13  -29   26    1    5    1  -11   -6  -16    5  -16   -5  -38  -18  -18    8    4   -6  -12   -1   10  -28  -21   10   -6   -1    0  -17   10  -22    2   -3    1  -40  -16    0   11    0   16    0  -10  -11  -15   12    5  -12    2   18   20   16  -14   -8  -15    0   -9    6    4    2   11   -1   10  -13  -30   15    2  -17    3   -2   -5   10    8   -6   13   23   17  -18    7   -9   -5  -18   -5   14   -3   25   11   13  -10    1    8  -21   12  -10   14  -15   -2    3   -7    3    4    2   17    8   -6   -2  -13    7   -6   -5   -6   14   -1   -1  -10   -7   -9   12   21    2   29    5  -12   -9  -34   19   12  -47  -13  -10  -14   -6  -27    2   -4    7   17    4    6   11    8    4  -44  -24   11  -12   21   -5   32   -3  -24  -22    1   -5  -11   -1    2  -15    7   -1  -37  -18  -14   -1  -30   -1   -4  -22   16   11   -3  -30  -20   -1   -5    7    6    3   -3  -18  -13   -9  -26  -17    5   28   -6   10   -2  -12  -23   -1   33    4  -10  -16    3   25    9   -5  -34   -3  -12   18    3   -7    9   34   19   31    0   14   -3  -27    6   -2   -9    9  -13   23  -48  -14    4    3  -14    9   12  -23   25   -3   18   35   15    5   -3  -20   10   -3  -21    9  -19    7    8   -3    2   10   -5    7   -4   12   18  -30   -4   -6    6  -14  -20    5  -27    8  -22    1  -12   17   -8  -29   13   18  -17   -3   -6    6  -20  -10  -18  -17    0  -46   17  -27  -32  -30  -20  -16   -5    8    5   25  -53  -28   -1    5  -17   20   14    5   -6   -1   -8   -7    5
  -5   19   -4   35  -41   -3   20  -19  -14   -2   -9   -6  -42   11    8    8    4   20  -25  -16   -5   28   -3   -4   -7    0    1   -5    2    8    4   -7    2   -9  -18  -21   -8  -11   13  -22    9    7    2   -5    5    2   16    7    4  -16  -24   18   12   10   21    5  -10   29   -3   -8   23   42    0   17  -15   15   14   25  -23  -19  -11    0  -13  -12    8  -15    0   -1    2   26   38   23    7  -20   -1   -3   -6   46    1    0   26   35  -15    6  -21    2   15    9   27    1   -2  -41  -26    6    3    6   15   -6   17   34   12   -8  -13   -1   -3   15   20   -5   -9   -1    6  -22   -6  -19  -20   20  -12   -3  -11   -4   26   -2    4  -14   -3    3    0    1    2  -36    2  -11   -4   -3   -1    7  -18  -19    8   -2  -26  -33   -7   28   -8  -14    4   -5   -5    1    3   11   -6    1    8    2   -9  -13   -7   19  -11   -1   -8   -9   -6  -25  -11  -24   14  -11    2    1    6   40    6   -5    9   14    1    4   -2   -2    1    5   16    0   -2    7  -11    1   -7   19   16    9  -13    2   -9  -11   -7  -16  -21    0  -13    1   22   -2   31  -43    0   11   22  -44  -13   10   -9  -16    0   12   -8  -11    4  -24   14   11    5   12  -17  -14   17  -23   11  -19    0    3    5  -10    5  -17   18   14   -1  -16  -43    5   14  -10   -8   24   -2    9    0   18   -8    0   -5   27  -20   56  -17   16  -18   -5   17  -13   14  -10    9   20    1  -17    0   -6    7    3    5   17   -6   13   10  -18   13   -3    9   -2    2  -15   14   30   10  -14    8   -5    3  -21    6  -18    4    4  -26   -5    7   18    0  -17   25   -1  -14    6  -34  -15   -6   -4    8  -19   15  -13  -15   40  -11  -21   14   -3   15    6   -4  -22   -9  -13    6  -31   27   17    8   -5   32   22    0  -29   55    1   10  -12   44    8    9   -2   14    4   -3   11    2  -17    4   -2  -13   -7  -17   24   -1  -22    2  -57   -5    3   -9   36   33   -6   -5   11   44    8    0  -13
  -8   -3    3   17   33    4   13   13  -16   -4  -20    0  -15   20  -28   18   21    9  -15  -30   14  -13   19  -34  -27   18  -17  -39   -3   15  -17  -22   -9    3  -27   35  -28    0   -2   28    4   -4    6  -14   25    6    6   -3    8   -5   25   13   25   19   50  -13   -7   10  -19  -17   37  -31    8   20   14   23    2   26  -16  -12  -23   19   44  -13   16    8   35  -25    0   12  -25   31   52  -42  -30   -3  -11    4  -22  -11    0  -15   -3    1   -8   -4   17  -14  -10   -8   18    7   40  -39    5  -13    5    3   16   -7    0  -12   12   -1   17    1   -2  -25    4  -21  -14    9   28   -5   13  -10   13   23  -28  -17   31  -11    8   22   47   17    4   10  -13   12  -14    7   18  -24   16   14   -2   -4    2    0  -27    4   -9   22  -25    3    4   33    2  -12   30  -22  -28   -9    0    4  -17   12   23    4  -37   48   19   17   -9   18   28  -39   17    2   25    6   -2   -2   24   16    5   36   -1    3    1  -17    9   10   24  -52   -2  -14  -25   13    2   29  -15   11   -7    0   25    3    0   -3   -4   11   11   12   21   21   14   39    7  -11  -12  -39    7  -26   18    6   19  -15   -6   13    1   24  -17   -7   10   32   15   12   54   10   -4    4  -16    5   -2   35   23   11   11  -42   10    4  -14  -14    6   20   12   26   -4   38  -19   -2   36   22   -9  -17   43   -9    6  -39    1    2    9  -12   21   23  -11    8  -20   51    9    5  -10   14    1   18   21    7    7   -3   24  -23    4  -14   -4  -17   -9   -5   28  -13    9  -22   22    0  -17   10    9   20   -8  -31   16   -9   15  -26  -25  -13  -28  -19    1  -16  -25    3   -5    2   27   -6   16   34    7   16   22   26   16  -28   -5   44  -12   -1  -15  -27  -32    4   -6  -33   10    9  -11    1  -39   -4  -12    3   -4  -22   -5   -8  -12  -29   -8  -33   -1  -18    8    3  -25  -20   11    9   38   -2    9   14    3  -21  -25   -6   -4  -29   11   -6  -23   -7   17    2
  -5  -32   -9   -6   14   16  -39   15   -8   -9    6   11   -8    0  -20   22  -11   -2    2    2   13   33  -11    0   -2    5    4   10   22  -23   32   13   14   19   19    7   25    5  -13  -43   30   -8  -31    0   21    0  -70    6  -33   -7  -13    2    3   16   -6  -19    2   12  -23   -4    2   -7   22  -17  -30   18  -10   -3   -6   17    7  -33   16   15  -29    3  -18  -12  -36  -14   -2  -26   10   -5    4  -23    4   36   12   14   -4   -8   20  -41  -37   19   13   27   17    7   -4    5   -4   20  -13   11   18   24   28   14  -11  -10  -21  -13  -25    6    4   54  -25    4   19    8   20    2    3    6  -16   -7   -6  -26   10  -24  -19   -6  -13   25  -23  -16   10    1    8    1  -20   18   19    8  -11  -28    1    0  -14    8   13   27  -21  -27   -3   11   29  -21    8   17   13    3   33  -24  -35  -15   26   -5  -18   18   24   -5   -9   -2  -14   -7  -30   21  -11   19   -1  -37   18  -17   -3    7    6    1   28   11   31    0   -5   12  -23    4   39    2   14  -17   16   -8   -5  -23   -7   12  -20   14   -3    9   21  -10   12   11  -13    4   -2  -15   -1   43   25    2    5  -17  -23   -3   17   13    0   -6   -3  -11   -5   20    3   -2   -3   -8   -3   -3    8  -23   30    0   10   38    0    1    5   15  -14   34  -34  -22  -16   -8    8   34    9  -22  -10  -11   20  -18  -17  -34    3   16    0   -6  -10  -32  -24    7   15  -10   47  -16  -12    7  -17   31   29   54   18   14   -4    6   18  -22   20   -3   27   20    4   19  -12    7   -8  -23   26   -6   21   -7  -12    1   30  -31   -8   23    2  -20  -22  -22  -15    8    9   -2   24   28  -32   -1   -8  -35    5   17   20   30   -1   -1   -5  -15    9  -17  -14   49  -12   -6    3  -25   17  -12    3  -24  -22   43  -33   10  -17  -11   23    2  -42   -5    9  -16    4   15  -36   12  -21  -10    3  -28   -7  -14   31  -24   26   29   -6   29    4   -5  -10   -7  -41   20   18  -20    4   -5
  -2   29   17   21  -10  -14  -21  -25   17  -16  -10   -1    3   44  -21    0  -25  -26  -19  -24   -1    3    8  -32  -35    7   37  -13   -9   11   26  -12  -15  -15  -18    0  -32   13    9   37    5   39   24   -7   12    4   -2   25   -1  -10   -6   -3   23   60  -25    5  -45   -2   20   -5   10   -9  -16   -3    0    0   33  -14   -5   18  -22   10   40   -9   -4   20  -32   33   36    3  -14  -28  -11   23   12   -1    6   54   26  -27   16  -17   -3  -24    5   37  -14   10  -10   35    6   26    8  -26   12    8  -16    8    4   16    0   20   19   22   -3  -17   25  -22   22    7   -5   56  -18   21  -19   41   -5   19  -19    7    6   26   21   18   10   51  -16   -1  -20   10  -27  -20   -7  -26    7  -18   -1  -29   -5    3    5  -10  -22  -19   -5   -1   -2   31  -19   16   10  -36   47   21    4   29    6    0  -19   34   11   -4    2   29  -12  -20   34   16  -27  -37    3  -16    3   17  -15   17    4   67   28   -7   -4   16   12   14  -38    3  -15  -26   -4  -13  -23    1   -7   -5    4   -5   37   -7   22  -14    1    7   17   12   11   -8    7   14  -13   14   44    3   14   -5  -16    5   -8   52  -12    1   62    3  -22   -1  -35   58  -24   44   -5   32  -13  -15   -7   26   35    2    4  -16   -4   -3   34  -22    7   23  -19  -36   11  -23    6    6   51   -9  -28   31  -18  -24    6  -41   -5  -23   12   -4  -10   33   26    7  -24    5  -21    9   29   -4   -7   41   -4  -49   22   -2  -10    4  -11    4   -9   17  -31    5  -14  -27   11   11   43  -30  -31    0   -3    7    5   37  -41  -61   -3   -1    7   -5   -1   -8  -17    3   18    3    3   -1   17   13  -12    5   28   19    8    2   14    5   15    5   -7  -20   -5    4    9  -21   18   16   14  -41   20   14    4   -2    3    5   12   30  -16   33    8  -22  -16  -22   -9  -11  -12  -24   -9  -11  -27   13   -1   18   18   12    3  -58  -21  -14   21  -28   38   17    4  -21  -17   36    1  -20
  -7   34  -11   -6   -6   35   29    3    0   -9   -9   16   -2  -38    2  -10    0   -1  -10  -14   14    5  -12   39   -9  -18  -31  -28   10  -23   -5   19   15   31   -7   21   -9  -18  -42   29  -10   -2  -10    4   -4   -7   -4    9    6  -14  -13   15  -37   -5   -1   -6    3  -12    0   23  -15  -30   18  -14   -6   -5   -8   -6  -26   25    4   -1   -4   -5  -11    4    8  -11    1   -3  -38    4  -19  -27  -27   20    9  -16   11   -9   -8  -10  -22    2   40    3   27   -5  -11  -25   17   13  -32  -29   -8  -29    7    2   -4   33  -25  -13   20  -17    8   26    5   18   33  -25  -33   16    8  -33   33  -45   -4   -7  -33   -9   -8    5  -13   10    2   49    3   -7   11  -31   24    0  -14  -10  -30  -14    9    7   44   -2   21   -9    7    6   22  -17    7   -2    0  -21   -5    2    8  -22   18  -18  -10  -20  -23  -18   -3  -25   21  -38   15   -1   21   -3    9   12  -41   21   14   18   23  -10   30   -9  -19  -14  -14  -15  -18  -24  -25    2  -39   -9    5   -5    0    8  -26    8   12   -6   19   -9    4   11  -12  -15  -13  -32   14  -13  -17   11    3    4  -33   12    4    5  -51   -1   17   32   -3  -24   -1   -2    6   -8   -2  -12  -20    8   11   26   23  -11    7  -12   -9  -13    2  -27  -34    3    3   -1   11  -18   12   15   20   18   15   29  -39  -20  -28   14  -18   21   -6  -14   21  -22   -1    3  -21  -26   -6    1   32  -18   17   22   -9   10   -9   -1   19   13    2  -15  -10  -12   -8    6   18   17   -9   17   10   38    0   11    2   -5   17   24   -9   -9   -1   18   -3  -11    3   38   -6   25  -17    8    2  -21   12    1   -1    1   22   -3  -21   10   -5  -20  -66   39  -19   -6   31    0   14   -3    3  -14    3    9  -26   26  -12  -12  -24  -12    5  -31   -7  -13  -26  -13   24  -10  -37  -49   -5  -21  -10   -8    1  -43   -8  -26  -30  -16   14    2   31   -5   31  -80   17    8   -8  -14    2   16  -34   21   27   -1    9   -6
   0    6   23   19   27    9   13   15    3    9    5   -4    9    1    8    7   18    9  -12   -5  -16   11   -3   16   36   16   -7    0   22    3    2   -8   12   11   -1   31    2    0  -16  -27  -21  -16    3   17  -16  -15   -1   12    2  -31   41  -10    8    3   24   -6   15    6  -11    4   27    0  -12   -3   -6   -2  -19    6   -4   16  -22  -11  -29   22  -20    2    8  -21   -8   17   22   19    8  -11   13  -15    9   25   18   29  -12   -8   -3    2    1   43  -22    3   13  -11    0   28  -32   17    0   -7   17   10   -4    3   -4  -13    5    3   14  -12  -28   -2    5    6   14  -27  -16   36    2  -27   20   -2   30  -25   13    6    3  -27    4  -23   -1  -17   -5    4   13   10   -4   -9  -12  -10  -22   11  -17    1  -36   23   -9    0  -13   -9    2    5    4   12  -22  -19    1  -18   15   -9   29   14   -5  -40    2   28   23   -2   15   12   -5    5  -15    3   31   12    3  -12    2   -5   15   -6    1   -7   -7  -22   22   -8    8   15   -6    7   11    0   -5   22   33    5   21   -4  -10   31    1  -17    2   13   -3   10   -9   -3    3   25    9  -28    1   13   -3   11   -6  -17   -5  -40  -10   20   -4   -2    1    6    9  -13  -16   14   28  -39   -6   -5  -14   -6  -14   13    7   11   -9   -4  -14   -3   12   -7  -27   20  -19    3  -11  -33   14  -14   34    5  -11    7   25  -17    5    4   12    1   -5   -3    3   18  -23   14    1    1   -6    2   -3  -12  -19    7   -7   -1   -5    1   -5   43  -30   39  -10   26  -13   23   -1   10   -2   -4   -2   19  -11   14  -14    4    8   33  -15  -15  -31  -11  -31   -4   14    3  -28  -17    6  -13   16   -6  -18  -11  -22  -26   -6   -9  -27  -49  -14    5  -11   -3    0  -14    1  -12   13    7    2   29  -15   -3    8    9   -4    6  -16  -22  -32    2    2   -8   -8   13   -7   13    2   55   23   32   23   -6   -7   -7  -14   37  -18   47   60    9    5  -22    2    6  -17    1    0    0  -35    6
  -1  -11   16  -14   22  -19    6   28   -6   17    9   12   -3    5    1  -46   32  -10    0   16  -46  -10   -3   13  -16   -2    1    8    2   -2   16  -10   13   43    2  -20   12  -42  -11  -22   13  -17    8   13    6  -19   -1   21  -16    9    7  -10    4  -51    3   -1   -4   -4   -2  -27  -20   40    7    7   26   28  -13   27  -33   23  -13    9   31   -4   35  -27    2   -3    8   -4   19   13    6  -39   -2  -15  -28  -22    4   -3   -1    5   -6   19   -8    0   50    6    2   16   17   18  -11   31   -3   28   17   -4   10    0   39  -32   21  -20  -24   16   -1   35   -3   -2   -1    2  -38   -8   10   -4   16   11    3   -3   15   -1   -4   -8    3   -9  -23   23    4    1  -11  -16   21   -1   27    7  -21    1   -8    1   28   -1   18    8  -10  -44   -7  -11  -24   11   -2   -7  -19   -8   14   15   15   21    6  -19    5   -4  -19   -3    7   -8    3   -9  -14    7    1   33    0  -15    2   -9  -16  -19  -14   13   11  -15   36   22  -12    4   16    3   36    2   -6   20    4  -24   10    6   24   19   -4   21   17   21    8    1    0  -24   27   -2   30   -9   50   34   -1  -14   17  -11   19   34   19   -1   15   29   -4   17  -20  -17   28    8  -28    2   25    2    1   34   -2    4    9   24   19  -33    7   20  -30   -2   14  -45   29   -1   13   -2    1   13    5   14   10   -2   10   -7   -5   12   -1    4   11    8    5   13  -13   14   19   23  -10   11  -19    6   -6  -29   21  -17   -6    7    8   14   -6   -5    3  -23    8    5   17   16    0   -4  -12   -2  -10    2  -12   18   22  -13   29    1  -11  -23    0   -3    6  -22   26    3   -9   21    9  -19   22   -2  -10    6   -3    2   16   21    8  -11   21   18   18   21    4   -3   13  -17   17  -15   24   11   19   -9   17   -8   14  -27  -11   29   11   24   39   14   -7   36   19  -37   -2   -1   -3   -4   -4   10  -18   -2  -30   38  -27    1   -1   41   -9   18   11  -32   -8    9   16   -4
   5   26    0   11    1  -25    8   -4   -5   -6   -3    5   17   20    1    0   -2  -15   -2   -3  -11   -9   -5   15   10  -18   -1   31   -5    7  -15    9  -13  -19    5   12   -7   22  -10    8  -22   28    4  -29    6    2   -1  -15   -7   19   -6   -6    5  -10   16   11    7   -8    8  -17    2    6   -9   19   25  -15    4   -1    7    6   -6    8   -5   -8    4   -2   -1    3    2   23   10    9   10    4   10  -15   -8   -9   13   -7   -8   33   20   24  -14   32    8  -18    7    3  -14   12   14  -11    1   28  -10    3    9    6   19   36   -3   -3   39    7  -28   16    5    2  -12   20  -36  -12   -4    0    1   16   -9   10    5    5   18    4   -5   -6   24   48    2   24  -11  -15   11    9    2   10   15   14  -19   -2   34   21   -6  -13   18   26    4  -16    6    5   14   -9    3    5   15    7   -6   27   21  -18   -5    5   -8    9   -6   -6  -20   18   18   10   16   20    3   15  -11    2   -5    6   17   -5   -2   -5   23   -2  -18   -6   23    5    9   -5   15  -10   -1  -20   -5   22    7    7   10    5   22   -1   12   13  -12   26   13    0   12   31   21    8  -16  -12    3   12  -10  -30    6    4   25   22  -14   20   29  -22    2    1  -10    9   -9    8    6    6    0   17  -22    3   -4  -23   -9    1   -7   30   -5  -13  -14   23   -1    1   -6    8  -10    1   -1   -4   18    5   14   10   26   -2   27   10   25   -6    9   19   15  -15    9    5   -7  -15   13  -14   12    1  -15   -8  -23   -2   -1    8   20    1    5   -7   29   12   12  -11   33    9    5   11   -5   -4   10    7  -11    8   18   30   -4    9    5   -5   -3   10  -15   -8    1   -9   -1   33   -4  -18   -3  -12    6    9    0  -15   21   23    5   12   -2   35    4    1   29   -8  -12    2    3    2    8   66    5    2  -11   20  -14   -4   12   -3   20   16    9   20   -3   10   -2   -4   27   -7    1   37  -14  -10  -14   -9    2   28   -4  -12    2    8    7  -10   -1    9
  -3   14   -1   29   18    6   24   13   31   -4   -5  -15  -12  -13  -23    4   20   -8    3  -14  -19    2    5    1    7   -1   20    9   18   16    7    8   -1    7   -7  -12   -2   -3   23   -3  -21   16    6   21   11   25    2   47  -12   12   19    0   -3  -28   -3    5   -7    0    6   -2    4   13   -4   11  -16   -3    1   -1   -2   -4   -5   10   -3   -5   10   21   18    2   -1  -12   25   -5  -27   -9   15  -16    9  -10    0  -14  -12  -13   11   27   16    7  -12   -8  -13    2    0    1   21  -11  -10    1  -23    3   18   -2   -1   13  -11  -26    6  -11   13   -3    4    4   15    3  -21  -11   -3   16   18   -7   -7    0    0   -2  -28   -1   24   15  -10   -8    8  -20   19  -20   11  -11  -15   -3   -8  -17  -22    2   13   15    2    2   -1    5  -11  -16   10   23    8   -4   14   -1   -5   14   -6   -5  -36   10   -6   -1    1    8   -4   -3   18   -7   10    8   -8   -6    7   31  -11  -22  -27  -35   -1  -16   -7   21    9    8   -7    4    1   20   -9  -11  -18   22   -8   22  -16   -7    8   -1  -37   -5   -4  -12   25  -28   -4   -1    3   -2   -9   -6    1   -4  -17  -14  -25   -6   16  -11    3  -19   10    2  -14   22   -2   53  -11   -3    4  -10    0   -2    6   -6   33   -1   -9  -36   -2    4   22    5  -16    6  -23  -15    1   16   -6   -6   13   14  -20   22    9    6   -3   19   -1    7    3    0   24  -13   -9    8   -2   20   15   -5   20   -3    5   13   -6   12   16    1  -13   23   -2   -1    3  -23  -11  -22  -13   30    1  -19   38   18   17  -12  -10  -17   17    5   -6   27    3   16  -15   16   10   -5    6  -16    6   23   16    6   -8  -13   13   27   11   12   11    7   24   12   25   -5   -4   -9  -12  -19  -14   -5    0    5  -14   20   -2   -2    8   -8    2   22   -5   22   16  -12   13  -21  -25   13    0   24   20    4    5   16    1   14   -6   16   17    5   -6    9   -3  -21    5    8  -20  -12   21  -15   -1   28   14    7
   0   12   12  -22  -24   15   24  -16   33   -1   19    0   11  -25   38   -4   19   18    2    4   30   -6   -1   21   26   24   17  -12   13  -26  -24   24   -5   -6   13   -1    2   -6   11  -37   11   -5   37   -5    3   -7  -16    5   -2   -7    5   -3  -12   15   10   19   16    5  -14   -6   23  -10  -18  -16   12    6   -6    7    3  -19    3    5  -10   13   -5   19   -3   31   13   16   -3  -33   16    5    2    2    3   -9  -24  -17  -10   -9  -12   15   -3   -8   16    3    4   15   14   -7   -6   -4  -10  -23   -5   10   -2   -2   -5    8   25  -11   -5   -7    2    9   27   13    6  -17    2   -3   -4    2   -2   -7  -26   15   -1    0   14  -21   -3    5   -8   18   -8   -7  -22  -32   21    0   14  -13    7   19   -9    1   18    7   -6   -2   18   10    7    8   -9  -29    3   -2    9   25   -1   -1    5  -16  -11  -24   -1   12   10    6   15  -14    0  -13  -11  -16    5   30   -1  -38   15   -3   -7   18   22  -31    7  -10   22    4   14    9    0   -5    7    9   23   14  -19    3   34   -6   25   13   18  -21    9   -2    3   12   11    0   23    5    2   -6   18    4   21  -15  -15  -11    8    5   24  -24    6   11    5   14   -2  -17    1   33  -13   17   -3    3   14   25   20   -1   15   13    1   16  -17  -11    8   16    3    7   27   11    5  -12    4    5    1   -5  -15   -2   -3  -30   -3  -15  -15    0   22   27    0    9   21   10   10   -5    4  -19   28  -20   -3    7   -5   -4    6   -9  -28    5  -13   -6  -14   19    5    1    4    3  -17   -6  -21    1    6   19   -4    9   27   21   20  -18   13  -10   -2  -24   -9  -16  -15  -16    5  -21  -17    5   -4  -10   24  -17    2    9    6   24   23    1    4  -27   13   -4   14    1    3    6   -2   18  -12   11   -8   -8   -6    0    0    8    8    7   -8  -24   17   23   17   14   21   13   -2  -10  -12   21   -7   16    7   15   -4   -1   -5    3   19    4   13   15  -16    6   13    2   13   18
   1   17   17   -9   17   -6   23   26  -33   -9   -9    5  -14    8  -13    3   14   -1  -17   26   13   16    1   10   13   -4  -17   12   -9    6   22  -27   16    6   12   -1  -15  -20   -7   12  -22  -23  -15    8   -5  -30   22   -9   -9   18   16   -6   13   -8   27  -11   13  -10    8    1  -10   17   -7   40   -3    5   19   19   -5   -7   -1   -7   -6   40   17   -6   23  -10  -10  -31    4    1   -1   -5   13   -1  -18    7   25   -7    7   15   -9   30  -11   16   31   -7   -1    7   30    4    4    2   11    6    3  -26    9   12  -13   -8    6    7    7  -23    5    3   19    5  -10   10   42   -6  -11   -5    5    5    9   -9   20  -19   -6   14   -1   -9    8    9    8   -2  -21  -23  -22    7    2   37   21   16   -1    0    9   -1   16    2    6    1   -5    2  -13   -3  -19   -9   -2    9   13   -6  -18   33  -16  -12  -10   17   25    2   -1   20  -11    5   -1    0   11   22   -2    9    7   -6  -45   -2   12   29   -9  -19   19   15   -7   -3   10  -19   -8   -6   -8   -2  -32  -28   16    0   25   18   -5    0    4   25   16    4  -23   34   29   -4   11  -19    6    3   -1  -20  -29   -2    5   -9    8    6    2    0  -10   30    6  -17  -27  -15   -3   17   -5   -1   17   -4   -7    2   12   17   11  -32    6    4  -10   10   10   -7    2   21   14   19   16  -22  -13  -12   21  -40   15    5    4   14   30   -2   16    7   37   23   12   -6  -24   22    2   -6    0   19  -47  -25   29   19   13    9   -4  -33    8    6   31  -10  -22  -10    6    8  -28   12    8   -6   11  -18    7  -24  -41   22  -10   -2   -9  -23    2  -32   10  -15  -20   -3   -3  -14    7   34   -9   -8   -1   15   11   -6    3    4   33   11   33    5   19   51    8    5   38  -10    1    9    5   31  -22    9    3  -12   -5  -11  -19  -22    7  -23   10    6    3  -13   10  -18   18   12  -10  -21    7  -10    9    3   12   -4  -21  -38   -8    7   -7  -19   16    3   18   28  -23   34
   5   13    6  -27   12    8   15   22  -23   19  -28  -16   22   12    2    7   11    4    1    3   11   13  -17  -17   20   -1    9    8  -11  -10    6  -12   12   11    1   13  -15    1    0  -13  -10  -20    5   30  -22   -1   -4   29   29  -12    7  -13  -27  -20    4    5    1  -10   -3    2  -10  -19   -5  -13   10   -7  -25    6    8    0  -28    3  -20  -15   11   -3    5    0    0   15  -20    2  -17   -7    0   13  -34    1  -14  -11  -10   13    2   -2  -13   15    5  -12    9    5  -11   11  -17    3   -8    4   17    3  -16   -2  -23   -7    0    2   -4  -16  -11  -10   -3   13  -25   -6   -7   36   -2  -18   -4   -2   10   -1   25    1   -7    8   19    2    1   -6   -1   22   -8  -19   13   20   12   -8   24   20    5   -1  -34   -6   -4   -4    1    0   11   13    3   -3    1  -12   29  -13  -26   14    6    5   30  -37  -20   -6  -19    4   18   -7   -4  -12    2   -5   13    4   -3  -13    7    9    1    7   17  -36   16  -21   17   11   11   -1    9   12  -27   14    2    3    4   -2  -13    0    8   28  -11   -9   -8   19   -5   22   25   12    9    0    2  -13  -22   -4    9    0   21   -6    3    5    3  -12   11   -1   -3   -5    7   -9   22    0    6   19    7   22    5   -9   -7    7    8   -3    0   -6  -31   -7   -5   11   18  -36   11   -4   -4   24  -25   -1   33   -6  -10   10    4   26   21    1    4   -3  -11   11   37    6    1   31  -17  -26  -14    1    4  -13    7    0    4    0    2  -17    2   50   -4   -6   11   -2   -5  -27   11  -24    0  -18    2    5    6   30  -11  -16   14    1   11   -4    0  -18   19  -11    7  -16    5  -12   12  -23  -12   11   -4   15   22  -30    8   -7   33  -15  -27    2  -17   -5  -20   -1  -14   -3  -13   19  -23    2  -14  -18  -13   -8    2  -18    8   -9   -1  -14  -12   15    8  -11   -4  -21    4   18   -9  -22   15    1   -7   19  -17   15  -20    2    6   13   21  -23    0   -9    9   11  -12  -18    5  -10
   4  -19    6  -12  -21    8  -10  -25   25   -2  -11    9  -12    5   -3    6    0    0   10   -2  -13   16  -18    3   13   -6   -3  -10  -14   21   10    6   21   11   13   -1   -3    0   10   -4   14  -28   21   24  -24    1   -7   21    6   -5   35    4    6   -3   -8  -11    4    1    1   -4   -2   11    8   -7   -1    2   -6    7    1  -39   12  -10  -25   -1   -2   -4  -19    0    0    7   13   17   12   33  -12  -11   -3  -10   13   -5    1    3   -3  -23   11   18   -9  -11   16   20    8    3   23  -17  -13    6    0  -24   -7  -11  -14   -5   28  -10   -6   -8  -13   -2   -3    1    4   16  -39  -13   10   19   -5    6   -6  -10  -15   -6    5  -20  -17  -18  -16  -10    1   14   12   20   -4  -35   -5   25   -6   -9  -14    1    0  -12    0   14   15   -3   -3    0    6   -8    2   -8   -9   10    4   -7   14   14    5  -16   -1   -6   -8  -12   -6   27    0   11   -4  -22  -38  -23    2  -17   24   13   -7    4  -18   -1    1   21   -9  -11    9   19    8    0  -17   12   -2    3    6   -6    5   -5   -4   32   -5    5    6   13   -6   -5  -27   -9  -18   12    0   10    9   11   -6   -4  -23  -16  -25    0   -1   14   -7  -13    2  -13   -7   -7  -12    6  -13  -11  -12   -4    5    8   -6   -3   20   14    2   21   -6   11   10    1   11  -13   21   -4    0    5    5   -8  -10   -3    0   12    1   16   16   -1  -21   -3  -22    0  -13  -15   13   -8   13    9  -21   -1    0  -14   15  -21  -12   -4   -2  -18   -4   -7    5  -16    0   11  -13    8  -12   16   -4   -3  -11    0    8    8    3   16    9   21   12  -13    2    6   18  -19   11   -8   12   -1   22   -3  -10    1    6    4   -8   12   15   11   19    7   37   -6    0   24    1   15   34   23   18    3   10   15    7  -14    5   15    1   21   22  -26    8    5    7    2   10   -4   -4  -14    9  -12  -16   19   -1    1   -3   -3   37   13    5   31  -12  -41   -1    4    9   26  -11   -7   18    1  -26   22
  -1  -25  -32    6   27   30  -26   14   -3  -31  -11  -18  -25   19  -10   28  -17   27   -6  -42  -24  -26    5    9   28    0    0    7   -6  -18  -32  -30    9   -5  -33   16   -9   25   -6   13  -35  -23    3  -22  -22   20  -42  -17    5  -21   11   15  -49   33   23   20  -32   -4   10    7   -4  -32  -21   23  -20  -11   -9  -14  -26  -12  -20    0  -41   12   -7   -2   23  -23   10   18   73   -9   12  -43    8   15  -24   -9    0    7   21   -6   -5  -42   15   22   -1   10  -15  -18   22  -25   28  -24   29  -12    5  -38   23   -6   15   40  -25    6   33  -44   59   -6   10  -34  -32  -42   32   -2   25    1   25  -26  -35   -2   18   -6   15   23  -21  -14  -30   37  -14   -5  -11   23  -13    6   -2   38   24   27    2    0    3    5    1   -8   24   32    5   38   -7   -7  -36  -14  -19   34  -32  -10   37   -3   19    3  -17  -13   -4   30  -31    4   22   15   28  -21    5    5    3    6  -13   18    4   21    9   11  -23    1  -10   25    5  -13  -19  -11  -18   17  -11  -12   15   22  -19  -27   33  -20   15   -9   -8   23  -50   10   16    4   -3  -17   19  -19  -45  -17   -5    5   -2   21   49   33  -26   15    5  -16   -2  -20   30   51   26   13   14    2  -14  -12    8    5  -37   10    8  -53   52   -2  -32   -7  -11  -20   51    8   33  -19    0  -17  -32   28   -4    2   -8    3   13    0  -11  -71  -11    5   11   20   24   -9  -26  -18  -35    6   16  -16   -8   11   11  -22   -2    8   -8  -27    1   25  -33   10   10  -10  -17   26   25   -5   36   20    4   30   -9   10  -36  -10   -4   11  -14    1   -6    9   -3  -13  -24    5    5  -21  -12   -8    4   28    0   -6  -17   47   35   22   18   33  -10   39   49    1  -32   -3    6  -20   -6   57  -17   29   38  -16   -4  -31  -11    8   11   -9  -44   37  -14   63  -36  -50  -12  -18  -17   39   -5  -16  -30    5   70  -10  -52   27  -13   47   19   13  -39  -20   13   25    5    2  -23    8   33  -27
   2   11    1  -20   -5   -7   -3  -12    4  -10   28  -22   27    1  -20  -10  -13    2   -9    0  -25  -20   11    7   15    7   23    0  -24  -42   30   10  -19   -7    3    3   18   -8   13   16   17    1   10    8   -2   -2    8    3  -10  -14  -16  -11   10  -22   -2   -8    7  -15    2    0    7    5    6   -9   18    5  -26   17  -11  -46   14    0   -6  -16   -3    2  -15   -9  -19  -18   11  -17   20  -25  -11   18  -16   -7   12   -3    9   -4  -19   27   -9   11    9   13   -8    4   -6  -14  -10    1   -9  -13   12    9  -11   11   -1  -12   14   -7   -3   17   21    6   -5    4   15  -13   -2    4   10   -7   23    2   11   -5    3   -9    7  -16  -13   -6   31  -17   -4  -30   15  -21   -8   10   16  -31   -2   11   15    2   24   -1    9   14    2   -7    1    0   -5   15  -36   18   18  -12   11    8    4   -9    0  -14    5   24   -3   -7    5  -19   -7  -14    2   10  -15   17   -1  -16   -1   -5   -7   -6   12  -15   23   24   13  -11    8   -8   -3   -2    1  -14    0   10    0   -7    6   -4   -6    8  -17   -8  -19    6   13  -20   18  -18    1   -4    3   -3    3   -5   11    4  -10   12    7  -11   -4   -6  -25   18   -7    1    6  -13   18   -7  -31    0    7   -4   20  -22   -7   30    0   11   24    4   -9    5  -12   -7    0    3   16    1   -3   16  -14    8  -14  -25    8   -6  -16    6  -17   -9    0   -1   15    5   -2    2   -7   -5   -4    1    2   15  -39  -10   19   -9    9  -17   10  -27    3    8   -5    8    5    5    5   25   -5  -29  -11    7   -1  -14   12   -4  -20   -6   30   12   23   11    9   -1  -34   -6    7   29    3   15    3    6    2   -3   -7   -3    8  -10   17   -6   10    5   -6  -24    8  -34   -2    9    2   12   11   -6   -3   32  -10   -2   27    4    6    5   10  -10  -14   -4    8  -14   -4    1  -15   -4   -7   30    7   -2   -2   11  -24   19  -34  -12   12   12    3   32    1   12   -8  -13   -6  -23    8   16   19   -7
  -1  -27  -15    3   10   16   53  -14   15    7    1    1    6  -10  -16   22   23    0   -2  -10   -4  -12    2    6   -1   12  -12  -17   14   -8   -7   -9  -14   28    7    6   18  -26  -11   21   19  -21    7  -12   15  -24   -6  -17   12  -20    5   17   16   31   -2  -21   11    8  -11    9  -30  -20   26  -10  -20   -1    0    3   11   16   12  -11  -12  -22   -6  -13  -19   -1  -22    7   -6    4   -2   25   16   -5    0    3   -9    7  -14    2   17  -43   -5   -2    1  -26    1   11  -14   -1    0    6    1   14   -6    9  -19   23  -27   10   -9   13   -6   -2    5   -7    9   14   28    7   -9  -11  -13    4    1    2  -19  -13   -7   -7    0    1  -10   -3   -4  -22    3    0   19    3  -28  -24   -5    8   14   -9   -2   -1   -9   11  -29    9    1    3   -3   -4    3  -12    6   22   21   -2    0  -24  -20   -2    2   14  -17  -15   -3    9   -8   -3  -16   11    1    4  -14    6    5    1  -10  -21   15   13   -6   21   18   -6   -7  -12   17   -8   -1   -9  -16   -2  -19   24   -1   17   15    0   28    2    2    6   15   30    7    0   23   27  -16  -10  -11   -7  -24  -11  -14    9   14  -26   -3   51   -8    0  -15  -12   14  -25   26   -3    4   -3   13    7    9   -9    6  -15   -7   -5   19    2   12   14   20   14   17    4  -12   25  -15   29    1   21   14   19   21  -14   30   -3    1    4   -6   -2    0   -5  -35   11   -1   -7  -29  -11  -17  -12  -18  -10   -8   28   27  -21    3    2   -6    4   12  -16    4   16    9   -2   12    7   19  -13   -5   16   30   10    1    8  -16   -4   16  -24   19   10  -16   10   -3   30  -15   -3   15   -4   -9    9   -5   -6   16  -29  -11   -2    8    7  -11    7  -29   -1   -5   -5    3  -16  -10   -2    2  -25   26   23  -27  -10   -9   -5    5   18    0    7    8   -7  -11   31  -14   12   -2    3   -1    5    7    5   24   12    6   -5    1    0  -16   29   -9    5   10  -26    1   -7  -11   25  -26    8    1   21
  -6   27   14    2   27   -7  -12  -35   -1   -7  -29  -22   26   -3  -11  -18  -37  -18   30    6    2    1    7   -9    6   -9   -5  -23  -23   10  -30   13  -46   32  -14    3   20   31   -7   -6   14    8  -17   14    1   21   36   24  -13    3    9   -8    3    9   -1  -11  -20   10   20  -23  -15  -16  -26  -26    3    6    0  -13    7   28   -2    5  -18   -4   -5  -15  -16   41   11   12  -11  -13   14   17    6   -6   -9   -7    5   18    0    0    0    3   -2   17  -10  -35   23  -25    4  -13  -34    1   -8   -8   -5    8  -25    1    3  -15   -3   15   -8   10   -7  -21  -25    4   -9  -12   23  -10  -13  -35  -13  -12   16    1  -14   22   15   12  -24   23    9   -3    1    4  -22    6   -1  -18   12  -32  -24   34   -5    0   34  -20  -28   -4   -6    2    0   -1   -7  -23    5   17    4   -9   -9  -23   22  -21   -4  -22   18    0   -1   -9  -15    7    1   -8    5   20   15   18    2   -4  -12  -14   -9   10   18  -34  -15   -1   -5   -8    6   -2  -32    1   19    0   -2  -13   -9   -1   11  -30   -4    5  -12    5   12   15  -15   10   33    5   29  -14    0  -10  -27    2    4   -1  -22   27   -3   25   -9  -43   10  -17   -9    4  -15  -31    9    5  -16    8   12  -17  -24   -9   -4   26    3    9  -39   -3   15   23   20  -16    7   18    0  -16  -18   13  -17  -17    5  -33    2   -3   -6  -24   20  -16   33   -9   23   14   18    7   12  -35   35  -32   23   17   -6    0   14    7    4  -18   -6    5  -28   34  -18  -29   -6    1   52   -3  -23  -18  -36    6  -10    4    7  -18   -1  -28   22  -13   28   -7   11    4  -20   -8    0   15   -9    8   -7   24   -2   -3   -3  -18   -7  -34   -8   -6   27  -25  -13   15   25   12   14   27   -9   19  -19  -15   -6   30  -28   18   41  -18   27  -25   10  -11   -2   -3  -14   16    3    6   -9  -15   -1   -5   12  -11   10   45   12   -3  -15   11  -19   -9  -24   33   30   38  -20    3   28    7  -14   -2   -6  -19
   5   -1    5  -29  -23  -20   13   31  -11   -5    0   18   -2   -4   -7   14    1  -28  -24   12    6   -7    6   35   -1  -26   30   32  -13   -3   36   -9    6   -6   16   13   -1   -2   21    4  -17   -3    3   12   10   18  -35   -2   21   27  -16   17    1   -8   -2  -19    9   16  -19   -8   -4   12   23   18   20    7  -42    3   10   29   20   18   13  -11   25   -9   13   -6   -8    6  -10   11   14   10   15    9   -1    2  -15   22   21    0  -34   32    6  -16   -8   -2    3   -2  -12   -4   33   14    9   19   12  -14   23   -4   11    1  -13    9    8  -31    9    3   27   24    2  -14   -6   19  -17   32   21   28   -1   -1   10   -5   -3   -8  -42  -29   19  -23   -5   -8   17  -34    8   -2   -4   10   -8    6   -1   -1   15   -1  -18   -2   16    5    9  -27   -3   -1  -25   10   23   26  -11   -6    8    9  -18   39  -18   -5   -7   -6   29   -1   12   -1    2  -12    5   35   -9  -13  -18   -7   12    4   30   17   -4  -54   18   18   -4   -2   23   25   -6   21  -16   -8  -27  -26   -2   23    8  -13   27   29   32   17    9   10   13  -11  -17   -2   -5  -13    3    1   11   -2   36  -10   44   -3    5   23    5    4   34   19   25   -1  -16    1    6   10  -20    6   20   -3   27   38   21   24    9   16    5  -21   -3   11    6    5   -9  -10    4    7    7  -20    7   16    8   33   -8   -8  -43   47   16   14  -10  -26   -1    6  -18   10  -16    3   -6  -39    1    2   20    2   11   17   13    9   20  -32    1   -8    8   24   17  -45   20    1  -22   -1   -7   22   32    8   -9    2   28   21  -17   -9  -13  -17   14  -10   33   11  -12  -38   21  -24   16   -4   12    0   44    5   40  -11  -17   48  -23   10    4  -28  -13   21   35   35   -3   11    2  -10   50    5   24   39    2   12  -39  -21    3    4   26  -15    3    7   34   -5   28   26   11    3   37  -35   -8   23   13   -1  -10   53   12  -18  -20   17  -23  -27   -3  -12   -5   -4  -11  -18
  -4    7   -4  -11   -4  -13  -12  -25   -8  -16  -15    0  -16    1   -5   -9    9   32    1    6   -5   11   16   -2  -22   -2   10    6   -6    0  -70   -1  -25  -13   12   16   -7   12  -22    1  -19   -5    9    4   -7    1   -9   -1  -37   13   -3  -18   32   71    5   51    8   -6   23   16   -7   33  -10   24    3  -11   -4  -23    1  -26   28  -26   20   -5   13  -19   -3  -14  -19   -7   -8  -17  -12   -1  -22  -25   -7   10   -8  -27  -25   21   19  -31  -27    0  -17    7   -9  -34  -14   37   -1   22   24  -11   -6   12  -13   -4   30   -7   -3   -4   12   14    5    5  -35    5   -1  -23    4   -6  -17  -20   12  -17    7   -4  -12  -12   20   10   -9    5   -5   40   -9   -3   -9  -24  -20   37    5   21    8   11    6    0    4   -5  -18  -50  -19    6   -9    5   17    8   15    2   -6   -2    6    5   -1   25   -2    6   35  -23  -19    4  -17  -10  -16   -5   -6   12  -31  -19   -2  -29  -14   28   11   24    6    2  -26   10   22  -22  -17   41    9    7   16   11   10    2  -25  -42   -3  -22   33    9    7   10   11    5  -28  -20   -4  -20   -5  -15  -16   -3   17   -3   -2   15  -14   35   -6  -47   -5   -4   22  -16   37   -5  -21  -14  -14    6  -44  -30  -23  -20   -9    1   -3  -23   -5   17   -5   -8   11    2   23   38    9    8  -11   -8   -2  -18  -17    7  -18   19    5    2   25   19   -1   -3    2    7  -23  -29  -48   17  -18   21   19  -16    0   23  -19    9   -6   18  -41   -2   -6    8    1   15    6  -13   28   22  -18  -18  -20   21    5   15  -14   18   11    2   21    6    1  -28    7   -4  -19  -17  -12    6  -21   -4   11   31   -3   -9   11   -3    1   13    3   14   15    5  -12    8   26   12  -33   -7   17   13   -7  -32  -15   -2    8   -3   10    9   28   25   14  -10  -13  -12    3   -7   15  -21    9    4    1   10   -7  -14   -3  -11   24  -30   97  -18   18  -13  -24   49   23  -21   -9   11   28  -20  -26    8   -7    9  -23  -10
  -2    5    6  -13  -18   14   -1  -13  -10   -3   31   20   -2    6  -27    3  -18    2   -8   -5   -1   -7    8   -7  -19   23    1   11   10  -41   -2   26  -38   33   72   31   18   21   12  -10   34   -8  -29   22   -4   14   18  -19   -1  -30   -1    4  -11  -25  -15    2   -7   -7   10  -14   -1   12    4   -4   18  -17   -2   23  -20  -25    1    2   21   -8   15    6   14   13    9    3  -20   13  -39    1    9   19   20  -21  -14    0   12  -10  -17  -11  -25  -18  -13    5   -7   -5  -14   18   25    1  -26   -9   15    5   13  -12  -17    3   18  -15  -19  -13    6   14  -12   11    3   -6  -18  -13    8    4   -3  -18  -11   -3  -18  -15   26   -1  -17   -6   14  -26   21    3   -8    0   -7   11   27    4  -17   32    6    1   10  -12   -2   20    4   -5   -6  -24  -17    2   19   -6   -6   27   18   14   25  -13    6   -8    4   -8   -2  -13    1   14    1    9    0    6    8   -3   -5    6  -19  -22  -11  -27   -3    5   12    6   -7   15    4   -6   -1   16  -20  -19  -15    0   -8    7  -16  -21  -27   15   -2   -1   16   38    8    8  -19  -16   30    0   27  -13  -14   -8    8    6   -1   37  -14   23    5   -6    0   -4  -16   11   25   15    7  -29   -1   13   46   13    7   11   23   -7    4  -13   -7  -17    8   23   10   -4   -8  -14  -14   21    7   17   27   -6  -32   -9   -4   -3  -20  -10    8    6    3   -6   16  -21    2    4   -8   27   14   18  -12    4   -9   12    7   -8    5   20    2   -7   13  -20    5    6    5  -34   20  -11    0   32   21   -5  -21    3    2    2  -14    1  -31   -3   15   12    0  -19  -11  -21    8  -15   -4   14    2   -2   -8   -2   -4    7   23    9   -9   -8   30  -13   36   29   24   16  -18   -7   23   10  -18    9  -29  -32   14   23    0  -10   -9  -20  -11  -21  -10  -11    2  -34    0   -1   -9   -7  -11   -1   32   10    2  -12  -20    9   35  -25   50   41   -7  -14  -19  -10   -1   15   -5    5  -18    7   -3   -6
   4    9   11   -1    0   -9    5   -1   18    0  -20   -7    1  -12   16   -1    9  -25  -11   -7   -6   -5   27  -16    0  -11   -6   12    3   -6   10  -11   22   -2   25   -3    5    1   22    3  -11   20  -10   -3    1   15   -7  -30    2   43   15   -6    6   -7    6  -11    7    2    4   -8    2    1  -16   18   12   15   -6  -20   27   25  -26   20   -7    7  -10    3   15   -5  -10   19    9   26    0   17   -8    0   11   37  -17   -4    5    3  -15  -12    1   -8   27   12   13    5   -2   -4   14  -11    9   46  -46  -17   -5    5   -1   -3    4    5   -3  -16   22   20    3   -5  -15   25   -4   23  -29   16   10    7   11    4   12  -13  -12  -10  -15  -18    4  -24   -5  -11  -28    1   36    8   -7   45    4  -16   15    1   -9   38   17  -13  -21    1    3   -5   -7   18    4    9   -6    8  -33   30  -12    1   -2    3   19  -14    1    6    1    6    7  -25  -27    6   19   -6    4   20   -5    0   -7    0   -6   32   -6    4    0   14  -12  -12   19    1   12   18   -8   25    2  -19    5    7   19  -22  -19  -21    4  -33    5   16   -1  -26  -14    7  -15   21    0   27    7   -4   12   10   34   39   14   10   12    3   -4   19    3   22   12   14    3    2    1    7   -8   19  -10   21  -10    3   51    0  -36    1   31    1  -17   30   24    2   29  -44   12    0  -18    8    2  -35   -8  -13  -21    2  -18    0    4  -16    9   13  -17  -14    9   -3   20    0   12   -2   -8   17  -42    8  -32  -14  -44  -23   13   13   -1   24   21   22   17   -6  -46    6    0   -9   32    8   38   -7  -20  -11   -2    5   -2  -10   20   32    3   -8   -7  -14  -23   30   11  -29    1   22    5   -3   28   -4   -7   19   23   12   -2  -14   -8    8  -25   28   14   12    3    1  -23  -11   26   66  -26    0   22   -3   20   -3  -10   16  -21  -10   -6   -1   25   -6  -16   10    4   12  -41    2   18   -9   -4  -31  -17  -14   19   -3   10  -10   -1    0   31  -12   -6  -11
  -1   44  -11   10   22   -1   14   14  -18  -20    8  -24  -12   -6  -24  -12    9   15  -14   -7  -40   -6  -20    0  -37    9   22   32  -25   47  -14  -19    6  -24    7   28   42    0   -6  -11    5  -12   31    5   24   10  -60  -20   15   18   19  -24  -22    3  -15    6   12   36    5    2   -9   29   -4    1  -17  -10  -21    1   -2   -6   -9   14   19  -17    8    1   23   -5  -23  -24  -24    6    0   10    6  -18  -32   -2  -15  -19   12   28    9   -6   20   21   16    1  -47   -5    3   27    6   20   27   24   -3  -26  -17  -11  -17   14  -28   31  -11   14  -32   14   17    8   22  -22  -11   24   -2  -19   34   29   35   11   16   35   19   28  -28  -10   17   25   -8    3   -7  -17   10    1   11   17   29   19   -2    0    3   50    9   57    9   21   -4   34   11    0   27    7   13    1  -22   -5    5   16   -2   -8  -22   -3  -29   -2    9   21   10   11   16  -20    2   30   -3  -11  -13   17  -21   26    8   -6   21   18    3   16   19  -41    4  -22   19   29   17    2  -42   21   30  -18   25  -27   -5   -6  -26   25   -7   24  -21   -7   -6   20   -7  -27   -9  -32  -12   19  -26    1    9   36   -1   32   39   18  -20  -23   -4  -22  -29   11   -3  -26  -15   21  -16  -13  -33    6  -26   10  -23  -31   -5  -14   18   11   23  -11   21    5  -35   40    7  -16    2  -35    5    6   17   81   26   -6   59   12   -3   -8    7  -10  -31  -17  -41    5    5  -15  -13    6   12   -7   -4  -22   35  -11   17   34  -26    3    2   33   13   -6   -1  -22   -9   -7   -4    4  -10   32  -29  -30   -8  -21    0   -3    5    9   -9  -32  -14   51   17    5  -28   10   14   10   16  -15   10  -29   50   -4    0   26   51    2   13   22    9    4  -12   14    7   33   -7    1   33   20    4  -15   24  -15   22   17   -4   14   23  -24   13   10   12    4   -3   28   19   31  -20  -24   25   -4   45   25  -35  -67  -10  -46  -11   -6   20    1   -5  -22   -5   15  -43    7
   0   -5  -11   -1  -10   18   19    3    2   -6   30    7    1   16    7   16  -15  -23    5   -1   -3    7  -15   -6  -11   10   15   -7   31   26   17   21   12   -4    5  -10  -14   10   -4   -8   -7   -2   13    5   12    8    2    0   -7   -7   15   -7   -6   12    9  -11   -4    2   -5    6  -47   12   13  -24    7    8    9  -18    9  -23    4   -2    4   -1    8   11   36   32    7   -1    4  -24  -16    8   -5   -1   11    3   20    1  -10    0   21  -25   -8    9   -7   -4    4    1   10   -9   -2  -19  -14   -9    2   -9  -10   17    5  -18   -3   16  -43    8   -1    5   18  -22   -3   13    4    0  -19  -14    0   -2   -1   -3   -5  -23    1   15   -3    4    8  -19   -6  -22   -4   18  -22    1   28  -17   32   -2  -34    0   -7   -5   -7  -19  -41  -12    4   27    5   -7    6  -16   -4  -19  -11   19  -15    3    0   19   -1  -25   13   13   -9   19   15    7   21   22  -11   10    0    1  -14    7   34   16  -20   -3   -2   -6   -1   12   10    3   10  -30  -20   -8  -29  -12    5    0    9  -11  -25    7   18  -47  -28   -5   16   14  -11  -22  -23   17    0    1    1    5  -35    3   11   -9    9   37   11  -17  -11   11   34  -14   27    1   13   12    6   15   -1   11    2  -26   -4   -6    1   -1  -24    9   -6    9    2    6   -7  -27   -5   -4   23   22   -8    3   25   12    2    1    2  -12   -9   -4    3    6  -12    3   10  -13    6   19   -8    2    2   -2   21   12    3   25   12  -20    7    8   23   -2    6   -1   -4    6  -28    7   31   -1  -16    2  -17   -1   -3    8    7   -8   29  -25  -13  -13   11  -20   11  -20   34   -3    7   15   -5  -21  -13   -4   14    1  -10  -18   -9   12  -13   12   -8   29   10   15   25   58   -9    7    3  -11   -6   -1  -24  -16   -4   32    6   14  -13  -18   -6   21    2   -7  -20    5   20  -10   -3    6    5   14   36    2  -12   -9   -3    0   -3   38  -29   23    7    9   -4   -8  -12    8   18   12    0    4
  -5  -36    0   -8   -9   45   34   11   23   16  -31    3   10   -4   -6   18   22  -37   34   47    8  -14   23   -6   -5  -28    2    7   15    2   15   64  -15   23   15  -56    1  -21   15   -6   16  -27   29  -15   10   32  -15  -13  -27   -6    6  -29    7   -2  -25    1   22   29   -4   35   19   48    7  -13    9   -5   16    2  -47   20   23  -18  -37   -7   -2   28  -21   36   30  -36   -1  -14   44   42    6  -12   39   10  -49    7   -5   26   14    9   -2  -31   28   14  -45   50   -3  -66    0   30  -21    4  -20    1  -16   40    8  -12    4    0  -21    9   -7    7  -49    5    6   41    3   -3  -48    7  -36  -10  -24   -6  -26  -35   -9   -2   52    9   -5    2   11  -10    8   16   -9   25    7  -15  -17  -48  -52   -2    6    9   -3    7  -20  -17  -12  -11   55    2   -8   31   -6   10   -1    3  -32  -41  -12   13   20   46   23  -22    9    7  -24   19  -12   10   12   15   -2  -12  -16   20  -18  -15  -49  -30   -1  -16   -7  -19   26   19   -3    3   42  -24    6   32    1  -24   -3   -5  -25  -17   -1    2  -52   -6    8   -5    2  -21  -10    5    8   24   -5   25    0   -5   -9   -7  -14  -17   31  -18  -45   -6   16    4  -17   43  -13   13  -22   -4   -7   10  -19  -16   -4    6   10   55  -38   70   28   33    0  -15  -40  -37   13    5  -23   -2   39    4    3   13  -19  -18  -42   56  -23   30  -35    2  -14  -26   -7  -32   13   38   -3  -34   -2  -15   -2   27    3   10   20  -21  -22   30   43  -11   23    9   -3  -15   10    9  -13   14    6   33   12  -64   19  -34    5  -12   17    4    7  -19  -36  -19   39   17    6  -10  -13    5   -2    1  -13  -13  -25   12    5    3  -10   29   28    1   14   47  -39   -7   17   23  -37   19  -35   -5   37   -4  -35  -20   30    6   44   -3  -15   14   -3  -25   -5  -22   34   47  -20   12   31   15  -36   -9  -33   20   23    6   14  -18   47  -16  -53   21   50   10   15   -7  -18   26    6  -19    8   -7
  -2  -44  -15  -29   -6   -5   30    0   -8  -42    5    4  -45   17    5   12   19  -11   18    9   -7   10  -17   11    2  -17    1   -3   -8    9   -7   12   22  -11   23   -7  -15  -16   24   46  -20   -3   -4    6   13   -6   37   10  -10   -2   -7   43  -26   18   -6   -7    3   16   -9  -27  -25   12    7   -7  -22   13    3   -1  -63  -25  -17    2    1    2   30  -11   11  -20  -40   -2    8    7  -20  -26    8   -7  -15    8  -18    7   26   18   28   11  -22   20   15  -30   -2    7   18    2  -26    0   -8  -27   27   10   24    1   12  -10  -13   20   19    3    7   -9  -16    0   26  -17   -5    3    6    5   18    0   -5   -9   38    4  -33    2   25   -5    1   -5  -10   26  -22   30   -7   -5    6   16    6    8  -21    1    0  -10   15   24   12    7   -2   40   14  -23   21  -40   26  -12    8   -7   -5   -3   28   14  -26   -4   10  -15   13   -9   23  -14   12    8   -1   27   -2   11   14   -4   -7   15   28    1  -25   -9    8   18   10   -7   -9  -10   15    5   26  -13   -9    3   14  -35    4  -13   11   16   -1   35   14   16   11    4    8  -20   26   -7   16   31    5    4    3  -21   -9   30  -28   15   31   37    4    3   30   46   14    0    2  -28   -9   21    0    6   -1   -2  -22   69   -3  -30    0   16   -9    6   -4   14  -14   -8   22  -31   20   -6    2    1  -17   -7    5  -24    7  -26  -36   -6  -40  -32   -7   14    9   10  -24    4   14  -21   -4   -3  -26  -13    1   10    8   -1  -11   -7   -5   -5   23  -20   25  -13    0   20    1   -8   -9   28   -1   -1  -27   21  -40   -7   -4    1   22  -13   18  -38   -5  -10   13    1  -14  -10   17   34   16  -29    1   50  -21   -6  -35  -18   18  -13    1   17    3   -2    1  -13   -1    0    5   -1   12  -13   23  -38   -1   16   13  -30    0   21   17    4   25    2    4   20   -1    7   -7   -9    5  -29  -13    4    7    3  -21  -25   10   -1  -19  -26    7   18    3    4    9   27   -4    7
   0   14   -2   10   -4   15    2  -19  -29  -18   23  -23   -5   15  -16   27   -8  -30  -43  -16   47   -8    8  -18   -3  -35    7    4  -33  -14    6   -1  -13   -5    7   27   -4   18   -5   26  -28   -7    5   -1   -9   10  -14    4  -15   26   -2   -8    8   37  -17   19    4   -7    4   17   15    0    4  -32  -13   12  -40    0  -15   -6   38   -8    4  -42  -35    4    0    4    3  -19    9   34    2  -68  -25    3  -29    0  -22  -15   29   19  -26   14   13    5  -24   17   17  -19   17    3   -5  -12   28   -2   22   -6   34   13   30   29  -13  -18   16  -35  -14  -23   11   42    8  -99    6  -14  -41  -41   59   12   -7   16   59    7    4  -16    4   20   29   34  -25  -23   32  -31  -17  -38  -36   14   42   56  -11   -3   10  -13  -34  -23   -4  -25    7   28  -35  -53   21  -34    4   16  -23    9   31  -11   12   -8   14   21   -4  -12   24  -10    5  -29   21   -6  -29   45   -5    2   -6   -2   27   50   17   -5    6   26  -23   34   -5   -2  -19   35   22   26   17  -14    4  -10    0  -30  -26   15   -4   12   26   -8  -40   12   50   10  -19   22  -32  -40   28   16    3   -2   28    7  -12  -12  -26   20  -16   53   39   17   16   15    0  -12  -54  -31   28   32    8    9  -11  -47  -11   18   14  -15   -9   -9  -78  -20   28  -13    1  -54  -37  -38  -10  -21   70  -34  -22   69   33   -4  -23  -43  -23    1  -48  -14  -13   10   12  -15    6   -3  -33   18  -37    7  -13   11  -21   14   32   29   -9   56  -28    1  -14  -32   28   18  -20  -39   35  -38    8   26    0   35  -37  -37   -5   13  -25  -34   -1   -4  -24  -22   33   -3   -1  -28   17  -18   44   36    5   -9    0   25   -1   32    5    0  -35   -1  -15   -7    1    2   19  -36  -36   39  -16   19   61  -19   -9  -42   28   21  -33   26   23   28   20   23   35   -2   41   18    9   40   28   21   43   -4    6   50   -7  -47  -35  -26   20    8  -21    1    7   19   11   -6  -17   19   -3  -36
   1   -3   -5    5   -4    0   13  -17   -1   -9   10   26   18    2    9   24   17  -10  -13    0    5    1   18   11   -6   -1  -10   31    9   -3   -9    0   -9   -5   17   -4   -2   10   -4   -9   -1   -2   -2   -9    4    3   24   -2   23  -18   28  -14    2   31  -20   19   16  -18   -1  -25  -15   -2  -31   -6   29  -13   -9   21   14   -2    7  -42   20    5   -2  -12   -7  -42  -19   13    4   -1   16  -19   20  -22    7  -39   -8   -6  -24   -7   15    7  -12    5   -6   -4   13    6   19   61  -12   -5    1    2    8    0  -10   16    1    3   -2   -3   -3    7  -26  -14   -1   26   -5   -3    6    2   -1  -21   33   28   14   59   53  -17   20    7    7   -5    9    2   31  -12  -26   -5  -31   -8   10    8   -5   -4    7   -1   16   22   14    6   -8   22   11    0    4   -5   14   21   -6   -1  -10   12  -24    7    2    3    6    3   36  -13  -12    6  -27    8   -3   29   -4   28    8  -16   22   10  -12    9  -17   31   -2  -12   -4   17   22   -4    8    0    9   20  -22   -2    1   13   -8    1   12    0   -7   14   -5   26  -14   11  -13   24   12   37   -8    9  -19   -5   -6   27  -43   14    3  -11  -15    5   -4  -31  -12   10    4   43  -11   18   21   16  -35   13   15  -12  -20   18    3   31  -10   23  -20   15   10   26   12   -6   26   -5   -9  -13    9  -17   -8    0    6    1   72   19   39  -33    2    9   13   -7   -2    8    5    3  -16   34   26  -17   30    1    2   27    7  -10    6  -28   -8   34   20   13   14    0    6   34   -7   -7   -3    3  -12   20   25    5  -20   -1  -11   24   -5   15   22  -12   39   12   15   -1   31  -20   -6    2    0  -13    9   11  -23  -10  -11   11  -18   13   33   -4   10   14   10    2  -11   -2   14   14    8   13   -3   18   -4    7    5  -14  -16  -24    8  -14    0  -17   -3   -6   28  -10    2    0   14   23   13  -28    8   -5   27   16    8    9    8    3   -5    4  -22  -11   17   16   35   28   15   11
   0   24   21   -4    6    0   -7   10   11    2    6   25    7  -16    3    3  -28   -1   22   13  -20   -9   12   22    5   14   -8   20   18   -8   18   16  -11  -31   26   18    3   22    0   32  -11   -9    6   33   10    9  -19   23    7    8   -2  -11    9    1   31   -2   -1    2  -10  -10   -5   21  -26   24   13    1   13    4   -5   17    0   -2  -16   14    8  -13   33    3  -11   -3   20    3  -17   16   15  -17   -9   -5   16    9  -10   20    6   54    7   14  -22   30   11   27   -6  -18   15    5   15    7   -1    8   -7   16   11  -18   10    4   20   -9  -14   13   29   -7    0   31   -5  -11    3   12    3   -3   -9   27  -20  -11    4  -16  -45   -6    7    1   19   16    0    7   -6   10    3   24   -8    7  -16    2   22   12  -18    4   17   18   -2    2   17  -11    1  -11    2   10    3  -11  -18   12    0   14   -9  -20    8   -8    2  -25   -1   15  -14   11    5   32    0   15    1   -7  -34   -8  -25   10   18    8    9    8   -4   25   -4    6  -10  -15   -3   -5    3  -29    0   -3   11    0   25    4   -9  -16    7  -27   -6   -8   44    8    9   -7    4   15  -28   -3  -23   -3    2  -19   23  -12    2   17  -15   20    0   -7    5   -8   -2    4    8    0    0    9  -12    1   20   11    0    9   -9    4   -2   24  -45   32   13   -7    0  -58   34   12   -8   -5   15  -25   -3   51    5   18    3    3   53   -2  -14   20    9    3  -15   -2    3  -34  -18   16  -22   -2    4  -13   -2  -10   12  -17  -11    8   15   -7  -12   16   43   12  -34  -19  -31  -11    1    5   15    9   10   -7   12   11  -39  -23   -1   14   -8  -33    8   13   36  -25   14   12    5   11  -31    9   11   13   14   10    5   17   21    2    4  -38    5   -2    9   18    1   -6   -4   16   -7   14    3  -21    8   36   -6  -16  -16   15   -5   35    1   37   18  -16   -3   -3  -25   13   25    2   -5   -1   -5  -96   12  -24    9    5  -20   29   -8  -21   -6    6    9    8
   3    8   -5    7   10   -7   -9   34    5    9   10   -6  -25   -6   14  -19    2   -2   -6  -23   11   -1  -16   -2    8   15    1  -14    2  -13  -11  -15  -23  -11  -11   10  -18   15    8  -16  -10  -11  -23  -12  -25   -2   -3   15   25   13   -6   10  -12    2    7   -8   13   -2    0    5   -1   -5   42    5    6    5   19  -20   17  -34  -22    3  -21    1    2   16   15    1  -10    7   15   33    7    4   14   -5    8   12   -4    0   17    7    2  -10    0  -13    2    8   18   -5   24  -19   11   -8   -7  -37   -6   11   10   18   -1  -22   29  -20    3   18    6    8   12    1   11    1    7  -15   -1   23  -36    8   14  -15    4    3   -9  -18  -19   19  -22   -3   14   15   11    6   26  -23    7   24  -32   -2   15   -1  -13    8   -8  -23   30  -16  -10  -18  -10    1   -8  -25    8   -8    5  -13   -5    4  -14   -3    9   15  -11  -10   11    0    0   -8   -1    8    7  -18    0   18  -16   -8   18   -9    9   38    5  -34   -9   -3    3    4    4    2  -18  -18    1   -2  -37    2   14   24   -4   29   21   14    3   20    9   25  -10  -12  -13  -17   -9    6    6    8   12   10  -28    1   -4   -6    6    7   34   26  -24    0    1   26  -19  -34   22   13  -10  -15  -17   -1   -2   14   10  -21   18   27   16  -17    4    9  -22  -23  -15  -15   22   42    8   -1  -35   22   24    9  -13  -13   -1  -22    2   -3  -16  -12    1  -12  -18  -16   10   16    5   18    3   -3   24   -1   -2   23    4    8   10  -46    6   24    8  -19    3   24    2  -23   -6  -11   -2    8    6   -3    3    0  -35   10  -14    5  -17  -15   -3   -3   -9   13  -34    9   -2    7  -10    0   -5   -8   -7   30   23  -14  -30   14   16    8   -9  -19   19   11   11    2  -23  -26   15   -5  -16  -12   -3   21   -9   13   16    8   12   -8  -29    2   -1   18  -13  -20   -5   29   -9  -23  -23  -11  -21  -27   13   -6   10   21   -3  -18  -19   -7    0  -24   -3    2   17   -4  -27    6
   2   -8  -22   -1   19   -4  -12   30    5  -24   12   15   19   48  -19   12  -24   -1   11    5  -15   33   20   -3    1   -6    4    3    4   22   38   15    5  -25   -3   31  -15   24    5  -23  -37    5   34  -30   12   16   -7   -6   23  -24   10   18    4  -55  -37  -22  -25  -24   16   18   17   -7   69  -14   -5    3   28    8   16    2  -33   16   15  -21  -19   37   -4  -21    7  -26   -2  -25  -33   -6  -18    1    7  -34   37  -10    5    2   33  -27    3   22    4   25   16  -16  -10  -13    4  -31   12   29   54  -19    4   -3   -1    5    2   33  -14  -10   12   -7   35   20    1  -27  -31    9   17  -13   33  -18   12    9   17   29   -4   -7  -57   10   -1   -7    2    1   63    7    8    6  -10  -37   36   23  -33    0   -5   12  -32    7    4    9    2   18   15   15   26  -17   10  -16  -16    5   -2   -1   -7  -17  -51   33   12   17   11   27   17   -5   -5    4  -30   24   -3   -8   12  -10   -1    4  -12  -17  -14   -3   -7   -9  -37    4  -13   18   -4   16  -16   -9  -19   13   -1  -13   -3   12  -32   26   14  -14   14   -4    5  -13  -17    1   11  -11  -39   -1  -20  -26  -55   10   23   20   -9   19   19   11   38   -9   -4   -6    6   -4   23  -24   -9   29  -12   -2    0   28  -29  -59  -25  -16  -34  -19   -8   -1   30   15   26  -10  -25   -2    7   -1  -21  -44   -9   33    5   34   25  -18   -6    2  -28  -40  -12   12    4    4  -20   24    9   -7   24   18   31   -7   20    9   22  -20  -25   -2  -45  -12  -24   30   10    6   16   15  -35   26   -6   31  -19   43   -9   -8  -23  -17    1  -22   -2   -1   -5  -42   16  -12   35   10  -11   -7   11   -5  -28   -7   23   -8    2   21    7    4   33    3   34   12  -36  -28   34   -8    6   10   -4   -1   -6    9   15   22   -8   22    3   30  -34   19   21  -31  -28  -40   12    6    2   12   -6  -11   -9   20  -26  -13   -3    4   12   -4   43   -2   16   13    9   33  -27   17   18  -45    3   -9
   5  -19   -4   -7  -10   -4   -5   23   -4   18    8  -13    2   34  -12  -22   14  -13   -8    0  -28  -19    3   12    9  -16   14    7    9  -13   -2   -8   -4  -31  -19   -1   14  -14    3  -15   -5    6   19    4    9   17    5   21    6  -21   -5    9  -15  -17   21  -22    1   -8   -2   -9   26    1  -25   14   -9   -5  -18  -10   -2    9  -24    2   -2  -19    3   -3   15  -30  -17    9   -9  -11   -4   18  -16   24   -4  -11   -2   32    2   -4  -10   15  -10   -6   -5    7    9   -4   24  -10    3  -16   -7    0  -15   11   -9   -2    8    5   13    9   -9    9   -2  -12   -8  -70  -18    7    2   12   -8    4    1    7    3  -11   -2    2    7    0   14  -15  -11  -12    4  -17  -18    1    4  -35  -16   25  -10  -15   19    0   10   -6   -2  -40   -8   17    1   18   -3   18   17   -8   -9   16   -2   -4    5   -8   31    4  -19   29   -9   22  -12   -1   13  -11   -4    7   -4  -16   -1   -9    2    5   10  -13    2   -8  -24  -20  -22   -1  -14    1  -24  -11  -16  -15  -10   -8  -10    6   15   -9    0    6   10   -4    7   -8  -11   21   -9    7   22   -3    5   -3    5  -13   -3  -13    8  -18    8  -14   -9  -18    0    0    1   13  -32   -9   21  -11   10   -5  -11    9  -17   29  -15    4  -16  -46   14   -4  -11    6   20    0   -6    3   -1    4   11   -2    1   19    5   -4   -5    1    0   -1   -5   24   26   -8   19   17  -20   21  -21  -35  -19   -6   -7    7   -4    1   -2   10  -10   12  -26   -5   15    7   -5  -36   19    7   -8   -5   16   -7    7   -7   12  -10    3   -2   47    7    5    7    5  -20   15   25  -12   15   -2    5   -8    3   -1   12   -2    3    8   -9   11    5    1  -11    9   -1   24  -10    4   -2  -20   -2  -12   14  -16   32   22   10  -13    5   -1   16   -1   -2   22   -4   15    9   13    0  -15   -8   -6    2    9  -14    0  -14    3   -6   -9   -7    2   -2  -13  -49   19    3   13    6  -20  -12   -7  -13  -20   -1  -11   12
  -1   33   -8  -32   14    8    8  -29   -1  -12  -23   17  -32  -13    1   22  -19  -25   12  -16   13  -15   -4   -8   35   13  -27   -7   -8  -28    6   14    5    5    2    0    4   11   -6    2   20    6  -25  -13   -5  -16   -2   -4  -19   19  -13   -7   14   11  -12   38   -1  -22  -15    5   20    4   -4    8    8    4   24  -24  -17  -11   -8   -9  -43  -19   -5   -6    0   -2  -15  -19   31   31   14   -2  -21    2   12   13   -3  -37   -6  -24   -8   -5   -2  -16  -20  -21    4   13    4  -22  -12  -16  -33    4    2   20   33  -31    5    5   17   18  -25   28   10   -3   32   37  -21    9   15  -26   -9   19  -15  -16  -38   42  -12    3    5    3    6  -14    6   19    1    7    8   23  -18  -24   -9   14   10   -2    9    0   29   10  -22    2    5   -3    1  -23  -13    2  -11  -15  -45  -16   45   31   -8  -11  -15    8   19   -1   18   14   10   23  -32   18   -6  -10    4   15    1  -14    7   -4   -6   36    6   44  -18   37   21    2   20   13   11  -13   -8  -12   -5  -20    1   13   22  -15   -6   -3   -2    0    7   -8   30   10   15   18   11  -35    4   -3  -10    6   21    0   16  -18   13   -7    9   56   -3   12    1   17  -25    5   -7   17    8  -20   -1  -24   23   23  -16    1  -24   -1   10  -23   -3  -11    7  -13   21  -21   -3   -3   26   -5   10    8  -16  -17  -21    6  -18    5    3   -5   30  -11  -12    1   -4  -21    9   13    4   10   -2   -4   -8    7   25  -23   -5    5  -23   -3  -15   -4   -3   -6   17   -8  -12   -8   -4   21   18   -6  -25    8  -10    4  -10   36  -39   29   27  -13   -6    0   33  -21    7   14   -8   17  -14  -10   13  -19  -22   11  -30   21  -31  -27  -20   -9   -1   16  -24  -20   21  -29   23   30   21   14   17   -1   11   -7  -21   -9   15    3    7   -9   12   -7  -14   24   13    2   12   30   21  -33   12   -3   -1  -15   -2    7  -33   10    2 -104   11   11  -14   25   14   14   11  -15  -30    8   -4   36
  -1    0    7   19   14    5  -14    9  -18   22   19   23   -6    3   15   16  -14   -3   15   19  -13    6  -18   17   -7   19  -19   -1   -7  -15  -22    3   14  -10   -2  -15   -2    1   14   15   12   -6  -11    3   -4   -9    9  -18  -17   11   -7   -3    6    1   -3   -4   -5   -1   20  -28   -3   11  -20    6  -18  -10    9  -28   -8    9    3  -11   -4  -15    3  -16    1   -1  -10    1   12   14  -26   -2   -9    5    1   10   18  -11   20    8  -11   40   18   -8   31   10   20    5   -2   -4    8   -6  -13   -1   -8   -5   14  -28   -3    7  -13    0  -16    2   -7   10  -24  -34   -1   11  -45   11    9    9  -23  -15   -6    4   23  -36   -7   11   16  -38  -29   -7   14    5  -24  -11  -21  -19   -2   -8  -45  -10    3   -1   -2  -14    7   11  -35  -17    1    1    3    2  -23   -5  -14   -6  -19   -7    6    6   -7   18   18   -3  -11   11  -15   -3   -3   -9    4    7   24   -3   -4    8   -8  -19  -17   -5  -12   23   33   -4  -23    8    1   33    5  -11   25  -13   -2    9   -9    4   -3    3  -21   -7   -8   23   -7  -20  -16   13    4   26   30   12   16   14   -5    6  -10    7   29    7   13   32    7  -13  -13   17  -28  -29  -16   12  -13  -37  -15   23   11  -16   -5  -30   13   20   14   -3   -3   25   -2   13   -7    0  -18  -30   -7   20   11   29   -5  -12   38    4   14   -5    3   11  -24   -5   18    6   25   29  -19  -12   -4   32   15   22   18   -9   41    5  -18   22    8  -10  -21    3   31  -15   -6  -13   24   -7    5   -9    1  -28   24   11    6  -38   -4  -14   16    5   19   18  -13   -5  -28   17   -2   -2  -22   10   -1   20   -4   -4  -22   -5   16   16   -9    6   23   -7   10   28  -46   21  -16  -11   -6    3   -9   -9   -5  -13    3   14    8   12  -34   17   10   43  -10  -18   -3    3    5   23  -13   15  -23  -15   -6   24  -11    6   29   -7   19   14  -23   -7   -1   -1  -41    2   -6   -1   -4    9    6   -2    5   11    1   49
   0    6  -17    0    1   11   14   -1   10   -8    3   -6   17  -27    0   -4   21  -10  -20   20  -23   -8  -37   -6  -34   18    7   -4  -22   -8   29    7  -18    0    0  -22  -37   -4    7    2   26  -50   -5   -6  -18    2    3    7    2   27   -9   -6  -21    3   -7  -25    8  -10    2    8   10   15   13    0   -6  -30   15  -24   -6    8  -27    3   41    5    9  -21   -4    2    4  -18  -27  -21    8    6   24   42  -17  -15    1   19    8    7   -1   12   42  -26   -7   -3  -30    0   27   32   13    4  -16  -23   -3  -31  -11   12   -2  -28   21   -4  -20  -13   36   -7   40   26   -3    7  -13    3    4  -26   -9    1   -2   11  -11    9  -13  -16  -26   -9  -10    9  -10  -23  -12   -2  -19  -32    5    4    1   -9   38    2   18    3   -5   -6   -9   25    6   15   -4   11   -9    3   -4   -1   -6   -7    9  -26   30   10   -3   -1  -18   17    8   -5   -2  -25  -21   -3   38  -13   -2   23   10   -3  -10   -1   -5   -5   15   19   -2    5   10   21    6   -2   -8    2   -4   12   -1    6   15  -11   10   48  -14    4   22    3   21   19   30   10  -13  -13   19   -4  -16   18   -9    1   19  -22    9  -31   23   -5   -2   -6  -21  -15   18    7   26  -18   24  -23  -15   29   11    4   -8   16   32   25    6  -14   12   11   39   11  -10   25   16   -4    3  -28   22    3    0    3  -12  -20   -1   45   -5   17    9   11   22   24   13    0  -26   36    2   -7  -13  -43   21   -4   -8   13   -5  -15   11    9   -7   -8   28  -19   25  -26  -12   -6  -14    7  -46   14  -47   15   15    0   -1    9  -15  -42   22    9   23   -3   -1  -32   26   -2   35    0   -5  -15  -16   -7   24   13   21   -8   -4  -11   13   19  -12   19    8    0   -4    5    5   27  -41    8   14   -7    0   20    0   21   -6   37    3   -1    6  -13   23   -4  -11    6   17   -3   37  -16    8    2  -10  -20   30   -8   -9  -23    2  -59   20   14   -2  -12    6   -1  -18   10  -14   18    6    7
  -2    6   -4   11  -11   29   -3  -14  -32  -10   -6   11   -5   10   66   -6  -12    5   -9    2    3  -11    8  -15   -1  -12    1  -26   18   -4   10   29   22   -3   14   14   -4   14  -12   -4   -9  -12  -14   10   -1   -3    9    2   19   -1  -34   -4   32  -22   -2   -7    9  -23   18   23   18    9    6    4  -21  -13    7   11  -13  -30   -2    4   30   -1   15   28    4    0  -10    8  -28    1   -6  -22  -11   -8  -22    6   36    7  -23    2   31  -33   13   15  -14    1   42   -7   21   29    9  -16   -5    1    0   -1    1   17   -1   -6  -30    1   18   16    7   -3    6  -19    2  -25   18    4  -10  -11   12  -16  -12    1   -8  -23    2    3    1    8   -2   -5    1   -2   31   -1  -24    7  -17   -6   14   17    3    0  -31   -6   12   10    5  -18    5   11   20   -7   -4  -27   11  -10   10   -1   -7   -2   15    9  -41  -19    0   -1   16  -33  -18   22   12   -3    0    0   -3   10    6   -2    4  -17   -2   -4  -15   -2   -6    0    7  -11  -11   -5    9    7    8   -9   -1   24  -20    7    4   -8    9   -7  -12    9   17   -5   -3  -13   -5   -6   14   16   -2  -14    3    7   18    2   -6  -21    1    1   17    3   -4   -9   17  -10    5    0   23  -22   10  -12    6    2   -2  -15   14  -25    6  -13  -16    8    8   13   30    9   -6   -1   -6    4  -14   -7   -5  -13  -11    5    2   -1    0    6   10    5    7   -3    1   19   21    6   -6   12   16    8   35   -1   -5  -12    4    3   -6  -12   -4    2    6   10   18   -3  -17   -1   10   12   11   -3   -1  -32  -18    9   16   -4   -4  -21   13   43    7  -23   -6  -10    6   -1   24   17   13    4    8    3    0   -2    0    5   -5    6   14   13  -15   -8  -13   -7   15  -26   -6  -16   11   -3  -14  -50   -3  -12   -6  -15  -21   -7   -8   13   -7  -14   24    6   -5    5    0   -5   -2  -24  -16  -21   -1   -8  -14  -13  -12  -16    8   97    2   21  -10   13   -6    1    0  -30   20   11   21    6
  -3    6   17  -19  -14    6    7   29    2   13   -2   -2  -10    5   22  -26    0  -10   10   14    8   10    3   22   -8   11   -3   -8   21  -14   32    9   19   20   15  -29    3  -11   25   11    8   -9   10  -27    2   -3   -1  -22  -34    3    3   -6   -2  -23    0  -33   -6  -19  -18    6   11    5  -10  -26  -30   10    5   -9  -10   21    5   14    2   10    2   -8   17   31   30  -19    6  -19   -2  -22    3  -14  -12   -2    3   14   15    6   -9   20   10   -8   10   -8   -1   -6    0  -22  -26   13  -36  -17  -15   12   -1   -8  -18  -17    0  -25  -10  -18    3   -4   10  -11   15   -2   -4    4   -2    4  -15  -21    0   13    5   -4  -11  -20   -5    3  -14  -32  -10    5    3  -20   20   13    3  -36  -24  -19   -9    1  -12  -32   53    6    1  -23   -2    6   -9   -9    5   14   -3   14    5  -18   -1  -16  -23   -5    6   -7  -27  -24   14  -22   20  -22    3   12  -17   -1   -4    9   12  -10    0   -6  -33  -21  -11   23    0    7    8   14  -25   -7  -25  -36   30   -9   -6  -35    8   10  -17   -5   -7  -37  -20   11    7  -19    3    2    5    0   10  -14   19   10    9   23  -22  -14   -8  -34    0  -43  -15  -17    4   -8  -18   20    4  -12    6   10   20   -8    7   -4   22  -18  -10    9  -18   38   -3   -5  -46   -3  -27   -9    7   23  -11   14    6  -16    5   -3  -13   -4  -23    5    1   -2   -2   -6   15   22  -21  -13   12   -7    3  -12  -33  -19   16   -7  -21   -2  -11   -1    5   -2   24   -5  -15    0  -18  -40  -20   -6  -14  -22   -3   -8  -10   22   10  -27   27   -1  -11  -28   -1  -12   -8   -8  -27  -17   12    8   28  -25  -12    0  -21  -21  -27  -16   -3    4  -11   30   18  -10   -7  -15  -11  -26  -26   11    5   31    4  -17   14  -21   -4   -6   14    3   11   15   15   12  -14  -18  -24    4   25   18  -17   -6  -17  -13    7    5  -13   37  -28   23  -10  -30   16  -48    0    6   23   10   11   -8    3   13   17    3   27   -8
   3  -16  -20   18  -26   -6  -33    2  -32   32  -18    4   -5   -8   11  -19    4   -4   -3  -27   18  -16    9   11  -16   -2   -1   -6    8  -13   18   -2  -19    2    5   -9  -41    7   -3  -29   -8   13    1    9   11    7   25   -6    5    9  -12    0   22  -12  -35  -20   38  -16   19   19   33   -3   36   12  -19   -2   12   13  -20    6   -2    8  -36   19   14   -7  -22  -11   12   -2  -20    0  -18   33   -2   10   16   34  -23   -8  -33   -5  -13  -33    3    1   -3   22   -3   33   -9   35  -28  -15  -16    9  -11   33  -29   15    8    4   19  -38  -11   16  -11   -5    3  -20   -5   63    1   24   -6   -4  -46   13    4   -8  -14  -42  -16   17   -4    7  -36   -3  -13   -5   55  -14    9   -9  -12   22  -30  -43   14    2    5  -40    1    6  -15   22    9  -22   -7   19  -38  -33   -1   -6   -7    7   -6   44    2   22  -16   10  -23   27  -29   18  -17   11  -38  -17  -18  -38   -3  -36  -13   -9   20   -8  -13   34   -4    2    7  -17   -5   -3   11    6   -9  -28   13  -12  -37   25  -14   20   33    2    1   -1    7  -10   34  -14  -21  -22   11   25  -13   45   10    4   16   -6   33  -10   18    2    7   19   -1  -19  -13   22  -33    7   14    9   14   20  -18  -33    8   11  -30  -23  -10  -53   16    6   25  -46   44  -12  -36    4   15   27   10   30   -6   12   11   14   27   -1   41  -43  -23   24  -18   -4   -4   13  -35   45  -19   -1    9   24   15   -9    1  -23   11   23   28   -9  -15   17   -3   10   -4   38   24   10   -2  -35   -1    7    3   -2   -4  -14   24  -25   27   21   18   -7   16  -28   -9  -10   34   29  -39   -1    5   10    0   11  -24  -11   -7   16  -28   -2  -41   21  -12   40  -41    1    8  -27   12  -21  -43  -17   13  -16    5  -28  -46  -37    7   10   -1    1  -24   -2  -40    0   -4    6    0   23  -24    0  -32  -27  -38   36    6   -9   -5  -11  -23    9  -29  -48  -13  -12   12   19  -18    8   -3    4    3   38  -37   10
   2   23  -14    8   -4    4    7   10   14  -30   21  -10   25  -15    8  -10  -11    6    1    9    9   -7  -29    4   31   -4    2    2   -5   -7    2    0   -9   -8   21   -5  -17   -2   -3    2   14   -6   21   20   35   -5  -31    9    1    7    7    0   29    3  -36    5  -22    4  -24  -13   -1   10   -4    6   28  -20   -2  -12    8    2   -8    1  -29    2   13    7    1   -7    7    5   35   -2  -26  -21   20   10    0  -16   12  -27    0   13  -11   11  -11    4   -1   15  -17   -7   12   -3   13   12    4    8   14   22  -11  -15   -8  -12    2  -15   -4    4    5   11    7   21   17  -15    1   -2   36   -2   17   -5   -5    4    0    5  -20   13   -7   12  -12    8    8   -2  -20   10  -10   10    1    4    7    7    4    1    1   -3  -19   20    4   25   12  -14  -18  -10   -7   -5  -14   16   -6   13  -17   -6    5  -27  -16  -24    4   10   29  -13    3   17   10  -21    3  -10    1    4   -5   11  -10   -1   -1   -3   -4   -6    6    3   12  -30   10   15   16   10    9  -20    5   -8   22   -1  -13   27  -29    9  -11    7   13  -12   -7  -18   23   12   -3   27   13  -17    4  -15  -19   -8    1  -20    3   -7  -13    1  -24   16   11   -5   25    3    4   20    0   -8   -5   24    2    8   -1   13   15   -3   -9  -14    0  -24    8  -24    6   21  -29   36   12   21  -12   -3   -4  -29   -4   10   -1  -12   18   -1   20   13    5  -14   23   12    8   -2   25  -23    0  -17   21   -2   13   -7   21  -17   12    6  -15   -8   -4    8   16   11  -18    8  -25   -9   -2   -5  -14  -16    7    3    4   36   10  -18   41    7  -33   20   14    6  -10   10   -5   14   21   17  -13  -12  -16  -15   -2  -10   -6  -11    4   -7  -33    3  -14   28  -10    0    5  -14  -12   15  -16   15   -2   13   -6   28   34    3  -16   12   35    5   20   12   11    3    5  -10   16    7  -34   25   16   -7  -32   -2    2   42   -2    5   -5   -3   -6  -16  -53    2   27   12   14  -22
  -8  -10    4   15    4  -18   26  -16  -37    0    8    4  -50   -9   19   -7   11   28  -25  -24   17   20    8    8  -54  -17   -6    0  -33    5  -27  -30   -4   11  -37   13   34    3  -19   -3  -26   24  -23   20  -29   29   -5   37  -14  -35  -33    0   -1   21  -31   18    2  -19    0   24   -8  -15   15   -4   12   -3  -29   -7   25   -8    0   -1   43   -2  -13    0   -9   -7  -15   18  -23   12   19   -9   35    0  -35    4  -14    0   29    4  -27   28  -13  -10    3  -15   35  -10   -1   -4   19   -2    7  -10   10  -10   42   11    8    7  -14  -20   23    0   27    4   11   -4   -7  -40    7    8    7  -25    2   -6    5   10    0  -12  -14  -20   -8   -1    5    6   19   29    9   13   19  -14  -14   21   -4   42    6   -1   17    2    3   27   27   13    2    3  -23  -14  -15   -9    7   14   13   -2    6   24   26   33    2   30    8  -16    6   -7   -1    8   25  -22    2   14   -9  -13   -9  -18  -21   11  -13   13  -37   33    8   14    8   22   11   15  -12   -5   16  -13    4   -5   -1  -14  -11    9  -25   20    8   11  -22   15   -8  -10    6   -1    3  -31  -18  -14    8  -10   45    0   -6  -16  -21   27    5    6   17  -20    7  -47   -2   11  -14   -3   10   -1   15    5   -7   -6  -21   15   33  -45  -37  -19  -13   18   13  -12    4  -14    7   28  -12  -23   13  -22   13    7  -31   -9    2  -26   18    7   -7  -20  -13   32   -1  -21    0   37   10   17   19   -9   27   10   12   26   -3  -10  -11  -58   27   39   -1   32   24  -35  -16   32  -30  -24   24   17  -24  -10    0    5   13  -34    3   35  -11    5    4    2   21  -13    3  -12   -5    2   -6   13   47  -13   13    8   23    6    4   12   -1    0   12    4   -6   10   23   25   55   30    0  -63   46   -9   16   17  -34  -14   -3   10  -17  -17   -5    9   11    8    3    6   15   32   32   10    1  -30   24  -27    1  -15   12    9   11  -15  -40   -2   -8    6    5   30    1  -30   37  -10
   5   -1   11  -34  -11  -11    3   11   38  -14   -1    1  -32   14   18    6  -15   -8   33  -13   42  -26  -14   13  -10    5   23   -4  -35   32   18  -11   24   -6  -42    3  -17    9   -7  -54   20   -9  -11  -14   28   31   -8    8   52   34  -10   43  -23    5   33   42  -33    9   11  -13   17   -5  -10   31   15  -26   -8  -13   21  -31  -12   12    0   11  -22  -42  -26    4  -20   31  -36  -11  -46   13    2   25   38  -26   -6   11   32   -3  -12    8    0  -45  -12    5   11  -36   -2  -17   32   -8    7    9   -6   -6   13    6   -4  -10  -32   28   -7    5  -10   -5  -17  -15   13   -3   11   41   15   12   16   24   -3    8   -6   -1    4   31  -45   -6  -12    5  -13   33   -3   15  -10    8    6   21   34  -16   17   -2    3   41   27   -2   36   19    8  -13    3   16   32   46   18   14  -10    9    1    2  -18   31  -32  -39    4    8  -29  -10   13   15   13   -8   32  -27   -5  -50   -3   44  -13   27   10   26   14    0   19   -8    7  -31   15   -5    3    4    2    0  -50   44   10    7    4   -2    8  -11    3  -38  -22   16   -5  -26   -4    6  -15   27  -25  -38    3    3   -6   22  -13   -6    3  -10   42   34  -25   16  -21    1  -10  -30   49    6  -14   14    6   25   25   31   16  -16  -29   36   -1  -14  -17  -21    9   37   33    2   10   -8  -60   21   12   21   -5   13   18  -11   -3  -25  -13    1   29   -7   18  -37   -7   29  -34    2    0   32  -23    0  -11    5   14   23   18    7  -10  -41   13  -19   23   21   -9    4   12  -19   -7  -28   26   21  -15    8   14  -18   25   14   31  -38    2  -20    4   23  -15  -24   -1   -1    7   28   25    6   38    5   -1   21   31   -4   14   31  -33    5   31   14   -3    8   24  -30  -35   14  -36  -10   19  -18    0   12   10    2   23  -47   14  -14   15   10    3  -32   14  -62   -8  -16    2   16   40  -21    2   16   20  -26  -13  -36   11  -26  -31  -10   13   31   -2   30  -21   20  -22    0
   0    2    2    3  -14    5  -11   -5    2    9   14   -8    4   -9  -22   -9   -4   17  -19   -6  -49    6   -3   17  -10   17    0  -15   -6    5  -36  -34    8    2  -29   13    4    6   -2    2   -8  -13   24   17   23   -4    3    8  -19    9   17    8   34   -4    0   47  -29    4   -5  -12  -14   -6   -6   -6    0  -11   18   16    9   -6   -2   -1   25  -10  -21   -6   14  -15   15   26  -31  -14    4  -18  -12   20   16   -8    1  -17   -4   13   -3  -29  -35   -7   12  -13   -9  -14   10   16   -7    2   -3   24   -9    9    3   28   10    4   -2    9   31   -4   10    0   12   37    4  -12    9    3    6   -7   38   -2  -13   11    3    5   -3   21    4  -31   -6   22  -35  -24    6   -6    2   11    0  -18    9   24   -5    0   -1    6   -1  -15   -1    9    6   -1    4    2   -7    2   -1   18   13  -14   12  -14    9  -21    3  -13  -10   24    7   10    3   22   -1  -21  -13    3    7  -23  -11    3  -12    1    6   -3    1  -23    5    1   -4   14   -2    4    1   13    1   34   -2  -35   14    4   -4    8   -7   17   -1    9   -1    0    0   23  -13   33   11   10   -2    4   -4  -30   -4   -9   36  -24    7  -17    2  -10    5   -3   15   13   24   -1  -15    5  -22  -10    2   18   15  -10   12   23   -7    7  -32    9   15  -20    5   15   21  -17    2  -23   -5   28   -9   12   24  -12    9   24   -5   -1    9    1  -15   43  -11    8  -22   -3   12   15   13   -6   -5    1   20   -7    1   -2  -16  -22  -30  -12   15   13  -12   11   -7   16  -11   16  -13    8   11   14    5   26   16   13   -4  -24    3   -4    5    5   25   -8   -3   17   26   27    7  -15   12    6   -1  -14   37    1    7    6   21   13   17   -9  -20   17  -15  -15    1    1    8   14    0    9    0  -14   15    0  -11    9    7  -24  -21   20   32  -29  -12   17  -17    6   14   -1   -1   -9   18  -10   27   26   -9  -10   40   -2    8   16   12    9   19   -5   24    5   21   12   10   12
   3   39   22  -13   18   23   23   19   44   -6   21   27   15  -14   11   24    2   13    8   -7   -6  -15    1    5    4    1  -17    1   -1   19  -18   11   -5  -32   13    2   12    2   14  -40   -6   -9  -30  -14   40  -35   20  -46   26   19   12  -16  -15   -9  -26   26   13   18  -10   -9  -33   -1   22   -3    0  -21  -31   11  -10  -24  -21    1    6  -12   -6  -46   15   -5    0  -12   -6    3    2   32   30  -20   11    5    7  -26  -44   -8   26   32   15   13   -8   -4  -10    6  -14   27    7   10    7    6    1   -1  -25    5    4  -13  -12   13    9   -2   25    3   12  -34    3   34   10   18    3   14    6  -11   15    9  -28   -4   12   40   27   28   -6    7    1    4   11   36    0    4   15   29    8   16    5    1   13   16    0   23  -26  -11    9   10   15   29    6   54   15   -4   21   13    3   30   22  -26  -11   -8   38   -7   21   -9   -5    3   -1   -9   26   12    1  -34    9   -6  -21  -29   -6   14  -12   -9   19   14    2  -11   -3    3  -21   -5   -1    8   63    0   -5    8   25    3   27   -6   20   13   12  -25  -16   11  -40    5  -22  -19   29   -3  -28    0   27    4   15   20   22   18    6   11    5   18   28  -44   36   19  -25    4    7   -3  -24   42  -13   -7   -7  -20   34   -4  -21   18   19   33   11  -31   17   25   22   27    0   -2   10   33  -30   -7   17   -6  -25   10    4   12  -17    6    2  -29   14   17   -6  -17  -20  -35  -28   -8    8   -2    2  -12   -1    1   13  -35   46   -2   10   42   -3   22   13   37    2  -32  -43    2    4    2    5    7   13    4  -12   -4    8   10   26  -32   -7    8   22   -4   -6  -16    0   21   21  -22  -26  -22    0   16   -2   -9  -47    8  -14    3   -1   -2   -8   34  -11   34    6   20  -10  -10   -1    8   -9   -2  -24   -1   12   -7    0   49   15  -18   -1    9   25  -31   -1    3    3   35   -6  -19  -15    1  -23   27  -11   -8   14  -10   -5   12   24  -26   18   -7   21   47
   1  -11    7    8  -24   42  -29   42   13  -26   -2   -3  -12  -25   29   46  -44   30   32   13  -21   -1  -10   42    9  -28  -25  -30   13   16  -21   33    8    4  -13  -21  -22   42   -1    1  -16   10    5  -10   41    3   -8    3   19  -25   -7   23   17   38   22   37   47    0   27  -41   -2  -31   -8   18  -20    7   -3   16  -58   14  -12   13    0   -9   19    2    5    1   -6    9    8   -2  -12  -17   15    3   24    2  -56   14  -22    6   41  -13   19  -19   -4   29  -43  -31   14    2  -18    4   54   29   -9  -11  -10    5   29    2   17   22   18   20   17   27  -10  -21    9   11  -38   -7   39   -2   33    3   -7   -1   31   27   14   60  -15  -36   19   44    1    5  -12    9   -1  -31   15   -1   -7   -9    6   -1    6   42   28   13   13   51    7   26   16  -34   31   12  -10  -13   -3   -5    6    6  -18    4  -20   -3   56  -12  -17   -9   26   51   44    8    3   20    5  -14   42   21    8   42   16   26   12  -31  -30   29  -14  -54   -9  -17  -22   23   -3   20   18   16  -27  -12   42   19   19  -10   -5    3  -13   19    4  -16  -26  -11  -14   16  -30  -44   -4    6   -2   40   42   11   15   42    8   13    1   19   41    7   10    5   10  -13   -9   27  -30    7    6   -5    6   53  -27  -21  -20    5  -11    9   25  -24   -6  -31    6   34  -33   55  -37   57   23  -18  -15  -23   28  -24  -17    3  -22   14   30   -1  -22   29  -42   -6  -27    1  -11   24    8    2   11   -6   29  -24   45    9    6   -4    6   22   27   -5   12   43   47   -1    3   45  -23  -27  -32   -7  -62   23  -20   -7   20  -11   -5   -1  -18  -12   11  -23   29   -2   24   23   12   -3  -12   19  -57    1   -3  -19   45  -50   42   20   -7   26    1  -40   12   38  -28   18    3  -10  -20  -39   15   -2    2  -25  -10   -6   -2    3   -8  -29    1  -21   17  -21   26    0   -7   13   26   28   -3   29  -14    6   -1    5  -10  -14   36  -21   -2   50  -37  -15    5   -7
  -3  -27  -11    9   12   -8  -12   -3  -20    4   -7    5    0   11    1   -1  -27  -25  -16    3   -8   19   -5   -2   -4   -8    6    0   10  -30  -11    8    0   28  -16    1   -1    6  -40   21  -24   23   26    4   -3   17   -2   10   -5  -34   11   -6    9   16   19   10   11    8  -12   -6   -7  -10    1   -7    9   23   28    1   -4    3   -5  -12    9   20  -31    8  -10   -3   -8    2  -23    6   17   -8    4    1   19  -11  -30   -9   -7   -4   11  -14   10  -14  -42   -2   -3  -34  -20    7    0    4    0    1   36  -13   -6   10   15   10  -11   20    8   37   16  -11  -23    4   -2   -5  -25  -16    5  -35   12   -6    4    6   -8  -17  -10   -2   32   -6   25   15  -19  -35    4  -22    5   27  -15    0  -18    7   29   -4    1    7   -6   18   -2   -6  -10    6   -1    8   26   -9  -25   -4   -1    4    2  -27  -10   -8   -4   22    6  -16   10   13   -9   -7   19    7  -11   12   -1  -37   17    7   -5   28   -3   30   -8    6   17   14    9    9   -8   -4  -10    9   -4   -9  -36   10  -11  -11   40    5   15  -21    9    9   -6   -6   15    2   -3  -14   -3  -17    8  -15   16   13  -42   -6   16   28  -30   -8  -12    6   -8   -9    5  -49  -22  -11    9  -18   22    8   -2   34  -20  -22   -8  -18    9   -6  -23   -2    6  -12   30  -10   11  -16    8    4   -2    4  -27  -29   31   -1   -2  -15  -20    1   11    4    0  -26   10   17  -12    2  -13   19   -3   23   14   22    3    7   15    1    2   29   10    5  -24   -8   -2    9  -12   32   -1  -25   12   -2    1    1   -3   21  -10   14  -22  -13    2  -15  -11    6   12  -16   19  -19   33   -2    2  -11   20   21  -14   -2    0    0   13   28    1   20   35    1  -15  -11    6    1   11    3   23  -16   13   20    4  -21  -20  -19    3   34   -8    1   30   27   -6   -3   11  -32   15    6    5  -30   10   21   -4   -5   -2    5   32  -45   -7   71    4    1   -2    9   36   21   10    4   25  -29  -21  -26
   2   -7    1   -4   18  -13  -27  -13   -6  -15    7   12  -20    0    2  -20  -27   10    3    1  -30   -2   12  -14  -16  -18   12  -31  -14    0    0  -26    3    9   12   23   -4   31  -10    1   -1   13   12   -2  -14    1   25  -28    2    3    8   16   16  -28   -3   14   -8   -6  -15   -4   24    7   19   -1   16    0   16   13    7    6   -8  -21    4   12    2  -15    8  -22   -5   25   11   24   -9  -33  -19   13  -10    3   14   15    9    8    2   10  -16    1  -29    0  -21  -19   -1  -17    9  -17   17  -20   10   17   25   18    4  -20    9    7   -7   10   13    6    7    9    2  -15   41  -11   -2   -2   -8   16   10    0   16   -5    4    2   30  -19   -7   -3    8   21    6  -21    8   12    8   -1   16   26   -3    2    2    1   -8    1   29  -18    3    2    8   -1   -6   14   19  -20   -5   18    3   21    5   -2   -6    6  -17   -9   13    0    5  -24   13   -1   -7    9    0   15    2  -18   14  -16    0   -3  -21   12   -4  -19    1   -1   11    4   13  -14    3   22  -20    7   11   10   18   12  -12   30  -15   10  -28   21    5   25   19  -17   23   -6    9    6   -6   -3  -25    9   -5   11   -6  -11   20   17   15  -21    2    3  -12    6   12   11   30    0   24  -11   -6    8   -4    1    4   -4  -11    4  -10   34   21  -11    6  -16  -10    5   -4   18  -33  -19  -10   24   13   23    2  -17   -2   -1   -1   32    3    8  -11    0    8    9  -31    4   -2  -14   20  -12    9   -7   -7  -13    0  -17   23   27   10  -22    0   13   -6  -15   13   -8  -12    7   -6    6  -10  -11   15  -15   14   18   -7   -5   -1  -13   10  -22  -11   20    1   -8   10    8   24    2   11   13   37  -22    3   21   29   24  -12    9   -3    6   18   19   -7    5   -4    0   17    8  -29    2   -4  -22   36  -19  -11  -22   35  -23    3   -5   11    9    1    4    8   -8   -1  -28  -16   12   17   26   11   19    7  -24  -31  -18   14    2   19  -15    8    7    4   35
  -6   -6  -13  -20  -18  -13    3    3  -16    3  -28  -37   37  -20   12  -27   22  -36   32   16  -14  -45   -7   25  -44    2   41   26    4   44   27    7   -6  -17   10  -19   -9  -15   19  -24   -6   -5   -9    2    3    0    1  -10   37   14  -37   27   31  -66   -2  -10   22   -2  -21  -25    2   -3  -42   25   41  -34   -1    8   25  -22   27   13   36    2  -24  -26   -8   57   34   -4  -39  -26   20   29    4  -11   -8  -22  -11   -3    1    8   33   -2   -3  -27   -5   -4    2   30  -25   41  -15   -3  -14   26  -13  -12  -43  -35  -32   29   29   -3   -4   12   12    4   -9   11   21   56  -12  -44    5   15  -15   -7   42    0  -20   18  -13   13    9  -33    6  -32  -17   -2  -22   28    6  -25   20  -16  -21  -50   11    2   14    4   -5  -11    6   -6   -1   -6   16   18   19   19   44   -2  -34   19   11    4  -28   36   18   27  -26   21  -25  -36    7   20   -9   -2    8   -4   -2   38  -13  -10   -3  -56   -3  -23   14  -33    8  -28   16  -11   32    3   18  -29   19  -15   -1    9   30   42   34   13   20  -32    8  -33   26   -6  -14   25    7   -4  -31   47  -11   16  -31  -27  -21  -19   24  -32   29  -23   27   -4  -25   -6   10   51   -4  -26  -20  -10  -24    0  -48    9    9   29   -6   27   -4   24    1   12   63    9  -17  -12   -2   18  -17  -21   10   21  -20   25  -20  -17   27   -4    0   21  -16   11   21   46  -15    2   -3   11   26   -6   12   -1    3    2  -10   16    2  -10  -12  -30   15   -2    7    3  -29    3   26    4   -7   16  -16   46   38  -41   21  -32    0  -44    4  -39  -28   18   -3    7   11   39  -18   10   40  -13   14    3   -6    4   16   19   -6    5   -5    4    0   11   -4   23    8   15   -3    5  -66  -18   14  -27   16  -29  -29   17   -5   26   11    7    6  -18  -36   28   -4   14  -10   17  -25  -16    6   60  -16  -15    2   46  -22    5   -9  -10  -16   -7  -31   20   45    2  -47  -10  -33  -16   29   -8   36    3
  -2   -1  -17   -4   -3   19  -25   -2   18    7    2    4   -6   -2   20   -1  -16   15   -6    8   -7   16    7   -1    1  -17    7  -33  -13  -34  -14   13    4    5   -6   25    5   15    1   13   -7  -13    0  -35    8   -3  -15  -20   12  -14    3    6  -21  -59  -16   10  -18   -4  -22   -5  -27   19  -26   31   -6  -16    1   26    6   -8   -2   23   -5   29   20   10  -16   -5  -26   -1  -21   -3   24    9   32   21   -1  -10   30  -12    3   34    5   15    0  -13  -11    7   14  -18   13   -5  -12   18    0   -9   36   -2    8  -11  -27  -30   16   31   16   15   14   21   -6   31   12    4   22  -22   26  -18  -11  -20   -5    7    6   17   10   22   33    0    3   45  -22   23  -37   23   -6   -1   29   17   13   -8   40   -1  -13   19    4   -6    5   47   -2  -27   -1    5    1   15   23    2   -7   -6   19   -8   12  -35   33    5  -11    2   15   23   25   20   -5   12   34    0    3    2    0    4  -29  -66   14   -6  -27   10   10   -9  -24    2    1   -3   33   14   13    2   11   -4    8  -13   -6    4   29    1    5   10   -1  -18    7   -6   -8    4   25  -19  -26  -25   -2  -15   28   -1   16   -4  -17   -4    2   -1   18  -41   12  -10   20   21  -20   13  -12   18  -21   34  -19   15    3    4   11   -2   -3    1   24  -48   11  -13   36  -11   -3   25  -15  -18   24   34   -3  -17   -6   58  -12  -21  -23    6   -6  -18  -26  -15    5   -4  -10  -15    8   35  -23   14  -12   21   41    3   -5    5    5   18   -5   31   -8   11   26   13  -40   14   58   17   10   17  -12    8  -23   22   18   12  -35   -5  -17   -6   11   -3    3    8    3   10   -9   -6   -5   12  -22   -3   18   11   -2    9    7    8  -19  -29   16   12   28    9    8  -22   -6    9  -18    3  -16   25   11  -15   39  -33    9  -24   39   -3  -40   17  -11  -16  -31   -2   -4    9  -11   22   41  -18   48   54    0   19   -6   41  -12  -16  -11  -38   -7   28  -20  -21   -4    7  -29  -21
