   5  -12   30   18   18   -1   73  -29   29    3   40   12    7    1    5    4   13  -29  -14  -27    7    6   13   19  -12  -41   23   -9    5   30    0   48
   4  -19   -1   41  -18  -25   32  -28  -16   52   10  -47    7    8  -48  -33   11    8  -26   41   10  -31  -19    7   20   27   -1   -8   71  -21   55    8
   1    4    2   29   -7   11    5  -16   -6   -9   14   -8  -32   -8    3    4   -6  -20   -4   -8    4    0  -11  -16  -43  -12  -13   -1   24    9   16   16
 -54   -5   42   11   -6    8  -48   16  -32  -19   36    8    6   20    3  -22  -58  -13   -2   62   51   26  -10   58  -17    3   17   -1    5  -69   11   19
  -3    1   45  -34  -60  -43   35  -15    0  -23  -10   35   14  -10  -13    2  -39 -112  -11  -26    9  -54  -71   -3   -2   37    7   27  -17   10  -45    3
  -3   21  -28    8   19    9   -8    5  -11   -5  -16    5   -1    5   26    6    8   22  -16    3   20   12    1   25   -1  -30  -13   -4   -6   -6   -9  -26
  16  -11   13   14  -19   45    4  -18  -13   27    8   -6   39  -21   -5  -11   19  -19  -33  -28   26    1   -4    0  -14   25   -4   11   10   -9   -7   24
 -26  -45  -27    4   37  -26   28   -9   -3    0   -3   32    4   45  -48  -31    5   -9  -15   13   28  -15   42  -15  -20   -3  -10   21    3   -2  -20   38
 -73    6   78  -10  -43    1  -30   18  -33  -32   36   87  -22   25   25   30  -66  -72  -10   30   43   22    5   46  -41   -1   22   25  -15  -58  -24   36
 -33    8  -14   43   50   29  -85  -33    1   71   20   62  -23   95   28  -58   15   16  -29  -44  -27  -33  -37    7   -6  -13   -2   21  -12   20   11  -23
  -7    8    4    3   31   11   -4   -2   -4  -11   14    7    3   19   13    6   27    8  -11   16  -28    9   10   27   -6  -11    4  -10  -18   -8  -10  -30
  88  -23   -3  -39    2  122  -16    2   35   -8  -32   14   27   35  -20  -33   33  -16   13   11  -16  -50   25   39  -26   -5   40   56   39  -60  -17    1
  31   36    2   14  -10   18  -20   16    4  -30  -16  -16  -14  -34   24    7  -11   28   20  -21  -13   -8  -24   11   16  -11   -7  -21   17    6   24   -2
  22    3   24   23   39    8   25  -22   30  -20   29   -1   18   16   38   15   20  -12    3   -1  -19   17   33  -10   12  -19  -18  -18    8  -10    1   22
  12  -46   18  -44  -46   35   11  -54    6    0   18   46   16  -13   54   17  -55   -6   -9   46    4   20  -19  -38  -30    5    4  -28   62   83   50   44
 -10   17  -52  -25   14    5  -48   24  -13  -16  -43   20  -20   36   16   11  -34    9  -26    2   80  -41  -11  -16  -21   16  -17    2   84   52   54   19
 -37   35  -22   45   25   41    2  -28   39  -39  -21    3   11  -45  -15   50   16   31    6   33  -11  -20  -51  -23   27    4   66   34   -1  -15   11   32
   5   57   23   10  -13   31   -7    2    7   25    0   -2   17    8  -29  -17  -15   22   34  -27   -4   20   16   13  -39   20  -23  -17  -19   31  -10   12
  42  -30  -18  -10   -7  -12   12  -10  -26   -2    0    7   18    7   18  -35    7    0  -22    3  -25  -27    4   -1   22  -30    3  -17   19    3   15  -27
 -28    7   15  -10    5  -29   -6  -17   11    5    2  -14  -46   30   19  -10    0   19   50   33  -23   17  -20   -4    3  -10    8   12   20  -13  -10    7
  19   -7   -9   16    5  -10   -1  -10   -2    3   13   30    0  -19  -10   -3   -9   -1    6    6    4   12   -4   17   -3   15   -1    2   35   15  -10  -14
  86  103   45   -2   50  -29   -7  -29   91  -86    0   -6   18    5  -95  -87  -51   31  -46   41   46  -72   25  -38  -49  -48    6   29  -32    6  -13  -17
  56    0   22  -26  -15   19   -8  -30   13    8  -24   30   16   26    9  -44   10  -14  -30   42   23   13   39   -2  -56   -7   44   46   50  -46  -27  -15
   5  -12   22   38   25    7  -11  -17   -9    2    3  -28  -19  -13   -8   24    6  -18    6   -3  -54  -13  -14    4  -35   -2   -8  -10  -21   -8   -6  -15
  40    1  -28    1    8  -15   56  -32   28   32  -31  -12   -7  -16    7    5   68   24   -3  -56  -10  -30    2  -48   16  -14  -14   -2    0   62  -12  -16
   7   -1  -13   -2  -12   -3  -24   -3   -2   -2   -6   11    0    3  -24   14    3    2    2    3  -10  -10   -9    2   -9    0    7  -13   21    3   -7   -2
  15  -10    7  -13  -31  -13    0   -8   74   42   22   48   53    2   10  -12   11  -17   16   18  -13   29    4   37   61  -14   64  -71  -41    3  -43   15
  25   37    7    5   -4   52    3    0   35  -11   -7   22   21   20  -50   -1  -33   26    1   18   -5  -47   14   -3  -17  -15   10    1  -32   -4    6  -13
 -22  -25   45  -21   -8    4  -23   25   -9  -20   53   30  -10    5   26    0  -75  -62   -3   17   12   -5   -4   28  -28   -6   21   25  -26  -11  -10   32
 -39  -17   37   -1   41   28   29   26    6    3   -4   13   -5   22   73  -25   42    5  -17    7   14    9   21   -8    2   -9  -14   30  -48   12   38  -29
  -9   46  -32  -10   44  -17    4   66  -39   11   37    4   27   12  -25  -14    7  -14   63  -40  -17   27   44  -15   -5  -37   -8  -16  -18   57  -22   12
 -28   -5    4    3    6  -27   14  -14  -34   23    6  -28   10  -55   10    8   47  -22  -27   -9   39   56   17  -10   -5   15    3  -19   23   -8   -7   16
 -12  -19   18  -10  -20    9   81  -32   -9  -20   48  -21  -16   -9  -55  -47  -26  -54  -18    3   56   12  -40   -7    3   21  -24   62   47   10  -24   51
  -9  -26   35   -6   35   39   53  -30    2    5   18   11  -18   -3   53   -8    2   14  -47   12   60   58   20   12  -13  -25    5   26    0   44   28  -25
   7  -28   41  -27   43  -22  -29   24    2   37   -4   32   10   20  -23   10   21  -11    8   29   14  -26  -15  -22   13   61  -11    2    3   22   20  -12
  14  -20   11    4   -4  -21  -11    6  -11    8  -23   -4   17    1  -37   13  -30    6   13    1  -11   -4    5   -4   15   16  -19    8   16  -11  -19    2
  13   -3    9   15   13    1   22   -1  -11  -11   28   10   -7  -25    5   -5  -19   -7   -2    3   -7   12    6   -6   -2   10   -6   -8   15   12    6   13
 -39  -14   -7   -4    0   -9  -49  -28  -13   35   25   -5    8  -27   13   21  -13   43  -11  -24  -13  -30    5    3   34    3  -31   -1  -49   -1   15   -4
 -20   -6   26   19   22   14   -3    1  -16  -12   -8  -14    6   -6    3  -11  -11    4   -2   -7  -13    2  -10    2   -9  -30  -30   31   11  -24   17    5
  -3   26  -35    5   -8    8   -1    5    6  -15  -32   10   -5    5   37  -28  -16    4  -13  -11   37   32    5    0   16  -13   -4   25  -27  -13   37   17
  17   23  -56   15  -28    4  -50  -29   28    6   30  -17    3   20   -3   55  -47   -5  -12  -15   -4  -13  -35   34  -45  -30   11  -51   76   16  -30    0
  -5   15  -14  -45   17   28  -44   11   38    4   16  -63    2  -14  -11    7   -9   11   27  -42   -3  -46    2   -1  -16  -19   24  -13  -17   16   17   30
 -16  -12  -11  -15   -1   -6  -23   -4   10   21   -7   -9    7   17  -13   -3    3    8   -2   -4  -10  -18    9   -8  -13   -1   14    8  -16   -9    0    2
  26   10  -11    0    6   -5  -22   12    2   37  -12  -23    4    6  -16    5   -3   46  -15   -7  -16   30    8   12   -5  -38  -12   13  -27  -28   35  -18
  -1   32  -47    6    9   29   -8   13  -16    8  -19    0  -44  -17   42  -41   27   25  -28   16   19   24   -9   -8  -27   10   11   -1  -53   -7   16  -44
   3  -62  -23  -31    5  -44   -5   -8    7  -13    7  -17  -21   22   17   -1   10  -21   -9   16  -13  -21  -23   23   28  -36    5   19    9  -23   -1  -14
  29   21   19   14   15   10  -28   20   14  -22   -5    8  -20  -17    7    1    6   -3    9  -21  -19   16  -35  -18    4  -18    0  -29   11   -6   -3   20
 -15  -18    3  -10   -7  -26    7   12  -32   12    1  -31   29  -35    7    5   26  -13  -29  -24   27   37   -6   -6   -1   13  -10   24   10    5    6   31
  -9   10  -13  -12    8   -3  -14    7    6   13   -3  -13    7   13  -14    7   10    0    5   10    1    3   19    3  -17   -6    6    0  -12   -6   -5   -9
  35   56   15   18   -3   33   24    7   45  -31   -8   27    3   19  -70  -16  -48   31   -5   15   17  -67   20  -22  -28  -14   -4   -9  -50    7    0  -19
 -17  -10    9   -1  -25   10  -34   32  -19   -5   41   22   18    2    1  -30  -42    1  -26   52   30   16   -6   39   12    2    6   13    7  -32   37   48
  16  -32   40   15  -14   -4    3    0    1   -1   36   21   -6  -11  -37   20   -2   16    6  -14  -25    0   -7    6  -23  -21   16   11   41   17   -2    5
 -25  -14    6  -15    9   -6   24   17   -5  -10  -30  -56    4    0  -24   19   -4    6  -14    4   17    0   24   11    3  -11   16  -11  -38   -5   -8    1
  77   33  -60  -23  -59  -25   37    8  -56  -18   33  -84   45    4   77   65  -35   10   31   52  -21  -29   65   -8   13   87   26   17  -27  -25  -31  -38
  13  -10  -16    4   -3  -10  -19   -5    5    7  -24    2   10    1  -17   11  -29    3   10   -3   -1    8  -12    5   -2  -11   -4    0   15   -9   -6    8
   4   -6   -3    1   -6   -8   25   -1  -16   -5    2   25   -7  -21   -6  -13  -14   -1    1   10    7   19    2   -7    0   23  -15   -2   17   14    8   10
  -6  -19  -24   25  -12    1   12   28    2    6   30   26  -13   18   44   31   -5   -3  -40   14   32  -22    9  -19   -2    4   -9  -15    3    7  -37   31
  -3   22  -70  -23  -16   -1  -68    9    7   -6  -53    1   17   15    0   20  -18   28    5   -5   46    5   -8  -16    1   -6  -12  -12   17  -17   15  -12
 -11    1   -3  -16   14  -16   26  -14  -16   -1   12  -33   -4   25   18   16  -15   -3    3   -4   10    3   20   26   10   31   -5    6  -30    9   16    5
 -25   51   16   35  -27   71   12    5  -11   -1   -9    2   27  -33  -57    1  -19  -28   -9  -22    7  -24   -1  -24  -10   52   -5  -19    1   -3    9   31
  -8   -5  -12   -9    8  -13  -11   13    0    9   -9    3   -1   20  -28   13   20   -9    5   10   -4  -10   13    1   -9    1    1   -4   -4   -7   -5    1
  -2   18  -47  -36  -46  -12  -28   20   37   12  -11   43   17   25   -5  -22  -13   38  -22  -13   77   34   -3   13   73   -4   37   -1    5  -13   -6   29
   5   16    8    0   -5   31  -31   16  -19   40   -4  -21   55  -22   10   -3   37  -16  -11  -29    7   41   13   13  -35   38    3   15   15   12  -13   37
  20  -32  -10  -25    7  -12  -10  -13   12  -31   -6    2  -32   13   -1  -15   11  -13    5   10   -5  -26    2   -3   12  -24   17    3   12  -27    7  -18
  56   -8   31   -1  -28   -1  -15 -104   84  -55  -33   50    3   21  -38  -72  -18   38  -31   28   25  -24   49  -12  -46   34   -6   47  -18  -19   -5   -9
 -11  -12   -9   -5  -24   -3   -1   -1   -5    1  -16   30    6   23    3   10   13    6   -7   12  -19   13   27  -27  -13   12    1   -6  -11   -7    3    5
  -3   36   24   13  -17   54   -4   13  -10   38   -1   -6   24  -14  -15    3   10    2    9  -18   11   25   25   -9  -22   34    0   -6   11   13   -7   35
   1  -23   31   -1    3  -16    8    3   -7    2    8   11   15    8   -9   20    0   -7   -3    8  -17   -8    2   -5    3    6   -9  -10    0    3    3   25
  13  -48   40  -58  -32  -28   47   22   17   -9   24  -34   24   33    6   24  -70  -12    9  -24  -34  -23    0  -35   -7   95   24   72    8   21   40   41
 -93  -78  -18   16  -21  -41   34   12    1   39  -24   58   -2   19  -61   -4   21   11    2   17   25   51   40  -14  -50    7    8  -17   -5   17    6  -18
   4   25    7   20   -7   43   -7   -7   -2    6  -15   12   39  -21  -19    6   10    0  -15   -6   10  -15    0   -8   -7   22   21    2   -4    0    0    2
 -38  -17  -22   32   13  -73   27  -26    2  -68  -15   27  -19  -33   22   39    0   -3  -47   39   -4  -25  -58  -41   53   -9   39   -5   -3  -24   15  -16
 -28  -36   -8   17  -43   79   12   13    3   33   49   -9 -112   -9    2    7   27    8   38  -87   -2  -41   43   46   50    8    8   14   33  -30   -9   21
  12  -17  -40   31   15   17  -75   -8   -5  -16    9  -24   -6   69  -41   11  -12  -26  -16    1  -66   93    7   -7   93   15  -69    0  -60   18  -10  -14
  -6   46   25    2  -56  -81  -15   22   27   50  -36   37   34   50   43   75   52   38   17   17  -12  -51  -41   56  -64   -1  -29    7  -51  -47   19  -14
  -9    3   -2    4    7    1   40   -4   -1   -7   18   17   -1  -14   15  -19   -3  -11   -2   -4    8   15   15    2    2    6   -9    1    5    9    6    7
   6    2  -23    2    5   19   -9   -2   -3    2   -5  -15    5    6   12   10   -6   16   -8    3   -4   16    6   18   -1  -15    4    7  -30  -21   -8   -5
 -36  -33  -25    3   -2  -28   25   16    3    6    0   -6   -3   -3  -47   13   -5   -5  -16   11   21   12   21   -7  -26    3   -2  -23    4   19   -9    2
   3  -11    6  -15   -2  -14  -33   14   18   11  -28   -1    1   -4  -41   -3   12  -21   26    6  -26  -17   -9  -31  -29   10    7  -24  -20  -14    5   -7
   7  -44  -35   -5  -14  -25  -22   18  -11  -11   31   -6  -21  -18   20   -9   23  -34   -1    7  -18   23    5  -13   28  -32   23   36   60   -1    0   28
  22   25   -6   24   12  100   26   18   29  -30  -25   22   32    2  -54   24  -16   -7    9    4   -3  -50   -7   19    0   21   13  -11  -32    8   12    3
 -12   27  -26  -12    3   23    2   19   15  -26  -17  -72   -6  -32  -13    3    5    1   16  -14   -6   16   -3    1   -9  -31   -2  -11  -33  -38  -17  -15
 -44    9   42   -1   34   25  -24   31   10    5   26   -5    2   22   11  -34  -49  -55  -28   59   27   11  -29   49  -26  -10  -17   38    7  -14   15   25
  51   61   28  -10   68 -128  -78  -16   39  -61  -14  -67   70  -53    1  -55   32  -14  -83   17   46   35  -11  -20  -47  -35   14   46   19   17  -11   22
  12  -11   61  -14   37  -18   68  -34   38    0   93  -20    9  -31  -16    2   -3   -6   -2  -25  -36   -6    7   68    0  -17   49  -23   -3   44  -27   32
   3  -31   -9   27  -25  -10   34  -17  -31  -23  -12   26   20   -2   -8    8    3    4  -33   -9   23  -31   -9  -32    5  -26   40    2   -2  -24    8    6
  -5   26  -41   -9  -11    3  -21   16  -18   -7  -35   11  -16   -5   13  -26   -2    2  -15   21   30   -4  -12   -8    1   19  -18    1    6   -2    8  -13
  27   35    6    6   -9    6  -11  -23  -18    0   21   24   -2    3   76  -10  -10  -11  -17    6  -13  -40    5   -5   19   25  -12   11   22   -6   10   16
 -45   13   21   16   22   13   24  -21   11  -56   57  -18   -1   14   13   -2   76  -52    6    3  -23  -22   34    0  -29    7   13  -41   -3   25  -17  -18
  16  -21  -12   21  -20    9   12   -1  -19   -6    9   37   24  -15   -3    2   -4  -24  -47  -29   16  -31    2   -8   15   -6   -1   -7  -20  -11    9  -21
   3   36   -5  -33  -16   -3   46  -11   19   13  -41   32  -35  -22   20   16   35  -29    6  -45   45  -38  -37  -52   -8   21  -25   36    0   45  -74  -10
  -5  -15   28  -14   25   -1   13  -13  -17   19    1   13   -2  -13   16  -18  -19    4   10    4    2  -12   16   15   16   11    4   22    5   25   23    6
   4  -11   -1  -20   31  -44  -41    9   -9   -8  -22  -35   50  -27   22    2   57  -26  -36   -9   13   51   -2   -6  -21   -7   23   33   29   -1    6   34
  45  -23  -22  -33   39   28   -6  -17   52  -64  -16  -17  -33   21   16  -17   24  -14   32   55  -30  -19  -39   18   18  -34   44   64   55  -57   -5    9
 -26   29  -55  -37   -8    2  -27   41  -29  -38  -51   11    1   28   11    9  -45   57    8  -34   90   -9  -11   -5   14   16  -48   67   68   -3   61  -16
 -17  -11   13    5  -47   -9    5    4   16   -9    3    0  -19    4  -51  -11  -13  -28    7  -19   25  -45  -23   14  -23   -7   19   11   35   55   19   45
 -22   20   22    9  -46   16  -19   11  -36  -25  -12    2  -38  -50  -16   31  -12   -1   -2   -4   -4  -47    2   -8   24  -22   -3  -82   52   49  -17   29
   5    0  -35    9   -6   -4   28    5   -5  -10    4   12    0   -2   -9    0  -14   -6  -10   -2   25    8    1    1  -14    4  -21    4   17   -3    8    3
  25   -6   -4   -6   24  -20  -49   10    2    2  -19  -27   43  -20   35   -4   54  -27  -23  -16    0   47  -11    7  -21    6   22   38   36   -1   -3   40
  34   26   25   16    8   20  -31    0   -6  -15    6   21  -12    3   32  -14    3   -1   17  -13  -13  -30  -25  -13   39   -1   -6   10   10   -1    6    8
  -1   22  -37  -41  -20   16   14   27    7  -42   72   12   14   31   10   46   79   43  -51   13  -22   -7    4   -4   -7  -15  -13  -33   11   28  -27  -11
   1    1    7  -16   -3   -3    6    8   -8  -16   18   22    1  -13    1   -3   46   -6   -4   25  -37  -24    3   -9   -7   22    2  -28  -13   21  -10   -1
  -6   -5   19  -37  -31  -15   42  -22   -5   -8    9  -10    0  -35   -9   16  -31   -8    6   23   13  -16   22    7   -9   32   12    7   38   33   13   41
  25  -41  -26  -33   26  -13    4    7   35  -52   -3   -6  -67   28   14  -11    4  -12   22   29  -20  -21  -21   -2   27  -38   16   11   22  -33   11   -6
  22   38  -17    3   -4    7  -26    3   54   45    4    9   -9  -13  -19   36    5  -32  -22   36  -23   26   29   24   11   14  -54   15   10  -21   29  -10
  32  -12   21   23   13    1   -3  -20   22   14   20   -8  -11   18    8    9   46  -60   -4   21    4   -4  -10  -18  -10   17   28  -55  -53   20  -12   19
  10   13   34   33  -31   -2    2    1  -24   27   22   55   -2    9   50  -22   -3   -5   -2  -16   -4  -33  -17  -23   22   -1  -10   42    8  -15    6   10
  38   27   14    8  -18   80   20  -35   21   14    6   21   33   12  -48  -23   -5    6  -11   30   24  -35    9   -6  -23   11   17   42   10  -26  -25  -20
  16   12  -34   -4   45   14  -30   16    8    4  -19    1   23   22   52   23   27   17   21   -3    0   -5   20    3  -16  -49   -1  -22  -50  -32   28  -16
 -19   -3  -30   19    1  -26    3    3   -7    1  -12    9  -13   15  -35   11    8   17  -20  -19   -3    9   34    3  -14    7   13    6  -10  -26  -24    7
  39  -18   15   12   16   -8  -15  -13   -3   19   22    5  -22  -20  -19    6   21  -24    4   24  -18  -21  -10    0  -24    7   17  -24    0   15  -11    8
  12  -15   37   16    8   -1  -16   36    4    3   13   19   -2    6    4  -25    4   20    9  -35  -15   32  -21  -20   22   -1   -2   19  -20    7   36   -4
  36   26  -39    3   23  -14   95 -101    7   74  -38    2  -34   -6    9    3  127   20    0  -77   44  -43   -5  -71   29  -21  -17    0    7   51  -54  -66
  23  -10    2   -1   -2   13  -32    5  -14    5   11    5    3   30    9   18   -1    6   -2   12   -3  -11   -2  -24   12    7   -9   -2    1   13    1    8
 -18   -3  -34   21    4   37    9   12   27   -7    7  -22    3    8   30  -13  -39    8  -19   13  -21   32  -21   21  -16  -15  -21    4    5    7  -12  -37
 -11  -11   11  -33  -13  -15  -21  -38    6   46   17  -30  -14   20   29   -3   35   16   19   -4   -8  -13  -13  -18    0  -34   10    7   -1  -26    5  -20
  45   78   39   -4   12   13  -20   -2   18  -14  -10  -45  -24  -74   34   19  -25    7    5  -32  -21  -23  -78   51   35  -25   10  -35   20   -2   19  -15
  -1   10   16   -5   12   -2    5   23    8  -11   11   33  -22   25   14   -4   -5   15    0  -12   11   12    7  -24   15   -8  -34    7   23    2   24   10
  -5   14   -8   15   -5   11  -20   -2    0   -8   -8  -20   -1  -15   38   22    2   14   -7  -11  -15   -5   -7    3   -3  -36    8  -46  -20   -1    5    6
   7  -34  -23  -22   17  -41   16    5   14  -42    6  -10  -71   18   14   -6   -6   -4   23   26  -11  -16  -16  -13   27  -22    1    2   11  -25   10  -17
 -16   63   14   40  -10   67    0  -34   -1  -23  -21  -10  -22  -26  -47   25   22   19  -19  -24   27   -6  -21   -9   -9   29   33   24   16  -22    8  -15
   7   -5  -17   12   -7    8    9   -6  -31    1    2   45   14  -18   16  -17  -16   17  -18   20   -9   21   13    8   -8   27  -21   24   26  -16  -21  -23
 -17   16   51  -53   -4   -4  -15   -1  -10  -18   22   43  -28   -1    0   30  -24  -67    9   -5   21  -28  -26   13  -26   35    6   50  -17   12  -67   19
   0   29  -27   -3   10   15    0   32   -2  -34   11  -23  -13   -1   66  -30   74   -4   -6   15    3  -14  -11   -2   -9   34    3   -9  -70   12   31  -38
 -19  -21   -7   41  -19   26   -5  -24  -82  -34   14  -43  -38  -52   15   31  -14   22   12   20  -38  -39   16  -48  -95    9  -68   73   65    7   36  -45
 -20   12   13  -32   -2    2  -24   -6  -19  -35    1   37   -9    0    3   31  -27  -39   28  -20   14    9    1   12  -18   -3   13   32  -31    3  -48  -19
  -8  -10    8   19   12   14   12    8  -46  -25  -10  -24  -30   -4   -8   16    8  -21  -17   18  -40  -10    2  -38  -61    6  -47   18   20    7   23  -14
 -17    9   24   24   -9   16    9  -34   27    8   26  -32  -51  -17  -45    4   30   -2  -19  -37   33   12   22  -15   18    3   38  -14  -28  -18   -6    8
  -7   -9   -8    1  -17   45   49  -15   -7    9    6   18   14   10  -51  -10  -22   17   18   22   19  -31    9    4   -8   22  -10   30  -18   -3   -6  -16
  -3   -4  -13   -2   15    8   52   44   21  -14    4   11   25   38   60  -19  -31    8  -11   -9  -19  -14  -10   32  -40  -42    1   26   20   40    7   46
 -48  -19   -2   -4  -11    3  -59  -25   -2   23   20  -24   14  -26   16    1   -8   45  -25  -16   -4  -57   -7    9    8    6   14    6  -36    8  -11  -23
  21   33  -54   -6  -11   17   26    6    3  -26   10   25  -20  -12   24    6   25   12  -13  -10   57   25    5  -10  -17  -16   -2   16   30   19   19   12
  22   26    2    9   -9   -5   23   21    6   -7   20   14  -21   -4  -27    0   13   -4   -9   26   -2    6   19   14   14    4   -5  -10   58   17   24   27
  12   12    1  -13  -12  -16   -1    2  -16   -7   11   -4    0   -5  -10   13   30   13   -8    1    5  -17  -13  -13    7   24   -3  -25   21   -5  -11  -30
 -10   -6   13   12    0    7   31    5   19    4    5    5   -6   -8   20   -6   14   -5  -10  -10   12    9    4  -12   -7   -9    7   -7  -11    1    4   -5
  30  -17   18  -23  -23  -40    0   -1   -7   13   -1   -4   19   21   -9   -4  -31   -6  -15   23   -6  -30  -11    5  -14   63    4   28   49   54   26   19
 -22   15   -8   18   15   14   -3  -13   16  -11   -4    3   10  -18   -5   26    6   15    6   24   -4   -4  -30   -9   12    9   12   12   -6   -2   -4   14
  29  -36    4   28  -20  -13    1  -20   38   35  -29  -14    8  -10    5   11  -57  -36   28  -20  -29    8   -4  -22  -20  -10   26    1  -20  -31    9   32
  12   -2    3  -42  -16   -5   20    0  -11  -14    5   66  -10   -9    1   43   -6   -1   36  -40   22  -36  -16   -4  -11  -26   -1   33   18   37  -89   12
 -37  -35  -12   -4  -22    4  -41  -24   -2   14   28  -33   -6  -23    5    2   -2   21  -31  -47   -4  -73  -10   -2   23  -19    2   19  -22    5    7   -7
 -27   29  -15  -20  -62    0   25   15   10  -59    2   -2    2   33  -24  -10  -24    9  -25  -33    3    1   -9    7   21   -9    3   19   72   23   -6   26
 -34   17   51  -20  -19    2  -50  -28  -43   -9   47   48   -5  -16    0   -2  -65  -77    6   23   45   19   23   18   -8    5   22   16   -3  -36  -57  -46
   8   32   13  -11  -40    1  -25   -6    0   12    9  -34  -15  -18    1  -10    3  -18    9    2  -10    5  -14   -6   11   -6  -11   -8  -14   16    8  -18
 -22   34  -54   20  -14   34  -28  -28   19  -21   -1   -2  -11   -9   51   19  -13   14  -28    7   -4   -5    9   26  -38  -83   -6  -48    1   20   -6   28
 -16  -49  -31   15   22  -45   20   13   -2  -42    9   21  -11  -13   22   23   -6  -24  -44    7   -5  -17  -23   -6   42   -9  -11   -3   -6    4   19   14
 -42   30  -52  -24  -39   -9   32   25  -29  -68  -39  -21  -34  -16  -39  -26  -74   27  -13  -59   52  -13  -30   32  -34    2  -24   88   77   36   62   20
   9    6   -7   20   16    2   68  -39   35   63  -39  -15  -25  -13   23  -15   60  -10  -22  -34   53  -22  -13  -43   18  -15  -15   20   12   38    0  -11
 -18  -15  -10   -6    2  -14  -26  -15    3    5   -4   -8   -6    5   -4    2    6   12   -7  -18    1  -31    4   11   -5   -5    5   -3  -24   -4    0   -4
  -3   22  -12  -38   -7  -18   29    9    6    8   -2  -13   29   13   25  -19    4  -14  -16   35   19   -2   22   12   49   29    8  -12  -29  -10   -3   32
 -23  -26  -22   10  -17    7  -24   -9   17   11    5    0   -5   -4  -31    3   -6    3    4    5    3   20  -21   -7  -28   -6   15  -25   22   20  -20  -35
  10   -7  -15   15   -4    4  -20    2   21    2   18   39    8   -5  -27   -8    6   -3   -9    2   -6   23  -18   25    7  -12   17  -21   37    9  -40  -39
 -25  -14   -7  -21    9  -37   47   28   -3   -4  -17  -30   14  -39  -29    6  -26  -17   -6   17    9   41   -7   26  -20    4  -15  -38    6    9    2   -9
 -30  -25  -12  -16   -3  -60   23   17  -10  -16   10  -25  -66   -1    4   23  -16    0   25    5   -3   14    0  -18   28    5  -13  -39  -13   13    5    0
   2    2  -14   11  -15   -7   35  -78  -35    0  -29   -6   -9   -1  -61   31  -13  -77  -16  -24   49   13  -26  -13   26   14   30   15   -7  -13   53  -16
  -7   29  -28   -7  -43   -4  -27   23    3  -13  -29   14    2   18  -19  -11   -1    0   -7  -27   14    1  -19  -18    5   10   -3   17   -8  -20   28   16
 -70  -79  -30  -61   30  -77  -47   45  -72   51  -10  -60   28  -42  127   50   97  -72  -26  -52  -52  110  -55   60   21    8   33   -4   81   18   17   51
 -42  -53    9   -7   -1  -11   73   -7   -6    4    9   29    5    6  -43    9   -4    6  -10   -7   38   42   37   11  -12   -4   -1   34   -1    6   13   21
 -13   -2  -12   25  -21  -16   12   48   -6   -7  -19  -30  -12  -16  -43   -8   21  -14   27  -20   10   -5   21  -16    0  -20   19   -3  -13  -38  -24    1
  -8   -5   -4   -5    8  -28   17  -16   28  -20    9   11  -79   37    8   -5  -20   22   44   39  -26  -14  -21  -13   29  -25    8   -2    7  -12    0  -22
  18   44   23   28  -11   21  -44   23    3  -41  -53  -17  -22  -49   38   18   13   33   12    1  -26  -11    1   16   33  -17   23  -58    8   25   11  -37
  25   26   -3    2  -10  -31  -48    7   17    4  -27  -20   12    2    6   33   12   -6   24   15  -49  -33    8   21   -8    9   34  -52  -20   -1   -1  -20
   8   -3   -6    3   -5    4  -16   21   12    6  -19   -6   -1    5  -13   -7  -13  -12   -1   -2  -43   -7  -11  -13   -3   24    9    0    2    7  -13  -22
  38    1    6  -16   11   58  -39   14   -3    1  -26  -21   49  -16   12  -18   59  -41   -5  -23    7   29    2   16  -29    9   23   44   53  -13  -11   45
   9  -40   66   62   15    0   15  -45    3   12   34  -11  -23   -3    4   18   24  -41   -1    7  -70  -11   16  -12  -52  -25   18   -3  -21   20    2   26
  20  -19   21    1   -3    2  -34   13   14    4   10   37   -2   18  -40   -1    4   15   10  -32  -18   27  -37  -17   10   -8    8   18    9   10   19   -3
 -16  -27   -9  -37   15    8  -15  -41  -11   11  -24   40   23   15   11   21  -12   17   -4   39  -20   17   40   21  -17  -14    9   -4   13   63   47  -15
 -41  -11   19   36    9   15  -69   37  -34  -17   63   30    9   25    1  -17  -58  -20  -33   94   39   27    1   62   -8   17    2    3   23  -78   48   12
  52    3  -38    1   12  -17   81  -37   32   42  -43  -26  -10   -7    9   10   97   36   12  -72   -5  -44   -2  -58   14  -18  -28   -1    5   78  -17  -16
  -1   14  -10   36   14    9   59 -101   -8   24  -25    3  -43  -27   15   29   58   15  -11  -53   60   23   16  -40   13  -18   12  -18   24   -6   -2  -50
   5   -9   40  -27   24  -33  -61   15   -4   28  -13    3    7   18  -33    9   21    8   25    9   -6  -37  -38  -15   18   16   -4  -10   -1    9   17  -20
  21  -31   38    6   50    2  -11  -33   31   27   34   19   -5   21   40   27   14  -23  -27   38  -32  -28   16   18  -31  -12   28  -44  -34   70   -1   49
 -31    3   -4  -18  -21    2  -21  -12   21   14   -1   -9  -14    8  -23   -3   13  -10  -19  -23  -19  -42    1    3    2   -4   22   19  -14  -26    9  -19
   6   -4  -52   38  -23    4  -29  -36    3   23   20   33   10   40   12   46   32  -18    0    9   28  -12    6  -19  -21  -17  -14    3   -1  -18   13   -7
   3  -32  -17  -14  -22  -34  -32  -16  -13  -12   11  -19  -21   -3    8   -3    4  -14  -23  -41    4  -15    2    9    3  -24  -12  -13  -10   -9    0  -28
   7   -2   -1   -9  -22   33   15   -7    1  -11   21   15  -41   31  -31  -14  -50   14   43   36  -11  -56   -3   26   25  -22  -29  -20  -26  -10  -10  -69
  16   17  -14  -38    3    8   38  -37   -1   19   -5   40  -19  -12   20   24   36  -31   32  -56   12  -23    3  -39   15  -10  -10   20  -12   66  -58  -42
  -1   20   29   27  -11   12  -11   17  -16   -1    1    3  -23  -14   35   -4  -15   -5   10  -29   -4    7  -22   -3   33    5  -16  -29  -10   17   15  -11
  56  -49   23   -1  -30   -4    8  -28  -30  -10  -14   14  -20  -16    7  -52    5  -14  -25  -35   65    5   61    6  -20    2    1  -11   35  -39  -10  -45
 -39    1   32   44  -20    8  -32   24  -20   17   48  -38    0   24  -14  -36  -58   -4  -46   94   36   12  -20   55  -11    9    1    6   57  -56   63   35
 -35   20    8  -13    1   -1  -59    4  -13    2   14  -39  -33   11  -20   24  -12   28    8  -20  -19  -15    4  -10    4  -36   18   -1  -17   34    0   13
 -15    4   15   10  -21   -1   33  -31    2   33  -20   47  -22   21   33   27    8   26   12   14  -12    6  -20   12  -21   51  -10   13   12  -37   17   33
  55  -26    9  -16  -33   44   -6   49    4   -2   -5    9   22   22  -20  -27  -11   -9    3  -32    7  -13   62    1  -38  -10  -30  -27  -16   -4   10   10
 -10    3   22    0  -24  -10  -35   -6   -8   -1   15  -38    4  -22   -7   -2   -1   27   -7  -16   -2  -14  -26   -8   13   11   43    5  -11   -3   -7  -37
 -47   -4   33   -9  -18   17  -63   22  -47  -37   39   30   -6   10    7   -8  -67  -36  -15   56   37   24    6   33  -29   11   16   16    7  -64    3   -1
 -41   17   16  -26  -14   18  -56   36  -39  -58   22   42   -1  -15   -1    0  -64  -30   -3   31   -4   19   -6   40  -20  -11   -6   21  -10  -16  -11    0
 -32   62   11    1    0  -22  -13  -14  -10   25    2   -5  -23   21   11   25   -2   12   54   34  -48   28  -39  -21   21  -14   37   -9    1   15   11  -10
   2    5  -17   -7  -10    2   -5    1    5   -1   -6    2   -4    9    2    1   -2    0   -4    2   23    5   -3   -4    7    2    2   -9   -1   10    2   10
  -5   26   -8   -6    0    5   15   -2   -7  -20   -3  -24   -3   14   27    6   11  -11   -3    5   -6  -17   19   -1   -1   22   -5   -8  -14  -10   -8   -7
  28   -9   -4  -12    8   -6   -1   -2   -5    5   21    7  -11    7   -4    8  -11   -5   22   14   -1   14   10   -2   -5    9   -3   14   10   12   -3   16
 -24  -28  -60  -39   30    0   13   10   40  -23  -12  -65   -2    1  -73   40  -13   -6    0    1   11   18   18   26  -50  -15   15  -41   -6   24    6   33
   3    5   35    2   -3   -8   27  -21    7   34   29    2  -21    5   24   -6   22   24  -18   -8   55  -12   11  -10   -5  -22   -6   22   34   30   28   30
  57  -13  -49  -26   36  -13   81  -29   19   40  -28    8   -1  -13   34   39   89   20    4  -75  -15  -46    7  -56   17  -39  -41   30  -10   96  -57  -56
