  -1    1   -1   -1   -1    0    1    0    0    0    0    0   -1    1   -1   -1    0   -1    0    0    1    1   -1    1   -1    0    1   -1   -1    0    0    1   -1   -1   -1    0    0    0    0    0    1   -1   -2    2    0    1    1   -1    1    0    0    0   -1    1    0    0    1   -1    0    0    0    1    0    1
 -50   38    5   20  -22    5   17  -11  -15    9   13  -73   44  -54   28   -1   22    4   28   -4   37  -27   36    8   26    2   -5   56    0  -14  -61   -7    5  -15   -3  108  -19    3  -70   26   32    7  -31  -14  -31  -31    5   15    1   47  -21   29   -6  -19   20   -9   53  -21   40   11  -65    4    7   28
  25   13   23    2  -30    9    5  -38   28    3  -26   -9  -17    0   30  -17   27  -12   45   -7    3  -11  -24  -20   -2  -36   15   38   27  -21    4    8    1    0   29    5  -25   -3   13   35   22    2   27   -6    4   34    8    2   25   -9   24    4  -22   -8  -36   16  -27   10   30   49  -15   28   28  -29
 -15  -43    5   26    5  -32   -5   19   29  -17  -37   16   -9   28  -19   35   -7   -3    5  -31  -29   26   37    8  -18  -27   15   -2   37   -3   -9   -1   12    6   20  -22   15    4   15  -36  -47   20   -4  -17  -16  -30   47   23    7  -30    3   -3  -14  -14  -18   -5  -15   -2  -10   18    0    9    7   -4
  14   21  -30  -14   29   13    5  -19  -21   14  -21  -16   12  -41   26  -16   28   16   14   -3  -20   -5  -21   -5    2    0    4   23   -3   11    3   18   -7  -16    8   27    1   -7   -8   46   -6   22   23    9   17   31  -19   26  -12   12    6   26    7   12  -12   -2  -39   18    2  -16   -3   12   14    1
  -9  -24   12  -39   -9  -21    5   -8  -24  -13   27    5  -39  -45   37   27  -24   24   13   -8   36    1    7  -17  -28  -30   -3    8   17  -43   41   20  -25   32   15   27   -9    5   11  -13   -7   -8  -28   17  -48   18   15  -15   -9    8   14  -12   40   35   -2    4    3  -26   42  -21  -22  -21   36  -17
   3   10  -24  -12  -23  -17  -43   22  -32   -4    3  -13  -48  -22   -1  -22   10  -15  -14  -10  -95   28   27   -5  -52  -43   12   -5  -39  -46   43  -23   49  -37  -38   -7  -49   18  -14   35  -71   35   13    1  -25   25   17   61   35   57    8   14    2  -19   22   14    5  -22   37    1   50    1    2   34
  12  -43   19   18   14  -20  -53  -14   17   51  -66   15   -3  -27  -23  -37  -14   42  -17   -3   54   20   36   12    3    4   -1   24  -24  -51   17   12   32   19  -66  -25   89    7  -19  -72   40    1  -21   36  -35   32  -37   -7   -7   25   34  -15  -34    5   74   -3   11   51  -36    2   14   21   -4   30
  14    3   16  -33   42   62  -13  -15  -29  -20  -43   24   14   -7  -38   56  -23    7  -15  -11  -24    7   39   53   47  -29   13  -29  -17  -12   11  -31  -11  -41  -31   51  -32    2   39    6  -22   35    3   70  -11    8  -26    0  -11   39   11    0   21    6  -14  -47  -16  -16   24   14    3   17   -2   37
 -29   -6   18  -20   10    1  -27   26   -1   -5   22   19    1   -1    3    1   -7    6  -28  -27   25   -3  -39    5  -10  -10  -31   24   32  -46  -31   15   18   14  -30   19   -4   14   18  -16   19   45  -41  -47  -23   31   10  -28    3  -71   17   11  -10    3  -13  -13  -10   16   46   27  -11    3    2  -31
   7   -8  -11   -5    9  -22   -1    5   -3   -1  -17  -21   -2  -30   -4   -8   10  -23  -12   19   19  -67  -12   -7   37   11   26    4   -5   -8   13   20   -3   17    7   23  -12   37   -5  -19    3   -4   19  -40  -21   23   17  -20  -59   15  -12    2  -11   11   21   34   39  -25   29    1    0   -5    3    7
 -50   14  -15    8   -4   35    3    0  -41  -37  -27   -4  -12  -15   15    1   12  -24   -2   20   -4   11   -6   41  -32  -14   26   -3   63   23   20  -42    5    5   -3  -19  -17    9  -20    6   -8  -17   49   25   16   27   -4   -2   41   15  -60   -8    7   11  -47   25   29   -6   14   64   -6   -4   27  -11
   4   -7   -5   -5  -26   -1   -6   10    7   -6    2  -66  -20   24   15  -17   -9   29   -1  -19  -12  -37   29   -4   -2  -17  -30  -40  -11   -2    7  -20   -5   -1  -43  -13  -21    5  -47  -10   22  -33  -31   25   15   -7   37   -8  -21    0  -14  -14    3    9   -6   37    8   18   15  -60   34    3   -8  -24
 -31   11  -15   17    5  -19   11  -13    6   -8   -2   23   36   -2  -44    7   37   -4    9   26  -44  -30   -3    8  -20   -8  -13    7   23   31  -11  -18   22   -1   10   59  -34  -20  -38   16    8  -11  -27   -1    8   44   12    3   -6   -6  -41   -4   12    1    6   13    6  -47   46   15  -30   17  -10  -16
  12    4  -68   -8   -9   -3  -35   12   -4   23   25  -41   29  -22   51  -52    9   33  -46  -14  -49  -54  -21    2  -23   16  -38   12  -17   -6   10   41   32   45  -15    6  -24  -37   -6  101   45    7   35   29   -8    9   17   -2  -31  -30  -23   25   -5    7  -35   -8  -32   19    4  -28  -25  -16   14  -60
 -16  -69   12  -10   27  -26  -25  -60  -27    8  -12   31  -14    9   16  -22    9   28    9   -2  -16  -20   -4  -14   10   11   41  -39  -58  -11  -35  -30  -11    4  -22   50  -26  -35   42  -10  -14   -3   10   11   20   32   19    1  -14   23   31   51  -52  -43   15   52   21   41   -7  -40  -27  -13   -6   15
  13    0  -28  -50   -8   -9  -52   49   21  -20   -1  -92  -17   19  -26  -53    9   30    9   -4  -45   60   37  -23   19  -63  -18   24   -5  -50    6  -30   75   -7   18  -46    7    3    7   38    5   -9   41    3   50   27    0   78   63   58   -1   10    4  -42   -6   10  -11   -3   51  -15   31   22   11   23
  -1  -27   44   10   32   -4   44  -22   11   31  -47   -8   24  -24   -5   19  -22   10   11  -13    8   21   13  -73  -10   31   30  -17  -14   33   36  -12   -6  -24  -18  -39   12   34    1  -21   35    0  -25  -19  -16  -20  -17    1   16    9    9  -25   23   19   18   34  -19  -15    7  -59   38  -43  -25   24
  58   14    2  -15   23    7  -32  -16  -13  -21  -29  -40    7   -4   10  -27   -6   32   29  -32    4   20  -20    9   17  -34    1   -7   34  -22  -45   -4   23  -34   13    9    6    4  -22  -12   -2   -4   17  -35   28   -3    9    9  -18   -7   55  -10   29   43    8   20   11   24   23  -34   -8   24   67   -5
  -4   21   27    4  -61   -9   21   10  -18  -20   36  -24   -1    4   -7  -28  -36  -16   -3   29   50   20   55  -19    3  -39   34  -23  -31    2   22   43   26  -15   -5  -38  -13    3   14  -15  -15    2    0   31  -17  -19  -44  -44   -1   33    9   -3   -5   -5   39  -24   22  -25   -7   -7   25   -3   39  -23
  17   35    2  -15   -4   22    5  -10  -37  -27  -10   52   17   11  -21   -8   11    9   24   47   11   20   11    3   28   10   -2   -3  -12   26   12   11   23  -45  -18   33   16    1   19  -22  -18  -38   16   12   -1   43  -21    6  -38   40   25   -7   -6   -9   14  -11    6   20  -18    2   -5    1   -7   13
  14  -36   17   22  -42   62   23   23  -10  -19  -21   -9    4   10  -20   51   52  -14  -24  -30   12   -3   25  -51   -4    5  -27   10  -13   12   22    9  -38   17   19  -17  -33    4   18   -6   31   16    8    8  -19   10  -41  -18  -12   15  -42    1  -17    6   11   -8   20  -18  -49   17  -62  -13    1   50
  15  -45   10  -23  -36  -29  -10   63  -20   11   -5    9  -11  -17   42   21   -4    5   13  -29   26   -7   -7    4  -40  -16  -20   -5   39  -25   17  -13   -2   19  -15   -4   26  -29   14   -7  -31   28   11   16   -5   12  -53   29   16  -13   44   13   51  -18  -39   44   17  -57   14    8  -34   21   -3   61
   2    4   -5   -5   16    7    4   -2    9  -11    4    4   -7   -5   -3    1    3   -9    9    7   -7    3  -27   11  -14   16   11   -3    5    5   13   -7   -5  -13   14  -20   31  -20    7   13  -15   -8    7   -6   22    4    2    5    6    7   -3   -4   18    2  -18  -10    6    3    4   -3   11   -4    2   -1
 -18   46   -3   -1   15  102  -34  -62    2  -11  -40   21  -20  -16  -30   31  -31  -17   31   50   18   16   25   16    4  -13   19    7   62  -33  -12  -72   27  -53   24   25   -7   32   42  -25   -4   46   17   32  -18   47  -31  -16    2   53   67  -26    7  -32  -20   10   -3   -9    2    2   37  -12   11   32
  21  -45  -32  -16   15   16   12  -42   29  -11  -15    7   31  -11    1  -91   33  -41    7  -11  -38  -24   12   27   20   -8  -38   33   23  -22   -2   27   25  -17   15  -22    3   28   -4  -65  -46  -14  -34    7   -8  -28  -10   -3    3  -34  -15    6  -17  -44  -31  -18  -11  -33    4    7   14   10   14  -12
  52    9  -19    9    7   37  -31    4   58   10  -60   23  -36  -24   -9   25    8   -1   27   61   38   35  -41   21  -12   32  -14  -21   -6   10  -33    6   10   -4  -22    6   -4  -32   40   34   29   25   38   16   -6  -34   -4  -34    9   22  -16  -22  -30  -19    6   21   16  -33   14  -20    8  -21   36   -8
 -16   23   11   13  -15   24  -32   29   11   -8   -6   11   13   36  -23   -4  -24  -41   14    0  -28   -5    7   52    4   -4   -3   38   20   56   -6    9  -15    2  -12  -36  -15   39  -10  -16   12    6   25  -19   47  -32    4    3    0   -6   -5  -27   -4    5   -2  -39   31    5  -26   14  -46   -8  -24  -20
 -25  -23   -3    9   -3   20   22  -22  -10   28  -42   -5   25  -11  -18   11   33  -21  -13   22  -34  -13  -15   11  -13  -15   16    4   -8   13   20  -20   -5    5  -10  -23    5   26    0   12  -29    2   46   21  -17  -11   33   21   18   17  -57   -4   33  -13  -32   16    2    1  -26   41  -22    1  -17   20
   9   39  -27  -39    1   25  -21   51    0   27  -39    4   15   -7   53   10   31  -41    5  106    4   -6   32   -7    0   43  -35  -29   12  -15   12   10   60   19  -20   40   21   14   14  -23    9    1    9   16  -29   58   -2  -34  -10   38  -11   14    9   15   41  -41   25  -18  -18    0    9  -29  -41  -20
  49    2  -39  -35    5    1   16    4   42   -5   52   29  -14  -45  -10  -14   22   62  -22   11   -2  -32   90  -66   21   10  -22   19   -5  -15   -5   -7    2  -32   27   34  -28  -26   11   40   -5  -28   -9  -39    0  -86   48   53   12    5   42   14  -32  -47  -17  -24  -12   50  -36    9   29   -9  -14   19
 -12  -30  -18  -37  -17   20   40  -10  -32    2   35   46   -7  -18  -24   36   35  -49    1    5   17  -22  -15    7  -38  -10   23  -11  -33   28   29    0  -22   -8  -19  -12  -12   -5    0  -10   15   10   20   45   -3   26  -21  -24    6   27  -16  -31  -12    9   -1  -45    4  -19  -28   51  -26    8    0   -3
 -13    7   -4   -3    4   38   29   24  -33   13   17  -27    4   12   23   19  -24    9   14  -21  -43  -15  -12  -10   19  -67  -25  -15  -29   47  -22  -23  -31  -36   -2    3  -80   -8    1   26   16   50   39  -40   23  -21   26  -47   23   27  -34   11   38   26    4    6  -22   -6   44   15  -14   25  -32  -13
  14   23    7    9    1   -5   -6  -18   -5    5   10  -26    7  -11    5    2   20  -43   19  -18  -34   14   20   12  -14    5   14   17   -4    5    0  -15    3   22   17   37    3  -11   15   -7   -2   -3   -5   -9   -5    5    4    5  -17   -2   -8  -15   -8   15  -25  -19   14   -7    3   10   13    6    4   -7
  18  -21   -5  -86  -31   -1   12   33   32  -55   17  -29   56  -74  -26   19  -95  -45   56   23   29   -3  -40    8  -38  -42   -4  -48  -33  -36   -1   35  -72   35   13   19   44   14   -4  -65    1  -28  -49  -25   58   52   44  -60   20   73   30    3   18   10  -81    8 -117    1   29   27  -79  -61   26   11
  -7   53   14    5  -10   14   79  -14   -1  -32   52  -12  -17   26  -28  -36   -4   -9  -23   54   11  -24    1   34   -6    2   55  -44  -27   24   31  -62  -16  -12   26   48   22  -31  -47   57  -42   -8   43  -39   12  -24  -15  -17    4   27   -2  -38   25   22  -11   24  -39    1   27    7   29   14  -49   12
  -3   41   26  -31  -31    3   -6  -51  -57   16    1  -30    1   -2   41    2   22   21  -39  -33  -56  -20   26   39  -20  -62  -54   -8  -41   21   27    5    0  -15   26  -51  -11   17   58  -27  -38   19   45   20  -20  -40   22   13   45   48   21    0  -36   -8  -10   17  -22   24    1  -13   56   29   22   10
 -47  -75  -24  -60   21  -17  -15   21   21  -42  -11  -69   46  -35  -36    3  -33   18   18    1  -12   33  -15   17   91   57   16   13   16    3   23   49   43    8   43  -19   32   73   -8   29   27   45   29  -65    1  -37   30   55    3   86    9  -39  -56  -43  -50   -1  -16   40  -13   36   11   12  -11   15
 -11   32  -12  -20   -1  -19    0   30  -24   22   49   75    4  -11    7   -2  -28  -26  -34    2   10   10  -47   -1  -54  -27   17  -14  -26  -18   19   -2   24  -25   -1  -42   -2  -16   24   16  -34   -3   18   20    7    2  -18  -19   75   46    6   36  -12   -8   21  -10   33   21  -28   15   50    4   10  -39
   6   -4   50   37    2    0   -8   34  -26   21   -6   24   -2   -3   19  -20  -11    0   22   14  -12  -39   -2   30    0    0    5   64  -18  -11  -14    0    5  -13    6  -29  -18   -6   57   12   58   -5   49  -22   76   -6   -2    4  -68   10  -19   55  -22   25   41  -50   21    8  -56  -38  -15  -73  -12    9
   4   40  -24   43    1  -33   24    0   10  -21  -52   52  -18  -18   -9  -38    6   19  -10   39   26  -10   -2   23  -11   -5    3  -19  -18   -7   20   -4   11    8  -41    4   21  -15  -15  -16    6    9   -1   26   11   35    7   36  -15   54  -29   16   27  -13   53   26   33   -9  -59  -15    9  -89   -9   41
   0  -38   34  -22  -21    5    7  -34  -29  -22    4  -32  -47  -50   47   47    3   48   44   13   14   -3   10   18   -4  -27  -14    6   52  -41    9  -37   -4  -52   31   34   10  -14   41   35  -12  -34   29    5    3   35   21    9  -34  -24   29   -1    4    9  -13   22  -13    9  -23   -8  -11  -42   20  -65
  20   -9   18  -34   21  -12    2   19   -7   38   29   -7    4    3  -18   32  -10  -19    1   -7    5   28    6  -17   -8   -7   -8   -2  -33  -12  -12   25   -8   59  -12  -60    8   16  -39   40   -1    5  -58   31   14  -35   55   23    2  -17   25  -15  -22   14    2   35  -14  -42    8   11   12   -2   22   11
  16   35   43   -6  -52   26  -34   74   22  -13  -32   42  -39   18   -9  -67  -10  -87   22  -25  -40   -5   20  -31  -41  -51   23   51  -16  -11   13  -12  -30   38  -39  -45   26  -22   23   -5   14  -21    9  -46   63   16    3   34   81   29  -14  -10   73    0   35   -3    0  -36   39    3  -89  -33   26   63
  73   30  -16   -6   70  -43  -19   -8   20    7   -5  -26  -20   17   43    4  -46   -6  -15   58   -7   27   25   -8  -12  -24   -9   21  -26  -31   -1   18   27   16   -2  -50    6   -2   29  -20  -14  -12  -14   26  -15  -18  -20    4  -12  -26    5   48  -54   -8    9  -14   11   -4   -7   13   -7    9   63   40
 -30   -9    4    5  -17  -31  -17   11  -26   -5   -7   -1   16  -18   17   32  -26   11    0  -21   53  -14   -5  -14   26    4  -19  -10   -9   -2   36  -25  -35    1   -4   10   10    5    5   17   15   -4   21  -14  -17   16   15   -4    6   68   47   39   -2   14  -32  -19  -19  -33  -24   -1  -24   24   55  -19
 -37   37   33  -55   -1    6  -18   73    7  -35   -9  -14   18  -11   17  -40   18   22   48   -5  -26  -62   61   18   -1    4   61  -16   66  -54  -40  -33   10   11    2  -17    3    1   18   34   -4    5   20    1   44  -12    8   -8    5  -54  -13   18   19  -34   14   27   52  -17   60  -66   26   53   42   18
 -51   12    5   84   47  -40  -30  -58  -27   29   10   19  -37   45   68   61   27   11  -44   -4   54   12  -12   27   52   42   22  -32   39   34  -15   17   -8    4  -10  -34  -11   11  -36    6    4   27   50   24  -11  -23   10  -27  -45  -30   19  -96  -53   48   -3  -19   91  -22  -27    7   25   12    6  -58
   5  -24  -23    1  -20    1    7  -16  -13   45    8   -3  -33   -6   20    3   12  -13  -22   12  -20   -1  -33   19   27  -24    4   -3  -36   32    7  -23   -1  -29   14  -19   33  -29    2  -15   68   20  -18   30  -35   28   19    1    6   -3  -79   23    7   21    2    4   18   -3   -3  -79   24  -40   14   27
  -9  -24   -9  -30   -3   22  -36    9  -24   -4   61  -15  -24  -49    9   17    9   35    4    9   29    9  -40  -53    5  -30  -20   -6    7    6  -75   -2   17  -63   39   10  -17  -37    8   14   11  -29    3   69  -24  -13   21   18   59  -33  -32   45  -19   -1  -44  -34   67    7   42  -11   46   76   11  -30
 -15  -16  -17   -9    4   11  -29  -10   19   63  -31  -28    7  -23   44   -4   55  -79   22    4  -14   18   33  -18   11  -19   -6  -27  -44   20   38   -3  -27   29   -2  -27    0   -9    3   67    7    3   14   35   35  -10  -12    2  -11  -42   24   27  -11  -36   -8   39    9   -4    9    9  -11    5  -23  -38
  19  -14  -30  -13   -9   18    7   -7    4  -29  -16    5   -5    5   -2   20    2   -4   35   13  -23  -18    2   16    8  -19    5   -3    8  -18   24  -20  -19    7    2  -21    4   23  -16   18   -9  -39   27   16   -9   14  -12   -9    0  -14  -36   15   31   29  -34    3   27   14   -7   -6   -3   -9    6   -7
  12   -2  -11  -34  -40    3    2    2   13  -35   20   -4   12    3    1   -1    4    7  -45    1   11  -15  -12    2    8  -20   -2  -17   16   20  -20   -3  -45    8   -7    7  -11  -15    5   -6    7    6   16   13  -19   -1    0   10  -25  -20   10    1  -18   -2   16  -15  -22  -15   -7  -20   10    8  -37  -18
  68   29  -23    8  -21   62   51   -4  -56   -1   -8    4   22  -10   12   21    6   11  -47   33  -12   -3   48  -80   -5  -23   -3    7  -24  -37  -31  -27  -13  -55   96   26  -48   18   12   33    7  -66   21   33  -69  -44  -29  -25  -38   16   24  127  -52  -18   59  -55  -86   10  -10  -56  -26   11  -11   43
 -13   14   10  -14   10   68  -54   -9  -51  -23   40   -8  -28   -5    0   -4   -6  -13   26  -24   -3    7   -9  -53   39  -22  -39    3   -4   49  -51   -8  -25   12   26   50  -68  -15  -16    1   28   38  -36  -37    1    9  -19  -49   23   63  -13    4   42    7  -36  -31   57  -49   47   44  -26   55    5   21
   9    4  -13  -27   20   11   -4   32   -2  -14    4   18   12   11   -2    1   22   49   -1   40   17  -17   32  -85   32  -31    7   25    2  -27  -29   36   28    7   47  -11  -20  -20   23   19  -25   -4  -41  -40   40  -44   12   -2  -17  -18   39   12  -12  -14  -10  -44   16  -27  -25   27    0   14   -2  -27
   3   61  -21   27   14   15  -43   15    1  -15   -6   18   33   -2  -18    5  -46    0  -20   11  -20    4   13   -6    9  -18  -10   -5  -10   -9  -21    0    7   -2   26    4   22   -3  -32  -11  -16  -40   20   43   31   21   -7  -54   24   29  -38  -26  -23   17  -32   35    4   -4  -13  -34   32    0   12  -10
  -8  -14  -10   27   21   21  -26   11    5   21   -7   18  -13    0   18  -42  -38   26    6   12  -39  -11   10   51  -31  -13  -79   -5   -4  -18   10   29   11  -14  -19  -12   20   30   62  -42  -21  -45    1   17  -27  -19    7  -26  -36   -8   -8   25  -25  -29  -12    1   11   -9  -11   -4  -13   -5   51   27
 -32   -5   35    3    9  -16  -11   20  -17    0   20   25   45   -4   57    7   19   13   -4  -37   41  -68   44   31   44  -20    4   48   -7   14  -10  -37    6   -8   -6  -31   46  -60    0   -4   90    3   97   -5   13  -16    0  -25   42   16   54   20    6  -43  -66   19    4  -33  -20   13   57    2   33   13
  25  -35   40   69  -10  -31   24    2  -17   36   32    7  -17   23  -12  -15   -8  -11    7    1   22  -53   -7   -8    7  -27    6  -23   15  -15    6    1  -35   28   33  -57    4  -31  -27   33   -9  -16  -23   -1   29   14   33   10   23   10    8   18  -47  -16   -3    5   10    5   40   22   12   23   -6  -23
 -13   14  -41  -44   23  -28  -69  -13  -22   19   -5   12    5  -17  -15   27   37   -5  -27    7    8   44   -6   18    9    0   48   55   -9    6  -16   22    0  -11    4  -45  -26   10    9  -26   -3   -8    9   24  -10   19   50  -24   37  -23  -20   22   -6  -22   12  -12   -1  -13    6   27   31   59   17  -12
 -30   26  -23   37    3   52  -13  -62  -22  -24   -5    7    8    6  -29   31   11   -4   26   -8    8  -19   -6   47    1  -31   56   -8   29   -4  -15   29   10   12   28   28   13   25   25    4  -49   -5   12  -13   -2   31  -40  -28   -4   29   28   63   31   -5    4   11    2   38   43   56    2   -9   -9   -3
  11   10   38   30   -3  -10   19   20    2   25   -3  -30  -28   10  -20  -49   24   53   -2    7   78  -23    1   34  -11  -35    9    0  -17   24   17   69  -52  -12   28  -38    2  -18  -23   -8   -9    1  -25    0   -4   33   19   23   -3   26   19   16  -67  -62   50   29  -12   51   49  -13   49   39  -18  -22
  -9  -10   30  -21   54  -17   28  -15  -12   19  -44  -21   -3  -47  -47   -5   41   -3   -7  -17   28  -20    9   -4  -13   19   25   13    9   12  -37   46  -31   12    3    0    4   17   -3   35  -41   18   -8   32   -4   36  -15   13  -27   25   10    8   14  -37   30  -21   -6   23   54   -2   -1   -3   -6    7
  -1   59  -60  -18  -41    0  -77   37   34   34   -4   39   19    9   -5   -6  -19   10   26  -22   -2   26  -45    3  -14  -23   26  -25    8   27  -15  -24  -39   22   33   -9   20  -21   -3   38  -13   16  -19   -2    4   12   -2   18   26  -32  -28   -9  -12   11  -23  -83   50   32  -39  -12   46   -7   22    7
 -11   42  -26  -12   24   10  -14  -34  -28  -59  -20   53   -9  -13   28   10  -38  -21    5   37    6    5    9    1    5  -12   47   21   25    3    6  -16   -7   19   22   18    8   -8    6   26  -25   -3   47  -16   13   16   -4   -2   -8    9   -9   31   16    6   -1    3   -7    1   30   41  -12   69   37   -9
  23   13  -14   10   18  -14    8   -2    0   -4  -12  -22  -11    8   -1  -18   20  -11    8   -5    7   11  -31  -24   33   11  -11  -13   23   30   -1   -8   -2    7   37   25    6    6    3   13    2    9   29    2   29   45    2   -4   -7   17    7  -13   39  -19   23  -22  -14    6   -9    9   -3   20   10  -16
  26   -5   39   28  -21  -12  -37   13  -29   -1   -7  -10  -32  -13   41  -32  -20    4   36  -63   15  -15   27  -26   -3   15  -43    1  -21   12  -40   32   -6  -13  -18   -1  -80   -2   42  -19  -12   29  -12    2   11  -20   -7   -8  -11   -2   33  -46  -54  -15   28  -47   -6   -3  -16   -6    3   38   22  -14
 -29   -2   48   12   -6  -11  -13   34    0  -37   23   11   24  -33   35   28   14    1  -19    9  -17   -9   22   38  -18   11   18    0  -20  -55  -10    1   17   10   24  -11  -16  -19  -21  -11  -10    7   22   -4   21   47   42  -63   27    3  -16  -48   24   -1  -14   24  -52  -22   28   40    5    7    7   17
 -41    4    6   26  -39    5   10   10   -3  -12   -6    7   16  -18    6   20   17   46  -14   91  -52  -31  -52   25   -1  -40   45   23  -27   17    3   -8   30    4   -3   -4   43    6   -6   23  -14  -32  -31   15   17   18   43  -17   43  -24   16   22   -1  -12    4  -15  -27   11  -22  -24   37   22   11   11
  13  -18   30   37   40  -24    5   -2  -28   16   -8  -27  -10  -13   -5  -18  -11  -15   48  -20   44    1   13  -32    3   11   -4   25  -27   20   -3  -15  -10   32   25  -29  -29   18  -27  -25  -17   20  -24  -10   21   48   -1   24   11   26   -2   13  -15  -34    3  -14  -15  -10   42   58   45   32   40   -4
 -22   60   -4   50   -4  -13    8   31  -47  -23  -19  -17   37   27    4    7   53  -24   12  -53   27  -20   13  -35   10  -28   27  -29   29  -57   42  -24  -21   -8  -62  -16    1   21    5    6   43  -15  -15    5  -52   32   29    4   22   -4  -21  -14  -17    0  -23   -7  -13  -44  -19    6   -7   35   86   -7
  47    4   15   -1   13   57  -50  -31  -26    1   57  -40   21  -11  -37   28  -18   12    0   40   33   15    7    1   58   -1   21   26   38  -15  -16  -61  -12  -37  -37   43  -12   -6   -3  -70  -50   32  -12   -8  -13   41  -14   18  -12   98  -32  -60   38  -11   16   41  -11  -29  -64  -72   15    6   29   15
  10  -22  -40  -12   20   15  -39  -31  -16    6   17   -2   -8  -25   19   50  -20   16  -35  -31  -79   -4   -6  -19  -10  -19   -6  -40   -2   -6   11   24   57  -67  -34  -37   25   17   50  -29    2    0  -28   31   49  -36    7   22   24   18    7   22  -35  -19   11   -2   39    1   34   12   27   26    4  -25
 -11  -10  -27    4    2    9   28   -4  -27  -33   10  -35  -13    9   11   21   31  -34    9  -24  -14   21    9  -30  -31   16   -4    4    2  -11   51   10  -25    5  -33  -20   -9   39  -13  -34   12    7  -37   26   48   22   27  -55   34   -6   -4  -62  -33    2  -19   58  -20  -12  -46   35  -52  -21  -18    7
   8    9   -1  -23   50  -32  -27  -13  -18   28    6   -8    1    8   12   -1    5   20    0   20  -35   -7  -49  -19  -10   -9   12    2  -15  -15  -21  -15   14   14   17  -25    3  -31  -38   48   10   22   30   -4  -51    7   -1   -3    4  -42    6   -8  -15  -59    2  -14  -53    0   18  -14    2  -11   16  -45
 -29   13  -11  -27    9   14   -6   14   17  -40    8    4   34   -4   20    5    5  -12   11   14    8    0  -38    3  -24  -48   -6  -83   33    7   -6   18  -30  -15   16  -30    9   -7    6   -3  -54   27    1   10   29   -1   22   31   30  -18   -7    6  -44    4  -10   24   -2   -9   -3   -9   44   -1    8   23
 -20   -5    7    2   44    2   13   33  -61   24   21   55   15  -46  -17    1   22  -42  -31   23  -19    1  -30   18  -24   -6   39  -29  -47   48   16   33    0   -3   28   12   -8   -7   25    6  -29   16   28   25  -43    2    3  -10   42   24  -67   -9  -16   24  -28  -40    0    2   29  -27    7   43  -11   16
   0   85   35    3   19   15  -51  -65   46  -25    6   12    0    1   34  -11  -26   -6   65  -42  -54   10    4  -41   32  -36  -42   18   64  -55  -18  -40   -2   17   43  -21   -1  -14  -31   -2   54   38   28    0  -21  -11  -44   -6  -17   11   -4  -44   -6   -7  -49   62   -5  -25  -62   -7  -25   20   37   19
   8   -8    6   29   18  -63  -58  -16   32   -4    4    4   30   -8  -29   23  -11  -28    9   -4   -5    5  -12    7    0    4   11  -33   -8  -37   24   -5   23   23  -45   -3    6  -43  -11  -19   45  -22   43   26  -21    3   -8    9   -2   25  -26   25   -6   54   35  -27   29   28   17    6   -4   24  -26    9
  12   17    4    4    6   56  -12  -36  -52  -20   46   39   16  -13  -58   34  -16   11   10   -9    2   30  -19   30  -15  -30   24   60   26   14  -15    9   26  -69   -4   11    1    7   16  -20  -30   43  -13   20  -69  -29   -5   13    3   46  -29  -37   31    7    0   -9    2  -29  -44   10   35   25   49   84
 -29    5  -17  -15   21   11  -33   -8    3   10  -38   10   11   16  -35  -11   -7  -42  -31   17  -11  -17  -17  -14  -49   26   75   -6  -26  -22  -43   47   -7   -7  -10   18    4   27  -10  -32   -6   30  -20   18   39  -12   10   -6  -28    9   50   -4  -62  -19    7  -11   29    2   26  -19   -7   21  -46    1
   6   14  -43    2  -28  -38  -29   43   -4  -26   25   11  -53   56   -7   27   13   16  -39  -37    5  -21   28   -7    3  -23  -17   24  -29   28   41   -1   20  -16  -15    9  -43    8   17   11   23   -6   35  -16   32   11   -7   51  -29   50  -34   19   -6  -25   40  -41   17   15  -14   36   -8   18  -16  -14
 -43  -22    7    6  -10  -19  -64   -1   51    6  -21  -64    0   -9   20   10  -37   31  -59  -37   19    7   10   17  -10  -14    6   11   63  -41 -104  -35   20   32   16   33   37  -21   -6    0  -40   55  -19  -48   16   -4   55  -31   21  -45   55  -42    5  -45  -28   25  -31  -52   72    4   -4  -11   27  -52
  23    8   -2  -15   32   -8   -3  -10  -24   18   -1   18   13  -19   29  -23  -20   29   26   -3  -17  -23  -19   18    5   -6   10   18  -10  -22   27  -41   -7  -26  -11   19   12  -32  -19    9    3    0  -23  -36   -5    6  -14   10    1   29  -15  -18  -11    1   -3  -14    7   10   44   18   22  -10    3  -24
  12  -13  -25  -21   36    8   -9  -44  -45    2  -29    8  -27  -14  -28   24   14  -15   24   33  -34   29   -4  -23  -23   -3   10  -30   11   -5   -8  -10    6   -8    9   30   -3   34   32    1   -9   19   48  -17    4   19  -34  -47   14    5   31   -7  -22   -4    1  -12    4   -4  -12  -36   -3   30  -19   -4
  -1   27    2   26   17   -1  -32   -2  -32   -3  -25  -67  -20   -4  -34  -17  -30  -13   13  -28   -2   -8  -15  -27   13   22  -56    2   42  -25  -66  -27  -48    1    9   -8   57   10  -40    8  -52   24   35  -41   30   15  -18   33   27   -7  -20    3   40    8  -21   20  -13   11    7  -23    7   48   -9  -28
 -22  -21   13   37   -3   15  -21   32   31   -7   22  -14   -5   -4  -18   28   -4   -9  -22  -19   22    6   14  -15   -2   23   21    9   -6    6   15  -22   26   -6    5   -3   -9    8   -9   -9   -8    6  -31   13  -16  -10   -4  -42   18   -9  -14    5   20  -15   24   14   -6   -9   19  -20    3   39  -24  -13
  63    0  -14  -48  -10  -35   12  -46  -15   18  -12   17    2   20  -24  -29    9   32   54   39    4    6   18  -56   30   -7  -28   -5   25   -2  -20    5   -1   13   -7    9   -3  -24   17   18    3   16   -5   -7  -58  -34  -41  -35  -61    7   -9  -11    7  -12  -21    1   14  -21    3   51  -22  -17    7   21
   7   25  -54  -27  -14   15  -14    7  -25   38  -44  -49  -19  -10  -15   17   39   42  -37   16   17   12    0   25  -15    7   17   -4   -7    3  -68   20  -20   19   58  -46  -19   -9   42   -2  -34  -13   74   15    4   31   73  -25  -10  -37   28   -4   52  -33  -40   13   40  -12    1   13    6   35   26  -12
 -41   11    7   30  -38    4  -31    3  -49  -30   35   21  -28   -8   42   -5   -7  -15    0    2   -9   19    4   23  -52  -17  -18    9    8   18   -4  -10   10  -50   38  -20  -44   22   -9   21  -24  -14   29   15   35   27   -5   26    7    1    2    8   -8   25  -23  -30  -14   -1  -20   48    2   39   19   -6
   9   -2   -2   24   -2    9  -14  -25   -9  -10   -6   -9  -11    7   -3    8   -6    2   21   -8    8   -7    1   25   -5   -4   12  -20   14   -3   -5   24    3   12  -15  -18  -13    7    7   15  -13    0   15    4   -8   12   -3   -6   -4   26   17   23    9  -11    8    1    4   12   33   22  -17   -8    2   -2
  24    4  -12   12   15   37  -45   18    2  -12  -46   -5   28  -11    6   24    3   -6    8   -5   -9   12  -32   22    1  -25  -28   16    9   30  -30   -1   34  -21   12   23    1   11   -7   45    9    6   -9    6  -14   -9    8   -5   24    9   49  -10   50   39   10   27  -14    4   12    7   14   21   60  -18
 -59    8  -36    1   35  -51   11   13   74  -17    1  -12   20   10   19   58    7   -9   65  -25  -38   26  -16  -16   46   28   42    0  -19   16  -25    3   20    4   -4   35  -13    4   60  -10  -52   16   22  -28  -13   -8    7   17   -4  -59   -6   15   76   16   17   18    1   14   -3   -9   25   21   19  -15
   3   22  -21  -18  -46   13    3   -7   20  -36    7  -43  -18  -25   37    5   36    5    6  -11  -26   -4   24   63  -16  -19    3   -9    6   -6   55   16  -22  -42  -12  -13   -2   -1  -35  -10  -35  -32    2   35  -25   23  -15  -11   14   26  -28   -7   24  -26   -4    8   17  -32   24   19    4   35    8  -38
  47   18   -2   14  -31  -31   29  -50  -47  -27  -19   -9  -17  -16   24  -21   -4   23   30  -22    5  -30   46    7   39   17   10   -9   11  -15   20    6  -20   27    0    9    3    0   20  -50    1    8   29  -11   38   21  -13   36   26   30  -20   12   31   13    3  -42   -9    9   -5   -4  -22   12  -40    9
   5   -8  -23  -10  -14    1  -19  -12  -12    1   15   -5  -21    0  -16    3   -4  -18  -10    0   -7  -12  -17   33   15  -28  -32   -4   14  -29  -23    5  -12   30  -24    7  -10  -20  -11   20  -12   32   29   -6    8   18   -7  -25    6   31   11    1   16   -1   23   14   15  -23    9   12  -25   11   15    9
  14    9  -15    2   56  -10   -3  -58    5    0   17  -27   41   -1  -20  -16   -7    2   -5  -15   18   68   11   29    1  -22  -30    0  -26   -4    4    4  -20   -7  -15   -1   18  -27   -8    2   44  -14  -19   14  -11    4   36  -57   29   17  -26   20    4   -2  -47  -26   -1   -9    3  -22   30   14   -1  -42
 -28   22  -20    4    1  -32   -8   12   -9   28  -24   23   -8  -14  -30    2  -21   30   -8   34    8    3  -28   19   13  -41   42  -17   19   -1  -41  -21   17  -26   18   10   20  -33   23  -46  -40    6    6  -20  -10    0   42    0   30   42    6    5   -3   16    6  -44    1  -18   34    1   21   -1   13   15
  15   12   31   39  -27  -30  -33   19   59   29   -3  -18   12   -2  -64  -13  -55  -34   -1   18   24    0  -34   31   -5   31  -12  -49  -44  -25   49  -24  -18   -1   -9   25  -19  -29  -48  -10   35   -4  -27   11    0  -40  -26  -22   22   -9  -61   31   43   11   13   -5   46    3  -35  -21  -32  -14  -32   25
 -47   22    8   38    2   26   13  -16  -31   43  -16   51   -8   25   31   -2   13    8  -70   11   -6   56    0  -59   18   30    3  -21   -2  -30    7  -23    9   60  -34  -12    4   26   -2   12   65  -16  -20   18  -13  -59   -4  -24   32   24  -40   -3  -10   -1    7   75  -13  -20  -13   37   34   64   29   10
 -12   18  -11   17  -28   63  -13  -40  -35    2  -16   -4    0  -28    9   -1   11  -25   36   23   -4   40   -1   -5  -10  -26  -12   31   38    7   18  -82    2  -28   27   49  -13   -5    2  -38    6  -22    3   -6   16   14  -26   11   12    9  -15    0  -15    2  -22   27  -24   18  -27   33    6   30    8   21
 -45  -19    9   -5    6   -8  -24    4   11   44   33   12  -11  -13  -11    1    1  -39  -31    2   -5   14   -2  -18  -40   14   30  -19  -26   -7   -4   50   -6    7  -28  -30   -5   13    1  -17   28   34  -46    9   -8  -14   48  -18    2   -5   24   15  -16  -24   23   -3   19  -40    2  -18   -1    7  -49   30
   9   44   12    8   18   12  -12   15   18    3   27    2   -7    6  -27    2    5  -36   18  -19   42  -12   -4   -1   17  -11   34  -11  -38  -19  -54   -4   12    7   11  -14  -17   -4   -8    6    2   55  -18  -62   31   15    7   12   -5  -32    8    9   23   17    9   31   27   46   12   -9  -14  -12  -23  -26
   8   19  -62    8   -2  -17   27   19    1  -10  -18  -25   -1  -18  -12   17   -3   33  -10   70  -37   30  -13  -11    4  -29  -10  -17    3   -3   34   15   -6   48  -24  -25  -25   23  -25   40  -18  -12   19  -20   18  -26    1  -16  -17  -13   15   12  -11   10   25   -6   31  -39    9   -5    4  -17   27   36
 -24  -40   18    5  -25   10   29   -9   -2   13    0   -5   -9  -29   -7   29   -6   42   39   59   -4   49   -2  -20   30    8   18   23   23   25   11  -37  -38   24   -5   -4    5   -2  -40   68   17   19  -19   26   -2   -3   29   22   29   -4   11    9   55   18   39  -41   13    8  -27  -36  -32  -12   -6   30
  -2   18  -29   30   29    3    6   -7   -2   41   20  -40   44  -21  -44   63    6  -38   30   31   -1   -7   19   37  -30  -54   11   55  -53  -79   21  -44   33   45    3   32  -10   -4  -25  -13   25   23   12    1   -6   -8   -9   17   26  -23  -36    9    5   45  -13   26   78   22    4    3  -11  -30    6    0
 -31    3   29    1  -31    6   14   -6   28    1   -5    2   10   -3   17  -43  -10  -25   -4   24   20   -2    4   -1  -21  -52  -13  -52  -15  -16    9   31   36   -2   11    0    6   -8  -28    6    0   29   22  -20    6  -23   -4   -2  -18   -9  -17   -5    6   27   -8  -20   26   -7   -5  -35    3   -6    7   25
 -12   22  -35  -48   15    7   16   -5  -11   31  -32   25   20   27   10   67  -47    5  -78  -58   11  -40   75  -23  -44   19   15   -2   30    1  -42   36   29  106  -71  -59   65   15   10  -22   19   59  -19   58   17  -81   23  -29   -8   38  -60   -3  -25  -50  -13  -25   43   -7   71  -83   18   37   44   49
   8    3   27  -18   18   46   31  -32  -37  -45    5    4    2    6  -44   35   20   13   37    6   17   23  -21    7   19   16   -8   19   -6    3  -41  -54  -16  -27   -5   57  -13   28   46  -44  -45  -22    7  -42   -4   39    8   10   35   40   -6  -18   19   21    4  -12   64   20  -30   13   -3   40  -13   38
  -3    3   26  -21  -15   21   -5  -12   13  -17   33  -23  -39   12   -7   -4   -4  -34  -24   -5   -5    9   14   21   -1   15  -11    6   22  -21  -13   -6   -5    5   -4  -44  -11   11   -9   11  -26    1   -7  -16   24  -12   27  -18   39  -44  -33  -47    6   -5   41   26   33  -37   -6   38   -2   -2  -20   -7
  -6   -2   32  -27   -4   10   58  -26  -55  -16   16   50  -56  -38   -9   30   25   34  -14   12    4   41  -12   48  -25   36   33   28   27   -3  -12   17   20    7    0   13    5  -35   55   39    6   29   10   14    1    5   12   24   -2   38  -30   43  -17   16   49  -12  -23  -13   -7   14  -24   16   17  -41
 -58   23   86   21   27    3   -4   54   18  -37   25   29  -18    4   10   44  -30   36    5   16    0   26   29   32    0  -23   43    0  -36    3   16   -9    0   -1    9  -34    4    0   -9   58    7  -22   62  -13   48   25   60   -7   25   46  -18    9  -24   26   27  -30  -27  -31  -47    2    6   -3    5    0
 -11   14   -6  -15    8    2   15   11  -35   -9    4   -2   -1  -13   30    3    6   -1    5   14  -22   11   14   19  -48   -5    8   -7   26  -11   18  -26  -12  -38    8  -32    2  -35  -38   44  -47  -15   17   21   45  -16   38   25   33  -26  -26  -27  -19    3  -55    1   11  -42  -18   50  -17  -11   16  -18
 -23   25   -5    6  -76  -20   25   23  -37  -15  -25  -26   39   23   -7   34  -14  -32    5   17  -70   -8  -10    5  -15  -23    9    3   19   -3    6   -6   -8  -23   11   62   -9   11   10   -9   47    1  -32   29  -25  -62   28   38  -51   -1    9    3  -20  -42  -16  -29  -27    5  -36  -46   14    0   -1  -17
 -18  -16    5    6  -16    8   -8  -16    9  -43   40  -10  -23    5   26   34    9   -5   38  -11   -5   -1   26   -2   15    3    1  -19   24   24   35  -12   30  -22   23  -38  -11   18   16  -42   28  -37   24   13   39   25  -20  -15  -19   10  -12  -25   46    8  -23  -26   -7    0   -3   38   21   59   47  -22
  -6   52  -28  -20   16  -51   42  -13  -36   29   42  -18   36  -22   32   -3   -7   -3   -2  -66  -17    3  -38  -12   10  -21   20   30  -19   -6  -36   67   -4    0    5  -30   -9    6  -40   22  -14  -10    3   22   31   12   15   26  -10  -27   -3   20    5   16  -16   23   -3    4   -9   24   15    4   24   16
  -8    8  -23   53  -12  -17  -10   21  -23   11  -15    1   31    3   28   33    8   -3    2  -31   36  -40  -24  -22  -16  -38    8    3   -6   20    1   -5   -8  -12  -42   24   10   11   -9  -20    4   17   10  -15  -16   33  -23  -24  -12    7   21    5   14    1  -36  -16   -7  -38   -1    8   14  -16   17    2
   4   42  -33   -8   -5   35  -35   -8  -60    1   23   18  -11   14   16  -11   22  -64  -32  -22  -20   -9   11  -24    1  -37  -14  -10   -9  -21   29   11   10    5  -10  -70  -19  -20   28    2   67    7  -30   -9   20  -35   28   26   -7   48  -34   22   -5   30   43  -70   92   12  -44  -41  -10  -40   31   -1
 -31   45  -40   17  -10  -35    7  -27  -47   48   21   -4    8  -43  -24   27   17    6   39   20  -24  -56   24   66  -15  -35  -27   42  -12  -27  -34  -63  -23   -1   -5   72  -73   11  -41   69   51  -26   17   -3  -10  -60   45   35   22   22  -69  -30   23  -17  -21   48   31   -6   25    0  -87   -4  -31   36
  23    6   15   33  -45    9   16    4   -1    1  -31  -23   53   20   23   -3  -10   13  -10    5  -81   -7   -4   -3  -11   -1  -25   -7  -17   48    4   11  -18  -36    8   -9   23  -42   10  -21   -8   24    6   38  -29   -3    9  -26   10   21  -10   11   -3  -21    6    2   13  -13  -10  -15   -1    6  -19    9
 -29  -19   36   20  -27  -12  -29   -3   24  -11  -15   58   22   -6    0   28   31  -10  -16  -45  -26  -25   39  -24  -10   16  -60   42   68  -25  -70   20   22   64  -21   20  -35   11    5  -20   34   31    6  -27  -16   20   27   10  -14  -13   61   -2   -2  -34   35  -25   -6   -2    9    4  -34   -4   34  -14
  46   30  -35    9  -55   20  -13   40    0  -14   36   22   -5   23    0  -23   42  -32   -8   29  -22  -32  -20   28    8   -7   -7  -40  -17    8  -43  -17   -1    6  -22  -14   -6    2   -5  -31  -31    3  -10   23   -4    0   -7  -20   15  -44    5  -41  -22  -33  -61  -55  -11   59  -25   15    3  -12   16   41
   3   17   13   -8    9   25  -16    5    8    1   -4   29    7   18  -25  -14  -23  -10   11   31    5    3  -28  -30   -1    3   -7  -17    6  -17   -1  -14   20    1   42  -21    9  -13   14   16  -12  -23   11  -14  -38    4   15    7  -26  -16   -6   -4   10    0  -10  -18   23   -1   14    8  -10   16   17    2
   4   28  -27  -31   23   12   14  -36    6    4  -17   14   13    8   -1   14    2    8  -28   24    3   -7  -21  -65    1  -28   21   -3   -1   21   -4   10   37    8    5  -40    9  -13   48   26    3  -26    1  -43  -30   44  -13    8  -10    5  -10   26  -18   18   -4   -5   13    3   26  -39   52  -36   32    1
 -18  -18   15   -3   -5    9   12   14   48  -20  -29   -9   -3   28   -3    3   -7   19   -1   -5   15  -16   19  -21  -10   19   -5   -7    6   -3  -17   12   10   38   -5  -20    5   10   -8  -24   12   10    7  -34   -1    2  -13  -11  -38  -30   19  -14   14  -20   10  -12  -11   29   38  -15    3  -10   14  -25
  25   -8   35  -15   49  -31   36   30  -31   20   -5  -22  -61  -23   49  -25   17   -3   14  -85   29  -28  -54  -51   24   15  -18  -15    0   16 -104  -30   -9   61  -35    5   35   17   27  -13   27    4  -26    5    1   -4   49   26  -42  -43  -11    3  -69  -28   61   18   16  -10  -19   34   29  -72   18   -9
 -19  -22  -12   17  -13  -21  -24  -10    0   37    6  -35  -47   -5   48  -13   -1  -21    8    9  -25   -1  -15  -16   17  -36  -60  -15  -12    7  -18  -37  -15   12    5  -14  -13   -2  -25   19   30  -10   -2   16  -12   -9  -11  -47    7  -23   14   34  -58   -5   35   36    3  -10  -10   -4   21  -12  -23    2
  16   26  -13   29  -27   12   15   22  -17   10  -12   -3    0   21  -10    7  -14   -8   15   22   28  -32   50   11   48  -45  -35  -61    0    0   19  -15   11  -19  -15  -24    4   16  -21    6    1  -44   -4   27   19    8  -49  -51    2   23  -34  -23   21   15   11   84   11    0  -10  -15  -34   20  -24  -28
   2  -10  -22   12   21    9   13   -6  -21    5  -38   -9   -5  -13   35   24    3    0   20  -27  -35   27   -9   10   31   10    6    7   -9   10   -2   16    6  -26  -31  -42  -15   60  -14   21   13   -4   11   27   21   -6   13    6   -2   -2   -7   11   33  -13    5   43   -6  -40  -19   -6  -14  -10  -23   19
  11  -16   -4  -53    4   23  -23  -10  -62  -23   21    2   18   -5   34  -24   14    3    0   19  -20  -14   29   20  -58  -46  -11    2   42  -13   27  -18   -1  -21   32  -15  -36  -28  -19   35  -23    0   37   16   46   27   63   15   31   -9  -24  -24   22   16  -89  -29   45  -31   -4   39  -34    1    1  -15
  41   26  -17    8  -10  -27  -12   36  -18   -9    9  -30   -7    5    0   24  -24   41   -2  -24   14  -32   15  -17   52   -8  -67   24   20  -16  -43   66   -3   -8  -12   18   27   19  -23   15  -15   13  -39   24    3  -25   44   10  -25  -20  -29   -2   15   45    0  -20  -45  -17    0  -35   45   25    1    6
  50   10   15   12   13   28   28  -19   25  -59  -13  -26   15  -49  -14   -4    3   -5   10   23    1    3   37   13   -6  -22   17   -1   18  -28   15   26    8   16  -12  -13  -11   26   26   -5   36   -2  -48  -36   18  -23  -36  -41  -47    0  -25  -30   16   -3   23    6   34   -2   -6   18  -34   29  -63   27
  52   37    3   -8  -64   10  -50  -10  -32   12   53   25  -11  -57    8   25   35  -10  -19   15    4    3   48  -45   35  -17    7  -11  -23   -2   17   14  -15   11  -10  -11  -44  -12   14  -21   32  -70  -12   62  -31   -6   -2   -1   -2   11  -13   20  -28    9   16   -7   50  -10  -16  -14   44   -7  -15   20
 -16    7   58   18  -38   20  -33    1  -54   28   -4  -13  -13    2  -10  -57   14  -20   24  -10   29    6   61   41   -3   35   18  -28  -25  -49  -17    4   41   26   57  -17   -8    9    4   18   21    4   30   13   62  -20    4  -32  -27  -27    6 -105   46    8   10  -24   36  -16  -10    3  -35   22  -10   25
  17    8   21   48    0   -3  -24    2   32    7   27   -2   -4   -9  -37   20  -31   11  -59   41   59  -20   18   27  -15  -37   40  -39   26  -28   34   52  -13   56   13  -44   68  -50  -25   23   18   15  -47   18    1   -9   -6   39    4  -28   19   18  -66  -43    8  -17   -6  -46    9   14    4  -22   10    5
  -1  -39   20   41  -13  -23   -3  -37  -41   -7   -3   -8   -5  -22   25   25  -26    2  -36   55    0   15   50  -27    8   32    9   12   14  -54   58   37    3   10    0   27   -6  -26    6    8   13  -48  -14   36   -3   -5   11   -4   11   13   13  -29   -5   29   -2   10  -13  -67   12    3  -64   41   50   -3
 -16    6   -5   12    4   18  -21  -37  -46   -9  -29  -10   12  -22   -9  -12   21    1   34   -2    0    8  -17   47  -29   -5   40  -21   32   -9   30   -7   21    6    4    5   17   -8    8   12  -18  -18   19   23  -10   21  -25    5    4   11   -7   40   18    3   -7   -8   -5   18   19   48   -7  -41   -6   34
 -12   17  -24  -34   -5   56    1    4  -17   -4   22    0   -9  -16   39   21   42   20  -14   16  -42   27    7  -11   28  -20  -27   40   10   12   13    6   10  -48   13   18   10   35  -21  -20   -4   31    2   10    8   26  -10  -32  -13   -3   -8   39   37    9   -7    8   11   -3  -33   19    8    8   -2   15
 -15   -4  -18   16   -4   22   12   10  -13   36   12    3  -31    2   -1   14   17  -54   -6   38  -17   -5   27    7  -14   32  -19   23   15   -6   40   14  -30   15    9    5    3   23   33    3   -1   15  -10  -30   24   22   12   12   48   -9  -30    0    7  -22  -22    4  -13  -14  -27   22   -1   23  -62  -23
   4   16   19   16   -8   21   41   41    5    1   14  -27  -21  -45  -16    0   20   33  -13   -4   30   -1   19   42  -11  -11  -15   11    6   46   21   23  -55    3  -12   -8    5  -14  -32    2   -9  -11  -28  -12    9   45  -28   24    3   25   20  -13  -67  -56   41   -4  -21   16   49  -10   29   16   -4  -14
 -17   31   29    1   11   45  -33  -41  -37  -39   -8  -12   -7  -38  -75  -24  -31   17   21  -35    1    6  -36  -29   22  -20  -17    4   14   12  -26  -49   -1   -7    7   29   23   18  -24    7  -32    0   38   25   11    2   26  -11  -34    4   41  -14   36  -14  -15   23   18    8  -26  -22   -9   31   57   27
   9   -8   24  -13  -24  -17    6   -5   14   27  -12  -29   15  -12  -33   44    0   37   57   -3   24   -7   18  -10  -15  -36   17   34   21   -6   28   -4   -6  -41  -12    1   -5   42   -4   89  -29  -45   54  -15   37   38   19   24   -8   17   -3   14   -5   33    6    6   41  -37  -24   12  -10   -3  -11   -4
  10   19  -19   26    7  -15   -7   13    6   -7  -26  -18   20   39  -17  -54   44  -37    8   19   -6  -49   12   -7   -6  -13    6  -11  -15   12  -38    3   12  -28   10  -18  -37   -4  -23  -38   -3   33   -8  -13   13   -2   -1  -40   42  -34    1  -30   18  -29  -13  -26   13   15   -4  -25   16  -38   10   48
  27   44   -2    3    8   -2   18   -8   26    5   13  -17    9   10    3   -5   45  -10   -1   39   13   -1  -26   13   32  -35   -4    1  -12  -15  -22   19   15   10   48   11    8   39   16  -27  -44   25  -36    0   -1   -7  -37  -27   17   -2    8  -11   28  -27  -29   23   32  -14   22  -21  -22    6   11   -2
  13  -25  -24   24  -54   12    5  -13  -69   -7  108  -37  -39   29  -23  -20   30  -20    5  -22   -2   30   12    4  -62   44   11   32   38  -23    9  -21   -2   48   19   12    2   15  -24  -54  -17   19   12  -48    4  -11   32  -20   49  -11   -9    3  -46  -31   -3   37   36  -41  -10   10   -6   52  -10   -5
 -12    5   14   14  -22   16   29   -9   12   19    6   31   32   -9   -8   -8    5    1    4  -19   10   -7    0  -21   -8   16  -33  -43   20   47   -3  -24   18  -43   26  -20  -33   12   -1   59  -33   -7   24  -21   20  -20   -1  -26   11   27  -12  -24   -3  -14  -16   17  -13  -28  -22  -37  -14   -4  -44   41
 -18    2   -2  -11  -14   -5  -52    7  -29  -19    2    3  -34  -14   19   11   36   -1    0  -13    0  -13   21  -28  -31  -15   -3   -7   15    4   15    4   16    3   -3  -38  -57   -3  -13    4  -27   -6   29   26    8   34  -13   27   38   -6   -3   21    4   22  -26  -38   23  -12    0   37    2    4   41  -19
   0    1   -5  -30   18    4   -2   26   17   19  -36    0  -19   24   -8   13   -2   -8    0    1   -1   -3    0   -3   -8   17  -48  -35  -34   11   17   17    9   43  -25    0   10    0    5   13   21   -1  -10   -2   -3  -24   23  -19   32  -33   30  -13  -22  -25    9  -21   34   -5   25  -31   -7    2  -32  -35
   0    0    0    0    0    0    0    0    0    0    0    0    0    0    0    0    0    1   -1    0    0    0    0    0    0    0   -1    0    0    0    0    0    0    0    0    0    0    0    0    0    0    1    0    0    0    0    0    0    0    0    0    0    0    0    0    0    0    0    0    0    0    0    0    0
 -25   -1    6   22  -14   -5   24   16  -15  -39   67  -18    2   17  -27   19   29  -48    3  -50  -21  -40   13    3   -9    1   12   15   25   12   20  -53  -12   30   25    6  -23   -8  -56   80   -3  -29  -13   -1  -15  -26   47   14   47    4  -21  -23  -18  -15  -19   37   -8  -27  -18   25   10    3  -65  -24
 -12  -41   60    2  -16   -9   14   -6   14  -16   28  -15    4   28   12   19   14    5   10  -15   29   -6   -3    0    5   -8   24   26   31   15  -24  -19  -25   -8  -13    1    4   41   30  -28   21   61   19   13  -23   -3  -37   -8   10   27  -28  -35    7   16    2   39   -9   26   23   -1    6  -50  -23    8
  12    7    3   19  -48   -5  -17  -20  -21   10   17  -13   -2  -41   17  -12    3  -14  -35  -19  -23  -36   22  -37  -24   22   -5   13   11    3  -27   30    8   -5  -18    5   12    8   55    3   57  -52  -38   35  -27  -18   14   -6   -1  -15  -21    8  -32  -30   41  -14   32   21  -29  -30   27    9   21  -19
  -8  -36   12  -14  -59  -13  -24  -21  -10  -39  -17  -39  -24   70  -25  -52    7   21    0   26   22  -16  -77    7   44   11   16  -37   -3   37   -7   25  -25  -22  -13  -20   24  -43   -5   31  -11   21    8   26   14   36   16   -2   -9   25  -15   31   31   -7   -2    6   -7    4   -4    8    2   -6  -32   -7
 -31   13   -2    4   25   15   23   24   -6   -5   29   29    6  -22  -18   15   36  -17  -30   16   -5   29  -46   20  -33   27   33   30  -10  -28  -28   26   -1  -35   14    3   -6    5   -9   12  -44   10   -8  -12   10  -17   63    7   30  -16    7   -8  -21   15  -16   -1    3  -32   15   42   29   23   14   32
   6  -20    0  -17   -3   -2   27    1   37   68   33  -23   -5    8   13    0   -1    0   -7  -26   17   21   13  -13    1   25  -24  -12  -29  -17   37  -19    0    0   27  -49   20   -2  -11   19    4   -3  -16    9   23  -29    4   22    9  -21  -11   11  -10   29   19   -6  -21   -9  -44  -52   25  -30    7    7
  -1   -2    3   -1   -2   -4    0   -2    0    0   -1    2   -3    6   -1    1   -3    0    3    0   -1   -3    2    3    0   -1    2   -2    3    0    1    1    2    0   -1   -4    4    1   -4    0    0   -3   -3   -1    1   -1    2    1    1   -3    1   -3   -1    0    3    2    3   -2   -4    4   -1    1   -2    1
   7   -7  -27    7    0   20    6  -44  -51  -26    8   44   30  -21  -22    5   24  -19   27   21   14    5  -20   46  -27    2   75  -14   -4  -21   28   31    3  -20   13  -12    3  -17   41   24  -54   32   48    1   -4   35  -17    0   20   11   10   63   -7   -8   -4  -24   -5  -12   11   37  -11  -31    5   10
 -10  -40    3  -18    0   18   26   11  -13  -25   25  -21   20  -17   28  -19    9    0   26   22  -36   10   33   31  -37   -7   17   -5   45    0   27    4  -35   11   40   17  -16  -38    3    5   -9   16   -9   18   -9  -24   23   25   35  -46   67  -16   38  -11  -18   -3   -4   24    7   29  -20  -28   30   -6
  -9   18   19   10   14   -8  -31  -11    7  -30    6   37  -15   28   10  -20   12  -21  -39   55  -58  -25    1   12   -5   -7    0   -6   56   -8  -10   -2   -7    2   22   44   -6  -15  -33  -46  -31   43  -13  -11   -3  -44    5  -59   33  -40   12  -50    1  -11  -32   16  -13   33   25   41    1  -22   30    9
  27  -24   26   20  -12  -25   13  -20  -42  -21    2   32    5    5  -54    5   17   38  -35  -71  -32   34  -61  -22  -14  -27   -7  -15  -18    6   40   38   -2   -8  -14    2   -2  -15   -4  -17    5   -9   47  -41   39  -65   47  -20  -25  -49   -6    2    4  -43   17    8   40   29   23  -19  -57   10   49   37
  20   56  -34   25  -63    2   -4  -21   -4    9   43   37    0    2    7   -8   -9  -25   -5    4  -53  -15   32   23  -25    4   19   33  -34   89   55    8   42   -2   10    2   19   24  -26   50  -27   -1    1   64  -23    7  -72   14    0    6   15  -15   27  -18  -16   37  -10   -2  -38    7   39   35   -8  -43
  24  -29   19   -4   -9    7  -29   18   26   10    9  -43  -19   24   -3  -11   23  -26   -8   21   20    8   15    7  -25  -14  -16  -12  -21   15  -11  -16  -23   17   -7  -20  -15    6    1   16   14    7  -31   -2  -15  -29  -10  -33   -9    6    9    3  -26  -36   20   26    7  -14    6    2    1   -3   24   -1
  35   21  -52    1   23    7  -31   14    8   11  -51   34   28  -21   29   35   -9  -16   19  -25   -4   19   -8    9  -13    0   20   18    4   27  -37   10   21  -31   22    1   -7  -16  -15  -24   58  -38    4    5   -9   -2   26  -21    4   -7   26  -20    0  -42    5    2  -11  -13  -14   39   -9  -32  -20    8
   8  -34   -4  -21   35   -1  -28  -34  -30   -1   -2   17    1  -26  -20   -6   48  -49    5    9  -21   23    5   -6  -25   40   31   25   -7   24   15   49  -15    1   -5    0  -16    7   49   -6  -20   23    0    4   10   -2  -36   14   11   30   -1   12    4  -26   -5  -61  -12  -26  -18   29   -2   12   37    6
 -13   20   15   -3   -7  -45  -20   -8    2  -17  -58   29    0   11  -32   17    5    1  -38  -20   12  -25    7  -12  -21   32  -21   18   14  -43    2   22    1  -18   -5   -6    6  -65  -17    1   21   -1    0  -35  -16    8   -5   -7  -36   58   21   50   26   -3   -2   42   20  -70    2   -6    1   11   -4  -44
  -9  -23    0   35   16    7   13   10  -65   26  -27   13    5  -35   26   42    3  -55  -14    8   14  -26  -17  -30  -21  -19   52  -21   -6   18    8  -27   15  -18  -24   11   25   -7  -59  -18  -28   -2   23   47   -6   13   -3  -31   11    1   -3  -11    7   26  -29   42    1  -25  -17   12   47   35    5    3
 -56  -42  -17   55  -11  -45   18   26   31  -22   -3  -12  -37   -1    7  -40    4  -68  -25    0  -13   -5   71   20   23  -32    4   30   37   -8  -21  -43  -42  -57   40  -25  -11   18   84   22   16   -9  -50   15  -34   19  -46  -15    1  -14   22    4  -31   53  -32   10   -7  -15  -23   32   23  -22  -28   33
 -40   -9    1  -15   -7   39    4   -3  -14   14  -15   21  -24    7  -40   10    0  -53   31  -14   19   -7   19   28  -30   29   46   -9  -41    2   -7  -13  -13   17    7  -27    2    4   32   -2   11  -12  -10   23   -3  -29    7   35   41  -10   47   13  -15   -6   -8    2   18  -26    0   45  -22  -22  -28   -5
  23    2  -23  -27   -4   43    3  -16  -15  -37  -37  -27   -2   18  -31  -25  -24    6    5   -9   56  -14   49   13   33   21   -5   32   44    4  -50  -40   19  -18   -5   23   -3   21    1  -18  -45   10  -22   24   36   32  -29   36  -28   37   65  -59   33   51  -13    4  -10    4   -9   -2   37   -1   43    4
  -7    2   -4  -10   39    6  -28  -20  -21   28   -1   -1   -1   13   37   20    1  -10   22  -17  -16   -2   -1  -39    2   -6   -4    2   20   -5  -13   20   -2  -10   18  -19    7    2   24   10    1    3  -42  -29   30    0   -6  -38   24  -24   -3   20   20  -10  -18  -19   55  -26   54    3   -3   38   58   15
 -19  -57  -22    9   24   33   48  -12  -16  -27   30  -33   -3  -26   35  -18    6  -43    5  -16    5   14    1  -19  -18    2  -24  -46   47  -27   38   -3  -14    0   19  -11   -9   12  -47  -19  -15   12  -18   55  -39  -42  -13   15   85   13    3  -23   53   11  -32    2   29    3   30   -8  -31   16   10   27
 -28  -33  -36  -20  -18  -19   22  -30   10   -6  -17   38   -7   10    4  -21   12   14   -4  -21  -33    5   16   15    8    9   45  -24  -31   18   13  -36   -3   22   -7   28    9   -5   36  -12   29  -26   -6    6   -5  -14  -13  -30  -31   -2   29   51  -29  -22    2   -2   -8   44   26  -22  -15  -26  -23    1
   6  -36  -11    1   -6    1   35   12  -16  -29   17   -4    6   12    2   -9   38  -23   28    9   -3  -18   38  -25  -33   13  -20   34   14  -21   16   -1  -19   -9  -13    3  -33   35   12   21   -8   28    4    5   -1   28   -5  -37  -37   26   10  -42   22    9   -2   16    5   34  -17   -6   -8   54   -1   18
  24    6  -42   23   48  -26  -13   75  -22  -12  -28   16   30   33   17   18  -15    0   31  -36   30  123  -28   22  -12  -40   -9  -26   58   21  -33   -5   13   19   31  -53    1   -7    3  -24    0   60   -8   15   27   45  -27   54  -22  -16  -13   -9    8  -21  -24  -37   24  -49   28    3  -31  -28  -23    2
   9   -1  -36    6   20   24  -12    2   -6   27  -32    9   26  -43   -8  -25   23  -32   -9    9  -12    4  -60   40  -30   18    8  -17  -37   23   -5    9   32    9  -16   37  -26   -9   18   71   -5   -3   11   25   29  -10   26   42   10    5   42   24    0    8   -4   27  -21  -16   11   42   -1   27   11  -29
 -15    9    0   13   36   47   38    1  -11  -37   -2  -12   24   28   53   20   46   -7    0   49  -25  -23   10   17    6   -9   18    0   22  -18    5    9   29   -8   23  -50    2    3   -5    1  -36  -20   26    1   28    2   12    5   14  -27  -45  -19    5  -31  -52   13  -17    9   22   51   10   33   26   20
 -27  -11    3   -3   -9   20   11    1    4   -4    3   16    4   -9   -1   21    4  -18    9    2   -4    8   15    6   12   18   11  -15  -11   16   14    0   -9  -16    0    3   10   -8    7  -11  -16   -9  -19    3   17    1    2   32   11   20    2   -5   10   -1   12   -4    0   -6   17   12    3   17   -9  -16
   2   -1   -1   -7   -4  -13  -19  -14   13  -18  -13   15   21    7    6    3  -28  -25   12    5    0    4   -7   35    3   29  -17    1  -22  -13   36   24  -19   30   22   12   11  -20  -27   -3  -20   -6   -9   12    1   18  -20  -13    3  -21   13    0    3   10    1  -32    7   20  -19    7   -1   43   45  -12
  -9   27   15    0    3   17    4   15  -23  -22    2   22  -24   40   32   13   -5   20   -6  -11  -40   12   29   24    9   30   11  -14  -16   16  -47  -29    8    9    2  -27  -33    3   -1   22  -25   -1   37   19   68   17   -4  -28    0   26  -17   35  -12   -1  -32   10  -18  -28   19   10   18   40   36   -8
  21   -4  -14   18   -7   14   -1   19  -13    8    7  -38   -6  -40    6  -23   46    7  -29    6   17    8   10   -1  -21    5  -27   22   -3   -8   27    1  -32    1   43  -13   10   25  -28   26   -8   35  -32    1   58   31    0  -29  -10   -4  -21   14   19   13  -36    3   61   -6   31   23  -16   17   18   -2
   8   10   19    4   -4   12  -24   52  -80    8   -7   46  -75   43   -7   -5   13  -34  -40   21  -51   20   68  -26    5  -27   19   -8    2  -35   10   21   47  -13  -23  -19  -59   10   -7  -48   10  -10   15    3   27    1    4  -32  -12   51   20   18  -19   41   36  -22   -5   18  -19  -17   -5   -5    7   16
   3    2    0    2   -2    1    0   -2   -4   -3    4   -2    1    0    3   -1    1    2    3    1   -1   -1   -2   -2   -2    3    1   -1   -1   -1   -2   -1    1    2    2    2    3    0   -6   -2    0   -3    5   -3    0   -1    3    3    2    1   -2    1    2    0    2    0    0   -1   -2   -1   -1   -1    0   -3
   1   21   21  -16   13   37   11  -14   30    1    4  -46    3   27  -31   55   -4  -44    9  -42    1   -6   10   -2    6  -12    1  -15  -11   36   21   -8   10   13   15  -53   -3   -6  -10   12  -11  -15  -12   -2  -23   -7   -9    3   16   -4   21  -44  -19  -26    5  -22   32  -34  -15   33  -30   23  -15  -18
  -2    5   -4  -10   23    8   18   -8   -5  -14   16   37   18   13    3   32   19  -40   23   14  -19   -6   27  -15   30  -38   67   24    2    7   11    6    2   -1   10   -2   -2   28  -14   -2  -47  -18    8   -4   21   16   10  -37   -4   -8  -27   -2  -22    0   -7   12   30    2   25   67   33   26   16  -12
 -57    7  -44    4  -18   16  -46   18  -53   15    9  -12   12  -50  -12  -10   35   34   61  -12  -62   36   16   28    3  -23    6  -49   58   -7  -11   40    2  -15  -32   21  -41  -25  -17  -17  -17    4   19  -24   23  -40   -6  -32    8   10   -8  -33  -20   62  -29   -3    9  -22   86   71  -35  -13  -31  -44
   7   -7   -6    3   51  -42  -19  -15  -20   -8   -3   19  -10   38  -14  -16    5  -54   35   -1  -62  -20  -33  -25   15  -13    8  -10   -5   10  -20  -21   17    7   36   27  -10    1   36    6  -17   27   29  -21  -11   -2    4  -23   15   32  -22  -19   23   62  -23    5   -9  -13  -12   10  -56   61   12  -19
 -31   -9   41    3   -7  -59  -48   -4   -3   22   -9   10  -25   17   21  -29  -11    5   35  -29  -37   -6    1   68   -8   22   -4  -28    3    8   28   14    8   14  -77  -61    3  -23  -15  -18   -5    6    1   -3   57   20   73   10    4    6  -33 -110   32   22  -56   30   81  -47   -5   89  -23  -15  -13  -48
  44   35  -36  -13  -19  -28    2   27  -38    1   -7   32  -14   -5   -8    3   -9   41   18  -12   12  -26  -23   21    6   20  -10   18   -3   10    5   63   35   12   -3   11   22   -2   -7  -14   -5    1    7   18  -37  -20   30   10    0  -13   -3   26   16   24   46  -31  -45  -10   -1   13   22  -17  -15   14
  36  -12   27   -4    6  -11    5   -2    8   -2  -27  -22    0   14   25   44   -6  -47   46  -25   33  -45    1   23  -37   29  -23    1   20  -22   27   55   25   -5   14   -2  -10   10   -6   24   18   80    7    4  -32  -47   19   16   74  -21   -3  -35   20   22   28  -52   -6  -50    4   41  -11   12  -30   18
   6  -61    3  -11  -13   -2   -7   17   -8    7   -6  -35  -87  -13   27   41  -48   10   -2  -10   42   63  -14   -2   12   -7    6   -9   28  -35  -15   16   16   10  -37   -3   14   -5    9   50   15   16   30  -11    6    2   51  -23  -41   45   41   36   38    4  -13  -45    0   37  -41    9  -31   41    4  -16
  33  -30   -4  -30   -3  -54   15  -21   14   23   11  -17   29  -12   -3  -54   -6   18  -17   36   11   -9  -14    9  -27    6  -13  -72  -11  -17   16  -16   48  -26  -16  -83   38   -6   12  -24   17  -32  -27   31   -4    9  -21   41  -20   -1   31   18  -36   22  -10  -29   -2    9  -55  -38   39  -42  -19   38
  58   38   -7   38  -57   -3  -10   58  -13  -16   36   14   44   15   16    1   54  -16    3    3  -16  -14   17   34   15  -48   39  -47  -14   20  -67  -10   20  -14  -23  -31   21    6    1  -34  -27    4    5   16    7    7   -2  -10   36  -16    9   -6  -32  -68  -93  -38   -6   60  -20   54   -5  -33  -27   52
   2   29  -23    0    2  -30  -47   -5  -20  -19   18   26  -18   -9   25  -13  -22   40    0  -25  -25    9  -10   14   39   32  -38   32   -6  -18   -8   45  -13  -22  -47   24    1  -19    7  -19   -4  -44  -19   -4   25   14  -26    5   18   -2   13   35   25   46  -13    1   -2   13  -14   28    5   20   16  -10
   0   27   19   40   23   13    5   53  -19   46  -43   14   16   -7   21   60   33  -36   15  -10    0   19   -3  -37   16  -42   32   39    3   15   27  -25  -43   58   32   -4   10   59  -18  -66  -13    6    2  -15  -25   26  -34  -16   40   16   51  -37   43   18   -8   23    7  -38   57  -31   -4  -12   24   24
 -33  -22   -3   32   51   25  -20  -20  -13  -17    6   -4  -36  -24    8   16   22   -8   49  -37  -23  -26   14   -1   15  -15   18   42    2   14  -17   12    7   13  -20   18  -36   29   -6    7  -10   13   -7  -47   25    7   21  -41   33   15    0  -19   18   16   -4   20    8   18   38   52  -16   32   -1    3
 -17   56  -30   -3    3   31  -23    5  -37   -8  -15   42   26   56    4   12   16  -34  -79    9  -19   26    0  -27    7   23  -11  -51    9    1  -12  -18  -12   75    2  -18   25  -20   -8   16   -5   36  -36   30   16  -43  -25   -9   15   19  -49  -39   19  -28  -15  -18   11   46  -30    1   35   35   42   58
  12   24  -13    4  -70  -11   -7    3    1    7  -19   -8   10   23  -48  -11   15   -4    8   40   29   52   38   18   15    8   12  -21    2  -24    1   46    3   20   11  -31   39  -32  -10   -4  -28  -17   37   25  -15  -14   -8   17  -24   -6   29  -13    8    6  -21  -16   22   34  -19   -3  -11   -2   -9  -15
  25  -33  -58   23  -41   35   14   17  -32  -62   12  -15  -17   13   -4   51   24   13   37  -13  -22  -29   47   -7   17  -29  -18   28  -32   36   33   -3    0    0  -14    7  -19  -30    5  -19   55  -50  -19   59   12   25  -46   17   -4    8  -16  -46    2    5   31  -28   11   14  -38   30   -4   77  -17   -3
 -12   37    8    3  -16   21   -4  -35    7   25  -22   31   25   11   39  -14  -19   -7  -18  -25  -74   25   43    7  -49   19  -63  -15   26   -2   34    3   31   -8   34  -53   31  -56   37   14  -28   59   44  -23   -1   -3   33   39  -36   36   54   38   -4   13  -24  -38   -5  -48   10    8  -29    4   62  -18
  12   10    6   -8   10   12   -7    5    0    2   -3   -4   -4    1   11  -16   -8   13  -15    4   -2   10   -3    6  -11    0   12  -22    2   -9    6   17    1    7   -6  -28    7    9    2  -14    8    8   15   -5   -5   -1   -1   -1    0  -24   18   -5    7   12  -10    2   -6   10    5    2  -12  -10   20    1
 -14  -20   15  -18   -8    3    6   16   18   18   23  -54   15    8   24   56   21  -40    5  -14  -22   -2   -1  -36  -33   20   11   12  -13   -5   33    9   27   24   28  -34  -10   -3  -20   47   -6  -10   37   17   19    1   46   -6   -2  -35  -23  -14   10   15  -46   15   19   -2   34   14   -3   40   -4  -52
  38    5  -47  -15  -11  -32    4  -67  -12    3  -25  -19   22  -28  112   13   35  -24   39   20   18   22   36   -5    4   -4   52  -10   13   -4   -1  -24   -4  -20   17   39    4   27  -34   19   -1   47   30   -8   50   15  -46    1   40   31  -14   36  -18    8   -9   10  -16  -18    8  -18   15   12  -26  -14
  23    5    9    1   13   25    3    7   -9  -13  -37   -5   23   21    0   34  -13   -5   10   16  -19   42  -34  -22    8  -10    6  -12   -8  -26    5   16  -34    1   41    3   15   14   27   16  -31   22   33    7    6  -15  -22  -30   14  -20    0  -16   18   25    9   14   14   -9   -9   -8   -9  -14    1  -12
 -41   40    7   16  -32  -19  -31   81  -42  -13   17    0   29   -2   -1   14   40   32   22  -36   62    8  -15   35   25  -21    4  -43   29  -74   53  -64  -23   -4  -30   26   23   23   42   18   14   18    7  -36  -31    8   14   -4    3    9   32    4    4    1  -59  -21  -54  -62   26   15  -50   22   74   -7
 -32   -6  -63   12  -22   54  -27   53  -52   21    6   72  -37   10   -8    0  -14   -9  -51  -33  -30   48  -27   -4   15   -8  -13  -15   14    2   32  -11  -12    3  -36   -5   42   15  -17  -11   -2  -51  -58    4   29   23  -34  -88   63  -21  -39   36   26   16  -13   12   32  -29    5   -8   34   -1   43   -3
   8    9   -9   16  -17  -21   13   -6  -16    0   11  -17    8   -1  -31  -23  -13   25   -7  -22  -26   -9   14  -23   28  -16   -2   22   14    5   34   23   12    2   13    3   13   10  -10  -28   -4  -22   -2    0    7   24  -11   -3  -48  -17   -9   17   28   10    8  -18   -5   39  -22   12   -2   -6    9    6
  10  -15    3  -13   -1    8    0   27  -38   17  -16   -2  -26    0    8   13  -52  -13    2   -8   -6   22   -3   -9    9   17   15    8   34  -46  -32  -35  -23  -31  -27  -14   -7  -30  -12   50   48   15   21   -8   20  -27   48   -9  -24   35  -11   24   10  -23   16  -43   18    8  -40   26  -20  -38   19  -17
   6  -18    9  -12  -56   11   14    6   -9    1  -11   -3  -11   54   -2   22   32    6   11  -10    1   24    4  -19   32   18   31  -26   13   21   29   12  -14  -34   48  -39    4  -12   42   -3  -19    9   24   -6   39   28   -7  -30   -1   -2  -32  -37   34   19   -8   19   -4   -2  -15   15  -15   -2    0  -25
 -25  -12  -26  -14  -15    5   26  -15   17  -36   57   -6   19   -1  -18   18   39   -7  -40   14   -7  -23   -1   12  -37   38   53   35  -17  -25   16   42   12  -17  -60   16   10  -30   14   24   29   12  -25  -31   10  -27   24   21   28  -35    5    6  -16  -15   15  -32   14  -23   36   29    7   11  -15    7
 -11  -16    8  -33   23   35   11   -8    5   38  -23  -25   -4   62  -11   26   10  -33    6  -38  -27    0  -10   21   22  -39   -7   13   49   83   44    0    4   -6  -14  -35  -34   28  -27    1    9   29   19  -33   11   -6   -2   31   14  -37  -24  -48  -17  -15   -8  -18   55   -7  -15   19  -25  -11  -38  -21
  10   39   83   11    9  -13  -14  -26    3   30   13   18   -6   -9    2   -1   11    0   55    4   25   28  -26   -2   16   28   18  -19   26   37  -27  -14   -1  -24   18  -16   10   68   32   60  -15   -9  -19   13   32  -55  -36  -18   37  -18    4  -61    6  -16    4   63  -60    3   -4   -2  -47  -13  -19   27
   6  -10   11  -11  -42   13  -40   15   12  -16   20    1  -36   11  -28   22    2   23   59   35   -9   38  -45   34   50    0    0  -25  -18   -7    0   28  -39   16  -25  -47  -35    3   -9  -42  -64   49  -14   -9   21  -20  -55    0   51  -11   12    4   38   -1  -75   16  -20   15   58   44  -34  -36   16    9
 -13  -10  -23   37  -26    6  -16   -4   16  -24   33  -29   -9  -18    7   27    3  -23  -10  -48    9   19   59   -7  -30   10    6  -17   16  -22   39   40  -14   50    8  -37  -19   29  -10   19    9   -5  -55   21    3  -21  -38  -16   18  -34    1   35   10  -18    1   14   -8  -38  -12   20  -24   -5   22   17
  -5   42   12   56   32    8  -66   -6  -33  -12  -18  -45   21   27  -35   -9  -36   22   15   -5  -28  -34  -13  -14   13  -21    7    7   24  -20  -58   32    2  -31   21   21    3  -13  -39   -2  -13  -50  -15  -23    9   13   53   52  -39  -13   43  -16   -2   39   -7   38  -24   29   37  -12   39   40    7    7
 -11   57  -29    2  -14   -6   13  -28  -28  -66  -10   -7   36   33  -41   28   27  -35   -7  -20   19   30   31  -46  -35    0   -6  -60  -11  -55   33   34  -75    4  -54  -10    5   22   31   21   27  -32  -54  -13  -18   63   72  -54  -13   28  -51  -40  -29   16   12   14  -42  -58   10   57  -95  -38   81  -54
 -34   22  -48  -36  -28  -11  -10  -36   18  -37   31  -22   -6   12   25   19   28  -16  -19   -3    8   -6   16    1    0   13   28  -24  -13    0  -53   55   61  -36  -59   -2  -27   11   34   -5    6  -18   27    4    5   18   32   44   -5    1   25   35   46   31  -16   55   25   -4  -62  -30    4   24  -28  -12
 -18   13   12   -2    1  -27   36   -3   19   11   26    3  -12  -19  -14   -2   -3   -7   -3   -3    9    0  -37  -10  -16   -4    7   65   18    0  -16   13   -2  -13    4   -1  -31   12  -21   10   11   57   17   16  -20   -3  -21  -19    0   -7    4    0  -14  -12   30  -15  -23  -11   -6   16  -14   22   26   44
   1    8    6   12    7   21  -17   26  -26   -9   18  -20   -1  -13   11   -2   19    6   -9  -23  -20  -14  -15   33  -14   -1  -27    8    5   58   24   -9   -9  -13   11  -10  -48   16  -39   35   -9    4   38   19  -10   18    5  -45   36   25  -45   -7   -4  -15  -40    6    9    5   31   59  -27   -2  -18  -21
  12   39  -34   -2   28   20  -22   10  -28  -26   -4  -21   18  -37   23  -15   33   24   14  -28  -35  -40  -21    7  -25    5   22    2    7   45   26   28    8   -9   21    5  -40  -15    0   53   -6  -15   30   10    9   33  -12   35   39   38  -13    5    0    6  -42  -30   -3   21   10    8   -6    6   17  -55
 -31   -7   33   -3   11  -40   -7    3   16  -11   31   -5    1    6   23  -17   -5   -1   27   -3   -4   -1    4   41   -1    7   31  -21   -7    7    8   19  -18   30  -28  -24    2   -7  -22   -4  -31   -3    8  -14   48   27   45   29   40    1   -6  -79   19   26  -37   36   67  -55    6   42   11    6  -11  -32
 -23   22  -33    4   -1   14  -18  -12   -2   19   26   19   -1   -9   -3   17   26  -10   26  -17  -19  -13  -17    4   23   -6  -12   15  -10   34   -1  -10    0   -3   46   24   -9    5  -15    5  -12    8  -14  -18    9   -5    6  -32    8   32    2  -11   51    8   -8  -12   -3   15   -4    3  -23   43  -18   -8
  60   -5   -2   20  -10    2   19   -2  -23  -42  -31    4    5  -10  -13   12   23   19  -17  -39    0   15   -4   21   25  -12   -3   19   34   45    9  -28    5   -5    6    6  -31    9   18   -1   12  -10   10    6   22  -14  -14   -1  -32   29  -34    6   47   27  -20   13   -6   35    7   22  -13   12   63   43
  -2  -26   -8  -18  103    3   32  -38    2   -7  -11  -29   -5   -2  -34  -42  -20  -20    0  -31   42   32   51  -11  -21    6   17   21    4   27   30   -5   -9  -34    0  -14    6  -23  -18   -1   34   -1   23  -11   -2   -1   -8  -43   33   -6    7   20   26   15   29   14    2  -13    1  -25   42  -32   17   -7
  11   16   26  -27  -10  -21   33  -27    4   -3  -20   20  -23   59    0   69  -35   -9   19   -3  -25   -3  -16   27  -14   -5   -3  -44  -25  -25  -30  -19   -2   46   30    0   -4    0  -25  -31   10  -32   19  -32  -14  -21   29   -2   99   34   24  -33  -51    4   19  -25   23  -58    7   16   15   45  -34    7
  16   -7  100   11   91   21    6  -52    7   -3   -7   34   91    9  -26  -55  -52  -29   43  -21    8   99   52   10   18   24    6  -12    1   58   -8   59  -30   -2  -13  -31   47  -40   -8  -26   67    5  -47   21   16   18  -26  -55   53  -50   -5   12    3   40   12   19   -5   -9  -11   -5   12  -23  -25  -32
  34  -20   11  -31   23  -12  -20   12   -6    8    6  -27   32   -8   21   -6   21   46  -20    5   34    5  -23   10   14  -33   20   -2   11    1   17   43   24  -27  -43   -9   -7  -22  -27  -15    1   12  -34    9  -12  -19    9  -18  -51   12  -37  -21   23   11   31  -10   16    0  -27  -19    9  -36   28   47
   1   75   58  -13   67   67  -64  -43  -52   69  -79   10  -11   20   36   20   54  -52   89  -24   38   57    6  -28   80    4   71   30   -9   -8  -17  -24  -10  -14  124  -58   26   85  -55    7  -59   26  -49  -45    5  -34   49  -62   45   15    2  -21   76    6  -30   64   48   10   53   10  -86   19  -25   81
   5  -34    2   22  -13  -18  -20   32   38  -14    3  -30   32   27    4  -59  -14   58   23  -10   26   15  -22    4   -5    4  -45  -22  -49    3    8    6  -13   23   -6   -6  -10    8  -19   -9  -11   40  -22   41  -35   -5  -56  -23   45    2   43   35   39   14   10   -8    8   27  -35  -21    0  -15  -51   45
   2   13  -45    7   20   19  -38   30  -16   -8   38  -18   -1  -26   -6   20   24   17  -18   -7  -71  -12   48    9  -17   17   -6   -7  -13    8   -8   32   23    2    7   25    0   54    5   15   22    9    1   23    2   14  -20  -18  -17  -15    9   52   43    0  -32   25  -15  -16  -22   -1  -37   21   32  -26
 -12   -3    5    0   25   26   -3   -3   26  -12  -32   -1   15  -18  -31  -16   15  -25  -11  -30    4   25  -38   -8  -17   26   34   16  -21    7   -4  -34  -13   23    4   34  -22  -18    0   21   -1   47   15   27   40  -27    0  -28   23   14   41   10  -54    4  -11   22   38  -19    6   23  -38   37   38   19
   0    5  -16    7  -13  -10  -27   -9   -5  -18   17    3    7    6   17  -10  -20    1   -3   48   -9   12    5   -5   33  -20    5   11    2   36   23  -15    2   38  -14  -14  -19    1  -23   21    6   -7  -12   11    8   -1   15  -19    3   10   33   16   32   -1    5  -40   -4  -30   -3    4    4   35    1   18
 -15   11    9   22   16   -7   20   35   36   44   -8    6   -2  -16   -3   60   -5   32   23  -14   33   29    3  -13   43   -2  -19   12    9   14  -15   23  -26  -18  -41  -25    1   10   -5  -43  -22   20  -39   -6   46  -11    9   -5   32   23   20  -17  -12  -89   69   43    1   18   68   17   24   19    2   18
  55    8    3   -5  -10  -10   18  -15   46  -57  -11    0   -8   -1   -1   42    2    3   43  -41    2  -19  -17   28   -1   -3   -3   29    8   24   -3  -27   17  -16   39   60  -38    7   11   -8  -22   33    7   15   16   -1   18  -14   43   35   28   41   16   53  -17  -53   22    6   46   -7  -13   19    5   -7
 -18  -34   51    3   12    0   38  -10   53   19  -16  -11   15  -23   -9  -17   27    0   23   24   22   -6  -27    0    2   -3    2    5  -17   25  -31  -10   23  -45   -9   26   28   11  -41   -9   -3    0   20   -8   14   17   22  -10   10  -12   -6   -6   23   -8   18  -18  -23   32   28  -22   35  -15  -23   35
 -15  -11    2   -1    7    5   18   11   56  -11  -27  -21  -16   40  -30   -4    0   11    6   -1   23  -23   -5  -15   -1   29  -18   -4   14   10   -9   38   -5   33  -11   -8   -3   14   27  -25   20    2   -9  -44   -4   10  -32   -3  -41  -32   45   -1   12    0   31    3   13   24   26  -22  -18    9    1   -1
   6   12   37  -11   -5    9   -4  -10    8   14   25  -39    0   56  -27   45   -7  -18   29  -53  -20   -7   31   -7   22   -9   13  -30  -20    6    0   -1   12   10   38  -38  -12  -11  -21  -39   -4  -70  -26   -9  -13   -6   32   33   -7  -10   25  -13   19  -27    8    7   18  -21  -37   21  -13   -4  -16  -21
 -19  -23   -8   22   -7    9  -35   -4    7   20   -2    9   -1   -9   40    4   23  -21   13   72  -10   49   -3   -5  -28  -20  -14  -21   -2  -16  -13    8  -34  -21    8   -5    4   -6    5   -5   37    5   20  -50   -8    8  -41   -3   23   -9    4   12  -12  -45   24   29  -27    7  -10   -8   -2    4  -16  -18
  11   55  -26  -13    0  -32    4  -45    9    5   81  -43  -53  -22  -58  -46   54  -10  -41   38   -7  -13   16  116   -3  -10   31  -19   -4   -6   35  -26  -14    8  -33   42   15   19  -19  -22    0  -66   39   20  -11  -22   39   35   -4   43   34  -11   -9   43    9   18  -42   22   -2  -17   -4   13  -33  -36
  -5    3    8  -11   13    5    1   27   18   12  -38    1   10   -1   21   42    6   -4    2  -39  -11  -13   -5   -3  -17   -2  -14   13  -14  -43  -14   22    8   46  -34   -8  -15   11  -11   -2   14   10    4  -33    9   13   -9  -16  -14  -20   15   18    3  -40    5  -12  -17    5   17   18   -3    5   38   -7
   1   36   14  -18  -36  -16   -3  -43  -19    3   35   -5  -34   -2   -6  -31   50   17   -8   15   25   -4   -1  -39   21  -12   13   -2  -18    5   16  -41   21  -13  -34   -6    3    0  -18   30  -36  -36  -25   24  -10  -18   10   51   -6   34   29   -7  -35   21   33  -12  -16   22  -36   -2   31  -41  -50    3
  31   -3   16    6   25  -31  -25   -9   -1  -26    3   16    4   -3  -19    9   29   31    3   13    2  -10  -20   -1   11   -5   -3  -13   29   -4   21   32   -4    8   10   11  -14  -24   23   -5    4   20   25   12   11   20  -38  -18   -7   60   -5   -3  -17   50   17  -38  -23    9  -28    2  -13   12   28   10
 -29   -4  -18    8   55   -5   36  -16  -12    5   18    3  -32  -16   11    5    9  -35  -10  -19  -51   30  -13  -13   -7    3   22    6   15   37    1  -18   -8   25    8   29  -22   29   -9   19  -71  -13   39  -11   46   26   55  -20    1  -17   -4   42   -7  -26  -19   -1   34  -15   -2   -3   30    2   12  -29
 -44   11   31   21   54  -33    0   11  -15   21   57  -15   34  -15   13   24   27  -18  -24   29  -47   19  -14   -8    4  -36   -8   27   18  -32  -16   49  -10  -26   48  -35  -42    7  -26   23  -25   10    2  -11  -15   27    7  -15  -13   19  -17  -12   33   14   -8    0  -42    1   -6   21   -4   18   10   47
  27   11  -35  -11    8   13    3  -10  -44    7  -28    1   20  -40  -26   24   35   -9   23  -31  -14    5  -30   20  -39   21    2   41   17   -6   -4  -13   -5    2   25   41   14    3    2   28  -22   18   28    1   13   -2    9   24   41   -5  -13   22   14  -15  -17  -27   -2   11   25   11   -3   21   -6   -8
  31   11   23    8   47   30  -26  -16   34   32   -2  -15   -9  -52   24   32   10   -2    4  -40  -17  -20  -42   -4   -8   11   -5  -12  -24   -2    8   12   -4   -9   25   -9   -2  -35  -30   42  -10   16   21    9  -54   27   14    8   32   -2  -46  -49  -37  -56  -31    0   12  -13   65   -3    9   32   26  -18
  14   -3  -15   11  -20  -27  -26   -7  -41   22   -4  -23  -14   -9   -6   14  -47  -18  -14    1   -2   51   29    5  -12    0   -3  -28   57  -37  -14   -8  -40  -19  -42    7  -30   -9   -5   43   20    2    8   24   16  -32   46  -10    3   22   31   18   14  -28   41  -26   -6    3  -35   -3  -18    9   14   18
  17   27  -13   22  -54  -43   10   51   -1  -21   -9   43   34  -34    0   64  -57   17  -47   25  -22   30   63   -9   -5    6   21  -18   45   63   31   57  -21  -22  -65  -43   -9  -12   54  -62   20  -76    6   25  -30  -25    0   27  -26  -18   33    5  -55  -25   36  -24    0   27   21  -28   37   -8  -15  -35
   9    1   -8  -11   29  -36   12  -61    7    8  -23    3   55  -32   41  -15   25   -5  -26  -31  -17   21   13  -11   28  -45   63   41    7   -3  -42    4  -28  -43    3   11    3   13  -37   44  -12   49   16    9   22    2  -47   24  -46   61   -2    4   41   23   -7   13  -33   23   -1   40   -6   17   44   36
  43   22  -44   19   10   50  -43  -32   11  -17  -61  -59  -24   -5   29   18   -8   21   41  -11   10   -2   19  -14   20   -4  -39   13   82  -17  -51    2   13   42   -1   41   19   20    3   16   16   16   50  -13   63   31  -20   19   -4   21   29    4   -8   -9  -12   34  -55   14   20   -9    4   12   51  -15
  -9  -32    8   47  -11    2   27   12   26  -18    9  -17    4   42  -56    7  -66  -27   -3   26   47   30    2  -11   13  -28   44    5   12  -19   37  -32   42   33    9    3   -2   15   44  -24  -41    5  -33  -14   -5    9   29   68  -10  -16   -8  -35  -24  -36   12   14    0  -17   -1   16   57  -43  -17   14
 -45   21    1  -36   28   33   10  -15   43   46  -66  -25    6  -17   17   50  -30   -9  -12  -14  -32   -4    0  -29  -46   -7   20   25  -12  -14    3  -58   15  -27   30  -14  -21    7  -21    5  -19   15   22   43   24    0   16  -29   36  -13   32   22  -39  -33  -41    4  -22  -15    3   19   -5   19    2  -51
 -29   12  -25  -18   52  -50   -5    8   -3    5   -2  -40  -10  -18  -71  -15  -16   -4   20  -26   29   30  -37   39  -24   55   19   11    6   30  -97   43  -19   23  -27   15   24   -4   45   44  -78   36  -19  -34  -19   33    3   17   37   -7   96   15  -32  -34   18   27   18  -43   21  -41    6   36   -2  -22
 -59   34  -33  -10   -1   -7  -14  -36  -37   17   -9    7  -16   -4  -12  -11  -12    1   27  -11    7   21   -2  -39  -13   14   34   26    6    3   17   -2  -10  -21    2   20    4   13   -8  -30    9   63   49    5   17    7  -38  -42   31  -41    5   34  -31  -44   -1    1   14   -7  -16  -15  -93    5   -4  -10
 -23   -6   37   25   20   24   29    4    8   60  -36   -5   -5   20   13   -5   14   15   48  -13    2    7  -18  -38   29   -2   13  -26  -39  -15  -23   18   22    4   39  -23  -14   35   14  -10   -1   29  -38  -33   13   -1   13   -8   19   12  -18   -2   64  -10   -5   15   33   15   31  -12  -13    8   15    5
 -20  -61   80  -11   68   42   57  -14   30    3    9   80   -3   66    2   13   -2  -15   12   23  -39  -19  -21  -29   37  -12  -27  -63   74   -8   42   46   -3  -33  -66  -19    6   61  -79   12    6   29   -1  -45   35  -36  -25   18   19   41   43    4  -44   26    8    8   -3  -50   13   40  -50   14   12   27
   0   -9   -9  -22   30  -11  -14    4    3    1  -30    0  -23   21   16  -18   20    7   29   22   16   -2    6    4    4  -11  -13   -9   -4    0  -25    0   -5   -2  -33  -20   -4    0   18   40   16   11   -7    3    7    3  -23  -17   -6   48   15    9   -8  -11    7  -10   10    7    0   -6  -19   -9   20    6
  12   -3  -59   23   -2   -9  -32   35  -38  -56   14  -32   -8   60  -19  -35    6   16   -7   24  -93   46   29  -26  -33  -17  -33   52  -38   -2   40  -32   66  -23   20  -42  -24  -14  -38   46  -30  -10   42   54    5   15  -32   72   44   70  -12    0   -7   19    7  -24   32  -48   28    5    0  -20  -48   48
  22   21  -17   48    0   10   -1    6  -13  -53  -17  -21  -14   -7   -9  -31  -25    5   33  -20  -11    1   11  -10   15  -37   -8  -40   22   15   13  -53    6   -1   32  -18    3   -7  -11   -9  -19  -25   44   19   18   16    0   22  -10   23  -16    2   17   30  -39   40   18   18   18  -21   -5   20   52  -20
 -13    3  -10  -32   33  -31  -10    3  -50   20   23  -24  -20    9  -26   44  -12   27   33   28    3  -35  -30   -9   -1  -52  -45   31  -10  -69  -14  -51   22  -49  -34   16  -50   -5   -8   16   53   36  -33    7   40  -78  -25  -43   45   35  -18    3   42  -36    4   31   27   10   16   42  -30   21   11   -4
 -18  -34    7  -13   22   10    1    5   41    6   11  -23   -5   -7  -32    7   10   -4   23  -21    9   27  -27   17   15    4    6  -32  -11  -26   18   -1    7    1   32    3    3   22  -44   -5  -32    1  -10   -2   21    9    9   22   49    8   -2    9   38    0  -37   -3   27    1   -4   37    0   37   -7  -28
  15    3   31   -9   -4   21    3    3    4   -6  -16    8   -4   13   -8  -10   -2    8   13   19   13   -3  -21  -22    4   23  -26  -19   -6  -11  -10  -24   19   -2   -3    5    4   -2   15   -9   23   -9   28   -8  -35    1    2   -8   -2   -2   15   -7   12   -9   33  -14   23    1   14   25  -33  -18   15    2
 -41  -42   52  -18   45   -4    8   -3    7   -1   42  -40  -16   39  -14   67  -17  -61  -11   -1  -13    8  -10  -11   -1  -40  -13  -38    9  -45  -35  -26  -37   24   14  -55   22   12  -34   -8  -15  -34  -41  -24  -29    7   -4   -7    1   -6  -18  -75   16   -6  -10   -6   -7  -30  -22   32   13   -3  -14   45
  12   27    2  -33   45  -34   24   24  -37    1    7  -17   18  -11   48  -28   -5   -8  -33   -6    0   19  -28  -56  -22   -6  -19  -28  -38   67   34  -12   65  -33    7  -69   38   10   42   17   35  -26  -25   12    3    5  -23  -44    6   10  -19    5   11   16   17   -6   45   45   37  -66   -2  -15  -22    1
 -50   15  -26  -27   21    3  -19   30   19   39   18    8   16   -7   14  -20   -8   13   -4  -18  -51   11  -51  -17  -14    8   19    5   10   16   15  -19  -10  -34   24   21   30  -18   22   20  -22  -25   -2  -27   42  -25   43   32    5    3   31   24    8  -20  -12  -29    3  -67   60  -30   67   -8   -1   23
  19  -59   21   84  -24    9   27   21   48  -21  -55   49   18  -27   -1    2  -81   29  -55   26   38   16   33   20  -35   23  -22   -6   12    4   41    5   -8  -33   -1  -48    5  -48  -11   13   19   23   -6  -28   21   45  -15   51  -24  -35  -42  -28  -29  -62    6  -32  -28  -23   76   -8  -34  -44   28   16
  24  -28   16   -8   20  -28  109  -41    7    9   22  -14   40   23  -29   41   38  -33   36  -33   -8    8  -23  -12  -31   25   24   17   -8  -10   44   61    8   11   17   19  -17   30  -25   27  -46   34  -24  -39   22   45   16  -13   31   46   13  -10   21   54    4  -15   23    6  -11   22   -6   42   -9   37
  13   -2   -1  -15   20    4    3   11  -21   -8    1   10    6    6  -22  -12  -14   -4    2   17    0    6   -3    0   -4    4    1    8    4   -2  -11  -25    5   -4    9  -11  -12   22   16    0  -11   -8    9    8   -2   11    2    0    0   15    3  -18    4   10  -17   -8   10    3  -11  -10  -14    6   10   -9
 -27   28    7    5    8    8   -5    5   31   -6   -2   -9   -3    0   31   28   -3  -15   13    1  -14  -27   17    4   25   21  -16  -12   18    2  -14  -39  -12   14    8   -3    7   -5   -1   21  -11   -5    1   12    9   16   39   -6   16   -4   -5   17  -14   -7  -30   14   -4    7   21    7   34   -1  -33  -29
   3    9  -35   -9  -10  -31   28   15   -6    3   25   13    2  -15  -10  -25   18  -31   14   48    3   38  -73   14  -37   14   34    3  -44   16   69   74  -19   27   29  -29    6  -18   -1   15   19    6  -20   11  -23  -29    0  -24   30   16  -26    9  -20    4   -4  -15   16  -70  -25    1    7   15  -16   15
 -13  -10    8  -17   45   20   -7   17  -23  -44   17    7  -28  -17   13   13    0   21   31   -7    7  -30  -43  -22  -44   -9  -19    0    2   -4   -8    0   -2  -46    1   -6  -10    3  -13   44  -25    7  -28  -13    9   30  -65  -19   38   15  -14   43   -1  -34  -22  -31   48  -15   14    7  -22   32   47  -31
   1   -1    1   -2    2   -2   -1    2   -2    0    2    0   -2    2   -1    1   -2    0    0    0   -2   -1    3    1    0    1   -1   -1   -3   -1    0   -1    0    3   -2   -2    3    0    1   -3   -2    1   -1    2   -1    0    2   -2   -1    0   -1    0    0   -2    2    2    1   -2   -1   -3    0   -1    1   -1
 -30   17  -37   -3  -13   13    9  -20   21  -26   26   18   44   -4   20   30  -26  -42   -3  -10  -41   32    5   -6   16   25   27  -14  -12   10  -15    0   45  -24  -58   45    7   19   44  -27   -6   -9   -1  -12   16    7  -19   39  -22  -24   21   14   29   47   -4   15  -22  -18  -31   -4   30  -15  -11   -3
  19  -46   -3  -44    0    3   29   45  -25   17   21  -19  -26   19    3    0    5  -17   -9   16    1  -10   53   12  -13   17    0   16   20   47   18   24   -2    7   -6  -14    4   25  -49  -16  -32   21  -22   19   39  -30  -52    8   -8  -29  -26  -17   45   42  -23   61   73   -9   -3   30  -11   16  -19   41
 -31  -46  -10   32  -14  -24   -9    1   77  -20  -28  -25  -10   11   12  -56  -22  -34   -9  -16   29   -2  -17    2  -10   -7   14  -33   47  -13   13   39   67   24   -9  -14   24   -3    0   18  -47   27   25   27   11   -2   36    1  -16  -36   11    1    5   -5   25  -12  -17   -8  -77    7   -9  -35   -3  -14
  -3   -2    7  -13  -10  -33    3  -36  -41    6    3   20   13  -42  -17   11   24  -21  -14   33   12  -14  -18   27    3   -7   18   17   25   -3  -18  -11  -40   -7   24   44  -16   31   -5    8    8   20   26   15  -22   -6  -11  -38   11   46   13   -8   -7   23  -13  -22    2   -9  -39   27  -47    2    4  -15
 -15   -9    3   -6   16  -30    0  -21  -25  -31   20    0   24   -5   25  -11   -5   16  -42   26   33   17    7   19   19  -33   35    3   19  -27  -22    2  -26   11  -30   51  -21  -11   33  -60  -19   -2  -29  -17    0   49  -34   35   17   23   -2   -7  -21   34    2   16  -23   -2  -16  -15   23   19   -7   -4
   3   39  -60  -11   -3   11   -1   23  -46  -14   45    3    3   14   28    9   21   -1    2  -27   20   53   26   -6   -6   39   -8  -79   -4  -39   -6    9  -16   65   40   -8  -18  -26   14   13    7    5  -56   25  -16   38   10  -13   32  -36   28  -34   21  -21  -16  -54  -10   57  -32    5   15   22   63   30
 -19   19  -15   28   10   58   13   -6   39   -5  -11   20    2  -25   -3   40   38  -24   14   10   -5   16   10    7   -7    4   52  -23   41   26   18   38   -1  -12   58    4   29  -20   26    3  -67    1   25  -29   36   27  -21   -4   -9   12   22    3    3  -13  -29  -41  -23   35    5   20   39   15   38   17
  -4   57   18   -7    9   34  -21   16  -31   15   16  -40   -8   -7    2   23  -23   27   -1   29   17  -14   20  -40   21   26  -71  -10    4  -21   -7    1  -17    7  -35    0   20   22  -41   -3   -5   38   15   24   -4   -4   22  -11  -24  -23  -28   17   35  -43    7  -10  -16  -33    0  -19   35   -1  -15    5
  22  -34    6    9   15   10  -33  -23   63   -4   -2  -28  -17    9   15    4    2  -54   23  -19  -45    6   12  -17   23    9    8   17    6    8   -8   76   17   46   14  -10  -51   23  -16   29  -34  -13   24    8   22    0   -5   19   31  -40   -5    2    5  -17  -27  -19    1   -5  -14   33  -11   32   27  -18
 -24    1   13  -64  -60  -21  -12   15  -17    8   12   14   15   39   45   67  -21   17  -39   76  -15   -2  -48   44   41  -40  -43   13   37  -51   11  -21   10   52   18   28   16   -4   23   -6  -14   37   -5  -22    1  -12    8  -16  -75   21   43   36   -8    9  -13   -3  -37   -6   -6   -3  -52   36   36   18
 -12   -2  -25  -12  -11   24   53   -1    7   19   13    6   10   36   -8   17  -44   15    8   50   -4   19   29   25   38  -34  -13  -18    2  -13   44  -37   16  -58  -20   -4    5  -21  -15  -84  -49    7    1  -29   13  -28    2  -39  -10   12    7   -3   30   10   20  -30    7   -4   38   38   -5    9    6   -3
   9   19  -13   -2  -30    1  -20    6   16  -16  -37  -21  -21    4  -10   21  -43  -12   31  -10   43   -5   23   15   21   -6   -8   29   36  -26  -23   -7   31   -7   -3    0    4   12   15    2   16    1  -26    0   -2  -48  -14  -26   38  -11    8   -5    6   40    2  -15    0  -12    4  -11   -4  -13   32   15
 -30  -49  -15  -12   44  -39  -18   31   -2  -22   19   16    6   -6   -3   44  -17  -22    4   -7  -48  -11  -52  -13  -14   10  -22    5   27   -7    9  -13   23  -22  -17    6   -3   21  -19    7   -3    1  -48  -10   39   22  -23  -38   27  -22  -14   15   -6   18  -29   10   -5   -7   24    5   28   54   30  -15
 -16   11   20   29   20  -45  -21  -20   32  -23  -13   22    8  -19  -29   -5  -12   41   10   57   17   -4   -7  -15    8   -4  -12  -57    6   -3  -29  -40   16   -4  -17   -1    1  -40  -17  -11    0  -54   -2  -12   -5   11   22   12    1   15  -21  -28   17   -7  -19   26   14   -3   13  -15   27   17  -23   -7
  13  -12  -21    4  -31   -1    5   -5  -12  -21   13   -2   12    0    5   -3  -27  -13    7  -16  -13   -1   -5    9   -2   48    1  -29   -9   42   21  -29   -9  -12   -3  -27  -10  -19   -2   -7   14  -10  -17  -10    5   21  -32    3  -26   -2   -8  -11   29   -2    0  -28  -13  -35   29   13    3   19  -10    5
   4  -46   -3  -18   32   15   -1    1    2    3  -27  -22  -20   10   -4   13   37  -56    4   21    5    2   -7  -15  -12    1   14  -17   -4  -19   12   -2   -3    3   -7   31   -6    6   13   33   43   19   -5    8   38  -16   -8  -18  -13  -30   13   -5  -27  -21   28  -13  -23  -14   19    0  -13    7  -11   10
  49  -35  -21   15    0    6    0  -13   73   -4    5    7   22  -29  -10  -13   30  -32   13  -13   -2   13   -4  -11   31   17  -14    3  -21  -74  -25   22   23   43   -2  -29   44  -34    6   10  -37  -60   43  -19  -44   28   -1  -46    3  -42  -25   46   -7   19  -21  -28   14  -30   22   30  -39  -20    2   -6
   7   -2   19   -3   -8  -28   -2   27   -7   19   35  -28  -26   33  -32   34   -7  -14   55    0   -1  -42   20   31   20    1   23  -11   -6    6   25  -11   23   23   15  -32  -12  -32    1    4  -10  -10    6   41  -44  -27   -4  -20   12    4   -1   -5    3  -18   31   15   -8   -2   -6   17  -40  -15  -19  -20
 -55   44   30    1  -50  -72  -30   -1  -20   32  -37  -59    8  -20  -25  -11   -4   20   16  -13  -19  -10    0   36  -46   11   11  -17  -31  -18  -14   -5  -26   -4  -25   31  -66  -23   -7  -21  -21   -7   22    9    5  -31   14  -32   -1   25    1   34   17   17   34   17  -29    8   -3  -17   54   30  -18   -5
  30   21  -13  -31  -31   13   18  -20   10   -1  -10  -27  -11    8    8    8  -27   -4    3  -36  -16  -40   23  -54  -10    9  -17    1   14  -22  -52  -28   33   48   43  -12   11   29  -24    1   24  -46  -18   29   64  -21   54   11   -7   18    3   19   -9   48  -29   16   23   -2   24    9  -17  -26   -8   14
 -12   23  -21  -19   42  -30   11  -23    0    1  -70    3  -17  -33    8   15    6  -31  -18  -34  -16  -12  -17    7    0   -4    3   11   -7   -1  -25   11  -11   24    3   11   17    6   53   49    9   30    4   45   -4   -8    1   13   16  -35   39   10  -36  -18   -5  -35  -30   -8   24   27   -1   -4  -13   26
   5   48    3    2  -14   -7    3  -14    1   31   39  -12  -14   -3  -20    1  -37   11    3   -7    1  -19  -22  -26    7   -5  -11   -3    7  -27   13   34   30    3    2  -36   18    3  -12  -15   20   26    9   15  -18   30   15  -13    4  -43    3   11    8  -26    0  -13   -2   -2    2   -2   20    0  -31   15
  84    6    1   -3    5   18  -15   31  -13  -29  -51  -12   38   14    6   61    7    6    4   -9   31  -40   21   56    0   11  -18   25   60   35  -36   22   31  -15   12  -11    4   21   -5   42  -10   15  -17   21  -39  -41  -26    9   15   56  -16  -30   51   43   23  -32  -32  -23  -11   16   11    8   60  -13
  57   11  -34   -4    2   10   23  -56  -59   50  -49  -23   10   -5   32   -4   22    5   10   20    1   11  -22  -40   27  -16    7   -9   -7   12    4   19   17  -83   -5   20  -32   34   84  -35   32  -10   -5    2  -31   -7  -13   29  -32    7  -23   42   20    6   29  -13  -23   49  -37  -16    8  -15  -16   40
  -6  -26  -14  -24   40    4   32    6  -31   27   50   -4   11  -22  -18   64    1   -4   28    9   23  -15    6  -11    3  -35  -25   37    0  -42  -29  -36   58  -64  -28   -7   -6   32    1   42   38   13  -16  -26   63  -37  -55  -37   44   -7   -9  -56   34  -53   13   45   26   43   58   15  -24   38   -7   12
  38   71    7    5  -11    4  -14  -31  -13   53   34  -74  -23   10   -4   28  -47  -16  -17   -6   14  -21   11  -40   76   -1   10    4   54  -46   28   27   16   15   17  -29  -14    7  -39   20   18   12   14   41   30   30  -45   -2   18   -8   -4  -25    4    3    1   15  -54  -22  -17  -13  -23  -12  -25   -7
  -1   -4  -10    0   14  -11  -35   -6   15   -5   61   15  -23   11   37  -26  -23  -11   38  -12  -15  -12    7   14   -1   33  -69    5   -2   31   -3   10   32  -15   27  -10   17  -22   12   10  -65   -5  -16   17   14   19  -21  -27   11   22   14   30  -23   12  -27  -52   -8  -19   -9   41  -54   64   77   -8
 -18  -24  -15  -27   37  -10   -9   26  -13   -7   11   -5   15    6   27   34   20  -42   32   16  -20   21    7  -22  -24   32    2   -1  -49  -49  -12  -15   -5   53    9  -14  -34   18  -36   28   -5   15    7   43   49  -25   59  -44   46   11   -1    2  -64   16  -40   20    3  -32   39  -40   -2    8  -15  -21
 -14    3  -28  -39   24   24   21    4   34   13    9    7  -13   42  -43  -56   29  -11   70  -28   -6  -12  -32   -2   53  -25   18    0   11   -3   69   -1  -41   23  -49  -19   17   40  -72   18  -45   -5  -28  -26   11  -32   -3   47   44   41  -30   56   37   41  -46   40   -3  -10    2   14  -24   21   -7  -35
  41   14  -26    6  -16   24    9   18  -45   18   -6    4   24  -46   -6    6   32   27    9   37  -18   11    4   -1   21  -16  -10  -21  -30  -11   18   17   15  -23   11    8   -8    2    3    0   -6  -14    1    3   30    2  -34  -13    5   24  -15   -6    6   -2   13  -19   11    2  -31  -22  -41   14    8   -3
   5    6   30  -76   16   16   17   -4   15  -22    3   -8  -61   -1  -37   -8   32   39    7   20  -12   36    0   32   -4  -29  -43   39   -5   -8  -27   -5   24   27    6   -7   -7  -41   16  -13  -20   34  -19  -16   -1    5  -15    9  -11  -26  -58   37  -34   35    4   35  -40    3    9   25  -44    1   -9  -41
   3   54  -45  -32  -36   -2  -32   20   10   18  -25    7  -51    2  -44   11   58   26  -14   16  -46   25   39   38  -16  -26  -17   12   17   48   40   17  -50   26  -20  -23  -57  -10  -32  -32   -9  -32   33   44  -67    9    3  -35   53   46  -26   21   16   12   12  -10   16   16  -31  -37  -26   31    3   10
   2    8    8  -15   -8   -2   14   -2    7   12    8  -22   -1   -2    4    2   -6  -20  -10  -17   -5   10  -30   -8    0  -32  -25   -3    6   18    9  -17   11  -30   37  -22   27    3  -22   18  -29  -23   -6   23   17    8    2   28    1    2  -26    6   26   14  -18   12    2   24  -19    9   57    8   -6   -9
  15   27    2  -42   -8  -23  -28   -9   24   23   -6  -11  -45   -2  -20   11   -8   44  -24    4    0   -5   -7   12   -9  -15   16   26  -12  -45  -12  -14   34   23   -3  -17   14    7   11   -2  -33   -1   -1  -28  -17  -26   -6  -43  -38    3  -14   61   16   14  -11   30   47  -58    5   54   29  -42   -1  -43
  -5   27    1   -6   37   38   16   -5    6   30  -15  -22   24   -4  -24   21   25  -10    2    6  -33  -41  -25   32  -12  -30   38   65  -26  -19   -9  -20  -37   12  -39   79   25   34  -34  -12   46  -13   21   -7  -29  -43   37  -14  -25  -46  -42  -28    2   -7  -21   59  -22    5   41  -10    7   -5  -46   -9
  17    8  -37    5   -5    3  -22  -16  -34  -13   -9  -20   -6   12  -11    2   -2    3  -14  -13    6    9   47  -11   18   20  -14   32   -6   17   31  -15  -13   41   -2   44    6  -11   -9    4   17   10  -59  -17    4    5   41  -12    2  -52   32  -13   46  -41  -38    5   36  -23    2   70  -20   15   42  -16
 -36    6   19   16    3  -40  -26   14   -5  -13   56    8  -16   42   -5   50  -37  -43   27  -14  -15   41   12   17    1  -11   -7  -11   -1  -24   -9    2  -17   25   16  -53   21   -4  -15    7  -30  -13  -11   21    3   -8   22  -30   19    8   16  -24  -59   31   19   25   20  -29   16   -4   34    1   -6   14
 -12   54  -44  -33  -35  -14   49   48   29   36   11    8  -38    9   -7  -30    8  -31    6   35   -3   44  -28   13  -25   -7  -26   42   -1   11   -6   -7    7  -37    7  -35  -49  -17   20   -2   45  -23  -20   27  -26  -10   15  -38   20   24   14  -33  -26   34   -2    9   43  -44  -12   30   22   23    8   39
  -4    5   12   -4  -19   14   11  -41    6    7    5   25   -8   -4    7  -61    7   31  -25   -5   19  -42   14   48    6  -21  -15   -6  -42  -36  -16   26   19    3   11   23   46  -29   13   12   19   -7  -34  -38   -2   14    2   16  -29    8   -1   40  -21   11    8   14   24  -16  -40  -28   16  -24  -16   -9
  33  -40   16  -17   24   35  -49   -7  -15   44    5    1   32    4   19   -1   47  -73  -24   21   24   14   -2   29    8    2   34  -15  -21   22    7   13    2   36    4   -3  -26   -2    6   96   33   37  -25   29  -20  -27  -51    8    7   31   48  -11   -1    6   11   32  -16  -39    8    5  -27  -34    9  -30
