   2    8    2    6   30   11    5    4    6
 -12   -3  -15   -9   42    2    6   26    8
  -7    5   -8  -13  -33  -14   19   25   21
  -5   -5   -6   -4   -4   -5   -4   -4   -6
   3    4    2    3   25    4    2    6    3
  -7   -4   -7   -5   -2   -6   -6   -7   -7
   4   11    5   22    3  -13   13    7   -3
   7  -18    6   14  -29   16    6  -16    6
  -3   -7   -4   -5   -5   -5   -5   -5   -5
  -6   -3   -5   -5   -6   -6   -5   -4   -5
  -4   -8   -4   -7  -10   -8   -5   -6   -7
  -3   13    1   15   37   18    2   11    3
   1    8    1    6   11    8    4    7    5
  -3   -4   -4   -4   -7   -5   -6   -6   -6
  -4   -5   -5   -6  -19   -6   11   33   14
   5   13    7   -5   13   -5   -8  -14   -9
  -2   -6   -3   -4   -4   -4   -3   -5   -5
  -4   -6   -5   -7    5   -6   -7   -3   -8
  -8    2    7  -17   -5   18   -8   -2    8
  -7   -4   -7   -4   -1   -4   -7   -5   -7
  10   -4   -6   22   -2  -19    8   -4   -6
  13   21   15    0  -14    1   -6   -9   -6
  -1   -4   -2   -4   -6   -5   -4   -6   -4
  -6    1   10  -15  -10   18  -11   -1   11
   6   -4    6    8  -21    7   10   11   11
  -6   -3   -6   -6   32   -4   -7   -1   -7
  -5  -17   -7   -2    3    0    9   21   10
  -5   -7   -5   -8   -2   -8   -4  -11   -4
  -5   -9   -6   -7   -2   -8   -5   -9   -5
   5   16    6    7   16    7    5  -12    6
  -9    0    9  -11   -6   16  -10   -1   11
   6   15    8    2    3    2   -7  -20   -7
 -12   -2   -6  -15   20   13  -22   15    1
  -8   -5   -8   -7    3   -7   -7   -6   -7
  -3   -4   -4   -4   -4   -4   -5   -4   -6
  -6  -16   -7    0    3    0    5   21    6
   6   11    7    6    4    7  -11  -18  -11
  -5   -6   -7   -5    9   -5   -8   -5   -9
  -4  -10   -2   -9  -21  -10   -3   -8   -1
  -6   -5    7  -17   -5   15  -10   -5   10
  -3   -5   -3   -6   -3   -6   -4   -5   -5
  -1    8    0    8   24   10   -5    9   -3
  -2    5   -2   10   13    9    3   10    4
   2   13    4   -8   21   -9  -16  -23  -15
  11   32   13   -5  -12   -7   -6   -5   -6
  -4   -4   -5   -6   -2   -6   -7   -5   -8
  -3  -26   -4   -3    0   -4    4   23    6
   2   12    4    0   25    1    6   10    7
   2    8    3    6   32    9    1   12    1
  -5   -8   -5   -8    6   -8   -8   -8   -8
  -5   -3   -4   -4   -3   -4   -5   -6   -5
  -3   -4   -3   -6   -1   -7   -4   -5   -5
   2    3    3    2   27    6    6    6    6
 -13  -17  -13   -7   16   -7   -2    8   -1
  11   -2   -8   18   -3  -13    8   -3   -6
  12   -5  -10   20    0  -20    8   -3   -7
   0   -5    0   -4  -40   -6    0   -4   -1
  -9   -8    9  -15   -7   21   -8   -8   11
   4   18    5   -5    4   -4  -12  -21  -13
   6   20    3   18    5   17   -5  -37  -21
   1    7    2    9    8    9    3   11    4
  -4   -6   -4   -5   -4   -5   -5   -4   -5
   1   12    3    0   15    1   -5  -17   -6
  -9   10    2  -15   -9   12  -15   12    6
  -5   -6   -5   -6   -4   -7   -6   -6   -7
  10    3   10   -2  -16   -2   -1   -4   -2
   7   -2   -5   20   -1  -20    9   -5   -5
  -3   -7   -4   -5   -4   -6   -4   -6   -6
  -7   -4   -8   -6   -1   -7   -5   -4   -6
 -19   15    9  -18  -15   19  -14  -14  -15
   0    0    0    6  -21    6   11    6   13
  10   20   11   -9  -15  -10   -5   -9   -6
   1   -2    1    3  -22    4    9   13   10
  -7   24   -6   18   28   22   11   16   14
   3   18    4    3   -2    4   -5  -17   -6
  -4   -4   -5    3   30    5    1    9    3
  -6   -5   -8   -6   -5   -5   -6   -7   -7
  10   29   13   12  -16   12   -5  -13   -8
  -3  -19   -5   -2    2   -3    7   16    8
   1   13    2   10   23   12    0    6   -1
   9   18    9    0   -3    0   -7  -17   -8
  -2   -3   -3   -4   -6   -5   -3   -5   -4
  -4   -4   -3   -5   -9   -5   -6   -9   -6
  -6   -5   -7   -5   -3   -4   -7   -6   -7
  -5   -5   -5   -3   -1   -4   -5   -4   -6
   2   16    5   10    4    7    3   14    6
 -10  -20  -12    9    7  -17    8   12  -10
  -9  -12  -11   -6   -6   -8   14   17   16
   7    5    8    9  -10   10    9    7    9
  -6   -1   -7  -13  -24  -14    9   34   12
  -2   -4   -2   -5   -5   -6   -2   -5   -2
  -3   -5   -3   -4   -6   -5   -5   -4   -5
  -3   16    3   26   74   30   21   -8   25
  -5  -15   -7    0   -1   -1    6   15    8
 -15  -14  -15   10   17   12    1    5    2
   5   16   10    6   23    7    3   -8    4
   8   14    9    0   -6   -1   -6  -13   -8
  -7    0   -6   -3   34    1   -5   -1   -5
  -3    5   -1    8    9   12   11   24   14
  -3  -19   -5  -10   -2  -10    9   27   10
 -12  -15  -13  -12   14  -11    6   12    7
  -6   -5    5  -18   -4   21  -11  -10   10
   5   11   -3  -17   40    8    0   14  -12
  13   19   15   11  -34    8    2  -19   -1
  -3   -7   -3  -10  -10  -10   -3  -10   -4
   1    2    1    3   23    6    4   16    5
  10   -7   -6   27   -6  -28   10   -9   -5
  -6  -13   -7   -2   -1   -2    8   19    9
   6   -4   -3   27   -7  -19    8   -4   -3
 -14    7  -13    7   33    9  -13    7  -14
  -5   -3   -6   -3   -1   -4   -5   -4   -5
  -7   -4   -8   -7   -7   -8   -6   -6   -7
   5  -15    6   11   35   12   12   18   18
  -8   -2    9  -14   -8   21   -7   -4   10
  -7   28   -3   11   52   17   -9   -8  -11
  -4   -5   -5   -4    4   -3   -6   -4   -5
  16   -8  -11   21  -12   -6   10   -6   -3
 -11  -20  -13    3    8    5    8   16   10
  -9  -10  -10   -8   50   -7  -13   -1  -14
  -4   -7   -5   -7   -5   -7   -9   -6   -8
  -4   -3   -3   -4   -3   -4   -5   -4   -5
   6   13    7    2    7    2   -7  -18   -9
   2   22    3   10    6   11    2   -8    2
  -4   -4   -6   -2   -3   -3   -6   -3   -5
  -5   -8   -7   -3  -15   -4    8   22    9
   1  -18   -1   -8   -4   -8    5   23    8
   9   -6   -6   23   -5  -17    9   -7   -5
  -5   -5   -5   -8   -3   -8   -6   -6   -6
  -1    5   -1    4   15    5   -1    6    0
   1    7    1    6   31   10    1    8    0
  -5  -10   -6   -7   15   -6   -9   -8   -9
   7   15   10   -3   11   -3  -12  -20  -13
 -21   -5  -21   -6   35    2  -17   -1  -20
   3    8    3   13   28   13   -2   10    0
   7    0   -7   22   -3  -18   11   -6   -7
   7   20   10   -1   -1   -1   -6  -20   -9
  11   23   12   12   -6   13   -6   -6   -6
   1    5    2    4   23    5    2    1    2
  -3   -4   -4   -4   -6   -4   -5   -5   -6
  -7   -5   -9   -7   16   -6  -10   -5  -11
  -2  -12   -1   10   -9   11   15   19   16
  -5  -17   -6   -3    8   -3    6   13    7
  -5   -5   10  -18   -2   20   -5   -5    8
  -1    1   -1    9    7   10    6   13    8
  -3   -5   -4   -8  -17  -10   -5   -3   -5
   4    6    5   10  -15    8    4    5    5
  -6   -2    9  -16  -12   23   -6   -3    8
  -5   -5   -6   -3   -4   -3   -5   -6   -6
  -5   -7   -7   -5   -4   -6   -7   -5   -8
 -11  -17  -10    3    2    3    7   26    9
 -14   25   -6  -16    8  -22  -15   28   -6
  -5  -10   -7    8  -27    5    8   24    9
   2  -19   -1   18   -4   19   11   30   13
   9   -2   -8   19   -2  -17    7   -2   -7
  -3   -6   -4   -6   -5   -5   -2   -5   -3
  -5   -4   -5   -5   -7   -6   -4   -4   -5
 -15   -5   11  -15   -5   18  -19  -14   10
   6   -4   -5   23  -13  -14   10   -9   -4
   1   13    2  -11   29  -10  -15  -29  -13
   3   10    5    2   11    2   -4  -22   -7
  -4  -20   -5    6  -15    4   11   12   13
   1    5    2    4   14    5    2    4    3
 -10  -22  -10   -6   28   -6   -2   11   -2
  -4   -4   -6   -5   -4   -5   -4   -5   -5
  -4   -6   -4   -5   -1   -5   -5   -6   -6
  -5   -5   -6   -4   -3   -5   -5   -3   -6
  -5   -4   -6   -5   -4   -4   -6   -5   -7
  -4   -6   -3   -7   -4   -6   -3   -7   -4
 -15   -5   12  -18   -2   17  -13  -13    3
   1    2    3    2   30    4    1    2    2
  -8  -18   -9   -5   -2   -7    7   19    8
  -6   -6   10  -10   -6   18   -9   -8   15
   6   -1   -6   19   -6  -14   11   -4   -8
   8   17    9   -1    3    0   -8  -17   -9
 -11  -12  -12   -6   14   -6    1   10    1
   7   13   10   11   45   16   11   13   12
   0    5    0    6   18    6    2    7    3
   1   -7   -1   -4  -10   -6    7   48   11
  -8   -6   -9   -6   -6   -6   -6   -7   -7
  -5   -5   -6   -4   -1   -4   -4   -4   -5
  -5  -13   -4    8   -9    5   17   10   21
  -7   -9   -7   -8    4   -7   -8   -7  -10
  -4   -4   -5   -6   -4   -7   -6   -6   -6
  -9   -2    9  -12   -7   19   -9   -1    8
   6   11    7    4    7    6  -14   -3  -16
   7   23    9    0  -15   -3   -4  -11   -6
   1   13    3   17    4   18    6   11    7
   7   25   10   -3  -12   -4   -2   -8   -4
   2  -17    2   21  -16   23    1  -20    2
  -4   -6   -5   -7   -3   -7   -5   -8   -7
  -1   29  -10    9   20   -7  -16  -26   -9
   5    8   -7    4   17  -17   -6  -22   -9
   9    0   -7   23  -11  -12   13   -1   -9
  -1   -4   -2   -4   -4   -5   -2   -5   -2
  -4   -4   -5   -4   -5   -5   -8   -6   -8
   7    1   -5   16   -1   -9    4    3   -5
  -6   -4   -6   -7   -4   -6   -7   -5   -7
   0   13   -1   10    9   11    1   14    2
  12   23   14    7   20    8  -13   -7  -15
   8   18   10    4    7    5   -2  -13   -3
  -6   -7   -6   -6   -4   -7   -6  -10   -7
  -6   14   13   12  -11   40   -2    9   14
  -6   -4   -7   -5    2   -4   -6   -3   -7
  10   -2    2    8  -22   -4   11    4    0
   8    4  -16   20   -3  -17   10    4  -16
 -30   -1   24   18    2  -17   18   -3  -15
   7    8    9    3   24    4    4   -1    6
  17  -59   15   20  -26   21   33   58   39
  18    2    9   -2  -36  -10   22    3    8
   7   10    9   12   -8   13    6   10    7
   1    9    2    8   29   10    5    7    7
   0   -6   -2   -5  -24   -6    0   -5    0
 -10  -13  -13    3    0    4    7   14    8
 -13   -1   -7   -1    0   -6  -13   -7   51
  -7  -17   -8   10   -7   10    9   14   10
   1    6    1    4   29    5    2    6    2
  -6  -10   -8   -8    0   -9   12   15   14
   3   11  -21   15    9  -21  -10  -29    4
  -8   -4   12   -9   -7   15  -11   -3   12
   6   13   -9    9   17  -21   -7  -22   -9
  -8   -8   -9   -8  -11   -9   -6   -6   -8
 -13   -1  -13   -4   20   -3  -11   -8  -12
  -5   -4   -5   -4    0   -4   -5   -5   -6
  -4   -5   -5   -6   -3   -6   -4   -5   -5
  -6   -4    8  -17   -4   18   -6   -5    9
  -3   -5   -3   -4   -5   -4   -6   -7   -7
  -9    2   -9   -2   35    3  -13    0  -14
  -7  -23   -8   -2   10   -2    3   17    4
  -8   -5  -10   -5   16   -4  -10   -3  -12
  10   30   13   -4  -12   -5   -4  -18   -5
  -7   -9   -8   -9    5   -9  -11  -11  -11
  -5   -5   -6   -6   -4   -6   -5   -4   -7
   6   22    6    2    1    0   -7  -17   -6
  -7  -15   -8    1   -4    1    5   17    7
   0  -20   -2   16   -5   17   11   23   11
  -5   -6    9  -12  -20   32   -2  -11   10
  -3   -3   -3    6   44   11   -1   12   -1
   0   13    4   22    9   19    8  -10    9
  -4  -23   -5   16    3   17   -6  -21   -6
   2   12    4   14   20   15    1   20    3
   9   22   12    1    0    0  -11  -17  -10
  -8   -4   -8   -4   35   -3   -8   -3   -7
  -3   -7   -3   -6   -5   -7   -5   -8   -6
  -7    0    8  -16   -4   19   -7   -3    8
   2    3    3   11   -8   10   11   11   13
  16   -1   17    2  -27    2    6   -6    4
   7    4    8    0  -31    0    8    0    9
  10    1   10    8  -45    8    9    6   10
  14   -5  -11   20   -7  -13   12  -10   -9
   1   23    2   14    3   16    6  -17    6
   1   12    3   12    3   11    5    9    6
 -16   -4  -16   -3   10   -3  -19   -3  -19
  -3   -7   -4   -6   -5   -7   -2   -8   -3
 -10   -9  -11   -8  -17  -11   13   28   15
   6    1    8    8  -44    7   12    5   13
  15   24   17   -6  -15   -6   -9    5  -11
  -4   -5   -5   -5   -3   -5   -4   -6   -6
   6   -1    6    2   15    3    4    5    5
   6    2  -15    3   -5   -4   31   -1  -12
 -27  -26  -30   19   39   21    2   41    7
   3    2    5    3   23    3   -1    8    1
  -8   -2    7  -17   -2   19   -8   -5   11
  -7   -7   -7   -7   -3   -6   -6   -6   -8
   9    5   -9    9  -10  -13    8    6  -11
  -9  -12  -11   -1    3   -2    8   14   11
 -10    1  -10    1   34    2  -10    5  -10
   3   16    3    1   34    5   -2    0   -3
  -5   -4   -7   -4   -2   -4   -6   -6   -6
 -11  -12  -11   -4   -2   -5   11   22   15
  -6  -11   -6   -6   -5   -8   -4   -6   -5
  -4   -6   -4   -5   -6   -6   -4   -5   -5
  -2   -5   -3   -4   -4   -5   -4   -6   -4
   8   -2   -5   26  -10  -17   10   -5   -5
   7   -4   -4   24   -2  -22   11    0   -9
  10   -8   -5   19   -7  -15    9   -7   -5
  -8   -2    9  -18   -2   20   -8   -3    8
   0   -5    0   20  -19   21    2   -6    3
   7    0    7    4   24    6    5    7    5
  13   23   47  -31  -19   12  -13    9   37
   5   12    6    1    9    0   -6  -14   -6
  10   24   10   28    2   30    2   -8    2
  -5   -3   -6   -5    2   -5   -7   -4   -8
  -7   -8   -8   -1   11   -1   10   20   11
  -7  -24   -9   -1   -1   -1    9   25   11
  18   -2    3   -3  -17   -2    8   -1    3
   0   11    3   12   16   11    0   13    1
   0    6    2    4   26    7    0    6    1
   5   -1   -6   16    2  -19    8   -4   -7
  -2   -6   -3   -4   -4   -5   -5   -5   -5
  -6   -4   -6   -4   -3   -4   -7   -5   -7
  -6   -7   -7   -6   -2   -5   -5   -7   -6
  15   27   19  -17  -17  -20   -9    3   -9
  23   30   25   -6  -30  -14  -15  -19  -12
  -6   -4   -7   -5   -1   -5   -7   -4   -8
  13   -5   -8   17   -7  -10   13   -7   -8
   3   -5    5   14   18   14   10    2   13
  -4   -2    5  -21   -3   23   -6   -5   10
  -4   -4   -4   -6   -6   -7   -3   -5   -4
  -4  -10   -4   -8   -5   -8   -5   -7   -5
   4   -3    4    8   22    8    6   30   10
  -3   -6   -4   -6   -4   -6   -4   -7   -5
   3   21    6   17   11   18    2    9    2
  -2  -10   -2   -7  -10   -7   -2  -10   -2
  -4    0   13   -7   -8   23   -4   -1    8
  -6  -17   -6   -3    1   -4    6   16    8
  -5   -1    6  -13  -14   21   -5   -2    7
  -2   -6   -2   -5   -4   -5   -2   -5   -3
   7   -4   -4   29  -11  -21    8   -3   -5
  -6   -4   -6   -3   -3   -3   -6   -3   -6
   6    1    6    7  -32    7    7    2    8
   2   25    4   14    4   15    0  -23    0
  -9  -10   -9   -2   -3   -2    6   17    8
  11   -4   10   22  -59   20   14  -12   13
   1    9    2    5   19    7    5    6    5
  17   23   19   -9   -3   -7  -15   12  -15
  -3   -5   -4   -8   -3   -8   -7   -5   -7
   1  -14    0   13  -16   11   19   25   21
   7   -1   -6   26   -7  -18   11   -2   -9
  -4   -6   -5   -4   -5   -5   -5   -4   -5
  -6  -11   -4   16   -2   17   16   18   17
 -11   -8  -10   -4    0   -3   10   24   12
   1    8    2   11  -11   10   11   14   12
   3  -37    0   21  -14   20   22   34   27
   8   -2   -7   15    1  -16    9   -4   -6
  -5   -4   -5   -5   -2   -4   -5   -6   -6
   8   34   11   -3  -17   -3   -3   -6   -3
  -7   -6    6  -14   -6   23   -6   -9    8
   5    1    4    6   28   10    6    9    4
  -7  -18   -9   -7   10   -6   -1   13   -1
   1   20    3   19    7   21   -2  -19   -1
  10   -5   -2   27   -7  -24   12   -7   -3
   4    7    4    5   20    8    8    5    8
  -7   -4   10  -15   -3   20   -6   -5   10
   1    3    0    4   31    7    1    7    2
  -8   -5   -8   -4   -3   -5   -6   -4   -6
  -6   -4   -6   -7    1   -7   -7   -5   -8
   1    4    3   15   -6   15    7   10    9
   0    9    1    6   29    7    6   10    6
  -3   -3   -5   -5   -6   -4   -7   -6   -7
  -6   -2   -6   -5   -6   -6   -6   -6   -6
  -9  -17  -11   38   -7   36    1  -16    0
   3   -2    3   -1  -32   -1   16   11   18
   1   14    2    0    6   -1   -7  -19   -8
 -14    7    7  -16  -10   20   -8  -11    9
  -4   -5   -4   -1  -18   -1    9   16   10
  -3   -4   -3   -4   -4   -5   -3   -7   -3
  -4  -18   -7    5    0    4   11   21   13
  11    9   12    4  -26    3    7   -9    7
   9   15   11   -3    8   -2   -7  -20  -10
  -8   -4   10  -16   -5   21   -7   -6   12
  -8   -4   -6   -4   -3   -4   -7   -3   -8
  -3   -7   -4   -6   -6   -5   -4   -8   -4
   0    1    1   -7  -10   -8   -1   -1   -1
  -7   -3   -7   -5   35   -5   -9   -4  -10
   7   17   10   15   -3   13   17   15   18
  -2    2   -3   14   24   15  -13  -19  -15
   8   24   12   -2  -13   -2   -8  -12  -11
   9   13   10    1    8    1   -8  -13   -9
  -1  -11    0   -9  -18  -11    0  -15    0
  -4   -3    6  -19   -2   22   -7   -7   12
  -6   -6   -6   -5   -1   -6   -6   -5   -6
  11    9   12   12   -3   12   -5  -12   -8
   3    8    4   11  -14   10    6    9    7
  -2   -2   -7    2   13  -11    0   -3   -9
   3   -8    1    8   13    9   13   10   14
  -7    4   -6  -15  -12  -13    1   39    6
  -5   -6   -5   -7  -11   -8   -2   -9   -3
  -6   -4   -8   -3   -6   -3   -6   -6   -7
  -1  -23    1   29  -24   31    2  -25    1
  -2   15   -1   13   29   16   -2   16    1
  12   26   15   -7  -10  -10   -5  -13   -7
  -2    0   -1   -7    6   -7  -10  -12   -9
   6   23    8   -1   -1   -3   -4  -18   -5
  -1  -92    5    9   13   14   70   93   76
   2    5    3    0   31    5    8   13    8
   5   18  -15   10   20  -28  -40  -41  -18
   1   15    3  -11   23   -8   -6  -25   -7
 -24   17    4  -24    7   17  -31   18    6
  -5   -4   -6   -4   -2   -5   -7   -6   -7
   1   15    2   14    3   15   -2   17   -1
  11   19   12  -12   -6  -14   -4   -7   -5
  -9  -20  -10   -2   11   -2    4   18    5
   9   25   11  -11   -9  -12   -6  -15   -7
  -4   -5   -3   -6   -5   -7   -6   -6   -7
  -1   18    1   16    1   15    8   11   10
   8   -8   -6   22   -7  -18   10   -7   -7
 -12   -7  -15   -2   72    2   15   16   18
  -5    0   -6    7   36   10   -9   14  -10
  -1   -3   -2   -3   -6   -3   -2   -3   -3
  -4   -4   -4   -3    1   -4   -5   -4   -6
   1    5    0    6   24   10    1   12    1
  -4    1    4  -20   -2   21   -5    0    4
   5   30   10   16   25   19  -12  -27  -12
   1    6   25   -7  -44   12  -21    1   19
   6    7    7   12   -3   11    7   12    7
  -7  -19  -10    1    2    2    7   14    8
  -5   -6   10  -16   -8   27   -8   -6   11
   8    1   -6   22   -3  -20    8   -4   -7
  -2   27    4   -6   17   10  -12  -17  -11
  10   21   10    0    0    3    0  -12   -2
  -6   -8   11  -13  -13   30   -4  -13   15
   9   33    9    6   19    8   -2  -18   -1
   2   33    5   -6   -9   -8   -1  -19   -1
 -10  -17  -19  -20   12    9  -12   14    8
   6    6    8   12  -12   13    4    3    4
   3   -5    4    9   25    9    6   24    9
  -5   -6   -6   -4   -4   -3   -5   -6   -6
   7   -6   -2   22  -10  -20   11   -6   -7
  -4   -5   -4   -5   -4   -5   -6   -6   -7
   0    5    1    5   19    6    0    6    1
  -5   -6   -5   -6    1   -7   -5   -6   -6
  -6   -5   -6   -4   -5   -6   -6   -4   -4
   8   18   11   11    2   12   -3  -11   -5
   2   15    4    9   15    9    3    7    4
  -4   -5   -5   -5    1   -5   -5   -5   -5
 -14  -14  -16   19  -17   18   26   22   29
   4   -6   -5   19   -3  -15   10   -5  -11
   8    1    9    0  -29    0    8    2    9
   6   22    9   -4   -7   -5   -4  -14   -6
  18   29   18  -21    0  -20   -3  -22   -4
  -8  -11  -10   -2   -1   -3    2   17    3
  -6   -9   -6   -4   -4   -4   -7   -7   -7
  -5   -5   -5   -5   -2   -5   -5   -5   -5
   8   13    9    8   11   12   -3  -18   -5
  -5   -5   -6   -6   -1   -6   -6   -7   -6
   8  -10   -5   21   -1  -16   11  -11   -5
  -5   -4   -6   -5   -5   -6   -7   -7   -8
  -4  -12   -5   -5   -9   -6    4   23    6
   7   31    8   -9  -17  -10   -4  -11   -4
   3   15    6   13   -3   12    7   11    8
  10   22   11   -1  -22    0   -4   -3   -4
  -7   -2   -8   -3   -1   -3   -9   -3   -9
  -4  -12   -6    4  -15    2   11   12   12
   9   19   12   -2   -4   -3   -6  -17   -7
  -8   -6   -8   -4   -3   -4   -6   -5   -6
  -4   -1   -4   -5   -7   -5   -5   -3   -5
  -4   -5   -5   -5   -5   -7   -8   -7   -8
  -4   -6   -5   -5   -8   -4   -4   -6   -5
  -5   -5   -6   -3   -3   -5   -6   -4   -6
  -3  -11   -5    1  -23    1   11   18   14
  11   -3   -7   20   -4  -18   10   -5   -5
  -7    0   -8   -5  -22   -6   13   23   15
  10   -4   -7   22   -9  -17   11   -5   -7
  -4   -4   -4   -4    0   -5   -5   -7   -6
 -89   31 -113  109   87  114    9   -8   45
  -4   -6   -5   -6   -5   -6   -6   -5   -8
   8   13    9   15    1   15   -3  -11   -2
  -2   -7   -2   -4  -22   -6   -2   -6   -1
  -5   -6   -6   -8   -4   -7   -5   -6   -5
  -9  -11   -9  -12   48   -2   -9    2   -8
  11   15   13    5  -19    5   -3   -8   -5
  -7   -8   -9   -4   -2   -4   -6   -2   -7
   9   25   11    3  -28    4   -5   -5   -4
   5   15    6   -1    3   -1   -5  -17   -7
   8   -8  -13   17   -8  -17    7   -5  -15
   7   -1   -8   21    1  -19    9   -5   -5
  -3   -4   -5   -6   -1   -6   -3   -5   -4
  18   16   20   13  -24   13   -6  -19   -8
  -6   -7   -7   -6   -3   -5   -6   -4   -7
  -4   -5   -4   -6    1   -6   -6   -6   -6
  -5   -6   -6   -6   -3   -6   -5   -6   -6
   7    0   -6   22   -4  -18    8   -1   -7
   8   13    9   -7    3   -7  -11  -13  -12
 -10  -14  -11   -6   13   -8    5   14    7
   4    9    5    9   -7    9    2   12    4
   8   -1   -8   15    4  -19   10   -3   -8
   5    0   -7   18   -1  -17   11   -3   -7
   0    4    0    8   23    9    1   11    4
  -5   -4   -5   -5    1   -5   -6   -6   -7
 -12  -17  -13   -7   11   -5   11   19   13
  -4  -10   -4   -3  -23   -5    7   32    9
   7   -1  -10   13    7  -12   10   -2  -10
   0   -4    0   -4  -19   -4   -1   -5   -2
   5   12    3    5   20    9    8    9    6
   3   13    6   -7    5   20    1    7   12
  12  -10   -7   17   -3  -18   13  -11   -7
  -4   -6   -4   -6   -4   -7   -5   -5   -6
  12   24   13   16   -3   17    3   -8    3
 -15    6  -13    6   24    9  -15   11  -13
   7   -1   -7   23    2  -23    9   -4   -8
   5   17    7    3   10    3   -4   -5   -5
  -8  -14  -10   -1   -3    0    6   18    7
  -5   -5   -5   -5   -4   -5   -5   -7   -5
  -8   -5   -9   -6    6   -5   -8   -6   -8
 -17  -10  -15   -3   39   -2  -18    3  -14
  11   16   14  -11   -6  -13   -4   -4   -4
  -5   -8    8  -10  -11   29   -7   -7   12
   4   17    8    9   40   13   -5    4   -5
  -6   -3   -6   -4   -5   -4   -5   -3   -6
   3    3    3    3   27    7    4    6    5
   7    1   -9   16   -3  -13   10    1  -13
  -1   -6   -1   -5   -3   -5   -1   -5   -2
   2    4    4    0   15    1  -10  -15  -11
  -7  -13   -8    1    6    1    5   16    6
  -7  -15   -9   -4   12   -3    6   13    8
   5    2    4    1   21    3    5    7    4
   1    5    1    3   19    5    2    5    3
   4    5    5   10    8   10    9    8   11
  -4  -15   -6   -3   -9   -4    7   21    9
  -3   -4   -4   -5   -1   -5   -6   -6   -7
  -7   -7   -8   -5   -2   -6   -4   -2   -4
  13   10   15   -3  -24   -3   -9   -6  -12
  -4  -14   -6    8  -17    6   19   17   20
  -5   -8    8  -19   -8   24   -5  -11    8
  10   11   11    1    1    0   -6   -9   -7
   6    0   -6   23   -5  -17   10   -1   -8
  -1   -2   -2   -2   -8   -2   -2   -2   -2
  -3   -4   -4   -4   -2   -4   -5   -5   -6
  -2   -9   -3    3  -15    0    9   34   11
  10   26   12   -6  -13   -7   -1  -12   -4
   5    8    5    0    6   -1   -7  -14   -8
  -5   -2    7  -17   -1   16   -6   -5    9
  -7   -4   11  -14  -14   23   -8    0    9
  -4   -1  -20  -21  -26   -2   -3   -1  -22
 -15   13    1  -14   13    9   -8  -17  -13
 -17  -19  -18  -11   -6  -12   13   19   13
   0   24    6  -15   -2   18   15   19   12
  -8   -7  -10   -5   -3   -6   -8   -6   -8
  -4   -3    8  -18   -7   21   -8   -5    9
  16    4   -2   19  -30  -14   16   -1  -15
   5   28    7   -7  -18   -9   -4   -4   -3
  -6   -6   -6   -5   -3   -6   -7   -7   -6
  -1   -1   -1   -1   -9   -2   -1   -2   -1
   4   -4    3    4  -21    2   17    4   13
   3   14    5    0   10   -1   -5  -19   -6
   4   -1   -5   23   -1  -23    7   -1   -7
   0  -12    0   -5  -19   -8    2   32    5
  -1   10    0   11   21   12    4   10    4
  -7   -5   -7   -8   16   -7   -8   -4   -8
   8   11   10    6   29    9    4    2    5
  10   -5   -9   21  -12  -13   20  -10  -14
  -9    5   13  -10  -22   17   -7    6   14
  -5   -6   -5   -7   -1   -7   -4   -6   -4
   9   24   13   -7  -16   -8   -5   -1   -6
   2    5    2    5   17    6    2    6    3
  -6   -4   -7   -5    3   -5   -5   -4   -5
 -10  -19  -23  -20   11    6  -12   14    6
  -4   -5   -5   -5    0   -5   -5   -5   -5
   4    2    4    3   27    6    2    9    2
   8   17   11   -2   -9   -3   -3  -12   -3
  -4   -5   -4   -6   -5   -7   -4   -6   -5
   4   14    5    5   -4    6   -6  -18   -9
  -4   -4   -5   -4   -4   -4   -5   -3   -6
  -5   -6   -6   -6    2   -6   -5   -4   -5
  -4   -5   -4   -5   -6   -5   -3   -6   -4
   0    5    1    3   23    4    1    3    2
  -9   13   -7   12   69   22  -19   23  -19
  -3  -12   -3    1  -30    1   15   14   15
  -7   13   -6   -3   33    3  -11   -8  -10
   2   17    5    7   15    8    5  -16    3
  -5   -6   -6   -5   -3   -6   -6   -5   -6
  14   44   15   -3  -23   -3   -7  -11  -10
  10   22   11   -2  -22   -2   -3   -8   -4
   2    9    4   10   18   11    4    6    7
  22   52   26    7   51   18   10  -25    3
   7   20    9   -3   -1   -4   -5  -17   -6
   3  -13   -2   17    8  -21   10   -8  -10
  -5   -2    7  -14  -18   32   -8   -4   12
   1    5    3    4    8    4    2    4    3
  -1   -9   -3  -10   -9  -10   -4   -7   -4
  10  -13   -7   23    3  -22   14  -13  -10
  -5   -7   -6   -4   -3   -5   -5   -4   -6
  -8  -15   -9    5  -10    4    9   16   10
   7   11    8    4   18    5    2    5    2
  -6   -3    9  -15  -15   24   -7   -6   12
  10   17   14   11  -17    8   -8   -9   -9
  -1   22    1   17   63   22  -18   27  -10
  -6   -4   -6   -5   -5   -6   -6   -7   -8
 -14    6    4  -25   11   13   -2   -5   -1
   7   -3   -7   16    3  -19    8   -7   -6
  16   23   19   -3   18   -4  -18  -21  -20
  -8   -1   -2  -10   15    2  -10   -3    0
  -4   -6   -5   -6    0   -6   -3   -5   -4
  -2   -5   -3   -5   -4   -5   -3   -4   -3
  -8  -16   -9   -5   -9   -6    9   26   11
  -4   -4   -5   -5    4   -4   -5   -4   -5
   1   15    3    8   17    8   -1   -1   -1
  -6   -4   -7   -5   -6   -6   -5   -4   -6
  19   11   23   13  -16   12  -12  -26  -13
  -5    1   11  -12  -20   23   -8   -1   16
   3    2    3   11   42   11    3   15    6
  16   18   17   -5  -21   -5   -7   -9   -8
  -6   -6   -7   -5    0   -4   -5   -2   -5
  -8   -4    7  -14   -8   25   -2   -6    5
  -4   -1   -4   -6   -2   -6   -3   -1   -4
  -4   -6   -5   -6    2   -6   -4   -5   -5
   6   16  -11    8   14  -23  -20  -25  -10
   1    6    3    6   12    6  -11  -16  -13
  -2   -6   -2   -6   -8   -6   -4   -7   -4
  -6  -21   -6   -8  -13  -10    6   37   11
  -7   -7   -7   -8    2   -8   -8   -6   -8
  -7   -6   -7   -4   -4   -6   -5   -5   -5
  -6   -5   -6   -7   -3   -7   -6   -7   -7
 -10  -17  -18  -17   18    7  -17   13    5
  -4  -10   -7   -4  -13   -6    7   23    9
  -3   -5   -4   -4   -4   -4   -3   -5   -3
  -4   -4   -4   -6   -3   -5   -5   -6   -6
   1   11    4    6   25    8   -5    5   -1
 -17  -19    4  -16   20   15  -19  -14   11
  10    9   10   -4   10   -3   -9  -13   -9
 -11  -26  -24  -20    9   11  -20   17    7
  -5  -25   -9    9   -4    9    8   12   10
  -4   -7   -5   -7   -7   -7   -4   -7   -5
  -7   -2    8  -15   -2   15   -6   -4    9
   3  -22    2   31  -25   31    3  -24    1
  19   30   22   12   49   19   -2   -4   -5
  -6   -6   -7   -7   -3   -7   -7   -4   -7
  -8   -9   -8    1  -15    0   11   18   13
  -4   -8    7  -20   -7   28   -6   -8   10
  -3   -2   -3   -2   -6   -2   -2   -1   -2
  -8   -5   11  -13   -8   21  -10   -1    9
  -1   -8   -2   -7  -13   -8   -4   -5   -4
   6   12    8    1   18    2    2    6    4
  -4   -9   -6   -1   19    5    8   33   12
  -7  -13  -10    1   -6    1    9   17   11
  -5   -6   -6   -3   -6   -5   -6   -5   -7
  -4    8   -4   10   43   16    9   15    9
  19  -19  -12   13  -39   -8  -25   50   19
  -5   -5   -5   -4   -3   -4   -5   -5   -5
  11   13   12   -1  -18   -2    1   -3    0
   7   -3   -5   19   -3  -16   11   -3   -9
   3    7    3    4   12    5    2    6    3
  -3   -6   -3   -3   -5   -3   -5   -5   -4
  -7   -5   -8   -6   -2   -5   -5   -5   -6
  -5   -4    9  -17   -7   20   -5   -2    9
  -3   -6   -3   -6   -3   -6   -4   -6   -4
  -4   -9   -5   -6   -3   -6   -6   -5   -6
  -6   -7   -7   -7   -5   -8   -6   -5   -7
  14   13   16   -8   -2   -8   -6  -12   -8
  -4   -4   -4   -5   -4   -5   -4   -4   -5
  -3  -16   -6   -4   -2   -4    6   30    8
 -10  -35  -14    5   26    6   14   47   22
  -4   -6   -5   -5   -2   -5   -5   -6   -7
  -6  -13   -8    0   10    0    4   14    6
   9   -5   -6   16   -4  -13   13   -7   -9
   6   -1   -4   22   -7  -18    7   -2   -4
  -7  -11   -9   -1    4   -1    5   17    7
  -8   -3   12  -16   -2   20   -7   -4    9
   2    2    2    4   33    8    3    5    2
  10   19   13    8  -17    4   -3  -19   -5
   9   16    9   -5    2   -6   -5  -16   -8
   7    9    8    2   -2    1   -6  -14   -9
  -4   -6   -5   -4   -4   -5   -4   -4   -6
  -4   -4   -5   -5   -4   -5   -3   -5   -3
 -10  -13  -12    1    1    1    6   12    7
  -3   -4   -4   -2   -6   -2   -3   -1   -3
 -10   -8  -11   -8  -10   -8    8   19   10
   3    1   -6   27  -19  -16    9   -1   -9
  -8  -18   -9    4   15    3    1    1    1
  -1   -4   -2   -3   -9   -5   -3   -4   -3
   3    0    4    4   20    6    5   11    5
   3   -1    2    0  -24    0   12    0   11
  -6   -5   -6   -5   -3   -5   -7   -5   -6
 -10   -1    8   -6  -31   25    2   14    9
  -6   -2    7  -17   -3   17   -3   -3    5
   1    3    1    2   20    4    2    6    1
  13   -5  -10   18    0  -20    9  -11  -11
   8   -1   -8   20   -3  -17   11   -4  -10
  12   -3   -7   19   -2  -17    9   -2   -8
  -9  -20  -15  -19   19    7  -15   10    1
  -6  -11  -19    8  -53    1   22   10   20
  10   12   12   13    8   15  -12   -9  -15
  -4   -4   10  -24    0   24   -3   -6   10
 -12   -8  -12   -2   33   -1  -10   -3  -10
  -7   -4    8  -15   -4   19   -9   -5    8
   1   -1    4    5   25    3    2   11    5
  -5   -4   -5   -5    0   -6   -3   -5   -4
   8   17   11    6   -5    5  -10  -13  -10
   2    5    3    3   26    4    4    5    5
   3    6    3    5   27    7    5    1    6
  -9   -4   -9   -7   19   -7  -11   -7  -11
  17    9  -34   -3   -7    7  -20   -3   18
  11    7   13    7  -15    6    4   -3    4
   6   -3   -4   24  -11  -15   11   -8   -4
   9   21   10    0  -15   -2   -4  -17   -5
  11   21   14   10   60   18  -22    2  -31
  -3   -5   -3   -6   -2   -6   -3   -4   -3
  -7    0    7  -15  -10   22   -6   -2    5
   4   20    5   20   -7   17    3   17    4
  -8   -5   -8   -4   -1   -4   -5   -2   -5
  -3   -2   -3   -9   11   -9   -6  -11   -8
  -7  -10  -10   -4    0   -4   10   18   12
  10   -6   -7   24  -15  -10   11   -6   -6
   3   17    3    2    8    3   -5  -13   -8
  -4   -8    9  -16  -10   25  -10   -6    9
  -4   -4    7  -21   -3   24   -7   -5   11
  -7   -9   -6  -12   -6  -11   -6   -8   -6
  -6   -5   -6   -4   -4   -7   -6   -6   -5
   5   17    7    2   12    2   -5  -14   -6
  14   23   18    3  -19    0   -3  -10   -3
   0   10    1    4   21    6    1    7    1
 -10   23    6   -8   24   15  -17  -21  -27
   8   10    9    6   21    8    3   -1    4
   7    4    9    6  -15    7    9    2   10
  -4   -6   -5   -7   -6   -7   -5   -9   -6
   3    0    5    4   34    6   12    7   14
  -6  -18   -8    1    6    1    4   12    5
   1    1    3    0   24    2    3    3    4
  -8  -16   -9    0   10   -1    9   15    9
  -5   -6   -5   -8    0   -9   -5  -10   -6
  -2   -5   32   -3  -15    5   -6   -6    8
 -13  -12  -14    7   -9    6    6   15    8
  -7   -3   -6   -3   -5   -3   -5   -5   -5
   1   11    4   11   24   12  -19   -1  -20
  -7   25   -7   22   75   25   -4   51    6
   0   13    2   13   12   15    3   11    4
  -3   -5   -4   -5   -4   -7   -4   -6   -4
   7   -1   -5   18   -1  -17    9   -3   -9
 -11  -14  -13    0   12    1    4    9    4
   3    8    7   20    0   20    4   -8    5
  -1   11    1   11   52   18    3   20    6
  -6   -7   -6   -7   -4   -6   -6   -6   -7
  -6  -15   -8   -2   17   -2    2    7    3
 -10  -24  -10  -22   10   10  -19   11    6
  -6   -6   -7   -4   -3   -5   -7   -5   -8
  14   -5  -15   19  -10  -11   11   -4   -4
  -6    2   -7   -3  -24   -5   13   17   15
  -4  -16   -6    9    2    9    6   20    8
  -6   -2    8  -16   -3   20   -6   -5   10
  -5   -5   -6   -7   -2   -7   -3   -8   -4
  -6   -4   -8   -8   -5   -8   -4   -6   -6
  -6   -6   10  -18   -4   21   -6   -8   12
   2   17    5   13   -1   12    3    6    5
   7   12    7   11   13   13    3  -10    2
  -4   -6   -5   -7    1   -6   -2   -6   -3
  -4   -6   -6   -4   -4   -5   -5   -5   -5
 -12  -17  -16   18   -4   20    3    8    4
  -8   -2    7   -9  -14   19   -8   -5   10
   2    3    1    8   18   10    4   12    5
  -5   -5   -6   -5   -3   -5   -6   -5   -7
   6    2  -11   15   -1  -13    7    0  -11
  -8  -18  -10   -5   27   -2   -6   14   -4
   5   16    6    0    5    0   -9  -15  -10
  -6   -6   -7   -5   -3   -5   -7   -7   -7
   2    4    2    3   15    4    2    7    4
   1   30    6   -8   13   -8    4   29    6
  -3   -4   -4   -5   -5   -6   -5   -4   -6
  -4   -8   -5   -7   -2   -8   -4   -9   -5
   4   27    7    1  -14    0   -3  -13   -5
  -5   -2   -6   -9   33   -9   -5   -2   -6
  -2   -4   -2   -6  -11   -7    4   26    6
   7   30    9    1   -1    1   -1  -18   -3
  -2   -6   -2   -6   -3   -6   -4   -5   -4
  -6  -14   -7    0    9   -1    5   17    7
  -3  -20   -5    1    8    1    5   17    7
   9   11   10   10  -23    5   13   12   17
   6   14    9  -11    9   -9  -12  -18  -12
  -3   -7   -5   -6   -3   -5   -4   -6   -5
   5   22    7    4  -10    3   -5  -18   -6
   7   18    9    2   -4    0  -10  -13  -10
  -3  -16   -4    6   -1    5   13   18   15
  -7  -16   -9   -1   10   -1    1    6    1
  10    5   10    3   43    9    9   13   10
   1   10    1    6   16    9    1    7    1
  -4    1   -2   13    9   12   14   12   16
   5   -2    5   -1   22    1    4    4    4
  -6   -2   -4    5   19    4    7   38   13
   9    0    9    2  -37    0    9   -1    9
  -5   -5   -6   -5   -4   -7   -6   -6   -7
  -3  -12   -7    6  -14    9   11   21   13
   5    0   -5   23  -12  -18    8   -1  -11
   5   17    8    3   -5    2   -6  -13   -7
  -9   -4   11  -11  -11   19   -8   -6   13
  -4   -4    7  -16  -13   24   -6   -7   14
   4   23    5  -11   14  -12   -4  -21   -3
   0   -2    1   13    3   11    7   15    9
   1   17    4   16   -4   15    6   16    8
  -7   -4    7  -17    0   17   -7   -6    7
  -7   -6   -9   -4   -3   -5   -6   -6   -7
  -4   -2   -5   -8  -14   -9   10   33   11
   9    1   -9   17   -1  -19    9    3  -11
  11  -10   10   17  -47   16   12  -16   10
   9   19   11   -7    2   -8   -6  -14   -8
  -4   -6   -5   -5   -4   -6   -4   -3   -5
  -6   -4   -7   -4   18   -3   -8   -4   -9
  -6   -5   -8   -6   -2   -8   -3   -7   -4
   9   -2   -7   15   -3  -12   11   -5   -7
  -5  -14   -8   11   11   14    6   20    9
   8   -2   -6   20    0  -22   10   -1  -10
   8   20   11  -10   -2  -10   -2  -15   -5
 -14   -5   20   -8  -16   19   -3   -2    9
  -6   -2   -6   -5   -5   -7   -6   -6   -7
  14   30   17   -2  -23   -4  -17  -23  -20
  -5   -6   -6   -5   -2   -5   -6   -5   -7
  -1    8    2    5   25    6   -1    7    1
  10   -2   -7   20   -2  -18   10   -3   -8
   7   37    8   27   24   28   -4   15   -5
   7    0   -7   19   -1  -18    9   -4   -6
  -4   -6   -5   -4    2   -4   -7   -2   -8
  -5   -3    6  -16   -1   15   -6   -4    8
  -3   -4   -3   -5   -5   -5   -3   -7   -4
 -10  -16  -11    4   -5    2    5   21    8
   3    6    4    3   25    5    3    7    4
  -6   -2   -6   -5   -6   -7   -5   -3   -5
  -4   -8   -5   -7   -3   -7   -7   -3   -8
  14   26   17    6  -46    5    0   -6    0
  -7   -5   -7   -6   -2   -7   -8   -7   -8
  -2   -4   -3   -7  -10   -7   -3   -6   -4
   9   -7   -5   24   -2  -21   14  -11   -7
  10   32   12    0   -7   -2  -11  -30  -13
   5    1   -5   27   -9  -21    6   -1   -3
  -2  -24   -2    8   -9    8   12   -1   15
   8   20   11    0   10    1   -7  -16  -10
   0    6   -1    4   18    6    1    3    2
   9   33   13  -12  -18  -12   -6   -8   -7
  -8   -4   -9   -4   13   -3   -8   -4   -8
   8   -1   -5   26   -6  -24   11   -3   -6
  -5   -3   -6   -6  -16   -6    9   30   12
   5    9    6   10   -8   11    5    8    5
   1   25    1  -18   43  -12    2   26    4
  -3   -5   -3   -7  -13   -7   -3   -4   -4
   8   -4   -8   15    0  -11    9   -5   -8
  -7  -20   -9   -1    1   -2    7   21   12
  10    2   -9   16    0  -19   13    1   -7
  -9  -17  -10    5    5    5    5   13    4
  -3   -7   -4   -7    0   -8   -2  -10   -3
  -6   -4   10  -17   -8   24   -6   -5   12
  -1   -2   -1   -2   -7   -2   -2   -3   -2
  -6  -20  -11  -25   10  -24   24   22   29
  -5   -5   -5   -5   -6   -6   -6   -6   -8
   0    6    1    7   26    7    1    9    1
  -1   -5   -1   -2  -24   -2    8   18   10
  -2   -4   -2   -4   -4   -5   -3   -5   -3
  -1    8    0    7   18    8    0    9    2
  -4   -6   -4   -7   -6   -7   -7   -6   -7
  -5   -5   -5   -7   -3   -8   -8   -8   -8
  15   21   15    2  -16    1   -2   -1   -3
  -8  -10   11  -10   -3   20  -11  -13   10
  -6  -11   -6    2  -20    1   11   19   13
  -5   -6   -5   -6   -1   -7   -6   -6   -6
 -11   12   10  -25    8   14  -19  -16  -11
  -4   -5   -5   -5   -5   -5   -5   -3   -5
  -1  -11   -2   -9  -16   -9   -3   -6   -3
  -1   -5   -2   -7   -5   -7   -4   -4   -4
   0   11    3   10   16   11    6    4    7
   1   16    1    7   23   11   -3   -2   -4
  -7   -8   12  -13  -12   26   -6   -8   10
  -4   -8   -5   -8   -3   -7   -7   -5   -8
  -5   -5   -5   -3   -4   -4   -6   -5   -6
  -5   -7   -5   -8   -3   -8   -5   -6   -6
  -6   -5   12  -13   -7   27   -8   -8   12
  -8   -4   -9   -6   -3   -7   -3   -4   -3
  10    1   -9   17  -12  -10    8    1   -8
  -5   -5   -5   -6   -6   -6   -4   -5   -4
 -12  -11  -12    6   -4    7    8   11    9
   3   -4   13    1  -25   -1    3   -1   15
   5   11    6   -1   12    1  -11  -14  -12
  -4   -4   -5   -5   -4   -6   -5   -4   -5
  10   -8   -4   30  -16  -15   15   -9   -5
   1   -1    0    5  -16    5   13   19   15
  -2   -4   -2    7   10    8    7   23    9
  13   15   15   -3    7   -3   -7  -11   -9
  -7   -4   -7   -4   -3   -5   -8   -4   -8
  -4   -5   -5   -6   -3   -6   -2   -5   -3
  10   23   11   -4  -14   -4    0  -19   -5
   2   12    4   13  -13   13    5   11    6
  -3   -5   -3   -6   -2   -6   -5   -5   -5
 -14   -4   17  -13  -15   33  -13   -5   15
  -9    1    8  -16   -6   19  -10   -1   11
  -4   -5   -6   -5    0   -5   -5   -5   -5
  -4   -6   -7   -5   -5   -5   -5   -5   -5
   1  -25    1   -2   -7  -23    1  -32    2
 -29   19    7  -27   21   11  -25  -19   -2
   0   20    1   18   13   20    3   15    4
   9   37   14  -25    7  -22  -10   -7  -12
  -5   -5   -5   -6   -2   -5   -7   -5   -9
  -6   -7   -7   -4  -21   -6   14   14   16
   3    2    5    3   19    4    2   13    5
  -6  -22  -11   14    9  -18    8    8  -20
  -7   -4   -7   -6   -2   -8   -6   -3   -6
 -15   -6  -14   -4   39   -5  -14   -7  -10
  -7   16   -7  -19   32  -19   -9   15   -9
  17   12   20   21   -8   19    4  -36    1
  13    9   13    8  -33    7    4    0    3
  -6   -5   -7   -5    0   -5   -5   -3   -6
  -1    7   -1    2   32    5    5    2    5
   6   19    8   16   32   15   -2   11    0
  -4   -4    3  -12  -16   29  -11   -7   14
  -3   -4   -4   -5   -1   -4   -6   -5   -6
  45   49   31   39 -126   20   36    9   15
  -3   -4   -3   -7   -3   -7   -4   -6   -6
   4    6    5    5   22    6    3   10    4
  -5   -4    7  -20   -3   21   -5   -4    7
  -6   -7    9  -17   -2   20   -7   -7    7
   9   -6   -6   17    3  -17    9   -5   -7
 -12  -17  -17   -2   15   -1   15   14   16
  -6   -4   -6   -5   -5   -5   -6   -6   -7
 -14    0   10  -19    8   17  -11  -13    4
 -10    6   -9   13   20   14   -1   21    2
   9   22   11   -2  -18   -2   -2  -12   -4
  -4  -14   -4   12  -22   11   16   14   16
  10   18   13    2   19    3   -7   -7   -6
  -1    0   -2   -5   25   -4   -7  -14   -9
   9   21   11   -5  -19   -5   -6    0   -7
  -7   -6   -7   -7   16   -6   -7   -7   -9
  -3   -3   -5   -6   -5   -6   -5   -6   -6
   2    4    3    5   29    7   -1   10    0
  -7   -3   -8   -4    0   -6   -7   -6   -8
  -5   -7   -5   -5   -2   -5   -5   -5   -6
  -5   -5   -7   -7   -5   -7   -6   -4   -6
  11   15   12    6  -13    5   -6  -17   -8
   5   22    8    2   -6    0   -4  -20   -5
  -8    1    6  -14   -2   13   -8   -1    9
  -6   -6   -7   -4   -2   -5   -5   -5   -5
   4   -3    3   11   25   13    4   11    5
  -5   -5   -6   -9   -5   -9   -5   -4   -6
  -9  -13  -11    4   -8    4    7   17   10
  -3   -7   -5   -7   -1   -7   -5   -5   -5
  -2   -8   -4   -8   -9   -9   -5   -7   -5
  -4   -5   -5   -6   -6   -7   -6   -7   -5
  14    9   18   37   35   37   25   68   23
  -6   -1    3  -13  -13   23   -7   -4   11
   5    6    6   10  -38    7    7   -5    7
   9   -1   12   21   28   23    6    8    7
   4   17    6    2    4    2   -9  -20  -10
  -3   10   -2    9   20    8    3    7    4
   6   17    7    7    1    8    3   -8    2
  15   29   16    9   35    8  -11  -13  -11
  12   24   15    6   -1    6   -9   -1   -9
  -7  -19   -9   -1    3    1    8   21    8
  -7   -6   -8   -6   10   -5  -10   -3  -10
  -3   -6   -4   -7   -4   -7   -4   -6   -5
  -6   -4   10  -13   -6   18  -10   -4   14
  -4   -4   -5   -5   -3   -6   -5   -5   -6
  15   11   15    4  -17    2   -5  -15   -9
   6   22    7   -5   16   -2   -5  -19   -7
 -12   -7  -12   -7    0   -7   -7   -7   -6
   3   -2    4    4   20    5    2    7    3
   7    8  -11   13   14  -22   -8  -25  -16
  -4   -3   -5   -6   -5   -6   -6   -6   -7
  13   -3   -8   22  -11  -13   10   -1   -8
  -3   -6   -4   -5   -5   -6   -6   -5   -7
  -6    0   -8   -9  -26  -11   12   31   15
  -7   -1   -8   -4   31   -6   -7   -3   -8
   6   17    7    3   -1    3   -9  -16  -10
  -5   -4   -5   -4   -5   -5   -5   -6   -5
  -6   -6   -5   -6   -4   -6   -5   -5   -6
  -7  -11   -7    3  -12    1    9   15   10
   7   26    8   -6  -11   -7  -10  -19  -11
  -6   -8   -7    4  -19    2    6   22    8
  -2   -5   -3   -5   -8   -6   -2   -5   -3
   4   -7    4   11   16   14    2    6    3
   2  -21   -4  -26   -2  -24   14   31   17
  -6   -7   -7   -9    4   -9   -5   -9   -7
  -6   13   -5   11   44   16    5   12    4
   4    6    5   13   -4   11    6   15    8
   3   57   10  -28   42  -14    4   66    8
  18  -14   -3   22   -4  -13   20  -10   -9
  -4   -5   -4   -5   -2   -5   -4   -5   -4
   4   -2   14   -3  -19    1    3   -1   14
   6   -6    7   12  -23   12    9  -15    7
   4   16    5   11   24   15    1    8   -2
  -7    2   -7   -1  -22   -2   17   18   19
  -3   -4   -4   -6   -6   -6   -6   -8   -7
  -9  -14   -9   -5    2   -5    9   16   11
  -6  -19   -7    1   -1    0    4   22    7
   1    5    1    4   15    4    3    6    3
  -3   -5   -4   -5  -10   -4   -3   -4   -4
  -8   42  -35    3  -13   16    3  -16   13
   8   22    9   -2    9   -3  -11  -17  -11
