  -2    1    2   -1   -4    6    0    2    3
   3    1    3   13   49   10   13   -8   14
  10   -4  -35   39   14  -14   16   11   -6
 -12  -13   -7  -13  -16  -15   -4  -20   -2
 -15    3    9  -32    5   35  -13    1   11
 -13   13   11  -42   32   14   -6  -21    4
 -12    0   10   16  -60   31    9   41   22
  -1    1    1    1   43    2    2    0    0
 -10   11  -21   16   44  -27   -2    6  -18
  22   39    7    7  -30  -11  -13    0   -7
  -2  -17   -6  -17   -7  -17    1  -34    0
  -1  -25   18   33  -32  -42   37   46   -6
   4    8    6   53  -15   -6    5   20    5
   1  -15    1  -17   -7  -17   -3  -14   -2
  -8   -5   -7   -7   -7   -7   -5   -6   -4
  -7   13   -5    1   43   14   -1   14    0
  10   -2   -9   27  -33   -5   11   18    3
   4    5    4    2   49    3    4   -4    6
  24  -31  -50   -2   15   56    7  -18    7
  14   41   21   -4  -51   13   -9  -12   -6
   2   30    9   28  -14   23   -4  -10    0
 -12   -5   -5    5  -36   -1   15   39   17
   7    9   -5   14   27    7   17   22   15
   8   27    4   52    2   50    7   89   -2
  -1   -9   -4   31   11  -38   13    3   -9
   0   -9   -1   -6  -15   -8   -2  -13   -5
  -5    0   -1    9   12   42    6   11    2
   3    3    0   -3   17   -6   -9  -38   -8
  11   37   20  -28  -32   38   -4  -21    8
 -16  -14   -1   -6  -10  -13   -4  -12  -11
  -3   -5   -6   -8   -4   -8   -7   -8   -7
  13   47  -21  -10  -18   62  -14   -6    7
   3   24   15   25   64   11   10   10   22
  -9   41   -6   13  113   15   10    9    5
  -9  -29  -15    3   26  -21   -3    1   -7
  -6   -4   -5   -6  -16   -6   -5   -3   -5
   4   11    5   16  -60   17   18   15   20
  -6   -5   -6   -7  -14   -5   -4   -3   -5
  -6  -14    7   -9  -51   20   12   27   18
  -7  -11   -6   -9   -9  -11  -10  -16  -12
  -4   -3   -6   -5  -12   -7   -3   -7   -5
  11  -10   -6   33  -18   -9    9    4   -8
  -4   22    0   25   34   18   -6  -46  -18
  -5    5   -3   -2   31   -1  -13  -30  -15
  -3  -18   -2  -15  -25  -14   -8  -22  -12
   1    1    7   27   35    6    7    9    0
 -11  -23  -19    5   39   -6   -8    6   -7
 -10  -19   -2    2   -1    0   11   21   10
   3   18    4    8   41   13    3   14    3
   2  -19    1    4  -46    9   17   37   19
  -9   33   32    8   15   16  -38  -21   -1
 -13   23   21   55   34   -9   19  -20   -1
   2  -19    4  -13  -55  -22   -4  -18   -3
   3   10    4   12   17    9   -1    7   -2
   5    4   -2   12   49   15   -4   13   -3
  -4   -9   -4  -13  -22  -14   -5  -16   -9
   5  -12  -13   38  -21  -18    6   41   14
 -13   -9  -11  -12  -16  -13   -4  -14   -8
   6    3   -6   16    9    5   12   27    9
 -12  -15   -9  -14   32  -14  -11   -8   -9
 -10   -9    1   -4  -40   33    3   27   11
  11    9    5  -39   14  -44   -1   13   -5
 -19    8  -18   -4   56   -4  -17    2  -14
   4   -6   26   -7  -29   16    2    2   28
   3  -21   13   10  -20   21    8   44   11
   9  -19    5   43  -70   26   21  -10   -8
  30   30   32  -12  -45   -6    5  -15   -9
  -9  -15   -6  -10   -7  -12   -7  -13   -9
   8   65    6   -3   15   -4   17   12   15
   4   -7    9    9  -31   17   14   33   19
 -12  -18  -10  -12   55  -14   -2  -13   -5
   0   33   16   30   38  -13   10  -19  -32
 -13   10    0  -37   28   39   -5   10   -1
 -12   -2  -11  -10   41  -14  -10  -10  -12
   3   11   -6   11   26   19  -26  -35  -15
  17   31    2   14   -7  -16    1  -21   -1
  -3   -8   -3    9  -21   -1   13   38   12
  -4    4   14  -11  -37   54    8   39   12
   1   18    7   -8  -24   36   -1    4   28
   1   11    2   13   58    9    0    5    7
  22    6    2   31    0  -18    9  -10  -18
   2   -3   11   -6  -36   34    9   33   29
  19   28   21   14  -45   17    9  -22    7
  -5   40   11  -11  -21   -3    5   -3    4
 -10   20  -11   25   24   26    2   31    1
 -20  -22   -2   15   21   48   40   -3   -7
  -2   -1   28   -6  -26   41    4   -4   -1
   0  -28   -7   26    0   26    2  -34    1
   7  -30    2    6   57   10    1    4    3
   2  -13    3   10  -16   16    7   28    4
   6   21    9   27   37  -26    3  -28  -30
 -16   58  -32  -29   44  -38   60  -84   36
  15    4   39   -1   -2   38    2   -4   -1
 -19   -5  -16    5   52    3  -17   -4  -14
   1   49    2   38   -5   18   -6   -2   -5
  -3   41   -1   41    8  -24   -5   -1    3
  32   16   24   19   44   15   31   43   22
  22  -31    2   39  -18   31   27   51   24
  -6  -17   16    4   -5   20   15   30   16
  -8   -8  -10  -13   -4  -11   -7  -11   -6
  11    0   -8   11   17  -23   -6   -9   -8
 -11    7    2  -37   33   30  -20    1    9
  -1    4   -4   -3   15   68    5   17   -2
 -14  -15  -20  -16   46  -18  -16  -13  -14
  -2   -9   -4  -13  -17  -17   -5  -10   -7
  -6    6   -7   12   61   10   -2   10    0
  -4   -9   -6   -6  -18   -4   -9   -5   -8
 -19  -20  -18  -26  106  -21   -9  -12   -6
  -1   15   12  -19  -64   35    2   29   13
   3   17   -5   45 -102   41    2   -3    6
  -3  -35    1   34   -2   30   11  -27   -1
  -4   -9   15   -1   -7   43   -5   -5    6
  -6  -37   -8   -7   33   -6   -3    8   -5
 -17  -21  -15    1    5   -5    5   54   12
   6   14    2    3   50    5    7    4    8
   9   47    8   38  -44    0    8  -21  -11
 -24  -18   -5   -6    4   21    6   19   24
  18   30   43  -13  -33   11   -2  -21    5
  10   12   12   15  -25   13   11   22   11
   1    5    0   10   41   10    2    8    4
 -14   28  -10   34   45   26    1   21    6
  -1   -8    0   -7  -24   -5   -2   -3   -3
   1   12    4    9   44   13    1   16    4
 -18  -29  -14   17   65   22   -1   10    0
  -5  -14   -3   -5   32   -7   -5  -34   -3
  -3  -25   21    4  -59   43  -11  -18   29
   4    7    0   11   28    8    1    7    2
   8  -11  -10   18    9   44  -32  -15  -15
  15   22    3   28  -40   -9   14  -13   -6
 -16   -6  -15   -8   29   -4   -8  -18   -9
  11   55   20  -16   -7   -1  -15  -14  -11
   6    2  -11  -14   -8  -13  -15  -15   -5
  -3  -10   -7   -4    3   -1   18   50   18
   6   10    4    7   56    2    6    6    6
 -16   -5  -12    0   34   -3  -14  -26  -12
 -12   -4  -12   -9   -3  -13   -9   -1   -9
  13    4   15    8    3    4   21   27   19
  -5  -46   -6   24   64   31    3  -36   -3
   2  -36  -18   44   17  -31    6   10   10
  15   44    4  -42    0   20   17  -17  -19
 -11   -6  -11   -8   11   -9  -11  -10   -8
   7   -6   17  -12   -8   57   -2  -10    7
  -1   33    1   29    9  -19    6  -31  -17
  -2  -23  -10  -18    9  -17  -12  -14   -9
  -7   -4   -4  -14   -8  -18   -6  -14   -9
   9   16    6   -3   32    5    9   35    5
   2   10    3    7   63   12    7    8    7
  -3   -5   -3   -8  -27   -5   -2   -3   -5
 -18  -31    1   55  -24  -19  -17   -7   -5
   1    1    1   -1   -1   -1   -1   -1   -1
  18   70   10  -22 -109  -20   10   82    6
  -2    6   -2   11   51   11  -12   29   -6
 -11  -13  -14  -16   19   -9  -15  -10  -17
 -14   -7  -16  -10    4   -4  -14  -14  -21
   5  -42   14  -34   39   11    4   20   -1
   2    0    2  -25  -29  -30   -1   -5    3
   0   28   -1    1    7    3   -2   -3   -9
  -7   -6   11    0   -4   59   -8   -9    2
  -4  -17  -10   31   -2  -39    3   34   15
 -22  -30  -13    3   26    6    1    5    5
   7    2   -1   17   38  -25    7   21    2
  19   36   19   15  -65   24   -5  -14    0
  -7   -6   30  -39   70  -24   11   28  -39
   5   16  -16   21    2  -31  -18  -14    0
   9   33    8  -33  -19   45  -15    2    9
  10   19    9    7   69   14    6   17    4
 -23  -28    1  -19   21   34    8   30   -3
 -18   -5   -8   -9  -12  -11   -3  -13  -13
  -3   20   14   -8   -3   41    0  -20   19
  -1  -13   10   -6  -19   33    1   -8   14
  -7  -20  -10  -17   27  -20   -8  -13  -14
  13   18   13   11   28    1   19   57   22
 -13  -26    3    4   -4  -22    1   -5  -29
  11   11    8   -3    1    4   36   55   25
  -6  -14   -7  -17    0  -15   -6  -18   -6
  -6   -5   22  -10  -11   48  -16  -11   11
  19   26    0   37  -13  -27    3  -30  -13
   9   56    8  -24  -44   46   -2  -24    1
  17    8   14   13   65    7   23   17   18
   9   39   27  -29    6   28  -20  -25    0
  10   37   11    1   12    2    5    0    4
  10   27   11   15   60   17  -11   19    6
   0    0   -2   -2   19    7    2    1   -3
   0    9   11  -11    9  -18   11   68   10
  -1   57    2    3  -45   27   -8  -31   -9
  25   17   21   19   15   13   13   12   11
   1    8    1   10   54    7    0    9    2
   5   50    7  -14    0  -15   10   25   13
   6  -10  -15    0   -4  -24   -7  -34   -8
  27    4    8   15   -3    1   18   36   17
  -6   -2   -7   -4  -22   -5   -7   -4   -7
 -10   -9   -5  -10   -3  -12   -4   -8    0
  -9  -14   -8  -13    7   -9  -10  -15   -8
  14   -3    2    8   57   27   -5  -41   17
  -3   -7   -4   -3  -26   -5   -5   -5   -9
 -10   -9   -8   -9    0  -12   -8  -12   -5
  11   22    5   44  -33  -23   31    7    0
   5    3    7    6  -52   13   10   31   10
  13   31   15   20  -49    4    7  -13   -4
  -7  -10   -7  -10  -13  -11   -4   -9   -6
 -57  -25   68  -24   27   -5   71    1  -75
  25   44   26  -21  -45  -20   -1   -1   -5
  -4   14  -30   24   35  -30   27    1    4
  11   10    5    6   69   12   15   -2   14
 -27  -20   -9  -26   27   11   -8   11    8
   2  -30    1   30  -32   25   31   57   29
  -7  -31  -13  -28   -5   12  -18    5    3
   8    1    9   14   42   11   11   33    6
  26   45   24   30  -29   20   13  -30    2
   1   12   15  -10  -26   33    0    8   12
  -5    8   -5    0   45    1  -21  -38  -19
  -4   14   -4   15   89   10    4    4    0
  -2   -7    0  -10   -6  -10   -5  -13   -4
   2    8    5   -7   57  -13   11   36   11
   4  -14   -5   27   14   -7   12   25    8
   8   -4   10    2    1   -3   19   35   16
 -17   -2  -17   -6   60   -4  -14   -3  -12
   7   -1    9   64  -12   -5    2    9   -6
   7   52    7  -32  -17  -46    4   49   -4
  -7    1   -6  -17   -5  -12   -2  -13    5
   2  -43    0   14   20   13   -2  -40   -4
  -9  -16    0  -23   10  -25   -4  -11   -5
  29   22   -2   23  -35  -43  -15    2   19
   3    3    1  -43   41    9  -28    0    7
   0   25    2   -4   38    9   -8  -26    0
  -7  -13   -5  -10  -16  -12   -6  -14  -10
   1  -15  -21  -15   -7  -10  -12   -6   -2
  -6   -1   -7   -4    8   -1   -8   -7   -7
  -6   -7   -4   -7  -14   -5   -8  -15   -9
  12  -10   -4   30   15   17   10   -2   10
   5   14    0   50    7    3   18   -9   18
  10    0   13   17  122   16   -4   31    3
 -21    1  -22    6   52    8  -24    6  -22
   0  -11   -9   27   25  -34   -2   -4   -7
   0   13    3    6   78    7    8   -6    6
   2   -8    5  -11  -80   -9   22   35   37
  -4   47    2   28   20  -14    8  -27   -2
   2    0   -6  -19   90  -46  -14   -4    2
   7    6    2    0   57    4    6   -8    6
  -2  -13    0  -10  -19   -4   -4  -13   -3
  -2  -13   -6  -15    0  -13   -6  -12   -4
   7  -14   -9   20   55   13  -22  -27   17
 -21  -21    2   -3  -32   38   14   37   19
 -34  -20    5  -17   72   -8    6    6   10
   2    5  -19   34   55  -45    2  -19  -14
 -21  -25  -16    8   19   11    9   34    1
  35   30   34   27   69   15   31   -3   22
  24   -4   23   -3  -74   -4   23   -4   23
 -24   11    3  -37   25   36    3   -2    9
   7   -4    7  -14  -23   41   -2   -4    5
  -6   -6   -3  -10    2  -12   -3  -15   -2
  -7  -18  -42   10   38   -1   -1    6    3
  34   22    0    5  -31   -6   -9   -3   -2
 -12   10   -3  -18   19   -9  -20   -7  -12
 -17  -18  -10  -13  -10  -13  -16  -12  -16
  -2    9   -6    1   24   -2   -9  -25   -8
 -22  -42   11   -2   77   -2    7   -6  -18
   0   28   -3   21   28   16    1   13   -4
   1   15    6   54   -6  -21    4   15    4
  14   14    9    8   67    8   13    2    9
   3  -31    2  -22    7  -19   -3  -29   -1
  -5    1   -6  -15  -39   -4   17   67   22
   8   39   -4    4   10   -5   -6  -29   -4
 -12  -11  -11  -13   -4  -10  -11   -9  -12
  -3  -12    0    3  -22   14   12   33   15
  -7   -8   -8   -9   -3   -9   -5   -6   -5
   1   -5    5   13  -33  -14   29   17    2
 -16   51  -20  -34   88  -26  -22   50  -11
  -3  -43   10   29   35  -41    9   23   15
   1    8   15   -6  -34   38   -3   10    7
  -3    6    3    4   22   24   -1   22  -10
   3    2    1   -2   21   16   -3    3    7
 -10  -10  -11  -16   46  -14  -15  -13  -15
  -7   -5   -4    6   31    3  -13  -31  -13
   1   13    3    3   37    8    5    0    6
  -8   -7   14    3  -27   47   -4  -17   11
  -4  -10    1   31  -28   16   11   27   18
  29   41   28   18  -40   20   12  -46   11
  -4   -2   -6  -26   34  -23   -5   -9   -3
  13   15    9  -30   44   21  -11  -10   14
  -6   -7   -8   -8    4  -10   -3  -26   -4
  21   12   16   20   24   12    5    7    8
   8   21    7   14   22    4    6    2    1
   4    1    8    9  -41   49  -10   -4   16
   4  -17    7   13   11   18    0   49   -2
  12  -16   -4   39    8    6    5   33   -2
   4   60   -2   42   37   36   -4   21   -9
 -21  -17   -2  -35   35   16   -1   46   -8
  -8  -16  -11  -13  -22   -9  -10   -3  -11
   6  -19    9    7   30   -2   -9  -33  -12
   9   -9   13   12  -51   15   20   21   21
 -20    2    6  -25   42   -9  -19    4    8
   8  -11   -6   53  -28  -12   17   -9    4
   5   10  -13  -52   94  -44  -30    5   11
 -18  -28  -16   11   11   19    8   26   15
 -14   15  -13  -14   71   -1   -5   19    7
  25   24   23   19  -91   17   24   17   23
 -25  -46  -15  -14   38   24   -3   13   36
  -3   15   -2   11   55   11   -3   12   -5
 -12  -25  -38    8   30   -4   14   25    7
  13   -5   13    2  -48    4   16   10   21
  13   50   20   -2  -27  -21  -14    6  -10
   4   12    2    9   38    4   10   10    9
   9   -1   10    3   60    5   11   17    7
  -8    5    8  -29   56    2  -22  -24   -5
   7   18   10    4   42    6    0   13    4
  -6  -10   -5  -11   -4  -11   -2   -5   -4
  15   59    4   14   51    0   -9  -36   -8
   8   44    3    1   13    6   10  -18   13
   7   12    0   -6   51   28    9   12    0
 -16   -9  -12   -4    5   -9  -11  -10  -14
 -16  -40  -21   29   18   -7   39   15    2
  -3    0   -4   13   11   18   -2   59    1
  14   42   12   18  -23   11   -6  -24   -3
  -3    8   -2    7   38   11    3   10    1
  -3  -13   -4   -7  -13   -5    6   34   12
  -8  -10   -5  -10   -1  -12   -6  -12   -2
   7    0   14   14  -85   19   15   11   19
   8   22    4   40    0  -21   19   16    2
 -22  -38  -20   27   90   17  -18    8  -11
  -4  -19  -16   11   28  -25    0    4   -7
 -19   -4  -17   -6   -1   -3  -16   -7  -20
 -10  -11   -8  -14   -6  -16   -8   -9   -7
  -5   11  -14   26   59   25    5   28    9
  -2    8    4   -3  -13   48   -1    7   19
  -3  -20    1    8  -19   11   15   42    9
  28   18  -11   29    8  -23    3    5  -23
  20   25  -13    7    9  -15   -9   -8  -16
   5   23   31   -5  -22   30   -9   -2    3
  22  -28  -11   12   52  -30   -1   33   -3
  17    1   -1   27  -28   -3   16   -6    5
  -4  -18  -18    8   -1  -27   -9  -11   -2
  -6  -33  -12    0   36    3    6   35    4
 -14   -4  -13   -7   23   -9  -12  -10   -8
 -11  -12   -2  -10  -17  -12   -5  -10   -3
  19   12  -14   10   28   26  -19   21   22
  12   -3   -2   58  -48   -8   18   18   -3
  -4  -21   -8  -21  -14  -18   -4  -24   -7
  -2    7    0  -28   43    0  -14   -1    1
  15   28   11   13   11   12    5   19    0
  15   25   15   27    2   25    8  -17    2
  -7  -20    2  -21  -14  -18   -7   -8   -4
  13  -15   -1   19  -60    8   24   31   23
   6   -6   -5   46   -9  -11   10   -3   -1
 -13   -8   30   13  -72   47  -10  -13   26
  -5   -9   -6  -12   -4  -12   -5   -7   -5
   4    5   -4    2   30  -16  -10  -26  -17
  22   36   15   18  -48   20    6  -10    5
 -24   51  -19  -33   68  -43  -33   47  -14
  -8  -10   -7   -8  -16   -8   -9  -10   -8
 -24  -36   -3   17   11    3    3   36   12
   1   -1    0    4  -12    2    6   48    1
  -4   18  -18  -42   80  -36  -10    8    4
  40    7    7   28  -50  -16   18  -18   -7
   1   15   -3    3   37    4    1   10   -4
 -29  -23   -6  -17   21   15   -4   15   52
  -9  -22   -1  -17   44  -46   -9  -44   20
  -1   -3   -2  -12  -18  -14   -4  -12   -5
 -20   -8  -13  -13   -4  -13   -7  -18   -8
  12   29   10   20  -30   13    4   -9    1
 -21   -2  -18   -6   41    3  -23   -2  -26
  -1   13   -2   20   62   16    5   20    6
  -7  -12   -7  -13  -10   -9  -10   -9  -10
  14  -11  -11   50  -29   -9   11   40    1
   3   13    2   27    9   18    9   20   11
  -2   -2    2  -10  -20   51   -8    8   31
   3    7    1   13   16   11    4    7    1
  12   18  -19  -41  -84  -33   18   51   43
   2   10   26  -40   27   33  -27    7   -4
 -18  -17   -2  -19    4  -21   -2    2  -12
  -5  -51   -7    1   19   12    6   44    0
  27   38   24   40  114   47   12   45  -29
  -6   -7   -4   -5  -17   -4   -7   -7   -9
   2    3   -1   20   28   -6   15   18    5
  20  -10   -9   38  -27   -2    8   -3   -4
  20   16   19   16 -127   11   18   18   19
  -5  -16   -1   16   68   14  -19  -33  -18
  -2  -17  -21   13   20  -16   10   21   -6
  21   37   28   16  -42    8    1  -14    0
  -8  -15   -8  -10  -26   -6   -5  -14   -4
  -2    0    2    9   33   15    1   10   -2
  -6  -15   -6  -22  -53  -18    7   79    3
   9   -6   -3   19  -19   -8   35   12   -5
  -1    7   -5  -12   33   10  -21  -24   -3
