  -8  -16  -14  -16  -22  -24  -14  -21  -22
  -6  -16  -12  -16  -27  -22  -11  -20  -16
  12   29   20   27   54   40   17   37   30
  10   21   15   17   38   28   11   26   20
  11   24   16   19   44   31   11   28   21
  -6  -16  -13  -15  -27  -23  -12  -24  -18
  11   24   21   28   53   38   21   41   28
  13   27   21   24   45   33   17   28   20
   7   25   19   22   48   36   18   31   22
  12   23   16   22   44   30   14   31   21
  10   26   20   20   43   32   16   34   24
  -7  -20  -13  -14  -25  -19   -9  -17  -13
  13   26   19   26   47   31   17   31   24
  -6  -13  -10  -14  -26  -20  -10  -22  -15
   8   21   13   18   43   31   13   35   26
  19   38   25   32   61   43   20   41   31
 -11  -19  -19  -18  -28  -28  -14  -25  -22
  -6  -14  -12  -12  -27  -21  -10  -21  -16
  11   30   24   25   55   41   18   36   27
  10   19   15   20   51   39   15   40   29
  -9  -16  -11  -19  -32  -22  -11  -25  -17
   9   22   15   23   44   30   16   28   20
  -6  -15  -11  -14  -28  -21  -12  -22  -15
   9   16   12   17   31   22   14   25   18
  -8  -12  -10  -12  -21  -18   -7  -15  -12
  -5  -22  -15  -20  -47  -35  -12  -38  -31
  15   38   26   34   63   45   21   41   30
  -7  -15  -11  -15  -27  -18  -10  -19  -12
   7   21   15   19   41   29   15   27   19
  10   22   16   19   41   29   12   26   20
 -10  -16  -11  -14  -26  -19   -8  -18  -13
  -8  -10  -11  -12  -18  -20  -12  -17  -19
   9   19   13   17   38   28   13   27   19
  17   36   24   31   62   45   20   45   35
   6   15   11   14   34   26   11   24   17
  -6  -12  -10  -13  -24  -20   -8  -19  -15
  -6  -15  -13  -15  -27  -21  -11  -19  -14
  10   20   13   21   42   27   12   26   18
  -5   -9   -7   -9  -18  -15   -8  -15  -11
  -8  -16  -12  -16  -31  -21  -13  -24  -15
  -3  -13  -11  -16  -37  -30  -15  -32  -27
  13   27   20   26   49   35   18   33   24
  12   25   16   23   43   30   16   33   22
  10   19   14   20   43   31   11   31   23
 -10  -16  -15  -15  -21  -21  -12  -21  -17
   9   25   16   24   52   36   17   33   25
  17   38   25   28   60   42   16   36   27
  -7  -16  -10  -17  -32  -22  -12  -23  -17
  12   31   23   28   54   41   19   38   29
  13   30   22   23   59   45   21   46   33
  12   23   18   21   42   32   14   26   21
   8   20   14   16   35   27   12   20   18
  -8  -18  -14  -17  -34  -25  -10  -24  -18
  -9  -20  -15  -16  -29  -23  -12  -20  -13
   9   20   14   17   36   26   14   26   20
   8   25   18   18   46   36   14   34   26
  16   34   22   30   62   41   17   40   30
 -10  -19  -15  -18  -33  -25  -12  -24  -17
  11   20   15   19   44   32   12   32   25
  14   30   20   25   55   38   17   38   27
  11   24   17   23   44   34   17   31   25
   9   18   14   19   40   29   13   29   21
   8   25   19   21   45   33   14   26   19
  -9  -20  -13  -16  -35  -25  -11  -21  -17
  -7  -14  -13  -14  -25  -23  -12  -23  -17
  -7  -19  -14  -13  -31  -22   -9  -19  -15
   7   19   14   18   50   37   14   37   30
  -8  -12  -11  -13  -20  -19  -11  -17  -13
  11   21   13   17   43   31   10   27   24
  -9  -16  -11  -16  -34  -23  -10  -23  -16
  -5  -15  -11  -12  -26  -19   -9  -17  -12
  14   24   18   24   45   34   17   34   25
  11   23   15   20   40   29   10   26   20
 -10  -17  -13  -16  -29  -21  -10  -21  -15
   9   21   17   20   42   33   15   33   27
  12   22   16   17   42   32   10   28   23
   8   20   13   18   42   29   15   32   23
  -9  -17  -13  -12  -22  -17   -9  -15  -13
   4  -27   65  -18  -30  121  -29  -34   83
  -7  -14  -10  -12  -21  -17   -9  -17  -16
  12   26   16   24   42   28   15   27   20
 -10  -21  -16  -16  -27  -25  -12  -21  -19
  14   30   21   21   46   33   12   25   21
  13   24   22   20   52   44   19   43   34
   6    6    8   21   53   38   24   57   43
 -13  -18  -14  -15  -20  -18  -10  -15  -15
  -8  -17  -13  -16  -33  -24  -12  -24  -17
  12   24   17   22   46   32   13   31   21
  10   21   16   18   38   28   13   27   18
  -6  -13   -9  -13  -28  -21   -9  -21  -15
   7   26   20   25   52   38   20   38   29
  14   29   21   27   58   44   20   44   33
   9   19   14   19   38   28   11   29   22
  12   25   21   21   50   40   18   34   25
  -8  -17  -13  -15  -24  -22  -12  -20  -15
   7   18   15   18   41   30   15   31   21
  -6  -17  -13  -15  -30  -24  -11  -22  -17
 -10  -20  -18  -18  -28  -25  -13  -28  -26
  10   23   16   23   46   31   16   31   21
 -15  -13  -18  -23  -18  -31  -19  -16  -19
  12   19   13   14   34   27   11   24   19
  10   24   18   23   49   35   18   35   24
  16   33   25   26   59   43   15   39   30
  22   34   28   32   54   42   22   39   29
  10   22   16   21   44   33   14   32   23
  12   25   19   21   46   33   14   31   23
  10   18   14   19   39   29   13   29   22
  15   28   21   27   53   37   17   35   24
  11   24   17   23   49   35   17   34   23
  30   41   32   29   68   55   22   45   38
  17   35   24   29   57   42   21   39   27
  15   35   30   29   57   47   27   53   46
   7   20   13   19   39   27   13   28   20
 -13  -19  -17  -16  -24  -21  -10  -15  -13
  -9  -16  -11  -16  -29  -21  -11  -22  -15
  11   22   17   20   55   40   19   46   30
   7   22   16   16   41   30   10   24   18
  10   24   15   20   44   30   13   29   20
  11   24   17   22   48   35   16   32   24
   8   22   16   19   43   31   12   28   20
   8   23   15   19   43   30   13   27   21
  26   56   48   -8    3   10  -58  -86  -53
  25   41   37   52   64   52   33   58   51
   7    9   10   17   35   29   13   31   29
  -1    4    7    9   39   35   12   41   35
  -7  -14  -10  -14  -26  -21  -13  -25  -18
   7   21   16   21   45   34   17   34   26
  -6  -15  -10  -11  -27  -20  -10  -19  -15
  11   23   17   21   46   32   13   30   21
  -6  -12  -13  -11  -24  -23  -10  -20  -15
  14   20   17   26   53   39   19   38   25
   8   19   15   17   33   24   12   24   17
  17   32   23   29   57   42   21   39   28
  10   23   19   23   46   34   15   30   22
  -9  -19  -14  -14  -28  -25  -14  -20  -16
  -7  -18  -15  -22  -36  -34  -20  -37  -35
  15   19   13   17   44   35   14   35   23
   8   18   14   18   36   26   14   26   19
  15   28   21   24   56   43   14   37   28
  11   20   15   16   35   26    8   22   16
   8   15   12   19   40   27   14   31   21
   9   19   13   17   40   30   12   30   22
 -45   -9   24  -57   -8   46  -44   -8   40
   8   19   13   19   41   29   12   28   20
  -9  -15  -10  -14  -26  -19   -9  -16  -12
  10   26   18   20   45   32   13   27   21
  20   37   28   34   67   49   23   49   34
   0    8    4  -12  -15  -18  -29  -52  -48
  10   25   15   24   41   29   17   28   23
 -12  -23  -18  -19  -30  -24  -16  -20  -15
  15   28   21   19   41   32   12   29   22
 -11  -17  -13  -14  -23  -18   -9  -18  -14
  13   28   20   24   51   37   16   34   23
  10   19   15   20   41   30   15   32   22
   9   20   13   17   37   26   11   24   17
  24   47   31   46   89   59   31   58   40
   9   18   13   19   37   25   14   23   16
  -5  -12  -10  -11  -20  -17   -9  -17  -14
 -12  -19  -13  -19  -30  -21  -11  -21  -14
  12   31   22   24   53   38   17   34   25
  12   25   19   25   51   35   17   37   22
   7   19   15   15   43   33   11   30   21
  10   20   15   20   45   31   14   31   21
  -7  -11  -10  -14  -20  -19  -12  -19  -15
  16   27   19   24   52   40   16   36   27
   8   16   12   15   35   28   11   26   20
  15   35   28   13   24   18    6    3    3
  -6  -12  -10  -10  -22  -18  -10  -22  -18
  -7  -13  -10  -13  -29  -21  -11  -21  -14
   9   22   15   20   41   29   14   27   18
  -9  -17  -13  -16  -26  -21  -12  -20  -14
   9   17   16   18   41   32   19   35   27
 -10  -17  -14  -15  -28  -22  -10  -21  -16
  18   29   20   26   46   32   19   31   21
  -8  -15  -12  -13  -26  -20   -9  -19  -12
   8   16   10   22   42   29   17   34   23
   9   20   15   18   39   29   12   25   21
  -7  -16  -12  -13  -29  -22   -8  -20  -17
 -10  -22  -15  -15  -33  -22   -6  -17  -11
 -12  -24  -19  -23  -32  -30  -15  -29  -26
 -47 -100  -75   45  117   82   -2   20   -6
  -9  -15  -11  -13  -24  -17   -6  -16  -10
   8   21   16   21   39   27   18   29   20
   5   16   12   18   41   28   14   30   22
  -8  -14  -11  -13  -19  -18  -10  -17  -15
  11   24   18   21   46   33   15   31   22
  12   18   15   16   27   27   13   20   21
   8   19   15   20   50   36   17   41   32
   5   14   10   13   27   19   10   21   15
  -6  -15  -11  -14  -34  -24  -11  -25  -18
  -8  -12  -10  -15  -23  -18  -13  -23  -18
  -9  -20  -14  -17  -23  -20  -13  -18  -17
  15   17   10   26   61   44   25   59   43
 -15  -19  -15  -17  -25  -19  -13  -20  -14
  -8  -15  -13  -13  -22  -18  -11  -17  -13
  11   23   16   24   52   36   15   39   29
  -9  -18  -13  -16  -32  -25  -11  -23  -17
 -10  -19  -14  -20  -27  -23  -12  -19  -17
 -16  -26  -21  -12  -27  -22   -3   -6   -7
  -7  -14   -9  -12  -21  -16   -8  -15  -12
  12   24   16   19   40   29   11   25   19
   7   20   15   18   40   31   14   31   24
  12   21   14   17   37   27   11   25   18
   7   16   10   16   35   24   12   26   18
  15   25   22   21   39   33   16   31   27
 -10  -16  -12  -17  -28  -19  -11  -21  -16
 -10  -17  -15  -20  -29  -24  -15  -24  -20
  11   26   21   19   48   37   10   31   24
  -7  -18  -14  -17  -27  -21  -11  -21  -15
   4    8    6   13   31   26   15   32   25
  12   18   13   15   36   29   12   26   20
  12   27   20   22   52   40   16   36   26
  -8  -16  -13  -14  -18  -17  -12  -16  -14
  10   18   12   -5   -7   -9  -21  -41  -34
   9   19   15   17   38   29   12   27   18
  16   33   25    3    8    9   -5  -14   -8
   8   17   11   23   44   29   21   39   27
  15   30   20   24   54   41   19   40   30
  -9  -19  -14  -16  -32  -24   -9  -22  -17
  23   34   28   30   59   49   30   49   42
 -11  -17  -13  -16  -23  -23  -11  -20  -19
  -9  -19  -14  -15  -31  -21  -10  -18  -11
  12   21   17   18   44   35   14   34   25
  13   33   24   28   60   42   19   40   29
   9   23   17   17   40   31   11   27   20
  -7  -11  -11  -13  -22  -17  -11  -23  -17
  11   23   16   24   49   35   16   35   25
   8   23   17   20   46   33   14   32   22
   9   19   13   21   41   27   14   28   18
 -16  -21  -17  -19  -25  -22  -13  -21  -17
  10   19   14   17   38   29   12   27   20
  14   32   24   24   47   35   11   29   22
  -8  -15  -11  -14  -27  -21  -10  -20  -14
  10   21   16   18   41   34   14   32   24
  -5  -14  -10  -12  -20  -17   -9  -14  -12
  -8  -20  -14  -15  -29  -21  -10  -16  -12
  22   30   21   27   57   43   21   43   32
  11   25   19   18   40   29   12   25   18
  -3  -13  -10  -14  -24  -21  -17  -27  -23
  -9  -15  -11  -13  -26  -20   -8  -17  -13
  12   33   20   31   57   41   24   40   32
  13   29   20   26   54   39   17   35   25
  10   26   18   22   44   34   13   29   22
  17   26   19   22   51   38   18   37   26
   8   16   12   14   37   26   12   27   17
 -11  -22  -14  -20  -34  -27  -15  -26  -20
 -11  -21  -17  -12  -23  -16   -6  -13   -8
  16   35   26   26   58   43   15   36   27
  -9  -18  -12  -17  -31  -22  -12  -23  -18
  -7  -17  -12  -15  -26  -20  -10  -20  -14
  -8  -13  -11  -14  -25  -22   -9  -20  -18
 -12  -15  -13  -14  -23  -19   -7  -19  -14
   8   21   15   17   39   28   11   24   18
  12   31   20   22   45   33   16   31   24
  13   34   26   29   57   43   21   40   30
  -7  -12   -9  -14  -29  -22  -11  -25  -19
  16   28   21   22   53   40   16   36   25
 -10  -20  -14  -16  -33  -24  -14  -22  -16
   9   22   16   19   39   27   11   26   19
 -33  -13   44  -28  -20   51  -34  -15   56
   9   24   16   24   44   33   19   32   24
 -12  -11  -13  -15  -20  -19  -12  -23  -18
  -9  -15  -12  -16  -31  -21  -11  -24  -17
  13   26   20   21   42   31   13   24   18
  10   -4  -36   33   -1  -74   35    4  -51
  10   24   17   21   46   36   15   34   27
  15   32   24   28   58   45   20   42   34
  11   17   14   -9  -21  -19  -29  -60  -51
   8   21   16   20   41   29   18   38   27
  17   24   21   26   63   47   24   52   39
  -5  -12   -8  -12  -24  -18  -11  -20  -16
  13   26   18   25   49   36   15   36   26
   7   17   14   19   44   33   15   36   27
   8   19   13   21   38   27   16   27   18
 -10  -15  -12  -16  -29  -22  -11  -20  -14
  14   23   19   24   43   34   17   33   27
 -10  -14  -10  -12  -21  -16   -6  -15  -10
  13   24   17   18   42   30   13   28   19
  12   22   17   20   45   32   13   32   23
  -6  -13  -10  -12  -24  -19   -9  -17  -14
 -10  -18  -14  -15  -21  -18   -8  -11  -10
   9   21   14   20   47   33   15   33   25
   8   20   13   16   41   30   11   29   23
  14   26   18   24   45   34   15   30   23
  -9  -18  -14  -15  -28  -22   -9  -19  -15
   9   22   15   22   44   30   15   29   19
  -9  -19  -13  -19  -33  -23  -13  -24  -16
  -3    7    4   14   39   32   22   50   40
  -8  -17  -12  -15  -25  -20   -9  -17  -12
   6   15   11   16   34   25   11   25   18
  10   20   15   17   39   28   11   26   20
  -8  -18  -13  -15  -29  -20  -13  -23  -14
   8   20   16   17   42   33   12   31   23
  -9  -18  -11  -16  -31  -21  -10  -20  -15
  13   27   20   24   54   37   17   40   29
 -17  -16   -9  -22  -13   -6  -23  -14   -5
  10   20   15   17   34   27   12   24   18
 -10  -22  -22  -17  -28  -24  -11  -20  -20
 -11  -17  -14  -14  -28  -20   -9  -19  -14
 -10  -18  -16  -16  -25  -25  -14  -25  -19
   9   18   13   18   42   31   17   32   24
  -6  -15  -13  -12  -22  -18  -10  -18  -16
  -9  -15  -13  -15  -22  -20  -12  -22  -17
  -5  -13   -8  -13  -25  -17  -10  -19  -14
  -2    3    4    1   10   11    5   11   11
   9   22   15   23   43   31   19   35   25
   9   17   12   16   38   27   12   27   20
  10   20   13   19   44   31   14   29   21
  -6  -14   -9  -14  -28  -21   -9  -21  -16
  23   35   26   35   62   46   27   48   37
  16   31   24   27   55   39   18   37   27
  -6  -14  -10  -13  -23  -17  -10  -16  -11
  14   30   21   26   55   39   19   38   25
  -9  -18  -14  -18  -33  -25  -13  -23  -14
  -7  -15  -10  -13  -22  -17   -7  -16  -13
  -7  -15  -12  -14  -28  -21  -10  -22  -15
  15   33   27   27   43   33   22   31   27
   7   29   22   27   61   44   19   39   30
  10   26   19   27   65   50   25   50   37
  -9  -15  -10  -16  -28  -18  -10  -17  -12
  15   31   20   23   51   38   14   34   26
  10   19   13   19   39   29   14   31   23
 -12  -16  -13  -17  -12  -16  -11  -14  -12
  -7  -16  -10  -15  -27  -20  -11  -17  -13
  10   28   21   24   50   36   17   31   24
  14   29   21   26   47   34   18   32   24
   9   20   14   19   41   27   13   27   18
  10   22   15   19   40   29   11   26   20
   8   19   14   15   35   24   10   22   15
  10   25   17   18   47   34   13   28   21
  -9  -20  -12  -16  -28  -21  -10  -20  -16
  21   41   27   34   71   50   24   43   30
  11   23   17   25   52   36   17   41   29
  18   -2  -16   -9  -47  -44   38  127   98
  28   43   34    0    3    2  -25  -42  -35
  12   29   20   27   50   37   18   36   27
  15   36   28   34   66   46   23   42   28
  16   28   15   29   57   35   17   43   26
  13   27   18   27   53   37   19   36   27
 -11  -16  -14  -15  -25  -19   -8  -16  -12
  22   13    2   28   24    9   24   14    4
  14   24   17   23   53   38   15   39   28
  -5  -10  -10  -10  -17  -15  -10  -18  -15
   9   19   13   18   40   28   11   28   22
  14   30   20   24   53   36   12   34   24
  10   23   15   22   46   32   15   30   23
  -8  -18  -15  -12  -22  -18   -8  -12  -10
  -7  -16  -12  -14  -28  -22  -11  -19  -15
   8   20   15   15   40   28   11   26   18
  -8  -17  -11  -16  -34  -24  -10  -25  -17
 -11  -18  -13  -17  -30  -24  -12  -23  -16
 -10  -20  -14  -13  -20  -19  -12  -18  -15
  -9  -17  -15  -17  -25  -25  -12  -21  -17
   8   19   13   18   44   33   14   32   24
   7   14   10   14   32   23   11   24   18
   5   12    9   13   31   23   10   22   17
  16   31   21   26   51   35   14   35   22
  -6  -15  -10  -17  -33  -22  -15  -26  -18
  -6  -13  -11  -12  -22  -17   -9  -19  -13
 -12  -18  -15  -17  -29  -22   -9  -19  -15
  -9  -18  -17  -12  -19  -17   -9  -13  -12
  -8  -13   -9  -13  -21  -19  -10  -16  -15
  -7  -12   -8  -13  -23  -18  -10  -20  -14
   9   19   14   20   41   29   16   30   20
 -10  -16  -14  -16  -26  -21   -8  -20  -15
   7   24   17   22   48   33   13   31   22
  11   25   17   22   52   36   16   38   28
 -10  -18  -15  -17  -31  -23   -9  -20  -14
  10   20   13   18   42   30   13   29   23
  13   23   13   19   43   30   13   28   22
  -5  -17  -14  -20  -38  -29  -15  -33  -28
  18   -3   10    5   61   48   21   44   29
  10   25   17   23   45   34   15   32   25
   8   16   12   13   36   26    9   25   18
   7   16   12   15   37   27   13   28   20
  -6  -13   -9  -11  -21  -17  -10  -18  -14
  -8  -15  -11  -16  -28  -21  -12  -20  -14
  10   22   15   17   37   26   11   24   17
  16   21   20   24   46   34   18   37   27
  13   26   19   23   51   38   16   35   25
   6   14   10   17   40   27   12   32   23
  21   40   31   29   73   54   22   51   37
  16   33   26   23   49   36   14   30   23
  19   34   22   27   57   40   17   38   28
   8   19   13   30   60   47   32   59   40
  12   29   21   25   50   36   17   32   23
   9   18   11   18   47   35   16   37   28
   9   19   14   17   37   26   10   24   17
  10   22   15   21   46   34   17   34   25
  12   25   17   20   42   30   12   27   21
  16   31   20   23   43   32   13   23   18
  10   25   17   20   42   32   14   28   21
  -8  -15  -11  -12  -23  -18  -11  -19  -14
  10   22   15   18   39   28   11   25   20
  14   32   21   26   54   39   16   34   25
  15   30   21   22   42   29   12   25   17
   5   11    7   18   41   29   16   34   25
  -7  -14  -10  -13  -26  -18   -9  -18  -13
   7   18   12   18   41   28   13   29   21
   6   17   13   16   38   28   13   28   21
  16   32   25   34   67   46   21   46   36
  10   21   15   19   40   28   13   26   18
 -52  -80  -75   34   80   61   -3    8    6
  17   34   26   25   56   41   15   34   21
  14   22   17   23   70   54   21   56   40
 -11  -18  -13  -16  -25  -19  -12  -20  -15
  -9  -15  -10  -15  -28  -20  -10  -19  -15
  14   21   15   19   40   35   16   34   29
   7   18   14   18   39   29   14   29   20
  15   27   20   22   47   34   11   29   21
  18   35   28    8   12   13    1   -5    0
 -18  -57  -53   21   17    4   47   74   60
   9   21   23   17   31   24    8   20   10
  13   24   19   22   46   35   17   33   26
  -9  -21  -14  -15  -23  -18  -11  -20  -14
  21   28   20   25   51   37   18   38   25
  -5  -11   -6  -12  -25  -20  -10  -22  -15
   7   15   11   19   42   33   17   38   30
  11   27   21   24   53   39   16   34   25
  14   26   20   26   51   35   16   35   24
   5   15   10   12   30   23   10   23   18
  -8  -16  -11  -16  -29  -21  -11  -20  -15
  12   24   20   18   40   32   13   28   22
 -27   28  -14 -102   92   -2  -87   88  -16
  13   28   21   23   52   40   16   39   28
  18   38   27   31   54   37   23   44   32
  13   27   19   25   59   44   17   43   33
  12   24   17   21   47   35   16   36   27
  19   40   29   32   60   44   19   36   26
  -9  -16  -11  -16  -25  -19  -11  -19  -15
  12   23   16   22   47   33   17   35   26
 -13  -19  -13  -17  -26  -19   -8  -18  -14
 -22  -39   35  -41  -53   62  -34  -32   72
  11   26   18   23   54   38   16   38   28
  -8  -16  -12  -16  -26  -20  -11  -19  -14
 -12  -16  -16  -17  -18  -19  -11  -17  -14
   8   21   16   22   44   32   17   35   23
  13   22   17   20   45   34   16   35   24
 -11  -20  -16  -17  -31  -23  -10  -20  -17
  -5  -13  -11  -13  -28  -22  -17  -28  -24
 -10  -14  -12  -15  -23  -20   -9  -17  -15
  -7   -6   -8  -21  -16  -26  -16  -13  -28
  -6  -12   -8  -11  -20  -17   -8  -15  -13
  19   31   24   30   62   45   21   44   31
  -6  -14  -11  -14  -32  -21   -9  -22  -15
  -6  -14  -10  -14  -25  -22  -14  -30  -22
  11   23   16   19   41   30   11   27   21
  -7  -17  -13  -15  -32  -23  -12  -24  -16
  11   24   17   21   44   30   14   27   20
  13   34   28   26   53   42   14   33   27
   9   22   16   21   41   29   15   30   22
  -8  -13  -11  -12  -20  -16  -10  -14  -11
  -7  -14  -10  -14  -26  -19  -10  -19  -15
  12   27   18   22   44   30   13   29   20
  10   18   12   16   33   25   10   22   15
   8   -1   -3  -10  -32  -32  -17  -64  -54
  -7  -23  -19  -17  -40  -30  -14  -29  -23
  -7  -14  -11  -15  -26  -18  -10  -18  -13
  14   32   23   24   48   36   13   30   20
  -7  -13   -9  -15  -25  -19  -10  -19  -14
 -11  -18  -12  -16  -25  -18  -11  -17  -12
  -8  -13  -12  -14  -20  -16  -11  -16  -16
  -5  -14  -11  -16  -28  -21  -11  -20  -14
   6   16   12   13   35   26   10   24   18
  -8  -14  -12  -20  -37  -29  -13  -33  -24
 -11  -23  -19  -17  -23  -20  -10  -16  -13
  -8  -18  -14  -15  -31  -25  -12  -23  -18
  11   25   18   22   47   33   13   32   24
 -12  -17  -17  -17  -26  -22  -10  -18  -14
  -8  -13  -10  -13  -24  -19   -8  -17  -13
  12   19   15   17   38   29   11   28   19
  -9  -18  -11  -15  -34  -24  -11  -25  -19
  10   23   17   24   48   34   17   34   24
 -10  -17  -13  -15  -25  -20  -11  -17  -14
   7   17   13   16   34   29   16   34   29
  -8  -14   -9  -16  -33  -21  -11  -23  -16
  18   31   21   30   58   40   22   41   30
  -9  -16  -13  -14  -25  -19   -9  -15  -10
  -6  -13   -9  -11  -28  -21  -10  -21  -16
  13   27   20   23   47   32   13   31   22
  -6  -15  -11  -11  -25  -19   -9  -21  -16
  13   32   22   22   50   35   14   28   21
  -9  -17  -11  -15  -33  -24  -11  -22  -15
  -7  -12  -10  -11  -21  -16   -8  -14  -10
  28    4  -12   43   -1  -25   34    5  -16
  13   28   20   22   50   36   14   34   24
  -7  -12  -10  -12  -28  -23  -10  -21  -17
  11   28   19   24   53   37   16   37   27
  -8  -15  -10  -13  -28  -20   -9  -20  -16
  11   20   15   20   44   33   15   35   26
  15   35   26   27   53   39   14   29   22
  16   30   19   28   45   28   18   32   19
   8   14    8   17   35   24   13   27   20
  11   22   17   22   38   28   15   27   17
  -7  -14  -11  -13  -27  -20   -9  -19  -14
  -7  -13   -9  -14  -29  -21  -10  -22  -16
  -8  -18  -12  -17  -31  -24  -10  -23  -17
  15   26   18   21   45   34   12   31   24
 -18   46   32   17   68   56   23   56   43
  -5  -14   -9  -13  -26  -19  -11  -20  -15
 -10  -15  -12  -13  -24  -19   -9  -17  -15
  -6  -13  -10  -15  -26  -19  -12  -22  -16
  19   36   24   29   61   45   18   40   27
  17   37   31   34   71   53   24   48   35
   9   21   14   19   42   29   13   28   21
   7   20   15   19   42   32   15   34   27
  13   18   13   20   32   22   15   22   15
  -5  -15  -10  -13  -29  -21  -10  -21  -16
  -6  -77  -64    9   94   73   -8   11    9
  13   28   19   25   57   41   17   36   26
  -9  -15  -12  -13  -24  -18   -9  -20  -14
  10   23   17   19   44   32   14   31   21
  -7  -14  -11  -11  -21  -18  -10  -18  -16
  11   24   14   21   47   35   16   35   26
  -7  -18  -12  -14  -27  -21   -9  -19  -15
 -11  -15  -12  -15  -22  -18  -11  -18  -13
  15   35   28   30   55   40   17   39   30
  -6  -13   -9  -12  -21  -17   -9  -16  -12
   9   21   14   17   38   28   12   26   19
  -9  -21  -14  -19  -35  -25  -14  -27  -19
   8   21   14   20   41   29   15   30   22
  13   26   19   24   44   32   15   32   22
  -6  -16  -11  -12  -25  -20  -11  -18  -13
  10   22   17   21   46   34   16   34   23
   8   18   13   17   36   26   11   26   19
   6   16   12   15   37   27   12   28   21
  12   34   26   24   62   48   16   45   36
  -9  -16  -12  -15  -25  -19  -10  -19  -14
  -9  -18  -13  -17  -30  -21  -11  -21  -15
  -6  -17  -10  -14  -29  -22  -11  -23  -17
  13   24   19   27   50   35   20   38   26
 -11  -20  -17  -15  -23  -22   -8  -17  -15
   3   11    9   12   29   23   10   23   17
 -11  -19  -14  -14  -26  -20  -10  -19  -14
   9   20   14   18   39   28   13   27   19
  19   31   21   19   48   38   17   33   21
  15   30   20   20   54   43   18   39   27
  10   24   17   19   42   31   11   27   21
  -6   81   52   61   73   39   10    1   19
  -9  -18  -13  -17  -28  -21   -9  -17  -12
  11   23   17   19   42   30   12   29   19
 -11  -21  -16  -17  -29  -23  -11  -21  -16
  14   28   20   28   57   41   19   40   31
  -4   18   18  -14    4   19  -12  -14   17
  -8  -17  -11  -16  -30  -22  -11  -22  -16
  -9  -15  -13  -17  -23  -21  -12  -21  -19
   7   21   14   15   40   29   12   26   20
  -8  -15  -10  -14  -28  -22  -11  -23  -18
   9   19   14   15   34   24   10   24   17
  12   27   19   26   53   37   17   37   27
  23   41   31   22   35   23    1   -5   -4
  13   27   19   23   44   34   15   27   20
  -7  -18  -14  -15  -32  -24  -10  -25  -20
  -7  -16  -12  -16  -31  -24  -11  -23  -18
  11   30   19   26   52   36   15   34   25
 -11  -20  -14  -17  -30  -22  -11  -20  -13
  -7  -19  -13  -14  -33  -23  -10  -19  -12
  11   22   17   19   49   36   14   35   25
  -8  -16  -12  -15  -29  -22   -9  -21  -15
 -12  -19  -13  -15  -28  -20   -7  -16  -12
  10   21   15   21   36   28   13   25   19
  13   16   12   24   48   37   20   43   33
   9   20   13   22   45   31   15   34   25
  -7  -19  -14  -15  -26  -22  -11  -23  -18
  -8  -17  -11  -15  -26  -21  -11  -18  -15
  10   24   17   23   50   36   18   39   27
 -12  -20  -18  -16  -24  -25  -15  -24  -23
  -5  -12   -9  -10  -20  -16   -8  -16  -13
   9   26   17   20   42   29   13   23   18
  -8  -18  -14  -14  -29  -22  -10  -21  -15
  -9  -18  -12  -15  -33  -25  -10  -23  -15
  15   27   18   27   52   38   18   40   28
   8   17   11   22   41   31   18   35   26
  -8  -19  -15  -15  -26  -23  -12  -25  -18
  10   23   16   21   48   33   15   33   24
  -9  -15  -11  -12  -20  -18  -10  -17  -15
