 -10  -18   -8    1  -25   -5    6   36   12
  26   73   26  -46  -35  -30    5  -26   -3
  -7   33    5   29   26   40   -6   34   -5
  -1  -21    3   61 -126   84   -7  -18   -2
  -2  -12   -7  -13  -21  -17   -6  -15  -12
   2  -21    3   -3  -11    1   -6  -14   -1
   0   -1   -1    1    1    0    1    1    1
  -4   16   -2   -6   -8   -9   -9  -19  -12
  -3  -10  -10  -10  -13  -11   10   35   12
   3   24   44   -6  -20    5   -1  -27   -7
  -9   20    6   22   25   23    4   17   11
  -7    7   -1   10   27   13   -7   11    2
   4  -19    0  -17   40  -12    3  -19   -1
  -5    0  -35   16   37   10   -9    2  -27
  -4   -1   -7  -21    8  -19    0   43    4
 -17   10   -7    4   56  -14   12  -47   24
   9   -1  -18   -5   86  -29  -36   11   10
  21   -9   -4  -10   61   14  -30  -33   -3
   4  -14  -10   -8   -9  -14  -12  -17  -13
  21    9  -20   -5  -10  -10  -16   -6   28
 -13   18    1   17  -60   49    5  -18    3
   1  -45    6    4  -27   56    0    4   16
  -3  -30  -22   19   16   -1   12   13    0
  -4   -2    6  -22  -35   60   -7   -6    5
 -26   16   50   22  -54  -19   18   37  -28
  -1   -5    2   24   47  -24    6    8  -11
 -10  -13  -12  -11   -6  -14  -10  -14  -15
   1   60   32  -43  -64  -12   -3   20  -34
  11    8   10    0   46   10   17  -25   13
   1  -20    1  -18   15  -18    0  -24   -2
  -7  -16   -9  -16   -5  -15  -11  -18  -11
  -3  -27   -3  -15  -30  -18   11   59   27
  -5   -6   -9   -7  -25   -7    7   45    7
 -10   -6  -14   -2   -5   -8   -7   -4   -3
  -1  -11    0  -14  -33   34   -9   17   17
  17  -23    7    8   12   43   -3   -6   11
  11    3    6   13  -65   21    1   -5   12
  22   31    8  -15   15   14   13  -30  -34
   3  -14    1   -9  -10   -8   -2  -14   -3
  -4  -11   11    8  -43   36   -2  -16   19
  -7   -5   -1  -14   23   77  -12   48  -31
  10  -28  -12   23   24  -30  -21   24   10
  -9   -2  -13   12   51   17  -17  -10  -17
  -4   14  -12  -15  -58   63    8   33  -35
  -5   11   -2   10   31   10    0   12    3
  -6   -6  -16   -5   -2  -11  -14   -7  -18
  -9  -18  -11  -30  112  -13  -12  -22  -14
  -4    2    7   58  -50  -16   18   -1   -7
   0    6  -18   12  -23  -20  -18  -27   32
  -1   -4   -5  -20   -3   30   -1   -1    9
  15    6  -23    8   13    2  -24   -5   19
  19   27    9   24  -35    4   15  -16   -8
  -1  -12    2  -12   14  -10    5  -17    0
 -18   18   -6  -16   30  -12  -19   22   -8
   6  -51    8  -10  -11   -3   -3   66    3
   4   13   -9   11   32    6  -10   14   21
   0  -25   -4  -13  -53  -35    1  -21   -2
 -25   -8    9    0  -40   55  -15  -20   27
   0   22    1  -23    2   22   -2  -26  -11
  17   37   -5    0  -20  -10   -6   -5   -6
  -1  -17   -6  -39   -5   57   20   26  -17
   0    6   10  -27 -119  -40   -2   12    3
   8  -37   12  -17 -114  -35   13  -20   18
  -4  -26   -3   38    9   31   -1  -31   -2
  -4  -12   -9   -9   -4  -12   -9  -14   -8
 -16  -19  -18  -22   70   -3  -21    5  -24
  16  -23    2   30  -19  -13   15    0  -15
   3   -4    2  -18  -17  -19   -1  -16    5
 -13  -12  -19  -13  -13  -15  -12  -15  -17
   5    0   -3   41  -10  -24   -1    8  -13
  19   13    2    1  -58  -20   -5    4   34
   5  -19    1   48  -22  -30   17    0   -4
  -8    3   26  -10  -25  -17   23   -5   -9
   6   16   -5   -7  -50   -7    0   33   15
  29   36  -20   -5  -42   -9  -18   28   32
   1   -9  -37    5   99  -13  -41    0   18
   7  -49   23   11  -51   15  -30   88  -39
  -1  -17   -3   -7   -9  -15   -2  -11    0
   0   31   13    8    6   -9   -3  -26  -18
  -2  -24   -8   -8  -19  -14    8   45   16
  -6   -3   -6  -33   86  -34   -8    1   -6
   0   20    2   26   14  -26   -2  -29  -10
  16  -29   -6   43  -18   10   -8  -26   22
   3   44    7  -17  -59  -24    3   27    8
  11   31   -5   24   -9  -27   -3  -37    8
  -6   -4   -7   -4    1   -9   -7   -8   -8
  25    4  -10   23   43    7  -17   14   38
   3   39  -23   37  -21   -4    6  -44    5
   4   18    7  -33    2   31   -3  -30    3
  -1  -26   -7  -15  -10  -18    9   39   17
  -3  -23   -2  -23  -15   30    2   20   10
  18    4  -13   14  -87   57  -10    2    3
   5    8    0    6   28   20   -2   31   -1
  -3    5   -1   -1  -17   37   -5   12   16
  -1   39    5  -10  -21  -13   -1   10   -3
  -3   10   -4   -1  105   13   13    2   17
  -6  -12  -10   -6   46    5   -7  -12   -9
   5   -8   -6   25  -20  -29    2    3   -2
  -1  -20  -12  -30   82  -29   -7  -26    0
  -2  -23   19   -6   87  -26   -2  -45   -3
   2   -8   -4   -8   -8    1    1   36    5
  12  -27   -2   45   -3  -14    4    8  -10
   2   24   -5   50  -21   -4    8    3   -1
   1   -8   -4   -7   79    4    3    7   -2
  -9  -28    1   -1  -43  -24   12   66   23
  11   20   15    0    3  -20  -21  -19   -6
  -3  -22   -1  -22   -8   30   -9   21    1
  -3  -15   -7  -16   36   -2   -5   -5  -11
   5  -23   -6   29   -6  -29   10   31  -10
 -10  -22  -13  -30   88  -16  -15    3  -16
   4  -10   -4    9   51   15   -9   16    9
 -10  -13   -9  -13   -4  -17   -8  -14  -10
  -9  -45  -26  -32   20   30  -24   29   13
   5    4   -8  -11   45  -37    2   10  -17
  -7    4   -3  -19   28   43   -2  -16    0
   3  -13   -2  -14  -40   13   -6   30   38
  -9  -17   12  -32   89  -36   28  -26  -18
   5   -1   -4   -4  -54    6   30   65   12
  -5  -22   -5   21   -7    6    8   67    0
  -4  -16   -5  -15   48  -13   -5  -13   -7
   5  -29    5  -15  -52   29   -3   17   41
  -6  -13  -10    2  -40  -11   10   55   19
  -1    6   -2    9   29    7   -3   -5    1
  -8  -29   21   56    8  -56   -8   36   -5
  13   25   11    5    2  -46  -19  -16   21
  20  -41  -12   -8   57    0    3  -31    3
  -7   -2   -5    1   -3   -3  -15   -7  -14
  -9    6   -1  -30   56  -27  -11    7   -3
   0  -12   -1  -19    3  -23   -6  -12   -7
  10   10  -15  -48   76   -6    2   -1    1
 -19   -3   23    5   -5    8   20    4  -25
  -7   27   18   17   29  -45   10  -38   -4
  -4    2   -5    3   55   11   -4   10   -1
 -12  -24   -1  -13   44   11  -10   17   -6
  10   20    1   24  -14   -1    0    3   -2
 -11   21   -6   42   -4  -29   26  -25   -8
  -3   -4   -6    4  -16  -42   16   58   14
  -9  -18   -7  -15  -19   20   -5   30   16
 -20    4  -12  -12   97   -8  -22    9  -33
  -7  -11   -8   -7   38   -7  -10   -5  -10
  -1    1    6  -28  -41   65   -3  -17   11
  -2    8   -1    9   24   12    4   10    6
 -10  -12    3    8   50   -3    0  -27  -16
  -5  -16   -3  -12  -20  -13   -5  -11   -8
  10  -19   -5   29   -9  -21   11    9  -16
  -6    4   20  -19  -21   35    3  -23   -2
  -1   -8   -1  -14  -40   24    1   21   17
   5   -8    2   -9  -16  -15   -4  -17   -8
  -2  -23    9  -31  -29   65   -1   -8   10
  -2  -16   10  -16  -43   19    8   11   31
  -3    9   -4   13   30  -20   15  -10  -22
  -3  -42  -10  -25   61   -1  -16   14  -10
 -14   -2    4  -15   -8  -15   -4  -13  -19
  -4   20    4  -13  -35  -25    9   22   14
  -8   26   -1  -25    4  -27   -2   22    1
  10    3   21   -2   49    0   22    3   23
   4  -17   -5  -10  -14  -15    1  -19   -5
   3  -32  -13  -13   -2   -3    4   35   14
  -7  -27  -17   -7   78    9   -6  -17   -8
  -2  -24   -4    5  -68    0    7   83   -5
  -6    8   -2   -8    8   29   -8   -7   14
  -4   26   25  -13  -42  -13   13   10   -2
 -10   -6   11  -29  -14   40    2    4   14
 -13    7   -8    8   52   17   -3   15    1
  -8  -11  -11   -8    2   -9   -8  -13  -19
  -8   44    5   21  -15  -20   -8  -27   -1
   0    6  -13   47  -22   -1   14  -20   -9
  -4   -7    1  -14  -19   38   -6    0    8
 -12   -1   -5   10   31   20    3   33    4
   9  -15   -2   15  -54   36  -12   -3   15
 -98  -49  -33   38   63  -22   20   63  -36
   3   36   11   -2  -73  -28    1   32   19
  -3   -6   -7  -12    1  -12  -13   -9  -10
   1    1    4    2   69   13    0   25    0
   7  -11   -4  -29   54  -30  -32   17   -3
   5  -20   -3   -8  -42   26   -1   16   22
  -3  -26  -21    7   40    4   -6   -3    8
  12    3   14   -1   93    4   12    4   15
 -30   23  -36   13   62   16  -30   30  -27
  -7   -1   -3   -7   -8   -6   -6   -1   -5
  21    5    2   64  -15  -10   11    0   -2
  -9   -4  -10   -2   22   -2  -12    0  -11
   9   34   10    3  -11   -3   -9  -16  -15
   2   39    6    7  -11   10    0   -4   -3
  -5  -10   -5  -11   -3  -15   -8  -16   -6
  -2   -8    2   -7  -18   25    6   18   16
   3   -7    1    6  -18   14    3   21   14
   3  -32   -1    9    3  -28    1   36    6
  -3   55  -23   11   43  -28   -5  -12    5
  -4   19   -3  -23    7   31   -8  -28   -1
   0    6    4    2   36   10    6   15    5
  -7  -21   11  -30    1   23    3   26  -16
