  27    5   21  -18  -18    1   56    6   -2  -56   -5   -1   75  -25  -35  -39
   9   13   20   22  -29  -54  -16  -21  -38  -36  -10   12  -28   12    0  -15
  -5   -4  -10    4   -1    6  -20    7   -3    5   -3   -7    1   -9   -9    6
  -3   20    6  -51    0  -13  -22  -36   23   12  -16   31    8   16  -29   19
   3   -3    5  -18   -9    9    4  -10   -4    2    9   12    3    6    2   -3
  -7    1    1   -9    1   14   19  -13   -4   -6  -12    0  -16  -20   25   -8
   6   19   15   13  -15  -38  -23   -2  -25  -18   -9   36  -29   26    2  -16
   2   33   10   -5    2   20  -10   23   -3   31    1   30   -1   11  -14  -18
 -53  -13   54    2   -7   -8  -24   -5    7   65   32   -3  -80  -10   31   34
   3   29   -2   18  -18   -3    5   -8  -15   -2    1   10   -6   11   -1    8
  17  -27   -5  -87    7  -11  -19   35  -56   28   52  -10   18   46    5    1
 -11   -1  -10   37   -5  -18  -35   29    5   32   13  -12  -15   30  -38   13
  11    8   -9   -1   10   16    1    8   13   -1   -3    7    2    0    9   17
   8  -12    0   -7  -19   11    3   13    3  -15   -1  -10   -7   19    6   11
 -18   -7    9   22   16   12    0  -24  -14   -1    3   13   15   -1   -8    9
   4   16   26   25  -52  -17    0  -31  -22   19   17  -48  -10   18  -63  -39
  39   12   30   31   31   19   15   -3   22   -4  -12  -27  -26   -5   13   18
   0   -5   20  -22  -11    9    3   -2    4   -3  -53   -3    3   27  -11   28
 -32    3  -17   14  -31   -4  -53   39  -11   19  -13   11   26  -16   -9  -11
  -7    3  -14   17    9  -20  -17   24   -1    0    0   -5    3    8  -22   16
   3   13   14   20   -1    3   12    8   -3   13  -57    1    1   -9   -5    3
  12   -2    7  -39   15  -12  -39  -20    3  -18    6  -13   13    4    2   16
   6    3    1    9   -7  -10   -2   -5   -2  -11   -1    6   10   10   19   -8
  16    5    6    5    6   -1   -2    4   -9    1   -4   15    0   23    7  -14
  -3    0   13   10    0  -32    2  -11   10    4   15   -9  -21   18   -8    8
  -8  -84   37   -8   40  -20  -12   40   46   -7  -28   60  -24    9  -17  -54
   3    9   21    4  -10   -1   18   18   12  -19    8   11   29  -12  -16   -1
 -66   15  -18   44  -31    9   57   10   36   32  -23   11  -28  -15   -2  -20
  23    8   -8  -11   -2  -27    2    6    3   32    0    6   -3  -28   -4  -12
   1    7   15   17    1   12    2   -1    6   23    1   -9  -12    9   11    2
 -24  -21  -67  -12    7   66   15    1    4   39   -4   -4  -61    5  -70  -13
  11   -4   -4  -14  -14   -1    3   16    4   -1   -4   -9   -8    6    6    1
  -4   15  -14    0   -5   23   16   -7    4   12    8  -23   13   -7   -2   14
  21    7   43    9   19  -40  -14    0  -11  -37   -7   23    9    1   35    9
   5   38   37  -24    2   28   37   70  -26  -64   18   62    2  -52  -57   24
   0   33   -6   11  -22   -8    4  -17  -27   -7    8    0   -4   14   -1   17
  35   22   11  -11   46  -39   10  -31  -17   70  -29   30   17  -36  -23   -6
  48  -12  -20  -18  -52  -11    2   34   31  -11    1  -20  -27   -1   11   14
 -17    6    8    4  -19  -17    3   -9    6   -9    4   -6   20  -20    4   10
   8   -9   -2  -17   22   36  -56   32   -1   25  -12  -17   39  -26    5   -6
   5  -11   12   32  -17  -11  -24   -9   38   79   16  -27   49   77   16  -35
 -52   52   12  -38   23   -6   -7   22   17  -15  -22  -21   -3   30    7  -42
   5   -4    3   -3    0   20   -1   -2   -6    4  -14   -5    4  -15   17   -7
  -8   21   -9    2   -6   19   16    1    3   12    2   -6    4    4   -5    2
  -9   29  -15    5  -26    4    9  -12  -19    4    6   -3    1    6    0   12
   4   -1  -54  -34   42   46   31   28   18  -30  -15   37   37  -25   29   28
  15  -15   -3    4   22  -38   54   -4   15   -9   14  -17  -17   33    3   20
 -17   -6    9   22   20    9   -1  -26  -16    1    4   15   16   -4   -9    7
   9    0   -7   17    6  -13    0  -27    4   17   13   23    5  -31  -10    1
   4   -3  -17    2    0   -3    3   -7    2  -10  -12   -3   16    7    0  -12
 -58  -19  -35  -70  -19  -47  -19  -28   -5  -18   43    6   18   -1    2  -12
 -50   13   45    1  -54  -49   47   14  -13  -16   29   -5   42  -63   33   36
  12  -10  -11   -1   30  -52   96  -15   13  -19   25  -15  -29   46   -9   24
 -31   -2   18   22   36   17   -8  -37  -24    2   -2   13   25  -12   -4   -2
 -13    6  -13    6  -32  -20  -11  -95   80  -25   14   43    0  -51  -27   20
  -4  -23   10    2    3   -9  -11   10    5   -7  -10   23  -11    6   -6  -22
 -16  -21    5  -28   22   40   20   -2   11    6    5  -28  -55  -43  -82   -5
  -8  -17   14  -10    0    2   27   25  -29   22  -64  -15    7   23    1   13
  -5   15   -2    9  -18  -23   -4   -7  -19   -9    1   14  -11   12   -2   -2
  12    1   26  -18  -16   -2   35  -22    3  -11   17   10   27    0   25  -21
 -33    6  -44   34    2  -58  -24   56   -1   -2   -5    0   12    5  -38   24
  14   14    9  -27    1   32   39  -35   -9  -23   -6   47  -14    0   47  -11
  -5   -5  -10  -31   -3  -15  -16   -4   -6  -14    9    3   13   -1  -14   -4
 -11    0    3   14   14  -15   19  -12   -5    2    9    7   10   11  -14    4
 -16   20   47   15  -42  -55   25   16   -9  -13   24   25   70   -7   67   19
  -2  -29    7    5    1   -6  -11    7    8  -12   -8   24  -12    4   -7  -19
  11    4   -1  -19  -12   -2   -1   23    8   -2   -5  -12   -9   12    5   -3
 -57    3   -4   43   40  -22   34  -29   -7    7   13   17   18   19  -28    7
  26  -16   24   -4   21  -20  -34    7   -4  -18  -10   16  -11   22   -6  -23
 -15  -17   -7   -5    5   25   19   14   27   15    3   -1    8   -5   -9   -2
   4   -3    2    3   11   21  -19   18    4  -38   30  -32    1   18   19  -12
 -16    9   13   -2  -29   64  -93   27  -13   24  -29   15   33  -61   19  -23
   2   -2    0   -2   -3    1  -11   -7    8    8    9   -1    6   10   -2    1
  57  -24  -12  -15  -35   -8    7   18    3   18   -2  -12  -18  -22   17    5
  -8    3   -6   -3    9   -1  -11   10   -4    1   -8  -16   -6  -14   -3   -1
 -18  -14   -8    0    5   -5   -5   10    4    3  -15  -35    1  -35  -13    6
  20    1    5   11  -18   -6    2   -3    8  -15    6   -7   47   23  -42  -18
  -6  -34   17  -61  -24   13  -14  -24  -23    1  -41   21   30   60  -34   68
  -5   -1    1   -4   -5  -10   -8   -4   11    0   12   -2   26    7  -12   -5
  -1   -8   -4    7    2  -21   55   -8    5   -9   16    7  -18   30   -8   13
 -34    5  -51  -21   35   -1  -21   -1  -35  -18  -27   23 -100  -45   29   48
  29  -24  -12   45   43  -15   11  -28  -40   41   48   20   22  -57   -6  -13
   9  -47    5  -23   35    5    0   11   31   -7   -8  -10   12  -17   -4    1
  17  -25   11    9  -40  -24    3  -41  -12  -20  -16  -54   19   -2  -62  -67
   7  -10   43  -49  -26   61   60  -56  -17   16   13   27  -21   -9   60  -41
   9   -8    0    1   42  -79  106  -25   23  -24   33  -13  -30   57   -2   32
  11   -8   -4   18   11   -8   10  -18  -12   18    9   16    3  -22   -6    1
  26  -29  -93   31  -15  -10  -14  -62    7   -5  -54  -20   58   71   23  -64
 -24  -15  -18   18   55    7    2   30  -59   -8  107  -33   15  -13   31  -60
  -1    4    3   13    0  -19    2    2    3    0   12   -3   -9   15  -20    6
  -1  -15  -15  -27    2   -6  -13    0  -10  -17    6    5   19   -7   -4    5
 -62   -8  -39   -7   12   12   22   39   35   49   14   60    3    4   96   55
   9   48  -28  -30   26   28   40  -30    6   21   33  -91   48  -24   14   64
  37   17   30  127   16   28   60   43   22   13  -37  -28  -36  -34   28  -25
  25   12  -10  -24    1  -23    5   15    3   30   -6    3   -6  -15   -3  -12
 -13   -1  -13    3    3   -2  -15    3   -4   16   -6   -6  -20   -2   -3    2
