  33   11   18  -15   29   26   21   22   39  -29  -44   -3   11   17  -17   11  -39   16    2    5   28  -51   14   13   14   16  -25    4   37   -8  -16   11   17    2  -22   10   15   21    0    8  -13   26  -35   -4   10  -12  -23   17  -15   -6   30    3   16   49   -2  -37  -43    6   26  -13   21  -28    4   11
  20  -29   -1  -16  -13    1   10   17   26   24   19  -14  -14   31    6   12   12  -12  -43  -14    3  -11    4  -25   -8   11    1  -11   -6  -14   25    9   -1   43    3  -35   -9    5  -16   16   19   -7  -33  -11    1  -17   10  -17   11  -33  -18   -8    4   -4  -12   -1   20   -9   -8    6   -2  -15  -15  -22
  19   11    6   57  -11  -47    7   24   40    8  -15  -11   41   -8   -8    6  -46    1   17   37  -37   -3  -29   31   29   23   28   -9   40  -45  -23    5  -30  -15   -9   84   20  -19  -34   35   33  -23  -14   38   35  -77   56  -14  -36   35   -5   32   41  -75   45   -8   26  -33  -30   16  -39  -27  -49   11
  24  -31   -3   35   23  -27    0    5   -3    0   -7   25    0    2  -16    3  -15   -7   -6   -1    0    0   17   24  -12  -32    7   -4    9  -30   26   -4   -6   47   15  -41   -3    0   12  -19  -35  -12    0    3  -11    5   -6  -25    4  -17   -9   38  -16   -5  -11  -20  -13   10    7   25    5   23   12  -15
  22  -28    8   26  -39   26    3   -1   -7  -33   -1   13  -21   23  -28   11  -16    5  -25   23  -25   35   -9    1   21   11   18  -36    5    9   13   29  -35  -25   18  -27  -15   -3   13    0   -5    3   57   -5    0   37  -18   -6   16    2   -6   20   37    3  -48  -53   22  -34   28   12   20  -24   43  -51
  17   59  -12  -37   24  -29  -44   26    8  -12  -24   57   -8   46   31   -7  -25  -49  -24  -52   63   35   -2   43  -44   -6   -8  -43   11  -38   34    3   12   -7   48  -22   27  -28  -34  -41    5   30  -15   22  -12   17  -15   36  -45   17    5   -7    3  -29    5   -5   22    5  -27  -12    3  -31  -15   17
 -26    1   43  -15  -38   19   -1    2   -6    2   22   24  -38  -29   25   49  -26   31  -28  -11    7  -12    5   17  -12  -37   -1   26  -10  -17   25  -19   -4   14   13   44    1    8   26   56   21   -4   21  -11   23   -9   30    3  -33   36  -28   31  -11   25   16    8  -18  -24  -31   15  -19    0    5  -17
   6  -12  -35   16   13  -13   17   18  -13   28   15  -21   41   34    1   14   20   13   -2  -14   55   15  -45   21   -6  -28  -14  -28  -20    3   23  -39  -12    0    0   17   42   15   -6  -38   11   -1    5   16    6   29    3   -6  -26   26   17    4   -7   12  -97  -28  -30  -25  -15   16  -13   10   -8    8
  33  -25   14  -15   11  -26  -24  -25   -9   -6  -72  -23    5   54   -4   26   12   26  -15  -14    7   -8  -32  -47  -12   -6  -24  -19   17   -8   18  -13   -5    0   22  -68  -23  -37   30   19   14    4   13  -19   25  -10    1  -32    6  -19   -7    4   12  -18   -9  -19  -32   44   51   16  -24   21  -25   12
  -8   16    8   18   -1  -23   -3  -13   13   -3    3   12   15    3    1   11  -15   12    1   14   -7  -10    4   13   -3   11   29   -6   -6  -11  -18   12   -3  -20    3   22    0  -15   -6   11   -6  -21   -6   -6   11   29   19   10  -19   40  -10    0  -22   -9    1   -2  -20    1    6   -5   25   13  -19    6
  -3  -14    6   10  -18  -16   -3   -7  -22   31   -5   20    1  -21   -7  -15    2   15   25  -23   -1    4   16    7    4   -3  -14  -23    8   15  -18   -8   12    7  -11   -6  -14    6    0   -2    9   -4   -1    1  -15   26   14   -5    4    5    2   16    4    7    7    5   -6   -3   -2   -3   -3  -24   -4    5
  60   21    2    6   -8  -16   -7   12  -12    7   39    6   -1    4  -38   32  -22   19  -44    2   14    6  -19  -23   28  -30  -41   26   29  -36  -52   47    1  -31   11  -20   -1   30   -8    1   -5    4  -30  -36  -36  -48   14    3  -19   -3   11    1   28   27   25   -8  -17  -11  -12  -18    7    6   31   51
  -3  -12  -17    0   17  -27   -9    2   27  -12  -15   -9   11   12  -39   62   -3  -33  -17   31    7   11    9  -17    8   -7   30  -22    4  -21    1  -41   25   -3   -3  -11   48   12    9  -78    0    0   -5  -16  -28   -5   27   -8  -20  -16   -3    0   -4   30   33  -15   39   13   22   19  -19   14  -15   40
  24    8  -35  -38    0   14   -8   20   -8   -1    0    5  -32    2  -21   26  -18   36   13   -1   -5  -22   48  -24   29  -14  -47  -25  -22   18   -5  -40  -27   53   -8  -25    1   -5  -29    5   12  -25    2   37   16  -28  -17  -35   -5   47  -49   -5    7   11  -26   -6   25  -18  -12  -86  -28   -7   17   21
  32   29    0   -7  -35   34   15   22   -5   15   -3   13    5   -5  -13   38   49    5   20   27  -20    5   -4  -15   21  -15   -6    4  -18   37   62  -45    5   -2   14    1  -29   -4   11    5   47  -12   17   26  -52  -14  -53  -63   37   29  -96  -21   35   12    5   -2   30   21  -34   -4  -53    5   -4   36
  30   23  -10  -19  -43   20   36   -3   54   -5  -47   28  -14    3    2   -2  -46   51   17  -31    8    4  -21   14  -18   19   13    6    8    7  -15  -16   29   11  -12    6   10   -5    1  -18   54   42  -20   36    4  -22   10  -17   44    1   31  -18  -49   16    7    5   23  -39   18  -13   -6   -6    6   19
  33   -3  -20   25   31  -21  -52   -7   18   10  -37   32   22  -39   12    2    8   59   17    8  -24   -2  -30  -41    4   -5  -22  -28   16  -21  -16   31  -31   18   -3  -12  -35  -15   32    4   51  -13  -11  -13  -23  -31   -7  -16  -26   45  -10    2    5   -5    1  -59   14   20   30  -29  -10   10  -34   30
  -6   37   -8  -40  -24   14  -39   15    9   -8   22   -6    3   12    8   30   35   59   13   12  -11   10   21   27   10   12  -21   19   21   19  -20   14  -27  -19  -23  -24  -26  -32   16   -4    8   10   -8   -2    7   -5   24  -34   16  -25    4   13    9   -9   -4  -16    4   20    1    9  -37  -33    2   14
 -19  -13   25  -14   32   38   -8  -24   39  -15  -39    1   -8   31   -6   20  -26   32   22    1   -8  -10   10  -29    0   16  -13  -21   -2  -12  -15  -38    4   43  -22   24   21    4  -17  -42   -4    6   13   10   32   16  -19  -16  -38   -1   21   -5  -18  -41   -7    9  -13   35   25  -46  -19  -17    3  -20
  24   23    2   -6   20  -18    9  -21  -26  -45  -33  -16    4  -23  -13  -32    3   25  -27  -35   -7    8   -2   23   29  -31   26   -4   12   31  -50  -52   -6  -33    5   18   10   10  -21    8  -10  -22    4   16   -6  -24  -44    4  -13   42   11  -15   10   62   12    1   -4   26    1   16  -24    4   64   25
 -28  -12  -11   -4   -7  -37  -29  -21  -30  -35  -37  -24   60   40   -6   15   27    7  -14   24  -52  -70    1  -16    8    9  -18   61    4  -25   35   15  -16   11    8   51   -8   21  -22  -15   22   -3    2   20   -1  -16    6  -20    3   28   27   -9   -5  -10    8   37    5  -75   14   19  -12    6    1   23
   6  -17   10   -1   -1   44   17    4  -19   15   30  -33  -33   58   37  -45  -39   32  -18   37  -48   29  -24   42   -9   28   10  -29  -13   31   21  -12  -46   -6  -28   -5   69   27   -9   39   26   19   14   16  -34   28   25  -28   22  -48    8  -23   13   36    8  -11  -19   25   49  -21  -27  -32   36   23
  18   36  -19   16   29   14  -18   12  -27   25   -8  -37  -45   -2  -45  -25   -5   17  -21   11    3   36  -57  -25   11  -41  -45    4   41  -29   -1   21    0  -22    0  -26    1    2   -5  -11   41  -12    8  -36  -15  -19  -15   -9  -22  -29   -9  -26   -6   30   11    3  -16   -3  -24  -31   -1   14   46   57
 -51   17   24  -14   13  -21    8    8   18    0  -38   13   -8  -26  -33  -10  -45   39  -33  -16   10  -10   31    4  -42   21   14   13   49  -23   40    8  -21    5    0   64   -2  -44   -8   31   53   22   -1  -44  -12  -39   38    2  -49   53    3   23   40    5   38   43   15   -9   -9  -15   25  -24  -33  -41
  17    5  -15  -19   -3   -5   18  -10  -27  -18   -6   14  -22  -12   -1  -30   12   29   -1   36   19   13   -2   -9   16    4  -18    5    0   -4  -30   -8  -10   -4  -12   -7    2   12   35   -6    6  -14   19  -10  -25   -3  -45  -37  -16   20   20   30    0   28   28   -6  -11    8  -13  -29   -7   -8   13   37
  -2   28   10   13   -9   -8   19   -9  -12  -17   38    7   -1  -15  -49   -5  -28   38  -17  -40  -24    5  -24  -13   11  -16   12   17   15   -7    6    8   -3  -19    3  -16   -8   -1  -24  -21   -4    1   23    9   -1    5    3   -3  -16  -13   -2  -14    5   -2  -11   -1    2   -1   -3   -9  -26    8   21   26
  12   29    2  -30    5   14   10  -18  -19    5  -25   12  -30   -1    8   18    4   46  -20    7   27   29  -18  -15   24  -14  -12  -15   -9   -9  -35   -6   20    5   -4   27    4  -10    0   16  -30  -14    1   -7  -37  -14   -9   -7   38  -15    2    9   -3  -24  -14   29   15  -23    5    7  -19  -13   16    6
 -22  -16    0   24  -43   -1   13   20    4   34  -57   15   27   32  -29   38  -15   33   -5  -31  -35   31  -40  -11  -38   37  -48   -3   27  -35    9    2  -45  -58    1   17   11  -38   11   65   -8   16   13   16   -9  -32  -34  -45   29   52  -50  -29   24  -11  -11   31   27   24  -11  -57  -15    4  -33   36
   6   -5   60    3   16    6  -73   -3   57   -5   40  -37  -11   26   -6   45  -43  -53  -29   -8   22  -12   -2    4  -29   19    7   23   14  -29   30  -10    8   34  -24    3   -6   -5    1  -30   -7    8  -64   17  -19  -38    5    3    9  -40  -11    2  -32  -10  -14    6   -9  -16    4  -13  -10   -3    3   39
 -37  -21   44  -13   31   24  -40   29  -13   28    4   -4   16   -5    1   25  -18  -14  -41   20  -18   23    8  -17    0  -17  -37  -11  -12   11  -23   13  -24   15  -38  -43   57    7   -6    0    8    4  -28    0  -26  -23  -42    1  -30  -11  -35  -44   38  -40   18    5  -21  -18  -28    8    4  -23   11   21
   7  -12   20   13   19  -10   31    6   -4   21  -35  -15  -33  -20    8   30    0   31    4   12   12   -3  -32  -26  -12    2    5   29   -5   -6    9   -7   24  -26    2   46   10    1   37   23  -23   -6   18   -4   22    4  -16    0  -35   19   11   24   13   -8    7   19  -21  -13   -1  -11   -9   21    5   -5
 -23   -4   -6    7  -25  -11   -5   21   36  -12    7  -10  -31   21  -11  -46  -27   15   -6   -3    5    1   -5  -25  -16  -11  -21    6   20    1    1    1    2   23    7  -29   -8    1   -5  -22   34  -19    0  -27    5   -4  -12  -10  -14  -31   21    2   -5    8  -10   21    9    5    2  -22   -6   -6   12  -13
 -29  -30  -17   -3   19    9   -3   26    4  -13   -1   67   45  -17  -22    8    1    7  -23   22   31  -11   26    4  -12  -24   -8   -6   14  -33   -8    2   73    8  -18   12  -14   20  -32  -53   25  -35  -20   -2  -15   33   -4  -20  -14  -56   30  -15  -17   17   -9  -30   -9  -28  -31  -22   -6    5   -1    5
 -37  -15   10   14   -7   12   -2   -1  -25   11  -25  -32  -11    2    9   19   -9    2   12   -8    8  -21  -24  -26    4   -9    9   10   12   34  -19   11    0   -1  -18   23  -19   26  -13  -23   18  -17  -33   22  -24   -2    5  -25   -3  -10   -4  -16   -8   -9   21   27   -3  -12   34  -15   10   23  -11  -16
 -14  -51  -14   -4   21  -16   11   32   11  -15   18    6   -4   27   24   62  -34   -2  -32   -6   15   -5    4  -51   -4  -12  -14  -12   40   26   -1    6   -8  -13    9   69  -16   16  -20  -14   44   35   -5   22  -11   -6   18   -6  -37    4    6   40   13  -24   25   -5    8  -20   29   10  -29   57   -1   -1
  19    8    8  -15  -14  -12   -8    0   30    2   21   -6   14    7    7   -6  -17  -21  -28    6   -6   12   19  -15    1   16  -16   10  -30  -14   11    2  -26   14   -9   -8    4   -4  -15    5  -12   13   -4  -16   15  -33   18   17  -13  -23   22  -39  -15    8  -15    4    1  -32   -5  -11    7   23   -2  -13
  17   12   48   -6  -28  -53   -9  -10   32  -44   31    0   15  -24  -28    2   26  -12  -49   46   66    6   -7  -11   28   -8    4  -54   16  -20   -1  -39   -5    8  -20  -24    7   -4    1  -58   20  -29   13  -17    3  -21  -44   21   26   16  -10   -4    6   54   47   -9   44   13   28   -7  -43    5  -53   25
  18   23    5   24    2   11  -11   -2  -30  -10    5  -23   -3    3   -4   17  -10    0   -6   -4   -2  -14   -9    2   14  -19  -37    9   28   -3  -11   -7   15   -8   16   -3   15    2  -27   11  -14  -14    4   -4  -13    0    9   14   -6    7  -31  -14   46   24   -6   -3  -25    7   -1   24   19    6   12    4
 -17   14  -42    6    2  -50   -3  -18  -68   14   14  -31   -8   15    1   47  -11  -23   49   -2  -42  -28    9   51  -34   23  -23   43    7  -21  -11  -42   37  -27  -34   11  -41   -8   -3   12   53  -15  -75  -45   -9   -2  -13  -23  -22  -20   -5  -40   10  -25  -15   -7   16    9   74  -23  -66    3    8   22
 -25  -33  -18    4    9    2   12    1  -29   -9   28  -31  -35  -15  -36   24    3   -2  -16  -16    1  -66    2   14   -8  -18  -35   49   11  -36  -14  -27   15  -16  -52   53  -10  -17  -49   25   52   17   17   23   19  -25  -10  -45   52   62   -8   -5   37  -42   48   52   42  -15   -1   49  -24   30    6   -6
  -1   -3  -19   18  -56  -19   34   37  -14  -16   17  -15   31   12  -27  -37  -55   13  -32   67   11   32   -4   10   25   12    2  -35   47  -33   28  -27    6  -30  -24   11   -3  -34    6   -8  -31  -31    5   12  -12  -47   -8  -44  -27   20    7   29   20    8   27  -51   28  -57   -3    8  -27  -48  -14  -39
   3    7    2   20    2   39  -12    1  -13   24   -6   23   12    1    6  -13   12  -28  -24   41   42   36  -64  -10  -49   -1  -20   31    5   -1  -14   27   21  -20    6    7   10    9    4  -18   32   24   -9  -63   -5  -27  -22   15   26   -7   18   21    8    2   37  -20  -43    8  -11   30   22   10   13   29
  -6    4  -10    4    3  -10   11    5   17  -20    5    6    9    6    5  -15   18   -9   25   12    8   -3    4   -7    1    7  -15   10   -1   -4    7   26  -14    5   -9   -3   -1   -3    2    9   16   32    4    2   -4   -6    0   -7  -36   -3   12    7    9   -3    6   -3  -13   15   19  -22   -8    1   -2   15
   7    5   -1   17   -1  -15   -4   40  -13  -38    3  -19   -4    4  -23    2   10   22  -26   23    4   -7   25    2  -21    6    1    5  -25  -34  -23  -25    6   13   32   42  -52   38  -17  -23   -3  -47   15   26   10   25   15  -56  -18  -13  -24  -13    0   14  -25   -5  -46   -4   20  -23   -7   34  -23   -2
   5    4  -20  -29   18   12    7  -51    3  -43  -12   42   42    8  -17  -27  -16   -5  -43   21  -51   54   25  -18  -19   31  -34   15   30   11   -9    0   19   12   31  -10  -31  -18    5   15   -8  -20  -34   14  -15   27   16   17   -4  -63  -78  -14  -17    0   80    3   -4    3   33   13   -8  -39  -26  -24
 -42  -20   27  -15   46    4  -20   39   -1  -26    0   12   -3    0   12    5    9    0    2   15    1    2   -7   18  -24  -18   19  -29   -4  -68   -1   30   -1  -12   -6  -48  -10    9  -32   -3  -23   11   19    8   12   20   41  -49    8  -21    1  -21  -24   29  -19   12  -45  -19   25    2   45    8   23    2
  -9  -35   10  -46  -37   23  -12   17   17  -21    6   16  -18    5    7   16    8   13  -13   41  -15   -7  -56   -5   56  -30   -2   43   -3    3  -21   10   50   18   -5  -13   21   15   18  -13   -8   -8  -14  -23  -31   41   -2  -18  -19  -28  -21   25  -21    4  -22  -45   15  -24   44   -6  -11   18   34  -36
 -19   -4    7   15   -9  -33   -8    1   -4   -8   18   17   18   16  -10   11   13   -1  -15   -1  -15  -12   33   11  -16    6   -6   -5  -18   30   27    2   27  -21   -1    2  -21   25  -27  -11   18  -13  -17    5    6    4   22    2    5   13  -32   32   31  -14  -26   10   30    7   17    0  -36   53  -31  -14
 -12    5   -1   59  -14   12  -46   -8  -31    1   20   -6    8   18   28   16   13  -14  -10   17  -13   35  -28    5  -32  -25  -10    2   16  -18   35   32    1  -42    7  -17   -6  -17   -5    3   17  -19   18  -53  -28    3  -17   -6    1  -51   13   18    4  -22   14   29  -19   22   10   55   -5   11  -13    4
   4   75  -19  -20  -19   16  -53   23   -6  -16   -1   22   19  -49   33   12    4   45  -29  -18  -32   54   29    0  -18   17  -44   17  -22  -20   13    4  -35  -13  -26    8   19  -23  -18   10    7   23  -45   -3   -9  -53  -18  -30   -7   28   21  -11   -8   23  -10    4   37  -19  -42  -18   -8   15  -10   43
   8  -16   -3   13  -22    2    4    4    5   14   -5   28    1   -5  -22   -9  -19   34  -16   16   -6  -13  -17    4   11    7   -6  -28   -5  -15  -14    4   -8    6   -5   24    2  -14   12   30   10  -15    7  -15   -1  -11    9    1   11   -8   11   12    0  -13    2   -3    5  -14    7   -5  -14  -22    2   12
  -5    1  -26  -12    4  -20    1    7  -18   16    5  -14    3   18  -10   22  -19  -11    6   32    5   24   21    7  -24  -29   -8   15   11  -44    3   10  -14   28    1  -30  -18   35    9    1   -9   10  -15   -8  -10  -37    2  -31    4  -47   20   10  -23    5  -15    7  -23   -6   42  -14  -16  -34   42   -6
  49    1   18   18  -35  -31   14   -6   -2  -22    0    0   -2  -16  -19    1   10    5  -28  -35   19    3    7  -17   16    7    9   29   28  -14   19   17   12  -13    1    6  -14   35    4   -9   26   46   -3   16   46   -7    6   -8   -4   -2   11    9   -9   46   -3   -3    4    8   18    2  -25    1   18   37
 -32    7   -9  -16    6   33   -2   22   23   -6   48  -35   -3    3    4   55   14  -25  -14  -24  -33   16    3   11  -18   13    2   -3   11  -14   11  -11   13   25    5   14    0   17  -30   -4   -3  -36  -21    7   -5  -23   22  -33    6  -39    0   31    4   14  -16   -3   20  -35  -14   -1   18  -14   -3   12
 -16   22  -45   -4   40   21   29   24   30  -42   25   -9  -16  -13  -18   -7   -2    1  -14    8    3   21   24   28  -31   17    8  -28   53   22   19   -6   25  -21  -10  -17   17  -42   -9   22  -22    2   22  -36    5  -10   16  -12   16   11   23  -13   20   -4  -15  -17   -5   37    0   -4  -12   10  -12   -2
  14   -1  -10  -13   20   10  -12  -25    6   -6    4   18   36   16   -9  -15   -8  -25  -15    3  -24   -9    3   16   30   11   -9   -5   -8    6    3    2    8    0   12   -8    4   -5    0  -30    8    3   -1    9   14    5   -3  -13   30   -7   -5   -4   -1  -26   20   -6    1   19   -4   10   32  -33   13   18
  20    0    6  -24   12   20  -14   -9    6   18  -16   16  -21  -16    2  -12  -30    0  -16   18   -7   -4  -43    2  -15   -7  -28  -29   -4  -26  -35    2   43   -4   -6  -32   32    1    6  -34    3  -17    1   13  -54  -21   32   23   12  -39    2    5    2  -25   -3   11   29   -3   28   -4  -18  -33   17  -23
  26  -37  -24  -11  -12  -27  -61   26    8  -71  -14  -49  -67  -21   -2  -16  -43  -20  -41   15  -60   -8   58  -52   36   -4   -1   21  -37   -3   35   52   92  -12   -8  -25   -1   -9  -16    9  -23   32   52  -51  -54   11    7  -13   35  107   41  -30  -33  -16   18   -2   24   31   21   10   17  -32    0   51
 -16  -16    5   -2   28  -23   12   15   19   14    4    8   -6    2  -16    0   10   -9   -9  -11   11    3  -27   23   -4   12    2   -1  -13   -1   -7   42  -10   -2  -14    3  -20   -5   22    9   -5   35   -6  -20  -15    3   -4   -7   -1  -32   46   -7   -1   -8   19  -18   -3   -4   14   -4    0   -4   -3    9
  19   14   -3   -5   27   -2  -35  -22   20   11  -20  -15   17   -2   13   18    9   -6   23    4   -5    0  -19  -18   11  -11    0   37   -5   -8   -5   11  -18   12  -16   19  -10  -15    5    3    2   14   34   -2   -1  -10   -8    2  -14   -1  -16    1   -2   16   -5  -19   -3   22   20    0  -12   15    5    4
 -14  -25  -35  -10  -31   24  -21  -10   16  -24   30    4    3   27   33    7  -15  -30  -13  -33  -44    0   -6   -5   14   38    0  -12   12   20   -3    3   61  -20  -16    4  -15   13   24   -6    1  -36  -16   -1   -9    1   -1  -38  -45  -30   24   34   36    8    3  -17  -30  -61  -10  -25  -18   -1  -28   24
   2   17  -34  -49   14   24  -15    1   26   -4  -25  -10   42  -25   44   -8   26   46  -22   11  -12   21   -2  -27  -24   47  -10   25  -18   -6    5    6   24   -4  -38   23    6   30  -21  -17    9   23   11   -5  -11   10  -17   20  -12  -37   36  -16   34   39  -15   19  -17    4  -17   -9  -21  -10    0   25
 -15  -21    3   14  -11    7  -33  -10  -13  -29   13   10   -2   -3   -1    9    2   15    7  -18  -15    3    4  -18   29  -23  -11  -11   44  -18  -13   26   15   20  -21    8   -7    6   11   22  -12   15   -8    4   21  -11   -3  -16   17   35   23   -1    8  -14   23   -1   11   -3  -12   33  -10    2   -8  -18
 -33   12   -4   46   35   10  -25   -9  -30   34    6   40   12   30   19    0    4   22  -29   -9   55  -10    1   61   86   64   19   -1   14   45  -25   -7   15   27    0  -40    9   13  -14    2   40   37   75   -5  -10  -66  -47  -19  -40  -18    0    8   -6  -21  -48  -10   64   11   -2   17   35   46    5   -1
  -4  -15  -27    3   36   26  -34   23  -46  -51    0    8  -14  -14   89  -36    8   19  -19    0  -13    4  -49   38   32  -26    4   32   19  -52   19   12  -23   18   -2  -71   32   17   52  -38   51    4  -20   15   41  -12   20   48   -2   11    7  -28    0    3   14  -33   33   -4    0  -38  -20  -49    0   -4
  18  -41   -4   -7    2   30  -36    6   19   16  -11   -5   26   22   16   -4   20   -5   -7    5    6    8   -3   20  -18   -8   29    2  -14   28   -6  -31    9   28    9  -26  -31  -28   -4   27   12  -21  -10    5   -4  -30   -9   -1  -17   33    1   -6    2   -7   11   25    2    3   10   -9  -14   -9   48  -21
   8   35   -3   -3   -4   23   27  -11  -25   -8   14   17    0   20  -16   30    8  -25   45   18   -9  -11    9   13    5   -8  -13   -8  -10   37   13   -4    8   -7   23   -5   -5   -8    7    4  -24  -34   23   26  -36   17   -7   12   -8   38    0   -3  -12   -2   19   -1   27   10   -7   20  -12   28  -19   16
   2   23    0  -12    2  -18  -23   13  -26   16    6    5    5  -12   16   23    2   -9   -2    5  -23    8    7    6  -14   -3    3   20   11    8  -22  -12   -2    5  -11  -37  -16    2   -9   34   -6    4   24   11   10   -4   43  -25    1    3  -25  -15   -7    1  -27   -4   17  -30    8    4   -8   14   17   -7
  18  -33   63   17   23   -3  -27    6   26   -4   45  -42  -22    5  -14  -14  -20  -42  -14   -1   54  -38  -34  -19  -22   12    5   -8   33  -21   18  -42   -5   46   22  -13  -18  -12   -1   11   -5  -16  -10   33  -32  -40   19   -5   -2  -14  -23  -17  -43  -15   -1  -44  -25  -29   55   -3  -24   18  -11   -9
  23    6    5  -11   11  -23   17    9   -9   10    3   -4   21  -33   21  -19   22  -20    8   -8   -3   -5   -6  -16   12   14    7    3    9   -8   -2  -22   11   23    8    6    8   -6  -11   32    0  -14   -1    3  -10   16    3    0   -9  -14   -4   11    0   -1    2  -12    5   10    0    9   -4  -34    9  -16
 -29  -41   35   -4   42  -17  -58   12  -29   11   42  -12   35  -42   12   29   32  -20  -48   39   -5   23   26   -4   23  -18   -3  -11  -23  -13    7    5  -32   12  -15   35    3   -9   14   -3  -27   39  -19  -21  -12   32  -22  -13  -36   -5  -36    5   13  -14   13  -17   13  -27  -27  -32  -26  -40    9   10
  34  -40   -2   -6  -29   41  -14   -6   58   12  -36    5   -1   62   30   50  -16   43  -11   -2    0  -21  -18   54  -26   19   62  -30   -5   29  -32  -23   48   39   24   18  -43  -36  -17  -21   37  -36   -2  -12  -43  -47    2    1   74   37   19  -15  -39   -6   28   20  -23  -52   -8   -2  -26   -3   49  -39
   1   29    8   -8   -2  -18  -10  -16  -15    8    9    6   -9   12   15    4    0   -5    2   -4    3   -8   -1    7   -2    6    3   -8   -3   26    4  -23   -5  -12    2    2   -1  -10   -5    7   13   -4  -25  -11   11   -5    9    6   -6    7   -3   -1    7   -9  -12   12   -8  -12   10   -5   -4    5  -11   26
 -15   20   -6   39  -24   45  -16  -29  -30  -22   -5   38    6   15  -27   18  -19    5   10    0   -3  -12   25   32  -12  -10   31   25   15    7  -16   10   12  -10   32   13   11   24   34  -17  -11  -15  -10    8  -25   40  -32   -8   -1   39    8   74   18  -17   10   -1   14   24   15   18   -4   -3    3   14
  21   -3  -38   37   38    5  -17    2   -2    0  -33   -1   60   55  -25  -38  -14  -43   -6   11  -37    1   14  -40  -21   -4   33    1   -6  -28   28  -14  -12  -19   -8   26   -3  -18  -70   -7    1   -5  -15   26   -4    0    4    5   20  -15    1  -19   13   -2   17  -20   33  -16    7   -6   35  -24  -33   35
  13    6   28  -29    8   16   24   -6   -3    9  -40   17  -15    8   38  -35   -8   28   -3   37   18    2  -15  -18   13    9    4   27   12  -10  -18   -5    5   -8  -18   -4  -11   13   18  -15   10   13   14  -16  -30   12  -17  -24  -22   25  -12  -32    1  -14   21  -36    9   12   12   -1    2   -4   36   10
  24  -19   21  -56   34   16  -18    8  -27   -3  -21    7   19  -11   -4   42   10    1    3    3   17  -46   25    6  -14   16  -13  -19  -11   -8  -26   37   24   18  -47    8   11   20  -14   15  -19   42    1   25  -31  -60   12   -2  -23    4  -34  -41   60  -15    9  -64  -31  -32   21  -11   17  -17   11    2
  30   29   39  -15  -33   16    0   -1  -43   -3   23   26   15    8   28  -38  -34    0  -18   21   39   33   16  -33   17   13   12  -14   -7   -1   23  -25   -9  -21    2  -70  -13    3   23   41  -28    1   -7   -1  -20  -38    2  -38    9    8    9   -3    0   10    2   25  -32  -12   13  -35  -25  -64  -26   21
 -26    3  -22   -4   18   31  -38   39    2  -35   -7  -34   -5    1  -10  -10  -22   12   -6    8  -11   22    0  -15  -35   17  -45   -7  -11   -2  -38   51   -9   -6   11   -5  -47   -4  -26  -17   -3    2   40   33  -29   -4  -15  -36   32  -12   35   56    0   27  -38  -17   -8  -27  -25  -19   -8   24   52  -19
  -7  -22   33   -3  -39   20  -28    7   15    5  -37   40   -5   16    6   54  -25   33  -44   10  -19    8   18   -5  -15   -3  -27  -28   14  -14  -36   37   -5  -24  -19  -48  -22   -1   25  -24   27   46   14   -2   -5   11   13    7    1  -22    5   27   -4  -18    2   18    3  -15   -5   -9  -20    5   32   16
  28    2   25   -7   17    2  -64    9   16   24   16    4  -10  -22   -4   26   52   11   10  -61  -90   10   41   20  -25   38  -46   80    6  -22   21  -10    3   11    0   21  -25   18    1  -13   37  -13  -10   -8  -17    0  -32  -13   14   30   13  -10    2   -5  -14  -49   13   18    9   -7  -16   26    3  -12
 -53   62    0  -18   16    3   23   13   12    4  -54    7  -36  -30  -12  -14  -20  -55  -10   21  -38  -22   28    9   38   -3  -40   -8  -16  -25    0  -25  -40  -29   -3   -8   -5   20   53   47   25   15   14   70  -15   26   -7  -14   27  -17   40   12   -3   25  -25  -30    1  -11   36   54  -11   17  -66    5
  28   -3    4  -53    3   -9   31   -5  -29    2    2    9  -22   -1  -57   21  -16   39  -37  -32   -9   -5   10  -23  -12   -4    1   -4  -16  -20    6   47  -16   24  -47  -35    7   19  -24  -14    2   48   -9   31    1  -56   -6  -40  -39    3  -42  -31    3   -5   -3  -50  -11  -34   17  -44    5   -7   26   71
 -13   28  -52  -11  -34  -14   26   59   -9   51   54   43  -34    4  -15  -27   33  -17   -4   26  -13   40  -42    1   -3   -8  -20   35  -10   10   17   -2  -12  -27   23  -50  -57    4   -1   11   83  -27  -21   -6  -60  -18   -4  -40   44   14  -17  -20   -8   21   15    9   32  -50  -43   10   -8   38   -3   51
  25   -7  -13   47   15   35  -17   -3    4   21    7  -25   -6  -40   -1   66    3  -17  -35    5  -28   27   39    3   -5  -22   16  -13    0  -18  -13   13   16   33  -14   12   -8   24   37  -37   54   16    7  -49   19    7    9   20    0  -58   10   -1   11   -3  -34  -11   18  -28   88   17  -35   12   50   -3
   9    2   11  -18  -22   -8  -49   10   -8  -14   47   12   39   18  -56   26   -9   59  -40   38  -28  -10   12   -3  -25   12   -7   32   33  -68  -15   -1   14   -5  -23   50   24  -13    3   51   85  -30  -35   -4  -12  -48  -25   11  -26   -8   39  -18  -38  -25    5  -21   15   21   24  -23  -11   -5  -61   -4
 -48   61   26   23   -7  -56  -40   53    6  -25  -72   33  -24  -36   26   23  -12   30   69  -20   34   41    3  -27   38   33   14   39   18   89  -10   -8  -76    2  -23    6 -121   33  -14  -55  -85   -6    3    7  -22  -66   52  -23   27   12  -25   30   43  -11   -1   28  -35   -3    9   35  -66  -85  -24   13
  22  -28   11   13  -28   -3  -49  -10   11   27  -22    3   35   44    4  -11  -50   47  -25   25  -46   20    2   21  -21   42   -7  -39   -4   10   17   20  -32  -17   -6  -41   82  -33   15   -9  -14   44   10   16   -7   62   -6  -12    7  -18   33   34   -4   54   16  -30   21   30  -13    8  -13   -2   39   14
 -44    9  -24   21  -47   62  -40  -50  -35  -16  -16    3    1   12  -15   51   -8    7   -8   -7   11    3   -1   32   -8  -59   55  -15   42   -7   32    6   42   37   12  -49   57   -4   12   15   10  -11  -13   18  -17  -24  -67  -34   -7  -22   25   80    6  -34   20  -11  -10   22   57   52   28  -55  -10   48
  -4  -20  -12   16  -19  -25  -12   23  -24   31   18   48  -39   35  -54   -6  -32   19  -13   -6   -4  -11   24   33   12  -27    0    2    9   36    8  -33   36   14   43  -19   15   30   -3   -9   21   22  -60    2  -39   10   -6  -34    6  -16   29   15   18  -39   23   22  -30  -25  -30  -16   15  -30  -12  -36
 -23   39   11  -10  -32   -9    3  -39   35  -31   13    3  -20  -18   -9  -24  -10   30   16  -37  -25   14  -39  -43   -6  -25   10   13   12  -15   13  -40    3  -28   14  -10  -44   -1  -22  -11   56   11   38   29   -2   11   -6  -37  -17  -41   46  -21  -16  -46   -9   22   17   10   -6    5  -42   13   19    3
  23   15   53  -19    7  -36  -46   -7  -14   22    7  -32   16   11   33  -24  -25   11   -3   -4  -43   -1  -16   -9  -36   48  -25  -18    2   27   34   -1   31  -10    0  -29   26   13   61  -33    9    4  -35   25    8    4  -27  -39  -20   32   29   10  -13   10    6  -15  -10   16  -14   11   30    8   25    1
 -31   41   45   -3  -81  -35  -56  -15    0  -13  -46   -6   25   74   -5   23  -32  -15  -37   19  -39   39  -19   -3  -36   56  -13    3   14   20   52   16  -33   -3   17   27  -25  -22  -21    7   19   24  -13  -27  -20  -16  -16    0  -67   12   28   18   28   10  -28  -82   27  -29   13  -33   13  -40   11   -9
   4  -33   19   -6  -24   -9   12   50  -31   35  -11    1  -43  -32   63   29   -3   14  -24   -6   23   21   11  -36    9    7   19   21   21  -18  -10    2   47   24  -11   23   21  -11   10  -12   19   13   42   11  -42  -33  -13    2  -20   13   55  -17   34  -16  -43    2   24   21    8  -27    3   16    0   27
   5    3  -11    5   -9   14  -59   -7  -44   -7   31  -29  -14   29   51   25    5  -10   43   79    6    1   31  -13  -28   18  -40  -35   20  -18  -10  -34  -13   18   -2   -3   30    7  -32  -30  -12  -21   40  -57  -26   -3  -11   -2   31   13  -46   15    0  -39   15   -2  -21  -32  -17  -26    9    4  -42  -55
 -46   -4    8   25   47   39  -20  -28  -30   40  -38   -8  -14    9   11  -48   -1  -12   78   -7   18   15   -4  -48   19   -7   10    5  -37  -35   -6  -15   17  -15   71  -29  -32   27  -36   14  -38   36  -38  -30   29  -56    6  -50   45   38  -15   13   74   22  -24  -14   28   -8   -6   31  -39   -4   29   21
 -18   48   18   -2   16    1   10  -22   -1  -32   27  -10   14  -67  -34  -11  -51   32  -45  -52  -32   -2  -34  -46   -7   -1   -9   25    8  -14  -20   10   -2   -2  -13   10  -15    3  -30   -5    4   52   36   17   14    5   -7    4  -27  -53   25   -6    0  -29  -39  -18   -1  -13  -18  -38  -39   -7   24   10
  54  -16   10   31   15  -12   -8  -13  -30   -1  -26   23  -41   23  -16  -29    6  -41  -46   13   28   15   10    5   17   -1   -3    8   33  -16   44   25  -32   27   -5  -46   -4   25   33  -30    6   24  -27  -18   20  -25  -17   15  -18   15    6   44  -13  -15  -36   13  -33  -17  -19  -15  -52   -2   23   21
   2  -31   -6    9  -14  -12    8    2   32   21   33   15  -52  -27   -9   39   21   57  -54   19  -10   -1   40    6  -17   46  -28    8   48   -5   -8   10   -7    1  -14  -39   21  -15   49   -1  -20   18    3   -9   30  -31   -7  -32   22  -15   21   12    1   -7    5  -15    2   30  -22   16  -22   27   61  -15
  -2  -28   56  -15  -45  -10  -81   54  -22  -15   15  -15   31   72  -44  -35  -68   44  -13   38   35    8  -14  -43    2   54   -2  -16    0   -2   13   32    0  -38   -2   35   41   -5    7  -21   -6   22   -2   61  -17   19  -42    1   11  -18   23   18  -18   23   29   -3   23    8    8   44  -43  -19   12  -28
  29   14   -4    0   13   16  -17  -26    0  -26  -31  -15   14   -1   -2  -13    8   24  -40   24   20   13  -27  -18   -8    5   11  -39   -7  -36  -21   18   -9  -35  -32   34  -26   -8   39  -22   30   -8   38   10   -4    8  -26   16  -10   10  -24   21    3   43    5  -12   18   20  -10  -22  -10    9  -24   36
  -5   44   16    5   11  -26   12  -15  -10    7   33  -15  -15  -17  -30   10  -43   17  -21  -36  -17   -1  -31  -35   14  -23   -2   26   25  -29    4   25    3  -17   13  -29    4   11  -16  -16   -4    0    5   -4    1   23   15  -12   -2  -43   -8  -17   14   -6  -20  -18   -3    2  -12   14   -1   -5   -6   34
  -4   26   22    2    3   -9  -32  -29   17  -25   29    3  -14   -2  -32   31    1   -9   15   11   16  -12   -5   13  -19  -11    1  -51   22  -23    2   -1  -18   30   -4   -7  -40  -27    6   17   -7  -17   20   14  -32  -24   -8    9    8    9   -7  -30    4   14  -20  -10    6  -18   24   13  -35   42  -20  -20
  29   50   -2   10   11  -22    2   15  -42   -3   33  -21   11  -18  -17   -6   -5   36  -19  -53  -19  -24  -35  -13   11  -12   -4   25   24    5    1   62   11   -3    4  -31   -4    9  -41   31    4    7   12   15   -5  -18    8    5  -15  -31  -21   10   36   33    2   -8  -25    3   15    9  -20   -2   25   16
  13   37  -28  -30   40    6  -15   16  -24   -3    3   32  -31    3    6  -25   39   13   -8  -25    8  -29    3   40  -16   11  -12   40   -4  -31  -13    9  -20   38   56   32   43   12  -12   -1  -25   -9    3  -13  -28   38   22  -10    9  -10   10  -27   -4  -10    2   46   25   41   35   22  -21   -3   19  -11
 -21   -5   13    3    4  -75   33   -3   -6  -36  -68    7  -10  -14   41   -2   30    2  -13  -42  -28   13   -3   -3  -11  -24  -22  -37  -25   10  -24   -7   -7    9   18   29   67   15  -30    2   10  -15   33  -27   23  -55   -8  -11   10  -58   -2   11  -12   13   35  -41  -10   24   20   28  -31   -6   -9   16
  38   26  -10   34  -53  -14  -23   28    3    0   -9   26   27   26   16    1   35  -30  -17   14  -26  -69   -8   12   -1   -2    6    3  -19  -35  -25  -18  -25  -12   -2   14  -20    7  -25  -38  -23    2   50   15   26  -31   -5    2  -16   -2   28  -14   -2  -35  -28  -10   -6  -39   -9   22  -12  -48   -2   54
  29   54   17  -30  -18   -7  -56   15   39   44  -42    6    4   15  -93   16  -19   12  -14   -2   14   -8   13    9  -30  -20   26   32  -32   45  -36  -24   46  -49  -42   10    5   18    3   57   -5  -27   48  -77   19   34  -16  -69  -47  -26  -42   24  -37  -10  -17  -24  -12  -20  -27   36    2   22  -19  -23
   6   14    5   26  -12  -16   22  -10   21    7  -34  -34   20   12   17    0  -56  -52  -39   -6   10   17  -18   23   -5  -29  -23   -6   15   45    5  -21   41    5    2   -4   17   31   14  -23  -43   37    4   12  -23   12   -2  -37   -9   12   20   10   28  -31   53    7   10  -30  -13  -42  -21   70    1  -10
   0    5    1  106    3  -31  -11   19   12   25  -24   10  -58   46   43   50   35    7  -17  -45   59  -39    0  -74  -42  -53   30   14  -39   16   25    9   -8   -4  -71   37   45  -45   -8  -12  -15   -3   48   11  -14   39  -15  -36   21   14   74  -18   55   14  -22  -19   29  -34    5  -16   32  -50   19   25
  21   -4   13   28   14  -15   -5  -20    8   21  -25   35   32  -51   -2   11   -9   20  -28   25   32   38    1  -32  -21  -12   12  -55   17  -15   -3    2   -8  -23  -27  -44    6   -9   21    8    4   -5   21  -10   18   -8   -7    7   22   11  -20    3    2   44  -22    0   32   21   -3   -1  -20    5  -26   47
 -13  -18  -11   10  -41    3   -3   -6   27   -1   14    9   11   25    1  -30   20   13    4   -2    8  -10  -17   33   16  -17   19   31   -8   35   58  -34   30   22    8   42   11   27  -16   -8   -9  -15  -25   16  -10   12   -8   17  -41  -21  -37  -23   41   13   -7  -22    9  -16    6    2  -27   42  -62  -30
  -6   16    2   -1    4  -15   15  -15    0   -1   19   -6   -2  -12  -17  -13  -12   20   -1  -35  -14    2  -18  -20    6  -10   16    8    7   -5   10    4   10    1    5   -8    0   -8  -16  -14   -4    1   11    6    9   14    7   -6  -19  -16    0    0   -9   -5   -8    0   12   11   -9   -2   -6    0   16   14
  18  -13   17    1  -22   33  -18   -3    9   -7  -53  -19   11   20   12   16    5   11  -37  -11   14   19   43   -2  -17   14  -40   -8    2  -27   16   16   -5   -3  -17  -18  -34   23    7  -31    5    9   40  -19   12   18  -37  -17  -32  -15   17   15   10    4   15  -24  -13   29  -20  -25   -5   18   14    9
   7  -35   -4    2   -2   12  -16   13    3  -18    0   -4   17    9   -8    2   18   13  -19  -21  -10   18    0   29  -15  -23   17    1  -15   28  -10  -17    0   -9    4   -5  -33  -15   -6   14   -6  -22   -6   10   -5  -29    6   -7  -19   27    7   -7    4   15   -2   19   16   -2   12   -3  -21    1   53    6
  10  -64    0   -6    5   22  -32   18   18   -7  -22    4   18   25   35    5   33  -38    0   31   16   13   16   30  -20   -7    6  -19  -23   22  -17  -30   -5   10    0   -4  -25  -12   13   41   -1  -35  -23    2  -10  -35   -2   -8  -18   36   27   -3   -6   -2    9   26   12   10   13   11    2  -14   24  -26
 -42   31  -16  -26  -47   62   34   22   26  -29   30  -15   27  -29   55  -28    9   11  -61   17   -5   27   33   21  -14   14  -14   -3    1   -9  -34   50   39  -22  -48   60   34   39  -40  -44    4  -23    7    1  -20    0  -22  -17  -59   -4   34   26   -8   19   44  -25   34  -32  -31   -2   -4  -17    5   -1
  66  -14  -43    3   14    3  -20   -1  -17   21   -1   10   30   -7    1   -2   15  -45  -11  -13  -50   35   14   22    0   23   -6   16   41  -47  -14  -15    2    3  -16   18   35  -17  -31   13    7  -13    6   47  -38   21   19  -22  -18   -5  -12    6  -22    7    9  -17   21   -4  -13    3  -51   16   -5    5
  -5  -13   -5    1  -16  -28    8   14   12   -7   20    9    4   13   27   -2    4    1  -11  -18    1   -3   24    5   17  -23    4  -13   -6   13   31   29  -17   -5  -13  -26    1  -15   -9   -6    6   -7  -25   -4   22  -15   21   14   11   -5  -29   -4  -16    9   -3   11   12   -9  -10  -10   -4   -2  -25   -4
 -23  -16   14   14   74   24  -42  -13  -12    2    9  -41   -9  -34   15   16   20  -31  -11    1  -22   -2  -13  -24   13  -10  -51  -17   -2   14  -18  -48  -19    5   13   36   14   -1   -8  -11  -23    9   20  -11    1    8  -14    5  -14   -6    1    0   39  -20   -1  -11  -23    9  -12    6    3   17   18  -34
  13  -10  -35  -52   42   38   -2    9  -22   23  -53   -7  -38   -9  -23    2    2    9    9   38   -7   10   25    6    8  -14  -14  -46  -14    2    2   -5  -13   30  -17    5   -3    3   37    2   20    1   -1   19   13   -4  -36  -35   11   42    9   -6  -40   11   -1  -15   21  -24   -5  -85  -41  -29    8   29
  34   32  -15   -6    8   18   24   23   17  -26   15  -19   18  -15   -4   12   15  -16  -18    6   -3   15  -19   -3    6  -12    3    6   -9   23   38  -44   -2  -14   41  -22   29   -5   16  -11  -43    3   32   24   16   -2  -11  -18    5   24    7  -15   12   11   26  -15   -3   19  -23    6   16   31  -25  -41
  16   25   23  -10    7   -1   -4  -30   -1  -43  -14   37   -2  -18   12  -46  -10   20   -8   37   39   19   -5    5   23    5    5    1   -7  -10  -16    5  -13  -42  -21   29    7    5   18  -26   -8  -23    7   -6   -3   13  -27   26   -3   42    3  -13    0   18   -6  -24   41   11  -13  -10    5   14   -6   23
  18  -15    8    1  -14   15  -14   18   -3   12   -8  -26   -6   12    4   10  -15    7  -68  -25    9    3   -9   18    6  -20   25   -6   41  -31   29   18    5   38   -9   10  -18    6    0    4    3  -26  -35  -26    8  -22  -55  -30   31  -47    0   24  -14   -9   -2    0  -32   -7  -13  -39  -32  -39  -20    3
  24  -21   -9  -37    6   -4  -26  -10   28   19  -32   50   16   17   30   22   34    7  -22  -20  -25   -9    4    4   21  -21   15   34   41  -18   26   13  -36   13  -48   -9   11   41  -33  -30   19   -4   -5   -7  -28    8   30   21    4  -15  -20   15   -9   -1  -15   29   34   22   17    2  -10   -1  -12   -9
  15    8   18    6  -10    0  -18   -3   18  -27   25   12  -12   13   18   21  -21   13    4    8   -2   -2   21   -8   48  -26   -9  -10   28  -43   10  -32  -19   26    1   14    5   -1  -11   12   23  -27   -3  -36    4    4  -13  -14  -30  -15   25  -12    2  -19    1   19  -10   22    6   12   10  -36   -9  -10
   6    0   30  -10  -29  -10   24  -29   -8  -36  -34   11    6    2   15  -52  -10   35   28   13   42   -6   14   26    9  -10   -7  -29  -12  -16  -12   18  -14  -30  -40   27   -7   17   15  -16   15   43   15  -15  -10   -9  -35  -13  -28   10   26  -50   50  -23   29   -2   -5   -1  -12   14  -24  -15  -23    8
  29   -7   29   -3   27  -44    7  -16  -42  -32    6   -8   28  -31  -11  -14    4   21  -35  -54  -14   13  -47   24    6  -41   43    1    9   18  -30   23   14  -35   15   19   11    6  -40   21    0    1   20  -15  -19  -21  -29   10  -29   12   19  -33   52   19   31  -22  -31    5   -1   30  -21   -9   80   19
  25   12    4  -21   11    6  -21   35   -5  -11   20    9  -20  -13  -22   49    4   36    7   19  -19    1   40  -15   42  -30  -38  -38    0    9   22  -43  -16   29    9  -19   -3   -1  -19    1    1  -31  -14   28  -18   -4  -18  -47  -18   22  -57    7   25    7  -17  -13   22  -16  -16  -56   -3  -31   25   14
  30    6  -27   23   21   -2   -6   -3   -6   -1  -39  -25   20   -1  -20    2  -19  -51   -3  -18  -12    2    4  -30    2   26    5  -17   -3   34  -17   12   -2   -3  -14   21  -12    2  -62  -25    7   29  -40   -7  -38   30  -25  -47   10    5    3   -5   17  -12    2   37   19   -9   19    2    1   72   -6   12
 -10  -13  -21    3    5   -5  -29   11   35    1   -2   -2    6   -9   -7  -15  -30    2  -20   -8   20  -14  -18    6  -26   13   21   -3    2   24   -3   35    0  -20  -22   22   18   14   -3  -30    0  -31    3   -1    3   27   -4   19   -8  -25   30   -8  -31  -14   17  -26  -29   55   36  -18   26    7  -11  -28
   6  -14  -53  -12   28  -45  -25   11  -12  -48   74   -5  -37   -8   10  -22   -3    6  -10   -4   14  -52   36   12  -12   51  -31  -13    0   36   -2  -22   65   13  -13   40   -3  -23   18    4   37    3  -33  -17    8   45   -1  -25  -45  -30   14  -20   11    0   12   -4  -23  -13   19   39  -64   55   16    2
  14    9    9  -41  -39   14  -35   25  -10  -28  -58    6   -6   23  -24  -16   40   23  -48    5   20   41   14  -10  -15    4    1    5   54  -17   -5   24  -39   28   -1  -59   -1    4   12  -21  -12    8   54   22  -42    1   34  -13  -14   -4   31   11    4   -6  -31  -27    5  -15  -39   -9  -10  -30  -12  -17
 -27  -15   13   24   31   21    9  -26  -30   -3    6   -1   44    5    1  -25   23   20  -23  -14   -9   21  -39    1   -3    3   13   12   16    5    5  -17   10   -6    0   22  -19  -19   -8   -4  -18   24   22  -32  -38   15  -47   -3  -32  -30  -12   19   -1  -58  -12   26  -25   33  -25   41   14   19   22   23
  -7   -9   10   12  -36  -28    2  -20    1  -26   -2   14   22   -5   24   10   13   29   -5    0  -20   -5   40   12  -31    5  -32   22    4  -19  -18   -1  -27  -18  -21   25  -46  -13  -13   40  -19   24   16   16  -31    0   -5  -42    8   21   -2   27   -5    7  -13   -1  -35   16    6  -10  -13   19   12   23
   6  -25  -15   -9    6   30  -25   14   -9    0  -58   -7   12    6   38   19   21  -67   -3   59   37  -13   37   38  -19   19  -30  -14   -7    5  -35   -9    1   17   -7   35    2    7   42   48   -6   20  -19    6  -30  -14  -16   18   36   28   -4    9   14   14    0  -23  -14  -29    8   10   23    0  -30  -29
  39   -7   14    3   20  -13   27  -24   21  -32  -14    5   14   21   -2   10   60  -15  -29   26    1   -6   67  -32   -6   -2  -33   25   24    6   10   21   41  -30  -14  -13  -13  -12   14  -53   -9   10   -2   16  -10   -8  -22  -19   -6  -29   -2  -41    9  -36   32   12   33  -22   -3   -6  -12  -36   -6   -8
  10  -28    8    3   16   -8   -6   17  -30   -3    2  -33  -15   39   -7   -8  -19   -9    4   21   -2   32    7   18   24  -14  -13   -3   17    5    2   30  -20  -23    8   56  -16   13  -22   -8   13   18   14   37   20   24    1  -19  -13    3   -8   31  -12   -1    2    4   -7  -51   14    9  -15    5   33   -3
   9   -7    1   41  -21  -31  -40   39  -23  -15  -10    3   10   19   -9    0  -36  -30  -12   55  -83  -25   10   -6   22   35    1   34   -1    1   -8   20   37  -22  -24   11  -25    4  -10  -48   26    1  -51   12    9  -21   -5   -7  -15  -21   20   20  -41  -25   39  -50   -7   14   17  -10  -25   -9   39  -12
  22   45   32   12   32  -24   39    5   34  -15    6   26  -22    6   15    5  -13  -14  -18   62   17    4   36    6    3    6   24   -1   -2  -27  -15   26   42   35    0   23   37   -9   20  -15  -19   -5  -20  -33  -16  -34   -7  -27  -45  -39    9    4  -27  -11  -12   25   -6  -18  -11   12  -20  -45   42   18
 -17  -51  -19   41   -8  -57   25    4    0    2  -29   21   -4    1  -31  -15  -14  -32   16  -32   16  -11   20   22   11  -69  -12   -7   22  -17   20  -34  -14   40   40    9   27  -46   -5  -27  -23  -27   19   -8  -12  -33   16    5    0   -4  -30   -9  -53   -3   37  -61  -12  -26   25   23  -17    1   -8    8
   3   60  -19  -25   18  -18  -69    9   25  -51  -22  -43    6   63  -50   39  -50  -25  -18    7   -2    7   -3  -14  -24  -15    8   51  -23   24  -13   -5  -14  -26  -20   50    1  -14    2   61   30    2   30  -41   12   13    9  -14  -43   11  -42    5  -52  -18  -13  -48   13  -50   -2   36  -12   33   13    2
   5  -43   40   42  -67    0  -15   16   12   10    6   17   30  -13  -25  -80  -29  -20  -43   10   -1   -1   37  -22  -29    9  -36  -14   42   10   16   65   28   77    3   41  -26   24   10   53   -7    6   -8   -4  -10   16  -21  -21  -32  -18    4   -2  -40    4  -33  -22   -7  -28  -12  -32  -13    5   20  -12
  68   21   -5    9   15  -21  -45   -4  -14  -15   -7  -29   13  -68   26  -33   39    1  -21  -11  -61   -3  -25  -13  -28   27  -16   -3    0   27    4   35    0   24    8   18  -10   53   10   96   53   29   23    8    2   24  -29    3   -8  -34   19   -1   25  -14  -42   18  -15   -3   28  -37  -24    4   16  -56
   4  -16   -5  -42    1   14  -12  -29   30   -4   -7   27  -22   15    9   -1   -1    9   -1   31   -7    8   38  -34   18   16   -2  -22  -28  -27  -35  -50  -22   17    8   25   -7   11   23   -8    7   18   -8   -1    6  -15  -18  -40   -1    4   66   30  -60  -56    1   17   27  -11   -5  -48  -34   -8  -22  -21
 -17   29   17   75   -5  -11  -19  -25    8   28  -20  -10  -43   48    5   65   43  -22  -34  -35   40   30  -13  -54   -9  -40   12    2  -18   29   13   14   25  -25  -59  -25   34   46   14    1   12   12  -13  -11   18   38   61  -30  -19   62    5  -33  -23   14  -17  -52   12  -11  -28    5  -18  -35   33  -65
  -5   -2    6   11   -5   16   16   22   -1  -25  -33   -2   60    0  -19  -16   12   63   -5   35  -24  -23  -13  -25  -13  -39   -2   -8   -1  -22  -16    3   23    6    8  -24   33  -10    5   -7   -5   35  -54  -13  -15  -17  -19  -32  -14  -20   13  -15  -16   14    6   12   25  -26  -28   10   -7   -8  -51  -22
  22   28  -28  -29  -32  -10   35   50   15   -6  -17    6  -27    4  -28  -11   17  -28  -12    7   31   31    7    6    0   20  -18   37   18   -8  -11  -63   -2    5   11   -4  -38   -1   22    0   42   -5  -41   21  -20   -8    2  -27   32   14   14   11  -44   46    1   -9   42  -33    5   18   -9   -3   28   23
  -4   45   -9  -10  -15   -2  -23    8   35  -28   12   -7   29  -17   -7   22    6  -23  -10   21   15   13    3    0   18   25   -1   39   20    8  -19   -1  -15    8   -1  101  -21   -2  -23   -9   18   -4   17   -3  -24   -1   -8    7  -17  -13  -11  -12  -15   16   -3  -22   15    0   16  -19  -40   17   11    9
  -8   22   54  -59   -2   10   -2   23   11   21   38   47  -48  -12   39   21    3   15  -28  -42   50   14   -1    5  -14  -17  -37  -36   28  -18  -14    6   58  -10   32   10  -17    7   75  -12  -17   20   46  -24   -4  -10   -4    2  -53    3   -7    4  -29    1   10   -1  -14  -11   20    1  -28  -36   17  -27
  18   24  -35   21   14  -10  -24   14   -1  -29   -4  -24   10   -9  -14   -9  -16  -48   21   -8   -9  -53    6   14  -12   -9    4    7   -2   38  -42    9   -4  -38   -4  -48  -34    9  -17    1  -19    3   -9  -27    6    4  -25  -31   40  -14   -5   12  -33  -16  -17  -12    5    4   -6   12  -21   15   24   -5
  12  -10   45   30  -29   26   37    0   11   32   -1   30   -7   36   29  -16   41  -19   -7    1   23  -57    6   24   10   -1   12   30    6  -43   -3   16  -22  -22   11  -32   13    0   49  -11   46   13   29    6   31  -12    1   -9  -62  -26  -48    6   -2   38   69  -13   20    0  -19  -31  -55  -55    5  -36
 -27   14   14  -27   25    0   -7   23  -16   22  -37  -25    1   16   -7   22    0   23   34    5  -26   41  -29   -5  -15   -3  -10   18   13   27   35  -14  -27   -3  -10  -21  -25   12  -15  -14  -25   27  -11    2    7  -21  -27   -6   16   -8    5    5   13   19  -11    6   -7    4   21    5    2   -2    6  -12
  -2   14   11   -9   19   18  -15  -31    8  -26    1   -9   44   -6  -32  -30  -15  -20    3   26  -35   32    4   45   53   45  -12   24    4   46  -31   29    2  -41   30  -28   -3   33   -7  -13   25    6  -25    0   16  -52   25  -45   42   12  -40  -18  -19  -32   -3   -4  -10   55  -31   -4   -4  -17  -18  -10
  45   -2    0   24   -5   11  -26  -10  -25  -19   21  -20    6    1   -5   10  -16   39   19    0    9   -5   -5  -15   -9   -5  -22   -1   10    5  -18   13   15   12   -5   -4   37    9  -40  -23  -15   -3   22  -24    8  -21   10   22  -22   15  -40   -8   36    6    4    8  -16    9   -1  -28    6   -6   26   -5
 -13    3   23   27   18   -4  -26   -5  -60  -17   68  -10    9  -17  -30   -9   11   20  -15   10  -23   25  -24  -32   11   -8  -29    2    2   -6   -1    1  -25   -4  -11   -5   22  -12  -33  -37  -23  -21   41  -42  -30   15    3    9  -35  -21  -33   -5   31  -51   13   16    4   -1  -43   -6  -25   -5   24    1
  12   14  -17    9    7   22    0   -6   -7    0  -27    7   25  -43   22  -28   22   16    3  -27  -13   11  -21  -17   14   19  -12   26  -17   32  -18   -8  -19  -30   -8   66    3  -15   17    0   15   29   19  -10    8   32  -12   15   22   26    5  -18   35    8    8   -6    2   22    4  -18   16    8    5  -12
  11    6   -9    4   21   69  -28   14   22   46   30  -11   26   -4   -4   -2   -8    1   -7   29    6  -22  -29  -20    1   31    8   39   27   -9   28   22   29   43  -24   -6  -59  -27   30   19   -1   34  -28   18    4   45   36   -9  -22   18    0  -17   19  -27  -34   41  -19    0   -2  -21   12  -20    7  -11
  19   16    2    1    7   61  -13   32  -18   -9    0   30   -1   17  -12    2   -1   31  -22   30    7  -12  -14    0    4  -21    6  -42  -18  -20  -23   10    2   -2    6  -56   39   -8   22   -3  -24   42   12  -16    1    2    3  -21   43  -22   -9  -13  -36   16  -17   52    6   23   10   18  -33  -12    8   14
  -8    3   13   -1    5   15   -1  -11  -12  -23   -1   -7    6   -1   13  -23    9   12    7   17   21  -12  -14   -9    0  -21  -10  -23   -5    1  -10   -1    8   21    7  -19  -22  -23   18    9  -16   24   -1  -11   15    7   -3   -8  -11    7    4   16  -13   15   -5  -14   -9  -13  -21    9    2  -12    0   27
  16   -6   15   -3   -9    7   13  -10   12   -3   -8   -3  -16   23   -9   49  -25  -26    8  -26   -2    2  -18   -2   -8    4    2    6   12  -15    1  -11   19   33   26   -9  -18    8  -11    1   25   -2   -6   15   28    9   42  -13   27  -11   26  -27  -16   -5  -10   14    1  -16   17   13   13   17   -9   -9
  12    3    0  -10   -7   15   11   -7    6  -11  -19   -5  -18    6   -9    3    9   -6  -17   21  -20    8    4    9  -18    1    1  -16   -3   -6   26   19  -19   -9   13  -59    2  -14   19  -31  -21   10   32   -8   -3    3  -13   -5    7   -3    3   26    9   22  -27  -18   11   -3  -16    2   20   -4   42  -29
 -41   -5  -28   -3   38  -25  -10   17  -23  -13   -7  -11  -14  -20  -10  -14    4   -4  -14   20  -13   11  -53   17  -45    2   27   23   -6    3  -23   22   -2    6   -3   39  -26   12    2  -11  -20   14    2   13  -26   -5   21  -13   19   -1   22   15   -8  -14    3  -22    4  -28   29   -2  -19   37  -26   -9
   3   37   -9  -14    9    8   29    2   -6    2   -1  -18    1   -5  -18   13   22   -1   -5   20   -7   13   -2   12   17  -10   29   -9   16    3    3  -37  -27    3   -1  -13   -3   -4  -17   -4  -16   10   19  -26   12  -25   23   -1   -5    7   18   -4   20    9   -6   36  -21  -25   22    2    6  -17  -33   -4
 -33  -29    9    7   52   -6    9  -10   15   16  -15   -2   11  -10  -20  -15   23   -9   -3  -20   23   -6  -50   12  -26   34   29    7    5  -16  -52   42   14    7   -1   43   -3   19   22   -6  -16   59   -7  -44  -19    4  -12   -2  -26  -30   62   36   19  -23   35  -30  -33    2   25   14  -14  -21    2   13
   1   29    4    6    1    4   -5  -13   -4   19    6   -9    3  -10   -3    9  -19   27   -5  -10  -17  -14  -12  -11    7   -4   10  -14    4   -8    8   31   11    1    1   -7    7   -3  -13  -12   14  -12   25   -5   -5   16   -8   12    2  -18   -6   -5   14  -24    6   -9  -10   -3  -10  -16  -16    5    6  -15
   7    6   14   49   20   18   -7    4    0  -26   -4    9  -91   32   31    6    8   16  -40   19   -8    4   24  -51  -24  -13    9   12  -25  -10    8   12   54   25  -22   30  -13  -40   -1   18  -10   34    5   -3  -22   18  -22   -4  -32  -17   12  -24    3   44   56  -21   28    7   21  -18   -5  -12   -3   -1
 -10   11   -2  -10    7   -5   20  -19  -12  -15   26   12   18  -31  -54  -16    1   15  -12  -56  -14   21  -34    4    2  -37   46   17   -5   16    5  -12    9  -13   12    1  -17  -15   -4   -1  -11    6    3   36    0    7   -7   -7  -24   14   20    3  -13    4   -3  -10   23    1   -8   -8  -30    5   46   27
  27   30   -7  -24   18   16  -29   10   11   72  -16  -30   17  -11   39   30   -1   16  -31  -15  -43  -13  -21  -14    8    4   21  -31    9   11   24   50   33   42   18  -17  -20  -24  -44   47   42  -14   24   21   24   16  -31  -16   32  -14   19  -19    0  -12    8   -6  -52  -21    6   -5  -25    7   15  -71
  -8    3    0  -37   -6  -17  -16  -14  -23  -43    7   42  -22   18  -11  -37    2   21  -16   25   49   -6  -43   17    5    1   20  -48   27   -9   10  -42    0   -3  -10  -57   44   -4   -4   31    6  -30  -28   -4   -2   -4    4    5  -13   15   21  -20    0   13   36    7   -8   -9  -52  -34   -2  -44  -70   59
  18   35    8    4   16   32  -26   -3  -15   -5  -38   13   -1  -13   17    4   -5   18   -3   17  -52   23    6   35  -27   -8    3   12  -23  -11   10   30    3  -21  -12  -14    7   39   24   -1  -11  -20    2  -12    5   10   11   -6  -22  -10   20    0   -3    9  -13   11   -2    0   14  -39   -1   17   -9   -1
  -1  -14   -4   10    0   24  -29   38   10   21    8   20   -1    6    7    3  -51   17   -9  -35    6    2   25  -35  -31    7   31  -34   10   17   -1  -15  -14    6    3   28   11   27   13   29   16   24    1  -23  -19   25   17  -11  -18  -20    0  -14   -4   15   45  -16    9   31   -4    8   -5   -2   -2   21
   4   29   38   14  -39    2  -24    3   -3   19  -20   -7   -8   -1   13   14  -12  -21   -9   47  -23  -25  -12  -11   14    6   36    5  -11   -8  -17   10   -5   29  -31    5   18    7  -11   -3  -10    3    4   -7  -32  -16   22  -47    0  -35   30  -25  -12   33   42   -8   11   39   -6  -20   -9   -3   21   13
   8   20   -2   -8   -9  -17  -18   19  -20  -11    3   22   -8  -16   13   -7  -12   17  -22    2  -24   -1    7   27    0  -10   11   15   -2   20  -14  -14    2  -16   -6  -24  -10  -13   -6  -13    3  -28    4   13  -25   35   14    3   43   24  -10   -1   -7  -12  -21  -13  -13  -27    7   -4    3   22   11  -33
  10  -31   -1   22   16   18  -27   50   43   24   40   11    8   16    3  -21  -35  -36   10  -16    3   -2  -16   -7   16   46   -2   64   45  -22  -23   29   27  117    1    8  -72   27   36    8    0   44  -53   20  -45   54   23  -48  -55   10    7  -12   41  -50  -16   39  -29  -26  -28  -25  -15  -63    3  -33
  14   10    3   -2   -2    0   -5  -12  -10   -8  -24   -7    1   -4   18    4   11  -20   17  -12  -28    9    0   22  -40    4   23    9   20   -7   40   26    2   13  -37  -44   12    7  -19    9   14   19    9    8    9    0  -27   -9  -28  -17   -2   -4   39  -16  -24    3    1    3   56   62  -15  -18   29  -37
  -1  -11  -10   22  -41   -6   14   10   -9    8  -17  -36   41   -8  -18   -2  -32    7    1   -1  -24  -16   18  -30   -9    2   -2  -48   46   20    2    3  -10  -44   -1   52  -21  -18   12   -6   54   13  -16    2    6  -39   13    5  -38    1  -21  -31    4  -19   13   -5   30  -25    5  -14   12  -32  -25    0
   6   -8    8   -2   -7   -7   11  -12  -39  -14   14   18   12   -1   16  -15   26   -8   -3   -2   -4   -9   19    7    9  -22   17    3    2  -10   17   -5  -10  -43   -3   26   -6   17  -21    5  -13   -5    5   -2   27   12   -7  -39    6   30  -15   41   23   23   -9    8   24   28   21   22   -5   44  -12   -4
 -24  -14  -45   22  -34  -20   25  -24   76  -35   29   23   13   11   58    3   11   28  -11   60  -24  -20   40   14  -23   -7   32   16    7  -49  -65   26  -36  -44    3  -29  -10   -9  -40   11   40   34   49   19  -14  -26  -23  -15  -52   76  -37   16   -1   13  -11  -19  -29    0   39   -4    0   27   27   23
  -1  -28   27   -8  -14    8  -19  -29   50    4  -48  -12  -16   18   60  -33    2  -18  -12   -3  -21   25    5  -55  -22    4  -25   -9   31  -51  -27  -39   10  -13   -9   19  -29   -2   -2  -18   66   17   15  -27  -20   -7   -6  -41  -43  -30   47  -58  -11  -63    9   29  -28   -8   -5   46   -4   -1    7   -3
  -9   55    8    0  -35  -51  -17  -22   25    7   29  -39  -21   34  -46   -6   25   -6  -19   -7  -27  -24   32   38    5    9   -3   35   43   -7    7    1  -19   31   13   89   13   -7   36    4   -6    8    3  -32  -42  -58   56  -19  -15   45   19  -25    7  -16   19   14   21   53    4  -29  -10  -45  -29   -4
  35   28  -14   -1  -20   -1   18  -21  -15   -2    7   -7   -2    6    2    3  -11   20   27  -16   16  -10  -21   -5  -19   26   -2   27   26   -3  -17   19   17   22    0   -3   13   14  -30   -9    7   27   25  -14    6  -15   13   -8   19   -3  -17    3  -14   12    7  -24   -3   -8   11   -4    4    7    6    1
 -19   27   12   45   -9    7  -53   10    4    9  -25   -3   -8   10  -63    7    7   28  -22  -29   -2    4    1   58  -25   13   20    7  -22   35  -17  -39   21  -20  -35  -27   -9   51   -7   49    8    2   59  -52   41   51    1  -46  -36    5  -38   -2  -33   16   -1  -34   -1  -29  -10   31   -7  -12  -23  -25
  28   25   17    2   10  -24   19   11  -14    0   26   -6   26   -9  -24    6   -9   28  -14  -48    2  -16  -32   -8   11  -12   -1   28   13   -1   -4   33   23   -9    6  -10    0   -2  -29    0   -9   -1  -15   -5   -8  -13   17   13  -32  -17  -15  -10   30   29   11  -17  -11   12   -5    8    9   -1   35   32
  32  -18  -18  -24   32  -23    6    5  -39  -11  -29   47  -10    9    7  -72   14   25    0    4  -42   -8  -24  -37   35  -25    0   16   -5   32    1  -38  -19   -4   -3   35  -18   -1   34  -10  -22   11   29    2   16    1    6  -22    6   50  -16  -86   26   19   -3   -8  -23    5  -30    3   13   68  -32  -35
   0   30   14  -11  -19   33    3   12  -21  -32  -79   18  -23  -27  -24  -21   18    2  -46   11   32   20  -24   -6   11   31  -59  -19  -19   -7    9   10   27  -15  -38   63   28   15   35  -28   16  -33   -5   11    9    3   31   -8   11   -9   19   13    1  -19   21  -11   49   17   -1    7   -8   -7    4   27
  28   30  -22  -21   53    5   -7   14  -61   18  -19    5   -6   -8   -3  -21   11    5   23   27   -2   11   -7  -11    6   -6  -12  -13   19    3  -31   24   -5  -10   -5    7  -34   12  -12   22    2  -13   -4  -10  -11   25  -15  -32   -4    8   20  -21  -49    3   17   -4    6   -5    2  -40  -15   -5   25   23
  12  -50   23  -13  -31  -20  -41   16  -16  -36    6   -3  -33    2  -12   28  -23   23   -8   17   16  -13  -43  -24   20  109    4  -31  -22  -11   -6   -8   -3  -94  -29  -36    2   -3  -13   -3   35    2  -44   -9   15   10  -48  -20    8  -41   17    6   32  -16    9  -15    3    6   49    6  -28  -32   11   14
  33  -23   -9   16   -5   -6  -12  -16   55  -25   -4  -23   -5   14   21  -10  -47   42  -22    3  -40   10   28   14  -44  -19  -26    3  -44  -14  -10    5  -37   14  -10 -128    1   40   14  -24   24   33  -19   -2  -39  -57    9  -39  -28  -23   -4   19    6  -10   -8    2    1  -58    1   24   -1   -2  -19   14
 -20   10   16  -19   -4    1   -3    0   13   24    5    2   67   42  -16  -18  -12   23   -1  -12   43  -15  -24   10  -38   11  -18  -54   37   17  -10   -8  -20  -17   31   17   23   -2   28    3   22   25  -24  -16  -15   -4    7  -21  -34  -23   17  -21   -4    5   -7  -36    8   23  -23  -35  -11    5  -23    7
  52  -16  -23  -17  -23   -5   -2   -7   22  -14    7   -6    1   -2   -3  -47   -2    5   -2    3   43  -19   52   -9   27   -5    9  -17  -17   11    7   44   32  -25  -39   -1    9    4   39  -63  -43  -26    3   -9  -47   15  -27  -49    2  -55  -13  -11  -19    2  -23   14    7    0   10   51  -20  -21   17    6
 -20  -18  -20  -25  -14   -2   -3   18  -19  -34  -24  -22   -1  -76   20   18  -49  -17  -22   11   13  -39   -6    9   39   42   20  -26  -10  -10   29   19   19    7   13  -30    8   -2    3   -1   28   16   -3  -67  -55  -24   23  -29  -16   39    5   -4  -39   -3  -25    5    2   53  -36    1    1   25   37   12
 -36  -37    1   11   28  -21   10   37   -2  -45  -10  -28   -1  -32  -16    4  -82   -4    8   35   -5   23   38  -38   42  -18   -8   18  -10   14    6   -6   21   -3  -38    3  -68   17  -14  -41   37   17   26  -43  -18  -55    4  -24   40   52  -16   27   19  -14    9  -20   12   -7   36   44   -1  -72   24   30
  -3  -24  -21   38  -15   47   19   -8    2    0  -37    2  -13   13  -11   27  -43   38  -19   -3    9  -18   28   46  -33  -28  -24   -3  -28  -44  -15   68   32  -46  -14   18   -3    9   19   19   -8   -2   18   -7  -22   22   -4   20   57  -69  -34   -5   -3  -17  -37   40   43   26  -12    3  -56   -9   38   -4
 -30   -2    2   -7    4   11   13    1  -43   16   10   45  -28  -13   30   22  -53    7   -6  -40   54  -50   27  -43  -61    6    8  -31   31    5    1  -23  -46   10  -23   -1  -30  -35   11   41   11   12   17  -20    0   -1   -4   -2  -33  -19   29   17   18   44   52    9   14  -25  -11   11   -2   22   29  -21
   7   29   -4  -33  -24  -26  -14   25  -13  -27    7   38   -6  -10    4  -27   34   37  -22   46   23   -9   -6   22   16   32   -4   37  -13   -7    4    0   -9   26  -22   10   -1  -20  -15   13   69    5   17    9  -15   14   -6   13  -38  -37   10    1   -6    3  -16  -31  -14   53    8   -7   -4  -85   17  -28
  19  -36   50  -11  -52    6  -14   21    9   16   10  -13   29   28  -11   27    8    9  -17   -2  -55   -1    4   -5  -12   53  -10  -14    7  -13   -9    9  -20  -52   19  -11   79  -24   29   -4    3   65   48   11   -3   33  -12    4   11    2    3  -18  -31   62    2   -3    9   40    6   -3  -22  -42   30  -29
  54  -12  -28  -10   -7  -12  -17    2   41  -35  -23   -5   14   -5   -7   29   -4   -6  -48   48    9   25   18   12    1   -7   24  -11   11   -2   32   26  -12  -18   29  -48   39  -12   -1  -11  -37   -7   55   23   -3   42   14   25   -8  -24   21   23  -28    1    4  -28    1    0  -26    6   -1   -6   12   -7
  39    7   51   11  -11    5    2   24  -24   27  -39  -42  -33  -46   28  -64   28   33  -18   -3   52   -8    4    9  -11   41  -26   35   22   14   38  -25  -61  -31   26   13   14  -48  -60   -9    1  -14  -45  -19    6   51   -5  -16  -31   46   -8  -30  -28  -65   32 -106   24    0   96   10   -1    9   32    5
   0  -24   -6  -20  -10   23   -9    5  -11  -15  -13   -9   -5   -5   11   -4    9  -11  -22  -23   14    1   -2  -31    4   17   16    9    8   -8  -11  -11    0  -30   11  -37  -17   -3  -15   17  -13   -5    7   -7   -5   -3   15    8    9   -5   -4   14    0   -2  -13   10  -16  -24   10  -15  -16    2  -27   14
  20  -28   -2   -6  -27  -26    9   52    4   38  -12  -21   -4   20    3   20  -23   56   -6    8   11   44  -27   33  -11    8  -11    4   -8  -31   22  -23  -29   10   -5   56   40   17   -2   14    0  -21   43   24    0    8  -16   -8  -48   21    7   -3   26  -13  -38   28    2  -40   11   19  -24    6  -36   39
 -21   -5   37  -18   22   -5  -23   35   19   11   19    7  -29   11    3    8  -19   22  -19   18   30   20   -9  -41   19    3  -26    4  -20  -23    3   22   -6   40  -23  -14    3  -14  -12   14   14  -16  -36  -11    5  -31   34  -21    4  -47   24  -19  -27   11   -3   -7    9  -40  -15  -25   19  -16   31  -20
  22   27  -17  -10   33  -11   11   11   -2    8  -15   44   64   13   18   -7  -55  -24    5    2   33   14    9    7  -10  -40  -33   15   -5  -78  -32   16   18   30    0  -21   -7   33  -13  -25   24   31  -10  -18  -12  -46  -30   -4  -33   -1   36   10  -27   -2    2    1    8  -21   18   17  -57    2   15  -17
 -12  -37   11  -17   -1  -41   19   -2   -5    9   -4   -9  -15   49  -28   41  -42  -21    0  -19   18   13   23   24    5  -48   11  -31   28  -21    2  -38   16    4   28  -39   32  -20    1  -44  -13  -25   -3  -28  -11  -53   -6   -4   38  -53    4  -17  -44   19   35  -44   -5  -17  -24   14  -24  -13  -29   10
  -6 -109    7    2   12   34  -64   22    2  -36   -8   17    4  -15  -30   -5   60  -50  -31   26    4   23   53   35  -28  -26  -19  -13  -31   60   21  -74  -29  -28  -61    0   -2   17   57   36  -16   19  -32   52    2  -45   23  -28  -73   18    3   12    3  -11  -19   69   26   20   31   -2   -5  -16   28   -4
 -53   13    7   39  -17    5  -17   26  -17  -57    7   34   27   -7   35   25    6   26   -7   27  -15  -31  -43   26   -8  -40  -36   18  -10   -9  -23   -6  -16   17   30   -2   -6  -31  -22   15   25   11  -11   42   -1    3   19  -23   21   19  -13  -22  -21    9   16    3    4    3    4  -48   -9    0  -18   28
 -31   36  -16   -1   17    3    7  -29  -39   -2  -22   20  -37  -29   12  -35   10  -23   17   52  -15    7    5   -1   10   13    3  -15   -1  -18   18  -49  -32  -28   -1   38   32   22   24  -15   12   33   47   15    1   33  -58  -22   43   10   18   16  -19  -13    7  -30   -7    1  -12    7  -18    7  -71   -8
   2  -10   -1  -15   44   -6    6  -20    2   15   16  -17  -28    2   14   10   28  -28   27  -41   -9   -7   -9  -14   19   10  -16   35   -2   19  -36  -27    6   44    3   40  -21   47   -9   40   13   18  -18  -25   21   16   -5  -17    2   -3  -36    1   10  -30  -10   18   -7   -7   29   36   -6   32   24   20
  -1   -6   21   -4  -32   -3    6    5  -10   -1  -30    3   22   10   -8    7   22  -28  -20  -19  -12   -7  -12    4   -4   19  -13   12   -1  -12  -13   19   25  -23   13   -4   30  -18   15  -35   -4   14    7    4  -18   17  -21   -2  -14   -9  -13  -11  -27   10   -2   27    2  -14   18  -25   -3  -11   -4  -15
 -35  -34   47   43  -15   51   10   -1    7  -51   47  -38   -7    5  -14   27    4  -41  -38  -68  -24  -25  -26    0  -26   42   -3  -18   29   31   -7  -40  -22   17   -2    4  -26    9    7   11  -18    2   12   13    3  -18  -13  -26   34    9  -15   -6   -3   20  -18   13  -21  -48  -18   27    3   28  -41   -2
 -50  -56    1  -11  -23   46  -46   21  -72    1  -50  -23   57  -21  -23    5  -21   23    0  -47  -10  -17   15  -34  -25   -4  -35   54   14   23  -13    8   -8    0  -19    3  -25   -4  -35  -32   64   37  -15   -6  -42   25  -17  -29    8   -3   31  -34  -12   39   28    4   12   -2   37  -17  -29   50  -46  -22
 -54  -20  -49   -8  -22    2  -11   26    8   52  -27  -21   30   19  -18    6    3    2    6    9   29    7   13    9   31  -34  -43   -6    5   -2   40  -32   29  -23  -15   13   -1  -94   -6 -108  -20   18   25   19   14   -9   43  -42  -28   25  -19   23  -23   41   82  -54  -14    5    6   30  -27    4    5   34
   2    1   -3    6   17  -13  -13  -15  -46   12   21   21    6  -19   23  -33   31   12  -14   58    8   21  -41    5  -14    9    9   15   10   -8  -15   15  -11   -5   -4   26    8    5    0  -23   -5   26   30  -63  -20   31  -35    9   14   32  -15    3   22  -39   42  -11  -17   -9  -22   31  -15    0    5   14
 -39  -24   86  -33   -7   20   29  -20   -2   18    2   17    2  -37   25   42  -30   52  -20   26   21   54   22  -17    9    8  -10   29   35   19   -9  -10   35   34    6   15   18   -2   48   21   44    3    6   -5  -15  -11   38    8  -11   -3    1    6    0    8   34    1  -17   30   12   -7  -16   17    1   -4
   5   32   -5   22  -17   -3  -14  -14   13   -2    1  -19   -8   13  -45  -39   15    1   -2    7  -16  -21   13   19  -12   -1    7  -19    6   25   -5   22  -19  -15   -6   21  -24  -23  -42    1   -9  -11   -3   15  -26  -14    7  -20   64   16   -4    0   31    0    3    9   33   39  -23   -5   12   11  -31  -14
  -4    6   33   11  -16   23  -21   20   26   -9   54   17   -3    3  -44   -8  -35  -11    5   49   30   54   -6   37   27    4   31  -26   -3  -18   45  -40   13  -21  -10    0   -4   13  -25  -43  -25  -30  -30   22  -12   30  -23   12   36   30  -17  -38    5   40   -4    0   48  -33  -32   -3   26  -13  -18    5
  24   33   38   41   -1   36  -16  117    1   -3   15    5  -26   17   45   22   71    1   20  -10  -11  -31   22  -24    6  -52   40   -5   46  -13  -39  -29   40   17  -25    4   34   -8   45  -12   15    6   62    6   -9   25  -34  -11    1  -37   43   -3   13  -41  -37  -47   26   -7   -5  -31   -3   65   49   40
 -19   44   26    4   15   23  -36   18   34  -21   -7    4   22  -14   13  -48  -16   -1  -48   11  -14    5  -24    8  -17   27  -35  -11   -5  -37  -18  -22    8   21  -11  -10  -20   23    1  -35  -31   -3    9  -13   -2  -15    8    9   28    6   35  -15  -21   12   39  -28  -18   -5   -6  -40    1   -5   23   19
   4   -1    4   -8  -14   18   -2  -32  -12   12   17   19   -4   20  -32   -5  -18  -20    5   26   18   15  -20   -9   -9  -11    4    4   10    1   15  -59   27  -12    8    6    3  -20   17  -62  -11   13    9   -1   16  -21    1    1    2   28  -13    0   -4    6   14  -14   -9    5   -9    0   -1   12   -4   15
   0    5    1  -13  -14    0    3   20   -8   -7   -6   20   27   10   35  -39   -7   39  -36   20   23   23   13   22   18   10   -6   37   19  -16  -41    1  -28  -63  -20   31  -27    4   -8  -49   25   27    1  -19   17   48  -37   -6   -8   66   -8   -4   14   10   17  -32    4   16    7  -40  -14    5    3    8
  20   17    5   24   13   33  -31    8  -14   25  -10   56  -24  -47   54   53  -19  -11    4   -4  -14   -5  -11   -9    0   14   10   14    1  -18    5  -16   -3   -5    4   -2    4  -24   16  -45  -10   11  -66    5    2  -16  -16  -22  -38  -40    9   -2  -10    3   26   -8    4  -13   13    0  -12   31   36   -7
  18   29  -23  -15   12    2  -47   52   38  -33  -16   58  -14   20  -16    6   17  -30  -34  -76   34   22   13    5  -16   18  -19  -24   15  -35    6   34   35  -55   61   31   -6    0    8  -25    3   31   -9  -25   22   -8  -27  -15  -69   15  -36  -22  -11  -41  -17   14   -5  -24    7    5  -30  -23  -45   -6
  17  -51   10   39   -7  -40   20   10  -14   25  -24   20   -5    8  -34  -36  -21    3   -6    6  -12  -11   13    6    7  -47   -1  -17   28   -6   16  -16    0   38   24   -5    5  -19   28  -28  -16    7   10   -7  -25    7    4  -18  -25   13   -9  -16  -39    1   25  -41  -26   22   34  -13   -8   18  -13  -21
  15  -15    3   22   35   -3   13   20   36  -27    2  -42   48   36  -23  -18   12   -3   -4  -64   52   38   74  -23    3  -32   -6    4   17  -17    3   20   26   -8  -32   37   38    9   26  -19   74   20   44   -1  -44   20   33  -22    9   54   26   20   15  -48  -32  -36  -18  -12   -4  -12   -2  -17    8    3
 -36  -31    9   16   -3  -15  -15   16   13    3    9    4  -13   18  -23    3   -9  -30  -19   16   -8   13   22    7    0  -31  -15  -11   -7   -9   -2   -3  -22  -13   -1  -29   17    3   21    4    4  -27  -18   -6  -11  -13    0    4  -24  -14   -4   -6   11  -23   -2   13    1    1   -8    6  -11   -4    0   12
 -33    9   -6  -18   27   -7   14  -45  -19  -24    1   16  -21    7   -5  -13   -7   52    0  -24    1   45   22   11  -30   13  -40   19   25   -1   21  -14    3    3    3   -6  -24  -32   29   48  -11  -19  -23   49    6   23  -20   35   18   -4  -61   27   12   16   80   37   13  -61   16    2  -16   35    7  -35
 -16  -60   14   -4  -59  -74    3   41    5  -37   34    5  -34   71  -33    2  -40  -11  -22   22   35  -19    6  -18    8  -10   10  -11   -2  -39  -11   26   25   25   -2   -5   -2    0  -35   39   29  -32  -17   24  -26  -44   -7  -25   15  -76    4   10  -26  -13    8    2   -5   -8   -7   -3  -21  -45   -9  -36
   9  -16  -19  -35  -23   -7    8   20   -2   -1    2   16   13    6  -14   30  -51   14   13  -48  -20  -15   26   22   -6    8   -4    8  -37   21    2  -10    3   25  -28   -3   16   -5  -13   -6  -22   33  -14   42    5  -47    4  -30   29    9  -17  -54  -13   13   -6  -17   17  -42   20  -81   -7    8   -9   -2
   5  -24   41    8  -56   -7  -45  -11    7   24  -62  -17   17   22  -23  -54  -34    6   14  -14   18   65   12   -2    8    5    9  -12   24  -67  -13   37    4    9    5   73  -13   74  -33  -10  -28   -8   -1   48  -84  -26    1   -8  -30   -7    4  -35    5   -7   21    3   26  -43   15  -17  -51   -5  -52  -17
  -1  -47    1   16  -74   17   18   -9   -9   -3  -12   30   -5   32  -16   -5  -35    7  -21    5   33   25   -3   31   29   21   -6  -30    8  -21  -22    2   -9  -63  -19   16  -19  -19  -34   51   -9    0   42   -8  -15   17   15   15   -1  -21  -12  -13   20    2   -4   -6    5  -13   38  -56  -48  -36  -42   15
  14   31  -15   29  -20   -2    6   -2   16   34   33    6   48   17  -14  -22  -57   36  -10   50   20   29   56   34   -8  -15   17  -50   -2  -33   -1    7  -27   37  -31   24   18   33  -11   28  -16   20   13   -4  -27   -9    5    6   17   -5   19  -33  -32   38   37   31    2   44   -6    6  -61  -28    2   46
  -6   -5    8   34  -34   11   -7   48  -23   -6  -39   19  -18  -41   38   38  -26  -33  -31   -9   25  -76   -4  -56  -25  -18   64  -12  -13    8   13   10   16   -4   -8   -7   20   -2   16  -25   40   -1  -19  -45  -29   14   20  -33  -45    7   11   -8   -3   13  -44  -20   16    9  -13  -14   11   46   23  -24
 -15   -3   26  -10    9  -25    9   15   -9    6   10   -2   -2    7    0    9   -5  -13    8   25   -2  -10   -6  -29   18    7   10  -15   25   34    2  -20   11  -28  -14    9   -8  -11   -9  -19  -16   14    3  -13   34  -12    7    7   10   23    6    6  -12   17   12    8  -12   -6   28   17  -15   -4    7    7
  -2   10   48   47    1  -14    5   18   26   35   -9   75    7  -59   -8   59   45   26   18   22  -21   15   -4   20   10   66  -40   46   45  -18  -18  -57   19  -12    6  -42   29   35   -6   -1  -20  -26  -34  -22   -7  -30    8  -39   42   15   35  -36   10   -5    2    5  -25    7   28  -45  -97  -39    2   19
  -6  -18  -12  -29   23   20   14   12   33    5   11   25  -11   45  -17  -35  -24  -14   -9   -2  -15  -29  -23   -7   -8  -12  -23   12   45   68   18   16   -6  -12  -53  -33    0   12    2  -16    8   22  -22  -52   -6  -23  -39   18    0    2   10   41   -9   -3    2  -17   40   15  -16    9  -25   -9    3  -23
  26    1    2   -4  -18   -4   -2  -16   -4   37   -9   -4    6   12   19    0   -5    1   10   -3    5   -4    9   -8   -4  -17    1   -3   -3    1   -5    5    5    2  -11  -14    8   -8   -4    8    8  -11  -14   -5   -5   -3  -11    8  -22   21    3    8   -9   -5   -2   16   -4   17  -21   -6    2  -31  -48   40
 -11  -43    4    1   -4  -46  -18   15  -19  -32   36   16  -26   -5  -27   -4    8  -44    7   -8   -5   27   23    3  -26  -43  -44    9   -1   -7   -2  -37  -22  -14  -18  -28   21   36    1   12  -18   26   -3   27    0  -52   57  -56  -34  -26  -10   20  -28    0  -13   -2   19   -7   35    3   32   14   -4   23
  11   11  -43   11  -13    1  -20   41  -17  -29    5  -14  -51    5   -4  -17   17   15  -10    0  -55   16   26  -20  -27  -22   -1   18   -5  -15   18  -26   38   -6   -4  -20  -35   -9  -16   38  -28    0   29    3  -19    5  -12   30   26   35  -12   -2    8    4   12  -19   27  -10   27    4  -18  -10  -17    9
  -1   -5   13   -9   -4  -41    7   22   22   12   -1   -8   -5    5   21   -5   -4   -3   -1  -21    2   -4  -11  -20    5   10  -26  -16  -24    7   -9   13   -1   28  -11  -13   11   -8  -22    2    5  -17  -14   -9    8  -20   19   -2   10  -24   -5    1   -5   -9   14    0   10    1    5    4   -5   -1  -12  -10
  59  -35   -5   11  -24    3  -31  -20  -27  -50   36    0   30   17    9   13   22   39   29  -28   -1   37  -27   29  -41   -9   24  -10  -10   31   -8  -31   10    8    2    6   -7  -11  -47  -32   -9  -18   41  -44    6  -54   13   -5   12   30  -11   -7   -1    0   34   26   13  -26   -4  -26  -16   19   62  -17
  29  -25    1    9   -8    9    5   -6   -2  -11  -41   30  -14   38   -5  -68  -54  -60  -37   -2    3  -17  -38   10   38  -15   26  -20   -5  -24    4   13   51   -5  -10   48    5   -4    5   22  -19   -7   30  -20  -25   -1   10  -21  -32   -8  -12  -15   18  -37  -17  -24  -31  -14   20  -37   -3  -27   -9  -18
 -29  -14   -8  -20   16  -32  -46   14    1  -17   -1    7   -2   30   -6   35  -20    3   -2  -33   -6   -3    1   -5  -21    8  -16    0   27   -8   15   -7   27   -2  -39  -27   -9  -16   11   -3   32    8  -21    3    0  -45   -3  -29   12  -31   21    2    4    2    6   -8  -14    3  -40    3  -24   -8   -9    9
  -5   54   23  -15   12    6   19   39  -57  -19  -18   23   10   -8    3  -53  -13    0  -12    9   20  -26  -30   -2   21    9   -6   -3    1   23    1   -1   38  -21   -3   75    7   14  -21   12   -2  -61   10    6  -25  -13  -19   20   12   11   40  -16  -23    0   26   -9   -3   10  -10  -16  -28   -9  -14  -43
  -7   17  -19   42  -75   -6  -15  -22  -13  -22  -30   12    1  -18   10   46   40  -29   -6  -14   46   -4   18  -76   28  -17   41  -40    7  -39   -7  -16   -5   -6  -39  -19   31   28   42   -6   34   37  -48  -17  -35   16    5   -7   -5   -1   27  -47   10  -19   -1  -51  -31    4   11  -10  -28   -1   98  -22
  22   13  -39   19   19   71   -1    3  -73   16  -75   -3  -20   18  -40    9  -43   28  -24  -10    5   13  -46   13    8  -17  -55  -15   11    8    9   25  -20  -31  -12   12   -1  -26   57    0    2  -68    8  -44  -11   -5   31   11   31   -2   32   35  -11  -44   14   -1   53   24   -6  -38  -26    5  -11   24
  -4   -3   18  -39   32    4   -6   29  -10   -8   -4  -13   27   35   -8  -28  -10   42  -10    5  -17   71   -3   13    5    2  -25    0   -8   13   24   -5   64   20   -9  -13   24   -6    9   -7   25   11   -5    3  -24   14   -3   19    9   19   -3   -7  -24   -5  -13   -2  -21    9   27   -5  -10  -11  -41   43
  43    7    3    6  -25   -6  -10  -15   -8  -16  -17   17   26  -29   -5  -20   -2   -5  -15   38   29   -4   -8  -11   25   14   -2   12   29  -22   12  -14   21    3    5   11  -27    1   50  -29  -28   13  -32  -28   -5   37  -14   46  -36   34   -3   -6  -22   -2  -10    7   37   10  -12  -12  -10  -20  -15   29
 -20  -17   -2  -30   11  -10   18   10  -19  -36    5   52   -4   12   43  -33    9    1  -12   15  -26    1    5   -2    1   16  -16  -34   34  -54   15   32   -7   40   34   20    7  -15   -5  -78   37    7  -37   39  -36  -31    6   35   14  -13   39  -36   17  -13   -4    3  -13   31   41  -19    7  -14   36    3
 -34   15    3  -20    1    8  -17    5   18  -40   -6  -13   10  -12   60   -8  -18   12   -2    0    6   -1    4   52   -3  -16   -6   19    5   10   16   -3    0   10  -29  -36    9  -19  -21  -15    2   35   44   11   10    9   44   13   11   -3  -30  -86   17   10  -15  -14   52  -35   -6   50  -10  -33   20  -39
  19   -5   40   -7   25   27   -4   24  -14   -9   -3   21 -104  -18   -4   21    0  -12  -13   -2    0   46   24  -22  -34   10   13    2  -16  -37   -5   -8   52    2   -4  -46  -19  -51   17   -4    1   36  -19  -21   23   25   -7   33  -47  -11  -17   25    9   40   44   -6   25   17   21    2  -22   17  -11  -23
  -6   -7   17   25    3   10  -17    1   24  -10   -9  -28   -2    9   18   22    3   -1  -12   22  -14    1   21  -10   24  -24  -37  -29   21  -12    3  -21   -9  -11    4   -7    0   -2  -14  -15   11  -21    6  -17   -3   33  -12   -1  -29  -13    5   -7   13  -11   -1   13   -7   23   -2   -5    7   -6   -1  -16
 -10   -5  -48  -44   22  -30   -4  -14   -3  -11    1   10   16   22   26   36   22  -33   -2  -19  -84   -1  -17    3   -7   29    0  -28   23  -17  -14  -14   66   -9  -52   33   -8   11   58  -40   16  -23   37  -16    1   -1   10  -11  -27  -21   16    9   51   54   -7   -5  -11    2  -50  -15  -30    6   -7   10
  12    9  -39   45   22    3   21   42  -19  -40   46   20   19   57   40   12   52   -5  -29    8    5   14  -19  -31    5  -34    1  -12  -22  -10  -15   -5   -1   43  -10    2    5    2  -12  -45  -12    0  -24   26  -20   17   -4   -6   48   -3    9  -24  -22  -10  -87  -39  -24   15   30    7  -12  -13   13   17
  24    7  -18   -1  -16   34    6   -8   29   12  -49    1   17  -18   -8    6  -32   36   -5   11   -6    4    0   30   -6   -5  -18  -33  -23  -46   10   38    6   10    7  -30    6  -37   23    0  -17  -14   23   -8  -15   -2   -6   23    1  -33   -8    6    5  -11  -17   -5   22  -24  -20   20  -25  -47   25   -8
  -1    2   -1   15   15   -2    3   26  -20   10   20    2  -25   -4  -27   -9    2   25    6  -12  -13   21   25   15   -3   -8    8   -1    6   14   20  -39   31   22   30   -5   14   24  -14   15   -1  -11   23   18    2   -7  -15   36   14   35    9   32   -3  -15   13    9  -28  -15   37   26  -15   -4  -19    3
   1  -35   -2   17   11    3  -22    5   25  -17  -46   40  -34   -2    2   11   29  -28  -14   19    0   23   26    2   31    6    9   22    4    5    8   16    6   18   10  -17  -26   36  -46  -27  -18   11   55   -8  -17   51   19  -44    9  -12  -17    5   41   12   -5  -14    8  -53   23    4  -60   34   39   24
  29    0  -30    5   43    8  -45   19   -1    9  -49   21    1    0  -16  -36  -19   45   -9   17  -13   41   46    6   -1  -28   13   10   61   -1   11   33  -23   42  -24   47   -9   42  -14  -21   30   26  -47  -23   -8   17   26   -4  -23  -27   41  -10   29  -43    3  -62   23   13  -30   28  -20   20   23  -27
  48   15    3   19   46   -9   25  -20   25  -26   18    2    7  -64   25  -57    7  -15  -18    5  -42   24    0   51  -13   -6  -13  -27   21  -10    5   -5   10   72   -2    2  -12   61   -8   42   18  -53   -3  -44  -58   23    7  -34  -42   -1   15   -5   16   -7  -28  -47   22  -67   33  -37    5  -15  -11    6
 -17  -22  -40  -45   12    4  -22    2   -5   30  -34   16  -31    4  -13  -12    8   -8  -18   30   13   28   -3    1  -44   11   15  -22  -39    6  -16    6   -3   30  -29   -6    6   -2   15   -5    3   14    2    9    0  -55    9  -20   29    8    4   -9  -37  -10    1  -13    9  -43   18  -37   -1   10    1    3
  16   18   -6   -6    1  -13  -12   -6  -22   10   -8  -13    5  -25   -6   -2   12   13  -10  -19  -11   15  -11  -12   12  -25    1   -6   -4    7   -2   16    6   -2    4  -21    4    5  -23    9   14   11   26   12    8  -20   -8   -8  -11  -10    0   -8    8    9    5   -2  -12    0   10   -3  -19    4   31    8
 -46   14  -30  -28    2  -23  -12  -59   17  -11    6   -7   86   19  -27  -17   16   35  -37    7   29  -43   58   -6   -4   -6  -49   22   24   17   56   22    5   11   51  -10   13   -1   37   27    5  -17   66  -33  -20   17  -10  -21   33   -2   12    1   -1   17   20   26   29  -71   38  -19    9  -21   45   17
  -5    4    1   21   23  -30  -24   14   17    2  -29   35   42  -31  -31    9   11   44  -10  -10    3  -41   -1  -35  -16   39  -23   -8   28  -44    0   17   39  -38   -9   22    8  -13    5  -24  -29  -19  -13  -11   -7  -25  -33  -33   -6   37   20    3  -35  -15  -16   13    8  -11   10   42   -1   -4    4  -35
 -13   -1    8   16   34  -15   19   10   -9   -8  -37   11    0  -16    1   31  -19  -24  -17    1   -1  -15    6  -27  -46   26    5   29    6  -24   32   19   -9    4    4   41   -1   -6  -10  -10   50  -11   -2  -17  -42  -22   -4  -25  -33   12    1   -5   -4   12   20   15   14   12   15  -27  -11  -10    3   -9
   4  -31  -14   26   15   44   30   14   15    9  -13    4   16   -4    7  -16  -12  -29  -12  -24  -73   -4  -20   -2   -2  -24  -20   13    4   25  -16    5  -16   -7   35   55  -22   13   52   -1  -25   50   93   -9   18   50   19   10   28   41  -39  -21   38    3  -18   -2   17   11   47  -11   -9   73   33  -37
  -4    0    0   -8   23   -4  -34   -4   -9  -30  -60  -17    7  -12   20   38  -19   12   -9   10    5   -1   16  -15   55   23  -38    0   53  -19   -9  -15    9    9    7  -25  -45   36  -39   -2   34  -18   25   11  -27   15    5  -30  -26  -16  -11  -25  -27    7  -16   22    2   16  -11    1   29   -2   48  -16
  -8   -3   37   -3    9   -5  -18   13   31   11    0   -4  -18   10   23   -1  -57   -6  -21  -15  -12    4  -20   35  -13  -46  -25  -64   -4  -14  -35   29   44   21  -45   22  -13   -4  -25  -24   17   31    4   16  -42   13    5  -51   38  -36  -37    8  -18   -4   10    3    2   10   27    5  -20   -6   51  -31
 -18  -40   68   35    7  -35   31  -14  -22  -29  -41  -67   11   25   33  -23  -29  -13   20   77  -19  -20  -45   27   11  -10   -2   37    1   36   -8    4   45   13  -42  -49   31   13   -4  -14    5   16  -26   34  -13   22   -1  -45   10  -14   -1   23   -2    3   32   15   22  -40   -6  -12  -34  -19   15   27
 -23  -18   40   -5  -19  -29   -5   23  -52   -6  -16   -6  -36   -8  -10   -1  -15  -17   -5   16  -13   50   34   17  -20   17   12  -23    6   16   -8   43   26   32   -6  -50  -12    2   24  -32  -20   -7   -9  -19   92    0    8  -30  -16  -42   -7  -83    8  -12  -15   16   12  -38   20   49    3    2    7   18
  13   17   -1   -9   11  -28   -3   -4   -4  -12  -31   -4   -2  -33   31  -13   20    0   -1   -9  -11    7   -5  -12    1  -13   -4  -24   -6   21    3   24    3    6    6    9   24   15  -24   35   13   -5   18    6   10  -11   -9   -3    6  -24    1    5   -2    9  -11   -5   -7    2    0   -4    1   -2    5   -4
 -40   -9   12   65  -21  -11  -46   12   37   20   22  -19   -8    3   45  -32  -22  -46  -39   26  -29   44  -27  -20    3  -29  -87   39   31  -20  -29  -10  -29  -48   -3   -3  -11  -20   -6   -4   37  -13    6  -50  -44   -3   28   14  -14  -39   27  -40    0  -11    7   56  -28  -12  -41   20  -23   21   -8   20
  -3  -34   -4   17   -8   -7  -10   13  -30  -15   -2   -6  -20   23  -28  -15   -9  -33  -26  -34    4   -1   18   16    9   -6    2   16   18    6   34  -15  -13   26   -5    9   -4    5  -11   27   11    0    3  -15   24  -53  -12  -32   15  -49  -15   10   -9   15  -12   15    9   17   -6    5  -30   -8  -27  -14
 -30    9  -18   -6  -29   55   13    3   36    6  -15   35   31    2   49   34   -9  -29  -20   -8  -32   42    1  -14   19   21    1  -16   23   -1  -18   30   73  -40  -15   21   20   19   -9  -49  -10   -1  -10    8   -2    1   -2   -3  -36   -5   30   40   16   10   25  -19    6  -49  -43  -16  -13   -8   21   19
 -11   33   41   -4  -47   32  -34   -4   -3  -34  -32   62  -32  -23   12  -20    6  -10  -24   19  -15  -10   -8  -26  -30   41   17  -12   31   19  -26    9   28  -14    9  -28  -30  -15    3   -2  -19   14  -44   14  -31  -18    4  -10  -28  -65   -1   -2   16    7   40  -55    9   36  -15  -40  -27   27   10  -57
   6    3   -1   22   42   -7   -9   -8   -9  -20    4    9   15   10   11   -5  -18  -10  -27  -14   26  -24   39  -20    2   -2    2   12  -20    2   15    8    9   -8  -15  -21   19  -29    8    1   31    4   36  -16  -18   12    0  -30   25    9   22    4   -2   12    4    4   11  -30   10   -5    5  -32   28   11
   1  -29  -29  -11   45    9  -34   27   -1  -21  -15   12    4   -2   15    9    9    5   15  -43  -22  -56   24  -14  -46   -7  -29   39   35    5  -19   -5    6    6   -7   31  -26  -31  -32  -35   25   28  -35   23  -11   16    7   -5    4  -10   -8   33   -4  -40   -9  -34   14   -8  -35   65   -6   56   24    2
  -2  -22   19   -2   42  -24    8  -10   10    1   11  -18   21   -1   70  -32   27  -14   -7   -3    6  -21   31  -11   -8   10   39   19   26  -18    2  -20   -3    1    2    6  -29   29   -9  -10   14   46   -6  -12   17   12  -58  -30  -31    9  -17    6   11   -3   -5   -9  -47   37    7    9  -17  -16   16  -17
  13  -41  -27    8  -14   18    2   -9   -3    8   30   -2   29   -7    2  -24  -28   11  -21   13  -20  -52  -17   17  -42    6  -16  -14   26  -28    1   -5   61  -53  -35  -13   61  -21    8   26   22   -9  -54   -1   -5   11  -29   -7  -16   -8   13  -38  -31  -14    2  -55   18   39    6  -13  -26   57   -4  -28
  -8   44   10    8   -1  -20   30  -18  -15  -11   53    7   -1  -17  -50  -15  -30   34   -4  -57  -30   -2  -37  -38    8  -18   23   25   20  -17   17   22    7   -4    6  -36  -11   -2  -34  -25   -2    3   25    7    2   18   14  -13  -41  -30    3   -9   -7  -11   -9   -7   16   15   -6   -3  -23   12   23   33
 -10   26   73   -3  -32    4  -18    0   28    6    2   53  -55  -12   33   28    2   60  -19   15  -12    4  -22   25    5  -37    8   55  -32  -20   21   -3   16   56   14   37   45   19   61  -30  -33   17  -12   -8  -29   14  -13    5  -54   -4  -17   21  -15   37   14   32  -11  -26   31    8   19  -26    8  -29
 -18  -26    5    5    6  -25  -48  -10   33  -13   15    2   37   46  -30   66  -26  -54    1    1  -26   11  -20  -18  -13  -10   27  -11   11  -69  -15    2   44   43  -15  -13  -25   -5   55  -19   12    0   27   -7   -9  -41  -12  -10  -27  -46   -9   45   -4   47  -11  -13  -18   20   28  -21  -33   -4  -27   11
 -16  -14  -11   17  -16    4  -41   10   -2  -16   25   27    4   -8  -38   14  -27  -50   32    2    0    1  -19  -14  -14  -22  -36    7   -8   19    7    3   30   33   -9  -58   29   11  -10   66    6   10   37   60  -49  -62   28  -20  -37  -45   24    9  -15  -35    7   22  -22    4   48  -13   -1  -13  -20  -19
  47  -54  -38    3   12  -54   30   48  -17  -48  -12   52   40   32  -36   -2  -32   12  -36   14  -48   -3  -29  -19   31  -29  -22   -7   -4  -15  -23  -10   -2   25   -4  -35  -28   12   76  -17    7   11   75   -3   10   31    8  -33   23   12   22  -16   47   10   18   11  -10   27  -50   -7   -8   52  -40  -96
 -41   25    7   19    1  -25  -42   -8  -32  -21    6   35   -7    5   27  -10  -38  -19   -6  -14   10   12  -13   38   -4  -10   13   11   44   -8  -23    7    3   27  -32  -28   -1   -4  -29   12  -28    5    7    2    7    9  -14  -36   24   39   -7   21  -16   24  -15   10   12   14   19   -2    4  -19   20   -1
 -19   48  -16   13   -2    2    3    0  -24    7    3   -8  -33   -8    2    9  -23   -5   14   23  -20  -12   22  -10    7   13  -34    4   15  -30   14    4  -19   -7   -4   -3    6   16    4  -15    6   26   32   -3   -6   22   -4  -12   36  -16  -22   10    3    0  -16  -28   -7  -20    6    3  -11   16  -58    0
 -16   37    3  -44   -8  -19   38    1   25   16   -9   14   15   31   -8  -10  -33   40  -35   -7   -5   -8   -2   13    9  -28   53   10    9  -18  -53   14    1  -26    8  -31  -26  -14   -7  -17    4  -45  -21   10  -30  -10  -34   -4  -13   52   19  -17   -6   21   19  -35   14  -12   12   12  -36    2   20   26
   1    2   18   48  -32  -12   13  -16  -16   32   38   -4    2  -12   27  -43  -58  -38   -8  -12  -30    9   19   23   -7   43  -26  -27   -1   -7   16   11   49  -24  -41   45   -3   -5   19  -10   17  -35  -32  -26  -11  -27  -36    1  -39    3    8   -7  -36    7   -3  -31  -14  -34   78  -22  -21  -12   28   12
  16   11  -15   15  -42  -24    3   12   19   18   -7   35    5  -30  -37  -46   12   28  -13   40   11    4   23   -9   16   25   18  -26   27   22   12   -4   -9  -62  -30   42   30    8  -45    5   27   17  -29    9  -12  -24  -51  -63  -15   41   -2  -13   34   17   30   24   -8   -8  -36  -24  -32  -19   -9   -8
 -21   10    9    5   50   31    7    3    2   -8  -15   -1   -2  -13  -28    7  -12   -5   17    8  -11   -6  -40   14   14   15  -22   10  -14    4  -34  -15    1  -11   16   27   24  -25  -12  -14  -10   10   13  -11  -15   10   32   13   19  -25   13  -23   14    3  -32    9    0  -41   23   27    6    9   38  -22
  -6  -27  -79   -7  -18  -34  -68   18   15   20    7   12   66    3   25   14  -52   27  -26  -17    5  -49   10  -15   -1   10  -22   14    2   -7   53  -18  -27    1   30   28   -9   88   24    2    6  -26   49    6  -20    6   -2    9    4   -2   13  -22   -7  -17   24   -8   24  -33   24    3   -9  -10   39   47
  -3  -12   13   -9   -7  -21  -40    8    9   -8  -47   -3   -6   -3  -43    0   35   20  -37    9   15  -10   26    6  -21    7   10    6   11  -12   -7    9   12   24   21   -3   -5  -18  -17  -42   14   11   16    8  -17   19   37   15    0  -22    5  -18   -1  -10   -2  -16  -20    0  -16   10  -18   12  -13   -6
   8  -10  -54  -11    4    7  -63  -13   15  -75   45    3  -16   -8   54    5  -20   -2   -9  -28  -27  -11   -8   15  -10   22  -18  -12   10   76   27   13   32  -15    6  -36   13  -21   26  -30   -8  -45  -34    3  -26   66  -21  -24  -19  -18   11   28   -4   13  -22  -63   12  -43   18    8    0   36    1    9
 -53   -1  -11    3   -6  -42  -40   18   18   -9    7  -39  -11   -7    0    1  -40   22  -37  -21   28    1    4   22   -5    7    2    8   35  -22  -75   15   23  -14   12   25    3   -6   10  -29  -39   -3  -14  -32   -6    3   30  -23   18  -67   64  -11   22  -25   -6   -4   -4  -10   47  -37   43    3   11  -50
  36   21   33   34  -26   -8  -28   33   18   23   -3  -43   65   13   12  -35   40  -23    0   36  -34  -39  -12   14   25    4   17    8   20   28  -46    7   32  -43    6    1   26   77   11  -55  -10   -6   16   27    8  -54   -4  -26   35  -23   33  -47  -11  -82  -38   -7    2   -6   16  -16  -13  -35  -17   70
  31   43  -13   68    9   17  -36  -27    7  -24  -37    2   10   31   -9   -4   20  -26    6   13  -15  -33   23  -19    2  -17  -13   30   58   -8  -60  -18    5  -17    6   17    7   12  -12  -17    4   -9   -3   17   24   28  -14   -7  -17  -33    0  -34    5  -14   25    7    7   14    1   -2    3  -34   33    5
  49  -16    0  -13   -4  -29   33    0  -29   13   -1    2   16   -7   -2    6   21   -8  -19  -36   18  -14   -7   34  -10    5   19   21    7   -1   15   38   21    8   -8   31   -8   27   -5   22   -5   68  -24    7   30  -21   14  -24   37    2  -37  -23   18   46    5  -30  -18  -30   14   14    5    5   -2   25
   1   41  -34   -7    4   52  -35   -5  -16  -20   28   30   19   22  -17  -23    6   -3  -11   26   -7    5   16   30   10    9   16  -33   19   14  -30  -17    3   12  -10    4  -25   -6   -8  -14   -9   21   17    6    5   -4   10    8   19  -21  -12    9  -15   -4  -36  -52   -6   58   -8   26  -15  -30    2   23
   6  -15  -22   -7    6   20  -37    3  -21  -32   34   16  -15  -30   25    1   13    3   -1  -49  -21   -3    8  -18   -3    0  -35   -6   19   34  -11    0   12  -43   -1  -38  -18    6   24   -2  -10  -11  -16   -9   -2   21  -22  -19   17   25    5   12   -9    2  -27  -15   -7  -47   41    4  -33   52    0  -21
 -14   -5    3   35  -21   -9  -10   28   -3  -10   57   32  -28   16  -42   17  -12  -26  -24   12   -6   10   12   21    9    3   -4  -29   -3  -15   12   -6    8   32   34  -31   18  -10  -11  -19    2    6  -10   24   -1  -16   18  -30   16   -2   13    0  -10   16    0   20   -9  -11  -12  -23   11  -19   -7    2
  31   -4   -3  -12   15   -6  -19  -31  -12   45   -5  -16  -28    2   12    1   23   17   37    4   26   -2  -15   23   32  -21    6    2   -7  -37   -5  -47  -11   23   32   19   32  -18  -22   39   -6    8  -38   11  -21  -10   27  -31    7   -2  -24  -10   17    6    6   33   21  -20  -37   16  -49  -27  -32   66
  45    3   71   36    2   31   39   31   10  -14   -9   12  -62   -6   15   30   -6  -38    2   12  -12   65   13  -15    4  -19   34   11    9   18  -33   27   38    2  -39   -5   43 -114  -29   -2   32   52  -39  -19  -12   -7    6  -33  -22   38   27   21   25   -1  -68  -47   -1   51  -36  -12  -21   25  -35  -27
 -20   -4   14    1    4  -25   -7  -21   12  -46  -38  -35   16   21    3   -4    8   27   -4  117    2  -23  -30    1    9   -9   21   12    5   30   12    7   33   29   -5  -13    8  -12   -4  -23   36  -14  -39   25    2   12   28  -11    3  -36    6   25   31  -16   13  -34   11   -4  -24  -17  -16    4   12   51
  -6   -1    9  -33   -7    3  -11   -3   -6  -11   27   27  -31   -1    8   21   22   30  -12   32  -12   38    1   14   -5  -50  -17    9   29  -15  -11   12   10   50   29    4  -19  -14   10   40  -14   27    9   -7   -9   24   16    7    0  -16    0    1   -3   15  -22  -33    2    0   19    5  -38   15   18  -11
  16    9   27  -34  -13  -17  -19    5   14   16  -31   30   24  -29    9  -53   -8    9  -33   36   29   32  -29   -5   10   -6  -20    5    8  -10   20   -9  -21    3  -76  -13   27  -36   -3   -4   15   14    9  -33   44   17    4   -1   -8    3  -32 -108   19    5  -22   -7   45  -32   26    8   11   -1   14    1
  11   25   -3   -7  -13  -22   31   -1    5    6   16   11  -13  -18  -45   -7  -13  -12  -21  -34   -8    3  -36   11   -7  -14   26   27   10    1    3   10   11  -23   18  -26  -26    8    2   25   20   17  -14   44  -19  -11   21  -13   15   -5   19   -4  -15   43  -10  -21    7  -28   15   31   13    9   22   37
 -18   -3   21   28   22    0   10    6   24    4  -12  -40   14    3   -9   17  -19    3  -17   -9    9   13  -56   29   -6   39   13  -15   33  -22  -60   -9   26   33   22   31   44   13   32  -22    5   24   12  -18    3   -3   -1    5  -25  -25   41    0   15  -36   40  -19  -10   17   41   11    5  -42  -11    3
  13  -46  -38    6    8   -4    3  -61  -39   35    9   31  -29  -28   16   60  -23  -25  -68   24   35    5  -29  -52  -74  -24  -23   46  -14   63  -49   28   -1   68   11   10   19   22   -4  -55   -3    0    9   27    0   10   -9  -62   -9   50   36  -30   -3   20  -71  -36   18   21    4   55  -19 -103  -28   15
  24  -64   16   39   -3   13  -27  -19    8  -48  -20  -18   19  -18   36  -31   -2   12    0  -45  -40  -22   31  -24   18    4  -57   21   16   -8  -21   37   27    4  -39   49  -68   17   -1  -43   19  -20  -22   27  -29  -23   -4  -37  -22    8   15   15    9  -40   11  -62   -1  -80   11   48  -67   78  -23  -18
  28  -21   -9   33   41  -24  -27    3   -1  -18   14   -5  -33   32   14    5   34   46  -29   -1  -38   30   56  -58   -2   -1    1   14   15    8   11    4   50  -40    0    6    4   -4   -5   28  -36    6   27   15  -14   -2    8    3   23   25   39  -41  -11   11   30  -12   50  -17   14    2   -7  -29  -54   30
  17   -7   -7  -50   45   32  -20    4   24    3   16   59   -7   31   18    5   37    4    4   -4  -36  -37  -27  -10   21  -75   -6   -9   78   25   35   -8  -14  -29  -40   -7   14   24  -64   27  -42    6   17  -18  -57   29   35   -7   41   36    7   37  -22   30  -31  -16   66  -10    0    9  -20   10   -1  -42
 -24  -10   11    9   53   30  -16   -5  -17  -29  -16  -24  -10  -23   48    8  -41   23   16  -20   20   26  -11   -3   -3    5   23    1   24    0   -7   17    3   90   -9    8   14   16   47   14   -4  -36   -6  -10   -4   -8   20  -33  -26  -33    2   -9  -21   14    1  -22  -16  -11   10   37  -24   19    7   10
  31   39   -1   40  -34   -3    5    2  -32  -26   45   24  -33  -29  -57    1  -20    4   22   -7    5  -13   -8  -24   -7   18  -54   37   42  -23   66   -2   18  -36  -43  -10   20   54   14  -34   20   77   27   12    3    0   67  -30    3  -67  -38   22    0    2  -13    1   -5    1   10    1   23   22  -48   28
 -10   34   -9    1    6   -1    4    7  -12   15  -15   -2  -25    4   22    7  -11  -32   23   47    4  -25   26  -11    6   31  -40   -7   14  -34    7   13  -12    9   -7   -3   20   25   17    2    6   21   11   -8   -9   17   -5   -2   29  -18  -14   15    3    0   -6  -30  -17  -10    7   10   16    5  -69  -13
