  25  -27   38  -21   70   -1    2   32    9    8  -30  -22    3  -28    6  -28   -6  -14  -34   -3  -10   -5   35  -30  -18    7   12  -18  -13   33  -14  -17  -46   34   35    0   14    1   19  -20  -10    5  -17   -6   -5    2  -22  -27  -52   -6  -14  -68  -69   -2    1    4  -31    5   20    7  -20   -6   16    7  -17   12    0  -24  -16   -2    2    0  -43  -67   37  -17  -16  -49  -28   46   16   13   26   24  -21   -9   -3   24   48  -23   18   20  -28   15   44   11  -13   10    8  -12  -22   52  -17   18    0  -48  -33   20   -7   32   28    8   13    4   28   21   -5   39  -10    8   19  -28  -21   22    5   11   -6   15   29   11  -46  -15   16  -16   16   20  -23   -3  -11  -25   -5  -27   15  -15   36   34   39   10    4   31    6    7  -17   30   33   19    5   13   12  -20    3   -2  -19   39   17  -15    5    2   17   -3   21   -5   -1  -21   -2  -28    4   24   54   30  -54   -9   37   15   -4   17  -29   -3  -37    8   -3   51
 -15   10   -8   12   54  -13   12  -19  -14   23  -21  -47   22   46  -53  -10    1  -11   -2  -22    9  -18  -24  -21  -36    2   63   35   16  -66  -38  -43   28   -9   16  -53   25  -37  -41  -30  -18   21  -62  -20   15   19   -9  -49   17  -19    5   55   -8   16   -2  -15   25    9   47   19   10   30  -43    1  -53  -28    1   -2   24   21    8    4 -100   33   35   -9   -7   -3    6   -9  -40   25   53  -24    5  -11   -4   56   39   12  -15  -19  -21   35   10   -4  -13   35  -30    9  -26   -8    2  -28   13   37   10    1   20   34    6  -54   27    0   22   22   -3   -9    9    7   30    7  -18    3   19   45  -23   10   16   20  -22   21   35   31   -2   -5  -25    9  -40   11   12   -9   -1    0   14  -65   23   20   48  -31  -17    8   35   15    0    4  -26   28  -11  -31   23   12    9   12   25  -13  -27    7  -17   23   12  -43    7  -27  -20   20    7   -9   13  -20   -4  -23    9   13    6   23    3  -18    8   17   27   16
  31   17  -14  -14    1  -35   -2    3  -36   17  -24   17  -46  -12  -15   34    0  -21  -23   38   33  -18  -19  -53   24   12   11    9   56  -15  -26   -8   24    9  -16   12   23    1   11  -13    7   -2    6   53   12   13  -40   14    6  -20  -21    7  -23   37    4  -26  -46   13   19   21  -12   44  -49  -12  -32   -6    5    6  -16   29  -33   -9  -23  -13   28   -4   24   28   50    0    4   13   -1   -2  -43   21   22  -45    1   -1   19   17   -4  -70  -17  -17   25  -37   -9   17   60    8   10  -64   -9   15  -22  -46  -16   22  -10   56   31   -1   14   27   35    8   16  -12   14  -26  -45   24   13  -16  -26   21  -32   20  -49   10  -22   23   39   35  -23    1   54   12    1   14   21  -17   26   28  -24   24   61   15  -19  -15  -17   20   55   -5   28   -2  -21  -30  -21   -5  -20   -4    6   59   21   29  -15   21  -26   -7    3  -16  -22   -5   31  -43    2    9  -11   19   -9    1  -17   -2   71   12  -15   61   -6   35
 -14  -25   -7   29  -18   16  -20   -9  -33   -5   13   -4  -30  -19   16  -30  -18    3  -33   15  -34    1  -10    6  -12    9   19  -25  -35   15    7   62   -9   23  -63   48    7   32   -1   30  -32   -6   43   32  -20   15   20   36    9   -7   -9   -8   -5   19  -21    3  -29   27   28    3  -23  -15  -29  -28  -16   -3    6  -30  -24   13    6  -28  -49   35    5    1   11    8   41   36  -21   12  -19  -28  -30    1  -18  -47  -25    3    7    9  -51  -14    5  -13  -33   86    1   15  -33  -34  -42  -22   50  -36    2   37   -1  -11   -8  -22  -27  -22   12   23   -3   15   17  -12   21  -37   41    2   -7   52   15  -11   24   -1   16   11  -34    8   37   19  -39   26  -14   16   -2   13   -3   16   23    2   51  -43    5   41  -30   29   -7   -8   29    6   17  -15  -10   21    0   30  -20  -20   25  -18    2   16  -17   17   -2   19  -15  -18   11  -26   -5  -17  -14  -27   21  -12   -1  -15  -35    9   29   11    3    6    6   15
  -4  -41   23  -17    1   -6   16   13   11  -22    5  -26   23   -8   26   -6  -16   32    8  -11  -34  -27  -28  -13  -29  -26    7   35  -65  -25    1   17  -30    1   -2  -33   47  -20  -16   19   44   18    5   -2   -8  -20    4  -10   19    2   13   -2   10   48  -21  -32   -5   12  -20   -1    7   12   -3    7    1   24    5  -35    6  -29    7   42    1    9   -7   16   -5   44  -16   41   24    3  -10   -7   -6  -50  -11   30  -40  -10   -6   13    5  -29  -29  -44  -12   31  -28   19   -7   32   11   47  -28  -52  -20   23   11  -11   30  -40   55   19    4   27   -5  -28   -3   27  -18   19   61   17   13   46  -19  -23  -24    7  -59  -11   25   -9   22  -27    5  -14  -36  -13  -45   16  -16    9   26    0  -11  -43   21   14  -21  -16   15   -7    1   23   20    7   11   43   61  -16   10  -15   -8   25   36  -15    4   10  -77    5   12  -50  -45   -8   81    9   25    1   -7   53    2   40  -12   25   20   21    3  -19   32    2
  15   14  -43   35   31   17  -48  -34  -17   23   22  -24   -4   30   -6   -4   -8   50   15  -19  -21   18  -10  -39   -4   12   21  -27  -26   -3   35   26   74    4    4  -37   -1   16   39    2   -8  -10   -3  -25  -35   -8   34  -24   22  -16   -9  -30  -32   16   19   -4   35   16   97   13   59    3   -5    3   46  -15    0  -34  -37   10  -27  -33  -20  -37  -25   -2    7   40   -2   43   15    1  -44  -12  -17  -34    9   11  -12  -24  -17  -64   10   19   38    3   -2   -4   25   -1   21   80   11   13   29   31   17   -5   -5   57   11    4  -61  -29  -24   21    4   12  -34   18   20   17   13  -28  -36  -16  -13   -9  -32  -18   11  -31  -13   12  -23   22   -9    1   50  -11   -7    8   24    1   39  -46   14  -14  -36   -1   53   10  -24  -31  -20   58   22  -43   -1   -2    6   18   17  -11   10  -22   45   44   26   -1   14   32   -4   -5  -12   22   26   34  -42  -20   -2  -21   -8  -11  -20   -9  -49   -4  -26  -41  -19    1
  14  -23   -3   37   -6    7   10  -26  -24   33   24   24  -44   -1   17  -32   -2   31   23   43  -21   -1   15   16   23   15   22   18  -33    8  -33   36   -4    2  -15  -20    3   32    7   11   22   -1    0   26   28  -24  -19  -10  -42   -9   15   56   -4  -46  -19   14   42   11   12   38    2  -10  -62   22  -39  -31   34    9  -11   -4   15   -3  -39   -2   13   -6  -20   -9  -25   31   35   -4   -2    9   -9   20   27  -45   27   -6   -9   29   -9  -29   13    1   -5    5   34   35   29    2    8  -16  -23   22  -24    7   27  -27    0   10  -60    9   25    5  -27   40   26   34   -3  -62   57   33  -18   17   -3   -5  -10   20  -13  -20  -21   19   -3  -28  -11    9  -10    2   42   -8  -18  -37  -12   37  -65   -8   -9   -3   10   62   11   50   31   -6  -35   26    6    3   14   56  -30   27   17  -29   14   29   12   24  -35  -23    8  -21    1   23   26  -32    4  -60   -8   16  -17  -16    5   14   -4   -9   -1  -63   -6   15
  18  -43  -20   13   10  -14   35   -4  -17  -24  -10   32  -38   19    3  -18   -9   46   10    3   27    3  -10  -27   11    1    2   22   -3  -11   17  -34  -14   -3  -37   19   38   12  -22   29  -38  -24   11   16   17  -39    4    4    2   24   45   -8    7   -8   12    9    1   45  -11   23   -2    0  -22  -22   -1   12   29    4   -1   14   -8   -8    3  -41  -25   19    0   25    2  -18    3   19   -5  -31   13   10   33   18   32  -17    3  -34   44   35  -18  -48  -24   53   13  -37  -20  -12   25   16    7    1   18   67   31   16   84  -19  -39    6   20   20  -29   -5  -12  -13   25    9  -11   13  -21   35   90  -38   32  -29   -6  -19   28  -23  -23  -21   66    1   17  -19   -3   31   41   -9    2   -3   25  -20  -31  -20   -3    3  -21   19  -29    3  -13   41  -10  -22  -19  -13    6    0   29  -30   -7   19   18   30   16   14   23   15   77    3  -50    1   14   30   -6   -2   37   10   49    5    0    7   -3  -19    9   12
  -6    0   14    6   61    2   -2  -29   -9  -14    2  -35   10   15  -28   -8   16  -42   -1  -24  -23    1   -5   61  -30   15  -34   24  -28   16   21   -3   20   -5  -26  -41  -11   24   -4  -43   14   -5   52  -22  -16    2  -32   -6   11   21   -3  -36   17   16  -16   30   14   -9   28  -19   49   -2   14   42   27  -21  -18  -16  -26  -23   11   -3   28   28    1   38   -2  -25  -23   -5   15  -60   -4   -2  -28    5   17  -31  -18  -24  -26  -27  -13   17  -16   -2  -30  -16  -41   39   24   21  -33  -18   27  -34    6   -2   19  -11    3  -18   15  -30   21   19   18    5    4  -35  -12   -3   36    5   -4   61   -7   49    7   13  -10   47    9    4    4   31  -24   16   52   13   -4    0   12    1   17   -8    6   31    4   23  -20   -2    7  -31   -8  -16  -66  -25  -12    4   22   16  -17    7  -37   30  -13   -4  -35   -4    8   34   22   -3  -25   38   11   14  -15   10   31   16  -10    8  -21   -2   21   -8   30   15   29   -6
  12   11  -28   26  -45   -9  -54   -9  -13   31  -21  -40  -27    4  -37   -5   -4  -57   -5  -59    7  -15  -27   -3  -29    4  -13   44    5   31   -9  -20   30  -45  -10  -67   29   18   -5  -10    5   17   11   49  -37   45    9  -37    8  -56  -27   -1   14  -18    6   14  -15   38   -1   49  -53   11   11  -10  -25   43   -4    3   26   11  -11  -22   -8   35   28   -2   11  -15  -39   20   -6    5  -31    4    9  -33  -26   34  -13  -14   -4  -53  -26  -25  -29    4  -16   -7   25   27  -34  -21   13  -25   -9   -9   40  -15   60   10    5   11  -18  -19  -37   53    6   22  -18   -2   20  -78   13  -47  -24   -9   56   52   -5   43  -13   11  -14   37  -22  -14  -28   14  -63   -7  -27    2   -3  -13   68  -54   12   23   -1  -35   -4   27  -34  -31  -42   61    3   15  -12  -31  -14    9  -11   15   35  -86  -13  -29   11  -12  -13  -11  -12    7   49  -13  -38  -10   39   -1    3   39   20   -8    0    2  -17   16   -6  -22  -11   10
  20    6  -32  -19   45   27    9   -1   22   23  -22  -29  -11   52  -17  -28    0   -6   11   24  -16   13   13   35   32  -16   50   24  -11   33    0  -34   18   44   40   40   14  -21   51   22  -17    6  -23    1    5  -15   10  -16    8  -32  -20    6   19  -17   -4    6   13    0   48   20   17   -1   22   23   -2   16   -1   12  -60  -26  -22   22  -26   63   -7  -19   23   14  -21   -9   -9  -37    7    9   45   19    0    2   32   20   -8  -11  -32    7  -13  -17  -26    3  -11   20   57  -21   31   42   11  -13   -6   -2    8   35  -16  -15    6  -22  -33   30   14   21   -3    2    2  -14   12  -14  -14    8   -3  -12  -20  -11    5  -10   19  -35   22  -16  -17   49   56   -7   21    8    7   15   35   22  -28  -13  -20    0   34  -14  -12   32   42   37   58  -23  -16  -57    3   35    6  -50   17   -2  -68   55   17  -27  -14   30   -6  -20    1    1  -12   36  -10  -19   52   23    9   -2   -5    1  -18   -8  -23   17  -24   48
 -26  -20   -2    7   11  -17   -4  -19  -77   44  -12    3   22  -16    5    8   -7   -1  -25   -4  -22  -39  -12   10   -3   -7  -34   32    3   -1   22  -74   -8   -7   10   16  -18   34  -11  -24  -31    8  -14   16   35   -3   31    4   42   40  -39   -8   -5  -38  -17  -14   11   37  -39   -7   13   24  -17   34   12    8  -63   -6   -8   16   37  -56   45   -9  -65   -4   -8   10    2  -50  -31  -29    8   37    6   38  -46  -12   13   50    8   22  -23    4   51    2    4   23  -21   42    4  -13   49   12  -15  -11  -20   33  -13  -29   11  -43  -68   40  -48   39  -10   -4  -21  -21  -14   19   16   10    0  -12    1  -28    7   10   36   35  -16  -10  -17  -20  -37    5  -64    9  -18   -7   11   14  -30   -2  -10   21  -11   35   61    5  -12   17   -2  -24  -15  -21   -7  -20  -41   -7   10   21   19    1    8  -18   17   12   13   -6   -8  -19  -40  -54   31   10  -30   53   -6    7    8  -22   -3    7   -7   17   -2   26  -41   -3
 -12   18   -5    9  -39    2  -28  -11    1   57  -10   15   66   -3   -2   -7   27  -10   10   47   12   35   14   -8    6   12   -9   73   33  -26    2    8   26  -27   17   -5   -3   41    2  -47   38    6  -16  -17   18   -6   23  -12   25   39   18  -20  -19  -19  -38    3   33  -55  -13   -2   48   30    4   17   -4   34  -19   -4  -45  -34   16   40   -9  -25  -23  -39    7    6   12   34  -49  -43  -18   11   27  -17   -7  -71  -61  -60  -19  -37   24   -4  -14    4   62  -27   32  -53  -66   22    3    2  -21   -7    6   43   -2    8    6  -25   21  -10   24    6    0    8   -7  -13    5  -32  -18  -52    3   67   46   17   65    7  -24   -7  -31   25    2   -9    7   -7   18   39   29    0  -11  -36   29   17   20   -9   -3   16  -55    1  -19  -10   11    0    6   36   24   45    7   22    5    3  -45   12  -25  -20  -34  -37  -39   13   37    5   -7    8   40  -16   25  -38   -2   65   -7  -42   55   17    5   -3   29    8  -55   37
   9    4   -9  -42    5   25   36    1   43    4   59   22   21   -4    2    4   33   22   -1   38   52   44   33    5   27   -4  -32   27   65  -20  -20   17    6  -12   23   -5  -18   -4  -22    3  -26   11   12   -8   32    4  -51  -30  -17  -68    9  -13  -12  -26   -7    5   12   -8  -16   20  -10   14    8   -9   11    4   13  -25  -30   21    2   38   51   10  -16    6  -28   -7   -2  -39   31   -3  -10    9    0    6   32   11   -3   52   -1   17  -25    1  -10  -17  -14   75   10  -29  -18   29   -9  -21   11   56   -7  -11  -18  -19   31  -23   -4   30   13  -30   78  -20   13   13   -2    9  -68  -10  -11   28   30   -4   26  -45   -3   -2    3   27    3   33  -52  -33  -34   19  -30   -6    0    4  -30   30   33   25   15   -8    0   19  -42  -13  -17   24   -3  -92   13  -27  -32  -58   18    1   12  -19   15   30    1  -39  -27  -18   12    0   17   -6   28   29  -44   15   -2   41  -10   -6    2   61  -16    1    2    5   25  -34
   0   13    2   15  -24   23  -32  -18  -30   21   29    2  -28   15    7  -15   -5   66   20  -20  -19    0   61   71  -17   13  -20    1   31  -38  -16   37  -13    5   12  -20   -4   -5   14   -2  -20   -1  -23  -47   23   27   14   -1    5   -7  -21  -23  -13    1  -16    2  -12    3   -1  -13   30  -10  -10   27   14    9   11  -18   55   -2    1  -38    3  -24  -22   17   17  -21   20   40  -25  -12    1  -13    9   13   -5   25   -8  -31    1   14  -23  -18  -22   -3    6    9   -5   18   49   26  -24   28   22  -39    6    8  -15    2  -28    4    2   32  -19   12   -1  -38  -10   16    7   -9  -23    5   17    2    9  -46  -12    8  -18    8   12   -5  -19   25  -12    1   12    3   10    7   -7   31  -31  -37  -21  -34   38   -8   -4  -36  -16   10   19  -14   12   19    5  -20   31  -21  -17  -13  -26  -12  -10  -40  -11    8    3  -21   -6   10   17   23  -36   -3   29  -33   -2  -16   -8  -18    4   -1   21   11   12    3    1   -2
   5   -6    4  -25  -15  -23   44    9  -47   13    2    0   -8   27  -14  -36  -26  -20  -20   37   12  -35    6  -40   -6   10  -23   -4  -31    8  -10   -3   -3   -1    0  -14   -1  -23  -33    3  -14  -22   20   -2  -21  -19   -2  -59   -5   34  -24   16  -36   35   -7    9   21   10   -7   27   45    8  -25    9  -31   11   28   31  -27   30   -4  -20   31   -1    2   22    3    0   -6    3   -8   -5   75  -31   65   14   26  -26   26    7  -52  -20   -2    5   -6  -12   38    8    4   14    4  -42    2    4  -36  -28   17   44   31   10  -24   38    3  -39    8   20  -66    3   11   -2  -30   34  -11   29  -19  -21   29   11   -8  -29    7   23   -9  -11   -1    2   -1  -13   54   -1   15  -14  -27   14  -44   -8  -34   45   12  -19  -31    7    5  -10    6   13   24  -20  -15    3   -7  -49   35   -3  -57   -6   29  -19   -6   24    9  -37   -5    5   23   24  -20  -16   -5    5   -5  -18   19    8  -14  -16   -4  -31   19   56    6   -2
   3   42   10    4   40   30  -11   32    0    7  -16   42  -23   50   -7   43    7   -3   37  -39  -16  -15   16    1   13  -15  -27  -10  -35   -8   36  -67  -17   31   35   47    2   21   20  -30  -25  -16  -19   -9  -35  -34   -3   16   -1   35   23   -7  -16  -35   -8  -19   55   -4  -24   11   18  -24  -32  -25   41   12  -37   47   16   30    5   -9   27  -21   -3    2    0   26    0  -13   16   -4    5   11  -50  -14    6   -4   24  -74  -28  -18  -30  -22  -16   -3   40   65    9  -24   28    8   -7  -34    7   25    0  -74    6   11   12   27   -8  -15   -3    4  -17   24   14  -19    8   22   48   -5   41    4    5    1   14   26   38   14    8   10  -12  -25  -51   13   27   27   10    8   -6  -36    3    7  -16  -13  -41    7   27   11   57  -11  -18  -14   21   58   -8    0  -15    6  -11   -8  -13   -5  -41  -42  -60   10   -9   24   -8  -17   -1   25   -2   -9   54   29    3   -9   29   50  -20   31  -13   -8  -24   17   13  -23
  15   27  -23  -34   -2  -17  -15   -2   18  -20  -37   -2   12    1  -10  -40   26   -1  -19    0  -12    2    5   -2   -1   16   32   12  -30   17   68   45  -26   15   -8  -38  -13  -20   -1   48    7    9   27   20  -64    2   12   28   46   48   19   10  -34    5   10   11   11   -6   11  -25   47    6   22   30   -8  -22  -13  -14    1   -9   -7   26  -24  -29   -3  -30   18  -47   16   47    4  -27  -12   14   -1    4  -28   -7   19   12   23   11   30   41   -6   25   10   37  -22  -62   51    1   17   -3    5    6   -7  -48  -18   19   37   -9  -33   14   17  -39   33    4  -49    2    0   44  -16  -42    3  -26   26   14  -33   11   38   26   30   -6  -32   17    9   13  -17    0    7   22   10   -1  -24   49  -38   65  -12    1   48  -32   -4  -12  -15    4   -4  -21  -34  -48   51  -10  -13   17   25    3   44   -7    3  -25  -19  -20   23   -5   28  -34  -10   15   33  -10    7   42   34   -5   11   25   25   22   13  -29   50  -28
  26   43    9   -5  -23  -14   36   -3  -17    8   26    1   -1   -3   31  -18   -2    4   22    2  -17   14    8   74    9  -28  -23  -12   29   -2   31   12    7  -13    2  -17   -9   18   12   -6    9   14  -20   47  -30  -34   16  -32  -27  -25   12   12  -33   -3   -2  -11  -17   -6  -15   31    5    9    9   60    5   21   10   55   12  -41   -7    9   34  -23  -14   16   -4    3  -17   21   25  -40   13  -20   28   -6  -16  -19  -32   39   -1   24    6  -57   66  -25    6  -15  -33  -10   -8  -17   -4  -12   13  -33   -2  -19  -16  -21   36   12   -2   23  -45    1    2  -14   -2  -33  -18  -25   32   -9   -5   -8   37   -9  -34   36   11  -23    1   16    0    3   -8   16   -9   31  -21  -16   15    0   14  -25   18   -3  -15   -2  -25    1   17  -18   23   -9   -7  -20   20   13   51  -11   -2  -40   35  -10  -39  -11   17   51   -8   -6   13   18   -6  -51    0   22    5  -37   19   19    6  -32    9    3   20   -9   24   -3  -11  -36
   1   20  -24  -16   52   14   45   -3  -21  -18  -28  -34   21  -15    9   -7    7    4  -19   41   12    7  -20   46  -42  -25   -9  -35  -17   71  -25   96    3  -17  -20   14    2  -23    5  -13   -5   20    7  -24   -6    6  -23  -56   21   13   -2  -20    7    2   19   13  -19  -12  -19   36   -4   28    6   -9   18   -4    3   -5    5   13  -12   -8  -23   11   56   35    6   11    5   19  -11   19  -11   29   -3  -21   -3  -53   43  -39   11  -29   16    6   -8   -7    1  -13    0  -22    6  -51   -8  -20    9   32  -18  -30   53    3   10    3    6   -7   61  -40   -6   34   23   14   21   16   -5  -10   -9   11    3  -20  -17  -15  -20    0   -3    5   15   -8   14    9  -63  -20   -2   -3   -1  -37   40  -77   -1   19   28   -2   19   12   -7    0  -28    1   42    4   26  -46   12  -44  -19   16   21   41  -54   17   -2    2   11   16   -8   -1    4  -29   -4   27  -51   11   34  -17   24   17  -11    2    7    6   -8   10   55   51
   7    9  -20  -61  -25  -10   21  -14  -31   38  -24    9  -36   -4   -1   31  -13  -44  -11  -18   -2  -30   20   14   20  -12   16   60  -10   -2   12  -16   29  -25   29   35   21  -55   -8   17   -9   13    2    7   85   -4   12   23  -12   16  -44  -17    2  -14  -22   15  -20   14  -15   36   -6   22   23   14   22   34   19   16   16  -26  -24   -1  -16  -54  -24   22  -17   -9   -2  -49   32   20   37  -41  -77   25   13   30   -2   12   31  -57  -14  -35   26   21   20   -2   -2    1  -16   14   -5   19   17   -7  -38   36   10   -8  -47    0  -39    5   -8   -5    4  -24   -3   -2   25   33   25   14   -3    0   33   22   -8  -35   24  -15    8  -17   36  -13   11    3   28    2    4    0  -12  -20   14  -10  -30   -7   21   11  -42  -14   35   -5  -40  -13    3  -11  -54  -17   16  -99   29   18    8  107    8    4   31  -15  -59    6   -1  -44    8    9    8    9  -17   20  -13   41   10  -23   23  -26  -21  -10   19    2    0   12
 127  -30  -27   21   21  -11   -6  -51   38   -9   16   12   22    3  -14  -41  -27  -29   -9  -56    1   26   -9    6  -36  -30  -59  -11   41   33  -19   -6   30  -59  -38   42  -18   34  -22  -44   61   -5  -17    9    7   18    0   41    3   57   72    5   -8    2   43   19  -22   29   24  -40   12  -15    1  -32   11  -38   16   10    1  -19   -9   65   24   10   28  -27  -10   -8   14  -17    7    2   55    0   33   -2  -19   -5   25  -15   -6  -20   86   -2   10    7  -50   34  -41   28   38   91  -18   -5   42  -40   15   23   21  -37   70   60  -13  -12  -17   30   38   -9  -14  -15   -3  -34  -31  -16   -3    3   22    1  -49   12  -40    9  -28   43   -4  -24  -19  -17   -9   14   10  -11   -8   15  -15  -10  -87   18   -9   -7  -32   -5  -26    3   12  -32    4   16   10   -9  -19    4   19  -28    3  -54  -36  -10   75   56   -4  -33   58    3    6    1   56    3    5   10  -10   39   -7   -9   31   62    2  -18   -9  -23    9   11
   6  -16  -33   65   -2  -20  -12  -31   28  -20  -18   28    9    6  -22   11  -18  -36  -44  -41  -55   36   32   26    3   32  -43   19  -34  -14   14  -18   17  -45   13   66    2   56    0  -44   20   -7   21   57   11   -8  -46  -25  -52   19   27   23   44  -15   -8  -23   -1   50    2   36  -15  -21   -5   24  -25  -44    9   13   -8  -17  -36   27   -4  -12    4   16   -2   -3   32   16  -26   -5  -28    3    0    9   -1    2  -36  -46   -5    5   -5   12  -51   10    4   28   -5   29   -7  -22   41   20  -38   -8   -4    9  -22  -19    4  -39   25  -23  -30   50   15    9   -8  -19   16    1   31  -29  -14  -62  -62    6   -6  -10   -2   10  -16    5  -41   64   20   33  -40   11   30   17   39  -23   -8  -14   17   18   -8  -17   -9  -27  -13   32   17   -9    0    2   -7  -15  -31   40  -13    0  -19  -34   -2   48   15  -17  -34    6    0  -49  -36  -12   36   14  -76   56    6   -7    2   -9  -12    7   -5   44  -21    9   11  -14
  15   29  -25   14   82    7   -5    6   24   34   11   12  -17    1    7    9    3   21  -10   -6  -24   26   14  -23  -37   11  -41    7  -50  -15  -50   -3  -23    6   20   -6  -29   42  -27  -12   28   -8   15   -5   -4   17    6  -14   16   -5  -50  -35  -20   -4   37   14   -1  -30    8   -5   22  -23  -16  -11   -5  -18   10  -11  -19   -4   17   19   28  -16   41  -16   10  -24   15   -7  -16   -5   35  -34  -13  -10    6   41   30  -41  -34    0   -4   58   -6  -20  -27  -94   14   35   26    0   12    3  -29   29  -15    1   12   -8  -24   -1   31  -14  -28  -17   20   40   24   18  -31  -57   39  -16  -27   49   13  -24  -24   17    2  -13   25  -17  -19   -8  -24   17  -44  -40    3   12  -20    7  -54    7    8  -28   13    1   -2    6   -8   16   29    9  -28  -37  -16  -24   23   -6   10   -1   39  -40   28    7   -3   -3    8   -3  -15    4  -15   29   -2  -54   27   17    0   32  -16  -14   45   -3  -24    6  -10   29    2    0
  48   15   21    2   60   22   -9  -35   16  -23   20   -3   21    5   19    0   12   11    5  -11  -26    5    1  -57   34   -1   45  -36   48   65   22   16   21    5   28  -16  -43  -24   72  -43  -17   -1  -15  -13   12  -47   14    6  -13   -8  -39   10   23   31   30    2  -19    0  -35    4  -28   14    5   -3  -12   -2  -18   35   32  -20  -18    0  -13  -11  -21  -22  -12   41  -17  -22   -4   25   23   23   23   14  -13  -48   52   37    8  -28   34  -22  -34    7  -41  -50  -14  -34   26   -3   18    4   -8  -30    1  -14   44  -29  -29   19  -45   25   -2   -3  -32  -13   -6  -24   40  -12  -10  -20   34  -25   -6  -20  -28  -21   43  -13    1   20   27   29   30   -1   -1   26   -1   30  -30    2   26  -25    7   -5  -55   16   -1   36   29    4  -14    1  -17   31   17  -58  -27  -25   -1  -28   19  -32   12   15   14    6    0   -9   16   24    3  -29   12   40    6   11   21   -7   36  -38   24  -23  -37   29  -12  -28  -22   24
 -13  -21    9  -22  -23  -13   26   32  -17  -20   15   -5   30   19  -36   28    3   -4   29  -46   32  -36   -2  -12   15   12   19   20   28   31   -9  -10   -9   36  -17   10  -46  -37  -22  -56   24    8   37  -35  -16  -11  -13  -58  -58  -11   17   17  -47  -32   10    9  -30   17   56   31   15   14    8   32   19   19  -32  -28   33  -24   28   -8   -2  -30  -33   31  -35  -32   72  -10   43    5   33   15   30   12   10    4    5   16  -32   19   59  -10   15  -16    3  -22   -1   52  -13  -34    6  -49  -11  -18   -5    1  -21   66   -9  -15    2  -34  -43   31   -7   23   -3   11  -16  -19  -27  -19   -9   18   12   13   20   35  -16   32  -38  -19  -20  -51   24   16   41   -3  -26   31  -27   -7   -7  -38  -11    2    4   -3   17    6  -39  -23   25   25   18   -2   13    0  -10    6  -16  -21    6   41   23    5  -18    4   -7   52   26   14   -2   15   12   11   26   -5    4   27    4   32   37   18   33   34    8   26   60   18
  36   -7  -15  -45   30  -41   13   12  -19   -7  -16    6  -26  -22  -41  -34  -15   22   34   -6   28  -32   15    1    3  -26  -14  -16   23   39  -11   41   35   33  -12   -8    7  -11    8  -56  -11    1   -1  -17   15  -11    1    7   -3  -21   27  -12    4  -48   -3   -4   14    7    1  -26  -24    7  -11   42   43  -11   24  -10  -28    8   10  -20   45   13   36  -37  -10  -76  -17   21   17  -29   47  -17  -23    2  -30  -15  -12    8   12   -6    3   -6  -46  -33    1   18   -6  -40  -55   47   19   12  -26  -37  -21  -16   31    8    2  -37   11   12   54  -18  -41   -6  -18   12  -19    1   -2   -1  -11  -16  -26  -13  -15   -6  -19  -45    8   46   27  -55    3  -40   15   13  -45   21   14  -21   42   31   18   -2    4   19   17    9  -11   19   15   34  -23   15   -3    1   10    3   27   13   -8   17   20   31   27    6   30   22  -10  -15    6   -1   -4   11   19    6   12  -62    2   18   -9  -17  -60   12  -21  -13  -10   27
   1   36   17   -8   32  -15   31  -14    7   -8   70  -23    5   -1    9   38    3   16    0  -29  -24   -1   23   21   18    1   43  -17   26  -35   10   50   45  -28  -17   21  -26    2   28  -47   22  -15  -15   29   20   -7   -8   -3  -11    3   27   -7   37  -29    6  -15  -14  -27   48   20   34  -31  -15   23   14   41  -10  -15  -37    0   11   27  -15   -7  -31  -16   13   -8   -8   21   17  -48   25  -38   51    0   24  -32  -31    9    3  -36   23    6   13   -1   27   12   14  -12   10  -79   -7   12   25  -23    9   12  -17   20   17   79   37   15  -11    9   27    9   43   27   -4   26   11   10  -12  -11   -9  -10  -22   28   14   10  -18  -26  -64  -33    7  -34  -16  -14  -19    6   15   -6  -14   14    8   34  -10    8    8   11   26  -26    2   34  -28  -51   -8  -16    0   -1   -8    5   11   -2   -8   15  -53   19  -11   -5   15   14   -3    6   12  -30   -1   89   -1   24   25  -33   -4   19   -2   18   22  -10  -36  -16
  20    8    8   43  -48   -8   17  -32  -60   32   -5  -61   -4  -12    3    6   -5   24  -17  -38   29  -22   28  -10   -8    9   50   81   37    9   -3  -30  -24   17    8    8   -9   16    4   41   39   28   12  -30  -15  -32  -48  -21  -29   -3   12  -36   14   20   23   16   17   38  -13  -10  -12   23   13  -28  -26   15  -19   55  -24   43   19  -11  -26   31  -40    9  -25  -23  -69  -23    1   32  -19   19  -13   15   -3    0  -29   25  -34  -40   19   19  -18  -15   21  -19  -13   -8   49  -45  -42  -10   38  -33   -9   18   24  -23   -3  -30    3   -6    1  -11  -30    6   -8   -1  -30   23   -1   21  -15   11  -13   -9  -16   27    9   34  -16    0  -10   23  -42   11    0  -21    7    4   -4  -42   10    0  -31  -32    3   18    5  -50  -14  -15   -1  -17  -11   11   35   61   -6   66    5   -7    5   49  -32   -7  -12   11   -6    4  -11  -25   -1    5   -3  -12    3   79  -10   12    3   31    9    7   61    4  -14   -5    4   21
  18   25  -13   -1   51  -14   22   10  -28   12    8   42    8   16    8   -8   17  -35   28  -24   32    1   13  -20   10   -1  -30   -1   34    7  -24   49  -21   20  -43  -12   -6   17  -19   37    6  -13  -10   34   20   -7    7   39  -44   38   -3   -3    2    8   -9   10  -14   25  -37   -4  -26   -1  -11  -16   39  -24   43   18   -5  -34   18    9   38  -23   -4  -17   17   14  -32  -30  -67  -12   56  -29   21   11   36  -17  -36  -36    6  -10  -10    0   11    7   18   -5  -10   25  -22   20   20  -17   -3    5   39  -15   15   26  -32    3  -12   30   26   -9   -5  -50    1  -20   49   30  -25   16   56   49  -14   27    2  -10   11    7   -3   15  -52  -27   -2   24   11  -22   38    3   11   13  -13   30   15   40   13   16   25  -20   12    0   -5   -8    9   36   18  -22   44   -5   -5  -42   10  -27  -18   -7   -4   -4    2   27   17  -38    5    3  -22   46   33  -36   48   22  -18   57   16    7   17   28   -4   23   17  -22
 -58  -25    2   -5  -58  -15   -2   16   25  -32    0  -49   -4   11  -46    2    4    4    8  -46   23   23   43  -49  -24  -37   24   17    7   -4  -29   -4   -5   11  -34   36   -1   -3  -33   -1  -20  -32  -15   34   19    1   -6    0  -42   31   26    4   19  -47  -22   19  -14  -52    3  -28    0  -19   27  -21  -13  -10  -14  -35   16  -11   68   39   -5   32   45   13  -13   22   -5   28  -15   37   36  -23   -1   -3  -11   -1   12   14    3  -66   14   32   41  -11  -16   -7  -27   14   12  -44  -13  -30   10   -8   48    4   58    1   10   14    1   -8   36    7  -20   -8   27   -7   -8  -12   -6  -30   -1   -1    2  -15    0   27  -61   24   16   -1  -12   45    9   33  -35    8   19   15  -12   15   35  -15  -78  -21   23    8   -4   25   -7   -9  -65   28   14   15  -19   12   34  -10   -5  -31  -24  -46   47   -7   -6   -2    5   -6  -10   27  -10   62  -12  -11   23   -2   17   22   -1   14  -11  -12  -13    3   37   12    2   21
  17    6    1   47  -11   25   19    1   28  -16   16  -45   17   18  -26    9  -12   32  -77   13   -7   44  -10   26  -16   -9   62  -21   28  -23   50   20    1  -45  -15    4   22    8   21   -8   -4   17   63   -6  -18  -31  -31   59   25   -7  -25  -31   14  -66   -2  -27   -3   28   19  -18  -30    3  -12   22  -36    0  -23   -6    0  -25  -32  -16  -46  -27   17   -4   25   -9    1    6    8   -3  -35    6   -4   -3  -13   57   27   71   31   -5  -18   10  -12    9  -24  -21  -38   18   24   35   -9  -42  -20  -28    8   17  -37   23  -28   19   -1   -5  -18  -18   19  -29   -1  -40   31   33   -2   -3   12   23  -17  -35    3  -40   25    8   11   34  -17  -32   11   -4    4  -22   19    1    2    3   35  -24   30    3  -30   -4  -15   24   -1  -34  -41  -24   -3  -13    2    1  -33   11  -12  -10   -2  -34   52  -60    2   -5  -10  -21   -6  -30  -28  -40   18   19  -27    8  -17  -11  -16    1   -2  -16   20   -8  -16   -4    7  -34
  34  -38  -23    9   71   10    6  -23   37  -44  -22  -32  -11    6   -4    5    5  -50  -12    6  -46   21    3  -33  -19   16    8  -21  -16  -20  -41  -27   -9   -7   -3  -50   39   -2   -5   -7   17    7   27  -58   41    5  -20   13   -5  -51   50  -30  -26   -3   33  -27    8   12  -62  -26   -8   53   -7    0  -19   44  -21    7  -15   -2   -7    8   21   -4  -12  -34    3  -32   11  -15  -47   13  -75  -19   23   36   14   26   -3   40  -28  -56   41  -30   65   11   29   46    6   -8   26  -12    6   28  -12   -3   -6  -68   28  -43   21   67   35  -19  -27   -8   30  -11   27   -6    2  -33   40   32  -21  -17  -10   16    9  -42  -26  -14    2  -42   -4   -9   41   31  -35  -22   18   30   11  -21   28   -8  -11   26   38  -47  -15  -34   28   10  -37  -11  -19   44    0   15   -9   18  -40  -22   -9    5   11  -26  -45   21   16   43    9   33    7  -17  -16   -5   -1  -22   46   -8  -19   13   26   12   -6   30  -16   -2  -30   23
  -9   39    2   54   20   23  -28  -22   16   17   15  -22  -10  -34  -16    6   -7   19   36  -10  -55  -17  -11  -51    0   -3   -9  -24   18    1    2    8   23    2  -21  -17   12   62   -4   12  -12  -18  -66   -3   15  -11   33  -31    2   16   -3  -31  -32  -26    5   -5   21    9   -1  -13  -23  -24  -27  -19   45   35   -8   -4  -26    1  -10    6    1   17   25   19  -13  -21   22  -40  -44    7    0   25  -31   -9    6    1   -5   17  -21    0   -3   11    0   18   -7    0  -29  -35   23  -27   16   14  -19   57   13  -32  -41  -13  -10   13   64  -15    5  -18   13  -10  -25  -30   -5   -7   50  -10    8   -3    6  -40  -27   22   28   16  -20   31   -3   28   18  -47   28    6   -8  -12    2   51   46   -1  -55    1   -6    7  -20   -4   10  -26    5  -10    3   19  -19  -65   29   65   24   15  -19  -17  -11  -32    9  -16   11   24    2    2    7    5  -25  -33  -16   14   43    3  -24  -20    1   -9    0    6    0   -5  -27   -7
   1   -7  -10   -2  -20   35    9    2    4    3   10    2   35   -6   19    6    7   67    8  -37   14    5  -29  -15  -11  -10  -20   20  -15  -18    6  -57    8   -5   40  -30   24   22  -24   39   30  -36    6   30   26   -1  -19    8    3  -12   -2    2   -5   18   27   -5   27  -26    6   -9  -48    0    1  -34   -8    6  -11    2  -17   -5   42   26  -12   14  -10    5   -2  -32   14   -1   39   17   -6  -15  -66   32   18    6    6   17  -13   24   37  -54  -19  -25    0  -32   -6  -44   42   -3   10   15   34   -5  -12  -38    1  -26   -7  -21  -46   34   35   21    7    9   -2  -35   10   17  -12  -23  -16    5   15  -43    0    9   -2   -5   51   37   17    1   -9    6   12  -17  -20    4    2  -17   22    6  -32  -57   -5  -43    1    8   23   27   27  -10  -16   11  -13   19  -36   27    7  -40   23  -53  -31  -13  -50  -23   20    1    6   25  -16   20    4    7    2  -36   -4   27   -2   22   75   19   -6   17   19   54   40  -10
   2   -7   16   52  -39   12    5   -9  -17   19   13   14    2   32    2  -29   16   -1   12   53    1   -4    2  -45  -10    5   -2   47   25    2   13  -33   29  -13  -24    2  -20   28    6  -60    2   -9   27  -34   -2  -16  -45   43  -17  -93   -4    1  -26   34   -4   22    5    9    5  -14   11   -5   -2  -15   22  -38   24   10    9   18  -13    9  -22  -25   12   -8   18  -29  -17  -46   -1   38  -38   22  -18    3   22  -16  -34   -8   -6   -3  -22  -12    7    9  -15    2    8  -11   14  -33  -23   -3  -14    4   -5   56   13   -6    4    7   49   39   16   12    4    0   -6   19   33   -2    7  -10   37   -2   24   -1   -9   -9   29    2   40   -8   -4  -38  -23  -17  -27   13  -10  -12    2  -21   10  -26   17   10  -23    6   -1   36   -7   -9    4  -24   27   18  -16   -8    6   43   40  -50    1    4   49   15    4  -20   -8   50   -5    3    4  -24   -2    3  -26   25   33   18   -1   -4  -35   -1   13   -3   10    8   44    8
   8   59    0   24   35   14    5   41   44   41   14   38  -29   26  -22   -8   -3   14  -22  -24   53   -4  -39   36    1   20  -11   54  -19   10   -4   16  -17   51  -46   -9    6    2  -21  -13  -16  -31    7   20   22   -6   30   35   -5  -25  -12   41  -20   39  -14  -23   19   13  -27   -6    6  -34  -40   24  -45   -7  -52  -25   73  -16   24   31    5    9  -39    5   26   28  -33   43    7   19   -7  -16  -35   15   -7   -4   29   46  -18   32   13   45    9   15    6  -13   44  -42    3  -27   36   -9  -12  -40  -27  -41   35    5  -23   12   -8   -7   18   -8    8   50  -15   34   -9    9  -39   16  -25   66   41  -19   -8    6  -19   17  -13  -23    8  -15   15  -26  -38    8  -32    4   23   16  -37  -26  -47  -12    9  -36   46   27  -51   69   30  -50   28   38    9   -8  -12   13  -20  -22  -40  -59   -4   26  -27  -40   -4   18   30  -48   -5   22   -1  -16   14   17   -5   13   13    7  -14  -16  -55  -13  -65  -14   -1    8
   5  -13  -25   48   13   42  -20  -22  -21    6  -14  -10    4    0    8  -27   39   -5  -43   -5  -27  -30   13   -5   -8  -21   33   -7  -12   31  -16   20   35   -2   -5   41   57    7   25  -61   24   -8   27    8  -13    4  -24   -8  -22   -9   28   -9    0   11   31    5   13  -57   29    5  -33   -4   33  -15  -23   -5   46  -32  -14    5  -35  -13  -32  -40   71    2    1   13  -42   11   20   23   -3  -27   19   17   17   12   -9   11    6   47   58  -28    8  -20  -36  -20  -32   13    6  -37   36   29  -10  -25  -18  -46  -40   -5   36  -85   26    5   -3    2   13  -35  -30    3    4  -15    7  -51    4   -2   59   -7   27   -7  -45   -5   42   43  -13    5   32   -8   13   18  -38    2  -29   25   10    5   18   11   35    0   19    8  -19   70   45  -47    2   26  -47    3   -5   24  -25   34   39  -24   -9    2  -10  -19  -14  -32    1   42   60  -34  -24  -23  -53   14   16   24   -3   10   38    7   28  -19   60    1  -44    5
 -14   18   59   14   23   -2    0   16   23   10   -9   -1    5  -17   15   -9   18   21    5   29    4  -28  -19  -44   -7   -2   -3   52   21  -27    5   14  -17   41   14   22   28   25   57   15   -7   35   13  -52  -43   -3   22  -48    0   -4   15  -19   33  -33   -8  -23   15   -1   25   10   29   33  -19  -34   42    2    4   22    9  -17   17    4   19    7   26   35   16   17   -2   39   11   45   10  -17   42  -22  -38   22   22   -9   -4   17  -16   12   25   26  -18   11  -12   16   78   37  -18   -7  -12  -35   18  -28  -24  -12   -1    0   37   25    7    9    3    3   -9   -5  -29  -13  -17  -25   -7    5   12    3  -24   13  -28   18   38   15   32  -20  -11   -3   -2   19   24  -11    7   38    9  -29  -33   13   -6   38   -6  -23    9  -22   40   43  -34  -53  -48    2   12    6   -2   42   35  -12   31   27  -50  -32  -45    8   20   -5    4  -45  -25   32  -14  -51  -28  -10   15   14    9   14   14   12   -9  -38  -36   14
  -5  -31   19    6  -14  -31   16   34   16   -9   11  -15   -2   18    3  -65    7  -39    0   16   16    8   -8    2  -37    0  -22   11   24   54  -10   29  -30   33    8    3  -19    9    1   24    1  -11  -19  -32   26  -13   -6  -12   39  -51   17  -56   34    2   -2   47   27   -5   64    6  -18  -15   14   16    3   28   -3    5  -13   12   34   33   25  -41  -37   13  -16   34  -16   -1   49  -14  -16  -19  -40   -8  -22  -29  -10  -15    3   27   12  -18   -4  -22   -7   -5   21   -6    0   -6   17   24    1   28  -19   19  -60   36   -4   27  -12    3   -7  -17  -19   28   12   21   -8   31   -6  -10  -11  -22  -22   51  -29   -9   65   -4  -33   -6   -4  -13  -26    8   13   -3    5    9   -1   10   32   -1  -27   60   -8   -7   21   10  -16    0    9  -20  -39   26    7   -9   12    1    1  -25   -1    7    3  -73   14  -12   37    5   -5   11   10    9  -15  -46    1   -8   24  -18   -3  -10   -6   18   -5   -2   -1  -14    3    3
  21   -7  -19  -34  -36   -6  -11   24   31   15  -16  -17  -23    9    1  -13   -5   41    2   82  -22   28   19   23  -22    7   11  -16  -66    5   33  -22  -24   36    7  -30  -40  -46   14    7    8   -7    9  -24  -63   24   32  -39    6  -26  -29  -18  -18  -25   -7    2    0   11  -28   -7  -59   -9  -62  -13    4    8   55  -13   12  -22  -52   12    7   34   30    0   -1    4   31  -44  -37   -2   20  -25    8    6  -16   35  -17   -7   -1   -1   20   40   36  -10   10  -33   20  -26    7  -32  -22   14   52   26   20   22   -7   14  -26    7    0  -32  -12  -20  -15  -19    9   14    4   44    8    5   23  -33  -11  -36    1    0   56  -16    0  -28   -4   31   18  -28  -43   28    5   15   -1  -27   -5  -22   -2  -18  -11   20   53   17   -2   -5  -31    3  -26   36    1   24  -33  -29   32  -14   34   19  -42  -36   24  -46  -56  -30   41  -50   -3  -34    1  -18   11    8   26   27   20   40   18    9  -22   15  -67   32    3  -20
  11  -11    1  -14  -14   -1   19   -7   17  -42    0  -37  -12   -9   10  -10    5   10  -20   33   29    9    4   11  -35   32   25  -24    2  -35  -25  -23   24  -55   11   35   39  -22  -45   68  -19  -26   25   24   -3   22  -11 -106   11    2  -16   12    9  -41   22  -15   14   12    3   49   -5  -45  -12   79   -1    5   39  -10  -21   32   -2   -2  -44    7  -25   25   -3  -11  -34  -14  -15  -54  -42   -5    1  -12   55    8  -35  -14    7  -25    1  -22   24   21   -4   -3   33  -52   14   46   17   -6  -53   68   32  -24   28   25  -13  -27   -3   23   -4   -1  -16    2   -8  -12   47   13  -31    5   14   -7   -8  -29   -8   -1  -29   -6   -9   26  -42  -16    7  -32  -45   11  -32   14  -12   -2   27  -22  -26  -19   22   35  -46  -37  -32  -27  -39  -22   -8   17   18   22   -1    1   14    9    0   10  -28  -19   -9   13    8  -24   -6   24   -4    0    8   18  -35  -51   -8  -33  -49    2   11  -18   31   15   -2   29    4  -11
 -32  -28   56   18  -16  -23   42   13   49  -25   10   -1  -46  -22   28   23    4  -23   15  -52   25   36    2   30  -11   12   35   21  -19   31  -26  -13   16  -27   16  -29   15    8   27  -59  -10    0   18   -1   34  -27  -13    8   34   30  -16   37  -39   -8  -11    1   39   -2  -29  -10  -22    1   35   24   12  -27   39   19  -12    9   26   35  -50   21   13   16  -29   16   39  -17   13  -18   -4   -8   -1  -26    8   11   -3   -4   33   29  -32   -2   40  -37  -27   -4   37   50  -22   17  -69    6  -14   18    8   29   33   -4  -14   19    0   21   39   13   -2   16   13  -10   41  -37   -4   -3   30    2   -2   36  -10  -18  -19    8   18   26   15  -21   16    6   -1  -28   18   22    7   24    3   -8   24   25  -22   -2  -60   12  -16   -6   -1  -14   43   49  -40   -1  -38   31   23   48  -68  -19  -18   -8  -28  -24  -27    2   -9    7   23    8  -21   19  -42   45  -25   25   -3    8  -12  -23   -6   32   21  -31  -60   13
  19   41   19  -37  -34   52    6   16    3   56  -30  -37   22    7   22    2    8   33    6   -4   21   27    0   15    0    3   18    5   -9   26   -3   28   -6  -22    1    7   44  -49    5   -7    5  -31  -14   17   15    5   21  -15  -34   27    8  -32   68   38    4   10    2    3  -13  -12  -10    7   18   94   38  -29   -3  -14    8  -17   -9    2   44    3   36    5   -9    3   29   -4  -24  -70   -7   16   -3   12   28   32   37  -11   61   -8  -11    2   36   -7   -3   16    8  -46   32  -49   43  -14  -51  -52    8   29   23   33   53   20   -3  -23    8  -24   63  -23   10  -54   52  -32  -22    1    8   20   45  -59    7  -65  -10   16   25  -20    5  -17  -66   33   55  -16    5  -35   -9   19   23  -12    2  -30   30  -27  -18    5  -30    0  -17   -5  -47   -1   21  -33  -20  -45   -9  -31    8   24   19   14   15  -35   14   18   10  -20    2  -11    3   21  -20   13    6   20   30    5  -17   52   20  -24  -23   11  -30   12
  19    2    8  -30   16   -7   12    7    3   13   -8    6   24   34   -1   17  -14    9   23   34    9   -4   27  -50    4   -7    2   44  -15   27   36   10    3  -21   33   79   12  -38   14   52   -2  -14   -2  -29  -28  -40    7    4  -17  -12    2   36  -19   -3   25    2    5   17  -29  -22   16  -35   -7  -20   20   48  -32   46   33   31   43    6  -14   21  -22  -22  -48  -17    8    7   56   43  -23  -28    4    0  -21  -49   14  -17    0  -40   11  -32   -6  -38  -19   -3  -23  -11   26   30  -13   28    4  -15   23   21   29   -4   10  -42  -14   12   18   11   -2   11   23   20   -6   25    6    0   30    4    8   41  -27    3    6   -2    2  -10   18   10  -47    0  -10  -21    6  -43   21    8   18   -7   25    7   12   18  -21  -25   28  -12  -40   -7  -28   78   -9   24    2  -19    9  -46  -13  -38   35  -56  -29    6  -16  -18  -36   -9   -4   33   20   15   22  -64   33   28   12    0  -17   17   15   -6    3   25  -29   -3
 -34   26   16    5   35   13   36   -1   37   24   40  -50   -7  -17   81  -17   15  -25   24  -12    4   10  -14  -26   24    9   52  -25  -28   31  -32  -11   -3    2  -10   14    3  -26  -39   -4   -7   11   39   12   47  -26  -15  -25  -16   46   16   17    0   37  -34   13    0  -29   -5   10   -5   49    1  -21    4   29   33  -12    4    9   21    3  -39  -36  -42  -16   -9    6   19  -55   -8   36   22  -22   -3   38   45   16  -54   51   -3  -20  -40  -13  -69    1   49   20   40   22  -40  -31   15   45   20   13  -37  -24  -25   36  -16   56  -13   32  -36  -23   11   -4  -16  -29    6    6   20    0    4   19    2   19   16   68   -1  -27  -19  -20  -56    4  -31   -3  -12   17  -27  -22    9  -11    5  -69  -39   13   -2   -3    9   -7  -39  -16   11   22   21   -3   -7  -32   -5   40    1   -7   23   23    4  -38   21  -31   13   24   11    8    5   -3  -20   55  -10  -10   12  -16  -47   -2    1    9  -58   -8    1   67  -10    9
  10   20  -14   -7    0    4  -44  -11   15    7    4  -17  -19   10   -1  -18   -2   60    8  -81    1   31  -17  -21   17   26   13  -14   -5    9   -7   29  -19    9   41   18  -12    6   -6  -28   15   20   31   -5    9   22  -24  -23   34    0   10  -31  -33   23    4   22   29   21  -31    3  -28   23  -19   -4   -1  -15   18  -12  -26   -2   10  -16  -28   47    4   10    0    5  -16   20  -10   15  -22  -20  -11   18   -4   -9  -49    2   -1  -32   14   -3   73   -2   25  -21   21   -3   20   -3   -9   45   -2   -5   26    1   13  -33  -35  -25   -2   21   38  -35  -31  -10   12  -11    5   -3   19  -24    1  -21  -36   -7  -13   10   39  -15    6   37  -42  -19    6    8  -13   27  -18   -3  -11  -12  -17   30   -2   -9   -6  -27    3   -6  -19  -29  -16   21    7  -36   22  -12   38   21  -12   -9  -27  -21   39   -4   -3  -14   -7   22  -10  -20    1    5   11   -6   26   62   31  -41    9   27   17   11   -7  -17  -17  -25   45   -6
  41  -28   17  -11  -28   39   -4   54    7  -12   -7   28  -18    7   -2    9  -18   38  -32   15  -18   21  -55    9   23   15   26  -32  -20   -6  -18  -35   -6   -9   73  -30    7  -10   -4    0   37   24   24    4   17   13    8   29  -15   18  111    0  -21   19   17   24   -4   -7  -15   29  -30   22   15  -11    7   -5    7  -12  -13   18   18   40  -37  -21   32    4    5    4  -45  -33  -23    6   36    6  -20   -1  -25   -2  -19    0   15   24   69   34  -37   14   39   28   20   36   70   -2  -27   25   16    5  -11   20  -29   21   64    3   50    6   -7   -7   24   -1    4  -37   -9    7   29  -35   27  -54    3  -42  -50  -20   41    2  -10   16    1    5    5   28  -20   11   57   42   30   40   -5    8  -89  -58   14   50  -27    0  -10   -6    8   19   18  -29    2   28  -28   -3   25  -40  -19   74    1    8   -7    9   16   39  -15   57   41   -6    2    5  -10  -42   -2   10  -39   -8   13   26  -35   38   44   93  -10    3
   8   16   35   -2   -6   23   34   19   40  -33   -4   25   -6   -4   23    9   20  -26  -14  -26    8   12   10  -66   11    8   -7  -17  -44   44    1   31    6  -15  -12  -44   40  -31   -3    5    0  -27  -10   54   24   18   12    1   25    1   22   41  -40  -12  -24    5  -15  -18    8   50   20    1   -5  -28   -2   12    5   30   20  -10  -15   61  -26  -65  -22   31   -2  -68  -42  -12  -21   55   -3   24   21   42   16  -36   16   31   15   22  -10  -51    9    4  -14   29   13    8   -3  -35  -21   -2    3  -11    7   -1  -17   12  -11  -33  -51  -53  -31   28   21    7   -7  -20   15    4   -3  -16  -11   48  -33   -8   12  -36   15   15  -56   12   36  -26   15   31   31    3    6    5   19   46  -14  -24   -4  -39   17  -12  -19  -12   -8    3   25   10    1   12   46  -24    0  -44    3  -33   34   -6   43    2    6   20  -24  -17    9  -25  -11   20   15  -39  -66   -4   -2    0   17   -8  -40    2   40  -18   14   18  -61   -1
   3  -30  -26    3  -35    5  -22  -34   74  -51  -11   -9  -26   15   -3   -3   10  -11   10  -37    8   33   14    9    7   -4  -12  -14   -1  -39   -8  -60    6  -10  -22   -9   26   37   -5    1   -9   30  -26  -16   -9  -10    3  -32   23   -1   24  -41   -9   -8    6  -14    4    5   19   11   -2   25  -16   11   53  -40  -37   -4   -6   -2   46   44    1  -29  -13   -9  -28  -11    3   23    5  -47  -28   -4  -42  -15  -26   -6   10  -60    6   -8   18    8  -31  -26  -43    7  -29  -15   38  -25   31  -27  -15  -16  -26   19    7    6  -19   15    5   49   24   24   -7    2   43   -7   17  -13    0   30   10    4    4   -4   11   29  -22   31   11    8   23   -8   64   36  -12   13  -10   -9  -11   23   20   -7  -30    4   30   47   25   24    8   -1   16   10   -5  -46   13   30   -8    7  -17  -37   33   30  -31   40  -26    9   18   18   10   12   20   -4  -28   23   25   -1    0   -6    6  -20   22  -21   32    2   -5   25  -37    8
   9    1  -11    2  -28   -4    6    0  -34   -9   -2   21  -77    8  -29   20   -2   24   24  -18   -6    9  -49  -37  -31   -9  -41   17   29   -3   -5   30   10  -32   26   -1  -20   -2  -12    0  -14    8   18   11   37   12  -66   14  -13   47  -40    5  -22    6   -8  -12    6   13   17  -22   11   12   36  -25   26   26  -19   -9    1   27   14   11   34  -12    3  -14   -9  -12   19   28   -5   -2   -8   24   64  -10   -6  -33  -16  -31    5  -18  -42   24   16    0   11   38  -30   -2   -9    3   21   -3   11    2   15  -15  -10   21  -49  -30   41  -30   -7  -13  -11   10  -15   23  -13    3  -17   12    6   -5   19  -28   -2    0  -20   32  -53    9  -46  -11   20   27  -30   12    8   -5    8  -26  -19    1  -21  -29   25  -31   -6  -66  -22   43   26   -2  -69    6   -9   25   18   12  -24  -25    8  -40  -10   21   12   24  -32   31  -48  -31   41    1  -30  -25  -19   26   19   24  -21    1  -41  -51   39   10    5    4  -15   15
  -3    1  -49   -5   -4  -25  -12  -13   29   -3  -35   12    9  -13  -29   30  -29   17    5    7    8   20   16    3   -1   -3   -1  -31   19   12   -6    5   -9  -22  -10   38    2  -35   -2  -19    7   -8   -3  -22   -7   21  -19   -5   22   20    6   14   -6   -7   -2  -21  -21   38  -21  -12  -12  -14  -18   -3   25    8  -21   -3   16  -10    7   27  -19   32    9    6   10    9  -51  -14  -14   15  -13   10   18   24   19   -4   21    7  -13    9    3  -21  -10  -21    5  -21  -55   16   -3  -10    7    0   -3    4   26   11  -30    8   22   38  -18  -19   17    0   12  -24   44  -54   13  -11  -28    0   15  -18    5   30  -25  -31  -21   -8   14   18  -11   11    4    1   33   21  -20   19   10   -8  -26  -21    1   20   31   13  -64  -15  -11  -10  -15  -22   -8   17  -15  -42    2  -16  -16   -4    4  -18  -12   -6   26    6  -30    4    3  -10   -1  -14   35   19  -23   -2    6   33    4   -5   14   12   24   12   -7   45   23  -11
  10   11  -39  -42  -38  -25    9  -31    1   -7  -10  -16  -39  -14   25   17    9    8  -19   -6    5    7  -23  -23   14  -32   53  -14   -1   26   -6   11   36   -9  -17  -24  -39  -22  -25  -87   -5    0   -3 -100   -8   -9   24  -69  -38    8  -17  -27   23    8  -14   26    4    3    6    3    9    9    6  -27  -32   37   22  -10  -30   15   53   26  -27   -7  -16  -34  -24   34   26   -8   36    1   28   10   10   -7   10  -51   -4    3  -70  -18  -42  -38  -19   12  -34   16  -17  -13    6   22   38   14  -18   15   17   -5   -7  -17    5  -25  -26   43   12    0   20    8    9    0   -6  -24   -3   11  -14   -6    2  -10   -1    4    7  -12   -9   24  -11    8  -64  -14   -2  -10  -33  -27   32    9    0   13  -33  -14   34  -15    0  -16   25  -10   -7   -8   12   21   -2   33   28  -50   -4    9   24  -29  -27  -48   35   28   -7  -29  -16  -19  -15   24    6  -18   47  -21   21   18   -9   26  -21    4   40  -18    9   19  -15   13
 -36   14   64   25  -39  -16   10   19   -6    7   -9   53    7   15   -6  -18  -18   -3  -12  -12   27  -15   22    3   39   25   23    1    4   10   -5   -1   26   13  -29   36   30   24   -4  -73  -22    6  -21  -23   26    7   26   -8   74    2  -25   27   22    3    5  -25   23  -14  -34   48   15  -15   14   -1  -48  -11    5   -7   -9   -8  -22  -18  -21  -13    0    0    0  -18   10   14  -26  -19  -15   -9   29  -14  -31   12   -7  -13  -36   32  -35   -7   15  -12   27    7   24  -17  -22   -8  -23  -13    1   47   21  -88   28   15    4   22  -22  -34   -8   19    8   23  -21   -3   14  -47    5  -11   49  -36  -30   -2  -22  -41  -33   -9  -14   29   51   22    2   27    0  -26   -5   -5   -4    6    5   27  -36  -26  -29   50   -4   11  -33    3   12    8  -61   13   -2  -19  -13   11   30  -17   -5    2  -43   48   46   -9   11   33  -23   -9  -20   -4   17   49   30  -32   15   -2   -9   30  -14  -19  -29   -1    5  -33   -8    8
 -67   -9  -23   -5  -37   -4    3  -12  -17  -29  -14   51   76   21  -19  -43    1   15   21   -6   -3  -39    3    8   27  -10    4   20   -2    4    1   12   -6   -4   -9  -31   39   -4   -4   34   41   -5   10   15   18   -8    0   35  -20   18   16    9  -53  -25   29    9   15  -20  -48    2    5    4    2  -12    1   11   37   22   37   28  -20  -11   12  -28   10    2   18    7   17    7   12    2  -12  -30    2    1   27    5    6  -11   11  -38  -17   20    4  -22  -26  -43   14  -34    4  -65    1    8   -5  -15    2   17   55   -7    6   -6    9   10   16  -22   22   -3  -31   21   16   -5   -9  -21    4  -18  -75   -1    0  -17  -12   19  -12  -10    2  -30  -80    6    5  -10  -10   -8   -4   25  -28    8   -6   -1    5  -13  -36   -9  -23   35  -15  -14   10   34   19  -38   22  -31  -14    3   -7  -16  -18   18   17  -25   30   -2  -11   16  -41    1   15   -2   31   -1   18  -54   13  -34  -40   42    9  -14   20  -26  -34    0
 -53  -60  -21  -67  -33   -5   31   18   11  -12  -18   19   25   28   14  -52   14  -21   20   26    3  -29  -16   16  -37   18  -26   25  -25  -57   -3   23    8   13  -31   59   48  -48  -27  -40   -2  -10   11   15   69   14   -1   17  -24  -15  -14    7    6   32  -29  -26   49  -34    3   11   15  -10  -29   -6   15   46   30  -25  -42  -10  -23   23   32   -6    3  -30   34   -8   -8    6  -22  -13   15   40   24  -23   64   20   19  -35   31  -18    3    5  -18   36  -17  -44   74  -24   -6  -11   -9  -32   54  -21   20  -25   14   50   -5  -17  -51   -1   -6   26  -16   26   -9   17   35   -9   -1   11  -18   20  -14   15    1  -48   27   -3   38    9   -6    7    7   19  -24   -9  -15   17   -9   17    4   15  -22   -5   28    7   17   48    3    7  -19   46    2  -15  -32   21    6  -48  -33   32   47  -38    0   18  -15   -9  -18    8   10    3  -15  -23   -5  -35  -15   28  -51   -7   19   49   13   -9   14   10   13  -20   23   31
 -14   12  -43  -10  -39    5   22  -19   25  -17  -19   17   21    5   -8   -6   -9    3   -6   20    9  -16   12  -37   10   19  -29  -28    2    4   24  -31   12  -25   -7  -14   34    4    6  -27  -20   30   12  -19  -18  -12   23   10   33  -12  -24   20  -23  -32    0   -8   18   -1   33  -22   21   33   32  -35   10  -22   -5   13  -17   16  -33   11  -24  -27   -1  -48    9   58  -56   -5    8   28  -20    1  -22   36  -19    1   14  -33  -16   -8  -32  -36   40   10    4   23   -3  -55  -33  -36   16    9   11  -13  -69   -5  -26  -21  -13   32  -11    8    9    5   19    7  -16  -11  -33    5   -2   -7  -32   -8    0  -11   23    4  -10  -27    1    0   34   12    0  -25   20  -28  -25   18    3   -1  -17  -11    5  -25  -12    1  -14   25  -15   15   44  -32  -24   -9   28  -14   -7   33   24   18   29   18  -12    0   13  -43   47  -12   -1    8    2   15  -20  -25  -14  -47  -20   -8    6  -21   -6    7   -7   41  -21   27   -3   24
  69   11   56  -33   16    4   34   49   -4  -16    2   38  -43   18   -4  -28   32   -3   17   -4   37  -14   33   17   23    1    8   -1  -12  -10    3  -32    3   -6  -12   31   54   -6  -54   12   -8   17    6   46   27    1   15   20   -4  -18    4   55   39   10   47   38   23   30  -19   27   50   23  -21  -11    1   37    4   -7  -20    1   28  -11   -3   -6    1  -21   -6   38   14  -25  -29  -10   -4    4  -17    0  -27  -12    1  -23   34    8   41  -23    6    9  -20  -18   31    6   38   20  -42  -15    1   48   12   20   10   20  -35   -6   49   -2  -15   24    4   35  -33   16    2  -46   -2  -13   45   31  -12  -26   19    5  -15    8  -67  -15    7   13   53   22  -53  -17  -19    2  -10   35  -26   40  -16   -2   24  -14  -55   -8  -62  -23  -13    6    9  -13   55  -46   26  -14   46   39  -33   -6   21   -5   -5   28   42    2   -3  -10  -19    2   -2  -17    4   29   16  -31   16  -17    3  -27   37   13   -6   39  -50    8
 -10  -29    0  -26   22    8   -9   26   -4  -28   17   10   12    7  -30   12    5    3   13  -30   17    0    0   26  -23   45  -16  -13    9   -5  -11    7  -15   15  -33   14  -67   -3   48   34   17    5   29   57  -20  -35   37  -49   17  -47   33   -6   -5   -1  -18   -2  -61  -49  -26   31  -48   21    7   28  -34  -25   44  -18    9    7  -12   27  -15   -1   -8   32   26   -8   -2   14  -37  -29   68   29   -1  -22    4  -14    9  -79   -1  -24    8   -7   39   29  -19   22   32   49    5   12   -1   12  -10  -23   -8  -11   54   16   35   22  -16  -24   -8   49   34   17  -32   67   22   27  -19  -23   46   26   -9  -21    5   39   -2  -34   27  -25   23  -22  -15  -14  -22   -3   17   -6   15   23   34    2  -25  -15  -39  -59  -18   30   23   11   -6  -10  -45   37  -25  -29   -7  -20   16   25  -67   10  -18    7    1   27  -20  -21   20   29    0    8   11    9   39   17  -14   17   17   -4  -13   13  -16  -10   38  -26  -20   48
  13   15   25    1   31  -10   35   -1   42  -23  -14   25   31  -15  -22  -14  -37  -17   21   13  -16    8  -29   29   34  -24    1    1   -7   34   36  -14    7  -18   13  -47   19   -5   19   40  -12  -29  -10    6  -27   20  -59   18  -37    2    6  -16   24  -36   -6  -17  -31   30  -11    8    9  -26   25  -34  -28  -16  -15   12   18  -18  -27    5   -9   -3  -41   34  -11   33   42   17   26   12  -42   31  -16   23   33   11  -13    4   -4   27   20  -24   27   22   12   20  -16  -38   -5  -20  -15   42   30  -21  -18   -2    1  -10    8  -59    4   -8   18   -7  -15  -13  -25   -7    5    8  -18    1    4  -39    7   18  -27  -13    4   -3   54  -29    2   -1   41  -11   24    2  -28   19   14  -11  -19    2   41   79   -3    4   -9  -18  -23   19   17  -18  -28    6  -11  -33   27   -1    5   -7  -12   15  -46   21  -11  -30   -7   33   34   -2  -10  -11   19   34   -9   35   14   -9   17  -31   -3  -25  -25    3    2    7   -6   -1
  -3  -14  -14   59    4  -36   -1  -42   10    3   26  -11  -13   14   -4   36   25   -7    8   40    1   -5  -27    6   35  -19   27   -6   30  -18   26  -32   22    7   -1   46    4   60   -7   39    3   -3  -41   27  -36    7   -3  -39   12   46   -2  -52    5   56  -42   -8   13  -18   41   29  -10   16   -8   13   32   10  -22    6    8  -10   37   12    1  -30   29   47  -28  -40  -29  -28   15  -15   29   31   31    8  -22  -13  -20   29  -40   -3  -14   42   25  -26  -11    3  -53    2  -29    3    8   -2   14    4    3   41  -14   -9  -32  -35   -6   13   41  -14   15  -40  -10  -29   -6   -5    6    3   21    1  -62   10    3   37  -21   12  -13   43  -66   11   30  -20   37    3   33   46   10  -10  -12  -10  -11   16   -9  -34   51   16   14   -6   32  -25    5  -32   19   -6   -2   15   15   -5   -2  -14  -25  -18  -13  -25   -1    5    4   -9  -28   26  -13  -31   13  -83    4    2  -34  -20  -10  -25   -3   34    9   -1  -17  -21
   5   47   46    5  -28    4  -51   17   -3   65   15    4   22   18   31  -19   11  -29  -19  -14  -22   10  -15    7   12  -24   -7  -21  -50   -8   -4   58   -9   -9  -45   26   38   15  -16   14   -9   -8  -18    2  -11   -3  -14    3  -27   -4  -17    8  -14  -25   15   34   14   43  -16    8   26    6   -3  -16  -10  -20   -1  -26  -27   18   23  -31  -55   19  -38   -6  -24  -26   -5   12  -23   -6  -65    9  -44  -23    1   -9  -21  -12    2   18   19   -2   -2  -13   23  -53    8  -10  -36  -20  -28   12   12   -5  -23   10  -27    1   -8   38   40   23  -21   22  -15  -27   39   -9   13   31    6   16   20    9   31   22    2  -20  -49    8  -21  -24   20  -69  -17   27  -17  -10    1    7  -13    8    4   -9  -44   -1   27  -46   -2  -29    0   -4   12    5  -18  -32   16   10    5   11   16    0  -23    2  -12   24   46  -22   34  -11   -8  -13   13   12   -8   55  -41  -14    6   -4   21    3   25    2  -32  -11   -4    1   -7  -25
 -65   19  -21  -15  -12   18   49    5    5    8    7   31    3  -21  -19   43  -16    6  -32   23    1  -17    5  -15   -2   -3  -21   14  -14   56  -31   29   19  -78  -20  -10   27   18   18    2  -27   -1   11   -7  -24    5  -41   68  -30  -25  -11  -27    1   22  -21   -6  -40   23  -16  -24   -1  -10  -14   -1   26    8    4   14  -56   13  -13  -14   26  -23   16  -77  -24  -12  -10  -41   -3  -58  -20    2    9   -1   26   24   21  -44   32  -18  -24  -34    8   -8  -31    1  -18   77  -23  -10  -13   -1   11   18  -21  -19   -1   21  -41  -21   10  -20  -24   23  -32   -5   10  -18   16   -9   14  -35   -6  -12    4  -43   -3  -25  -50   36   -8  -10  -15    3   23   -3  -42   21  -13    1    2   15   12   61   -1   -7   21  -14  -38   -2  -26  -12   11   -4   -1   21   -2  -66  -29    1    2   17   28   -1   -5  -10  -16  -22  -22   10    3  -11   -8  -16  -15   10   20  -16   10  -34  -14    9  -22  -33   -4  -16   15   22   18  -17
 -10    7  -26  -14   13   48  -42  -28   34  -30   14   -9    0   18  -19  -22   33   -1  -41  -31  -15   -2  -10   13   25   16   10  -15    2  -11  -14   41  -10   25   -6   58  -26   -3  -35  -23  -15   11  -18  -10  -14   22   22    2   -7  -11   30    8   22  -23  -17   23   12   -7  -40  -24   42    7   10   17  -44  -38   12   17   -6    2  -17   18   -2   23   -3   -4   11   11   31  -22   -6   -8    7   29  -36   11    1    6  -35   21  -32  -25    9  -12   10  -14  -22    5   13    8   11   21   -6    7    5  -10  -17    8    8  -16   21  -22   10  -19  -17  -13    1    1    3   16  -43   46   11  -22  -10   26   45   36   19   18   21   18  -22    3   10   12   45   -1   -7  -11  -26   35   43   43  -23    9   22  -29   26   41   15   -1  -19  -37  -13  -15   -9  -30   35  -15   41   -7  -12  -29  -31   56   40  -19  -29  -25  -13  -61   14   22   50   17  -65    0   26   -7    9   11  -15   -1  -14   -2   27   26   -6   -4   87  -27
