 -31   28  -12   40   25  -13  -54   -3  -34   33  -22   34  -36   -3   10    5  -20  -36  -21    4  -25  -38   16  -10   -4   -4   33   14   17   12   11  -15    5   21  -31   21  -64    0   23    6  -19  -19    9   23   29  -14   11  -12   12  -19  -36  -24  -21    8   17   25    8   12   -7    8  -23  -25  -19  -17   35   42   12  -21    7  -15    6    6  -17   -4   -5   27    7    4   21   26   38  -29  -20   34  -20   11   -6   -1  -36   -9  -25  -25  -12   40  -17    3  -15  -23  -28   31   19  -19   -8   15  -10    7   35   -4    3   38    6  -15   -6   -3   -3    3 -102  -11    9  -30   -3  -27   -1    8  -38  -21   -1   46    3    7  -84   11   25   -1   17    5   -6   -6   41    5  -13  -14  -21  -56
  26    3  -37   28  -41  -18    7  -21   -2   16   -8  -23    4    5  -16  -32  -22   39  -50   -1  -15    9   20   13  -61   28    1    8    7  -12  -18   15   -7    3  -32   -8  -49   47  -21   29    7   14   28  -26    5    5    5  -15   -4   20  -17    7   27  -10   -6   18   14  -37   79   -6   -6   45   -4    1   27   13   -2   -1    1   26  -16  -57   61   14   15    2  -22  -12   35  -25  -33    2  -11  -12  -17    0  -56   -2  -25   14    1  -29    1   14   21    6  -15  -11   10  -18   22   -1   14  -59   27   14  -12    2    8   -9    8   32   -5  -33    4   12    0   -6   -6    4   13   -5    5  -77   -9    1    8  -26  -28  -17  -28    3   41   27  -11    2   20  -11    5    0    3  -24    9   29
  37    1   15   23   11  -21    4   26    0  -19   11   -6  -33   -3   45  -41   25  -11  -22   17   24    1  -18  -46  -27  -26    1   -3   14  -26   27   18    1  -10   38  -33   11  -56   39  -68    9   13  -23  -32  -39  -32   57   17  -10    0    8   -7   22    0   67   17   11   16   15   -4   27  -15  -20  -20   30   13  -15   -1  -17   12   -4  -21   16   25   -9  -11    9  -16   14    6   22   21   23  -46   51   15  -23   -6  -15   46   11  -23   -4  -16   27  -17    1  -15   -2    0    0   17   -3   10  -32   18  -31  -30   -6   30    2   22  -31  -25   36  -15   -6   -6   15   36    2   55  -37  -39   34   28   35    1   45   61   24    2  -12  -26   50  -10   -4    2   21  -68  -19   10  -22   -6
 -57  -14  -22    6   -8    3   59  -14  -16  -31   -7    1   -8   13  -20   10   16  -13   13   11   15   29   20  -17  -23  -22  -15   -6   48    1   24  -40  -19  -12   51   29   28   15  -79  -10  -57   16   23  -16   -7   -2  -21  -29    3    3   11   12   43   37  -21    3    8  -59    9  -16   24  -31   -6   -3    0   -6  -22   37   17  -21   13   35  -63    5   25   20  -23  -49    7    4  -23  -21    3  -11    1   25  -75  -40   44   41  -16    9   -2  -15  -57  -40    2   -9   -8   38   11  -11   33  -38  -10   -6  -35   -1   -4  -39    1   -5   13    4  -41  -45  -36   49   16  -11   17   -9  -17   12   11   30    6   35  -25  -13   -9   36   27   -8   10  -22  -29   34  -28    4   -7   20  -46   44
  14  -23  -26  -18  -24   32  -27    0   -7   -9    6  -22   -2   36   60    5   13   27  -22    9   49    9   -5  -30   -3    7  -33   35   -9  -30  -11   26   61   -1    7  -52   17  -33  -57  -23   44  -23  -36   17  -12   13   45    0    9   14   -6   29   -8   -6   23    7  -60   14    2  -14   33   -2   37   31   15  -47   34   34  -22   13  -70  -15  -43  -17  -29   19  -12  -33    6   12  -26    0   21  -17  -32   -9   34   38  -43   23   17  -20  -20  -30  -23    7  -18   -5   30    8    7   14   12  -59   40   34    9   29    6  -41  -37   -8   32  -29  -17   -1   15   17   28   45  -25   47   31    5   -8    4  -34   36    0   48  -46   10   -2   32  -22   -8   27   19  -13   51   28  -44  -57  -18
 -22    0   31   11   27    9   68  -31   38  -12   18    5   10   10    3   47   36   25   33    3   15    8   15    2   -7  -10   -6  -50  -26    8   15    4   14  -16    0    1    5    7   38    5    4  -54  -11    8  -18   12   21   41   48  -17   19    4    9  -11  -12  -29  -20   29  -29   26    2   17   14   14  -47  -10   23   22    9   -3    1  -14   -9    5   -5   24    3   37  -56   13  -23    5    8    7   12   -5    3   13  -26  -19   26    2   16    5  -17  -12  -28    6   22    0  -19   -5  -31   37   13    3   19    2  -12  -39   -9    6   72   73   -8  -10  -43    2  -13   20  -24  -10    7   16   41   10  -26    8   -1    0   13   -4  103   -3    5  -16    0   16  127  -10   19  -19   26    5
  50    2   -7  -19   11  -28   38  -43  -13   15  -25  -11   23  -15   11  -17   -1   25   -3  -21   -3    2   15   12    8   13   -8  -35    5  -40  -16   11  -20   11   10  -42   49   16   35  -34    7    1    2   36   80  -31  -59    0   -2  -40    2   28   28   -8   24   -7   17  -19    5   -3  -11   13   -3   -6    0   33  -30   17  -14  -26   11  -62    3  -34   21  -36  -23    7   -3    9  -23   -3    5   -8    2  -10   27   -9   -1    6  -44    9    7  -26   26   -3   19  -26  -16   39    2  -10   15  -16   15    1   -9   -4  -18   47    2   22    6   28    3    0   20   -5  -23   15   -3   44   -4   12  -26  -21  -15  -14    6   23  -33   -4   -5    7   38  -29   17   -2   -2  -12   10  -16  -32   31
  51  -17  -52  -40    4   -5   -6  -40  -22    3  -26   -3  -30  -17   -5   -4   97   -9    2  -37  -39   14  -10    9  -25   -5   -4    7   54   25   70  -12    0  -17  -28   -4   65    9    1    3   12  -39   -1   28  -34   39   46   -5   -4    1   44   -7   24   25  -12  -22   80  -40    9  -11  -16  -34    1   13  -24   33  -34   32   20    1    2    2    4  -21   -4  -39  -39  -56   -5  -16   30  -29  -34    5   28   16    0   -3    0   17   10   37  -28  -10  -48  -18  -23   10   -5  -29   -6  -26    4  -17    3  -35  -11  -20   -1   35   15  -14   17   13   -5   -9   -5   19  -28   14    3    9    2   13  -21  -38    0  -32   13  -32  -40   24   -3   -6   11  -32    2   20   -4  -12    0  -30   28   -7
  24  -25   11  -18   -2   22  -11    4   18  -32  -11  -56   58  -32    4   13   -4   50  -29  -54    8   11    4  -76   13  -30  -22  -20   28   14  -32  -22  -43   17   -1   20   29  -23   25   30   13  -28  -41   11   19   37   64   -8    6  -12  -10    5   13   30  -41   24    2   18   42  -19  -19   15   31   35   60  -10  -21   -3  -16   56    6   18  -32   71  -24  -45  -14   25   20    7   -8   18   27   19   32   33   31  -27   11  -25  -52  -28   20    6   -3  -24   12   13   -3   29   37    6   18  -17  -58   14  -28    1  -10  -54  -12  -29   16  -20   -9  -22  -37  -37  -13  -44   -8  -29  -24   -8   30   81   15  -40   -7    2   11    3  -16  -31   28   -9  -33  -22   -1  -16   -5  -32   -4  -20
  25   10  -34   13    9    5   65   17    2   20  -29    2   10    7   31  -40   36   22   21  -21   -7   20   45  -34  -15    8   20   18   18  -33  -43    8  -10  -21  -35    4    2  -39   18   27   24   -3   20    6   15   14   17  -37   -9   34  -46   20   22   11   -1  -28   27   17   -1  -11   -8   23   15   20  -37    4   -1  -20  -14    2  -22   26   96    0  -18  -22   19  -23   -3   38   42  -24  -18  -16  -15   35   17  -33  -36   -8  -52   36   -1   42   58   11   -7   -3  -17   44  -41  -12    7    9    7  -33   16   23  -29    9  -15   22   -7   35    7    5   31  -21   38  -11   10    4   11  -44   41    2   43   30    2   22   67    5   26   25   -4    6  -13    0   32   24    1  -29    5    6
  11    7   -7   25    8   37    7    0  -39   19   -6   -7  -20   -1   34   31   22    1    6  -34  -14  -10    3  -28    5   -2    0   10    7   51  -34  -31    3   42   10    7  -14  -30    2   -3  -23   -3    4  -25  -33  -24  -34  -30   -5    7   56  -33  -13   39    4  -21   15    1   23  -35  -35  -21   35   39  -15  -15  -23   27  -21   -3  -13   28   41   -2   -2    1   -3   12   -6  -26   31  -13   39   18  -24   32  -63    3  -27  -28  -15   -3   26   -5  -37  -12   32    8   -2   34   -8  -29   13    1   27    3   -8   28  -20   22  -25   -7  -13   14  -37   -3  -12    7  -60  -21  -49   33   15   14   15   42   11  -62   10   29    4   -7    0   18   18   -8  -41    2  -32   67   16  -41  -32  -20
   6   16  -13  -26    9    4   17  -39    8   14   13   11   -6  -12    8    0  -20   -5  -17   25   16   -4   11    2  -12   13   17   -6   21  -15  -15   20    5   -1  -14   24   30  -30  -13  -10   37  -29   24   10  -26    8   -9  -63    2  -56   23    8    9    9   -6    8  -44  -11  -25    1   -9    9   30   32    7   -8    2  -12  -45  -10   30   37  -10  -10    0  -22   12  -37   -1    5  -12   -2   -5  -25  -42  -16  -37   48   19   25    1    7    3   16   19   31    6   -2   10  -36   -7   -1   11  -35    0   -5    9   16  -21  -30   11   -8    1   12   29   24  -81  -38   16  -50   -3  -15   10  -14   45  -18    0  -18   13   15  -58   -7   21    9   -3    7   12  -14  -19   17   14    6   17   -4
  13  -34    0   -2  -46   -3   -2   32   -7  -33   -3  -37   40    6  -12   19  -26  -56  -16  -16  -33    9  -80    9  -62   21  -33   38  -37   11   -8  -15    0   16   61   20  -13  -21   -1  -52   14    8   20   21   24  -34    6  -20   16   24   12  -15   22    0   52   -6    9   38  -49   14  -11  -26   -3    0    5   30   -2  -45   -4   26   -2    2   -8  -60  -18   -2    5   12   37   11  -17   50   47   11  -28   18    7   16   28   -3  -23    3  -18  -75    2    5  -32   -5   -4   -8    9   44    4  -42   20  -26  -21  -10   26    7   -5  -10   -7  -16   15    9   -5   -1   -6  -28  -10  -22   -2   33  -27   12   20  -23   14   -6   10  -25   76   12  -11   -8  -29   21   34   12   -6   35  -15   72
 -42  -35  -39   -5   10  -12   -6  -23    3   -1  -29  -21   -2  -19   16   69   22   23  -13   46   -6  -26  -22  -11   30   -2  -37  -23   -3  -13   19   22   47   -3   38   85  -50  -30  -14  -58   21   10  -13  -21   -6  -12  -21    4    3  -61  -33   26  -28   88  -13    1   11  -19    1    0    5   -9  -31  -30   -4   11   55   -6  -11  -14  -45    7   13  -19    4   76   -8  -32   -2  -15   -1   15   19  -10   14    9   38  -36  -14   67  -16   -8   43  -61    2  -40    7  -10   39   21    5   13  -27   17    7   34   -4  -32  -12  -37   23   12  -10   12    1  -33   37   38  -13  -35    4  -70  -27  -25  -18    5  -10    5   10    6   20   39   -6    1  -20  -31    2  -18   42  -60   -1   33   40  -54
 -21  -15  -27   35    1   -3   -1   25   37  -17   12   10   32    2   29    6    2   11   13  -57    8    3  -30   18   21  -19  -17   16   37   15  -10   23  -25   -5   25   11  -15   41   30  -11   35  -21   -2   12  -14  -17   13  -14  -14   45   11   19    4    1   17  -29   10    2   -7  -24  -28   45   20   20  -30    1    0  -16   -3  -11   40  -71  -14  -23  -29   30   -2   33   -6   28   24   -7   10   14   16    2  -56    8  -28    5    3   39   14  -12   14  -10   -7   -5   10   -1  -20  -15    9   23  -19  -23    2    5    1   -9  -12  -14  -14  -23    8   -4  -26  -11   -4   -6   -8  -24    8   24   -2    0    9   -6    2   27  -24  -11  -39  -12   10  -19    8   -1  -48   -1    2   15   -3    2
 -53    0  -34  -28  -11  -12   46  -35   11    3  -13  -50  -32  -20   19  -30   -5   24   23   10  -12   25   -3  -63   21   -8   -8    0    5  -17   -3   -3    4  -23   -4    4   -6   -1   16    8   -3   -7   23   24  -12   29  -30  -18  -15   20   -8  -52   41    1  -23  -19   23   68   12    6  -35  -15  -35  -28  -35   36   36  -48  -20   60   25   -7  -22   52  -12   -4   21  -22    6   19  -23   33   20  -14  -35    1    4   33  -26    0    1   44    5   11   37  -14    2    8  -26  -36  -19   29   48  -31  -36    9   -4  -25   -9   53   -1    8   29   11   31   -5   35  -25   -7   37  -13  -50  -17   -2  -36   77   15   17   -5   17    1    7  -12    2   -5    4   32  -29  -28  -28    9   -2    6   61
 -17   32  -14  -18  -13   11   -2   53  -19   -4   -1   34  -43   10  -23    8    7   15   28   12   14  -10   30    2   27  -14   33  -13    5  -34   23  -41    3  -37   -3   18   -8  -28  -25   10  -40   -9   -1   39   46   -5   10  -12   25   28  -43  -20  -18   17   16  -22   19    5  -71    0  -14   26   -4    6  -22    5  -12   -7   -6  -30  -14  -22   -2    7   -4  -14  -37  -39  -10  -42  -15  -18   -3  -16   12   -5    7    6   41   28  -24   14  -22   30    5  -23  -44    4   30   39    5  -19  -34    3  -27    4  -21   -8   30  -40  -13   -3   20  -30   14  -13   -3  -32  -31  -15  -29   -3  -10   -9    7    3  -18  -53    2   -9  -21   -1    6  -10    7  -14  -16   27   10  -11   21   30   13  -18
  34    7    0  -17   13   30   12  -24  -11    9   30   18  -23   54   -5   -9   21    7  -31   -7   17   45  -92   42  -27  -18    2    7   15    9    1   27   14    5   -9  -15   25    9   45   -5   20  -15  -50   -4   21    8  -11   23   11  -12  -52  -40   33   -8   36    8    1  -12   56  -11  -43  -19   31   19    2  -48  -24    6   53   -2   16  -13  -16  -19   10  -17   19   -2    1   17    8   10   -1   15   39  -18   14  -23  -10    8   23  -18    6  -27    7   11   17    9   -8   19    9    6   41    1  -50  -33   26    2    5   -3   21  -36  -16   -4   18   19  -30    9  -34    1  -13   14   55  -11  -12  -53   21   10   22    4   65   16    8    3  -29    2  -22   41  -39  -10    6   51   23   26
  -4  -17   11   -1   33   -4   30  -49  -30  -27   26    6    6   12  -31  -13  -21   82   49  -30  -18   16  -49   16   28    0  -14  -14    8   16    4  -24  -29   -8   36   -9    1  -16  -39  -30  -30   13    8  -15  -18  -17   17  -15   12   18  -11  -14   28  -27   57   -3   22   51   26   14    9  -29   -3   -5  -17   11  -46  -30   -5  -17   14   19   33  -45  -17   -6    0   11  -25   -8    7   11    7   15   -5  -41  -20   11   50  -20   22    9  -34  -39  -37   10  -13  -20  -14  -22   -3   14   -6   16  -16   41  -22   -8    2   16  -41  -48   32   49   -4    6  -36  -13   19   -7  -17    1    7  -50  -29  -19  -15   -8   14  -20  -24  -44    3   -1    4   -4   13  -17   11   62   17   42  -32  -22
 -52   26   20   21   12  -21   11   13   39   12   -2   57   -9   25   10   -2    3   93  -21   -5  -12   26   25   14   24  -19   41  -32  -30   -1    8  -38   10   -4  -15   30  -31   -9    2   37   -4  -12   12  -63  -12   -4  -26   17    0  -36   37  -12   41  -34   23   25  -20   30   21   -6    0   16  -27  -18   51   28   41  -41    5  -18   20  -24  -27  -20  -49   15   32   25   43    9  -25  -13  -13  -25    6   48   43   -6   26  -21  -23    3  -14   61   19  -13   17  -23   -3   12   11  -14   42  -35  -10  -37   18    3  -15   40  -15  -15   12   -8   26   -6  -14   13    1   -9  -10  -34   -7  -20  -27   -5   -4    1    5   -7    0  -21  -29  -22   18  -23  -42   29   -4   -5    3   -7   18   38
   9  -10    3   14   13  -16    2   21   -9    5    3  -18  -22    7  -15  -14   35  -26    6  -26   46   14   13   15  -21  -46  -23   -6   25  -38  -13   42   -4   18  -33   21    0   -9  -23    0   10   10   -2  -16    1   15    2  -17   -5   10   26   -2   15   -4   -6    3   14   65    3  -35   -9   10  -19  -14   20    4   10    7  -49  -21  -16   11  -21    4  -33   13    0   -6   13  -16   29  -11  -22  -43   -5  -13    4   10    0    4  -17  -19   -5  -25   -2  -37    5  -19    2   10    5   -7    7   18  -21   33    7  -35    8   11  -56   -2   -3  -13  -18  -37    4   40    1  -34  -45  -63   -1    5   -5  -36   25   18   -6   -4    2  -15   24  -22   28  -32   48   -6   -2   20  -15   20   44    8
 -13    8   41  -14  -11   -9  -17   22   -5    5   19    1   17    8  -14   64   12   22   16   16  -16   -8   -3  -10  -31  -10    8   43  -29   13    0   -7  -11    0  -16   19   80  -30   32   -3   -1   12    3  -63    7  -30  -28   47    6   63   18   -7   12   28   -6  -23  -53   -2  -18  -13  -26   24   14   17  -26   29   -6   19    7    2   16  -12   30   24   21  -37  -14   23    3   44    2    5   16   -1    1    4   -4  -16   23  -10   11   26   -2   15  -29  -21  -11  -33    2  -10    3    3    5   -7    5   16   35   -5   21  -12   10   14    5  -21  -16  -21  -12  -22  -13  -45   -3  -35   -6  -71   10   14   10   39    8  -15  -74   32    9    6    9  -19  -27  -17  -42  -34   11  -24   22  -38
   3   -1  -16  -20   31   31   -3   -7   52   -4   59  -43   14   46   21  -31    4  -52   -8   16   21  -11    0  -67  -61    4   -7    2   15   30   33    1   13  -13   -1   -4   28   55  -48   -2    8  -32   32   14  -36   16  -23   13    6  -33   14    3  -19  -54   -2   21   15  -15  -10    7   45   41   18   10   24  -26    8   37   21   55   62  -50   39   28   12   12   10   -9  -12    9   58   22   15   21  -24  -11   56   21   37    0   47  -19   19   13  -27   26  -11    7   -6    7    0   17  -23   26    4  -35  -22   27    0   46   -5   -5  -17   10  -10   13   -8   -5   16    2   28   13    8  -26  -99   67   17    7   17   14    5   -1   -6  -12  -15   28   -6   50   23   12   -6  -33   18  -84
  78   -9   -8   22    5   25   -3   -4  -28   36  -10  -19  -13   13    8  -81  -75  -13   23    1   36  -20   66   18   56    1   -2   -6    7  -48  -35  -11  -19  -25  -26  -30  -35    9   -3   42  -13   62  -30  -30  -11   -4   -9  -18   44   33   61   56  -40  -19  -10  -17   -4  -34    8   18  -20   -9  -23  -25  -31   14  -24  -52  -56  -23   18  -26   -4   40    0  -41   -9  -14  -17  -41   -5  -36  -20  -66   13   21   38    0   51   37  -26    9   13   10   42  -39  -16   24  -29   14    9  -27  -43    7  -47   23  -26    3   16  -31   -8   -4   10   29    3  -36   46   21  -30  -16  -12   44   19   35    3  -18  -21    1   -5  -16   18   39   48   27  -41   -1  -19   19   34    8   13    5  -97  -38
  84   -4   34   55   15   12   31  -14  -15   13   29  -39   15   35  -22  -19  -18    1   36   51   -5   -2   -9  -51   48   12   -7   -7  -38    7   16   -7   23   -7  -30   35  -29  -23  -43   -6    7   26   15   32    6   22   64   33    3   -7  -17  -15   -6  -26   65   -2  -11  -18  -33   13   43   36  -17  -18  -13   -4   -5   26    5   50   -8  -20  -24   25   12   27  -17   -9  -20   -3  -12   25   -1    7  -22    5  -48    9    8   26    0   11  -17    1  -46   -1   25   -3    0   23  -10   28   17   -7   34   -1  -10   -5   -8   16    9   17    7   39   -9   -4   12  -19    9  -63   18   -6   -6   37  -11   21  -15   22   38  -24  -23    1  -37    1    6   16  -21   53  -26    3   25  -36   41   10
   8   -5    5   -3  -17    0   36  -11  -45   22  -20    9    3  -45   21   28  -40  -13   12   -7   13   29  -30  -15   -9  -20    3    8   27   27   -7   29    5    2  -35   -2  -41  -41   -6   13   24    6  -61  -13  -25   22  -30   -2  -10   14  -16  -36   -8   35   20  -14  -67  -41  -26   23  -21   25    6    0  -36  -40  -21   15    2   30   -7  -14  -25   22  -20    9   -1    4  -23  -24  -29   -7    2   15   29    4    8  -59  -19    3  -11    3   -8   33   -4   18  -18   -1   32   18  -15    0    2   12  -41    0    2    6   -7   66    4  -28   34    5   -4   17   19   32   16   -7   11   15    5  -34  -79  -11    2  -26    8   31    7   -8   38  -27   14   16   -2  -56   13   15  -27  -23    1   19
  32   16  -19  -27  -35   -6   52   37   21   39   41   17  -26    6   37   21  -17   40   -4  -13  -15  -15   14   11   18   22   12  -46   24   72    3   44    8  -58  -25   -9    2   50  -15  -56   16  -44   36   11  -71  -42   45   32   16   28    6  -10   35    4  -50   13   43  -18    0   16    2  -52    6   -6   22   -4  -38   33   12  -40    5   -1    5  -24   46  -16   42   -1  -21   -4  -51  -46   -6   33  -13  -19   76  -13  -19  -11   22    8   49    7  -15    1   -5    0   10   26   14  -37   -4  -33   39    1   20    6    8    8  -12   52   -7  -47  -23   -4    3  -12   13  -63    1   -2  -17   26  -17  -63  -50   17    9   58   32   14  -19   14    0   -1  -32   13   13  -19   50  -10  -52   31
  14  -16   -4   39  -25  -10   21   65  -22   25  -32  -24    2  -32   -2   -2   59   63    5   -3   -7   15   42  -34   40    1  -12    5   17  -21   30    6  -14  -22  -24   -8  -39  -32   -8   26  -10   -4    8   17   -1   81  -94    2    7   35   10    8   38   41   70    8   10  -26  -35   -3   -3   31   -9   -6   39    2  -36   17    5   19    9  -30   -3   34   15    9  -21   -3   26   12  -10  -16  -35  -10    0  -23   29    3   28   26   19   19   -6   13  -16  -11    4   21  -19  -39   19  -16   29  -25   -8   11   12  -12   27   -9   10    6  -18  -23  -14   -7  -71    7  -19   28    7   53   14   12   -4    5   13   14   70  -23   38   16    8    6   20   -5   41  -39    4   10    9  -22   28    7
  15  -40    8    8   13  -18    2   41   28   -2    4  -78   26   14    2  -45   14   28   11   10   10   -2  -39   -7   39    5  -45   -3   21   -7  -11   41    8  -33   19  -15  -10   24   36   -4   29  -36    7  -12   11    8  -50    9  -18   29  -25    6    6  -38  -61   -1   -1  -30  -50   12   30  -67    3   -1    1   -6   10   33   37   47   15   76    5  -16   10   -6   56   -5  -22  -18    4   57   24   -1    8   -2    4  -31  -22  -10   10   24   40  -72    8   18  -13  -18  -13   20  -19   43   -9   25   16  -11  -45    4    9   27   13    7    5  -26    6   18  -68   48    3   29    8   12    0  -28   38   30  -19  -33  -19    3  -42  -16  -18   -1    9    3   24   26   11    8   -8  -22    5    5
 -16  -15   43   16  -22   -7   -6   -9   56   43   40   18    2    4   36   27  -18   -6  -12   28   -5   23   22   14  -18    5  -15   21  -33   33   16    6   38   19  -10   16   20  -22  -19   22   27   45    8   55   23  -14  -33   37    3   35  -18   61   -9   -8  -36  -10  -41   -1   33   -9   22  -52  -36  -45   -8   -3   40   17   30  -24    3   34   -4   15  -45   38   72   40   15  -22  -18  -35  -31   57   10  -35  -38   24   50   -2   22  -22   67   21  -45  -28    4    8   21   11   -1  -34   -1  -24   30    9    1  -11    7   13   -3  -10   -6   -3  -11  -31   31  -20  -24  -33  -26    8  -11  -24   27   -9   18  -11   35   16   12    5   12    2    8  -17   34   22    8  -11    1    5    3    1
 -14   -5    7  -17   -6    4    1  -21    0   -5  -15  -35   -8   15   11   22  -26  -32    9  -11   -7  -33   40   -2   23   35   -8  -13  -21    8   32   45    0   -7  -25  -31   22  -30   14   22   40    6   40  -37   13   29    5  -37    2   -2   12   18  -38   22   41   -3  -29  100   -9   12  -27   25    7   14   -7   30    4  -23   59   34    8   12   -1   40  -23  -10    7   11  -10  -10   -9   -1  -10   -8  -79   41  -39  -37   21    1    6  -32    0   10   19   13    0   17   41   -3    9   -5  -15  -11   23  -31   15  -27    4   -5  -31   33   29    4    8    4    2   70   19   14  -42   14   12  -17    7  -13   -9  -19   50   18  -32  -38   -3   37  -16    8  -26   28  -21    5   13   11   19  -10
  16   25    2    4  -12   13   -4   21   24    6    7   47  -28   21   -5  -12  -18   28   14   30   12   31   30   -6  -25    7   22   46    3   -1  -15  -21   27    2   -8   35  -30   40  -28  -14  -24  -19  -46  -49   19   22   21  -24  -19   26   17   23   19  -31    0   -4   22   21  -64   10   67  -23   -6  -24   -6  -62   43    5  -20  -47   -9   -9  -25   -1    8   73   -2    3   -1  -13  -17  -16  -34   -2   11   -2   -5   -3  -17   14  -19   15   20   12  -10   35  -27   -9  -25   26  -29  -21   20  -39   -4   21   15   12  -12   18   18  -55   23  -10   11   21   16    8    5  -21   18   -8  -11  -30   -7  -37   16    8   -5  -12  -13  -39   -7  -25   25   14   -3   11    3   13   -7   51   16  -15
