  15  -33   22  -22   -5  -54   24  -57   29
   3  -18    7   29  -59   38    2  -21   14
  -8  -27  -13   10   20   -9   -9   56    3
  -5    6   -5  -13   52   13   -7  -32  -12
  -3   10  -11   34   32   40   -4   18   -8
  -2    4    0    0   59  -13    0  -65   13
   7    5    6   12  -31   -1    5    7   10
   7   -4  -14    8   49  -24  -14  -24    3
   3   -3   -5  -16   68  -40   -6  -11    1
   0  -52   -7   -6   95   10   -5  -41   -7
 -13   32  -13   35  -66   38  -11   31   -9
  10   17   13  -34  -23  -49   10   35   27
  -5   -1   20  -15   -6   39  -11    2  -13
   1  -10   -1  -32   66  -18    2  -18   -4
 -12   19   -6   20   21   13    0   12   -4
  -1   11   -5   33    2   -2   -3    4   -1
 -18   -4    7  -21    0   39  -12   11   10
   6   -8   -2   14  -65    1  -20   71    4
 -17  -14  -19  -19   72   12   -9   -6  -18
  -2   13    0   -7   57   -8   12  -71    8
 -10   34   -9  -28   -8  -34  -13   47  -13
 -42  -23   43  -16  106  -20   38  -21  -47
 -11  -13   -3   -3  -15   50   -8    6   12
  -4    4   -1   -5   71  -13    1   -2    1
   3   25    5  -26  -21   42   -5   33   11
 -12  -11  -14  -10   64    7  -18   -7  -13
 -11  -13  -39   15   63   -1  -23   23  -13
   8   33   13   12    0  -18  -12  -25  -18
  11   25    7    3   31   11  -11  -42  -11
   2  -33  -16  -34  115  -42  -11  -32    3
 -10  -22   -7  -17  125   18    8  -25  -34
  -7  -20  -11   -1   11    5   -3   43    2
   4    7    6    7 -100   73   21   47  -65
  -8  -35  -11    4   53   31   -9  -32  -15
   9   -3  -10    4   70  -21  -16  -47   10
   0  -18   11   12  -70    1  -12   87  -12
  13   44    6   -2  -65   -5    2   10    2
   4    4   -6   -3   45  -37    2   13  -14
  47   -2    8    8 -114    3   -3   -4   49
   5   -2    3   37  -88   27    8  -13    6
  -3  -10   -6  -13   49   -2   -4   -7   -6
  19    6   12   54  -93   10   17  -33   13
 -12   47    3  -28  -35   89   -8  -31  -11
  -9  -29  -13   16   47  -35   -7    5    2
  -1   26    4  -22 -108  -26   10   93    8
 -19   25    1   10   65  -42   13  -23  -29
  -1    1   -1   -7 -110  111   -5  -17   13
  -1  -29  -13   14   42  -41  -13   16    2
 -14   -9   26   -7   14   -2   28  -14  -22
 -16  -42    0  -35   11   22   -3   25    1
 -22   -2    5  -60   17   41  -13    5   16
  -2    9    4    4  -61  -18    1   -4   -6
  -9  -38  -15   20   44  -17    5   14   -4
   6   41  -15   45  -66  -19  -19  -18   41
  11   31    7   -7   13   10  -11  -44  -11
  -7   -6   -9   -7   67   -4  -14    8   -8
  -7   19   11  -15   38    9  -14  -24  -17
  27   -7  -20   -5    1   -9  -21  -14   33
  -4  -10   -5   -8    0  -13   -5  -11  -10
  -9   -3    3  -17    5   48   -5   -1    0
  -2    4    4   -7  -69   56   -1  -12   11
 -14   13   -9  -18   51   30  -29    1   -5
  -6   -6   -8   -7    9   -4   -5  -13  -10
   9  -21  -19   43   -7  -21   14    6  -12
  -2   -2    5    2   74  -76   -4  -17   20
   5   42    9   -9  -67  -23    1   22    7
   1    2    4    5  -43   -1    3    0   -3
  -9   30    4   40 -128   40    6   39   -3
 -15    8   24  -30  -16   44   -6  -25    7
 -22  -28   -4  -18   -7   16   17   54   -3
 -36  -29    5  -14    9   15   11   44   -2
   5   -5    1   37  -86   17   12   -8    3
 -10  -20  -11   30  -18   38   -4  -31   -4
 -31  -25   -3  -14    5   32   10   48   -1
  -2  -22    0  -16  -30   10    3   20   22
 -16   13   12  -21    3   15    9   22   -4
   3  -51   37   14   17  -26  -18   47  -19
  16   -7  -14  -42  -40   82    5   34  -35
  -7   13   12  -20  -23   34  -11  -14   11
  32   75  -33   -3  -94   43  -10   48  -26
 -17   -8   14    8  -36    4   -1   26  -29
 -14  -12   -8   11   74  -26   -8    4  -20
 -10  -22    5  -19   10   31   -4   21   22
  17   40   16   49  -55  -15   10   -6  -16
  22  -32  -43   21   82  -27  -51    7   31
   9   -2  -10   -3   46  -21   -8  -19    1
   0  -20    4   -2   73   10   -5   16    1
  -4    1   -6   14 -114  125   -3   -2    0
  -7   -5    4  -38   68  -13   -3    2   -7
  -4  -11  -18   22   14  -11    8   17   -3
 -22   39  -31   -6   91  -45    9 -115   56
  -1  -37  -25   -4    2    1   -2   38   25
 -24   -7   -6  -21   74   16   -3   10  -39
   7   27    4  -19  -76   -9   11   43   24
  -8   -6  -46    1   59    6  -19   30   -4
 -10    7  -19  -18   74   -2  -13   17  -27
   8  -44   14   29  -16   43   11  -55   21
  -2  -13    4  -25  127  -40  -12    2  -18
  -4    1   13    4   73  -63   -4  -35   29
  -6    3   14   -9    8   19  -18  -15   -5
   2   15   -9    4   50  -24   -1  -15  -20
   4    6    4    8   -5    4    5    2    4
   0   21    3  -13  -45  -14    5   31    7
  19    6  -11   35   -3  -26    6  -16  -15
  -3  -22   -6  -26  100    2  -14   -4   16
  -8  -13   17    3   73  -67   -5  -25   31
  -5   46  -36  -30    2   45   28  -40   -2
  -8  -19   -1   12  -18  -47   19   48    6
 -11    0   40    2  -44  -21   31   -5  -21
   7  -11    4   37  -84   32   12  -16    2
   7  -29   -9  -35   35  -16   -3  -30  -18
   7    6   -8    4    5  -29   14    8   -7
  -2   39   21  -14  -26    7    5  -23  -12
   0    2    0    1  -44   40    2   39  -42
  -3   11   -7    9   80    0   -8    6   -4
  -5   15   -9  -35  -87  119   15   46  -63
  21    7    0   19  -20  -18   -2    2   -6
  -3   -5    5    3   69   10   -6  -41  -32
 -14  -15  -12    5  -22  -28   14   57   14
 -21   -2  -11    2   88  -13  -20  -10  -21
 -35   42    4   49   29  -64    0  -53   29
  -1    2   -4   -6  -43    0    7   45    5
  -6   -4   -5   -3  -26   -3  -11   68   -2
   8    2  -16   18   62  -21  -20  -27   -5
   2    1    4   -2   36   13   -4  -33  -19
  -3    5   -2  -13   71   -2   -4    8   -3
   5   14   -7    4   63   32  -14    1    1
  -4   25   20  -31  -18   30    0  -33   -1
  18   79    4    1  -61  -20   -8   -5   -8
   3   19    8   24  -58   16    9   15   12
 -28  -10   15  -10  -41   28   18   36    4
   2    0   -4    1   52   18    0    1  -10
   5   49   12    1  -97   -8    6   38    8
   0   -7   -3   -2   49   14   -3  -24   -6
 -12   12   -6    4   88  -16   -8  -16  -17
 -23  -13   38    4  -50  -14   46   -6    3
 -14   -3   -8   10   84  -27   -9  -25   -9
  -9  -12  -10  -17   41  -15   -3  -16   -8
  13   78   12   24  -13  -58   11  -50   -5
   0    4   -8    6   55   27  -11    5   -1
 -10   -1    6   35  -56   78    0  -25   21
   2   22   -3   15   17  -18   -5  -17  -14
  13   -1   -6  -29   91  -54    4    9  -15
  -5   -5   -2    6  -26   63   -6   -9    4
