  15   21    8   -1   11   -1  -30  -10  -33
  -8   -5   -8   -5   -3   -5   -7   -5   -8
  17   14   19   14   12   16   18   15   20
  27   22   30   23   18   24   22   18   24
  22   17   23   20   15   19   23   19   24
  24   19   25   19   16   21   25   20   26
  29   25   30   27   24   27   29   26   29
  14   11   16   13   10   14   17   13   18
  19   15   20   15   13   17   19   15   20
  17   14   17   17   14   17   21   18   22
  -7   -5   -7   -5   -4   -6   -7   -6   -8
  -6   -5   -6   -5   -4   -5   -7   -5   -7
  21   18   23   17   16   20   20   19   23
  21   16   21   17   12   17   23   18   24
  16   13   17   14   10   15   19   14   19
  20   17   21   16   14   17   21   18   24
  28   22   29   24   20   25   28   22   29
  23   19   25   18   14   19   26   20   26
  19   16   21   18   15   20   23   19   25
  27   22   28   20   16   21   25   20   27
  20   17   22   18   17   21   22   20   26
 -11   -9  -12   -8   -7   -9  -10   -8  -11
  17   11   17   14    9   14   22   16   22
  -7   -5   -8   -6   -4   -6   -8   -7   -8
  -6   -5   -7   -5   -4   -5   -7   -5   -7
  20   17   22   17   14   19   23   18   24
  18   15   18   15   13   15   18   15   19
  22   18   23   19   16   21   23   19   24
 -15  -12  -17  -10   -7  -11  -15  -11  -17
 -12   -8  -12   -9   -5   -9  -12   -8  -12
  21   17   23   16   14   19   22   19   24
  18   14   18   13   10   13   17   14   19
  -5   -4   -5   -4   -3   -4   -6   -4   -6
  -1    0    0    0    0    0    0    0    0
  -9   -6  -10   -7   -4   -7   -9   -6  -10
  25   19   24   22   16   23   29   22   30
  17   14   20   16   13   18   19   16   22
  21   18   23   17   16   19   24   21   25
  -9   -6  -10   -6   -4   -6   -9   -6  -10
  -7   -4   -7   -5   -2   -6   -8   -5   -8
  21   16   21   17   13   18   21   17   23
  20   14   21   15   11   17   20   14   21
 -15  -12  -15  -11   -7  -11  -15  -11  -16
  19   17   22   16   15   18   20   19   22
 -15  -12  -15  -12  -10  -12  -16  -13  -17
  -7   -5   -7   -5   -2   -5   -7   -5   -7
  20   14   20   16   11   16   23   17   23
  -6   -4   -6   -4   -4   -5   -6   -5   -6
 -19  -15  -20  -16  -10  -16  -19  -15  -19
  24   20   26   20   16   21   24   20   25
 -10   -7  -10   -7   -4   -7  -11   -8  -11
  19   14   19   16   11   17   21   15   22
  20   12   20   17   11   17   21   15   22
  25   20   27   22   19   24   25   20   26
 -13   -9  -14   -8   -4   -8  -12   -8  -13
  20   15   21   16   11   17   22   15   22
  -9   -6   -9   -7   -5   -7  -10   -6  -10
  -9   -6   -9   -6   -3   -6   -9   -6   -9
  15   13   16   12    9   13   16   12   17
  17   14   19   14   11   15   17   14   20
 -15  -10  -16  -10   -4  -10  -15  -11  -16
  18   13   18   17   13   18   19   15   20
 -18  -12  -18  -14   -9  -15  -19  -12  -20
  23   17   24   17   14   19   24   20   26
  18   13   19   14    9   15   20   16   22
  27   25   31   25   22   28   30   27   33
 -11   -9  -11  -10   -8  -10  -13  -10  -13
  18   14   20   15   11   16   21   15   21
 -14  -11  -14  -11   -8  -12  -14  -11  -15
  -6   -5   -6   -5   -3   -5   -6   -5   -7
  -7   -5   -7   -6   -4   -6   -8   -7   -8
  20   15   21   16   12   18   21   17   23
  20   18   21   17   17   19   22   19   22
  20   14   19   14   11   16   19   15   20
  20   19   24   20   20   23   23   23   26
  21   20   23   19   19   22   19   18   22
  21   17   23   17   13   18   23   18   24
 -13  -10  -13  -11   -9  -11  -15  -12  -16
  27   22   30   21   16   23   25   18   26
  -7   -5   -7   -5   -3   -5   -6   -5   -7
  -9   -6   -9   -6   -5   -6   -9   -7   -9
  18   14   19   16   12   17   19   15   20
  20   16   22   15   11   16   21   16   22
  20   16   22   17   13   19   20   16   22
  19   16   20   15   13   16   18   16   20
  17   15   20   15   12   16   20   15   21
  23   19   23   19   16   19   22   19   23
  -6   -4   -6   -4   -2   -4   -6   -4   -7
 -15  -12  -17  -15   -8  -16  -18  -14  -18
 -17  -13  -18  -13  -10  -14  -16  -13  -16
  16   13   18   14   11   15   17   13   18
 -10   -6  -10   -7   -4   -7  -10   -7  -10
 -11   -4  -10   -3   -2   -4   -9   -3  -10
  21   16   23   15   10   16   25   19   27
  -7   -5   -7   -4   -2   -5   -7   -4   -7
  -5   -4   -6   -4   -3   -4   -6   -5   -6
  22   18   24   18   15   20   22   18   24
  23   18   24   19   15   21   23   18   25
 -13  -10  -13  -10   -7  -11  -13  -10  -14
 -15  -11  -16  -13   -8  -12  -16  -12  -17
  37   34   38   38   34   39   39   34   40
  16   14   17   13   11   15   19   16   20
  15   13   18   16   14   19   20   17   22
  18   15   20   15   12   17   19   15   22
  -6   -5   -7   -5   -4   -5   -6   -5   -6
 -13  -10  -14   -9   -7  -10  -14  -11  -14
  -8   -5   -8   -6   -3   -6   -8   -6   -9
 -16  -10  -17  -12   -5  -12  -16  -10  -17
  24   19   27   20   17   23   25   21   27
  -5   -5   -6   -5   -4   -5   -6   -5   -6
  22   16   24   17   13   19   22   17   24
  -7   -4   -7   -5   -4   -5   -8   -5   -8
  25   20   27   19   15   20   23   17   24
 -10   -8  -11   -7   -5   -8  -10   -8  -10
  19   14   19   16   12   18   23   16   24
  21   16   21   17   14   18   23   18   23
  22   17   22   18   15   20   22   18   24
  19   16   22   16   14   18   22   18   24
  16   14   18   13   12   14   15   14   17
  22   17   23   17   14   19   23   18   25
 -12   -8  -11   -8   -4   -8  -11   -8  -11
  -6   -5   -6   -4   -3   -5   -6   -5   -6
 -13   -9  -13   -9   -5   -9  -13   -9  -13
 -10   -7   -9   -8   -6   -8  -11   -9  -12
  18   14   18   15   12   17   20   16   22
 -10   -7  -10   -8   -5   -8  -10   -8  -10
  24   20   26   20   16   21   23   19   26
 -17  -12  -18  -12   -9  -12  -16  -13  -17
  22   20   25   19   17   21   22   20   24
  18   15   20   16   14   18   20   17   22
  21   14   20   17   10   16   23   15   23
  25   19   27   20   15   21   26   19   27
  20   16   20   15   12   16   21   17   22
  21   18   22   18   17   19   22   19   23
 -11   -9  -12   -9   -7  -10  -12  -10  -13
  25   20   25   22   19   22   24   21   24
  20   16   21   17   15   19   21   17   23
 -18  -12  -17  -13   -7  -13  -16  -12  -17
  32   27   33   29   25   30   30   28   33
 -14   -8  -15   -8   -4   -9  -13   -9  -15
 -15  -10  -15  -10   -6  -10  -14  -10  -14
  -7   -5   -7   -4   -3   -5   -7   -4   -6
  18   14   20   18   14   19   23   18   24
  20   17   22   19   16   19   21   18   23
 -15  -11  -15  -10   -8  -11  -15  -12  -16
 -14  -10  -14  -10   -7  -10  -14  -10  -14
 -12   -9  -12   -9   -5   -9  -12   -9  -12
  18   16   21   16   15   19   20   19   23
 -16  -12  -18  -12   -6  -12  -16  -11  -16
  24   21   25   22   19   23   23   20   25
  18   13   19   15   11   16   19   15   20
  23   19   24   18   15   18   21   18   22
  19   15   20   16   14   19   19   16   21
  22   16   22   18   14   18   21   16   21
  33   29   34   28   25   29   28   27   30
  -6   -4   -7   -5   -3   -5   -7   -5   -8
 -20  -15  -21  -16   -9  -17  -23  -17  -23
  22   17   24   19   14   21   28   22   28
 -16  -14  -18  -12  -10  -14  -14  -12  -17
  18   16   19   15   15   17   17   16   19
 -13   -9  -14  -10   -6  -10  -14  -10  -14
 -14   -9  -15  -10   -4  -10  -15  -10  -15
  24   21   27   21   19   25   28   24   30
  24   16   24   18   11   18   25   17   25
  19   17   22   16   15   19   22   21   24
 -13  -10  -14  -10   -7  -11  -13   -9  -13
 -14  -11  -15  -10   -7  -11  -14  -11  -15
 -12   -8  -12   -8   -5   -9  -12   -8  -12
  18   15   20   15   12   17   20   15   21
  21   18   22   18   15   19   22   18   23
 -10   -7  -11   -8   -3   -7  -11   -8  -11
 -15  -11  -16  -12   -8  -13  -17  -13  -18
  22   18   22   20   17   21   23   20   25
 -15  -12  -16  -10   -6  -10  -15  -12  -15
  -7   -5   -7   -5   -3   -5   -6   -4   -6
 -16  -14  -17  -13  -10  -14  -17  -14  -18
  -9   -5   -9   -7   -4   -7  -10   -7  -11
  -6   -4   -6   -4   -3   -4   -6   -5   -6
  18   15   19   16   13   18   21   16   23
  18   14   19   15   12   15   18   15   19
 -15  -11  -16  -11   -7  -12  -17  -11  -18
  23   18   23   17   14   17   23   19   23
  18   13   19   15   11   16   21   16   22
  25   21   26   19   16   19   27   22   28
 -13   -8  -13   -9   -4   -9  -14  -11  -15
  17   14   18   15   12   15   17   15   20
 -10   -7  -11   -7   -4   -8  -11   -7  -12
  23   19   23   17   15   18   22   20   25
  22   18   22   20   16   20   26   21   27
 -11   -8  -11   -7   -5   -8  -10   -8  -11
  19   15   20   16   11   16   20   15   21
  17   15   18   15   14   15   18   16   18
 -16  -11  -17  -12   -8  -13  -16  -12  -18
  16   13   18   13   10   14   19   15   20
  18   12   18   14   10   14   17   12   17
  20   15   20   15   12   17   19   15   20
 -11  -10  -12  -10   -8  -10  -13  -10  -13
 -13   -9  -13  -10   -7  -10  -13  -11  -13
  21   17   22   17   15   18   23   20   23
  22   17   23   18   15   20   24   20   25
  23   22   26   21   22   23   22   22   26
  24   18   23   19   14   19   24   19   25
 -19   -7  -20    0    8   -1    9   11    7
  17   13   19   16   13   18   23   17   24
  18   15   20   17   13   17   22   16   22
  25   23   26   23   21   23   28   26   28
  20   15   20   17   13   17   21   16   23
  22   19   24   17   15   20   23   20   27
  20   14   20   13    9   14   20   14   21
  23   18   24   19   14   19   24   19   26
 -14  -10  -14  -11   -7  -11  -16  -12  -17
  21   17   22   18   13   20   23   17   24
  19   14   20   14   11   17   18   14   21
  21   17   22   16   13   18   22   18   24
 -18  -13  -17  -13   -8  -14  -16  -13  -18
  22   21   25   21   21   21   23   22   25
  -6   -5   -6   -5   -3   -5   -6   -4   -6
  22   17   23   18   13   19   22   18   24
 -14  -10  -15  -11   -7  -12  -16  -11  -18
 -10   -8  -11   -7   -5   -7  -11   -7  -11
  -6   -5   -7   -6   -4   -6   -8   -6   -8
 -12  -10  -13  -10   -7  -10  -13  -10  -14
 -13  -10  -14   -8   -5   -8  -12   -9  -13
 -19  -12  -19  -14   -6  -14  -22  -14  -22
 -14   -9  -14   -9   -5   -9  -13   -9  -13
  15   12   17   13   10   14   19   16   20
  -9   -6   -9   -6   -3   -6   -9   -7  -10
  -8   -6   -9   -7   -6   -7   -9   -6  -10
 -10   -9  -11   -8   -6   -9  -11   -9  -11
  20   16   21   15   13   16   21   17   21
  28   23   30   28   22   29   31   24   32
 -12   -9  -12   -9   -5   -9  -13  -10  -14
 -13   -8  -12   -8   -4   -8  -13   -9  -13
  -7   -5   -7   -5   -3   -5   -7   -5   -7
  18   14   19   15   12   16   19   15   20
  24   22   28   21   18   23   24   21   27
  21   15   22   16   12   17   22   15   24
  38   38   42   35   34   39   37   34   40
  31   28   32   27   24   28   28   24   29
  20   17   21   19   16   21   22   19   24
  21   18   23   18   16   20   22   19   24
  19   17   21   17   15   19   20   17   22
  19   16   20   15   13   15   20   16   20
 -12   -9  -12   -8   -5   -8  -11   -9  -11
  -9   -7   -9   -6   -3   -6   -8   -6   -9
  19   16   21   14   13   16   20   16   22
  25   19   27   21   16   21   29   23   30
  19   15   21   16   12   18   21   16   23
  17   13   19   14   10   15   20   16   21
  -9   -6   -9   -6   -4   -7   -9   -6   -9
  -8   -5   -9   -5   -2   -5   -8   -5   -9
  20   14   22   17   13   19   22   16   22
  23   18   26   21   15   21   25   19   26
  17   14   19   16   14   18   21   18   22
  20   15   20   13   10   14   18   15   20
  20   16   21   16   12   17   21   16   22
  23   23   25   22   21   24   26   25   28
  24   19   24   22   18   22   27   23   28
  22   19   25   20   18   23   24   22   27
  18   15   22   19   18   22   25   22   28
 -11   -8  -12   -8   -5   -8  -11   -8  -12
  -7   -6   -8   -5   -5   -6   -7   -6   -8
 -12   -9  -13  -11   -9  -12  -14  -11  -14
  -6   -5   -6   -5   -4   -5   -6   -4   -6
 -13  -11  -14  -10   -8  -11  -14  -11  -15
  23   18   22   19   16   19   25   21   24
  -6   -4   -6   -4   -3   -5   -6   -4   -6
  24   19   26   21   16   23   28   21   29
 -18  -12  -19  -11   -6  -12  -16  -12  -18
  21   18   23   18   15   19   21   17   23
  22   17   24   18   14   20   23   17   24
  20   15   22   16   13   18   20   17   22
 -12   -8  -13   -8   -5   -9  -14   -9  -14
  21   17   23   16   14   18   21   20   24
  23   18   24   18   13   19   24   21   26
  20   15   20   15   12   16   20   17   21
  26   22   29   21   18   24   24   21   28
 -12   -8  -12   -8   -5   -8  -12   -9  -12
 -19  -13  -21  -14   -6  -14  -21  -15  -23
 -10   -6  -10   -6   -2   -6  -10   -7  -10
  -5   -4   -6   -5   -4   -5   -7   -5   -8
  20   17   22   20   18   21   23   21   24
  22   18   22   20   16   20   23   19   24
  27   22   29   23   19   25   29   23   31
  20   13   21   15   10   16   20   13   20
  17   15   19   17   16   19   22   21   24
  18   13   18   13   10   14   18   13   19
 -13  -10  -14  -10   -7  -10  -14  -11  -15
  19   13   20   16   11   17   21   15   22
 -12  -11  -14  -11   -9  -12  -16  -12  -15
  19   15   21   16   13   17   19   16   22
 -11   -9  -11   -9   -8   -9  -13  -11  -13
  -7   -5   -8   -5   -3   -5   -7   -5   -7
  24   18   26   18   12   19   24   17   25
 -12   -9  -12   -9   -6   -9  -12   -9  -13
  -9   -7  -10   -7   -5   -7   -9   -7   -9
  -6   -4   -7   -5   -3   -5   -7   -5   -7
  23   18   23   18   14   18   25   18   24
  -6   -4   -6   -4   -2   -5   -6   -5   -7
  22   15   22   18   13   18   23   17   24
 -13  -10  -14  -10   -7  -10  -13   -9  -13
 -12   -8  -13   -9   -5   -9  -12   -8  -13
  22   17   23   17   14   19   24   17   23
 -15  -10  -17  -10   -6  -11  -14  -10  -16
 -17  -10  -17  -10   -4  -10  -15  -10  -15
  22   20   23   19   19   20   25   24   26
  -7   -5   -7   -5   -2   -5   -7   -4   -7
  26   21   26   23   20   24   29   24   30
  21   15   21   17   13   18   22   17   23
  21   16   22   17   13   19   23   17   24
  20   19   22   17   16   19   20   19   23
  16   13   17   12   10   14   15   13   17
  -8   -6   -9   -7   -4   -7  -10   -7  -10
 -10   -9  -10   -9   -7   -9  -10   -9  -11
 -11   -7  -12   -7   -4   -8  -10   -7  -11
  18   15   20   19   19   21   25   23   27
  20   18   22   19   17   21   21   21   23
  19   15   22   16   12   18   22   17   23
  23   19   24   20   17   21   25   22   28
 -14  -11  -15  -11   -8  -11  -13  -10  -14
  23   19   24   20   16   21   23   19   24
  -6   -4   -6   -4   -3   -4   -6   -4   -6
  30   28   32   25   23   27   29   26   32
  -7   -4   -7   -5   -2   -5   -7   -4   -8
 -14   -9  -14  -11   -8  -11  -15  -11  -15
  -7   -6   -7   -5   -4   -5   -6   -5   -6
  22   18   24   19   17   21   23   21   26
 -13   -9  -14  -10   -6  -10  -13   -9  -13
 -23  -11  -24  -16  -12  -19   25   15   26
 -16  -13  -18  -12   -8  -12  -17  -13  -18
 -12  -10  -13   -8   -6   -9  -13  -10  -13
  19   14   21   18   13   19   23   18   25
  17   14   20   14   12   16   18   14   19
  -7   -5   -7   -4   -3   -4   -6   -5   -6
  -6   -4   -6   -5   -3   -5   -6   -5   -7
 -14   -9  -15   -9   -4   -9  -14   -9  -15
  22   17   23   18   13   19   22   18   24
  14   12   15   13   10   13   17   14   18
  22   19   24   18   15   20   24   20   26
 -13   -8  -14  -10   -5  -10  -15  -10  -16
  21   15   21   17   13   18   21   17   23
  -7   -5   -8   -5   -4   -5   -7   -5   -7
 -16  -10  -16  -11   -5  -10  -17  -12  -17
 -14   -9  -14  -10   -6  -11  -12   -9  -13
  17   16   19   19   18   21   23   21   26
  -6   -4   -7   -4   -3   -5   -7   -5   -7
  23   17   23   19   14   19   22   17   24
  19   15   20   15   13   17   20   17   20
 -15  -10  -17  -10   -5  -11  -16  -11  -16
  25   20   27   21   16   21   26   20   27
  22   19   23   18   14   18   24   20   24
 -13  -10  -14   -9   -5  -10  -14  -10  -14
 -14  -10  -15  -10   -7  -10  -12  -10  -13
  20   17   21   19   16   19   23   21   24
  -8   -4   -8   -5   -3   -6   -8   -5   -8
  25   20   26   22   19   23   25   20   26
  18   13   19   17   12   17   22   16   22
 -12  -10  -13  -11   -8  -11  -13  -10  -14
  21   18   23   18   16   19   24   21   25
  21   17   22   18   14   17   23   19   23
 -17  -12  -17  -12   -7  -13  -18  -13  -19
  31   24   32   25   19   25   29   25   33
  -9   -8  -10   -7   -6   -8  -10   -8  -11
 -13  -10  -13  -11   -8  -11  -15  -12  -15
  27   24   27   27   23   28   28   25   29
 -12   -9  -11   -8   -6   -9  -12  -10  -13
  25   22   28   26   23   27   28   25   30
  -4   -4   -4   -3   -3   -3   -4   -4   -4
  22   17   25   18   15   20   23   18   24
  -7   -5   -7   -5   -4   -6   -8   -6   -9
  18   -9   20    2  -26    1   18  -10   19
  24   20   26   19   17   21   23   20   25
  -6   -4   -6   -4   -3   -4   -5   -4   -6
  17   11   17   13    8   14   17   13   18
  17   14   19   16   13   17   20   17   21
  17   14   19   16   14   17   20   18   22
  19   14   19   16   12   16   21   17   22
  -6   -4   -7   -5   -3   -5   -7   -5   -7
  -9   -6  -10   -6   -4   -6  -10   -7  -11
  -9   -7  -10   -7   -5   -8  -10   -8  -10
  24   20   26   21   18   24   28   23   31
 -14  -10  -14  -11   -7  -11  -16  -12  -16
  20   19   23   20   20   22   21   20   22
  -9   -7  -10   -7   -5   -7   -9   -8  -10
  -7   -5   -7   -5   -3   -5   -7   -5   -7
  19   16   20   15   13   17   20   16   21
  22   16   23   18   12   18   22   16   21
  20   14   21   19   14   20   23   17   23
  16   11   18   14   11   15   16   12   17
  17   13   18   14   11   15   17   13   19
  25   14   26   16    6   17   24   13   26
  -6   -4   -6   -5   -3   -5   -7   -5   -7
  28   17   29   36   27   37   36   27   37
 -18  -11  -17  -14   -8  -14  -18  -13  -19
  24   18   25   19   14   20   20   17   23
  -7   -6   -8   -6   -5   -6   -8   -6   -8
  20   17   22   18   14   20   22   17   23
 -16  -12  -17  -11   -7  -12  -16  -12  -16
  23   18   25   17   14   20   22   18   25
  19   18   22   16   16   19   20   18   24
  -7   -4   -6   -5   -3   -5   -7   -5   -7
  -7   -4   -7   -5   -3   -5   -7   -5   -7
  18   15   20   17   14   19   19   15   21
  21   26   23   27   33   28   31   38   33
  -7   -5   -7   -5   -3   -5   -7   -5   -7
  20   14   21   15   11   18   19   15   22
  -5   -4   -5   -4   -2   -4   -6   -4   -7
  -8   -5   -8   -5   -4   -6   -7   -5   -7
  37   35   38   32   31   33   36   32   35
  18   13   18   16   12   17   19   15   21
  -6   -5   -6   -5   -3   -5   -6   -5   -6
 -13   -9  -12   -9   -6   -9  -12   -9  -12
  21   18   23   16   14   18   18   16   20
  21   19   23   20   18   21   25   22   26
  18   14   20   19   17   21   23   20   25
  -6   -5   -7   -4   -4   -5   -6   -5   -6
 -13   -9  -13   -8   -5   -8  -12   -9  -12
  -7   -5   -8   -5   -3   -6   -8   -5   -9
  14   13   16   14   12   15   15   14   16
  17   13   19   14   11   14   20   16   21
 -15  -10  -15  -12   -7  -11  -16  -11  -17
  -7   -5   -7   -4   -3   -5   -6   -4   -6
  28   21   29   23   16   25   21   15   22
  19   16   22   16   13   18   21   18   24
 -15  -12  -15  -12   -8  -12  -17  -13  -17
 -14   -9  -14  -10   -5   -9  -14  -10  -15
  23   19   26   18   13   20   22   16   24
  25   18   25   20   16   21   28   21   28
  24   19   25   20   16   21   24   19   26
  -7   -5   -7   -4   -3   -5   -7   -5   -7
 -13   -9  -14  -10   -7  -11  -14  -10  -15
 -15  -11  -15  -11   -7  -11  -16  -11  -16
  17   14   17   12    9   12   17   13   17
  21   15   21   17   13   18   22   16   22
 -11   -9  -12   -8   -5   -9  -12   -8  -12
  19   13   19   16   11   17   21   16   23
  -6   -4   -6   -5   -3   -5   -7   -5   -7
  21   17   22   17   14   19   20   17   22
  23   19   24   18   15   18   19   16   20
  -7   -5   -7   -5   -4   -5   -7   -5   -7
  -8   -6   -8   -6   -4   -7   -8   -7   -8
  17   22   17   20   34   20   17   22   18
  20   15   22   15   11   17   22   16   24
  19   17   21   17   14   18   23   19   25
  -8   -5   -8   -6   -4   -6   -9   -6  -10
  20   15   22   17   12   18   23   18   24
  -8   -5   -8   -6   -5   -6   -9   -6  -10
  19   17   21   16   14   18   20   18   23
  20   16   22   18   15   20   24   19   25
  -8   -5   -8   -5   -3   -6   -7   -5   -7
  19   16   21   16   15   19   20   17   23
  17   13   19   14   12   17   19   16   21
  -7   -4   -7   -4   -2   -5   -8   -4   -8
  22   16   23   16   12   18   23   17   23
 -11  -10  -12   -9   -7  -10  -13  -11  -13
 -12   -8  -13   -9   -6  -10  -11   -7  -11
  18   16   19   17   14   18   21   18   22
 -16   -9  -17  -11   -5  -11  -15   -9  -16
  14   12   16   12   11   14   16   15   18
  21   18   23   16   13   18   22   20   25
  22   18   24   16   13   18   22   18   23
 -11   -7  -11   -7   -4   -7  -10   -8  -10
  -7   -6   -7   -6   -5   -6   -7   -7   -7
  25   19   26   22   16   22   27   19   28
 -14  -11  -15  -12   -8  -12  -15  -11  -15
  -6   -4   -6   -5   -4   -5   -6   -5   -6
  23   19   25   20   18   22   22   19   24
  23   19   24   19   16   20   25   21   26
  21   16   23   17   12   18   23   18   24
  17   13   17   16   12   17   20   16   21
  18   13   19   14   11   15   19   14   20
  -8   -7   -9   -7   -5   -7   -9   -7   -9
 -13  -10  -15  -10   -7  -11  -13  -10  -14
  19   16   20   16   14   17   18   15   19
  19   15   21   17   14   19   22   19   25
  21   18   23   16   13   17   20   18   23
 -15   -9  -15  -11   -5  -11  -16  -10  -17
 -13   -8  -13   -7   -3   -8  -13   -7  -14
  25   24   28   24   22   27   28   26   31
  21   19   23   21   18   23   24   20   26
  22   16   23   16   12   18   21   17   24
  32   26   32   27   22   27   30   26   31
  -6   -4   -7   -4   -2   -4   -6   -4   -6
  30   25   33   26   21   28   31   24   32
 -13  -10  -13   -9   -6   -9  -12   -9  -12
  24   21   24   18   17   20   24   20   25
  21   18   25   19   15   20   23   19   24
  23   20   25   19   17   21   24   20   27
  14   11   15   15   11   16   20   14   22
  -6   -4   -6   -4   -3   -4   -7   -4   -7
  18   13   19   14   10   15   18   14   19
 -16  -11  -16  -12   -7  -12  -17  -12  -17
 -11   -8  -12   -8   -5   -9  -13  -10  -14
  -5   -4   -5   -4   -2   -4   -5   -3   -5
 -14   -9  -14   -9   -5   -9  -14   -8  -14
 -13  -10  -13  -10   -6  -10  -14  -10  -14
  -6   -5   -6   -5   -3   -5   -6   -5   -6
  -6   -4   -6   -4   -4   -5   -7   -5   -7
 -19  -12  -19  -12   -6  -12  -16  -11  -17
 -16  -11  -18  -13   -7  -13  -19  -13  -20
  20   14   22   17   13   19   23   17   26
  -5   -4   -5   -4   -3   -4   -5   -5   -5
  28   26   31   24   23   26   26   24   29
  -5   -5   -5   -5   -4   -5   -5   -5   -5
 -13   -8  -13   -9   -4   -9  -12   -8  -13
  22   21   25   19   16   20   21   20   24
  20   17   21   17   14   19   21   18   23
  -6   -4   -6   -5   -4   -5   -7   -5   -7
  -7   -5   -8   -6   -2   -6   -8   -6   -9
  -7   -5   -6   -5   -3   -5   -7   -5   -7
  22   21   24   19   21   21   23   24   24
  -9   -8   -9   -8   -6   -8  -11   -9  -11
  22   16   22   19   14   19   23   18   24
  22   17   23   16   13   17   22   18   24
  43   35   44   38   32   40   35   30   39
 -14   -9  -15  -11   -6  -12  -16  -11  -17
  25   22   26   20   18   22   22   19   24
  20   16   21   17   13   19   20   16   23
  -6   -4   -7   -4   -3   -4   -7   -5   -7
 -21  -15  -22  -15   -7  -15  -22  -15  -21
 -16  -12  -18  -13   -7  -14  -17  -12  -18
  27   21   27   21   17   23   27   21   27
  20   16   21   17   14   18   20   18   22
  -7   -5   -7   -6   -4   -6   -7   -6   -7
  -7   -5   -7   -6   -4   -6   -8   -6   -8
  19   17   20   18   16   19   20   17   21
  20   15   21   18   14   18   19   17   22
 -13   -8  -14   -9   -3   -9  -14   -8  -14
 -18  -13  -19  -13   -8  -13  -18  -14  -20
 -14  -10  -14  -11   -8  -11  -14  -11  -15
  -7   -5   -8   -5   -3   -5   -8   -6   -8
  16   12   17   13   10   14   16   13   17
  25   19   26   25   21   28   29   24   32
 -12   -8  -12   -9   -5   -9  -13   -9  -13
  23   18   23   20   16   20   23   18   24
 -13   -9  -14  -10   -7  -11  -14  -10  -15
  19   16   20   14   11   14   18   14   18
  18   15   20   17   13   18   21   17   22
  22   17   24   17   12   19   23   18   24
 -12   -9  -13  -11   -7  -10  -14  -10  -14
  23   17   24   18   14   19   24   19   26
  16   11   16   15   11   15   19   14   20
  -5   -4   -5   -4   -3   -4   -6   -4   -6
  16   12   18   12    8   13   17   13   20
  21   18   22   20   18   20   24   22   25
  -8   -4   -8   -5   -2   -5   -7   -5   -8
  -8   -6   -8   -6   -4   -6   -9   -7   -9
 -10   -7  -10   -8   -6   -9  -12  -10  -13
 -11   -7  -12   -7   -3   -7  -11   -8  -12
  24   19   24   18   14   20   22   17   24
  -8   -5   -8   -5   -3   -5   -7   -5   -7
  25   18   26   19   14   20   26   20   27
  -6   -3   -6   -3   -3   -3   -6   -4   -6
  17   12   17   14   10   14   19   15   20
  21   17   21   17   14   17   19   17   21
  20   16   22   17   13   17   20   16   21
  23   17   24   17   11   18   25   18   25
  24   18   25   20   16   22   26   21   28
  -7   -6   -7   -5   -4   -5   -6   -6   -7
  -7   -5   -7   -5   -3   -6   -8   -5   -8
 -11   -9  -11   -8   -5   -8  -10   -8  -11
  20   16   23   16   12   17   20   17   22
  -7   -5   -7   -5   -3   -5   -7   -4   -7
  23   18   24   19   15   20   24   20   26
  25   22   27   21   19   24   25   22   27
 -13   -9  -14   -9   -6  -10  -13   -9  -13
  23   17   24   18   14   20   23   19   25
  21   18   24   18   15   20   20   17   23
 -19  -11  -20  -13   -4  -14  -23  -14  -24
  21   16   22   18   13   19   22   16   24
  25   21   25   22   20   23   25   21   25
  17   14   20   16   13   17   20   16   22
  19   18   21   19   18   20   21   21   23
  27   22   30   22   18   23   26   21   27
  22   20   25   19   18   21   25   24   27
  21   17   23   16   14   18   22   19   24
  23   17   23   18   14   18   21   17   23
 -12  -10  -13   -9   -6  -10  -12   -9  -13
 -13  -10  -14  -11   -8  -11  -13  -10  -14
  15   12   16   12   10   13   14   12   14
 -11  -10  -12   -9   -8  -10  -12  -11  -12
  20   16   20   18   16   19   23   19   22
  19   15   20   15   10   16   21   16   23
 -16  -12  -16  -13   -7  -13  -18  -12  -19
  24   18   24   19   15   20   24   20   25
 -12   -9  -13  -10   -6  -10  -13  -10  -14
 -15  -11  -16  -11   -7  -12  -16  -12  -17
  21   17   23   17   13   18   22   17   24
  25   22   27   20   18   22   25   22   27
  20   21   23   18   19   20   20   22   23
  17   13   17   17   14   18   19   16   20
  21   17   23   18   15   20   22   19   23
  -6   -5   -7   -5   -3   -5   -6   -5   -7
  15   12   16   13   11   15   18   15   20
  24   21   26   19   19   22   26   23   28
 -12   -9  -12  -10   -8  -10  -12  -10  -12
  18   15   19   15   12   15   19   16   19
  22   17   23   17   13   18   22   18   24
  -6   -5   -6   -5   -3   -5   -7   -5   -7
  25   20   26   19   15   20   25   20   24
  21   19   24   19   17   22   25   22   28
  21   19   24   19   17   21   25   22   27
  19   17   21   17   16   18   20   18   23
  22   16   22   18   15   19   24   19   25
  18   16   20   18   14   18   23   19   24
  -6   -5   -6   -4   -4   -5   -6   -5   -6
 -13  -11  -14  -13  -10  -13  -16  -13  -16
  21   15   21   17   12   18   23   17   23
 -16  -10  -18  -11   -4  -11  -16  -10  -16
  28   22   29   23   18   23   30   22   30
 -13   -9  -13   -8   -5   -9  -12   -9  -12
  21   17   21   18   14   19   22   17   23
 -11   -7  -11   -8   -3   -8  -12   -8  -12
  25   20   27   20   16   21   24   19   25
 -13   -9  -14   -9   -6  -10  -12   -9  -13
  -7   -5   -7   -5   -4   -5   -6   -6   -7
 -10   -7  -11   -8   -5   -7  -10   -8  -11
  16   13   17   14   10   14   17   13   18
  26   21   27   20   15   21   22   19   25
  21   16   23   17   13   18   22   17   23
  20   16   23   16   13   18   22   17   24
 -12   -9  -13   -8   -6   -9  -12   -9  -13
  20   15   21   14   10   15   18   14   20
  22   16   23   19   14   19   22   16   22
  -6   -5   -7   -5   -3   -5   -6   -5   -7
  23   19   24   21   19   22   24   23   26
  22   15   23   19   13   19   25   18   25
  -6   -5   -6   -5   -4   -5   -6   -6   -6
  -4   -3   -5   -3   -3   -4   -5   -4   -5
  -5   -3   -5   -3   -3   -4   -5   -4   -5
  24   22   25   21   19   22   25   23   27
  -5   -5   -5   -4   -3   -5   -4   -5   -5
  25   20   27   22   18   23   25   21   25
  20   16   21   17   14   18   20   17   21
  16   12   17   14   11   15   17   13   19
 -11  -10  -12   -9   -8  -10  -12  -10  -12
  21   17   22   15   13   16   18   15   20
  -8   -5   -8   -5   -4   -6   -8   -6   -8
  15   12   16   15   12   16   19   17   21
  21   17   22   17   14   19   21   16   22
  -9   -5   -9   -6   -3   -6  -10   -5  -10
  -8   -5   -8   -6   -3   -6   -9   -5   -9
  24   27   27   32   33   34   32   33   34
  21   16   21   15   12   17   20   16   22
  20   16   21   20   16   21   23   19   24
  15   11   17   13   10   15   17   13   18
  22   15   23   18   11   18   23   15   24
  17   15   17   14   13   16   19   17   21
  26   18   26   21   15   22   28   20   28
  23   16   24   17   12   20   21   16   24
  22   19   24   20   16   22   23   19   25
 -15  -10  -16  -11   -7  -12  -16  -12  -17
  -7   -3   -6   -4   -2   -4   -7   -4   -7
  20   16   21   18   15   18   22   18   22
  16   14   17   13   10   14   18   16   19
  20   14   20   19   13   19   23   18   24
  19   15   20   16   12   17   22   17   24
  -6   -5   -7   -5   -3   -5   -8   -6   -7
  20   16   21   16   13   17   21   17   22
  18   14   19   13   10   14   19   14   20
 -12   -8  -12   -9   -4   -9  -13   -9  -13
  23   18   25   20   15   21   21   16   24
  21   18   23   23   19   25   28   24   30
  -7   -5   -7   -6   -4   -6   -8   -6   -8
 -12   -8  -12   -9   -5   -9  -12   -7  -11
 -10   -6  -10   -7   -4   -7  -10   -7  -10
  16   11   16   13   10   15   18   15   20
  20   15   21   15   12   16   19   15   20
  27   21   29   24   18   25   29   24   32
  -6   -4   -7   -5   -3   -5   -7   -5   -7
  -8   -4   -8   -5   -3   -5   -8   -5   -8
  29   25   29   25   23   26   27   23   30
 -16  -11  -17  -12   -6  -12  -19  -12  -18
  27   20   28   21   15   21   24   20   26
  20   19   23   18   16   20   23   21   25
  22   17   25   17   14   19   23   18   24
  62   61   66   56   51   59   53   52   58
  -7   -6   -7   -6   -6   -6   -8   -6   -8
  21   17   22   18   14   19   22   17   24
  -6   -4   -7   -4   -3   -5   -7   -5   -7
 -86  -48  -86    0   -8    1   53   45   56
  21   16   22   12    7   14   19   15   20
  21   19   22   19   18   21   22   22   24
 -11   -8  -11   -9   -6   -9  -12   -9  -12
  26   19   27   20   15   23   22   17   24
  -8   -6   -8   -6   -4   -6   -8   -6   -8
 -11   -9  -12   -8   -7   -9  -13   -9  -13
 -16   -8  -17  -13   -1  -12  -20  -12  -21
 -13  -10  -14   -9   -6   -9  -12   -9  -13
  16   12   17   14   10   14   18   14   18
  -8   -5   -9   -6   -4   -6  -10   -7  -11
 -10   -7  -11   -7   -4   -7  -10   -7  -10
  16   13   17   14   12   15   20   17   21
  20   18   22   19   17   20   23   20   24
  39   39   43   37   40   42   40   38   40
   0  -11    0   -9   -9  -11    0  -13   -1
  23   17   24   17   13   18   20   16   22
 -18  -12  -19  -15   -8  -15  -19  -12  -20
  19   15   20   17   14   18   21   17   22
  29   27   31   27   25   28   31   29   33
  19   16   20   16   14   18   22   19   25
  20   17   22   16   13   17   22   17   22
 -15  -13  -16  -12  -10  -13  -16  -14  -17
  -8   -5   -8   -6   -3   -6   -8   -5   -8
  20   14   22   19   14   19   24   17   26
  22   17   25   18   15   21   23   19   27
  21   17   23   15   13   17   21   18   23
  24   19   25   20   15   21   27   21   27
  -6   -5   -6   -4   -3   -5   -6   -5   -7
  16   14   18   14   11   16   18   14   19
  19   16   20   17   14   18   22   18   22
  21   15   22   19   13   20   23   17   25
 -14  -11  -15  -12   -8  -12  -16  -11  -16
  -6   -4   -6   -4   -2   -4   -5   -4   -5
  20   19   24   21   21   24   26   26   29
  25   18   25   22   16   24   27   21   29
  22   18   23   19   16   21   23   20   25
  23   19   25   18   14   19   22   19   24
  27   24   29   24   22   27   30   27   32
  23   18   23   19   14   19   24   19   25
 -16  -10  -16  -12   -5  -11  -15  -11  -16
  -5   -4   -5   -3   -3   -4   -6   -4   -6
 -13   -9  -14   -9   -5   -9  -15  -10  -16
  21   17   23   18   14   19   25   21   27
  -6   -4   -6   -4   -2   -4   -5   -4   -6
  26   20   26   22   18   24   25   20   27
  -3   -4   -4   -4   -4   -4   -3   -4   -4
 -12   -9  -11   -8   -5   -8  -12   -8  -12
  26   22   29   23   19   25   28   24   31
  26   21   26   23   20   24   26   22   28
  -9   -7  -10   -6   -5   -7  -10   -7  -10
 -15   -9  -15  -10   -4  -10  -15   -9  -15
  18   15   21   15   12   17   21   17   23
  -7   -5   -7   -5   -3   -5   -7   -5   -7
  17   15   18   15   13   17   20   17   21
  -6   -3   -6   -3   -1   -3   -5   -3   -5
  22   19   23   17   14   18   25   22   25
  31   34   36   28   34   34   33   37   40
 -13   -8  -13   -9   -5   -9  -13   -8  -13
  21   17   22   17   13   18   22   17   23
  22   19   23   17   16   19   21   19   23
 -18  -11  -17  -12   -6  -12  -18  -11  -18
  26   21   27   23   19   23   29   24   30
  23   17   24   17   12   18   23   18   24
 -27   -3   -5   -3  -53   -3   -2   -2   -3
  18   12   18   15   11   15   20   15   20
  17   15   20   17   14   19   22   17   24
  20   15   22   15   11   16   21   17   22
 -13   -8  -13   -8   -5   -8  -13   -9  -14
  19   14   20   15   12   17   20   16   22
  17   15   18   16   14   17   19   16   21
  19   17   20   16   14   18   21   19   23
 -16  -12  -17  -11   -8  -12  -17  -13  -17
  26   26   29   26   26   29   27   29   31
 -12   -8  -12   -8   -5   -9  -11   -9  -12
  25   21   27   19   16   22   23   20   27
  23   19   23   17   13   17   21   17   22
  19   16   21   16   13   18   22   18   23
  23   18   25   18   15   20   22   18   25
  19   15   21   19   16   21   24   18   25
 -16  -10  -16  -11   -5  -10  -15  -10  -16
  22   18   22   18   15   18   20   18   22
 -15  -12  -15  -13   -9  -12  -16  -12  -16
  29   28   31   28   26   30   30   28   31
  25   21   26   22   19   24   26   22   30
  22   20   24   18   18   20   22   22   26
  22   19   24   20   18   21   23   21   25
  18   16   20   17   15   18   21   19   23
  20   16   22   17   14   19   21   18   22
  -5   -4   -5   -4   -3   -4   -5   -5   -6
  19   14   20   15   13   17   20   16   22
  28   25   31   25   22   27   27   23   30
 -13  -10  -14  -10   -7  -11  -13  -10  -14
  -6   -4   -7   -5   -3   -5   -7   -5   -7
 -18  -12  -19  -13   -5  -13  -20  -13  -21
  27   20   26   22   17   22   28   22   27
  16   11   16   14   10   15   20   15   21
  19   18   21   18   19   21   21   21   25
  20   15   21   16   12   17   20   15   21
  18   16   20   16   13   17   21   18   21
  -6   -3   -6   -3   -2   -4   -6   -4   -6
 -12   -7  -12   -8   -2   -8  -11   -7  -12
  21   17   21   16   13   18   20   16   22
  -6   -3   -6   -3   -1   -4   -6   -4   -6
  19   15   20   15   10   16   20   15   21
  -6   -4   -6   -4   -3   -5   -5   -5   -5
  22   17   23   19   15   20   22   19   25
  21   19   24   19   16   20   21   18   23
 -13   -9  -14   -8   -5   -9  -13   -9  -13
  14   10   15    9    7   11   16   12   17
  23   18   23   16   13   17   22   19   24
  18   17   20   15   13   16   18   16   20
 -15  -12  -15  -11   -8  -12  -16  -13  -17
 -12   -9  -12  -10   -8  -10  -13  -10  -13
 -20  -16  -21  -16  -12  -17  -22  -18  -24
 -12   -7  -12   -8   -3   -9  -12   -8  -12
 -11   -9  -12   -8   -6   -9  -12   -9  -12
  15   14   17   12   11   14   16   13   18
  19   16   21   17   13   18   21   17   22
  -8   -6   -8   -6   -5   -7   -8   -6   -8
 -12   -7  -12   -8   -4   -8  -12   -8  -13
  22   15   21   15   11   16   19   14   20
  -6   -3   -6   -4   -2   -4   -6   -3   -6
 -10   -6  -11   -6   -3   -7  -10   -7  -11
  20   17   22   18   15   19   19   17   21
  20   17   23   17   15   20   19   16   21
  -6   -4   -6   -5   -3   -5   -7   -5   -7
  -7   -4   -7   -4   -3   -4   -7   -5   -7
 -17  -12  -18  -12   -7  -13  -17  -12  -18
  -8   -6   -8   -6   -4   -6   -8   -6   -8
  17   14   18   17   14   18   20   17   22
  -7   -4   -7   -5   -3   -5   -6   -4   -7
 -11   -7  -11   -8   -5   -8  -10   -7  -10
  21   15   23   18   13   20   25   19   27
  20   17   22   15   13   17   21   16   22
  -8   -6   -8   -6   -4   -7   -9   -6   -9
  -7   -5   -8   -5   -3   -5   -8   -5   -8
  21   19   22   20   19   22   23   22   26
  21   17   22   17   14   19   23   19   25
  21   19   23   20   17   22   21   18   23
  19   14   22   20   15   22   25   17   27
  -8   -6   -8   -6   -5   -7   -9   -7  -10
  16   13   17   16   13   16   21   18   22
 -16  -11  -18  -12   -6  -12  -17  -12  -18
 -14   -9  -14  -10   -5  -11  -15  -11  -16
  26   23   28   21   18   22   25   22   27
  25   22   28   22   20   26   20   18   23
  25   19   27   21   17   24   26   22   29
  22   16   23   16   11   17   20   15   21
  21   19   23   19   17   21   23   20   24
  21   20   25   19   18   23   25   24   28
  -4   -3   -4   -3   -2   -4   -4   -4   -5
  19   16   22   16   12   18   20   17   23
  -7   -5   -7   -5   -3   -5   -7   -5   -7
  -7   -5   -7   -4   -3   -4   -7   -5   -7
  25   20   25   18   14   19   24   19   23
  21   19   24   16   15   18   20   19   22
  25   23   28   22   20   24   26   23   28
  15   14   18   16   14   18   21   17   22
  20   15   21   14   11   15   20   16   22
  23   19   24   18   15   20   23   19   25
  21   18   23   22   19   24   21   17   23
  -7   -5   -7   -6   -2   -6   -7   -5   -7
  19   16   21   18   15   20   22   20   25
  20   15   22   18   14   20   23   19   25
  21   17   22   17   15   19   22   19   24
 -16  -13  -17  -13  -10  -13  -17  -14  -18
  20   18   22   17   16   18   22   19   23
  -6   -5   -6   -4   -3   -5   -6   -6   -7
  18   13   20   16   12   19   20   15   23
  -6   -4   -6   -5   -3   -5   -6   -5   -6
  23   18   24   17   14   19   22   18   24
  20   15   21   17   12   18   23   18   24
  24   20   27   20   16   22   24   20   26
  19   15   22   17   12   17   20   15   21
 -13   -9  -14   -9   -5   -9  -14   -9  -14
  18   14   20   15   11   15   18   15   20
  23   17   24   17   12   18   23   16   24
  23   20   26   20   19   22   24   21   26
 -17  -14  -18  -11   -7  -13  -17  -14  -18
  16   13   17   14   10   14   19   15   20
  -8   -5   -8   -5   -2   -5   -7   -5   -7
  -7   -6   -8   -6   -5   -6   -8   -6   -8
  16   13   18   12    9   13   18   14   19
  25   18   26   21   15   22   25   19   27
  -6   -5   -7   -5   -4   -5   -7   -5   -7
  19   17   21   17   14   18   22   21   24
  -6   -5   -6   -4   -3   -5   -6   -5   -7
  20   17   22   16   13   18   20   15   21
 -12   -9  -12  -11   -9  -11  -14  -11  -15
  -5   -4   -5   -4   -3   -4   -5   -4   -4
  20   17   22   19   18   21   24   21   25
  23   22   24   22   20   22   25   23   25
  -5   -4   -6   -4   -3   -4   -6   -4   -7
  -6   -4   -6   -5   -4   -5   -6   -4   -7
  20   16   20   17   14   18   23   19   24
  20   17   23   19   15   21   25   20   27
  23   18   24   19   17   22   25   21   27
  -5   -4   -5   -4   -3   -4   -6   -4   -6
  22   19   22   19   18   21   25   22   27
  12   11   14   13   12   14   16   14   17
  -7   -5   -6   -5   -3   -5   -7   -6   -8
  -7   -5   -8   -5   -4   -6   -8   -6   -8
  -6   -5   -6   -5   -4   -5   -6   -5   -6
  18   14   18   15   12   17   18   15   21
  24   16   26   20   14   22   26   18   28
 -14   -9  -15  -11   -6  -11  -15  -11  -16
 -28   -4  -37  -64  -16  -70  123   89  127
 -11   -9  -12   -9   -7   -9  -13  -11  -13
  17   14   19   16   14   17   22   18   23
  23   17   24   18   13   20   23   17   24
  19   14   18   14   10   14   18   15   19
  -7   -4   -7   -4   -2   -4   -7   -4   -7
  27   26   29   25   25   27   28   27   29
  21   16   23   19   15   21   24   19   25
 -14  -11  -14  -11   -8  -11  -15  -12  -16
  -7   -5   -8   -5   -3   -5   -7   -6   -8
  -8   -6   -9   -6   -4   -6   -8   -7   -9
  19   15   21   16   13   18   22   17   24
  19   17   20   16   14   16   19   17   21
  19   13   20   16   11   16   21   15   22
  18   14   18   14   10   14   20   15   20
  19   18   20   14   14   16   17   16   19
  21   16   25   17   12   20   23   18   26
  -7   -6   -7   -5   -4   -6   -7   -6   -7
  24   19   26   17   14   20   22   18   25
  -5   -4   -5   -4   -3   -4   -5   -4   -5
  21   17   23   17   14   19   22   19   24
  17   15   18   17   15   18   19   17   19
  20   17   22   17   14   19   20   17   21
  -9   -7  -10   -7   -6   -7  -10   -8  -10
  -8   -6   -9   -6   -3   -6   -8   -6   -8
  20   14   20   15   10   16   21   15   23
  -7   -4   -7   -5   -3   -5   -7   -5   -7
  19   16   20   16   12   17   22   18   23
 -11   -8  -11   -8   -5   -8   -9   -7   -9
  16   13   18   14   10   15   20   15   21
 -14  -11  -16  -11   -7  -11  -15  -11  -15
  -6   -4   -6   -4   -3   -4   -7   -4   -7
 -16  -13  -17  -12   -9  -13  -17  -14  -18
  -7   -4   -7   -5   -3   -5   -7   -4   -8
  -5   -4   -5   -4   -2   -4   -6   -4   -6
  20   17   22   17   14   18   23   18   25
   8   10    9    9   10    9   10   10   10
  18   16   19   15   14   16   19   16   19
  19   15   20   17   13   19   20   16   21
 -11   -7  -11   -8   -4   -8  -11   -9  -11
  18   13   19   16   13   17   20   16   22
  18   15   18   15   14   16   18   17   19
  22   15   23   19   14   20   25   18   26
  -5   -4   -5   -4   -3   -5   -7   -5   -7
  -7   -5   -8   -5   -4   -6   -7   -5   -7
 -15  -11  -16  -11   -7  -11  -15  -11  -16
  21   17   22   17   14   19   20   18   22
 -21  -14  -22  -14   -7  -15  -21  -14  -21
  22   15   22   18   12   19   24   18   24
 -14   -8  -14  -10   -5  -10  -16  -10  -16
  -7   -5   -7   -5   -3   -5   -6   -4   -7
 -14  -10  -15  -11   -6  -11  -15  -10  -16
  19   16   20   16   14   17   19   17   20
 -12   -9  -13   -9   -6  -10  -13  -10  -14
  -7   -5   -7   -5   -4   -5   -7   -5   -7
  19   15   22   17   14   19   23   19   26
  22   20   25   19   18   23   24   21   26
  -7   -5   -8   -5   -3   -5   -8   -5   -8
  14   11   15   11    9   12   15   12   16
  17   14   18   14   12   15   19   16   19
  19   14   19   15   11   16   19   14   20
  27   27   30   27   28   29   30   32   32
  22   18   24   18   14   18   23   19   23
  20   15   21   15   11   16   22   16   23
  19   16   20   18   15   18   21   16   21
  -6   -4   -7   -4   -3   -5   -6   -5   -7
  23   19   25   17   13   19   22   18   24
  -8   -6   -8   -5   -4   -5   -8   -5   -8
  23   17   25   20   15   21   25   20   27
  14   12   15   13   11   14   16   14   17
 -13   -8  -13  -10   -5  -10  -15   -9  -14
  20   16   21   17   14   18   22   19   23
  20   17   23   16   14   18   20   17   22
