  -7  -10   -4   -8   15   -5   -6   -6   -3
   3    4    3    4   22    5    3    3    3
 -10    2   11  -21    4   21    7   -1   -4
  -3   -7   -2   -3   -4   -3   -7   -3   -7
   5    5    4    6   15    6    4   -1    3
   0    1    0    1   32    2    2    4    3
  -3   -4   -3   -4    0   -5   -4   -6   -4
  -2    6   15   -3   -4   11   -7  -11    0
   8   11   -4   10    8   -9   -4  -11   -4
  -6   24   -7    4   16    3    1  -12    3
  -5    4    2   -7    3   27   -2   -2    1
   7   -3   -5   29   -3  -15   11   -2   -7
  -2    4   -1    7   25    8    0    5   -1
   0    8   -1    5   20    5    0    5   -1
  -2   -6   -3   -4   -3   -4   -3   -8   -3
  -9   -9   -6  -22   12   11  -18   19   10
   2    9    2    1   11    1   -6  -16   -6
  -6   -5   -5   -3   -1   -5   -4   -6   -4
   6    6    7   -1   12   -2   -7  -17   -7
  -8    3   25   -5    2   18    2   -6   -8
  -3   -4   -2  -12   -1  -11   -5   -5   -4
   2    4    2    7   20    4    1    9    2
  -8  -18   -6   17    4   17    9  -13    7
   0   15   15   -8   -4    0   -1   -5   -3
   9    3   11    1   29   -2    5   10    8
  -9  -20   -7    5   29    8   15   51   16
  -4   -3   -5   -4   -4   -5   -3   -5   -4
  -2    7   -2   -9   60   -5   -3   10   -1
  -2   -6   -3   -4   -5   -4   -3   -6   -4
   5   -4    8   16   20   15    8   14    5
   9   27    7    0  -16    0   -3    2   -3
  -1   -3   -2   -3   -4   -3   -3   -3   -3
   1    4    1    2   27    2   -2    6   -1
   1   -7   -1   -7  -20   -8   -2   -4   -2
  -5  -11   42   -2  -25   -8    2    4   -7
   0    9   -1   13    8   14    2   -6    2
  -6    8   -2  -21   23    2   -2    5   -1
   6   31    9    0   21   -2   -6   -7   -8
   1   -5   -2   -3  -11    8   -6   11   15
  -1   12    1    5   10    4    1  -27   -1
   7    0   -2   20   11   -7    2   -8    1
   7   26    5   14   -5   19    4   -8    3
  -1    3    1    2   19    2    2    1    1
  -5   -3   -4    5   -7    4   12   22   11
  -4   -5   -4   -4   -4   -4   -6   -6   -5
   6    9   -1   20   -9   -1    9   10   -4
 -23  -24  -23   23   31   18   19   59   21
   1    7    1    5   21    5    1    4    1
  11   -2   11   38   25   42    4    9    4
  -3  -17   -5    6   30   11   -2   -2    0
   0    3    0    4   19    2    1    4    1
  -8   -2    4  -15    9   13   -9    1    2
   5    7    7   15    9   14    1   12    4
  -5   -6   -4   -5   -2   -6   -5   -5   -5
 -10   -4   -9   -7   -3   -7   -8   -6   -7
   2    0    3    7   21    9    1   -1    2
   2   -6    1   -5  -13   -4    5   28    4
  -5   -3   -4   -4   -2   -4   -3   -6   -3
   9   -4   -9   13   -2  -12   11   -3   -9
   4   -6    5    6   21    6    8    4    6
   7    1   -8   12    3  -14    7    2  -11
  11   -2   -5   18  -30   -3    3   20   12
   3   -3    4   20   11   19    2   -6    4
  -8   -2   -9   -5  -16   -3   12   23    9
   0   -2    0    0   38    2    3    5    2
  -1   -1   -1    1   29   -1    2    2    2
   1    2    2    1   27    0    1    5    2
  -4   -1   -2   -2   24   -2   -9  -16   -9
   4    7    4    2   18    3    5    2    3
  -2  -11    0   10  -19   13   11   17   12
  19   12   20   -1  -14    4   -3   -1   -5
  -4   -5   -4   -6   -5   -6   -2   -3   -2
   3   -1   16   -3  -30   -3    7   -3   18
  -1    0   -1   -5  -18   -3    9   11   12
  -4  -10   -4   -6   14   -6   -1    9   -2
   3   25   -1   -7   -5   -7   -1   -3    1
  12   17   15  -11   -9   -6   -9   -9   -8
  -1   13    1    4   26    3    4    1    3
  -4   -8    8  -11  -17   28   -3  -10    8
  -5   -9    6  -13    5   16   -4    8    9
   6  -11    7   13  -25    9   10  -22   10
   2   31    3   -4   -3   -5   -3   -4   -5
  -2   -5   -2   -4   -2   -4   -3   -2   -4
  -8   -3   -7   -3   -5   -3   -3   -4   -2
  -5   -4   -5   -4   -5   -3   -6   -4   -6
   2    5    2    5   23    3    4   10    3
 -10  -14  -11   -2   34    0    1    1    0
  -2    2   -1   -3    3   -2   13   22   12
  -2   -5   -2   -6   -3   -7   -4   -5   -3
   0    0    0    0    2    0    0    0    0
   0    0    2    0   -3    2    0    1    3
  -1   -4    0    2   12    1    5   16    7
  -6   -4   -5   -5   -5   -7   -7   -4   -8
  -6   -7   -6   -4  -11    0    9   19   10
   3    3    3   -6  -13   -6    2   35    4
 -10   -5   -5   10    4   -9   10   11   -5
  -3   -6   -3   -4   -7   -4   -5   -5   -5
   7   -2   -7   13   -3  -12    9    0   -9
  11   10   11    3  -18    5   -1  -14   -2
 -22   -5  -20   15   63   20    0   20    7
  -5   -6   -5   -7   -1   -7   -4   -6   -4
  -4   -6   -3   -4   -3   -4   -4   -5   -5
  -7  -30   -7    9   14   10    0   17    1
   1    3    1    5   15    5    1    5    2
  -3   -8   11   -3  -13   20   -7  -12   10
   7   23    9   13    2   13   -2   -4   -3
  -1   -7   -1    7  -15    9    8   21    9
  13    0    1   15  -14    4   13    5   -4
  -5   -9    8  -12   -8   25   -8   -6    7
  -6   -4   -6   -9   -4   -8   -6   -9   -6
  -3   -6   -3   -5  -11   -5   -3   -5   -4
   1    2    4    3   26    2    4    4    2
  -3   -5   -3   -4   -5   -5   -3   -3   -3
  -4    4  -16   15   19   -8    2    1    3
  -2    6   -2   -1  -26   -3    3   26    4
   2  -20    2    7    9   10    8   29    8
  -4    2   -5    2   33    2    2    1    0
   1    0   -1    1    1    0   -1    0    0
 -10  -17  -13  -25   -7   20  -21   14   20
  -6   -4   -5   -8    1   -8   -6   -2   -6
  11   20    8    0   -6   -2   -2   -5   -3
  -7   -5   -3   -6  -18   -4   -4   -6   -3
  18    5  -15   11  -24   -1  -14   -2   16
   7    5   -6   10    7  -19    3    1   -7
   3    2   -6   19    5  -12    5   -2   -6
  -2    9   -4  -12    4  -11   -2  -10   -3
  -2   -3   -3   -6  -22   -5    5   30    5
   1  -10    2    5   25    7   -9  -13  -10
  12    7   11    1  -21    1   -3    1   -4
   1    8    2    7   26    7    0    1    1
  -3   -4   -3   -6   31   -8   -5  -14   -5
 -67  102   36   79 -127   67    5   24   20
  -5   -4   -5   -6   -9   -6   -4   -4   -4
 -12  -21   -1    7   74  -42    7    8   18
  12   23   14   11  -17   14    6   -3    5
  -3   -2   -3   -4   -3   -4   -4   -4   -4
   6   -5    5   21   -7   21    4   16    4
  37  -11   -5   25   16   -9  -12   -7   -4
   9   20    6   11   51   14   -4    3   -5
  10   17   12    8  -17    7  -13   -8  -14
  -3   -6   -5   -6   -2   -6   -5   -8   -7
  -2   -6   -3   -4   -4   -4   -4   -6   -5
   2  -10    2    2  -10   27   -3   -8    8
  11   -1   12    7   36    2   10    4   13
  -3   -3   -4   -5  -12   -5   -4   -3   -4
   2    9    6   -7   -4   19    3    7    4
  -2    2   12   -8   -3   28    0  -11  -16
   3    9    3    9   15    9    5   12    3
  -3   -7   -2  -10   13  -15   -6   31   -6
   1    3    3    9   21    7    2    1    2
  -6   -3   -5   -1  -14   -1   -5   -2   -6
   2    8    7    6   22   -3    2    6    5
  -1  -12   -3    0   23    2    8   13    7
  -4   -4   -5   -3   -4   -3   -5   -5   -5
 -14  -11  -17    9   20   10    6   16   10
   3    6    3    6   31    5    3   10    2
  -7   -8   -8   -3   -4   -4    7   15    8
   4   -2    5    5   19    3    4   12    6
   0    6    0    6    7    6    1    4    2
   6    5    5   11   13   12   -2   12   -2
   5   24    4    0  -16   -1   -2   -9   -2
  -2   -5   -3   -4  -15   -3    0   -2   -1
  -1   -3   -2   -3   -8   -3   -1   -3   -2
   0    0    0    0    1    0    0    1    0
   2    4    2    3   22    4    2    6    2
   7    2    7    1   35    1   -6   -8   -6
   2    3    0    1   26    2    1    8    2
  -7  -17   -5   11    2  -16   13   10   -3
   9    3   -2   18  -14    0   16   10   -5
  -8   -7   -8    0   -3   -1    6   17    6
   3    4    4    9   15   10   -1   -7    0
  25   10    8   -7  -29   -4   -8    3   -3
  -7   -8   -6   -2   -6   -3    7    9    6
  -3   -1    2   -1  -32   34    0    1   -4
  -2   -6   -2   -8   -9   -8   -3   -7   -3
  -3   -4   -3   -6   -4   -6   -5   -6   -7
  22  -13   -5   34   -6  -10   -4   -1    6
  -4   13   10  -10    4   14   -2   -9   -7
  -3   -6   -4   -4   -5   -5   -3   -3   -3
  -4   -4    8   -8  -15   22   -2   -5   12
   8   -2   -6   20  -14   -5    5   -5   -3
  -4   -8   -6   -7   -5   -5   -4   -5   -6
  -6   -3   -5   -3   -3   -4   -5   -4   -3
   0    5    0    3   30    2   -2    7    0
  -4   -4   -3   -4    2   -4   -2   -4   -3
  -1   -4    1    8   -4    7   11   20   11
  -5   -5   -5   -8   -6   -8   -5   -6   -6
  16   37   15    0  -11   -4  -12   -9   -8
  -2   -3   -2   -5   -3   -6   -2   -4   -3
   3    2    4    3   24    3    0   -2    1
   4    2    4    3   34    1    3    1    3
   5   18    6   13   29    9   -9    7   -4
   3    5    2    6   14    6    2    5    0
   2    3   -4   19    1  -20    6    2   -8
  -5    5   -7   -8   25   -9   -5   12   -7
  -5   -2    4   -2   -1   22   -1   -8    1
  -2   -5   -2   20   -5   -1   10    9   -1
  -7    0   -8    0   29    0   -8    1   -8
   9   -4    0   21  -11   -1    0   -7    1
   3  -10    1   27  -20    1   10   -9    1
   0    0   -3   16    2  -12    8    0  -11
  -3   -8   13   -9  -16   25   -1   -2    3
  14   32   13    2   35    7  -22   -9  -17
  -4   -6   -4   -5   -3   -5   -3   -7   -4
  -4   -3   -5   -5   -9   -6   -6   -5   -6
   6   -4   -2   22  -11   -2    9    8    0
  -1    8  -11  -11   17   19   -7   -3   12
   0    6    0    1   27    1    0    1   -1
  12   -7   14   16   27   17   15   -8   15
   0   19    0   -1    8    1   -1  -15   -3
  -5   12   10  -16    7   15   -8   -3   -5
   1    1    4    6  -38   14    7   15   10
  -1   -5   -1   -4   -6   -4   -5   -6   -5
  -5   -8   -5   -4   10   -4   -6   -9   -6
  -4   -2   -7   -7   -2   -5   -4   -8   -4
  -6   -7   -1   -5   -8    7   -3    9   16
  -3   -7   -4   -5   -6   -4   -4   -6   -5
 -22  -16    3    7   -2   22    1   18    6
  -5   -3   -6   -3   -7   -4   -5   -5   -7
   1    1    2    7   23    5    5    9    5
  11   11   -4   21  -13   -4   -1    1   -1
  -5   -4   -6   -6   -3   -5   -6   -5   -8
  -9   -5  -10   -6   27   -8  -10    0  -10
  -3  -10   -4   -9   -6   -9   -3   -6   -2
  -5   -5   -5   -7   -1   -5   -5   -4   -6
   7   -2   -3   19  -10  -12    7    0   -6
   0  -11    0   -1  -15   -1    3   27    3
  -1   -6    0    7  -16    5    9   13    9
   2    4   -8   19    5   -9   13   -3   -6
   3    8    4    7   22   11   -7   -7   -8
  11   24   12   -6   15   -4   -2  -11    0
   0  -12   -1   -3  -15   -2    7   25    8
   0   -1    0    0    1   -1    0    1   -1
  -1   -6   -1   -9  -14  -10    7   26    8
  -3   -5   -4   -4   -3   -4   -5   -5   -5
   0    0    0    0    0    0    0    1    0
  -3   -7   -4   -5   -5   -4   -4   -8   -4
   1    8    1    5   27    4    3    4    1
   6  -10    2    4   17    0   11   36    6
   7   15    8    1   -7   -1   -8  -12  -11
  -6   -5   -5   -3  -11   -2   11   17   11
   0   -7   -1   -5   -5   -5   -2   -5   -3
  -4   -2   -3   -7    6   -8   -4    1   -4
   6   25    8    8   29    6    1  -30   -4
  -6   -9   -3   -9   -3   18   -8   10   15
  -2   -1   -2    7   12   -4    5   10    4
  -4   -6   -4   -4   -1   -5   -6   -5   -6
   0   -2    0    3   21    2    2    9    4
  10   26   12   -7  -13   -5   -2  -10   -5
  12   -4  -10   24  -15  -18   13    1   -6
  -2    4   -1    2   18    0   -1    8    5
  -1   -6   -2   -5   -5   -5   -3   -5   -5
   4   -2    4    4  -18    4   19   13   21
  -1   -2   -1   -1   -9   -1    0   -1    0
  -7  -11   -7   -5   26   -3   -1    3   -2
   0   -9   -1    1   -7    1   -2   -6   -3
  -9    2   12   -4    0    8   10   -4  -12
  30    8  -13   -1   40   22  -11    3   22
  -1    2    1   -5   -8   -6   10   33   10
   2    3    3    8    0   10    3    7    3
  -4   -2   -4   -3  -12   -5   -4   -6   -4
   7   23    6   -6  -11   -5   -9    3   -8
  -4   -9    0    9  -12  -13   10   18   -1
   4    4    4    2   31    4    7    5    7
   5   27    6   -8  -15   -8    0   -6    1
  -2    0   -2   -6   -4   -5   -3   -2   -3
   1   -6    2   16  -26   17    4   -5    3
  -8   -3   -9   -5    8   -5   -5   -8   -6
  -4   -5    8  -10  -10   20   -4   -3    7
  -4   -5   -3   -4   -2   -6   -6   -5   -6
  -3   -4   -2   -4   -3   -5   -4   -6   -4
   8   18    8    8    2   10    3   -1    4
  -5   -6   -7   -5   -5   -6   -6   -7   -7
   1   -6    3    5   -6    3    4   32    6
  -3   -5    0   -8   -4    8   -4    4   18
  -2   -5   -3   -3   -7   -4   -6   -5   -5
   3    3    3    6    9    8    2    5    4
   4    0    3    4   21    4    3    2    2
  -4    0   -5   -4   -1   -2   -6   -3   -7
   9   -3    9    1   20    5   -1   23   -2
  -9    3    3  -17   14    9   -9    2    3
   2    7    0    3   25    6    6    3    4
  -3   -5   -4   -3  -10   -3   12   17   11
   6   30    6    3    7    5   -2  -22   -5
  -5   -4   -5   -5   -5   -5   -5   -4   -6
  -5   -7   -6   -8    1   -9   -7    3   -8
  -6  -13   -8   14   -3   13    4   -7    5
   7   20    8   -5    7   -5   -7  -14   -7
  -4  -16   -2   -4  -11   -5    4   34    6
 -12  -15   18   -9  -12   18  -14  -14   14
   5   10    6    6   22    6    5    2    4
  -2   -6   -6    9    0   -9   18    5   -2
   7    2   -1   -1  -12   -2   19   11   -6
   2    3    2    0    6    2   -4   35   -3
  15    8   -9   -8  -10    2   -8    1   11
   7   -1    8    9   13    9    5   23    5
  -3   11   -6   -9   33  -17   -2    6   -5
   3    6    4    6   25    7   -5    1   -5
  11    3   13   23   47   22   -9   23   -6
   8   33    6    1   -3    6   -9   -3  -11
  -4   -5   -4   -6  -13   -6   -5   -5   -5
  -4   -4   -4   -6  -15   -7    1   -9    0
 -11  -14  -10   -2   19   -1    0    9    1
  -6    4    8   -2   -1   16   -8   -4    8
  -6   -3   -6   -5   -9   -3   -5   -5   -6
 -11  -16  -15    1   20   -3    6   14    4
   2    9    3    5   17    4    1    2    1
  -4   -7   -3   -6   -4   -5   -6   -4   -9
   8   -1  -11   18    3   -7    1   -4   -4
  13   11   14    5  -22    5   -4  -11   -3
   8   16    9   -1   -3   -3   -6  -13   -7
   5   11    4    4   17    5    6    7    7
  -5   -6    7  -21  -12   28   20   23  -41
  -3   -4   -3   -5   -4   -5   -1   -5   -3
  -8    1   -9    6   40    2    0    6    3
  -6   -5   -6   -5   -6   -5   -6   -5   -6
  -2   -6   -1    9  -32    9   19   12   18
  -5   -1    6  -11   -8   26   -3    1    5
 -16  -24  -25    7   24  -21    2    7  -16
   8   15    8    7   -8    9   -4   -6   -6
 -10  -11  -10    6   -9    5   12    7   12
  -1   -7   -1    9    9   10    4   15    3
  -4   -3   -9   -5    0   12   -6    6   15
   0    4   -1    7   21    7    0    3   -2
  22   -1  -18   10   16   13  -16   -4   21
   2    7    2    5   22    6    1    6    2
   1    5    2    7   13    7    7    3    6
   8    2    5    2   20    4    5    8    5
 -11   22   -7    4   15    2   -8   31   -4
  -3   -4   -5   -4    1   -4   -4   -4   -4
  12   25   13  -23   11  -26    9   34   11
  -2   -3   -5   -1   -1   16   -4   12   10
  -4   -4   -5   -4   -6   -4   -2   -6   -2
  -5   -4   -6   -6   21   -7   -6   -3   -6
  -7   -6    6   -7   -8   23   -3   -6    9
  -4   -2   -4   -5   -6   -6   -4   -6   -4
   4   22    5    2   -1    3    2   -2    1
   4   -3   -1   24   -4  -18    3    0   -5
  -8    2  -10    1   27   -2   -7    2   -8
  -4   -5   -3   -6   -7   -7   -3   -4   -2
  -3   -5   -3   -5  -16   -5    8   24    6
   3   -5    4    4   32    5    1   -4    1
   1   25    2   -1  -11   -1    0  -10    0
 -14  -11  -11    3   11    5    4   13    4
   8   20    8    6  -12    6    1   -2    2
  14   -4   -3   25  -23   -5   12   -5   -7
   7   -4    3   18   -1   20    4    6    3
  -1   -4   -2   -9   36   -8   -2   -6   -3
  -1    3    1   -2   24    6   -1    4   -1
  -9    2  -10    1   35    2   -4    2   -5
  -4   -5   -3   -5   -9   -5   -3   -6   -3
  10    7   12    6   37    7    5    9    8
   4   17    3    4    7    4    1   -4    0
  -7   -3   -2   17  -14   -1   16   -3   -2
  -2   -3   -3   -6   -6   -7   -6   -9   -7
   0    7    0    6   12    5   -1    6    0
  -9  -13   -9    0   19    1    1    2    0
   6  -17    6   19    4   20    4  -10    5
  -3   -4   -4   -4   -2   -4   -9   -6  -10
  -3  -18   -5   -2    4   -1    8   15    6
  -3   -3   -3   -3   -2   -4   -5   -3   -5
   9   30    9    9   19    7   -4    3   -4
  -2   -5   -2   -5   -3   -3   -3   -4   -3
  -1   -6   -1   -6  -16   -8    5   27    4
  -3   -4   -3   -2   -3   -5   -6   -4   -6
  -3  -10   -2   -1  -11   -2    5   20    4
  -1   -2    5  -17  -10   26   -3    0    5
  -6   -4   -5   -4   -7   -4   -7   -7   -7
  -2   -6   -2   -6   -2   -7   -4   -4   -4
  -1   -1   -1    0    2    0    0    1   -1
   9   17    9   -5   -1   -4   -5  -12   -7
   7   -2   -5   21   -4  -15    8    0   -6
  -4   -2   -5   -6   17   10   -1    2   -2
  15   36   14   19   52   14  -13    1  -17
 -16  -28  -22  -13   15    9   -7   13    3
  -8   -2   18   -8   -7   15    5    2   -6
  -5    4   -4    1   -3    1    9   19   10
  -4    0   -5   -6  -20  -10   11   29   12
  -2   -6   -2   -5   -6   -6   -3   -7   -4
  -6   -2    9  -14   -7   19   -4   -1    5
  -5   -3   -5   -3   -5   -3   -7   -8   -6
  -3  -11   -8    9    4    8    7   15   10
   1    3    1    4   26    5    2    2    3
  -3  -22   -1   -5   -9   -6    7   31    6
  -3   -9   -7   -1   16    3    2   24    4
   7   19    6   -6  -15   -4   -3   -4   -2
   4    8    3    8   24    9    4    9    3
  -4   -3   -4   -8    3   -7   -4   -4   -4
  -3   -5   -3   -6  -12   -6   10   24   11
  -4   -5   -4   -6    2   -6   -5   -5   -5
  -6   -6   -7   -5   -5   -6   -8   -7   -6
   0   35    2   -3    3    0    1   -4    2
 -11   27  -12  -20   26  -18   -3   12    0
  -2  -10   -7   -9   -7   15   -2   13   11
   3    8    5    7   24    5   -1    8    2
  -6   -6   -6   -6   -3   -7   -4   -8   -3
   3    0   -4   -6   18   33   -6   -3   -9
   3    8    3    9   29    9    2   11    3
   3  -13    1    9    5   11   13   19   14
  -4   -3   -4   -4   -5   -5   -3   -4   -3
  -3    8   -5  -15   33  -19   -3    5   -5
   1    9    4    5   20    7    2    8    0
  -2   -4   -1   -8    5   -8   -3   -1   -3
 -21  -20  -23   -7  -18   -1   31   57   31
   2    6    2    8   21    7    1    6    2
   4    6    5   -2   20    2    4   12    5
  -9    8    1   17   19  -10   15    1   -8
  -5    2    6  -18  -11   30   -3    4   -1
  -2   -3    6  -12  -17   27   -4    0    6
   3   -2    2    3   26    4    0    6    0
  -2   -1    7   -8    9   19    0   -8    2
  10   -7   -2   14  -24    3   20   -7   -5
   2    9    1    4   18    5    3    4    1
   6    0   -4   21   -6  -15   10   -4   -9
  -8    2   -9   -1   32  -10   -9  -10  -10
  -7   -6   -5   -5   -9   -5   -6   -6   -4
  -8    0    0   -9  -36   -4   35    2   -4
   6   28    6   -6  -13   -6   -1   -5   -3
  -1   -5   -2   -4   -6   -4   -2   -6   -3
  -2   -5   -3   -6   -2   -6   -3   -6   -4
 -22  -26  -26  -10   35    2   -2   11    0
   2    0   -7    4   14  -16    3    5   -8
   2    4    2    2   24    2    2    2    1
  -1    5   -2    4   29    4    1    7    1
  -5   -3   -6   -4   -4   -5   -4   -7   -5
   7    5    4    2   35    1    2   10    3
  -1   -3   -1   -3   -5   -4   -2   -3   -2
   6    3    5    5   25    4    3    8    2
  -2  -15   -2   -8   10   -8   -3  -11   -2
  -8   -1   -8   13   27   13  -10   -5  -12
  14   17   13   11   32   13    9   12   11
  -4   -4   -4   -4   -5   -5   -3   -4   -5
  -4   -9   -4   -1    7   -2    7   17    7
  -4   -5   -4   -2   -5   -3   -5   -4   -4
  -5   -3   -5   -5   13   -8   -5  -12   -6
  -3    7    8    3  -11   15   -5    3   13
  -2   -2   -2   -3   -8   -4   -6   -3   -5
  -1   13   -1    6   27    8    4    2    5
   0    2    1    2   14    1    0    2    1
   9   25   -9   10    8  -20   -1  -10  -10
  15    8   -4    6   -3   -1    0   -9   -7
  -7   -5   -8   -5   -5   -5   -9   -5   -8
   5    9    5    0    9   -1   -8  -15   -8
   3    8    3    7   19    9    1    6    2
  -5   -5   -5   -5   -6   -6   -4   -5   -4
  -3   -4   -4   -5   -5   -5   -4   -4   -4
   6   16    5   11  -15   14    3  -11    1
  -6   -6   -3   -3    0   -5   -6   -6   -4
  -6   29   -5  -12   -9  -12    2    2    1
   2   22    3   -4   -5   -4   -1   -7    0
  -1   -9    9   -1  -15   14    4   27  -28
   5   28    6   -2  -10   -4   -1  -19   -1
  -1   -8   -4    7   36    7    0   -7   -2
  -3  -11   -1   -9  -10   -8    0  -13    0
   4    8    6    2   11    5    4    4    1
  -6   -5   -6   -4    1   -4   -4   -4   -4
  -6   -6   -5   -4   -6   -4   -6   -4   -5
   8    6    9    4   23    0    5    1    6
  -4   -2   -4   -4   -4   -4   -4   -8   -5
   7   -1    8    6   35    3    6   -2    7
  -5   -5   -3   -8   -4   -7   -3   -7   -4
  20   12   22    3   47    2   19   22   19
  -6   -5   11   -9   -6   16   -8   -4    9
   6   12    3    8   22    7    0   -1    2
   1   -9    1   -8  -41   -8   -2   -4   -1
  -4   -5   -4   -5   -3   -7   -5   -8   -5
  -1   13   -4   14   43   10   -4   20   -8
   1   10    0   10   17   10    3   16    4
  -7    0   -8   -3   29   -4   -9    4   -9
  -8    5   -8   -5   41   -4   -8    5   -7
  -7   -8   -7   -9   -7   -8   -6   -8   -6
  11   -8   -2   27  -11  -13    5   -4   -2
  -3    0   -3   -5   -3   -5   -7   -3   -7
  -7    6    4   11   -2  -15    9   -1   -7
   4   -6    5    0  -16   16    2   -5    9
  -5   -7   -5   -4   -1   -3   -4   -2   -5
   2    2    2    1   29    1    2    2    3
  -3    0   -3   -4   -3   -3   -5   -5   -5
  -7   -5   -8   -5   -3   -4   -7   -6   -9
  -9   -8   -7   -5   15   -6   -5   -4   -6
   0    7   -2    3   32    6    2    3    1
   9   25   12  -11  -26   -4   -1    2   -3
  -4   -5    0    9   -4   -8   14   12   -6
  -5   -3   -4   -3   -6   -4   -3   -5   -2
  -1   -2   -1   -2   -5   -2   -2   -4   -2
   1    2    1    2   33    0    0    2    1
  -4   -4   -5   -3   -5   -3   -3   -5   -4
  -5   -4   -5   -3    0   -4   -4   -4   -5
  -1   -2   -1   10   21   10    4    0    3
   4    3    4    4   29    5    3    5    3
 -28    3   29    1    2    2   29   -5  -29
   6   14    6   -4   -1   -4   -5  -12   -6
  -4   -4   -6   -6   -4   -7   -3   -4   -2
 -24   -4  -20   15   39   15   24   35   26
   1   -3    2    4   15    5    3    2    3
  -4  -12   -2   -9    6   -8   -4   -8   -2
   4    4    4    7    6    8    4    7    4
  -1   -6   -1   -4   -5   -5   -1   -4   -2
  11   -8   -2   23   -7    4    3    6   -1
  -4   -7   -6   -5   -3   -4   -5   -8   -6
 -14   -6   -9   -6  -19   -3    9   21    4
  -5   -4   -4   -5   -1   -5   -4   -4   -6
   0   -5    4    2  -14   20    2   -7    3
  -3   -6   -2   -4  -19   -4   13   18   13
   1  -13    1  -10  -20  -11    0  -16    0
  -1   -1   -7    0  -12   -2   -2   -3   26
   1   -3   -1   27    5  -26    1    2   -3
  -3   -4   -3   -4   -3   -4   -5   -2   -6
   8   13    8   10   -9   10    2   -5    4
   6  -14    5    9   24    9   -4  -22   -4
  -2   -3   -3   -4   -5   -5   -5   -1   -6
  -5   -4   -4   -4   -3   -5   -6   -5   -5
  -1  -13    0  -11   44  -15   -3   10   -5
  -5   -7   -5   -5   -4   -5   -4   -5   -5
  -4   -6    6  -15   -1   18   -5  -11   15
   0   10    0    3   24    4    2    3    3
  -5   -4   -6   -5   -1   -5   -6   -5   -7
   5    4    5    7   11    7  -12  -10  -13
  -4   -1   -5   -4  -17   -2    6   22    9
  -4   -6   -5   -4   -4   -4   -5   -4   -5
  -3   -3   -3   -3   -6   -5   -3   -4   -3
 -11  -19  -13    5   26   -4    0   -1   -3
   7   -1    6   21   11   21   -5   11   -3
   6    8    7   11   12   11    3   11    5
  -3  -19   -4    3   13    4    1    4    2
   0    2    1    4   13    4    2    5    2
  -2    0   -1   -5   43  -13   -2    1   -1
   4   19    4   -3    0   -4   -5  -11   -5
   1   -5   -3   29  -43   13    1    8   -1
  -3   -1    4  -13  -12   25   -5   -6    9
   6   -4   -5   24   -3   -9    3    2   -3
  -6    5   -5   -5    2   -5   -5   -9   -5
   0    7    2    6   41    7    3   -8    1
  -2   -4   -2   -7   -5   -7   -3    0   -3
   0    6    0    7   13    8    3    9    1
   9  -10    5   18   37   23   15  -16   12
  -1    6   -2   10   17    9    0   11    0
  -4   -3    6  -14   -6   22   -4   -3    6
 -10   -3   25   17   14   11   16    2  -25
  -4  -18   -6    4   14    4   -1    7    0
   0   -1    1    4   22    5   -1    7   -1
  -2   -6   -1   -3  -23   -3   -4   -2   -4
  10   20    9    3  -10    3   -2   -3   -2
  -1   -2   -1   -3   -7   -3   -2   -2   -1
  -2  -15    3    2  -30    8   10   11   11
  -8   -3   -7   -4   30   -2   -5   -9   -6
  -1    2   -1    4   14    5   -4  -16   -2
  -2   -3   -3   -6  -28   -6   -2   -4   -2
   2   11    2    6  -49    9    4   16    3
   7   -4  -10   11    8  -16    9   -1  -10
   2  -18    3  -10   46  -18   -1    1   -4
   2   -8   -7   13   -9  -13   17    7    3
  -1   -2   -3   -4  -10   -6   -3   -3   -2
   4    9    1    2   30    2   -1    5    1
  -1   -7   -2    3   39    7   -4  -22   -4
  -8   -2    6  -14  -13   25   -4    1    2
   8    7   10   10  -19    9    9    9    8
  -4   -4   -4   -2   -3   -3   -4   -2   -3
   3    3    4   11   28   10    1    2    1
  -5  -16   -4    1   -6    1    2   33    0
   0   -8   -1    5   -7    6    9    9    9
  14   20   15   30  -28   28   17   21   22
  -6   -5   -7   -5    3   -5   -5   -7   -6
  -3   -9   -7   -6    0   14   -7   11    7
   0    7    0    5   17    4    2    8    1
   3   30    4    0   -4    3   -1   -8   -4
  -5   -8   -4    8  -21   -5   26   14   -6
   2    5    3    6   16    6    0    5    0
  -5   -4   -7   -5   -6   -6   -5   -4   -6
   2    5    2    7   23    6    2    6    2
  -5    3    2  -18    6   10   -4    5    1
   1   10    2    8   10    6   -2    7   -2
  -2   -2   -2   -2   -6   -3   -2   -3   -1
   6   -1    6    4   20    3    4    5    4
   3    4    2    6    8    7    3    4    3
   5    2    5    5   15    5    4    9    6
