 -46  -11   13   38  -22   -1  -28   -5  -11   -3   -5  -14   43   -9   25  -21    3   24  -19   -7  -17  -48  -12    3   21  -11   16   -4    7    0   33   15
  -2  -15   -8    6   -2    1  -22   19   11  -25  -10  -21    0   -4    6    5  -34   -7   13   -9  -10   10   -2    1   -7    5   31   -7   -9   -1   19   -4
   6  -11   18   13   11    2   -9   -2    8   18   14    0    3   -4   13   -2   -5  -18    0   26  -15    2    5   22   -7   -1    3  -18   -3   -8  -19  -12
  11   -7    2    7  -16   -9   15   -5  -12    3   12   18    4   -8    1    8   -2   -4    6    0   14  -12    3  -13    0    6   -3    0   14   -1   -2   12
   1    8   16   -2   -2  -11   -5   -2  -35  -14  -14   -4   20   16   13  -25   13   38   27   -2   -8  -11  -28  -11  -22   -1    4  -34   -9  -18  -18    8
 -35  -45   31   10  -11  -41   10   27   19   17  -17   53   18  -20  -93    9    8    3   34  -17    1   14    6    3    7  -30    7   13   23   -5   10   17
  -1    0    0    3    0    0    1   -1    1   -1    0    1    1   -1   -1    2   -2    2   -2    1    2   -1    0    0    1    0    0   -1    0   -2    0   -1
  50  -25  -31  -14  -10  -16   54   34   44   46    7   -2   14  -20  -31  -48   -8   15  -16   -8  -90  -17    3  -16    7   19  -15   14   18    3   15   77
  34  -16  -22   58   -7  -11   50   11   22   59    9  -41    1   46   -8  -49   20   48  -47   24  -25    5   -1    1    2   29  -22  -41   36  -26   94   50
  20   10    7  -35   -5   10  -36   27   16   -8  -17   13   21    9  -10   15   -8   17   -9  -12    3  -32  -39  -26   21    3   -6  -26   37   -6    7   -2
   5    0  -59    1  -29    1  -25   15  -32    3  -21    2   17  -21    0   -2  -63   48   22   23   17   40    4   37    1    6  -10   44   30  -47   -6  -55
  -2  -10  -12  -34   47  -21  -19  -10  -25   14  -33   25   19   35   21  -33   -7    0   -6   46  -34   11   13   53    3   96  -14  -31  -19   38  -15  -60
 -20  -11  -24   -3   24   27    8   22   16  -26   -5  -46  -36    1   20   -5   -6  -24  -54   -5   14  -59    2  -15  -20   15    3  -15   22   61  -19   -6
  23  -21   -9    2    2  -25   -9   23    0  -23    8   -3   13   -2  -15    2  -40   -5   48  -14  -28   -3   10   14   -2   48   28    0   -4   16    2   -7
  41  -20  -10  -13   31  -13  -34   -5   -8   15  -24   18  -23    1  -56   23   -1  -18    2   -3  -14    4  -19   -4   -5    7   17   -2  -17   15    9  -15
 -16    3   33    5    9    6  -11   14  -19  -29   39   11    5    9    9    7   29  -17  -10   36  -57  -11    3   27  -32   23    2  -18  -14    9    1  -18
  19    6   -3    5   21  -20   24  -21   -2   23    2   42   16   19  -19    1   14  -23   14   21  -12  -21    4   25  -16   16  -23    5    9  -28   10   23
 -12   17  -31  -33  -36    6   -1    4   12  -30   32   25   18   36   -8   26   13   15  -17   17   12   26   22    3   19  -10    6  -32   41  -31  -22   12
 -18   48  -18   44  -16  -57   20   53  -22   25  -17   34    9   -2  -19    7   17   17  -20  -22  -59   -3   36  -15  -26   -7   41  -27   -6 -100  -73  -16
  16    8   23   40   29  -20   10  -19  -11   -2   14  -26  -17  -42  -20   -8    0  -64   -5   48  -54   -1  -20   64  -20    8   -6  -58  -35  -19  -51  -28
  24   35  -16    9   -8   22   25   -7    4  -40   14  -26  -14  -15   27   -9  -12   -2   23  -26   10   38   27  -15   16    9   26   -6  -11   16   30    8
 -33  -14    0   50   29  -15    4  -27   40   11    3  -25   24  -27   21  -11  -10  -95   47   -3  -50  -36   18  -10  -46   17  -12  -26   32   -1  -10  -56
 -35   53  -51  -28  -23    2  -30   19   12  -35   12   16   12    4   -2   -4    7  -18    0   30   24  -31    5   15   -4   26   -5  -64   76    7  -32  -17
 -11   34   14  -12   -3  -11  -30   14   45   14   -1   -9  -25   -2  -23   17   -3  -25   21   -5  -26    0   13   18   -2   13   -6   14    0   11    9    3
  -1   -9   39  -29    8  -14  -15   34  -19   -3   -6   37    3  -15  -45  -11   15  -19    7   39  -35  -22   -4   -8   17   46   -8  -20   18   16    9   -6
 -39   22   38  -25   14   28   23   34  -25  -39   52   11  -11  -23   37  -44   33  -13  -19   35  -43   -5   10   15  -17   35   -1    3  -44   -8   18  -33
 -61   16   55   14    6    9  -50  -22   22  -37  -40   -5  -60  -64  -42   72   19   58  -71  -56   13    5   39  -60   16   28   36  -63  -25  -63   19   46
 -16    1    1    3   16   12   -9    3    7   -7   10   -6   19    9    9   -4   10    6   -7   -6  -22    5   11   14    2    2    1    1  -12  -13   -5  -14
   1   -5    6   -7   26   12   -2   15    5    8  -18    0   -4   14   19    0   16   -2  -20    3   13   12   -7  -25   -2   20    5  -13  -36  -11    5  -21
  11   -2   38    4  -14    6   38   -9    6  -13   19    2   -1  -18   17  -15   -4   -9    3   -2   23   -1  -17  -11    6    1  -10   28   16   28  -18   21
 -30   28   -9    1   -6  -22  -24   47   -8   57  -63   25   -9   70   15   32   27  -24  -48   28  -26    8    3  -37  -47   27  -12  -64  -42  -66  -22  -45
  14    5   23   -9   11   22  -17   16   22  -23  -10   14  -10  -27   -4   -6   -8    8   14  -29   -9   -4  -28    4   13  -38  -11  -32   -2   12   32    4
   7  -28  -18  -22   19   19  -11  -11  -39  -27   -8   49   24  -38   10   23  -18  -10    0  -52    6  -24    9    8  -13  -17   12   -1  -54   19  -29    4
   8  -16  -43  -35   47  -72  -12  -32   22  -16   31  -20   13  -17   11  -42   33    0   28  -27   -5   10   -8   27  -19    4  -62   40   16   19  -24   64
  40   63   19   11    6   19   20  -12   56  -39   -8   22   -4   23  -86  -30  -38   38    2   22    8  -70   25  -22  -20  -31    5   -3  -43    5   -6  -26
 -43   17  -32   -4   -5  -17   -9    8   52  -18   15   -8   55   12   15  -15   -5  -21   23  -42  -20   13    3   -5   19   49    1  -19   47   -6  -25  -90
   3   15   12    0   53   31   27    1    1   -3   32  -34   24    4   50    1    2    5    2   -6   15   51   25   -6   24    3   -2   21  -42  -29  -18  -55
  32  -16   28   -1   -4  -11  -27   11  -10   15   -3   12  -16  -36  -34  -11   -4  -41    5   53  -36   -6  -22   22  -23   16   18  -32    3    5  -20    2
  45   23   36  -12  -65   38  -27  -27   -6  -25   -6    5  -14  -94   46  -15   -4   51   17  -11  -48   31    7  -29   50  -52   -1  -14   28   39  -29  -17
 -20   53   -5  -25   14  -27   -9    8   -1   32   14  -30  -25   29    9   14    1   22   49    6  -31    9   -9  -15    1  -42   31   10   -6   17    7   -8
  52   -1  -44   28   -7  -27    3   -8   -1   28  -63   -2  -13   -6   -8    8  -58   16   -7  -45   54   16  -14   14   35   -5   25    6    9    2  -17   20
   3   -3   -9  -14   34  -59  -36   12  -13  -29  -14  -36   48  -39   30   -3   42  -37  -41  -27    5   39  -13    1  -10    5    6    4   15   11   21   24
 -38    3   32  -30   36   13    2   19   -3    4  -31   10   -2   -6   31  -30    2   -2  -12   -3  -20   -8    4   11   28   -9   -3   17  -35   -1   13    4
  23  -14   -2   10   -4   11    5  -10  -15   -1   26   31    6    5   23  -10  -20   -2    5    3   10    6   -1   -9    3    0    1   12   17   20   19   14
 -16   51    3   10  -30  -32  -22    9  -41   30  -61    8  -13   -3   21  -14   -4  -22  -26   11  -52  -76   18   -6   -7    9   14  -16   26  -46  -18   43
  45   -6  -22   43   50   87   -2  -12   47  -75  -27   58   38  -23  -45    1   47  -32  -44   -5   37  -18   -3  -13    0   59   25   23    7  -12   45   24
 -28  -16  -41   -5   14   -6   17   34  -11    0    8   25  -26   12    5   11   15  -25   -7   -9  -34  -26    9  -41   34  -37   33   -2    2   -3   10    6
  -8   65    1   -3   19   21   50   15  -19  -23    9  -21  -23  -27   62  -51   30   14  -15   -6   15   20   15   17   34   30   -1   22  -42  -17    3  -35
  25  -58   53  -16    7    2   12    3   40   41   16    0   -2  -18    0   -6   -6  -25   17  -23  -16    9   22  -36   13    2   24   25  -59   15   30   24
  24  -40    4   29   22  -19   48  -24   34    6  -66  -64  -10  -54   -3   -3  -41  -39   57  -38    4   -9   27   -1    1   14   17   -1   -4   43   15   14
  -1   43  -56  -26   28   -3  -27   27  -22   -2  -47  -15   -4  -28  -11  -26  -29   15    4   18   46   -7  -47   37   24   22  -41  -12   16  -24  -19  -62
  25   -7  -15  -19   35  -99  -23    9   22  -11  -12  -40   23  -28   19  -29    2  -19  -40   10   -2   45  -16   -3  -23  -12  -19    8    9    8    3    6
  -2    3   85   -2  -47   45   14   12   -8  -38  -34   35  -65   27   62   -6  -11  -22  -58   -6    5  -16   -9   -8    7   44   57  -21   60  110   38  -30
   5    5  -52  -21   11   -2  -55    0   26   25   13  -13    6   17    2   24   -5  -15  -18    0  -22  -35  -10   -5  -47    1    6  -25    4    9  -16  -23
 -29  -56  -20    4    8   -9   -3   29   26   -7  -20   33    2   -3  -56    0   22    6   10    1    3   30   20    6  -24  -18    2  -12  -27   31   17  -18
  29  -19   39   11  -17  -26   51    3   17    2   17    6  -44   -9  -19   -4    2  -69  -16  -16    1  -12  -19   29    6   24   50  -29  -52   26  -18   73
  13    1   -4   28    8    1    0   18   -7    0   11  -13   -2  -13    4  -19   14   21   -4    3   -6   -5   21   -2   26    6   15  -22   21   19   35   -1
  -3  -11   -2    5   11   -9  -15    0    7    1  -38   -3   25    9  -30   -9   -6  -11   29  -16  -15  -22  -10   14   -3  -10   -1    0  -16   -9   14   12
 -37   86   12  -51  -10    7  -31  -35  -28   54    8  -31  -16   22  -12  -23    0   18   83  -25  -56   15  -16    3  -20  -58   39   13    2   14   28  -15
 -58   34    9   -5  -13    7   15   43   11  -75   37  -11   -7    2    2   -5   32   -6    0  -15    5   -8   25   43   27   16   -8  -17   42   35   -7  -15
   4   -6    2   28  -17  -16   23    8    2   14    7  -30   -1   18   -2  -28   19   25  -20   25   -7  -15   22    8   15   10  -19  -12   40   15   26    8
   0  -12   27  -15    7  -11   -5   17   -6    9  -11   13    8    1  -23   -6    6    0   13    1   -7   -9   -1   -7   16   14   -6   11   -7    7   18    2
   1    5   -9   -8   10    3   13    5    9    6   -3    5  -11    6   12    5    7   -5   18   20  -14   -2  -14   -8   10  -14   14   11   15   -4    4    2
  -5  -10   26  -17   15  -29  -23   47   -4   19  -20   19   -5  -48  -47  -48  -13  -45   -4   23   -4  -33  -30  -21   15   36   -9  -14   36   21  -13  -10
  14  -61   39   62   15   25  -34  -11   -6  -16   34  -22   11   11   -8   61   41  -49   39   39  -49    9   37  -33  -56  -43   -2  -51  -56  -16    3   26
  27   46   12   10   -8   76  -21    6    1    2   -8    7   43    7  -49    1   11   -4   27  -35    9   -3   31    7  -26   19   -8  -16  -23   27   10   13
   4   12  -26  -23    1   -3   50    9   26   -5    2    3  -31   19   22  -20   47   34    8  -21    1  -14  -11   -3   -1  -21  -36   30  -16    6  -53   13
   7  -23   34  -19    3   -4  -31   52    5   19    9   -8  -23   -2  -67   29   28    0    3    2   16   -4  -23  -22    1   20    4  -21   25    0  -22  -27
  27  -25  -35    6   13  -12   26  127   58   21  -21  -13   47   26   42   -8  -18   25   21   46  -57  -21    4   -3  -40  -15  -66    6   11   52  -71   30
   7   17  -53   30   11   18    4  -28   20    8   14  -39   16   12   41   13   13    7   -3   -6   12   20    7   12  -27  -33   -2    1   -8   -9  -32  -54
  -1    3  -13   43  -13   -3    2  -16  -23   -8   20    5  -48  -23  -27    0   40  -66    5   51  -47  -21   -7   33  -72  -17   19  -45   14   33  -23   -3
  31   33    5  -10   -6   20   -5   23   -4  -21   22   -9   -3  -14  -26   -3  -26    5    6  -55   -4   -8   13  -14   18  -26  -53  -61  -36   23    2    3
   3   32  -34   -9  -26   -6   15   28  -25  -29  -27  -24  -21  -12   -3    1  -16   16   -5  -23   63  -18  -25   14  -11   16   -7   17   31   12   34   -5
  34  -38   66  -10    0  -21  -36   36  -24   13   -5   30  -17  -23  -87  -17  -11   -7   26   -1  -15   23  -38  -20   33   53   30    5   10   16    4  -11
  11    5    5  -26   15  -23  -35   36  -16   -1  -42   12   29    0  -39   -2  -33  -10   22   17    4  -15   -8   -2   29   30  -24  -15   67   -4  -22  -28
 -11   10    0    8   -5  -12   25   -9   10    6   15  -14  -22   -9  -10    5    8   -7  -10  -12   -1   31   -2  -19   12   16  -24  -20   -1  -10  -15   27
 -20   14    8   -8   12   14  -22  -33  -16   -6    2  -11   11   -9  -26   11   -5    0    2  -15    4   13    7  -14   -7   16   20  -17  -10  -18   10    5
 -29   71   18   50    6   75   38   -6   -7  -40  -41   49   13  -17  -52   16   -5   -9  -14    9   -8  -29   -7  -12   10   21   56  -22  -11    8   -4  -15
   4   26   25   18  -24   37   42  -21   11   -5  -12   27    4   12  -72   -9  -43   11  -18   32    7  -44    7  -29   -2   -4   -1  -10  -30   -3    0  -23
 -29  -19   30  -13   30   18  -22   50   27   17   11  -36  -39   12  -68    7    9    8  -35  -37   21    3  -28   -8    1  -20   -6  -12   -1    8  -27  -13
  -8    0  -11  -15    5  -25   29    5   -4   -7   -5  -49    3   31   -8   31    8    1    1    4   12  -12   69  -26   -4   36   15  -12  -27   -1    5   26
 -24  -15   -6   15   12    9    6  -14   -5   -5  -14  -37  -31   23  -34   12   28   -9  -15  -17  -64  -15   12  -45  -53  -18    4  -16   -9  -37   -4    9
 -28   17   16    5   15   28    9   12  -12  -34   48  -14  -21   11   19   -1   30    7  -35   22   14   18   18   26    5  -19  -13   -3   -7   15   -8    4
 -54  -17    2  -20  -14  -18  -73  -17   16   44  -14   -3   13   -9  -34  -22  -23   16  -11   16  -37  -57  -13  -22   -6    1    2   17    4  -21   -9   21
 -19    7   31   12  -19   -9  -14   32   11  -29    3  -47  -25  -70    2    8  -28   16   -3  -43   19   27    4  -37   16  -14   -4  -43  -10   42   13   10
  21   57   14   42  -49  -32  -25   58   53  -14    5   72  -21  -73   56  -51   52  -34   26  -31  -33  -27   20   10   41  -17   -5    7   -8   41   24    9
  11  -34   67   24    7  -13   27   -9   -6    3   44   -4    2  -30  -23   29   13  -15   30  -14  -39   -2    8   -4  -15  -12   24   -4  -18  -11  -12    3
  13   -9   21   28   -4  -13   30  -22   -9   11    3  -15   -8  -33   -4   -8    6    0   40  -29   -1   -4  -19   13    3    2   10   21  -45   -5   18   27
 -32   -5  -14  -25   34  -27   19   30   17    8  -13  -35   -7    4  -45   19    9   -3    5   -9   -1  -19   32   10  -30   -8   22  -22  -34   -7   -4    9
 -22   25  -26  -12   22   -2   16   42  -26   11    9  -32   -6   17  -20   11  -12  -11   23  -13  -39   -9   -1   -4   16  -61   75    9   -7    6   19  -14
 -39  -11  -29  -19   27  -15   11   36    5   -2  -30  -47   -7   19  -60   20    8    1    8   -8   10  -21   32    7  -32    7    7  -10  -25   -3   -8   10
  -9   23  -14  -24  -23    0   -9   23  -20  -28    3   -8   -9   10  -18    1   -5   24   -6   -6   27    3   -7    7   14   20   11   19   19    8   15   -4
  34   22  -38  -35   10  -35   25  -51   -9  -27   45  -17  -13  -24  -43   14   -7    1  -11  -27    1  -21  -17   25   -1   89   23   28   16   18    2   -5
   1   19    8  -26   18  -22    0    9  -40  -31    4   20   36   18  -32   29   13   32  -33   43  -16    9   11   56   12  -28  -60    0   -2  -30    1   38
 -15    7   41  -15    6   18   46  -10   -3    2  -25   21  -11   -3   43  -20    2    7  -12  -16    1   10   29  -22   16  -49   16   39  -49   -5   17   34
  -2   63   15   28   24   26   13    4   28   11   -9    3    5   -2  -14    6    3   44   42   12   -9   29    7    0  -29   36    5   16   18   16  -17   44
 -15  -52   76   15   -1  -21  -20   45    0   19  -31   26   -7  -36  -73  -61  -10  -50   42   20   23  -27  -15   -8   56  -11  -18   28   22   32   20   49
  -7    6  -18   -7   -1   -7  -46   24  -10   -5    1   20    5   26  -15    4  -17  -21  -27   46  -20   -3   -8   47  -22    9  -15  -26   -1    0   -6   -4
  -1   60    1  -24   -5    2   -4   16  -48   41    6  -14   29   27  -40  -35   -5  -10   25  -36  -31    6   14  -20  -36  -54   37   -9   -6   -4   -5   -6
  -4   28  -30  -22   20   11  -26    6   -4   -8  -24  -26    4   19    3  -12  -14   18   -4    7   -4   11   -2   34    8   18    6   11  -16    2    2  -32
  58  -12  -36   -4    2    1  -12   15    3   29  -28   -6  -25  -15  -30   36  -31   33  -10  -18   38    5  -35   16  -17  -29   38   -7  -11    9  -32   21
 -24    2   -4   30    1    4    4   -1   16   -8   -4  -25    6  -15   -9   -9   15   19   22  -38   40   14  -16  -14   23    5   12    2   17   -7   20  -40
  10   -4    8  -20    5    1   -1   10   -8   -7    2   13   27   23  -11    5  -25    7  -11   34  -23   10    5   58   10  -11  -31    4   30   -8  -19   15
 -27  -67  -37   40  -33  -43   15  -22  -26   -5  -16   79   29   59  -17   -8   34    8   31   49    9   27  112  -12   -6   26   23   62  -30   39    9   14
   3    2  -20    1   19   15    1   12   16   -8    6  -22   19   13   -3    5   15   16    9  -33   -7   -5    6   24  -13   -5    8   12  -40    4    5  -12
  12    7  -23   10  -18  -10   -3  -33   10   11  -29  -12   22   25  -16   25  -30  -22    3    7  -22   -5  -11    7    4  -29   -5  -31   23  -35  -29   53
 -12  107   26  -39   -6    6  -24    0  -41   56   12  -33    6   32  -34  -27   -5    0   57  -33  -34   31   12   10  -23  -47   49   -6    4    6   16  -11
 -13   39   42   29  -13  -29   16   12   20   11  -15    1  -71    5   31   28   54   -9   15  -15   32   68   19  -48  -18   23    4  -11   37  -20   -9   53
 -33  -18   -7  -12  -19  -19   26   -8  -11   30    0   -6   12   45   -6    6   10  -12  -28   11   35   -7   13   -8  -18    4    9   25  -10  -19  -11  -12
 -11   12   -9   22    5  -37  -18   -8   -3   12   15   28  -19   34   24    0   17   60   50  -26   -5    9   37    2  -22   30  -22   -8  -17    4   -8   39
 -45   17  -51   14  -21   34   37  -11   30  -16   11  -10    3    5   67   -9  -12   -1  -29  -23   -3   23   19    0  -36  -39    1   12  -32  -32    3    1
  41    2  -19   -6  -18  -10   19   53  -52   11  -27  -17   55   45   12   -1   11  -11   50   23  -18  -10  -34   22  -25  -77   13  -31   -4  -28   -5  -34
  37   -9   19   41  -63  -34   14  -84   -2  -14  -63  -12  -23   18  -39   25   17   33  -14  -78    3   32   -8  -21   27  -40   41   15  -11  -45   14   26
 -10   -9  -14   -1   40    6   60  -24  -15  -25   13   -1  -14  -13  -23   -3   51    8  -24  -43   35    7   16  -23   28  -28   -4  -18  -20    4   12   -3
  11  -25   37   48   64    6   15   -4   -4   38  -49  -36  -19  -10   21  -19    1   -6   17  -24    0   -4   23  -12   26    1  -20   38  -57   13   -6  -38
  33   -2  -12   35    6   -6  -16    1    2   -9   10   59   11   13   23  -12  -10   11    4  -19  -13   -6    5   -8   11   15    6   18   -2   -3    6   12
  -5   -4  -23  -18    2  -16  -27   10   20   14  -14    6    7    1  -36  -14   -8  -13   15  -12  -11  -20  -25   15   -3   21   13   -6    3    9    3   -9
   3    3  -18    5   -5   -9  -18    3   11  -20   14  -19   19  -14  -10  -11    7    5   16    9  -16   13  -22    4    1   26   -3  -17   13  -23   -3  -24
  48   22  -47  -45   18  -15   11   32   15   -3   10    5   12   -1  -15   17   19  -34   -8   25  -29   16  -19   39  -11  -10  -44   -4  -48   -8   -5    2
  -2   -8   18   -7   -2   43    2    0    1   35   49  -22  -22  -13  -11  -19    3   -7   11   31   64   -3    4  -85   22  -41   -1   19   14  -20   -4   44
  -9  -31  -17  -10   -5  -12  -13  -19   -8   -1   -3   -7   -1    9  -16    3    2   -6  -33  -20   -7  -24   12    4   24  -12   10   -4  -14  -12   41  -13
  -2   86   39   42    0   27   10   14   12   31   -7    8   18   -9  -37  -13  -15   21   40   27   -1   16  -14  -11  -21   35   -5   10   30   37  -33   36
  10  -13  -19   17   12   17  -44    1   11    8  -12   63   14    8   51  -20   26   37   -7    5  -28   56  -17  -25   -3  -26   -2  -18  -54  -30   39  -54
   2    6    1  -11   -6    0   42    8  -12    3   14   11   -9  -20   -6   -3    6   -7   -8  -16   24   12   18  -28    3   12  -26   -6   15   -2   22    8
  10  -19   50   16  -17  -25   60    2   19   -6   20   -6   29   -9  -12   13  -16  -69    5  -31    9   -2   -7  -11   13   20   10  -36    2    8   -5   32
  21    1  -36   10   44   -4   -7  -18   32   20   -4  -18   14   39   23   -1  -10  -25  -18    9  -48   13    3   39  -38    3    5    4  -22  -18  -19  -31
   0   -1   -9   -7  -49   -6  -67   56   10   15  -13  -17    5   -4    6   19  -15   17   24   18  -29  -14   31  -36  -13   24   -9    2    1   -7    3   -6
 -19   -7   13   13   27   34   12    3    0   -7    4   -3    7    2   50  -30   22   12   -5   10   -2   35   20   -2   20  -17   -5   26  -59  -20    1  -35
   4  -16   12    5  -56   22   23   -1    9  -30   29  -23  -18  -29    3   43   25   39  -13  -39   28   25   14  -67   -6  -15   41   10    0  -15    5   10
   7    4    4   -4   -2   35   -3   -9  -12  -11    8    7   18   16   65   -2    2   18   -1    2    6  -22   34  -14   26   -3   15   31   -3    1    5   16
   4  -17   34   28  -15    6   27  -22    3   -4   50  -28  -48  -18   -8  -19   24  -38   -8  -21  -29  -24    4   -5  -27  -27   60  -23   -3   52  -18   40
  20   13  -15   -5   34   15    7    5   23  -17   -7    7   17   16   11  -10   10  -25   -7  -31   -9   -4   -1   12   34  -18  -32  -14    8  -22   -2   17
  19   66  -13    6  -13  -13   50   18  -52   46   11    2   25   56  -34   13    2  -97  -28   17  -11   33  -49  -22   21  -45   25   17    5  -16   16  -47
   3   16   15   25   -8    9  -20   17   -2  -10   26   -7  -41   13  -33   -1   32   16   -5  -69   -3   -6  -56  -64   12   -9  -21  -46  -17    3   -8   40
  11   -7  -46   -4    4    7  -16  -21   11   23  -36    5   -3   36   33   -4  -15  -33    3   10   34    2   -2  -43  -15    2    9  -41    3   43   12   17
  12  -12   -5   31  -10  -12   44    2    8   30    8  -47  -13   38    7  -13   10    2   -3   15   -7    0   14  -19  -15   23    7   17   -2  -15   17    5
  32   11  -49   30   -2   -3  -10  -22   13   31  -60   -9    8    5   19   12  -45   -5   15   -6   48    6    4    4   24  -18    3  -14   25  -15  -42    7
 -13    6  -64  -28  -18    0   -8  -11   36   -9  -17    3   20   48  -15   -6  -11    1    6  -18    5   14   22   28   23    9   13  -22   -9   18   -4   19
   1    1  -20  -10   14   -8  -24   -1    1   -2  -11   15   -7   24   -4   20    6    2    2  -34  -19  -25    6   13  -14   21   27  -32  -12   20   31  -10
 -18  -19   17  -16  -56  -20   81    5   -7  -20  -21   -6    0  -54   33   30   33  -15   19   31   68    4   82  -26  -28  -13   27  -11   -9   49   37   -4
  26   12    2  -11   -5   69  -15   15    3   18  -10   -2   36    7  -44  -17   17  -13   11  -32   -2  -11   31   13  -35   13    6    2    0    0    0   11
 -21   18  -10   22   42  -21   51   18   39  -30   -2   13  -65  -21   29   48   -4   16   18   -3  -13    3  -41    6   23   17   16   27   24   12  -13   42
  64  -42   24    8   -1    4  -40  -13  -37   26   -2    0  -16   -9  -33   26  -22   -2  -20   34   -8   -3   -1    4  -15   -5   37    5  -21   -5  -33   54
   8   -8    1    9  -21  -17   31   66   11  -32  -11  -38   -2   -1  -62   21   56   12   21  -27    5    2   42  -18   -7  -46   10   -8  -16  -28  -39   21
 -20   82    6  -29   -7   -5  -10   -9  -31   58   18  -61   -7   26  -15   -3   11   18   77  -13  -45   39   -5   11  -27  -23   37    0   14   10   19   -1
  -6   -4   -9   14  -10  -14  -15  -42  -30   -8    2   11   17   10  -18  -10    8  -22  -14  -30    4  -39    8   18   13  -12   32   -8  -14   -6   54  -13
  19    6    1  -19   46  -80  -44   13    0  -36  -25  -41   45  -34   29   -9   53  -39  -62  -23    5   52  -13   -7  -21    1   23   12   20    5   14   32
  51  -15  -28  -38  -55  -11  -34   -6   -1  -17   12   -9   22  -14  -26   65   46   24   37   16  -34   -7   23  -76    3   46   11  -33  -13  -21   -8   -6
 -10  -20   22  -13   10   -6  -28   20   10    5   15   27    0   20  -51    3   14   15    0  -14  -18   -9   -8  -12   -1    6   -5    7    6   15   14    3
 -37   44   -4    8   -9  -14    5   13  -30   34   30  -27    5  -35  -19   28  -45    4    0  -54  -10   22  -11   -8    4    4  -65  -84  -65   54   21   -7
  -5  -10   18   39   26   15   -7  -40   22   23    2   -3   26  -12   36  -21   25    3   29   -9   21   13  -13   27    8  -27   49  -29  -27   16  -10  -35
 -61  -20  -28    8   -9   -9  -41  -12   24   21    5   15  -59   -8  -23  -11   29   47  -49  -68  -41  -53   47  -13  -11   16   19   16  -14  -57  -33   17
   1  -19  -18   34  -14  -25   23   -6  -49  -33  -35  -24  -41  -37  -71   41   32   56  -12  -21  -50    6   18  -21  -72  -13  -11   26   23  -58  -34   -3
 -28   50   22  -24   -1  -31  -13   12  -12   51  -18    0   -6   27  -19   -9  -15  -10   45   23  -37  -10  -30  -22   -9  -48   -8   -5   20   -1    2   20
  26   12   -4   -1   69   22   32   21   -4    8    9  -37  -24   -6   67  -30    8    1  -25   12   42    8   -2    3   16    0    4    4  -61   -6  -19  -36
  53   70    4   60  -12    6  -41  -68  -28  -19   43   38   -1   -8   39  -54  -14    4  -15  -35  -43  -11  -84    4   63  -14  -20   37   14  -21  -18   10
 -46   -4  -13  -12   -9   41  -25  -16   32  -14  -64   22   13  -13   49   -7   34   -4   10   30  -11   27   47  -25    0  -55  -16  -45  -49  -18   28   10
   7  -23   29    1  -48  -23  -20  -14  -25    1   -2  -41   -7   12  -27   10    0  -10  -15   12  -15  -32  -23   13   31    9   40    2    1  -20   12   -6
 -56  -32   37   -1    0   -9   -5   30   19    8  -15   56  -25    7  -32   -2   18    7  -30  -23   -3   28   -5  -26  -16  -26    2   -4    7   35   22   -8
  11   27   -5   10    8   55    2    6    5   -1  -10   11   40  -11  -25    8    7   -1   -2  -17   -1   -1   11    4  -22   22    7    0  -19   13    0   12
  -2   31    0   -1   -8   20  -14   15  -35   -9   57    1  -13   -4   17   23   51   79  -40   -5   13   -2    7   18  -18  -42   38  -17   -9   -1   -9  -20
 -32   19   13  -13  -48  -10  -22   32   -2  -57   32   -4   26    7  -39   -9    9  -13   10   13   -6  -16  -13   20   16   47  -12  -20   58    5   15  -11
  11   26   18    4   37   16   48  -20   23   13   11    3   14  -18   32   -7   36   14    0    6  -23   18   17   46   23  -22  -25    3   -1  -11  -40  -25
  -4    3   33   24  -33  -18    0  -40   17   23   -7   10  -29   79  -18  -20  -14   40  -23    3   -2  -40  -26   21    4    5  -18   27  -21  -14  -34  -23
  28    0  -34   61    1    8   22    3  -12   22   20  -11   10  -41  -13  -57   28   78  -36   20  -52   22   87   -7   57    1   11  -51   65    0   63   19
 -31  -19  -51    2    6   -2  -31   -6   -8   -4  -10  -17   29    8    8   -8   14   48  -16  -22    3  -48  -18   30  -15    1    6    4  -33    4  -11  -15
 -23    1   20  -14   12    4  -19   12  -24  -31    1   11   26   30  -23   22    6   17  -22   15  -28  -10    8   31   -5  -27  -14   -9    6  -31    3    7
   5   23   21   11   26   23    5  -13  -25  -32  -10  -39   -7   23   62   -1   -6  -14  -12  -17  -24  -16   43   -9   27    4  -13   20  -53  -17   19   27
  14  -11   -6   36  -13  -21   27   27   35   42    9  -55    5   37  -25  -19    5   26  -32   17  -21  -19  -29   16    2   27  -17   -6   37  -24   45   42
 -47   19   -6  -11   16   15   25  -16   20  -25   -7  -24   34    3   32  -30   -2    1   15  -11  -22   22   37    8   35    8  -20    9  -12  -26    1  -35
  34   -8    7   56   -7   18    1  -22  -50  -25   13   -4  -28    2  -15   25    3    9  -41   11  -21   33   -3   10  -17  -40   -5   13  -35  -19  -16   33
  -4    8  -16   25    5   17    7  -22   12    0    8  -14   -2   -5   37   -2  -21   -1   -2    9   42   27    4   18  -27  -16   -2    1   -3    1    6   -9
   6  -54  -12   53  -16   26  -56   82    2  -67   43   21   -4  -30   39   17  -73    8   39   -4   15   37   44  -36  -26   74   75  -31    4    4   49   -3
  28  -13   20   49   22  -13    2    2  -44   -7   22   84    7   -5   58  -13  -42   30   27  -22   19   -7   48    3   22   -2   13   10   21    8   43   23
  19   12  -66  -10    8    9   -5   12  -19   24  -51  -23  -25  -25   17  -33  -27   26   -8   16   51   12   -5    4   23  -13   -5   31  -46  -14  -15  -17
   8   17    6    3   -3   58  -33   19  -14   31  -23  -17   65  -19   -7    3   48  -15   -5  -43   -1   38   14   10  -30   25   15   22   16   20  -22   37
 -23   14   12  -48  -43  -37   -7  -10   -6  -28  -11  -16   -5    1  -49   26  -32  -44    3   -4  -11  -18  -19  -11   -8   41  -19   17   19  -34   12  -23
 -18    9  -12   13  -42  -17   40  -75  -40   42   70    7   -2   10   -7   -4  -27   -7   -6    4   16    3  -63   -8   29    3  -15   57   18  -27  -15   31
 -14  -17   12  -17    2    1    0   35   -2    8    0   16  -27    0  -10   -5   27  -11    8   -8    7  -24   21  -37    8   27   13    5  -17   -7   20    9
   6    6    5  -42  -18  -19  -38  -28    9   31  -36   56    5   16    9   21   14   21   -3   28  -54  -42   21  -73  -30   -2   16  -41   25  -55   20   15
  17    2  -18   18   23  -17    2  -18    3   17  -49   -9   20  -19    3  -13   -5  -19   33    4    5    1  -14    4    0    0  -24  -15  -10  -10   -3   -5
   4   -2   69   22  -62   28   52   -1   -9    7   27   12  -29  -48   61   -4  -10   37  -14  -24   26    4  -31  -25   12    1   -2   11   44   20   -6   24
  11  -29   -7  -33  -30  -40   42  -24  -35    2   -3   32   13   33   13    5    2  -56   -2    1    9    3  -55  -21  -22   -4   -6    8  -20  -21    3   -3
  74    8  -62   -3   52   -8  -16   27   16    6   -6  -12   29   -7    2   25   -6  -27   12   57   25   24  -25   37  -19   -7  -44   -9  -58  -27   -5  -23
   4    6   22  -10  -21   12  -46  -14  -12  -43  -49  -41   53    9  -12   56   34    3   32   50   -3   14    1   12   16  -18   23  -42  -22  -29    3  -72
  33   -7  -39   -9    4  -27    5  -25   45   58  -25  -29   -7   19  -13  -40    4    1   45   -2  -48    6   -4   12  -21  -21   -6   28   -7    6   14    6
  47    9   -3   65   -4   13  -48   10   -3   -9  -36    2  -38   -3   13   35    6    9   18  -28   -6  -19   16    6   33  -32  -10  -13  -35  -44  -43   33
  38  -50  -26  -39   21   43  -14  -17   26  -29  -19  -16  -26   39  -18  -24   44  -18   26   10  -25  -15    6   17   -8  -24   40   41   45  -51   -4    5
 -56   47   -3   13  -30   16   22  -34   23  -33  -23   22   11  -24   38  -27  -10  -51   -6  -16  -46   16    6  -13   -2  -17  -24  -24   12  -53  -12  -25
 -38   10  -28    4  -20    5  -19    6   17   -7  -15   -6  -42   36  -37   -7   25   34  -56  -56   -8  -10   28  -15   24  -17   30   -8  -20  -55  -32   28
 -64   45   -9   70   31  -33   41   10    4  -11  -22   -1   24  -15   -4   79  -17   36   -7   40  -10   14  -66   -9   23    9   56   35  -24   31   -9   15
  -1   36  -46    9   -5  -24  -60   22   -6  -22  -54  -16    9    7    8   36  -43    8   22   21   -3  -21  -12   37  -10    3  -26   27   30  -14   28  -40
